0.0294488	0.0283565	0.0226191	-0.0128541	-0.023728	0.0179295	-0.00697475	-0.047493	-0.00655388	-0.0303707	0.0268247	-0.0367785	0.0250337	0.021183	-0.0345923	-0.0107647	-0.010197	-0.00651209	0.0474224	-0.0167401	0.048333	-0.00864917	-0.0178962	0.0170144	-0.00935046	0.0134907	-0.0165643	-0.016703	-0.00516703	-0.0416858	0.0252176	-0.0119626
0.359197	0.484946	0.2498	-0.201839	-0.285265	-0.33931	0.536604	0.229448	-0.262257	0.545162	0.248053	-0.395834	0.447124	-0.27408	-0.493362	-0.262395	-0.559239	-0.484028	0.400294	-0.374559	-0.368267	0.459089	-0.456602	-0.36505	0.507867	0.245046	0.268041	0.515655	0.291606	-0.401046	0.307236	0.0687975
0.389117	0.156408	0.508058	-0.374356	-0.60954	-0.277429	0.350609	0.197622	-0.363503	0.211119	0.531832	-0.370755	0.433076	-0.175769	-0.4193	-0.412416	-0.360682	-0.474264	0.250784	-0.708767	-0.470611	0.375232	-0.264066	-0.576759	0.277867	0.506098	0.612619	0.350958	0.38878	-0.605376	0.201164	0.511031
0.308106	0.288798	0.505488	-0.318763	-0.468657	-0.431018	0.46792	0.320743	-0.397196	0.268061	0.404731	-0.327034	0.442157	-0.276132	-0.465726	-0.390569	-0.430877	-0.51414	0.305431	-0.528042	-0.500788	0.25388	-0.477329	-0.462805	0.146889	0.502866	0.459461	0.373726	0.321518	-0.561677	0.13457	0.420756
0.708289	-0.256262	0.542134	-0.639706	-0.65801	-0.0560736	0.478581	0.384691	-0.632373	0.162612	0.502186	-0.609869	0.418445	-0.198226	-0.638917	-0.233536	-0.367564	-0.716391	0.105525	-0.417207	-0.525139	0.0448845	-0.224911	-0.620832	0.666838	0.641058	0.745656	0.556123	0.494795	-0.590505	0.127344	0.387369
0.539498	0.212337	0.444679	-0.470506	-0.603721	-0.0896878	0.596413	0.281809	-0.547829	0.286758	0.438983	-0.587449	0.429164	-0.179316	-0.420909	-0.230133	-0.477984	-0.623505	0.288896	-0.208193	-0.191303	0.244747	-0.36843	-0.519092	0.567197	0.646465	0.553746	0.605148	0.424481	-0.352573	0.289851	0.0440003
0.502499	0.24046	0.400029	-0.448324	-0.441638	-0.162032	0.50491	0.221593	-0.521018	0.3331	0.2554	-0.452883	0.538804	-0.328235	-0.461072	-0.160432	-0.406077	-0.463991	0.272337	-0.157033	-0.169736	0.200246	-0.366812	-0.464871	0.49899	0.488219	0.418125	0.500389	0.307352	-0.37425	0.192752	-0.00582537
0.463508	0.363131	0.46624	-0.26486	-0.503272	-0.150549	0.0747349	0.631121	-0.428789	0.213684	0.545043	-0.481215	0.199207	-0.253334	-0.42566	-0.487892	-0.255662	-0.495877	0.20976	-0.276995	-0.474039	0.195735	-0.236654	-0.388893	0.509932	0.515129	0.535691	0.464102	0.525592	-0.229255	0.332233	0.341275
0.429914	0.120416	0.45288	-0.605716	-0.510474	-0.185702	0.662122	0.164483	-0.554749	0.376342	0.28925	-0.632246	0.531844	-0.435102	-0.753165	-0.167703	-0.564911	-0.559362	0.279634	-0.314014	-0.180383	0.218591	-0.290531	-0.63927	0.505558	0.73874	0.435854	0.53427	0.402843	-0.462697	0.191716	0.0937697
0.616567	0.126325	0.304187	-0.48751	-0.462608	-0.279321	0.568919	0.35144	-0.426229	0.472068	0.314208	-0.589022	0.59642	-0.420313	-0.565917	-0.228106	-0.525165	-0.335469	0.480055	-0.175547	-0.218998	0.237518	-0.480499	-0.38682	0.606598	0.452165	0.367569	0.511612	0.384299	-0.370575	0.416724	0.240217
0.374312	0.881575	0.387045	-0.134714	-0.331145	-0.25618	0.186114	0.652698	0.0678084	0.309308	0.560501	-0.211659	0.134874	-0.125922	-0.192923	-0.596987	-0.356546	-0.215598	0.336683	-0.569231	-0.641813	0.516963	0.173449	-0.247197	0.31469	0.251403	0.566803	0.299278	0.587054	-0.206388	0.292454	0.206299
0.647945	0.256489	0.494729	-0.365261	-0.524023	-0.0885051	0.408638	0.407092	-0.356299	0.259759	0.449471	-0.63547	0.367318	-0.0861101	-0.50447	-0.291146	-0.330825	-0.570775	0.240296	-0.237652	-0.438125	0.210497	-0.231229	-0.667781	0.641311	0.584163	0.507832	0.523812	0.600505	-0.583444	0.179199	0.0580027
0.695646	0.134698	0.34316	-0.280441	-0.351236	0.0247819	0.37327	0.423558	-0.214514	0.342302	0.425672	-0.682369	0.383606	-0.158083	-0.512865	-0.362642	-0.485369	-0.502789	0.264632	-0.13729	-0.573026	0.239267	-0.0900825	-0.715608	0.722888	0.64848	0.417094	0.466547	0.59335	-0.560303	0.184245	-0.0727483
0.234903	0.175618	0.67756	-0.435524	-0.269109	-0.529364	0.374393	0.174827	-0.510105	0.182332	0.541255	-0.0739258	0.609727	-0.281666	-0.353883	-0.428669	-0.31272	-0.50711	0.172803	-0.69086	-0.57743	0.514904	-0.697578	-0.326889	0.160151	0.282209	0.607625	0.149792	0.235321	-0.613903	0.465707	0.493465
0.476065	0.0564618	0.406467	-0.405944	-0.352651	-0.269545	0.445338	0.410798	-0.471369	0.24704	0.455819	-0.518836	0.437763	-0.378554	-0.353741	-0.36674	-0.262009	-0.513851	0.379827	-0.236282	-0.368799	0.32797	-0.0647173	-0.344757	0.655414	0.537066	0.567296	0.389125	0.617212	-0.261104	0.459441	0.528003
0.387888	0.544894	0.614164	-0.303056	-0.348849	-0.550368	0.320701	0.521479	-0.30742	0.335587	0.579331	-0.433404	0.446646	-0.526789	-0.39727	-0.606063	-0.406925	-0.397029	0.371426	-0.503485	-0.583333	0.410473	-0.0971609	-0.454604	0.276107	0.432874	0.423405	0.30882	0.376089	-0.447897	0.317078	0.164176
0.674369	0.254127	0.685848	-0.481668	-0.747989	-0.220349	0.290438	0.515119	-0.351508	0.0956246	0.603735	-0.479612	0.190904	-0.0996637	-0.630214	-0.487343	-0.227829	-0.55371	0.143798	-0.631968	-0.602702	0.154441	-0.161709	-0.601193	0.504941	0.573568	0.682622	0.498947	0.611942	-0.568475	0.242467	0.692599
0.310397	0.486025	0.57223	-0.516511	-0.343393	-0.425862	0.213863	0.567164	-0.239432	0.239734	0.512396	-0.173382	0.271755	-0.73746	-0.238289	-0.568052	-0.276851	-0.137966	0.451879	-0.556888	-0.538182	0.698876	-0.0665557	-0.274169	0.428468	0.210658	0.273608	0.207124	0.515803	-0.212933	0.66623	0.613452
0.510337	0.184239	0.527789	-0.530624	-0.505318	-0.292974	0.480969	0.376666	-0.511744	0.19809	0.502383	-0.446812	0.367961	-0.0936516	-0.518281	-0.424838	-0.299849	-0.595681	0.296326	-0.425308	-0.389903	0.175461	-0.395157	-0.485414	0.524654	0.566916	0.554945	0.297471	0.438959	-0.440806	0.276208	0.178128
0.23512	0.640467	0.474049	-0.299976	-0.202329	-0.624047	0.208756	0.374802	-0.276492	0.551676	0.395601	-0.277151	0.307746	-0.483577	-0.281391	-0.510249	-0.297588	-0.26333	0.501995	-0.542674	-0.475972	0.603515	-0.492958	-0.252022	0.207133	0.243202	0.242155	0.105677	0.339135	-0.323522	0.543958	0.639009
0.472166	0.357212	0.271355	-0.24651	-0.620466	-0.0992148	0.387777	0.344489	-0.387496	0.35192	0.439417	-0.475986	0.276909	-0.299456	-0.479674	-0.418315	-0.512496	-0.359956	0.400703	-0.187262	-0.321504	0.291088	-0.140061	-0.425714	0.626593	0.386901	0.460825	0.568394	0.592923	-0.333447	0.356824	0.164071
0.400558	0.608689	0.507221	-0.376237	-0.370892	-0.480572	0.197404	0.593542	-0.202667	0.502849	0.608013	-0.276252	0.197734	-0.355155	-0.201283	-0.676144	-0.307679	-0.267193	0.413334	-0.554593	-0.584788	0.440495	-0.308966	-0.2595	0.253269	0.276867	0.30259	0.305258	0.632645	-0.23781	0.617586	0.66955
0.63758	0.148678	0.418285	-0.546974	-0.553983	-0.324689	0.312794	0.492512	-0.366394	0.218156	0.487827	-0.532644	0.346278	-0.291272	-0.573871	-0.39718	-0.273483	-0.492159	0.28914	-0.349991	-0.468634	0.331418	-0.122964	-0.502162	0.536343	0.60351	0.603903	0.377846	0.351155	-0.528316	0.179073	0.387797
0.291488	-0.0962321	0.376864	-0.398721	-0.0666451	-0.282714	0.239531	0.419733	-0.367183	0.491651	0.335017	-0.217489	0.460668	-0.4504	-0.283902	-0.309015	-0.0989691	-0.00283952	0.461918	-0.157764	-0.312751	0.444545	-0.150786	-0.336528	0.311249	0.306219	0.231065	0.325542	0.315874	-0.334529	0.429104	0.403387
0.338863	0.534252	0.314855	-0.24531	-0.32197	-0.560894	0.638949	0.215574	-0.530743	0.447805	0.246852	-0.278662	0.462017	-0.579932	-0.48888	-0.317801	-0.53504	-0.419281	0.605092	-0.495989	-0.304252	0.607517	-0.632971	-0.304518	0.246359	0.381615	0.194062	0.490811	0.259879	-0.562573	0.286929	0.121483
0.406441	0.361719	0.55135	-0.346904	-0.338373	-0.582685	0.396215	0.449504	-0.505883	0.568262	0.506721	-0.316654	0.440911	-0.488967	-0.426248	-0.647318	-0.387174	-0.340117	0.446908	-0.645185	-0.542064	0.525962	-0.427465	-0.252205	0.199303	0.256566	0.376069	0.289196	0.388258	-0.454904	0.569142	0.58912
0.29919	0.671753	0.356305	-0.329725	-0.517818	-0.547553	0.486309	0.293102	-0.245513	0.284568	0.41838	-0.431873	0.456295	-0.36875	-0.596317	-0.605391	-0.575174	-0.530195	0.287515	-0.636708	-0.341254	0.30585	-0.38386	-0.411292	0.272167	0.331079	0.386958	0.228705	0.325449	-0.437574	0.14653	0.327535
0.440245	0.176344	0.298623	-0.317307	-0.202407	-0.397473	0.318544	0.12695	-0.446467	0.346107	0.30953	-0.459016	0.501597	-0.282211	-0.406404	-0.125442	-0.169805	-0.454973	0.32926	-0.183422	-0.321517	0.327106	-0.372142	-0.3777	0.291616	0.464492	0.332344	0.36145	0.438701	-0.397296	0.242307	0.0518339
0.661411	0.260188	0.462332	-0.492298	-0.341925	-0.480911	0.301205	0.556771	-0.5737	0.514164	0.504711	-0.478171	0.445438	-0.450075	-0.343998	-0.401956	-0.468478	-0.38748	0.527331	-0.218139	-0.362154	0.444877	-0.248046	-0.381687	0.585891	0.305744	0.341156	0.434655	0.493039	-0.268227	0.567419	0.454361
0.71666	0.149596	0.358536	-0.413087	-0.553027	-0.273795	0.501492	0.457946	-0.474841	0.478935	0.315307	-0.670018	0.481064	-0.154144	-0.649502	-0.29335	-0.504008	-0.451163	0.430849	-0.283673	-0.28668	0.181536	-0.513374	-0.503942	0.568829	0.502291	0.426421	0.618026	0.554671	-0.413243	0.335625	0.347102
0.483308	0.271242	0.199455	-0.25869	-0.390251	-0.0907228	0.486925	0.48694	-0.468295	0.575546	0.216687	-0.51404	0.330991	-0.462963	-0.366105	-0.261788	-0.48791	-0.274694	0.601683	-0.121935	-0.272943	0.302852	-0.363274	-0.263268	0.612246	0.450857	0.112953	0.532954	0.40557	-0.152531	0.616996	0.350486
0.308121	0.398274	0.362556	-0.299487	-0.399068	-0.273488	0.404575	0.348634	-0.414268	0.435411	0.386647	-0.379776	0.42724	-0.459546	-0.39778	-0.366294	-0.382885	-0.291103	0.543975	-0.409151	-0.255206	0.483459	-0.495482	-0.320739	0.502951	0.255159	0.370882	0.46077	0.423935	-0.310487	0.564278	0.464801
0.489939	0.376676	0.631121	-0.494354	-0.529304	-0.346235	0.5139	0.282851	-0.409817	0.152524	0.49619	-0.451709	0.37505	-0.256185	-0.437881	-0.395299	-0.335818	-0.530658	0.287745	-0.605585	-0.435167	0.266941	-0.290842	-0.48867	0.427232	0.519436	0.581751	0.381461	0.361158	-0.64479	0.321844	0.546502
0.555683	0.440901	0.430811	-0.362154	-0.664508	-0.173973	0.321827	0.429155	-0.411028	0.319318	0.577943	-0.457984	0.220178	-0.31794	-0.506216	-0.418915	-0.515155	-0.354271	0.341381	-0.352809	-0.511957	0.298362	-0.239677	-0.517939	0.593765	0.447713	0.589444	0.470963	0.45604	-0.372771	0.526452	0.343185
0.153445	0.585303	0.290749	-0.373292	-0.232949	-0.402914	0.424248	0.398815	-0.351231	0.621635	0.23216	-0.167214	0.388471	-0.581894	-0.203836	-0.387276	-0.514339	-0.331798	0.389626	-0.405142	-0.327669	0.543141	-0.385768	-0.276671	0.282359	0.201405	0.234463	0.317953	0.239471	-0.112204	0.564416	0.477312
0.207549	0.764927	0.314154	-0.400579	-0.293288	-0.49421	0.222738	0.549143	-0.257191	0.368418	0.578173	-0.211963	0.225297	-0.396589	-0.154089	-0.450164	-0.256934	-0.219837	0.381032	-0.483091	-0.339389	0.383491	-0.295091	-0.124106	0.374929	0.115641	0.159318	0.216736	0.585619	-0.2493	0.581566	0.416883
0.324123	0.343539	0.357185	-0.418471	-0.365642	-0.523913	0.552172	0.366699	-0.500332	0.436007	0.42313	-0.310116	0.503855	-0.539556	-0.522326	-0.271711	-0.428248	-0.522576	0.525498	-0.519837	-0.332247	0.374559	-0.424713	-0.344257	0.327547	0.334185	0.33694	0.31642	0.289026	-0.566032	0.258909	0.410779
0.4654	0.353611	0.495787	-0.215663	-0.659116	-0.254371	0.273265	0.341731	-0.163405	0.131174	0.518636	-0.399384	0.187224	-0.12446	-0.600292	-0.430899	-0.457471	-0.61327	0.261772	-0.632446	-0.63232	0.218265	-0.317107	-0.642924	0.387402	0.584289	0.618071	0.377818	0.468338	-0.520964	0.0958354	0.238743
0.277512	0.603787	0.311904	-0.337845	-0.469756	-0.399861	0.181452	0.584078	-0.171401	0.4701	0.41722	-0.178151	0.28092	-0.581045	-0.310559	-0.425922	-0.320746	-0.069509	0.495561	-0.219495	-0.293421	0.547561	-0.0197751	-0.214456	0.469367	0.175593	0.173784	0.331426	0.764319	-0.127855	0.696227	0.707824
0.576809	0.32504	0.51084	-0.377727	-0.606807	-0.270002	0.235406	0.564375	-0.19419	0.221491	0.510447	-0.484001	0.18908	-0.309866	-0.191841	-0.520583	-0.409372	-0.475523	0.289797	-0.490747	-0.642696	0.214227	-0.152715	-0.493918	0.554836	0.481658	0.551323	0.302291	0.566046	-0.376672	0.184031	0.262192
0.386309	-0.319111	0.213107	-0.303703	-0.328053	-0.0457603	0.608012	0.146783	-0.4341	0.449223	0.112001	-0.183847	0.503256	-0.147665	-0.375231	-0.107141	-0.453355	-0.215004	0.403405	-0.334273	-0.281788	0.491589	-0.349607	-0.474736	0.302376	0.427603	0.48296	0.46846	0.278366	-0.768318	0.226003	0.480194
0.700775	0.211802	0.582864	-0.509042	-0.463032	-0.238719	0.549685	0.363947	-0.595379	0.291454	0.431425	-0.601654	0.593669	-0.423576	-0.612405	-0.301339	-0.341604	-0.543376	0.328899	-0.256658	-0.297529	0.27237	-0.199856	-0.588248	0.649866	0.665202	0.563738	0.622962	0.40069	-0.422469	0.302633	0.323047
0.536842	0.240123	0.192678	-0.426814	-0.341385	-0.156015	0.621378	0.323219	-0.564856	0.526055	0.122638	-0.621084	0.602564	-0.388437	-0.585792	-0.181693	-0.475905	-0.467902	0.574291	-0.242753	-0.16337	0.275346	-0.429759	-0.510486	0.486175	0.52263	0.195212	0.609151	0.315828	-0.389604	0.116971	0.163875
0.545005	0.501856	0.572278	-0.471987	-0.625782	-0.368218	0.33222	0.440721	-0.196899	0.281437	0.515613	-0.469769	0.237854	-0.242377	-0.313012	-0.535531	-0.152242	-0.358593	0.307891	-0.601811	-0.415358	0.233858	-0.0929828	-0.495136	0.418041	0.392133	0.538709	0.339273	0.530003	-0.243096	0.323489	0.440433
0.424522	0.598947	0.400737	-0.22366	-0.35758	-0.338862	0.2825	0.564361	-0.233253	0.638036	0.338319	-0.388912	0.246238	-0.386377	-0.341717	-0.526777	-0.436732	-0.221871	0.509504	-0.453759	-0.25877	0.393627	-0.417593	-0.357136	0.362285	0.348975	0.27194	0.486702	0.576281	-0.163069	0.56613	0.499329
0.521875	0.423749	0.289594	-0.427992	-0.55515	-0.290844	0.533611	0.3312	-0.42787	0.462605	0.320868	-0.504783	0.392366	-0.38311	-0.47784	-0.294987	-0.483981	-0.352127	0.315909	-0.318477	-0.24146	0.263912	-0.308088	-0.413303	0.658686	0.438739	0.480636	0.594481	0.608848	-0.40672	0.428493	0.346867
0.30019	0.217248	0.334903	-0.344	-0.363318	-0.49867	0.224101	0.491721	-0.155442	0.441433	0.54707	-0.15888	0.402578	-0.434576	-0.170732	-0.482488	-0.233675	-0.15295	0.471399	-0.538463	-0.531705	0.532505	-0.412214	-0.292453	0.388076	0.157452	0.455506	0.197472	0.383083	-0.281826	0.581839	0.551637
0.533306	0.527833	0.344736	-0.138351	-0.289775	-0.273849	0.565372	0.388228	-0.339845	0.505969	0.105781	-0.430023	0.503846	-0.349989	-0.549756	-0.449343	-0.530516	-0.404487	0.311993	-0.361981	-0.442516	0.302295	-0.485051	-0.42512	0.615162	0.383763	0.514009	0.525413	0.412176	-0.508633	0.334627	0.372368
0.456154	0.0889768	0.50675	-0.55765	-0.271642	-0.446247	0.576472	0.139228	-0.449168	0.294664	0.287782	-0.383541	0.602015	-0.483309	-0.536723	-0.247032	-0.384044	-0.453702	0.312868	-0.397446	-0.362937	0.440205	-0.462492	-0.423454	0.493126	0.454184	0.425913	0.330578	0.240112	-0.677588	0.364393	0.371393
0.156823	0.707677	0.359198	-0.269722	-0.309148	-0.656228	0.192535	0.48096	-0.200567	0.498629	0.372927	-0.182894	0.328778	-0.373946	-0.319622	-0.529411	-0.40544	-0.233406	0.411994	-0.561778	-0.595085	0.571169	-0.366348	-0.270801	0.173061	0.19452	0.293001	0.149006	0.366816	-0.232029	0.490043	0.629763
0.523022	0.425464	0.518911	-0.394792	-0.487708	-0.395877	0.441669	0.372594	-0.399095	0.47179	0.329493	-0.551809	0.454282	-0.366194	-0.430107	-0.565573	-0.51186	-0.523149	0.376956	-0.497246	-0.428194	0.347731	-0.40893	-0.455564	0.347252	0.379814	0.499257	0.450704	0.449867	-0.368946	0.397881	0.224136
0.45338	0.852729	0.410227	-0.382031	-0.568991	-0.467716	0.232227	0.597945	-0.182935	0.329837	0.666041	-0.213721	0.180997	-0.294542	-0.276842	-0.518506	-0.23094	-0.236453	0.469541	-0.457098	-0.534399	0.442501	-0.260957	-0.289972	0.3847	0.338156	0.567378	0.378598	0.602785	-0.16271	0.551641	0.63501
0.30454	0.445074	0.318469	-0.393348	-0.325207	-0.443807	0.620196	0.262341	-0.412689	0.494081	0.264003	-0.454682	0.515704	-0.54195	-0.553336	-0.351586	-0.612959	-0.479593	0.502422	-0.456802	-0.404644	0.551834	-0.452194	-0.362087	0.295808	0.361027	0.217333	0.402965	0.203314	-0.491237	0.266207	0.342325
0.25167	0.336538	0.578815	-0.41939	-0.461741	-0.452389	0.254926	0.362268	-0.206552	0.231593	0.570928	-0.185335	0.398943	-0.387809	-0.206845	-0.621452	-0.477008	-0.446528	0.183135	-0.471003	-0.549051	0.544688	-0.613707	-0.240548	0.399318	0.23381	0.491315	0.264471	0.36897	-0.641243	0.470739	0.360964
0.496012	-0.0762862	0.397042	-0.58627	-0.327783	-0.154723	0.508022	0.137907	-0.413027	0.596473	0.200823	-0.415272	0.728213	-0.490507	-0.406936	-0.216909	-0.235628	-0.304048	0.560109	-0.342392	-0.150656	0.634287	-0.463973	-0.31111	0.397569	0.411875	0.456402	0.493722	0.317277	-0.550774	0.475989	0.47919
0.480386	0.376227	0.212571	-0.178495	-0.43386	-0.270233	0.253465	0.396172	-0.219451	0.601084	0.333324	-0.320635	0.364271	-0.072036	-0.262957	-0.46819	-0.514462	-0.298828	0.371961	-0.0614556	-0.666524	0.511526	-0.159108	-0.367935	0.49373	0.377253	0.475981	0.368849	0.650868	-0.409847	0.467639	-0.10909
0.278177	0.698258	0.372584	-0.235616	-0.505132	-0.521886	0.430846	0.329343	-0.205052	0.442221	0.315563	-0.289174	0.41813	-0.407165	-0.320827	-0.579683	-0.37856	-0.332004	0.350704	-0.540248	-0.439792	0.526685	-0.442855	-0.375976	0.370272	0.339649	0.421496	0.288827	0.315695	-0.49213	0.373211	0.513511
0.604834	0.472771	0.303617	-0.137045	-0.573079	-0.398238	0.403808	0.608809	-0.215955	0.492289	0.537027	-0.441635	0.301927	-0.270203	-0.266091	-0.538249	-0.714205	-0.280125	0.529706	-0.233649	-0.275127	0.561059	-0.245511	-0.484113	0.536581	0.571328	0.543107	0.555267	0.527903	-0.408303	0.440431	0.363088
0.315894	0.601042	0.458419	-0.324502	-0.499834	-0.349057	0.232997	0.485597	-0.188566	0.534582	0.517445	-0.264813	0.207128	-0.319026	-0.23536	-0.600466	-0.506754	-0.275306	0.352767	-0.532872	-0.418916	0.325194	-0.417367	-0.301081	0.311575	0.192143	0.356727	0.328887	0.635774	-0.119607	0.467571	0.62921
0.322973	0.357868	0.41146	-0.412635	-0.209432	-0.539303	0.503983	0.198325	-0.551105	0.265346	0.188102	-0.166557	0.636096	-0.356254	-0.382693	-0.364518	-0.326172	-0.528377	0.273334	-0.457975	-0.391403	0.41071	-0.449374	-0.369779	0.194525	0.391356	0.492559	0.300882	0.287857	-0.555817	0.324522	0.270837
0.43304	0.351439	0.47211	-0.467312	-0.271291	-0.430398	0.616826	0.362712	-0.614942	0.470177	0.259226	-0.481118	0.513307	-0.455748	-0.469254	-0.293367	-0.334773	-0.437235	0.480218	-0.443243	-0.323053	0.501423	-0.390264	-0.555054	0.319269	0.486129	0.283551	0.467201	0.334154	-0.504487	0.558993	0.35324
0.621852	0.229745	0.449638	-0.509246	-0.562908	-0.302328	0.305862	0.519751	-0.476082	0.299667	0.581578	-0.600059	0.307703	-0.360883	-0.552137	-0.552749	-0.417328	-0.523937	0.265869	-0.518157	-0.524843	0.308522	-0.187932	-0.611082	0.502514	0.561854	0.554772	0.504317	0.556445	-0.55627	0.290158	0.506618
0.434295	0.101949	0.526281	-0.45403	-0.518168	-0.332237	0.374099	0.27891	-0.435715	0.165866	0.407198	-0.222142	0.297844	-0.349195	-0.432451	-0.272818	-0.179372	-0.513744	0.212637	-0.526641	-0.529848	0.320124	-0.332157	-0.479346	0.36254	0.345223	0.47695	0.236723	0.339212	-0.587332	0.198672	0.427949
0.593489	0.0233898	0.552745	-0.296207	-0.490761	-0.32576	0.385374	0.331268	-0.310289	0.159972	0.508316	-0.57331	0.357224	-0.283936	-0.498857	-0.421054	-0.25687	-0.460707	0.167694	-0.565189	-0.489166	0.169359	-0.223603	-0.479783	0.457785	0.556442	0.605566	0.457524	0.405968	-0.424708	0.202638	0.331345
0.463287	0.430253	0.339487	-0.427584	-0.391531	-0.310723	0.552838	0.377957	-0.482747	0.464827	0.494798	-0.649592	0.469958	-0.558348	-0.585604	-0.463316	-0.44269	-0.423355	0.656309	-0.378357	-0.241235	0.197175	-0.227969	-0.430688	0.463536	0.540001	0.309005	0.471279	0.411586	-0.197837	0.465538	0.314124
0.324641	0.406578	0.447409	-0.164727	-0.309564	-0.60847	0.411098	0.378432	-0.351711	0.339258	0.576784	-0.31379	0.452632	-0.381808	-0.396575	-0.58909	-0.534606	-0.648909	0.28359	-0.620817	-0.633716	0.50083	-0.566514	-0.372264	0.338802	0.280206	0.480564	0.368434	0.319017	-0.558843	0.483394	0.579
0.559554	0.139068	0.518123	-0.547255	-0.499608	-0.345706	0.266544	0.363211	-0.489111	0.286858	0.533277	-0.463514	0.59139	-0.28307	-0.496843	-0.533702	-0.589384	-0.58407	0.344662	-0.426248	-0.483565	0.378139	-0.561556	-0.371292	0.458433	0.191075	0.505807	0.352919	0.442081	-0.576264	0.331059	0.619188
0.332203	0.667827	0.297372	-0.213683	-0.370242	-0.375153	0.187914	0.611698	-0.183781	0.34152	0.499029	-0.317562	0.229057	-0.283014	-0.218268	-0.545315	-0.214517	-0.13356	0.376541	-0.355249	-0.268523	0.3809	-0.101768	-0.295921	0.383744	0.322591	0.216797	0.380756	0.578032	-0.145814	0.61712	0.554152
0.448636	0.41467	0.531817	-0.479666	-0.579373	-0.426365	0.318815	0.441094	-0.473854	0.265982	0.617066	-0.437087	0.315387	-0.298001	-0.439949	-0.374265	-0.317759	-0.457482	0.211427	-0.627221	-0.522113	0.218914	-0.327475	-0.456755	0.374506	0.362417	0.525198	0.391158	0.417043	-0.557054	0.253811	0.615527
0.256537	0.368849	0.389025	-0.422147	-0.253241	-0.382656	0.299195	0.521298	-0.318661	0.425752	0.424082	-0.229394	0.364888	-0.504756	-0.250072	-0.387777	-0.273889	-0.225313	0.390076	-0.377762	-0.353297	0.494267	-0.379519	-0.288303	0.342765	0.225753	0.365513	0.192631	0.441108	-0.194244	0.600888	0.3502
0.404136	0.331399	0.360694	-0.425593	-0.338133	-0.268923	0.285643	0.524369	-0.263199	0.425121	0.471068	-0.359784	0.34441	-0.382537	-0.303773	-0.500759	-0.408971	-0.326122	0.381131	-0.348286	-0.365381	0.536985	-0.132858	-0.265092	0.396845	0.416923	0.364339	0.254396	0.458209	-0.223087	0.535123	0.591861
0.439445	0.345951	0.312782	-0.209753	-0.480922	-0.306813	0.563224	0.368271	-0.41388	0.56634	0.310102	-0.457542	0.455861	-0.280267	-0.440452	-0.430348	-0.535678	-0.431971	0.423748	-0.432379	-0.35238	0.35846	-0.59264	-0.40396	0.587376	0.36833	0.431593	0.603549	0.551792	-0.427975	0.376999	0.541501
0.491278	0.718007	0.24122	-0.276494	-0.343162	-0.313083	0.304238	0.551823	-0.224053	0.340894	0.347458	-0.251704	0.18691	-0.403597	-0.262439	-0.422956	-0.384513	-0.242994	0.535784	-0.365531	-0.474679	0.430447	-0.418843	-0.328682	0.441853	0.282007	0.246646	0.50027	0.635699	-0.306163	0.431262	0.550294
0.466085	0.145209	0.356382	-0.364079	-0.485785	-0.245912	0.304653	0.237744	-0.508345	0.50251	0.336797	-0.489752	0.473254	-0.36498	-0.502008	-0.305125	-0.335149	-0.536646	0.389122	-0.455601	-0.566947	0.515203	-0.408407	-0.471573	0.347681	0.585219	0.482923	0.461964	0.397283	-0.732427	-0.0368404	0.430933
0.239276	0.504719	0.341585	-0.0887575	-0.30994	-0.47724	0.164944	0.48588	-0.245811	0.424159	0.585607	-0.237824	0.12538	-0.250537	-0.227357	-0.577214	-0.426043	-0.351302	0.372803	-0.494457	-0.379303	0.436719	-0.355289	-0.271998	0.396104	0.280096	0.238152	0.236174	0.61501	-0.320012	0.269945	0.609684
0.669062	0.16765	0.5423	-0.520259	-0.587397	-0.268734	0.322061	0.454137	-0.236022	0.343105	0.541751	-0.441995	0.289281	-0.35289	-0.592251	-0.262771	-0.24153	-0.457333	0.308939	-0.525046	-0.418851	0.329588	-0.419243	-0.662673	0.563228	0.514641	0.627322	0.523701	0.597114	-0.593628	0.267752	0.620168
0.298776	0.45736	0.637344	-0.417091	-0.400606	-0.54837	0.350682	0.497693	-0.355547	0.25055	0.320236	-0.242254	0.573862	-0.357146	-0.273813	-0.55788	-0.493122	-0.430063	0.238744	-0.549281	-0.547324	0.507735	-0.286733	-0.234695	0.250156	0.141036	0.640548	0.118419	0.283555	-0.533849	0.470947	0.228762
0.322063	0.449277	0.359624	-0.0511756	-0.311148	-0.250631	0.384374	0.507437	-0.403134	0.390767	0.360998	-0.436705	0.215484	-0.23644	-0.20736	-0.354715	-0.498967	-0.425181	0.198146	-0.358572	-0.236	0.200418	-0.305755	-0.333327	0.144555	0.46692	0.202335	0.508842	0.490198	-0.254409	0.389654	0.269175
0.478635	0.489273	0.194767	-0.427991	-0.482749	-0.314041	0.556226	0.36359	-0.327875	0.466325	0.345479	-0.603947	0.320488	-0.406623	-0.474575	-0.382023	-0.4279	-0.509263	0.660831	-0.188883	-0.328494	0.493407	-0.131618	-0.577232	0.591065	0.560007	0.266754	0.483898	0.291999	-0.401572	0.231845	0.278413
0.471814	0.433871	0.376377	-0.361005	-0.414684	-0.301102	0.489738	0.275439	-0.307695	0.37013	0.26817	-0.488611	0.362698	-0.348168	-0.621256	-0.339389	-0.485096	-0.459408	0.475954	-0.423413	-0.346762	0.618708	-0.348175	-0.5059	0.442048	0.527921	0.55498	0.5491	0.299233	-0.493578	0.371822	0.199244
0.394952	0.549788	0.511212	-0.350007	-0.397735	-0.572715	0.309717	0.408048	-0.264518	0.410836	0.438635	-0.301449	0.301452	-0.368991	-0.412016	-0.604125	-0.365005	-0.418612	0.346006	-0.561623	-0.514946	0.490436	-0.408338	-0.302748	0.290597	0.29309	0.471596	0.192833	0.428158	-0.374857	0.398472	0.491255
0.593145	0.206476	0.281727	-0.443693	-0.249191	-0.348355	0.609526	0.434298	-0.456366	0.393362	0.24653	-0.553978	0.455438	-0.550728	-0.540045	-0.317071	-0.513337	-0.4261	0.500193	-0.242899	-0.329919	0.350064	-0.368029	-0.532986	0.609491	0.564624	0.390432	0.606165	0.488408	-0.334558	0.346689	0.215244
0.480114	0.12942	0.531256	-0.417291	-0.337676	-0.550081	0.288488	0.343155	-0.495412	0.217115	0.574458	-0.394321	0.509375	-0.276806	-0.428442	-0.458124	-0.462015	-0.581689	0.206528	-0.457523	-0.523827	0.389524	-0.450108	-0.238394	0.280346	0.348665	0.609762	0.369975	0.448252	-0.6262	0.317156	0.438402
0.479311	-0.315693	0.208113	-0.252939	-0.158864	-0.162788	0.364475	0.109205	-0.372772	0.317052	0.244076	-0.107448	0.384386	-0.129028	-0.285889	-0.0718013	-0.272329	-0.125004	0.368474	-0.48689	-0.287241	0.409748	-0.349331	-0.497388	0.225554	0.303988	0.332565	0.408022	0.200361	-0.622723	0.167568	0.262669
0.199247	0.419549	0.59543	-0.16311	-0.202997	-0.54841	0.154707	0.577997	-0.302459	0.535865	0.626686	-0.105995	0.399716	-0.618036	-0.160394	-0.716092	-0.097601	-0.242143	0.649294	-0.528806	-0.535349	0.563653	-0.39624	-0.128775	0.18155	0.196947	0.221911	0.163387	0.659254	-0.165088	0.629176	0.755178
0.631549	0.117617	0.287665	-0.539972	-0.301254	-0.265992	0.475485	0.281677	-0.695684	0.53691	0.342509	-0.657105	0.650298	-0.515051	-0.686685	-0.415495	-0.52928	-0.393079	0.712354	-0.28145	-0.29659	0.389494	-0.231524	-0.411879	0.5587	0.690411	0.286016	0.417559	0.361232	-0.349731	0.411515	0.376005
0.250418	0.208492	0.557898	-0.504933	-0.099443	-0.563468	0.439696	0.196838	-0.600006	0.279418	0.514613	-0.191709	0.620833	-0.515477	-0.284419	-0.374118	-0.165645	-0.502925	0.131709	-0.575842	-0.321461	0.4833	-0.674436	-0.229463	0.168371	0.240155	0.649932	0.258163	0.19174	-0.611375	0.546294	0.581446
0.143783	0.633083	0.22453	-0.130127	-0.223596	-0.444103	0.401184	0.278358	-0.293647	0.51133	0.140576	-0.186475	0.468018	-0.322506	-0.284855	-0.409984	-0.552786	-0.309544	0.402085	-0.396055	-0.206375	0.512632	-0.639248	-0.215136	0.189923	0.232468	0.214295	0.298674	0.129806	-0.440153	0.295466	0.105148
0.307436	0.238739	0.639641	-0.493502	-0.271259	-0.447634	0.200064	0.319742	-0.252151	0.223444	0.602007	-0.158431	0.557836	-0.489594	-0.12335	-0.187797	-0.205183	-0.212701	0.200331	-0.544904	-0.402309	0.450588	-0.630181	-0.19355	0.298942	0.103742	0.540275	0.179546	0.254591	-0.57896	0.397233	0.648063
0.617823	0.156433	0.379888	-0.420773	-0.524399	-0.29783	0.490845	0.373548	-0.540431	0.306124	0.387569	-0.438683	0.464155	-0.346895	-0.425879	-0.421753	-0.209353	-0.395737	0.356022	-0.24062	-0.396527	0.178206	-0.498565	-0.604921	0.460764	0.489752	0.33337	0.568493	0.403016	-0.416889	0.445727	0.139699
0.53558	0.114897	0.432291	-0.443652	-0.284084	-0.437845	0.531683	0.330172	-0.534422	0.282522	0.292799	-0.337569	0.407327	-0.496611	-0.45418	-0.282	-0.309184	-0.408679	0.398654	-0.421935	-0.266671	0.390058	-0.334079	-0.516966	0.366863	0.496957	0.499667	0.37934	0.327684	-0.508584	0.329289	0.281605
0.338764	0.50616	0.327684	-0.206577	-0.387571	-0.489702	0.400399	0.228119	-0.362275	0.434201	0.330747	-0.307722	0.333467	-0.341683	-0.311085	-0.446599	-0.531452	-0.483995	0.414137	-0.557921	-0.33945	0.605965	-0.534939	-0.430437	0.359506	0.396279	0.322594	0.352415	0.277737	-0.519812	0.210445	0.411613
0.170096	0.693188	0.37052	-0.22308	-0.402686	-0.269384	0.25155	0.451693	-0.412893	0.394591	0.38805	-0.452161	0.290515	-0.477768	-0.340186	-0.318123	-0.363643	-0.222012	0.404903	-0.433151	-0.240996	0.298893	-0.462514	-0.297169	0.393534	0.340687	0.236658	0.335832	0.407189	-0.270843	0.38399	0.457433
0.34428	0.408375	0.320907	-0.295298	-0.242975	-0.457865	0.491957	0.353552	-0.510294	0.645353	0.219405	-0.448629	0.599351	-0.486043	-0.448307	-0.228196	-0.532518	-0.463363	0.597106	-0.30877	-0.330038	0.484195	-0.694882	-0.393357	0.330818	0.386585	0.300666	0.469815	0.345865	-0.472217	0.357241	0.261272
0.366342	0.306457	0.117189	-0.220582	-0.27571	-0.309849	0.636043	0.378605	-0.245618	0.419839	0.236379	-0.416682	0.298968	-0.343137	-0.194315	-0.38331	-0.525289	-0.30778	0.45971	-0.154572	-0.378218	0.416844	-0.257676	-0.30713	0.568901	0.34963	0.443476	0.437633	0.221077	-0.333354	0.395004	0.174278
0.531142	0.368851	0.378203	-0.564585	-0.317842	-0.370709	0.646721	0.170286	-0.543217	0.320597	0.379454	-0.534092	0.500728	-0.673597	-0.622085	-0.282351	-0.339512	-0.552286	0.485366	-0.456958	-0.316658	0.55788	-0.621946	-0.622765	0.443734	0.615593	0.422147	0.417457	0.256428	-0.565177	0.344285	0.499796
0.324897	0.42241	0.385762	-0.130549	-0.51127	-0.486322	0.406856	0.349222	-0.22577	0.424053	0.413321	-0.264877	0.329077	-0.265128	-0.3377	-0.644315	-0.666796	-0.428621	0.232199	-0.535126	-0.477655	0.313656	-0.39214	-0.354525	0.328069	0.508723	0.486179	0.290197	0.428581	-0.583038	0.244793	0.397529
0.208318	0.339447	0.450484	-0.404609	-0.196017	-0.501773	0.502371	0.248729	-0.296275	0.474333	0.371667	-0.245043	0.604397	-0.332314	-0.297956	-0.410623	-0.102524	-0.533051	0.298116	-0.593182	-0.44313	0.587295	-0.616365	-0.368831	0.118265	0.24942	0.45976	0.251755	0.342671	-0.696395	0.505051	0.498819
0.540378	0.441582	0.583856	-0.36694	-0.603775	-0.391292	0.222107	0.404525	-0.321101	0.42373	0.611505	-0.613217	0.296585	-0.329187	-0.4451	-0.531269	-0.41736	-0.443855	0.378277	-0.467419	-0.430224	0.243282	-0.563168	-0.4567	0.46533	0.275355	0.517013	0.349566	0.622198	-0.361883	0.403706	0.560198
0.2325	0.411006	0.401782	-0.459877	-0.521932	-0.486103	0.415083	0.455305	-0.432826	0.413196	0.550841	-0.511717	0.329643	-0.422381	-0.478968	-0.223922	-0.246256	-0.384998	0.472309	-0.626871	-0.453384	0.366707	-0.440683	-0.384917	0.338402	0.45078	0.277641	0.409848	0.407837	-0.410036	0.49146	0.73665
0.543527	0.330092	0.414233	-0.54126	-0.529618	-0.261191	0.585047	0.361196	-0.456714	0.402893	0.338943	-0.643368	0.535551	-0.419001	-0.524998	-0.30921	-0.540763	-0.4734	0.541178	-0.317553	-0.407221	0.476172	-0.571164	-0.507327	0.561673	0.565591	0.444129	0.533102	0.42973	-0.616985	0.48495	0.332604
0.304682	0.300589	0.265952	-0.245583	-0.396237	-0.438715	0.681546	0.249997	-0.552078	0.689606	0.156338	-0.543656	0.662034	-0.757448	-0.586929	-0.225234	-0.651	-0.465277	0.625416	-0.247485	-0.232304	0.524256	-0.519335	-0.342331	0.350113	0.634289	0.151287	0.548542	0.285286	-0.406388	0.476213	0.323568
0.63122	0.329574	0.504091	-0.519624	-0.628027	-0.210817	0.452945	0.436499	-0.302961	0.309065	0.502823	-0.746382	0.324548	-0.213697	-0.603995	-0.480313	-0.448728	-0.557019	0.290055	-0.477408	-0.514873	0.321722	-0.2635	-0.602326	0.627529	0.601084	0.645777	0.653611	0.63456	-0.647087	0.318168	0.284433
0.289742	0.624935	0.439255	-0.400837	-0.301924	-0.599248	0.328524	0.413105	-0.416082	0.378267	0.388297	-0.161607	0.407734	-0.397544	-0.338416	-0.657914	-0.286922	-0.392616	0.309806	-0.59453	-0.557898	0.609351	-0.468132	-0.2634	0.208302	0.174523	0.406228	0.424831	0.406022	-0.388003	0.605293	0.640465
0.581481	0.533326	0.366355	-0.501274	-0.453925	-0.351714	0.285054	0.526599	-0.343777	0.533611	0.422585	-0.345709	0.280126	-0.42551	-0.32782	-0.457953	-0.351787	-0.443513	0.483531	-0.318524	-0.437048	0.443876	-0.343513	-0.275533	0.484291	0.239185	0.462467	0.377366	0.641857	-0.351296	0.526556	0.521733
0.411699	0.0657005	0.288234	-0.210077	-0.379774	-0.242348	0.40535	0.166383	-0.398892	0.48145	0.241275	-0.398939	0.353366	-0.444091	-0.565354	-0.391655	-0.543582	-0.322378	0.567672	-0.211417	-0.374252	0.515986	-0.530067	-0.470737	0.399021	0.655512	0.507809	0.461185	0.361708	-0.47585	0.348059	0.177668
0.468202	0.502286	0.409746	-0.454105	-0.681166	-0.221974	0.356557	0.443992	-0.398617	0.383663	0.516934	-0.54411	0.41412	-0.283099	-0.525125	-0.502833	-0.625281	-0.45027	0.399159	-0.2342	-0.389021	0.396204	-0.596857	-0.603023	0.544898	0.446755	0.612728	0.41972	0.651729	-0.595804	0.253935	0.385225
0.360175	-0.000387979	0.313055	-0.28159	-0.505624	-0.441914	0.536147	0.21639	-0.419908	0.60212	0.432534	-0.19287	0.251332	-0.471505	-0.605471	-0.377613	-0.382867	-0.378873	0.509504	-0.36557	-0.455508	0.634555	-0.592784	-0.682355	0.442078	0.714175	0.568184	0.486161	0.405404	-0.533781	0.486112	0.485326
0.481472	0.323195	0.350394	-0.410559	-0.135014	-0.320098	0.48068	0.208009	-0.347871	0.267361	0.302684	-0.44613	0.324092	-0.479312	-0.422283	-0.232637	-0.341852	-0.523604	0.34331	-0.223832	-0.333721	0.492209	-0.287622	-0.427628	0.441946	0.417278	0.359196	0.335189	0.30702	-0.221086	0.460813	0.397379
0.342762	0.333197	0.420887	-0.405906	-0.300374	-0.424301	0.307101	0.453159	-0.411757	0.365168	0.386763	-0.470499	0.363929	-0.637174	-0.311678	-0.48997	-0.316276	-0.374569	0.456926	-0.368558	-0.309162	0.585506	-0.182192	-0.215568	0.57476	0.377267	0.188126	0.359468	0.256678	-0.248986	0.591118	0.384962
0.402223	0.301303	0.397877	-0.209784	-0.456648	-0.301994	0.258936	0.388054	-0.285339	0.400313	0.514323	-0.384843	0.38657	-0.285495	-0.442581	-0.583966	-0.627542	-0.44092	0.407969	-0.274141	-0.560743	0.45433	-0.405552	-0.405138	0.541049	0.323806	0.453506	0.483445	0.550349	-0.472433	0.3095	0.37994
0.35326	0.234384	0.437111	-0.615569	-0.371565	-0.544735	0.582337	0.235542	-0.349044	0.258823	0.272908	-0.380379	0.594576	-0.460959	-0.379182	-0.342643	-0.326972	-0.354418	0.35156	-0.51272	-0.327402	0.423219	-0.423458	-0.409176	0.350353	0.374298	0.305096	0.237994	0.262948	-0.464975	0.444197	0.411701
0.508507	0.276899	0.241595	-0.134969	-0.487756	-0.268723	0.387254	0.361793	-0.380181	0.551045	0.406495	-0.335234	0.395388	-0.292167	-0.447316	-0.367953	-0.605047	-0.318337	0.521345	-0.202229	-0.308955	0.407326	-0.384156	-0.573045	0.56471	0.499311	0.467283	0.499902	0.492108	-0.46769	0.40732	0.229882
0.320181	0.527981	0.505585	-0.296791	-0.395389	-0.566717	0.422304	0.407053	-0.265134	0.360459	0.451883	-0.306771	0.384927	-0.414299	-0.306429	-0.599436	-0.384562	-0.255345	0.318408	-0.680851	-0.416066	0.601037	-0.471033	-0.349901	0.299034	0.325269	0.541184	0.259692	0.42085	-0.560503	0.416799	0.550373
0.533816	0.320101	0.234368	-0.275235	-0.485098	-0.228465	0.392586	0.430353	-0.291057	0.543359	0.400101	-0.536233	0.485991	-0.371335	-0.489509	-0.451224	-0.558986	-0.31907	0.478232	-0.193859	-0.29991	0.417456	-0.300059	-0.405536	0.559335	0.462427	0.330589	0.279224	0.544311	-0.358436	0.191957	0.180366
0.331458	0.42031	0.436249	-0.319247	-0.283405	-0.481763	0.550154	0.195147	-0.358217	0.283028	0.338252	-0.234317	0.378999	-0.332076	-0.242837	-0.328621	-0.348085	-0.380958	0.452875	-0.50697	-0.23493	0.579679	-0.624858	-0.377607	0.168518	0.272448	0.464013	0.425028	0.221686	-0.608937	0.530125	0.408861
0.47496	0.326077	0.375076	-0.400709	-0.525713	-0.35974	0.615015	0.437137	-0.547963	0.479189	0.314879	-0.558184	0.426208	-0.353625	-0.482047	-0.362007	-0.541415	-0.363886	0.620955	-0.253577	-0.241756	0.292379	-0.401114	-0.399416	0.544482	0.448876	0.326807	0.522474	0.321326	-0.30969	0.667548	0.248337
0.30302	0.414404	0.393382	-0.232922	-0.191139	-0.539339	0.571224	0.231107	-0.397023	0.5	0.31718	-0.4287	0.582877	-0.43755	-0.467979	-0.466797	-0.58315	-0.566078	0.588882	-0.531945	-0.33856	0.578052	-0.529528	-0.441309	0.299352	0.472941	0.26929	0.4104	0.287446	-0.584011	0.264863	0.369241
0.471386	0.268309	0.203952	-0.394666	-0.319211	-0.421334	0.555665	0.243207	-0.632322	0.439929	0.147564	-0.511615	0.545569	-0.621073	-0.48097	-0.0440866	-0.431981	-0.454503	0.53102	-0.232386	-0.208277	0.260937	-0.419592	-0.527764	0.427454	0.622654	0.120908	0.523342	0.273451	-0.268163	0.334449	0.140288
0.425167	0.487556	0.424061	-0.425369	-0.519379	-0.251739	0.315844	0.613434	-0.429816	0.4056	0.467808	-0.350776	0.249308	-0.281791	-0.353373	-0.52119	-0.610375	-0.363707	0.23211	-0.41108	-0.359661	0.415908	-0.26555	-0.311489	0.583832	0.392809	0.457959	0.326528	0.639344	-0.401577	0.444905	0.424101
0.550591	0.433223	0.55596	-0.45755	-0.650368	-0.285868	0.300207	0.486749	-0.259155	0.271922	0.469425	-0.444345	0.210301	-0.195144	-0.374303	-0.523179	-0.442313	-0.485008	0.295839	-0.599122	-0.330065	0.300138	-0.24113	-0.554604	0.46488	0.503174	0.518368	0.510312	0.550491	-0.393823	0.225339	0.44256
0.545831	0.350062	0.256234	-0.42269	-0.408388	-0.189776	0.550317	0.337379	-0.669644	0.570343	0.267101	-0.574465	0.516704	-0.305222	-0.607521	-0.285618	-0.561735	-0.307999	0.59625	-0.229885	-0.267587	0.190796	-0.653708	-0.364166	0.672999	0.492199	0.315632	0.556433	0.183612	-0.471072	0.449121	0.159677
0.611658	0.232865	0.441204	-0.400103	-0.537914	-0.350682	0.375385	0.366309	-0.524539	0.269619	0.501555	-0.532211	0.37409	-0.421797	-0.570203	-0.439489	-0.477396	-0.624162	0.361526	-0.26524	-0.517638	0.394589	-0.277701	-0.617131	0.59719	0.611895	0.471561	0.562147	0.452274	-0.521558	0.321497	0.438679
0.316158	0.414497	0.487627	-0.616348	-0.290396	-0.481936	0.347711	0.287725	-0.480563	0.395172	0.519193	-0.168705	0.55988	-0.352095	-0.276166	-0.453591	-0.19549	-0.502526	0.354346	-0.508571	-0.61434	0.559027	-0.620434	-0.414006	0.229592	0.262592	0.606021	0.285432	0.363567	-0.598586	0.634587	0.485888
0.414148	0.359809	0.355254	-0.407066	-0.284885	-0.518743	0.487166	0.534308	-0.491698	0.525033	0.31831	-0.464055	0.439008	-0.689987	-0.550079	-0.342403	-0.233098	-0.25633	0.644827	-0.294162	-0.437126	0.435609	-0.278385	-0.39464	0.375467	0.654122	0.250265	0.406608	0.287287	-0.147356	0.498221	0.427083
0.155337	0.520145	0.366305	-0.340331	-0.155235	-0.503849	0.311048	0.462315	-0.266845	0.227532	0.494213	-0.305812	0.195216	-0.55048	-0.361087	-0.414907	-0.218149	-0.265391	0.592771	-0.423042	-0.466102	0.56423	-0.181949	-0.317939	0.397341	0.258557	0.196503	0.270856	0.403189	-0.247464	0.4453	0.512498
0.641217	0.150115	0.375864	-0.450121	-0.446424	-0.430497	0.557848	0.474508	-0.546662	0.614846	0.3581	-0.56616	0.48668	-0.416048	-0.478109	-0.414238	-0.47931	-0.517444	0.637233	-0.256008	-0.383188	0.479319	-0.204291	-0.497818	0.698914	0.598455	0.335742	0.521379	0.35312	-0.393954	0.524162	0.216224
0.351577	0.311706	0.555471	-0.26843	-0.378828	-0.422231	0.509612	0.571098	-0.442675	0.427688	0.416636	-0.440996	0.450341	-0.517812	-0.378529	-0.717841	-0.64892	-0.491151	0.346945	-0.487792	-0.453502	0.326656	-0.548093	-0.186342	0.504561	0.226125	0.421746	0.218122	0.418123	-0.313734	0.6972	0.0678897
0.553536	0.291008	0.283593	-0.520911	-0.343784	-0.321518	0.441351	0.187584	-0.503433	0.526546	0.157805	-0.575174	0.519147	-0.46481	-0.302202	-0.0879683	-0.410686	-0.268427	0.506817	-0.138499	-0.252042	0.236163	-0.38651	-0.474796	0.410582	0.432169	0.315211	0.492778	0.48836	-0.367004	0.347074	0.260289
0.477784	0.51004	0.249969	-0.39683	-0.359452	-0.238526	0.497358	0.239646	-0.634313	0.534787	0.313393	-0.610564	0.454042	-0.512819	-0.491245	-0.229424	-0.645418	-0.366165	0.474193	-0.323975	-0.298416	0.248918	-0.423164	-0.385463	0.612159	0.444824	0.376782	0.588026	0.410573	-0.207539	0.226989	0.267226
0.445748	-0.0392316	0.266882	-0.611658	-0.273982	-0.232853	0.701143	0.249615	-0.589985	0.44038	0.225291	-0.585837	0.446559	-0.67849	-0.604501	-0.222705	-0.353191	-0.446533	0.459657	-0.231228	-0.244528	0.403705	-0.562348	-0.525838	0.468958	0.505072	0.310728	0.530382	0.316225	-0.427845	0.414908	0.322043
0.343257	0.448613	0.496235	-0.347047	-0.459358	-0.592964	0.527359	0.260512	-0.258842	0.490196	0.354542	-0.31617	0.311585	-0.40604	-0.299345	-0.529923	-0.582291	-0.535033	0.346984	-0.528682	-0.484055	0.520896	-0.614224	-0.312223	0.244044	0.215753	0.605446	0.348019	0.36162	-0.629183	0.422171	0.359372
0.409481	0.410381	0.490363	-0.479415	-0.525379	-0.442116	0.515927	0.371326	-0.647771	0.381482	0.449679	-0.425918	0.438038	-0.337884	-0.52624	-0.398665	-0.394014	-0.480729	0.323815	-0.651657	-0.491888	0.431597	-0.437912	-0.434838	0.361078	0.403289	0.506013	0.440345	0.334588	-0.64351	0.175734	0.478458
0.404692	0.171242	0.414114	-0.406132	-0.17675	-0.317911	0.555184	0.177689	-0.367246	0.136987	0.0892941	-0.233479	0.351875	-0.351094	-0.278573	-0.189528	-0.0393502	-0.249772	0.261889	-0.293371	-0.207231	0.252303	-0.0248506	-0.569953	0.228985	0.428437	0.33034	0.286224	-0.0172882	-0.353528	0.0795685	-0.081297
0.563453	0.101944	0.404105	-0.432339	-0.487635	-0.277798	0.280622	0.415312	-0.434641	0.192493	0.476947	-0.553393	0.358935	-0.232266	-0.545159	-0.39088	-0.425668	-0.468323	0.204347	-0.196709	-0.498509	0.217283	-0.388106	-0.555561	0.519735	0.523273	0.555539	0.371946	0.515715	-0.574476	0.0283369	0.535434
0.350305	0.38357	0.299698	-0.232408	-0.1188	-0.550788	0.469668	0.372562	-0.517692	0.553674	0.289606	-0.349731	0.509557	-0.507181	-0.288405	-0.509146	-0.436353	-0.667519	0.549118	-0.521699	-0.482996	0.569262	-0.567929	-0.228126	0.216328	0.269725	0.297728	0.299015	0.204447	-0.610385	0.416656	0.370703
0.571328	0.238478	0.466277	-0.415764	-0.459153	-0.160681	0.282409	0.407619	-0.490113	0.291409	0.44125	-0.554047	0.490503	-0.316502	-0.441526	-0.372949	-0.355492	-0.406672	0.276537	-0.22654	-0.482396	0.217724	-0.305281	-0.510219	0.433452	0.480593	0.503541	0.444585	0.413403	-0.431054	0.181512	0.505479
0.246633	0.729098	0.477099	-0.402536	-0.274279	-0.580226	0.160564	0.652298	-0.250337	0.642837	0.64795	-0.424761	0.221972	-0.459433	-0.302286	-0.623591	-0.322454	-0.152989	0.426971	-0.487603	-0.498706	0.492617	-0.28982	-0.220443	0.294715	0.219208	0.241011	0.243533	0.616863	-0.277145	0.63916	0.541445
0.51739	0.25221	0.332908	-0.454186	-0.346108	-0.298329	0.517983	0.444802	-0.609739	0.516062	0.386772	-0.616649	0.446806	-0.465172	-0.621538	-0.389407	-0.420015	-0.394374	0.635792	-0.101782	-0.252646	0.206421	-0.500512	-0.454226	0.487715	0.600847	0.252953	0.508209	0.392424	-0.39796	0.267024	0.387721
0.557851	0.143413	0.34353	-0.228251	-0.359402	-0.317525	0.53665	0.254537	-0.474893	0.542522	0.207308	-0.499722	0.538022	-0.386407	-0.493888	-0.290289	-0.509562	-0.503977	0.480606	-0.253794	-0.170113	0.157857	-0.493605	-0.47629	0.483967	0.506212	0.362928	0.568166	0.321073	-0.342448	0.363167	0.231866
0.395001	0.602504	0.410846	-0.24262	-0.71606	-0.364922	0.378099	0.541684	-0.276949	0.489482	0.519701	-0.480217	0.350141	-0.295826	-0.412685	-0.691449	-0.462749	-0.377684	0.459129	-0.417648	-0.559946	0.39082	-0.229408	-0.515428	0.411827	0.417214	0.43623	0.354431	0.702808	-0.314659	0.434167	0.373697
0.23844	0.587828	0.423169	-0.615778	-0.621416	-0.434653	0.347158	0.404551	-0.529721	0.596903	0.442357	-0.517557	0.332139	-0.418398	-0.308104	-0.338556	-0.396841	-0.204072	0.410349	-0.406765	-0.312386	0.396883	-0.295987	-0.372106	0.390026	0.455446	0.388985	0.461582	0.450931	-0.25844	0.432822	0.608656
0.413507	0.171163	0.434195	-0.461206	-0.517925	-0.239666	0.134934	0.336669	-0.341474	0.262927	0.466725	-0.418856	0.441599	-0.281209	-0.439882	-0.475652	-0.583253	-0.533272	0.30121	-0.479725	-0.365095	0.447227	-0.299353	-0.427307	0.458346	0.527287	0.458199	0.452937	0.497689	-0.539161	0.298042	0.447886
0.363036	0.44738	0.607117	-0.345822	-0.259585	-0.428615	0.295125	0.523566	-0.247034	0.52283	0.604429	-0.168803	0.308299	-0.597691	-0.199434	-0.546447	-0.383446	-0.152806	0.600485	-0.460329	-0.3609	0.609053	-0.368745	-0.27193	0.327441	0.2612	0.274285	0.25892	0.528256	-0.237621	0.536519	0.538606
0.631763	0.307918	0.313497	-0.477093	-0.567008	-0.230422	0.272861	0.441953	-0.494302	0.49423	0.55326	-0.533407	0.258091	-0.261648	-0.504621	-0.401444	-0.632757	-0.456395	0.410551	-0.300453	-0.433871	0.366104	-0.506795	-0.657739	0.645286	0.422066	0.467721	0.490109	0.558283	-0.493825	0.349545	0.529179
0.131668	0.458618	0.620926	-0.455019	-0.127617	-0.573944	0.124342	0.559281	-0.274949	0.405226	0.384401	-0.14026	0.221235	-0.484982	-0.186465	-0.604729	-0.147687	-0.100549	0.472064	-0.527874	-0.560475	0.524532	-0.187491	-0.174748	0.229827	0.135327	0.24843	0.16939	0.541285	-0.20477	0.649131	0.6072
0.415213	0.609832	0.415265	-0.510494	-0.552448	-0.372535	0.328927	0.412912	-0.298389	0.456916	0.418761	-0.531738	0.489239	-0.317868	-0.402723	-0.610936	-0.610139	-0.473355	0.515567	-0.34975	-0.402815	0.663623	-0.103635	-0.506215	0.533603	0.438954	0.499908	0.367294	0.342371	-0.294241	0.383567	0.378713
0.449508	0.00105341	0.238681	-0.279304	-0.240602	-0.288984	0.584992	0.267612	-0.450017	0.43756	0.270942	-0.427496	0.494944	-0.677814	-0.456894	-0.158462	-0.396204	-0.258973	0.554848	-0.135642	-0.221705	0.305276	-0.617363	-0.53066	0.419255	0.632347	0.295623	0.479062	0.177083	-0.370166	0.306014	0.118135
0.381185	0.35333	0.55423	-0.37615	-0.517005	-0.417269	0.233414	0.317858	-0.282328	0.199451	0.463013	-0.29209	0.389566	-0.264901	-0.357163	-0.622608	-0.558753	-0.565815	0.372594	-0.60832	-0.670091	0.360467	-0.250568	-0.240421	0.278136	0.275177	0.647608	0.381812	0.371219	-0.449964	0.4816	0.441793
0.44176	0.122217	0.308209	-0.181073	-0.399714	-0.280661	0.448804	0.266258	-0.520484	0.594136	0.309203	-0.54755	0.502705	-0.473437	-0.364705	-0.346768	-0.502386	-0.262402	0.55348	-0.308636	-0.224982	0.368012	-0.535104	-0.356412	0.478793	0.47671	0.274816	0.57578	0.502604	-0.3169	0.519452	0.241172
0.547817	0.188738	0.548565	-0.648286	-0.329069	-0.490357	0.508121	0.351255	-0.62606	0.297415	0.464662	-0.294792	0.549437	-0.490281	-0.408117	-0.300812	-0.460185	-0.465135	0.472835	-0.523271	-0.296318	0.405588	-0.183113	-0.650902	0.35664	0.504736	0.611928	0.503727	0.253593	-0.654655	0.384999	0.568001
0.400305	0.403456	0.666447	-0.593188	-0.384819	-0.673833	0.211942	0.45777	-0.269095	0.365596	0.498376	-0.378193	0.352055	-0.447376	-0.236766	-0.434603	-0.349049	-0.197044	0.432892	-0.584672	-0.226393	0.491347	-0.275425	-0.393915	0.36408	0.243397	0.528768	0.161988	0.192739	-0.362261	0.370035	0.368217
0.248913	0.495745	0.242975	-0.212386	-0.575806	-0.387806	0.29063	0.581321	-0.350802	0.471964	0.475051	-0.521199	0.324687	-0.318621	-0.229806	-0.47835	-0.338086	-0.299443	0.411222	-0.539705	-0.215191	0.334347	-0.493518	-0.317525	0.277543	0.239365	0.252051	0.349971	0.556412	-0.262567	0.501981	0.584291
0.365182	0.521186	0.280415	-0.142856	-0.375314	-0.346534	0.36674	0.556069	-0.179491	0.492679	0.612896	-0.360711	0.149681	-0.239527	-0.262377	-0.690966	-0.653865	-0.166568	0.414072	-0.367693	-0.383647	0.442572	-0.205581	-0.215842	0.433497	0.170073	0.371555	0.301316	0.47665	-0.261521	0.476488	0.222812
0.496998	0.446333	0.340553	-0.246041	-0.476263	-0.377397	0.514317	0.528836	-0.246631	0.523304	0.378743	-0.409335	0.280631	-0.295926	-0.296505	-0.448809	-0.699598	-0.403252	0.547361	-0.142917	-0.300545	0.397446	-0.321459	-0.473226	0.591249	0.360958	0.31198	0.663872	0.502599	-0.379623	0.372961	0.212054
0.582376	0.555027	0.372081	-0.276974	-0.391892	-0.259382	0.376989	0.434092	-0.225255	0.391155	0.445701	-0.436159	0.424058	-0.46558	-0.464747	-0.524447	-0.50744	-0.478633	0.425048	-0.39826	-0.429245	0.435447	-0.362085	-0.553785	0.480218	0.446802	0.450288	0.46765	0.404071	-0.430998	0.319659	0.392691
0.507048	0.433373	0.575431	-0.568456	-0.401622	-0.275304	0.407498	0.222512	-0.407944	0.253847	0.507302	-0.697192	0.492373	-0.354968	-0.568791	-0.401959	-0.423507	-0.671232	0.379158	-0.339187	-0.475587	0.203372	-0.41977	-0.574009	0.566822	0.423351	0.401134	0.474956	0.485653	-0.50905	0.388533	0.393571
0.527776	-0.00344116	0.237453	-0.212335	-0.41578	-0.159781	0.529263	0.354347	-0.256697	0.492122	0.28613	-0.413895	0.359572	-0.65029	-0.605307	-0.160333	-0.357325	-0.222721	0.564817	-0.327795	-0.326591	0.345216	-0.610133	-0.610932	0.51495	0.689614	0.449744	0.540486	0.33568	-0.363991	0.593816	0.431224
0.639791	0.506131	0.356356	-0.639776	-0.22431	-0.554683	0.567515	0.491354	-0.686362	0.464183	0.38718	-0.40093	0.34613	-0.56953	-0.528387	-0.286208	-0.434756	-0.37457	0.636146	-0.200315	-0.193852	0.331535	-0.277641	-0.502588	0.477505	0.642885	0.12432	0.521133	0.209464	-0.51179	0.440299	0.0955322
0.56665	0.48324	0.493747	-0.339022	-0.605464	-0.399765	0.268018	0.516893	-0.267708	0.441086	0.56792	-0.43652	0.229415	-0.249992	-0.260479	-0.695167	-0.475446	-0.527102	0.342202	-0.393795	-0.39329	0.435172	0.0152759	-0.389963	0.54592	0.30663	0.563808	0.508715	0.65189	-0.366149	0.507932	0.470406
0.467112	0.0804786	0.413344	-0.534483	-0.403876	-0.352973	0.428683	0.387943	-0.541383	0.557735	0.313271	-0.584322	0.57798	-0.516889	-0.592236	-0.299939	-0.380967	-0.390009	0.516176	-0.332127	-0.336594	0.352166	-0.390979	-0.449005	0.478376	0.649391	0.358119	0.505389	0.285537	-0.487719	0.529245	0.313964
0.557668	0.233946	0.279878	-0.569822	-0.283235	-0.333596	0.553322	0.292384	-0.546023	0.509337	0.211827	-0.482313	0.552956	-0.468078	-0.572603	-0.313277	-0.380756	-0.43402	0.598314	-0.263671	-0.190085	0.366224	-0.385276	-0.546155	0.40687	0.604801	0.354311	0.542894	0.268637	-0.410088	0.443647	0.275347
0.371435	0.351151	0.462549	-0.481574	-0.357856	-0.355639	0.537037	0.226948	-0.528745	0.344651	0.271941	-0.312447	0.511029	-0.558978	-0.402588	-0.271266	-0.313131	-0.50354	0.366588	-0.593622	-0.293924	0.609751	-0.420994	-0.431207	0.339955	0.513924	0.525934	0.503084	0.391422	-0.594063	0.449367	0.545143
0.574218	0.0156629	0.320677	-0.383136	-0.205484	-0.315137	0.675381	0.323977	-0.484451	0.273025	0.245046	-0.389024	0.611986	-0.561424	-0.437503	-0.123385	-0.240343	-0.228239	0.642063	-0.266922	-0.244917	0.422217	-0.53125	-0.577286	0.352066	0.592108	0.280623	0.551129	0.171016	-0.563066	0.200702	0.265935
0.563957	0.182552	0.511084	-0.54699	-0.587391	-0.106621	0.219161	0.432038	-0.422981	0.228947	0.477485	-0.50994	0.346792	-0.0695936	-0.446068	-0.469622	-0.295801	-0.512486	0.218223	-0.545519	-0.603414	0.264452	-0.397107	-0.530491	0.526729	0.510747	0.670395	0.422107	0.549741	-0.597823	0.378496	0.545577
0.295812	0.121406	0.228245	-0.320801	-0.344573	-0.226278	0.568136	0.264779	-0.492953	0.481369	0.13295	-0.413229	0.452156	-0.21127	-0.43597	-0.30873	-0.436252	-0.473457	0.569274	-0.194748	-0.548358	0.396016	-0.32929	-0.427643	0.381436	0.356885	0.29998	0.549343	0.351998	-0.440907	0.409175	0.349039
0.32691	0.0537557	0.513348	-0.543707	-0.273296	-0.417863	0.364731	0.197724	-0.525513	0.354376	0.542328	-0.288479	0.526219	-0.35566	-0.269546	-0.309009	-0.170461	-0.377613	0.148562	-0.568844	-0.423789	0.6108	-0.560839	-0.232519	0.260589	0.218682	0.566343	0.306018	0.233584	-0.644101	0.54662	0.463145
0.532218	0.490064	0.461753	-0.273339	-0.385995	-0.412089	0.487407	0.611197	-0.35498	0.493936	0.401065	-0.460216	0.322322	-0.366181	-0.40245	-0.546384	-0.566011	-0.304138	0.456562	-0.30084	-0.415941	0.452953	-0.286626	-0.395705	0.620818	0.37636	0.515688	0.443703	0.497344	-0.407335	0.527637	0.383483
0.603902	0.202464	0.533124	-0.433642	-0.53651	-0.361829	0.238812	0.544068	-0.313062	0.249167	0.587269	-0.505808	0.255587	-0.269621	-0.42317	-0.504187	-0.301774	-0.503923	0.276685	-0.537763	-0.5348	0.278933	-0.225124	-0.516254	0.518844	0.506204	0.530378	0.365645	0.575423	-0.582235	0.255942	0.536594
0.632512	0.229068	0.454023	-0.506525	-0.541821	-0.279972	0.363518	0.556061	-0.452352	0.222442	0.548317	-0.657625	0.361907	-0.352067	-0.592854	-0.447808	-0.269263	-0.544427	0.306354	-0.410507	-0.50239	0.283973	-0.287275	-0.569888	0.445415	0.607155	0.446968	0.440903	0.461949	-0.501583	0.29146	0.365335
0.28128	0.642819	0.348086	-0.252723	-0.753345	-0.398538	0.187057	0.608186	-0.454928	0.503428	0.510189	-0.588964	0.276919	-0.321788	-0.31171	-0.624859	-0.423158	-0.343898	0.429206	-0.469971	-0.433716	0.429652	-0.316236	-0.450026	0.515195	0.423249	0.285881	0.448682	0.506423	-0.181127	0.593965	0.367599
0.544366	0.14443	0.76294	-0.625877	-0.173437	-0.56065	0.41811	0.416165	-0.491702	0.426941	0.508231	-0.495153	0.673272	-0.490608	-0.254068	-0.350466	-0.283036	-0.507906	0.374862	-0.419326	-0.287533	0.455935	-0.342976	-0.276131	0.363343	0.368759	0.604427	0.188491	0.11257	-0.446821	0.610198	0.352958
0.277569	0.750147	0.247787	-0.371488	-0.327703	-0.428241	0.233118	0.580863	-0.121916	0.288961	0.644284	-0.217588	0.244422	-0.353192	-0.365814	-0.527647	-0.207882	-0.254856	0.599155	-0.606885	-0.546963	0.529851	-0.362144	-0.311602	0.268574	0.236249	0.311961	0.3982	0.66555	-0.20487	0.456137	0.731786
0.194438	0.0271554	0.281548	-0.129182	-0.273158	-0.250437	0.224419	0.408989	-0.199394	0.6003	0.38807	-0.301451	0.27	-0.0595124	-0.234455	-0.383383	-0.254751	-0.0121889	0.371065	-0.326032	-0.456671	0.471668	-0.297091	-0.240655	0.339637	0.182134	0.343432	0.387907	0.642327	-0.342306	0.497301	0.69954
0.53735	0.306998	0.412259	-0.392213	-0.566477	-0.188611	0.266531	0.482388	-0.430085	0.29763	0.544415	-0.499584	0.419505	-0.270655	-0.424487	-0.581159	-0.553948	-0.557747	0.302754	-0.35809	-0.46333	0.354257	-0.419274	-0.560221	0.586419	0.437564	0.505751	0.465111	0.54664	-0.501253	0.21376	0.495896
0.240328	0.360452	0.302015	-0.13861	-0.239631	-0.405833	0.439359	0.164577	-0.240379	0.374324	0.242063	-0.343034	0.384865	-0.301333	-0.504981	-0.275922	-0.3104	-0.307227	0.29725	-0.436943	-0.342889	0.353289	-0.383655	-0.383911	0.185648	0.41683	0.259494	0.326582	0.235209	-0.401723	0.207442	0.292983
0.498671	0.31004	0.443516	-0.549409	-0.360752	-0.353516	0.594427	0.292939	-0.534043	0.529064	0.244975	-0.512907	0.501578	-0.503278	-0.530182	-0.293806	-0.351311	-0.321325	0.651981	-0.177262	-0.296633	0.288681	-0.459303	-0.467035	0.605508	0.562196	0.327249	0.472742	0.22195	-0.269662	0.385734	0.265122
0.235494	0.440698	0.600095	-0.441033	-0.479582	-0.649942	0.338783	0.440186	-0.327814	0.510462	0.455243	-0.53807	0.349125	-0.578516	-0.31749	-0.559439	-0.263456	-0.410119	0.2982	-0.512284	-0.420292	0.356217	-0.428761	-0.253006	0.300593	0.439143	0.50617	0.365813	0.469461	-0.365351	0.524611	0.457104
0.624482	0.375456	0.579032	-0.478081	-0.543608	-0.176686	0.441218	0.547647	-0.388645	0.319828	0.610098	-0.520174	0.321674	-0.193802	-0.571493	-0.425114	-0.318549	-0.556245	0.248045	-0.504938	-0.526628	0.328062	-0.338291	-0.538478	0.544944	0.620751	0.489396	0.622356	0.537273	-0.649486	0.285747	0.524241
0.391259	0.327799	0.477875	-0.359565	-0.343107	-0.32181	0.235581	0.332724	-0.367063	0.239296	0.424265	-0.357665	0.213197	-0.270266	-0.33793	-0.381094	-0.276934	-0.477818	0.284351	-0.345315	-0.418561	0.311203	-0.41852	-0.605768	0.428879	0.327929	0.490723	0.345859	0.352032	-0.488765	0.197496	0.365974
0.260379	0.643315	0.425893	-0.269111	-0.251858	-0.454342	0.213738	0.553423	-0.207736	0.341385	0.544755	-0.275426	0.199391	-0.568969	-0.237183	-0.660497	-0.275242	-0.212211	0.566304	-0.32214	-0.603294	0.44077	-0.333756	-0.285051	0.312668	0.192268	0.208806	0.163287	0.492004	-0.200047	0.541211	0.543502
0.444041	0.296043	0.317088	-0.153184	-0.672074	-0.517781	0.329102	0.505273	-0.309891	0.565878	0.562285	-0.3495	0.307114	-0.385985	0.0425626	-0.585629	-0.588599	-0.357656	0.204175	-0.536088	-0.146412	0.241396	-0.522633	-0.315173	0.473662	0.496357	0.46788	0.278164	0.651078	-0.115012	0.349434	0.336308
0.595231	0.285497	0.411004	-0.299753	-0.429729	-0.193982	0.407944	0.491306	-0.426271	0.40803	0.369969	-0.381608	0.342669	-0.206369	-0.263155	-0.477073	-0.449995	-0.362163	0.551309	-0.213807	-0.550353	0.378535	-0.496942	-0.41334	0.592879	0.277338	0.307216	0.324414	0.61605	-0.375858	0.587138	0.414322
0.309542	-0.00605839	0.381858	-0.458218	-0.180362	-0.173755	0.464052	0.150724	-0.610454	0.347007	0.304598	-0.355427	0.261721	-0.372348	-0.592229	-0.155579	-0.371663	-0.645559	0.405681	-0.501164	-0.0835016	0.248162	-0.478871	-0.507881	0.13333	0.426168	0.375338	0.455584	0.192308	-0.562129	0.431738	0.563701
0.126818	0.541532	0.306585	-0.234134	-0.481505	-0.323969	0.196937	0.66369	-0.107567	0.431416	0.441132	-0.475996	0.136531	-0.206886	-0.312163	-0.373227	-0.197294	-0.0858418	0.24726	-0.401155	-0.279432	0.137177	-0.298614	-0.143959	0.31926	0.172399	0.191108	0.161415	0.57868	-0.182815	0.513616	0.564166
0.551051	0.0842669	0.492528	-0.325913	-0.597427	-0.27714	0.254459	0.328538	-0.309719	0.23836	0.550354	-0.582658	0.416108	-0.257238	-0.492919	-0.463591	-0.625649	-0.648652	0.272506	-0.293093	-0.53043	0.271214	-0.335626	-0.470913	0.627716	0.389578	0.552594	0.419157	0.662323	-0.449914	0.317144	0.381386
0.232226	0.495157	0.288777	-0.26814	-0.454142	-0.133567	0.225283	0.488834	-0.11847	0.383539	0.322374	-0.169274	0.313088	-0.367007	-0.297399	-0.467401	-0.380452	-0.37626	0.315042	-0.617007	-0.466323	0.380649	-0.508651	-0.126534	0.217297	0.234763	0.330216	0.301552	0.585359	-0.348693	0.317881	0.554311
0.463028	0.358087	0.307791	-0.39416	-0.382846	-0.458524	0.501076	0.402339	-0.354181	0.380539	0.438564	-0.319198	0.423619	-0.476845	-0.470466	-0.439412	-0.523469	-0.433446	0.402713	-0.418268	-0.24972	0.462913	-0.425664	-0.552145	0.370277	0.436251	0.41498	0.503549	0.417727	-0.436339	0.392325	0.337024
0.324672	0.36503	0.537535	-0.412251	-0.322805	-0.620946	0.401011	0.232203	-0.48708	0.339563	0.528904	-0.230823	0.48159	-0.344353	-0.417373	-0.463231	-0.338202	-0.396361	0.246091	-0.516375	-0.539535	0.58386	-0.583604	-0.219572	0.265754	0.32679	0.597813	0.264958	0.221746	-0.521917	0.471479	0.603868
0.477714	0.431235	0.466495	-0.464703	-0.402493	-0.50492	0.491456	0.537516	-0.435479	0.311384	0.511501	-0.411097	0.391887	-0.465735	-0.30717	-0.437316	-0.415251	-0.360046	0.336075	-0.548524	-0.273705	0.393395	-0.39595	-0.498263	0.354537	0.35466	0.494692	0.443226	0.386517	-0.433311	0.636006	0.351478
0.265006	0.4901	0.350632	-0.314115	-0.367524	-0.628812	0.234463	0.528075	-0.172099	0.346586	0.398894	-0.506841	0.378927	-0.244036	-0.164663	-0.698756	-0.655546	-0.290286	0.348081	-0.203013	-0.312999	0.436651	0.11456	-0.199911	0.287361	0.228327	0.480647	0.262112	0.152768	0.0271205	0.269796	0.419587
0.421217	0.0610446	0.524042	-0.390087	-0.495948	-0.175902	0.0977375	0.388072	-0.308644	0.108161	0.481475	-0.258756	0.287485	-0.1152	-0.256475	-0.312009	-0.270646	-0.398009	0.0760343	-0.433954	-0.472727	0.169139	-0.315985	-0.349428	0.409691	0.357987	0.463228	0.12456	0.325299	-0.551473	0.0482728	0.390582
0.327764	0.156609	0.222008	-0.350824	-0.135962	-0.162289	0.451809	0.170856	-0.348516	0.365956	0.147323	-0.433651	0.370748	-0.407895	-0.426044	-0.127322	-0.143321	-0.257945	0.480561	-0.149426	-0.194302	0.353437	-0.153551	-0.367661	0.378271	0.409364	0.102671	0.356397	0.228629	-0.16237	0.344661	0.0951893
0.335788	0.604197	0.386092	-0.262301	-0.547709	-0.262502	0.191689	0.550616	-0.339685	0.367137	0.498751	-0.288314	0.227464	-0.272636	-0.217077	-0.648213	-0.710606	-0.381089	0.334212	-0.323816	-0.298802	0.30557	-0.306774	-0.292222	0.529546	0.262658	0.490107	0.353971	0.579675	-0.271036	0.264627	0.28545
0.263391	0.446276	0.332944	-0.277026	-0.503902	-0.361805	0.576976	0.408415	-0.3338	0.388092	0.309604	-0.374616	0.273386	-0.374584	-0.254957	-0.404476	-0.449939	-0.478332	0.419468	-0.321955	-0.375893	0.480527	-0.280972	-0.498049	0.466402	0.479719	0.434029	0.451523	0.255636	-0.408861	0.533027	0.318091
0.256811	0.161267	0.477067	-0.534998	-0.138969	-0.402981	0.500739	0.212031	-0.427659	0.306834	0.314224	-0.309776	0.553707	-0.470955	-0.284288	-0.261481	-0.198882	-0.491824	0.386459	-0.423914	-0.272996	0.569113	-0.537494	-0.448415	0.27822	0.389008	0.453232	0.267285	0.13879	-0.528476	0.526164	0.172862
0.325011	0.498864	0.268631	-0.190563	-0.31759	-0.105731	0.382025	0.205957	-0.393155	0.534104	0.154538	-0.420828	0.378623	-0.366304	-0.445594	-0.225354	-0.280182	-0.237855	0.505587	-0.121401	-0.107459	0.239566	-0.39796	-0.113516	0.381229	0.361259	0.239813	0.317857	0.433957	-0.163308	0.236061	0.302492
0.499855	0.192436	0.274714	-0.407948	-0.289097	-0.414577	0.533326	0.411781	-0.408809	0.378491	0.217025	-0.450408	0.438073	-0.480424	-0.607602	-0.273285	-0.369036	-0.505353	0.350609	-0.197003	-0.364186	0.471393	-0.365322	-0.584025	0.519902	0.58759	0.37588	0.543755	0.315967	-0.336442	0.250931	0.54423
0.227252	0.434885	0.247357	-0.211708	-0.356985	-0.527141	0.553657	0.338941	-0.44751	0.607533	0.215723	-0.354637	0.54938	-0.497747	-0.473453	-0.435159	-0.500631	-0.571184	0.556611	-0.539812	-0.378645	0.538072	-0.596455	-0.304683	0.241206	0.300293	0.237641	0.462545	0.323446	-0.49218	0.266148	0.397643
0.511714	0.376671	0.301736	-0.196129	-0.393274	-0.202571	0.127172	0.400804	-0.107838	0.267406	0.478576	-0.413584	0.282681	-0.230504	-0.329614	-0.607071	-0.590923	-0.419785	0.222246	-0.147159	-0.504563	0.375206	-0.194883	-0.522698	0.617003	0.210739	0.504227	0.365328	0.576833	-0.46418	0.287935	-0.0144036
0.421357	0.401087	0.445173	-0.421992	-0.299391	-0.308315	0.402291	0.422749	-0.392398	0.449575	0.426565	-0.444544	0.495164	-0.502695	-0.449302	-0.286044	-0.349659	-0.330454	0.364269	-0.421064	-0.262537	0.490596	-0.367149	-0.626739	0.27439	0.444219	0.492297	0.292477	0.243672	-0.504239	0.225688	0.30323
0.398187	0.122945	0.629463	-0.658839	-0.294139	-0.530477	0.297956	0.379016	-0.511744	0.287574	0.636242	-0.299988	0.564578	-0.600938	-0.340132	-0.282119	-0.148259	-0.430786	0.275213	-0.539188	-0.431256	0.402599	-0.683534	-0.232632	0.130465	0.239631	0.655433	0.302944	0.128752	-0.375481	0.477366	0.596139
0.462345	0.626965	0.335845	-0.264333	-0.567388	-0.281956	0.342001	0.294589	-0.284455	0.37191	0.390677	-0.46662	0.256394	-0.322922	-0.481684	-0.57165	-0.547336	-0.355863	0.350305	-0.340035	-0.365216	0.295526	-0.478238	-0.392041	0.523433	0.429862	0.454426	0.501376	0.510366	-0.470444	0.359029	0.471468
0.26189	0.60721	0.356977	-0.239637	-0.366145	-0.457781	0.322691	0.561533	-0.205297	0.515561	0.352125	-0.423387	0.212689	-0.222964	-0.199824	-0.629479	-0.481527	-0.337806	0.545173	-0.278814	-0.448	0.517707	-0.165828	-0.147618	0.454135	0.300722	0.307632	0.325005	0.349893	-0.228435	0.44366	0.229108
0.326887	0.328355	0.466094	-0.338006	-0.503273	-0.283234	0.301906	0.345985	-0.293819	0.320048	0.486216	-0.407332	0.34645	-0.228281	-0.371158	-0.455892	-0.287321	-0.519356	0.328731	-0.325432	-0.425155	0.319228	-0.394547	-0.447169	0.334984	0.351278	0.455121	0.299851	0.481482	-0.375978	0.205872	0.244667
0.212297	0.51226	0.34156	-0.20812	-0.217114	-0.758053	0.625295	0.262143	-0.545818	0.618988	0.190456	-0.268898	0.515319	-0.550775	-0.362082	-0.23807	-0.483785	-0.471756	0.534615	-0.588752	-0.389771	0.590935	-0.839303	-0.376337	0.1829	0.362025	0.254495	0.31191	0.143507	-0.622544	0.311713	0.554961
0.632747	0.380224	0.428299	-0.342122	-0.507918	-0.286619	0.491829	0.510778	-0.305937	0.437771	0.550246	-0.417934	0.362838	-0.315818	-0.326814	-0.52999	-0.5812	-0.451013	0.558006	-0.281814	-0.321852	0.548434	-0.235619	-0.47703	0.698697	0.551738	0.416773	0.452555	0.634884	-0.355218	0.525526	0.355161
0.410595	0.675225	0.503538	-0.598152	-0.584754	-0.367452	0.18348	0.533166	-0.358651	0.269416	0.478193	-0.564031	0.475842	-0.46153	-0.339565	-0.382148	-0.455699	-0.360084	0.372938	-0.570777	-0.458718	0.449238	-0.561023	-0.469832	0.411467	0.353549	0.653506	0.241533	0.350267	-0.511682	0.419349	0.431164
0.27062	0.489608	0.403431	-0.42847	-0.36457	-0.489367	0.552795	0.310092	-0.31086	0.378929	0.405715	-0.337783	0.350695	-0.287442	-0.393353	-0.406011	-0.386101	-0.336624	0.330905	-0.497782	-0.440126	0.500851	-0.696735	-0.434228	0.242275	0.420622	0.315248	0.337201	0.441274	-0.460696	0.512501	0.62836
0.269302	0.611756	0.341079	-0.29352	-0.203746	-0.595805	0.504539	0.202186	-0.294087	0.476591	0.279539	-0.206019	0.56143	-0.5261	-0.448204	-0.373701	-0.399234	-0.397921	0.516658	-0.538243	-0.239316	0.570544	-0.480165	-0.143202	0.204059	0.177313	0.217245	0.263296	0.187906	-0.526287	0.266127	0.41197
0.317573	0.25806	0.608788	-0.539719	-0.21422	-0.65078	0.575898	0.234923	-0.472497	0.22822	0.394974	-0.249383	0.417901	-0.536003	-0.464593	-0.374825	-0.239455	-0.381853	0.30718	-0.56102	-0.448491	0.547332	-0.548887	-0.418527	0.278825	0.273493	0.520734	0.337367	0.327123	-0.598399	0.541542	0.447192
0.238123	0.561879	0.225516	-0.145358	-0.547022	-0.271122	0.252498	0.579387	-0.293951	0.396267	0.472743	-0.30772	0.279943	-0.0908418	-0.249402	-0.320054	-0.158586	-0.247803	0.170955	-0.254822	-0.133609	0.251916	-0.235876	-0.324591	0.401361	0.252613	0.261972	0.35689	0.576073	-0.260346	0.383655	0.41621
0.281877	0.323295	0.625099	-0.582122	-0.132919	-0.578932	0.145631	0.322953	-0.201028	0.194577	0.499227	-0.302423	0.509318	-0.528514	-0.31016	-0.291562	-0.208566	-0.393235	0.265302	-0.460406	-0.219011	0.538974	-0.449088	-0.264073	0.356428	0.169505	0.596314	0.204167	0.289972	-0.415223	0.48762	0.503535
0.165543	0.235571	0.30513	-0.194722	-0.3234	-0.588976	0.273511	0.332091	-0.24706	0.14525	0.374061	-0.226853	0.356801	-0.23837	-0.359988	-0.299073	-0.353709	-0.213772	0.147072	-0.50836	-0.549288	0.245542	-0.677119	-0.0800981	0.401237	0.0954129	0.517879	0.242857	0.174377	-0.497472	0.457698	0.39469
0.241071	0.693427	0.265421	-0.248148	-0.511425	-0.169699	0.192271	0.572712	-0.315031	0.406632	0.645458	-0.511169	0.174157	-0.310858	-0.260752	-0.472999	-0.221803	-0.121839	0.359394	-0.399296	-0.236637	0.177577	-0.203158	-0.338362	0.341998	0.160775	0.252274	0.311533	0.56144	-0.13904	0.468445	0.554156
0.218702	0.482389	0.401138	-0.235224	-0.563927	-0.200942	0.195533	0.607746	-0.218898	0.402201	0.551396	-0.538193	0.0248821	-0.336349	-0.232097	-0.422421	-0.255941	-0.226424	0.266796	-0.428085	-0.319128	0.173014	-0.442879	-0.229974	0.383238	0.205174	0.259125	0.37851	0.557471	-0.178104	0.492299	0.592989
0.644016	0.233571	0.465983	-0.582561	-0.269057	-0.410091	0.58684	0.274599	-0.673248	0.261954	0.24806	-0.428174	0.580414	-0.488236	-0.535144	-0.210281	-0.425286	-0.567263	0.403694	-0.471328	-0.374933	0.371883	-0.594166	-0.441052	0.329709	0.523341	0.370249	0.530341	0.313295	-0.529505	0.29862	0.479396
0.216106	0.261506	0.382326	-0.460835	-0.208784	-0.525887	0.486044	0.216964	-0.626332	0.23594	0.300013	-0.266874	0.544717	-0.443813	-0.288966	-0.321931	-0.253931	-0.227206	0.201523	-0.539833	-0.283647	0.510413	-0.55979	-0.204448	0.167461	0.210812	0.576985	0.170649	0.199441	-0.579803	0.442882	0.4139
0.385121	0.51082	0.423971	-0.352931	-0.464682	-0.376369	0.56036	0.336555	-0.434456	0.304467	0.43776	-0.50311	0.409689	-0.349371	-0.412922	-0.407555	-0.4807	-0.453075	0.389288	-0.438392	-0.37305	0.390848	-0.324736	-0.367995	0.488314	0.47173	0.50258	0.39989	0.319011	-0.480233	0.463056	0.210505
0.310798	0.533078	0.48004	-0.40232	-0.230882	-0.646706	0.199775	0.597223	-0.505311	0.433617	0.362004	-0.235491	0.386087	-0.596874	-0.31492	-0.600889	-0.305265	-0.217163	0.413797	-0.440204	-0.519954	0.41163	-0.351755	-0.221739	0.37535	0.129401	0.244594	0.189192	0.329325	-0.377104	0.576927	0.64631
0.438072	0.514468	0.43361	-0.312303	-0.60707	-0.396324	0.277905	0.580248	-0.249949	0.491248	0.407395	-0.704376	0.450931	-0.434573	-0.404218	-0.542613	-0.602907	-0.424731	0.509976	-0.187816	-0.589607	0.580151	-0.0462818	-0.433537	0.655807	0.36733	0.325713	0.36998	0.664294	-0.219101	0.517385	0.183192
0.436149	0.412163	0.550327	-0.625787	-0.412673	-0.499525	0.387194	0.453456	-0.496202	0.387663	0.458737	-0.423791	0.524868	-0.621744	-0.432493	-0.491748	-0.409359	-0.397661	0.364433	-0.467819	-0.314105	0.447057	-0.498848	-0.382106	0.494979	0.488135	0.561754	0.44055	0.349358	-0.437136	0.566569	0.364586
0.0562161	0.209383	0.554498	-0.314306	-0.296054	-0.586674	0.456357	0.430256	-0.417168	0.41034	0.658158	-0.220428	0.420224	-0.520257	-0.265829	-0.439383	-0.214483	-0.45042	0.127291	-0.510169	-0.23481	0.415554	-0.369848	-0.139451	0.19143	0.00804081	0.511539	0.188987	0.281322	-0.399137	0.554318	0.509591
0.326151	0.103748	0.318351	-0.32286	-0.353535	-0.10456	0.246751	0.502989	-0.383091	0.0737713	0.418585	-0.318939	0.139351	-0.00933563	-0.191352	-0.422133	-0.0282988	-0.306945	0.0740715	-0.382711	-0.480594	0.0770542	-0.142219	-0.309985	0.119152	0.2337	0.33517	0.341113	0.433337	-0.360072	0.0619006	-0.0311213
0.437501	0.642886	0.32372	-0.155086	-0.512868	-0.28412	0.350832	0.542175	-0.137557	0.622241	0.407977	-0.317063	0.26521	-0.164624	-0.360687	-0.584197	-0.653699	-0.370416	0.58953	-0.261176	-0.530061	0.597689	-0.217413	-0.385193	0.519427	0.353025	0.272539	0.455302	0.575859	-0.348689	0.468378	0.190443
0.0995678	0.275362	0.193861	-0.0991392	-0.309684	-0.253029	0.332768	0.504183	-0.0893742	0.375979	0.270285	-0.368183	0.0840009	0.0934487	-0.197924	-0.513113	-0.414766	-0.237101	0.26219	0.00598107	-0.434306	0.11797	0.051899	-0.182681	0.315589	0.188105	0.376884	0.311112	0.293544	-0.23031	0.481205	0.00540575
0.425914	0.261201	0.343923	-0.446119	-0.56071	-0.294268	0.619903	0.365973	-0.515637	0.445091	0.248338	-0.574413	0.429893	-0.482624	-0.526951	-0.377556	-0.539526	-0.539135	0.531	-0.33959	-0.35379	0.34567	-0.150656	-0.458481	0.633074	0.52481	0.385504	0.477565	0.316085	-0.355438	0.545891	0.107239
0.110441	0.457383	0.222942	-0.0220422	-0.464776	-0.184605	0.246542	0.580257	-0.252245	0.244564	0.485134	-0.246075	0.227145	-0.426851	-0.225432	-0.598336	-0.559188	-0.162971	0.463253	-0.317019	-0.325553	0.457822	-0.0761239	-0.191944	0.492522	0.213405	0.339342	0.476314	0.561079	-0.236817	0.475701	0.533523
0.36365	0.611008	0.295446	-0.271606	-0.43865	-0.336699	0.262869	0.497005	-0.239163	0.461424	0.312888	-0.511537	0.440217	-0.337421	-0.39646	-0.511147	-0.463576	-0.427709	0.461269	-0.425754	-0.41523	0.497194	-0.22558	-0.328667	0.481622	0.384821	0.542828	0.456448	0.544227	-0.49902	0.481094	0.228288
0.266323	0.217673	0.50798	-0.456139	-0.456787	-0.501253	0.328077	0.382706	-0.422307	0.216691	0.468067	-0.438031	0.624909	-0.468284	-0.411361	-0.459324	-0.384823	-0.522335	0.343689	-0.455592	-0.643613	0.51003	-0.302041	-0.451155	0.342104	0.40497	0.493226	0.290286	0.343116	-0.534983	0.417216	0.4688
0.471684	0.487203	0.296958	-0.288093	-0.424696	-0.327715	0.61984	0.295288	-0.448377	0.285445	0.218826	-0.416039	0.512053	-0.481886	-0.596056	-0.319858	-0.592498	-0.581736	0.524576	-0.491085	-0.453256	0.337313	-0.540845	-0.544933	0.447798	0.636487	0.424125	0.70157	0.369816	-0.574194	0.250531	0.401395
0.406738	0.179088	0.553159	-0.522275	-0.321788	-0.452277	0.465583	0.194005	-0.536402	0.409346	0.424143	-0.341635	0.547996	-0.563805	-0.399395	-0.285969	-0.139365	-0.470769	0.37793	-0.565329	-0.426513	0.58343	-0.611526	-0.393711	0.217364	0.348469	0.536305	0.317105	0.241623	-0.660514	0.443297	0.40506
0.405597	0.461095	0.286729	-0.14547	-0.548169	-0.306294	0.32815	0.649113	-0.31331	0.562259	0.417189	-0.323743	0.376955	-0.204564	-0.353397	-0.69777	-0.628343	-0.262739	0.542345	-0.224194	-0.501972	0.401206	-0.191199	-0.318054	0.432195	0.376418	0.242977	0.37861	0.688463	-0.375476	0.436849	0.257324
0.434635	0.444477	0.355226	-0.4101	-0.311051	-0.383216	0.504636	0.287474	-0.436321	0.346221	0.380992	-0.472759	0.293637	-0.541996	-0.415203	-0.2223	-0.373811	-0.322474	0.48696	-0.372042	-0.27942	0.490916	-0.413935	-0.503173	0.564261	0.448879	0.471019	0.401144	0.303277	-0.463567	0.478424	0.487775
0.187903	0.553033	0.424677	-0.348859	-0.315221	-0.641773	0.31323	0.329616	-0.154381	0.43631	0.369932	-0.145532	0.450502	-0.631799	-0.255272	-0.527942	-0.360804	-0.218326	0.578563	-0.506509	-0.37037	0.62294	-0.410965	-0.31048	0.262452	0.196371	0.302366	0.142532	0.232545	-0.383206	0.467815	0.506855
0.330938	0.606874	0.438975	-0.445342	-0.688493	-0.46622	0.351603	0.468861	-0.241625	0.446479	0.480347	-0.307834	0.377367	-0.477108	-0.364659	-0.500407	-0.686302	-0.250717	0.582061	-0.500725	-0.369041	0.472308	-0.192234	-0.415194	0.437675	0.312784	0.420694	0.447609	0.610357	-0.283409	0.480508	0.384517
0.237783	0.341832	0.59143	-0.314462	-0.456094	-0.650162	0.574631	0.225423	-0.473029	0.274462	0.44195	-0.288168	0.590283	-0.287072	-0.386935	-0.549029	-0.504528	-0.485863	0.285061	-0.661061	-0.47202	0.457587	-0.599197	-0.373631	0.279425	0.404988	0.609464	0.308981	0.344324	-0.614908	0.317289	0.444484
0.376608	0.36423	0.348273	-0.194443	-0.443387	-0.337611	0.335123	0.616258	-0.337682	0.358028	0.460593	-0.476015	0.332959	-0.313217	-0.430968	-0.489641	-0.562378	-0.466556	0.557867	-0.268263	-0.381053	0.186297	-0.235664	-0.518921	0.575724	0.36048	0.336584	0.397008	0.435461	-0.306328	0.312208	0.297086
0.59827	0.277947	0.320154	-0.510356	-0.467278	-0.203837	0.524668	0.289775	-0.391879	0.429047	0.279876	-0.439984	0.437294	-0.479842	-0.53555	-0.310707	-0.593518	-0.411669	0.586994	-0.310823	-0.287229	0.472949	-0.369266	-0.564685	0.482143	0.512118	0.368608	0.441791	0.571987	-0.479268	0.359122	0.17938
0.371345	0.676029	0.38135	-0.190265	-0.411559	-0.317564	0.421713	0.559483	-0.191934	0.448346	0.462582	-0.324486	0.146884	-0.0942072	-0.369724	-0.66946	-0.70364	-0.279569	0.507874	-0.2173	-0.481805	0.477677	-0.179709	-0.450497	0.535295	0.280655	0.438455	0.419163	0.607365	-0.390591	0.46364	0.237456
0.371684	0.638138	0.31501	-0.387815	-0.748129	-0.675401	0.253839	0.449448	-0.0929594	0.402725	0.574895	-0.411127	0.353455	-0.465063	-0.27086	-0.549997	-0.676084	-0.248638	0.501934	-0.172103	-0.290575	0.462627	0.00508321	-0.335542	0.491284	0.383113	0.261144	0.298799	0.626971	-0.178047	0.537911	0.0461251
0.48606	0.260606	0.264084	-0.458171	-0.462261	-0.205616	0.545179	0.226366	-0.433752	0.48056	0.218683	-0.420497	0.437505	-0.431925	-0.496796	-0.226204	-0.463407	-0.384594	0.32674	-0.201132	-0.172058	0.178057	-0.344049	-0.494397	0.597793	0.527408	0.192419	0.465447	0.319971	-0.115364	0.331227	0.288934
0.541782	0.100955	0.481773	-0.46885	-0.244729	-0.387902	0.144539	0.381322	-0.536491	0.490026	0.466558	-0.341909	0.407144	-0.500105	-0.441208	-0.363458	-0.0991722	-0.383109	0.338418	-0.509931	-0.258941	0.608203	-0.526481	-0.419783	0.307266	0.346655	0.465119	0.26545	0.393496	-0.536748	0.374793	0.539361
0.565809	0.0785627	0.517248	-0.518164	-0.404225	-0.375892	0.284781	0.574975	-0.513876	0.251059	0.565056	-0.448384	0.510298	-0.283419	-0.528246	-0.461854	-0.247499	-0.507738	0.264854	-0.483598	-0.404154	0.226095	-0.108165	-0.536797	0.482773	0.520123	0.645793	0.553835	0.479496	-0.523287	0.313991	0.630794
0.431959	0.0999736	0.581957	-0.56847	-0.246442	-0.598983	0.411701	0.401532	-0.589658	0.232337	0.591894	-0.291836	0.516023	-0.537827	-0.399975	-0.278189	-0.183207	-0.360844	0.280249	-0.665123	-0.403703	0.464384	-0.594334	-0.249797	0.307818	0.358852	0.645555	0.254341	0.344041	-0.680518	0.515483	0.801634
0.343123	0.510599	0.470145	-0.395374	-0.478178	-0.532503	0.286784	0.630394	-0.275236	0.414799	0.62508	-0.448606	0.405596	-0.518248	-0.376546	-0.507842	-0.402149	-0.328961	0.458237	-0.399791	-0.364668	0.431048	-0.457765	-0.31724	0.480131	0.411887	0.415184	0.233046	0.426172	-0.325633	0.479072	0.451677
0.509161	0.299429	0.502581	-0.504158	-0.197982	-0.393196	0.53947	0.258402	-0.400027	0.337443	0.310177	-0.565265	0.510915	-0.537849	-0.358931	-0.30325	-0.222201	-0.357904	0.552412	-0.31545	-0.364525	0.44568	-0.214443	-0.500538	0.526393	0.612089	0.232948	0.379524	0.238961	-0.226389	0.324941	0.239595
0.506205	0.52615	0.265186	-0.227294	-0.62161	-0.297242	0.307561	0.529682	-0.311721	0.55237	0.371894	-0.371229	0.332723	-0.240059	-0.316336	-0.570398	-0.619298	-0.171751	0.570357	-0.159865	-0.480125	0.480058	-0.227631	-0.412532	0.561937	0.422689	0.31325	0.513033	0.662999	-0.472971	0.347997	0.18156
0.589079	0.497242	0.585914	-0.516386	-0.609181	-0.375702	0.287627	0.468298	-0.462137	0.347457	0.590018	-0.56873	0.408092	-0.081676	-0.521413	-0.462138	-0.176178	-0.661814	0.163269	-0.467665	-0.516953	0.202427	-0.159055	-0.523734	0.330021	0.390493	0.615214	0.508365	0.503836	-0.329912	0.467406	0.282374
0.311065	0.496956	0.228856	-0.175317	-0.362217	-0.223939	0.42707	0.428769	-0.350537	0.37743	0.223368	-0.35955	0.321849	-0.166493	-0.264915	-0.443593	-0.534651	-0.353466	0.438224	-0.255445	-0.378931	0.427643	-0.198044	-0.247742	0.442714	0.321206	0.366275	0.501304	0.433233	-0.381418	0.406363	0.0645387
0.473773	0.236037	0.404044	-0.273937	-0.447276	-0.284646	0.233871	0.502726	-0.339817	0.292309	0.433265	-0.438516	0.284251	-0.208263	-0.372824	-0.459094	-0.273443	-0.468728	0.113669	-0.460319	-0.448974	0.10004	-0.311058	-0.445788	0.453147	0.330311	0.448725	0.442104	0.459538	-0.275822	0.409933	0.378464
0.164534	0.565674	0.244293	-0.0830984	-0.520233	-0.177412	0.261572	0.462429	-0.160824	0.491327	0.332141	-0.316599	0.154999	-0.134225	-0.0589729	-0.472017	-0.515913	-0.136901	0.31232	-0.181915	-0.254986	0.339432	-0.285567	-0.220221	0.474887	0.286122	0.379997	0.13773	0.215662	-0.0883708	0.556498	0.238263
0.591744	0.238661	0.44553	-0.486546	-0.361513	-0.349705	0.587937	0.292324	-0.506754	0.523724	0.342708	-0.573619	0.623974	-0.500197	-0.510914	-0.317868	-0.377971	-0.406358	0.542375	-0.245395	-0.365254	0.235655	-0.269265	-0.558579	0.561052	0.471738	0.31415	0.37768	0.167962	-0.247689	0.558508	0.205662
0.460051	0.357125	0.269178	-0.267953	-0.458046	-0.424019	0.237217	0.419152	-0.298302	0.354037	0.257046	-0.450184	0.33637	-0.232347	-0.460528	-0.444293	-0.526679	-0.366066	0.433305	-0.269365	-0.385071	0.460419	-0.1813	-0.463131	0.313038	0.352231	0.589636	0.439142	0.552994	-0.443495	0.427085	0.274352
0.459847	0.506758	0.375758	-0.257269	-0.595978	-0.378029	0.455595	0.554955	-0.232067	0.499091	0.337952	-0.443068	0.409075	-0.35375	-0.380184	-0.525282	-0.591524	-0.366459	0.519696	-0.35464	-0.536698	0.552847	-0.186819	-0.347405	0.455451	0.478536	0.376281	0.579342	0.520929	-0.394445	0.515451	0.213036
0.31879	0.651693	0.406992	-0.223049	-0.278633	-0.617063	0.264933	0.472985	-0.197573	0.254417	0.536977	-0.188545	0.230665	-0.354081	-0.271633	-0.505022	-0.21685	-0.202073	0.582073	-0.283754	-0.500677	0.593144	-0.494529	-0.313578	0.20952	0.284437	0.234471	0.228579	0.404627	-0.149435	0.577169	0.56116
0.582245	0.277422	0.436962	-0.4711	-0.669552	-0.271817	0.372918	0.467602	-0.494768	0.196334	0.522556	-0.464171	0.237711	-0.271499	-0.605776	-0.507922	-0.414954	-0.531371	0.22614	-0.59155	-0.472314	0.199429	-0.40094	-0.462292	0.516694	0.412945	0.537935	0.476306	0.504716	-0.498339	0.282696	0.293077
0.564223	0.0654632	0.248522	-0.318599	-0.418665	-0.150246	0.58547	0.315897	-0.444577	0.54203	0.228969	-0.578431	0.551032	-0.43628	-0.43058	-0.109262	-0.483202	-0.305131	0.520591	-0.176543	-0.339959	0.361131	-0.559235	-0.456281	0.562885	0.523053	0.318122	0.645099	0.420094	-0.320829	0.28907	0.385461
0.437347	0.330893	0.42268	-0.640598	-0.267776	-0.420775	0.577747	0.315785	-0.637273	0.257547	0.421668	-0.611064	0.658476	-0.651075	-0.645573	-0.324045	-0.287268	-0.574257	0.490937	-0.500643	-0.377982	0.423591	-0.600078	-0.636458	0.451176	0.599569	0.481823	0.488225	0.243208	-0.612217	0.320736	0.659882
0.413951	0.290232	0.191778	-0.433315	-0.345159	-0.304172	0.574156	0.212651	-0.512664	0.499573	0.196711	-0.579359	0.481357	-0.394506	-0.485991	-0.152668	-0.479728	-0.329481	0.502249	-0.252939	-0.20281	0.330916	-0.588138	-0.431016	0.416777	0.557785	0.231912	0.513766	0.384531	-0.349598	0.214565	0.160983
0.508624	0.435696	0.42042	-0.229205	-0.583516	-0.249018	0.33747	0.454306	-0.213648	0.340324	0.561561	-0.390077	0.256638	-0.302508	-0.293115	-0.574802	-0.508065	-0.465236	0.40732	-0.402125	-0.475859	0.41536	-0.370767	-0.439872	0.48619	0.347971	0.557985	0.345429	0.506775	-0.499911	0.422022	0.348686
0.524098	0.506895	0.435261	-0.365722	-0.394796	-0.438505	0.466005	0.399747	-0.439258	0.426833	0.451087	-0.449609	0.464114	-0.399267	-0.43634	-0.404542	-0.513899	-0.443025	0.459156	-0.364184	-0.423738	0.429994	-0.321073	-0.526656	0.457047	0.473783	0.411012	0.432945	0.514273	-0.347474	0.359278	0.269673
0.28087	0.543853	0.35404	-0.256973	-0.340647	-0.210469	0.398445	0.431384	-0.292561	0.449264	0.264474	-0.509029	0.210803	-0.199667	-0.26498	-0.382286	-0.40827	-0.261604	0.241983	-0.268294	-0.359809	0.305751	-0.16161	-0.238391	0.592355	0.290575	0.322423	0.422711	0.311603	-0.101303	0.662369	0.192462
0.286429	0.273859	0.534765	-0.350676	-0.216614	-0.509403	0.376041	0.459687	-0.315167	0.544639	0.463103	-0.32681	0.40381	-0.490883	-0.302727	-0.625358	-0.159886	-0.338095	0.465767	-0.446966	-0.584838	0.623446	-0.487997	-0.203304	0.416398	0.397111	0.477891	0.287182	0.527455	-0.254905	0.496784	0.739961
0.48062	0.206916	0.357296	-0.332059	-0.333888	-0.175912	0.259356	0.432124	-0.262065	0.542887	0.238616	-0.316995	0.485887	-0.172304	-0.349128	-0.392374	-0.459409	-0.316545	0.449972	-0.25586	-0.500069	0.520348	-0.0856245	-0.294419	0.445513	0.283512	0.352258	0.267428	0.406309	-0.407698	0.437433	0.370051
0.469501	0.0496759	0.337991	-0.372402	-0.320567	-0.248191	0.608741	0.254763	-0.543799	0.512757	0.361783	-0.484709	0.484035	-0.483031	-0.517783	-0.225003	-0.555805	-0.43107	0.649059	-0.384434	-0.235141	0.31993	-0.500617	-0.339029	0.56393	0.54904	0.259316	0.563681	0.286143	-0.293738	0.456915	0.31267
0.462976	0.0540749	0.138692	-0.116079	-0.213029	-0.319987	0.533357	0.14455	-0.212245	0.412481	0.205083	-0.247443	0.425685	-0.433614	-0.51321	-0.216483	-0.170679	-0.192365	0.508354	-0.0720129	-0.0920105	0.156533	-0.690292	-0.546029	0.446918	0.52723	0.183878	0.53269	-0.00924075	-0.231222	0.232663	0.0501379
0.588226	0.452193	0.466725	-0.299566	-0.55629	-0.269691	0.447705	0.519637	-0.424403	0.537307	0.432716	-0.416374	0.331314	-0.282261	-0.455343	-0.545035	-0.557023	-0.468162	0.297236	-0.415395	-0.46873	0.36913	-0.220929	-0.509489	0.564743	0.364956	0.591718	0.559131	0.56189	-0.449765	0.367779	0.341086
0.303108	0.454279	0.545266	-0.552333	-0.374827	-0.611046	0.464005	0.444902	-0.501742	0.479937	0.445457	-0.518152	0.504377	-0.627596	-0.474656	-0.324306	-0.260468	-0.484099	0.365695	-0.587046	-0.501887	0.364589	-0.525138	-0.30775	0.367179	0.420315	0.510375	0.247511	0.271331	-0.568396	0.549081	0.418639
0.210329	0.213027	0.261583	-0.3695	-0.289458	-0.0772551	0.101393	0.295108	-0.065439	0.343584	0.324768	-0.534887	0.281069	-0.0175002	-0.333906	-0.154564	0.0565128	-0.321923	0.411286	-0.315208	-0.49452	0.187877	-0.556927	-0.156546	0.416448	0.161667	0.418655	0.290496	0.603067	-0.135686	0.443032	0.637206
0.406711	-0.0089475	0.394996	-0.534444	-0.140918	-0.375864	0.254938	0.234082	-0.313671	0.205983	0.434891	-0.318958	0.441977	-0.430081	-0.22836	-0.338203	-0.0358311	-0.33482	0.267232	-0.309166	-0.297351	0.419099	-0.57223	-0.303652	0.324182	0.179617	0.444158	0.253956	0.278103	-0.460131	0.354009	0.501205
0.296325	0.392199	0.502872	-0.674634	-0.462193	-0.447151	0.322069	0.518124	-0.501696	0.377506	0.611319	-0.388444	0.360921	-0.417678	-0.396112	-0.455425	-0.469349	-0.556303	0.326907	-0.447036	-0.507068	0.518579	-0.533432	-0.214533	0.34082	0.217859	0.40694	0.254709	0.400523	-0.340362	0.62566	0.424771
0.504373	0.474627	0.590684	-0.390957	-0.478057	-0.264441	0.251799	0.56276	-0.31712	0.308621	0.592042	-0.542779	0.169855	-0.349105	-0.380755	-0.508844	-0.361418	-0.511673	0.107663	-0.568394	-0.424492	0.176313	-0.268005	-0.547145	0.496686	0.447459	0.502248	0.438322	0.602796	-0.528261	0.311698	0.416405
0.284408	0.447316	0.46119	-0.205352	-0.224632	-0.519401	0.220334	0.5292	-0.216867	0.358419	0.411736	-0.30217	0.22846	-0.464679	-0.187722	-0.505234	-0.248607	-0.162887	0.55905	-0.355446	-0.473241	0.521153	-0.267111	-0.253548	0.282033	0.215655	0.209402	0.201842	0.375855	-0.251816	0.54141	0.588699
0.416536	0.266613	0.581979	-0.548209	-0.255954	-0.588898	0.346262	0.317438	-0.59717	0.305986	0.581791	-0.394296	0.510829	-0.452887	-0.395441	-0.451855	-0.357163	-0.529151	0.34182	-0.656282	-0.422334	0.4928	-0.562951	-0.21939	0.282578	0.329605	0.636303	0.33104	0.375151	-0.635085	0.575655	0.488766
0.274897	0.280146	0.396462	-0.268246	-0.155981	-0.446277	0.437707	0.168367	-0.244474	0.345881	0.219647	-0.310343	0.255046	-0.366779	-0.248186	-0.29183	-0.285375	-0.219548	0.45904	-0.283882	-0.265063	0.266459	-0.312987	-0.462857	0.209424	0.306428	0.406904	0.25481	0.242472	-0.392294	0.284173	0.313378
0.562337	0.192503	0.614851	-0.499285	-0.62514	-0.14933	0.323264	0.442159	-0.322842	0.184564	0.570605	-0.576698	0.170232	-0.158965	-0.568662	-0.409036	-0.204768	-0.597618	0.187908	-0.461499	-0.519537	0.200573	-0.201273	-0.583301	0.64033	0.535865	0.539737	0.600391	0.545508	-0.625332	0.239988	0.41606
0.415663	0.570626	0.414918	-0.3956	-0.556417	-0.225902	0.333873	0.49778	-0.348351	0.435823	0.509975	-0.444751	0.346966	-0.273119	-0.540973	-0.702011	-0.617867	-0.589322	0.390389	-0.453119	-0.512069	0.307276	-0.464892	-0.343327	0.396525	0.357557	0.562999	0.418033	0.33701	-0.466332	0.207273	0.279837
0.431568	0.629844	0.252005	-0.369848	-0.302918	-0.482174	0.222134	0.522527	-0.184076	0.464482	0.537538	-0.319313	0.314891	-0.471554	-0.327708	-0.556094	-0.445764	-0.324091	0.462448	-0.553826	-0.422924	0.59168	-0.456908	-0.322978	0.300561	0.266388	0.414711	0.402602	0.568983	-0.258164	0.445275	0.620397
0.391402	0.265088	0.425075	-0.52435	-0.429455	-0.359375	0.365676	0.306133	-0.322783	0.347782	0.520809	-0.23214	0.251711	-0.358034	-0.265665	-0.501577	-0.333703	-0.599305	0.225274	-0.441809	-0.471947	0.274883	-0.630374	-0.393678	0.356266	0.437349	0.384814	0.23763	0.352456	-0.55152	0.278415	0.557646
0.498292	0.325018	0.385531	-0.568198	-0.261232	-0.438024	0.556536	0.27026	-0.57579	0.392884	0.310006	-0.546782	0.539621	-0.595188	-0.632252	-0.223318	-0.292571	-0.537941	0.432647	-0.44621	-0.393288	0.347043	-0.436126	-0.549137	0.425779	0.595383	0.433388	0.444658	0.318954	-0.54899	0.454491	0.494267
0.483526	0.36391	0.576773	-0.534082	-0.273314	-0.346863	0.264274	0.641737	-0.432294	0.18088	0.564252	-0.431169	0.304317	-0.336256	-0.534022	-0.436128	-0.241212	-0.679138	0.202807	-0.497904	-0.462458	0.310095	-0.297653	-0.498007	0.423429	0.598093	0.521969	0.475036	0.49604	-0.427666	0.194682	0.467385
0.326316	0.583141	0.357311	-0.352708	-0.26004	-0.571784	0.233795	0.598628	-0.326125	0.427759	0.420677	-0.222534	0.236496	-0.425726	-0.266322	-0.510788	-0.35806	-0.336192	0.419638	-0.419658	-0.408954	0.526309	-0.304136	-0.239133	0.280162	0.246229	0.196614	0.347823	0.405311	-0.306041	0.551592	0.524861
0.508795	0.139598	0.439544	-0.518275	-0.285378	-0.40343	0.493839	0.231729	-0.544969	0.250247	0.290362	-0.44491	0.429798	-0.447792	-0.451407	-0.395353	-0.343653	-0.305105	0.28799	-0.43872	-0.243801	0.319327	-0.381505	-0.439914	0.349555	0.460319	0.507968	0.484449	0.396148	-0.525663	0.444736	0.3167
0.499288	0.430625	0.225263	-0.439365	-0.548328	-0.202737	0.355136	0.354945	-0.403785	0.399631	0.370464	-0.46372	0.335361	-0.28654	-0.495957	-0.327912	-0.445894	-0.257231	0.505016	-0.181328	-0.434479	0.197996	-0.243864	-0.594677	0.5797	0.501071	0.266072	0.435825	0.442804	-0.278062	0.16069	0.337823
0.639592	0.395696	0.388982	-0.261264	-0.554182	-0.342618	0.377602	0.477195	-0.256946	0.536815	0.447352	-0.324884	0.386133	-0.325606	-0.395055	-0.534969	-0.529989	-0.315927	0.476623	-0.256323	-0.316178	0.564366	-0.241444	-0.62758	0.606547	0.47929	0.258798	0.396518	0.635845	-0.233525	0.480062	0.354842
0.186133	0.412354	0.303928	-0.184644	-0.429875	-0.130713	0.0524367	0.554593	-0.185773	0.496587	0.282518	-0.31918	0.0473569	0.0732489	-0.132262	-0.473284	-0.310715	0.00324956	0.092119	-0.0416413	-0.51033	0.138026	-0.321583	0.0466819	0.198081	0.0681252	0.139891	0.241849	0.405016	-0.100191	0.575243	0.548525
0.325807	0.353134	0.450441	-0.151074	-0.554123	-0.457686	0.247996	0.23153	-0.283732	0.483865	0.342173	-0.275694	0.311528	-0.289034	-0.307777	-0.19528	-0.5987	-0.533534	0.404488	-0.207971	-0.430171	0.423027	-0.587288	-0.625221	0.403391	0.509487	0.539207	0.423011	0.444377	-0.552955	0.347178	0.268782
0.391757	0.369317	0.20356	-0.341865	-0.297248	-0.241986	0.395119	0.240399	-0.458375	0.373158	0.18574	-0.382423	0.343883	-0.374796	-0.403423	-0.142835	-0.26176	-0.326117	0.437072	-0.250132	-0.310456	0.346255	-0.400239	-0.407307	0.377044	0.536707	0.240683	0.505888	0.267548	-0.283118	0.231109	0.38092
0.5601	0.287504	0.382176	-0.553076	-0.425447	-0.406839	0.612161	0.448305	-0.654233	0.434271	0.314029	-0.606519	0.536225	-0.545828	-0.580992	-0.279005	-0.298057	-0.502487	0.617484	-0.291411	-0.280682	0.344348	-0.395866	-0.586861	0.600641	0.667391	0.386077	0.563944	0.306249	-0.496565	0.59244	0.201068
0.257249	0.435168	0.453123	-0.0612483	-0.405811	-0.261286	0.39279	0.373162	-0.384867	0.455879	0.323719	-0.335226	0.350104	-0.316444	-0.383496	-0.517309	-0.503373	-0.354342	0.297859	-0.395586	-0.552342	0.29496	-0.486012	-0.334208	0.339574	0.281267	0.589247	0.420222	0.309231	-0.581324	0.500397	0.306142
0.408864	0.220417	0.351744	-0.344238	-0.364377	-0.380015	0.474389	0.306683	-0.475719	0.464345	0.297152	-0.438069	0.572582	-0.400658	-0.476615	-0.296895	-0.474292	-0.343528	0.426411	-0.26089	-0.335381	0.488991	-0.37234	-0.545871	0.397352	0.416485	0.394426	0.510612	0.311433	-0.489799	0.359342	0.411226
0.31105	0.707029	0.310596	-0.266247	-0.448502	-0.343051	0.314202	0.621317	-0.10565	0.546495	0.654822	-0.240802	0.194646	-0.330773	-0.228799	-0.608376	-0.505636	-0.309162	0.432942	-0.622988	-0.426312	0.402377	-0.302279	-0.404955	0.362086	0.198849	0.333133	0.540519	0.612554	-0.284721	0.415474	0.639652
0.400265	0.374901	0.454533	-0.370252	-0.383732	-0.482561	0.505686	0.286954	-0.551727	0.40466	0.425381	-0.360973	0.395031	-0.38123	-0.524095	-0.303113	-0.348645	-0.472199	0.398048	-0.582445	-0.307038	0.379271	-0.584343	-0.478216	0.303196	0.554863	0.536988	0.53427	0.369595	-0.575638	0.343524	0.628997
0.280751	0.263789	0.524428	-0.380427	-0.195901	-0.49597	0.588121	0.340275	-0.505585	0.325621	0.368403	-0.27247	0.587723	-0.417077	-0.437658	-0.501767	-0.371616	-0.443542	0.317439	-0.441584	-0.358939	0.522287	-0.485442	-0.150273	0.399137	0.28551	0.546761	0.267551	0.387547	-0.573721	0.571515	0.331559
0.578648	0.18577	0.582571	-0.595239	-0.366806	-0.416436	0.346341	0.274139	-0.587281	0.337319	0.619695	-0.350356	0.414874	-0.450915	-0.337521	-0.175407	-0.20501	-0.466309	0.287148	-0.60962	-0.481339	0.470632	-0.533067	-0.442998	0.399075	0.42201	0.602731	0.42309	0.349043	-0.578567	0.373811	0.533264
0.459622	0.0291705	0.409842	-0.314417	-0.342287	-0.394097	0.305353	0.44225	-0.413578	0.307946	0.351346	-0.397259	0.28945	-0.406372	-0.418599	-0.324344	-0.505283	-0.561412	0.312825	-0.406829	-0.420916	0.18946	-0.365998	-0.524283	0.44458	0.44064	0.42744	0.419963	0.427764	-0.342714	0.187784	0.537851
0.499401	0.484951	0.289109	-0.309799	-0.648265	-0.257344	0.529533	0.279552	-0.501718	0.586001	0.390192	-0.480766	0.441484	-0.256896	-0.459122	-0.347649	-0.619824	-0.286576	0.669453	-0.249059	-0.242202	0.313181	-0.410323	-0.379312	0.544087	0.430817	0.301331	0.5733	0.592036	-0.308082	0.375993	0.1591
0.324814	0.292708	0.362253	-0.196455	-0.565959	-0.301162	0.148515	0.528366	-0.2447	0.509954	0.395812	-0.351139	0.208739	-0.327246	-0.274949	-0.424351	-0.577997	-0.126856	0.517915	-0.291934	-0.386972	0.392491	-0.393464	-0.220672	0.612338	0.2499	0.262527	0.247781	0.59219	-0.28299	0.367007	0.418673
0.339385	0.583622	0.284708	-0.184905	-0.460322	-0.218904	0.267613	0.484079	-0.259563	0.61869	0.262415	-0.464165	0.191732	-0.240015	-0.217426	-0.393156	-0.384396	-0.331319	0.401952	-0.132576	-0.41462	0.415962	-0.194801	-0.143877	0.556397	0.243	0.313848	0.276585	0.492566	-0.252305	0.595273	0.245786
0.154459	0.440465	0.420401	-0.242711	-0.434139	-0.247152	0.240948	0.401396	-0.103161	0.356304	0.443681	-0.291455	0.143507	-0.288474	-0.220854	-0.425945	-0.412715	-0.190619	0.282173	-0.457176	-0.135738	0.135938	-0.274114	-0.198422	0.302752	0.167081	0.231301	0.242346	0.473643	-0.1971	0.40957	0.492851
0.513315	0.072347	0.383359	-0.496263	-0.203092	-0.512706	0.577475	0.264059	-0.524693	0.379555	0.21346	-0.531697	0.636752	-0.625082	-0.601208	-0.105852	-0.203956	-0.488645	0.472883	-0.303726	-0.188992	0.359677	-0.311347	-0.511108	0.48557	0.471971	0.218984	0.609941	0.335643	-0.266343	0.426424	0.378146
0.325183	0.486792	0.342283	-0.300601	-0.264184	-0.197441	0.456869	0.350324	-0.135726	0.293682	0.212434	-0.525314	0.315591	-0.0540599	-0.357614	-0.389297	-0.294305	-0.187592	0.542009	-0.202103	-0.434689	0.351973	-0.359405	-0.326832	0.628861	0.433502	0.263925	0.42432	0.462581	-0.369327	0.486363	-0.030155
0.424081	0.390659	0.41894	-0.528918	-0.336449	-0.563802	0.631143	0.379915	-0.535081	0.331854	0.334385	-0.382521	0.60043	-0.533797	-0.44982	-0.325178	-0.323429	-0.522803	0.485868	-0.541977	-0.462038	0.611454	-0.35132	-0.514816	0.333616	0.559558	0.591974	0.561728	0.322431	-0.608712	0.39063	0.415513
0.405536	0.417222	0.292484	-0.553615	-0.4232	-0.45458	0.415355	0.509991	-0.400244	0.340158	0.480638	-0.385361	0.372147	-0.590248	-0.375166	-0.439841	-0.335561	-0.313864	0.509024	-0.378658	-0.33807	0.50882	-0.18713	-0.353792	0.5522	0.356	0.388157	0.391431	0.456485	-0.322639	0.496532	0.45269
0.436014	0.189263	0.459709	-0.137809	-0.512655	-0.311936	0.137043	0.517414	-0.0566577	0.514864	0.412333	-0.530319	0.129225	-0.417358	-0.49527	-0.511028	-0.62603	-0.382465	0.0968579	-0.404499	-0.673009	0.119863	-0.789399	-0.333023	0.565332	0.259588	0.462676	0.489758	0.532014	-0.431293	0.294418	0.566686
0.573181	0.401193	0.295028	-0.63498	-0.170228	-0.163441	0.2611	0.236581	-0.53707	0.330301	0.246147	-0.388572	0.467642	-0.283475	-0.308793	-0.256917	-0.277282	-0.293617	0.427458	-0.23343	-0.225428	0.358826	-0.430582	-0.511074	0.296903	0.448248	0.190363	0.286503	0.182144	-0.323579	0.185882	0.207771
0.348097	-0.00964748	0.305414	-0.549871	-0.0862937	-0.378023	0.347087	0.131025	-0.385262	0.150933	0.273599	-0.259665	0.430975	-0.423577	-0.257812	-0.158823	-0.146825	-0.220124	0.438998	-0.289666	-0.0581361	0.516286	-0.0724275	-0.357834	0.3221	0.30903	0.326803	0.175029	0.0915716	-0.344559	0.282277	0.252728
0.195065	0.469645	0.460705	-0.416849	-0.436286	-0.476442	0.361464	0.465418	-0.176178	0.369808	0.530296	-0.510416	0.252253	-0.385783	-0.220215	-0.536768	-0.273102	-0.286638	0.339383	-0.372495	-0.323594	0.407603	-0.162472	-0.243018	0.513588	0.251843	0.4405	0.230515	0.381278	-0.145199	0.499082	0.279944
0.536639	0.20614	0.377829	-0.174409	-0.452139	-0.243706	0.316315	0.396161	-0.265535	0.509017	0.315642	-0.371091	0.462318	-0.198418	-0.349359	-0.417769	-0.517094	-0.45566	0.468175	-0.332567	-0.480612	0.570561	-0.391395	-0.487215	0.501027	0.321726	0.517211	0.448474	0.543363	-0.502398	0.320625	0.292288
0.514916	0.363918	0.507989	-0.322809	-0.56825	-0.310677	0.31925	0.605145	-0.108665	0.491668	0.588884	-0.4022	0.365726	-0.201745	-0.434091	-0.540226	-0.612276	-0.145949	0.525046	-0.28412	-0.439212	0.43352	0.166996	-0.308468	0.690772	0.210892	0.34492	0.520345	0.765831	-0.307851	0.424998	0.329818
0.148552	0.193604	0.415271	-0.349129	-0.593294	-0.545519	0.052167	0.459393	-0.241794	0.225304	0.407681	-0.366415	0.34552	-0.497234	-0.177602	-0.556861	-0.745809	-0.587275	0.216772	-0.336179	-0.401733	0.386681	-0.425187	-0.347253	0.460487	0.275831	0.599222	0.345822	0.271622	-0.313803	0.205181	0.547947
0.437407	0.101883	0.5246	-0.314503	-0.0976604	-0.455166	0.174344	0.313207	-0.179752	0.167943	0.474115	-0.202048	0.348611	-0.56147	-0.367818	-0.250781	-0.186904	-0.224888	0.180774	-0.478368	-0.165769	0.399146	-0.366439	-0.378809	0.270402	0.236536	0.444848	0.220026	0.170042	-0.420953	0.15818	0.389284
0.396601	0.328984	0.261265	-0.366105	-0.409724	-0.360219	0.558254	0.348091	-0.297987	0.604815	0.382729	-0.602194	0.452774	-0.480647	-0.599922	-0.420777	-0.513191	-0.513103	0.652262	-0.186445	-0.510537	0.601435	-0.31242	-0.565942	0.561806	0.58781	0.288598	0.538978	0.489896	-0.34851	0.318549	0.309283
0.332726	0.458121	0.287699	-0.0864473	-0.412875	-0.241297	0.346095	0.519434	-0.300957	0.415106	0.451782	-0.407769	0.289606	-0.22775	-0.392159	-0.484492	-0.513963	-0.264047	0.468413	-0.240802	-0.587215	0.468201	-0.347351	-0.375617	0.465815	0.370068	0.451615	0.422598	0.605619	-0.550586	0.417544	0.0280438
0.41201	0.618095	0.515767	-0.29282	-0.315534	-0.504902	0.550666	0.492802	-0.531917	0.466084	0.396077	-0.464917	0.492492	-0.399508	-0.546018	-0.315398	-0.364168	-0.480815	0.468794	-0.374551	-0.382214	0.291253	-0.490693	-0.522393	0.359177	0.449893	0.317271	0.497809	0.425147	-0.411355	0.412474	0.185296
0.412561	0.479096	0.435996	-0.490976	-0.419806	-0.32624	0.437096	0.406254	-0.302921	0.467848	0.330527	-0.460303	0.556198	-0.344341	-0.582355	-0.533372	-0.517654	-0.417533	0.510305	-0.342606	-0.463527	0.447358	-0.538545	-0.435956	0.437691	0.488965	0.489472	0.413876	0.375639	-0.573306	0.445038	0.354336
0.438454	0.395112	0.507073	-0.279489	-0.473253	-0.342253	0.278996	0.534765	-0.359835	0.468465	0.452529	-0.45611	0.337886	-0.365949	-0.313315	-0.517354	-0.617716	-0.342108	0.437663	-0.368358	-0.428033	0.391873	-0.235216	-0.401052	0.456171	0.364127	0.519767	0.356106	0.449822	-0.3491	0.49147	0.23767
0.456497	0.397013	0.401238	-0.423225	-0.467484	-0.273378	0.540575	0.545573	-0.438889	0.659512	0.470102	-0.544187	0.343813	-0.361579	-0.411345	-0.503023	-0.467904	-0.422564	0.379497	-0.531318	-0.195725	0.20224	-0.376454	-0.207184	0.234511	0.619775	0.34393	0.455675	0.623893	-0.273134	0.44428	0.456598
0.101884	0.642534	0.442436	-0.152232	-0.253217	-0.581946	0.140815	0.418717	-0.184265	0.382459	0.489035	-0.123418	0.339855	-0.33259	-0.188402	-0.502224	-0.233941	-0.207733	0.300712	-0.490712	-0.527505	0.533069	-0.254548	-0.0900843	0.179603	0.17454	0.264855	0.188071	0.309486	-0.322464	0.45083	0.492323
0.254468	0.733945	0.12863	-0.0991853	-0.456639	-0.279017	0.301329	0.398123	-0.106969	0.399015	0.205125	-0.332315	0.172111	-0.0975549	-0.105119	-0.528322	-0.553431	-0.366131	0.347847	-0.145435	-0.459252	0.320837	-0.135401	-0.211408	0.325709	0.20346	0.239516	0.445705	0.356186	-0.262373	0.330834	0.124265
0.403886	0.231674	0.411037	-0.425175	-0.25614	-0.393463	0.632505	0.259722	-0.62271	0.318557	0.338642	-0.448103	0.564106	-0.557895	-0.630534	-0.317197	-0.318126	-0.64133	0.446239	-0.509383	-0.455988	0.343664	-0.560955	-0.439744	0.24122	0.578771	0.465193	0.472473	0.343382	-0.537806	0.35684	0.547851
0.388223	0.482133	0.368653	-0.339363	-0.476338	-0.313078	0.297302	0.50968	-0.222336	0.496372	0.518676	-0.417545	0.286661	-0.352584	-0.253169	-0.541589	-0.437771	-0.30158	0.532441	-0.377412	-0.319332	0.375101	-0.355543	-0.470349	0.441697	0.317284	0.31637	0.354915	0.524397	-0.269423	0.401624	0.507892
0.362405	0.681649	0.243821	-0.193239	-0.320538	-0.470001	0.498083	0.47202	-0.411977	0.299461	0.473614	-0.519187	0.251143	-0.48548	-0.3939	-0.247367	-0.254342	-0.32316	0.451023	-0.559639	-0.299973	0.265088	-0.531606	-0.513146	0.378582	0.328424	0.280713	0.484632	0.49207	-0.340759	0.498347	0.424755
0.247337	0.268048	0.59822	-0.519396	-0.164531	-0.527063	0.459946	0.244988	-0.564631	0.17955	0.408244	-0.245552	0.548359	-0.480876	-0.357727	-0.19102	-0.258521	-0.385219	0.220233	-0.540513	-0.415113	0.420897	-0.43125	-0.320216	0.13012	0.285649	0.495541	0.212308	0.192856	-0.512732	0.455041	0.474664
0.428776	-0.0109979	0.377279	-0.409906	-0.265496	-0.317212	0.635762	0.140411	-0.526141	0.300285	0.180947	-0.368838	0.50831	-0.419027	-0.431191	-0.212918	-0.260256	-0.462318	0.476478	-0.294999	-0.263267	0.283262	-0.254947	-0.482866	0.259932	0.476323	0.16534	0.346726	0.238665	-0.303751	0.289884	0.231145
0.110537	0.631765	0.382698	-0.232757	-0.517696	-0.32263	0.308115	0.56356	-0.198021	0.448449	0.451073	-0.507622	0.151667	-0.234396	-0.152017	-0.237906	-0.179496	-0.297998	0.320958	-0.32645	-0.34783	0.165613	-0.237431	-0.19527	0.391575	0.225515	0.254048	0.22341	0.509999	-0.185438	0.584365	0.29216
0.54821	0.269432	0.271708	-0.641087	-0.265684	-0.329429	0.584344	0.255359	-0.60745	0.362557	0.225863	-0.545774	0.466075	-0.644453	-0.449845	-0.135278	-0.174987	-0.262689	0.60362	-0.185709	-0.210778	0.304211	-0.235626	-0.560902	0.402321	0.524524	0.184861	0.411568	0.1341	-0.433462	0.225913	0.10214
0.265393	0.616887	0.56282	-0.438334	-0.394829	-0.644105	0.435887	0.329155	-0.419706	0.327017	0.550027	-0.349976	0.60797	-0.417692	-0.371212	-0.63805	-0.43306	-0.647243	0.276332	-0.51705	-0.565389	0.506012	-0.459516	-0.179049	0.236175	0.3879	0.624723	0.226961	0.355003	-0.533186	0.597831	0.362427
0.311248	0.438505	0.386617	-0.202146	-0.214248	-0.6313	0.0593752	0.535666	-0.186968	0.361318	0.471836	-0.239137	0.145836	-0.547581	-0.276356	-0.502152	-0.189757	-0.213697	0.476268	-0.402665	-0.608164	0.425234	-0.471251	-0.180442	0.31386	0.246779	0.229888	0.215886	0.44556	-0.300041	0.470944	0.673425
0.643698	0.348471	0.597749	-0.606	-0.598109	-0.319278	0.400261	0.58371	-0.353666	0.1827	0.582557	-0.43815	0.220901	-0.323255	-0.589893	-0.39803	-0.237953	-0.618209	0.315798	-0.565294	-0.496941	0.283763	-0.405212	-0.555126	0.603708	0.623626	0.558817	0.442132	0.617472	-0.571342	0.330339	0.574156
0.245576	0.331745	0.179003	-0.0968537	-0.573211	-0.179349	0.189258	0.522796	-0.269455	0.681885	0.322232	-0.435863	0.194219	-0.126955	-0.153349	-0.512049	-0.42214	-0.222167	0.464832	-0.152466	-0.515798	0.504687	-0.292551	-0.166771	0.620757	0.189256	0.29115	0.357916	0.506883	-0.268315	0.54132	0.289033
