0.0294488	0.0283565	0.0226191	-0.0128541	-0.023728	0.0179295	-0.00697475	-0.047493	-0.00655388	-0.0303707	0.0268247	-0.0367785	0.0250337	0.021183	-0.0345923	-0.0107647	-0.010197	-0.00651209	0.0474224	-0.0167401	0.048333	-0.00864917	-0.0178962	0.0170144	-0.00935046	0.0134907	-0.0165643	-0.016703	-0.00516703	-0.0416858	0.0252176	-0.0119626
0.276529	0.577647	0.305272	-0.216874	-0.328888	-0.278995	0.235429	0.329025	-0.112751	0.279501	0.0646835	-0.227161	0.427832	-0.0476072	-0.243938	-0.445164	-0.174458	-0.440252	0.568058	-0.256636	-0.280729	0.289703	-0.355433	-0.264184	0.404617	0.191432	0.29114	0.278338	0.318322	-0.417034	0.321021	0.219243
0.549089	-0.0269394	0.338714	-0.321416	-0.692391	-0.192872	0.275772	0.0614667	-0.232713	0.444667	0.316798	-0.551947	0.461847	-0.332739	-0.50728	-0.16913	-0.323645	-0.310278	0.55989	-0.724408	-0.345592	0.488774	-0.202287	-0.514434	0.559492	0.403424	0.386156	0.222046	0.283248	-0.330366	0.248634	0.636386
0.337994	0.162715	0.586596	-0.213949	-0.539811	-0.352312	0.542377	0.15798	-0.24457	0.44078	0.191966	-0.356079	0.517534	-0.4199	-0.389428	-0.118802	-0.441584	-0.355953	0.486735	-0.562082	-0.365239	0.430476	-0.434967	-0.644154	0.583512	0.459584	0.274315	0.146335	0.227423	-0.406231	0.268597	0.446571
0.497346	-0.0586754	0.348081	-0.475869	-0.567447	-0.523289	0.278777	0.458688	-0.378644	0.453935	0.731252	-0.935841	0.376366	-0.268592	-0.571483	-0.0222568	0.172729	-0.429004	0.198515	-0.618271	-0.111191	0.705653	-0.0542024	-0.481263	0.626949	0.54153	0.694536	0.339847	0.262427	-0.640881	0.245123	0.78606
0.49995	0.210234	0.43019	-0.449807	-0.569474	-0.438907	0.344112	0.480369	-0.351668	0.387298	0.60047	-0.703046	0.383725	-0.0944402	-0.449092	-0.419576	-0.193889	-0.40809	0.243572	-0.309434	-0.208296	0.538228	-0.445747	-0.369757	0.45391	0.636372	0.432208	0.507288	0.267672	-0.469311	0.156546	0.476729
0.358901	0.324808	0.306308	-0.425038	-0.395637	-0.297589	0.215776	0.498809	-0.31481	0.261139	0.589401	-0.439932	0.203288	-0.203885	-0.140001	-0.300633	-0.238634	-0.433816	0.379343	-0.403467	-0.173059	0.352065	-0.42164	-0.239536	0.291452	0.34605	0.507532	0.368492	0.0689725	-0.341689	0.280404	0.171617
0.209184	0.529112	0.263896	-0.473475	-0.410532	-0.587408	0.269919	0.704908	-0.511419	0.487016	0.597407	-0.538759	0.614498	-0.357174	-0.385794	-0.44826	-0.272028	0.0267976	0.0217874	-0.457375	-0.141221	0.419647	-0.299023	-0.453091	0.320066	0.703296	0.479492	0.408953	0.358759	-0.305088	0.250804	0.303684
0.300299	0.219487	0.46238	-0.557317	-0.567207	-0.341912	0.349275	0.24556	-0.247852	0.236153	0.301131	-0.626796	0.311893	-0.222166	-0.321606	-0.235296	-0.205058	-0.547385	0.545147	-0.431753	-0.142247	0.320773	-0.367275	-0.282901	0.394284	0.279771	0.557955	0.245045	0.140903	-0.58825	0.336743	0.33149
0.269311	0.360139	0.230255	-0.699249	-0.245903	-0.57932	0.212118	0.478596	-0.380135	0.0947958	0.556736	-0.552401	0.272954	-0.181167	-0.377586	-0.299767	-0.226421	-0.329325	0.345962	-0.0891204	-0.241606	0.504546	-0.428514	-0.170594	0.224167	0.191844	0.62907	0.340698	0.397522	-0.553398	0.286596	0.590534
0.487815	0.560246	0.253607	-0.112323	-0.413194	-0.214665	0.310449	0.415936	-0.134065	0.486283	0.146064	-0.349852	0.602543	-0.249945	-0.538585	-0.407541	-0.430556	-0.146868	0.19537	-0.447686	-0.446134	0.466429	0.194638	-0.550515	0.454675	0.473015	0.116568	0.304853	0.615532	-0.320372	0.0452961	-0.0456951
0.430896	0.446876	0.466671	-0.302719	-0.408733	-0.632314	0.375869	0.539852	-0.331524	0.378276	0.564519	-0.710307	0.570644	-0.0250273	-0.374937	-0.4328	-0.0838972	-0.358852	0.416519	-0.344307	0.00769611	0.613286	-0.290924	-0.622934	0.358541	0.558482	0.564364	0.202076	0.246009	-0.60731	0.16388	0.30536
0.335143	0.409904	0.264627	-0.327589	-0.257726	-0.360414	0.306194	0.563782	-0.270959	0.446866	0.668242	-0.65415	0.441255	-0.0777278	-0.263072	-0.295463	-0.292235	-0.352403	0.439662	-0.276696	-0.302716	0.734553	-0.2663	-0.518942	0.339626	0.483143	0.524849	0.467543	0.0714291	-0.670897	0.289934	0.272788
0.365781	0.0370657	0.399488	-0.294244	-0.437991	-0.193773	0.755073	0.136781	-0.381099	0.387777	0.582058	-0.839786	0.268477	-0.541974	-0.325423	-0.258136	-0.151892	-0.406361	0.19779	-0.681035	-0.378591	0.422219	-0.311496	-0.385672	0.449195	0.416056	0.353516	0.404899	0.363142	-0.405116	0.297827	0.360068
0.266726	0.185886	0.224758	-0.353903	-0.250188	-0.668337	0.374158	0.609719	-0.429663	0.287424	0.414388	-0.54514	0.523982	-0.354467	-0.584369	-0.480733	-0.182556	-0.164294	0.356071	-0.230832	-0.188855	0.592758	-0.121018	-0.319039	0.341557	0.622551	0.474515	0.293966	0.545084	-0.388783	0.278644	0.577766
0.327135	0.454204	0.442924	-0.286532	-0.522252	-0.502996	0.46619	0.26744	-0.343952	0.428396	0.602201	-0.526419	0.461372	-0.571095	-0.317732	-0.253684	-0.513297	-0.215494	0.37439	-0.549468	-0.506312	0.316301	-0.00386964	-0.482393	0.450422	0.45236	0.263097	0.409189	0.534033	-0.393105	0.249069	0.144605
0.637681	0.126114	0.344098	-0.32952	-0.803552	-0.390442	0.340132	0.406929	-0.0738281	0.596603	0.480616	-0.805703	0.577275	-0.189173	-0.631675	-0.228549	-0.147766	-0.114217	0.331502	-0.690022	-0.155567	0.611007	-0.0120101	-0.736753	0.729928	0.56048	0.436098	0.267532	0.402164	-0.346598	0.242391	0.602112
0.305172	0.446019	0.34969	-0.336309	-0.199946	-0.599808	0.443404	0.565638	-0.514303	0.416847	0.454074	-0.424477	0.521496	-0.574921	-0.53169	-0.427273	-0.501137	-0.0678059	0.218915	-0.290226	-0.274713	0.409973	0.0745326	-0.464569	0.274532	0.568215	0.169546	0.548786	0.46746	-0.120469	0.228657	0.27448
0.398516	0.311371	0.321382	-0.518147	-0.311209	-0.48361	0.287861	0.575754	-0.343748	0.306848	0.436757	-0.451287	0.398776	-0.244818	-0.512933	-0.454357	-0.298187	-0.284266	0.407676	-0.328972	-0.0973079	0.449855	-0.487508	-0.400021	0.371444	0.503775	0.514783	0.174215	0.31199	-0.168126	0.120481	0.385163
0.162502	0.24723	0.386538	-0.27708	-0.152898	-0.287924	0.407742	0.28824	-0.595702	0.30074	0.388146	-0.106761	0.362973	-0.663647	-0.387789	-0.439114	-0.687197	-0.330816	0.217863	-0.533162	-0.651082	0.0865007	-0.233324	-0.28568	0.171877	0.365456	0.135801	0.195206	0.616479	-0.211846	0.475606	0.375752
0.275051	0.438079	0.241164	-0.355118	-0.372455	-0.452661	0.229346	0.635074	-0.387932	0.356357	0.422822	-0.482078	0.406056	-0.311948	-0.419267	-0.587552	-0.264662	-0.154436	0.257674	-0.21189	-0.25271	0.62472	-0.145866	-0.451834	0.544888	0.444241	0.473202	0.318222	0.320463	-0.544607	0.191167	0.237204
0.367824	0.443323	0.286205	-0.38699	-0.330024	-0.520195	0.179523	0.483277	-0.514586	0.376569	0.210176	-0.201358	0.386095	-0.422971	-0.445679	-0.746269	-0.512504	-0.171568	0.251825	-0.166284	-0.458263	-0.0103111	-0.360161	-0.506513	0.296844	0.592658	0.133456	0.526859	0.367034	-0.276919	0.520339	0.223622
0.491443	0.220343	0.292171	-0.136509	-0.612365	-0.376778	0.389739	0.322613	-0.123338	0.505549	0.561539	-0.67754	0.470824	-0.250283	-0.406715	-0.0601274	-0.247506	-0.256638	0.431739	-0.588489	-0.164041	0.55537	-0.0966325	-0.488602	0.564002	0.522132	0.388136	0.225225	0.251633	-0.446278	0.227996	0.447187
0.168113	0.00387885	0.205732	-0.457844	-0.131457	-0.317132	0.256942	0.513452	-0.623808	0.25973	0.508787	-0.0908932	0.336298	-0.332282	-0.215261	-0.373507	-0.416803	-0.164725	0.19071	-0.119714	-0.572437	0.234646	-0.244106	-0.213323	0.0451518	0.316349	0.45167	0.558362	0.44656	-0.302043	0.439842	0.314437
0.475412	0.344292	0.751416	-0.13428	-0.279443	-0.26326	0.68268	0.165783	-0.235102	0.486343	0.405108	-0.28758	0.255491	-0.862279	-0.324151	-0.254864	-0.302014	-0.469624	0.734579	-0.60122	-0.291618	0.465445	-0.630995	-0.523178	0.855677	0.357586	0.120822	0.234032	0.170715	-0.118179	0.505417	0.168695
0.442809	0.123524	0.244101	-0.437094	-0.635752	-0.316314	0.259568	0.286743	-0.503731	0.364178	0.186074	-0.291721	0.169625	-0.304748	-0.575623	-0.27414	-0.884712	-0.396066	0.470205	-0.280184	-0.85391	0.0909995	-0.407388	-0.162686	0.373393	0.231526	0.337233	0.631805	0.567759	-0.44491	0.535779	0.289352
0.57681	0.327184	0.618457	-0.135658	-0.530893	-0.243786	0.655965	0.157366	0.052795	0.361683	0.265036	-0.298614	0.360471	-0.473749	-0.377026	-0.308184	-0.269242	-0.440151	0.434188	-0.623703	-0.283561	0.395614	-0.299525	-0.547039	0.821877	0.358546	0.326679	0.106594	0.267692	-0.22539	0.329268	0.419619
0.328443	0.187155	0.138937	-0.143217	-0.0282054	-0.325206	0.315481	0.202622	-0.22881	0.307327	0.320965	-0.545357	0.356421	-0.249595	-0.233001	-0.185971	-0.0968748	-0.509174	0.440273	-0.354585	-0.142943	0.477174	-0.416325	-0.42451	0.387668	0.402097	0.28133	0.196347	0.323355	-0.400934	0.319134	0.256203
0.43101	0.426556	0.435795	-0.692744	-0.267412	-0.615306	0.183816	0.694599	-0.55002	0.322915	0.600154	-0.401576	0.433297	-0.359271	-0.337326	-0.687367	-0.486748	-0.442386	0.371621	-0.13061	-0.401305	0.411207	-0.373937	-0.308708	0.162323	0.424699	0.448791	0.501991	0.247488	-0.423649	0.449761	0.478276
0.407802	0.330837	0.477606	-0.447506	-0.470908	-0.62727	0.271995	0.449591	-0.420825	0.341805	0.41773	-0.599311	0.519365	-0.207367	-0.374173	-0.388607	-0.182296	-0.476216	0.381224	-0.38198	-0.224112	0.610375	-0.403834	-0.317282	0.367808	0.405689	0.485234	0.525124	0.378475	-0.585405	0.362551	0.531108
0.0907729	0.42568	0.342225	-0.615243	-0.445282	-0.0584856	0.138251	0.448778	-0.595592	0.119976	0.251581	-0.214676	0.154275	-0.0964767	-0.261029	-0.465022	-0.53344	-0.455775	0.417116	-0.053761	-0.518329	0.157131	-0.629778	-0.0288039	0.13874	0.0370461	0.5393	0.496092	0.391554	-0.412814	0.636886	0.348144
0.150499	0.426299	0.353499	-0.392131	-0.5415	-0.448903	0.163393	0.378485	-0.351172	0.291482	0.24754	-0.198054	0.306799	-0.235816	-0.302028	-0.449437	-0.331442	-0.447349	0.409649	-0.278013	-0.329573	0.189307	-0.490536	-0.229502	0.426195	0.271667	0.424432	0.428419	0.483511	-0.419518	0.571264	0.3343
0.650601	0.222779	0.581251	-0.107521	-0.47341	-0.52146	0.442858	0.358809	-0.290107	0.513852	0.548137	-0.774854	0.36632	-0.392763	-0.625253	-0.245605	-0.273018	-0.344725	0.24087	-0.550772	-0.28408	0.495766	0.0163506	-0.486763	0.606196	0.633978	0.425403	0.326929	0.419688	-0.416518	0.153628	0.540007
0.550966	0.40885	0.316768	-0.480115	-0.569246	-0.553137	0.137521	0.454373	-0.439303	0.412983	0.509453	-0.532651	0.564338	-0.244027	-0.531849	-0.347747	-0.398598	-0.237555	0.387807	-0.320748	-0.467936	0.405972	-0.301322	-0.491077	0.395758	0.470245	0.482027	0.358494	0.408894	-0.594992	0.367746	0.597293
0.457148	0.568867	0.287278	-0.23494	-0.276819	-0.257798	0.360978	0.498858	-0.52062	0.350984	0.133375	-0.0349599	0.136176	-0.434303	-0.301742	-0.369164	-0.553819	-0.420251	0.174066	-0.243589	-0.651966	0.138081	-0.307429	-0.306948	0.208325	0.344606	0.195437	0.515035	0.495261	-0.0677821	0.591991	0.293586
0.362093	0.701107	0.42886	-0.694858	-0.41117	-0.586757	0.277236	0.639608	-0.633602	0.216526	0.188778	-0.0725625	0.40185	-0.309278	-0.506643	-0.576959	-0.680743	-0.0505452	0.157412	-0.116747	-0.596926	0.178603	-0.339605	-0.116784	0.28382	0.408659	0.0719466	0.554065	0.641072	-0.461602	0.589189	-0.0266203
0.521033	0.296714	0.541729	-0.24898	-0.402503	-0.134619	0.68466	0.383586	-0.19361	0.354818	0.28468	-0.155082	0.441596	-0.530758	-0.484433	-0.234396	-0.478216	-0.622373	0.495094	-0.565136	-0.391602	0.148214	-0.419659	-0.500141	0.627693	0.334209	0.339204	0.163881	0.390879	-0.428964	0.510139	0.44382
0.691906	0.271375	0.479846	0.0415435	-0.400405	-0.377651	0.543683	0.378068	0.0469347	0.609805	0.474925	-0.524897	0.525846	-0.535924	-0.415888	-0.218597	-0.0924136	-0.179328	0.387301	-0.588947	-0.158319	0.621305	-0.197137	-0.73595	0.675675	0.664443	0.186945	0.000148979	0.26702	-0.136573	0.197774	0.121699
0.224718	0.316596	0.340953	-0.446054	-0.30342	-0.449685	0.303031	0.34118	-0.524919	0.382914	0.423103	-0.19391	0.436686	-0.78611	-0.496882	-0.302061	-0.498442	-0.0893404	0.150663	-0.211767	-0.312394	0.246689	0.00200383	-0.232168	0.350528	0.242298	0.261197	0.50896	0.747429	-0.180372	0.535829	0.378087
0.454569	0.456415	0.373574	-0.428138	-0.548244	-0.579894	0.243936	0.479494	-0.188973	0.509453	0.196413	-0.409094	0.490615	-0.334761	-0.49048	-0.464627	-0.307412	-0.109515	0.215257	-0.434947	-0.384985	0.31876	-0.0772543	-0.563767	0.534145	0.649486	0.39652	0.29508	0.411089	-0.347585	0.179342	0.0847782
0.434469	-0.0301354	0.197907	-0.21887	-0.216119	-0.192825	0.410734	0.387915	-0.170428	0.609216	0.397001	-0.461438	0.373042	-0.285026	-0.315441	-0.252574	-0.258095	0.120075	0.0695142	-0.30764	-0.148559	0.60928	-0.300093	-0.403279	0.528934	0.373758	0.207381	0.120453	0.294051	-0.592707	0.391434	0.578446
0.267396	0.507269	0.410396	-0.471731	-0.424064	-0.357459	0.345719	0.292022	-0.362621	0.370634	0.48865	-0.62621	0.496007	-0.357017	-0.486945	-0.204115	-0.391417	-0.516061	0.604636	-0.541695	-0.337783	0.640319	-0.321884	-0.428993	0.402203	0.403491	0.68952	0.498103	0.298899	-0.553654	0.330549	0.704451
0.0714021	0.665868	0.0894477	-0.711828	-0.180703	-0.487003	0.0909793	0.549926	-0.772457	0.109014	0.311651	-0.326743	0.181654	0.130276	-0.148984	-0.264293	-0.629985	-0.580894	0.64471	-0.0737158	-0.419265	0.38494	-0.639139	-0.131787	0.0689864	0.0372757	0.726726	0.570259	0.11571	-0.452511	0.634916	0.376009
0.377678	0.440545	0.320128	-0.637445	-0.713163	-0.399465	0.211481	0.310976	-0.273884	0.531951	0.372173	-0.427486	0.233587	-0.19991	-0.469251	-0.273559	-0.374939	-0.168038	0.386577	-0.460401	-0.457869	0.289759	-0.198668	-0.446722	0.552718	0.397005	0.337813	0.459463	0.597593	-0.423999	0.368284	0.189452
0.437554	0.670473	0.362375	-0.479831	-0.331591	-0.443383	0.17507	0.725338	-0.419072	0.470304	0.230393	-0.336816	0.474422	-0.161257	-0.635945	-0.842516	-0.32369	-0.107401	0.386342	-0.253954	-0.386594	0.366782	-0.594048	-0.455846	0.339619	0.494721	0.189452	0.578658	0.484145	-0.280991	0.450286	0.38889
0.536192	0.308472	0.321191	-0.445144	-0.41968	-0.355404	0.296231	0.495517	-0.190259	0.440429	0.330146	-0.620698	0.557732	-0.313603	-0.66322	-0.575927	-0.058801	-0.438612	0.334553	-0.332867	-0.0858094	0.53565	-0.201526	-0.445657	0.604266	0.451422	0.532643	0.2411	0.542585	-0.561506	0.323125	0.529455
0.159644	-0.0265401	0.21638	-0.369947	-0.393388	-0.493579	0.135257	0.445024	-0.461882	0.281918	0.210257	-0.120387	0.436668	-0.410034	-0.28552	-0.478422	-0.598268	-0.171334	0.367273	-0.236704	-0.687218	0.0957236	-0.548094	-0.37673	0.23034	0.313789	0.331507	0.686294	0.370996	-0.360037	0.487642	0.330074
0.457187	0.412131	0.368835	-0.0730586	-0.189025	-0.307167	0.665247	0.645446	-0.11392	0.35568	0.273114	-0.474826	0.427766	-0.580183	-0.530528	-0.650394	-0.202314	-0.255837	0.364944	-0.547829	-0.217264	0.485753	-0.32294	-0.527082	0.642733	0.50593	0.351705	0.293956	0.569121	-0.253316	0.242812	0.503958
0.467909	0.210077	0.41689	-0.530321	-0.434584	-0.219047	0.605089	0.13267	-0.515565	0.236969	0.607171	-0.584323	0.220021	-0.429089	-0.371923	-0.188003	-0.268582	-0.523586	0.417497	-0.579759	-0.349827	0.331711	-0.342372	-0.323314	0.398681	0.266693	0.635593	0.403158	0.415249	-0.550124	0.476144	0.603137
0.330203	0.395043	0.250844	-0.443133	-0.252651	-0.397289	0.280339	0.438479	-0.30731	0.346361	0.171457	-0.230916	0.549628	-0.671591	-0.533242	-0.664481	-0.677226	-0.154648	0.422654	-0.418296	-0.473688	0.379691	-0.22821	-0.585386	0.338922	0.394261	0.163475	0.453319	0.353183	-0.108548	0.282464	0.209205
0.513946	0.465449	0.409503	-0.17667	-0.299358	-0.468021	0.631767	0.553841	-0.308303	0.639874	0.473783	-0.675321	0.448684	-0.577896	-0.501871	-0.558933	-0.202477	-0.355554	0.377855	-0.560639	-0.295873	0.496187	-0.261834	-0.593815	0.488629	0.570379	0.248978	0.122582	0.519746	-0.36564	0.273555	0.25189
0.393269	0.576364	0.224087	-0.626636	-0.450771	-0.68093	0.288536	0.596537	-0.50485	0.554326	0.365822	-0.365702	0.649876	-0.34523	-0.596714	-0.513002	-0.436307	-0.209071	0.184398	-0.237587	-0.461208	0.313928	-0.212955	-0.488412	0.356403	0.697886	0.357795	0.498652	0.506766	-0.447717	0.289114	0.283284
0.349364	0.459028	0.530193	-0.416691	-0.470275	-0.12796	0.554946	0.216937	-0.313425	0.255593	0.410358	-0.330376	0.12434	-0.214095	-0.121039	-0.255777	-0.476998	-0.807987	0.564404	-0.627696	-0.528615	0.421909	-0.650657	-0.145324	0.267607	0.103067	0.360363	0.629412	0.109766	-0.536906	0.590958	0.339838
0.762986	0.0478431	0.641939	-0.229996	-0.476535	-0.345113	0.615956	0.497908	-0.0405368	0.602532	0.350299	-0.59821	0.521869	-0.851983	-0.475171	-0.369602	-0.297945	-0.433565	0.266518	-0.335366	-0.230721	0.505237	-0.223402	-0.613471	0.792014	0.441423	0.318433	0.275587	0.381398	-0.224649	0.252193	0.310381
0.239307	0.396205	0.264358	-0.649077	-0.451115	-0.167029	0.221434	0.2229	-0.55977	0.2553	0.388329	-0.391799	0.221498	-0.0431188	-0.0548127	-0.221388	-0.337672	-0.697612	0.745998	-0.289241	-0.379166	0.323356	-0.611386	0.0520989	0.130468	0.0720846	0.769296	0.515586	0.141701	-0.604699	0.72624	0.577147
0.51646	0.334766	0.128259	-0.186163	-0.0699308	-0.296124	0.518478	0.437852	0.0613236	0.521487	0.484896	-0.522538	0.511602	-0.422543	-0.388938	-0.606161	-0.0414946	-0.125213	0.137787	-0.4018	-0.0889859	0.506249	-0.0906202	-0.695471	0.482391	0.580697	0.270166	0.231275	0.451453	-0.195452	0.0164309	0.107209
0.482601	0.491915	0.653583	-0.0879279	-0.495043	-0.282472	0.4597	0.374707	-0.0568246	0.583605	0.130908	-0.365596	0.523354	-0.563006	-0.499888	-0.420857	-0.343266	-0.320758	0.39076	-0.38697	-0.233789	0.4267	-0.33268	-0.441774	0.859577	0.448516	0.322101	0.297623	0.439549	-0.140552	0.340569	0.252088
0.592595	0.227502	0.409574	-0.179479	-0.226848	-0.400453	0.47914	0.631576	-0.128403	0.517554	0.40519	-0.529285	0.349451	-0.431015	-0.559209	-0.638207	-0.236076	-0.278385	0.297884	-0.40441	0.0162214	0.766883	-0.355844	-0.684641	0.461031	0.653917	0.372771	0.386636	0.493768	-0.264041	0.207732	0.527994
0.366446	0.642659	0.34357	-0.330208	-0.46761	-0.505368	0.100446	0.561557	-0.297488	0.47802	0.263196	-0.157509	0.447447	-0.401616	-0.455006	-0.598336	-0.381611	-0.195679	0.228861	-0.0945185	-0.466744	0.145145	-0.31169	-0.483821	0.333756	0.4214	0.127823	0.454355	0.586439	-0.263958	0.390385	0.2974
0.253384	0.237778	0.341385	-0.274161	-0.339676	-0.27176	0.519403	0.0796169	-0.536689	0.253122	0.19601	-0.489013	0.192362	-0.49302	-0.357963	-0.11225	-0.315034	-0.429404	0.453353	-0.532837	-0.38996	0.249225	-0.280172	-0.229316	0.309469	0.325428	0.412653	0.407663	0.348903	-0.366809	0.447176	0.236642
0.328979	0.526695	0.360919	-0.571292	-0.353188	-0.180006	0.331009	0.0711015	-0.574934	0.256141	0.33356	-0.380099	0.0987225	-0.394528	-0.160698	-0.197738	-0.536042	-0.665844	0.746973	-0.397226	-0.507405	0.379892	-0.682404	-0.20951	0.21393	0.0695807	0.607032	0.398956	0.284307	-0.496339	0.633	0.320058
0.773066	0.233857	0.494234	-0.309821	-0.295511	-0.520569	0.422519	0.74872	-0.175113	0.672116	0.495162	-0.680509	0.628988	-0.621723	-0.669362	-0.566141	-0.239181	-0.252066	0.231797	-0.510943	-0.176748	0.647095	-0.0551491	-0.685093	0.519724	0.747869	0.367793	0.227069	0.482643	-0.248734	0.144693	0.437219
0.441539	0.0754169	0.549846	-0.19342	-0.411379	-0.34122	0.488785	0.321743	-0.309459	0.271872	0.473342	-0.471478	0.365015	-0.492763	-0.538744	-0.233648	-0.161275	-0.31924	0.226601	-0.491075	-0.363165	0.468933	-0.231865	-0.547871	0.542815	0.360063	0.230432	0.220876	0.480896	-0.354163	0.306852	0.411989
0.511281	0.0293141	0.377651	-0.0549169	-0.449383	-0.445969	0.609646	0.41182	-0.102336	0.490141	0.557692	-0.784473	0.688246	-0.34877	-0.60653	-0.322905	-0.0428074	-0.210137	0.246989	-0.607872	-0.211354	0.549083	-0.152247	-0.656847	0.566974	0.713569	0.415527	0.0751762	0.232618	-0.404877	0.0685672	0.487672
0.46333	0.395286	0.454562	-0.472806	-0.365974	-0.312037	0.48777	0.472105	-0.291684	0.397798	0.404785	-0.386465	0.673365	-0.57379	-0.55817	-0.697689	-0.357314	-0.339125	0.426534	-0.417001	-0.0442679	0.509751	-0.308466	-0.532676	0.501246	0.49	0.389904	0.186873	0.497973	-0.262534	0.303872	0.291005
0.542815	0.0279852	0.317887	-0.272677	-0.250558	-0.252324	0.555168	0.266506	-0.242511	0.352411	0.442651	-0.604117	0.162254	-0.602627	-0.466992	-0.288332	-0.463475	-0.535278	0.412113	-0.713799	-0.297127	0.425894	-0.399035	-0.52862	0.509679	0.284579	0.300917	0.355912	0.502912	-0.407018	0.419072	0.662649
0.693808	-0.0634742	0.430552	-0.332596	-0.178011	-0.237987	0.573823	0.554337	-0.19996	0.598052	0.523573	-0.699773	0.627256	-0.652741	-0.600848	-0.634936	-0.189545	-0.283482	0.222122	-0.558226	0.00606257	0.456206	-0.116979	-0.657483	0.709455	0.670863	0.238233	0.197189	0.474901	-0.291548	0.218421	0.389728
0.231407	0.7338	0.28335	-0.467416	-0.489625	-0.508542	0.0680806	0.634152	-0.532406	0.379547	0.257591	-0.113572	0.401994	-0.261538	-0.509346	-0.53325	-0.682997	-0.0323591	0.240342	0.0988757	-0.488975	0.332551	-0.280695	-0.278748	0.371059	0.434067	0.239175	0.654284	0.60477	-0.406915	0.635695	0.0701463
0.422774	0.374586	0.39854	-0.251517	-0.732378	-0.518531	0.53634	0.293333	-0.397941	0.464736	0.456784	-0.603342	0.517385	-0.354335	-0.490041	-0.234017	-0.446905	-0.256307	0.385191	-0.557729	-0.50288	0.194368	-0.276179	-0.589279	0.659646	0.353346	0.321454	0.409877	0.440109	-0.520158	0.167876	0.429551
0.219855	0.268455	0.318784	-0.268719	-0.363622	-0.26869	0.418987	0.372141	-0.332814	0.275313	0.24091	-0.207167	0.358165	-0.350327	-0.31199	-0.402144	-0.376741	-0.434106	0.304423	-0.27645	-0.315205	0.137417	-0.511099	-0.306403	0.235346	0.35188	0.317225	0.290569	0.353913	-0.178635	0.338761	0.168446
0.24958	0.290525	0.262485	-0.603162	-0.200492	-0.510781	0.324384	0.700643	-0.499866	0.396235	0.614072	-0.203104	0.630919	-0.462199	-0.452861	-0.649104	-0.565188	-0.216409	0.120596	-0.205088	-0.367142	0.275311	-0.231381	-0.345685	0.174638	0.490148	0.366382	0.506049	0.452984	-0.341396	0.334717	0.400087
0.250673	0.236358	0.547399	-0.294194	-0.398033	-0.215289	0.611354	0.559168	-0.228151	0.597187	0.249606	-0.229201	0.660527	-0.403924	-0.302717	-0.61582	-0.427244	-0.294257	0.423225	-0.595449	-0.216658	0.466414	-0.598393	-0.440048	0.60511	0.284533	0.203496	0.451169	0.573991	-0.369548	0.193152	0.383346
0.531021	0.774153	0.339024	-0.305644	-0.20293	-0.498746	0.270529	0.651658	-0.463073	0.352079	0.169617	-0.0886256	0.382378	-0.325849	-0.518324	-0.561121	-0.448103	-0.0795545	0.201271	-0.077007	-0.595471	0.379996	-0.51385	-0.392321	0.351176	0.477143	0.154492	0.552412	0.579113	-0.546471	0.493626	0.273545
0.596421	0.037906	0.379082	-0.315828	-0.395788	-0.19548	0.358999	0.324153	-0.193796	0.675583	0.157141	-0.434094	0.562445	-0.529396	-0.558096	-0.344339	-0.114128	-0.291466	0.400197	-0.40122	-0.383751	0.643238	-0.251919	-0.655364	0.687945	0.561645	0.325206	0.145262	0.482973	-0.326564	0.0335478	0.351593
0.374011	0.265558	0.499982	-0.145472	-0.196115	-0.476908	0.370859	0.509474	-0.320234	0.436703	0.247686	-0.265826	0.310516	-0.343804	-0.363259	-0.589904	-0.303147	-0.275977	0.201202	-0.434164	-0.234916	0.366346	-0.274208	-0.428568	0.51419	0.452771	0.121102	0.153228	0.479211	-0.34608	0.269694	0.406074
0.601891	0.263593	0.372451	-0.453667	-0.630289	-0.494116	0.320782	0.565604	-0.138468	0.71668	0.460265	-0.639077	0.571355	-0.337262	-0.668695	-0.253354	-0.255108	-0.12356	0.29092	-0.506121	-0.109397	0.750347	-0.205103	-0.659904	0.606397	0.595281	0.598286	0.298875	0.434895	-0.512073	0.26757	0.600842
0.456955	0.238492	0.52587	-0.0933424	-0.40981	-0.193631	0.648201	0.294878	-0.175028	0.22031	0.121822	-0.473737	0.385128	-0.390259	-0.540991	-0.244879	-0.539093	-0.522541	0.392028	-0.676377	-0.361979	0.233763	-0.238377	-0.449599	0.534774	0.272683	0.365215	0.237256	0.448654	-0.249475	0.397084	0.290865
0.29932	0.426987	0.374973	-0.0581869	-0.281921	-0.287645	0.406123	0.483084	-0.417699	0.355362	0.343761	-0.411494	0.230349	-0.258306	-0.210831	-0.353155	-0.493754	-0.430207	0.201211	-0.38037	-0.227996	0.215018	-0.305854	-0.307032	0.108951	0.439943	0.216093	0.489856	0.453189	-0.276495	0.383923	0.263948
0.531748	0.685747	0.533594	-0.471507	-0.159387	-0.536173	0.441581	0.709766	-0.308328	0.460766	0.474807	-0.409411	0.44456	-0.310479	-0.516612	-0.58176	-0.257988	-0.240768	0.325595	-0.194513	-0.18916	0.556656	-0.352001	-0.485163	0.419501	0.522542	0.474395	0.364748	0.289026	-0.316683	0.283406	0.291399
0.730511	0.526309	0.569183	-0.284024	-0.240865	-0.535178	0.302261	0.549533	-0.0766131	0.625039	0.382242	-0.64883	0.468643	-0.464686	-0.58912	-0.547289	-0.200082	-0.366386	0.467966	-0.490583	-0.146267	0.712425	-0.22268	-0.627503	0.437651	0.606118	0.325293	0.373421	0.419265	-0.223957	0.234947	0.251728
0.529177	0.123841	0.476205	-0.195323	-0.327219	-0.405426	0.461748	0.484941	-0.386722	0.584737	0.207874	-0.40529	0.566265	-0.639398	-0.680653	-0.557067	-0.37251	-0.296638	0.352511	-0.298177	-0.481138	0.372358	-0.168924	-0.640576	0.683113	0.560892	0.241172	0.218544	0.532311	-0.210059	0.208678	0.288712
0.238837	0.435919	0.264414	-0.587759	-0.432906	-0.615636	0.378025	0.419563	-0.640885	0.135732	0.427062	-0.332144	0.286195	-0.190683	-0.138221	-0.350638	-0.577872	-0.499191	0.520283	-0.219697	-0.61223	0.485162	-0.611552	-0.0123711	0.254877	0.234728	0.643495	0.424705	0.461129	-0.442274	0.548574	0.519628
0.645364	0.0833105	0.552252	-0.216659	-0.212477	-0.463386	0.762937	0.37977	-0.193214	0.445716	0.62564	-0.753538	0.458579	-0.614539	-0.438464	-0.366351	-0.263921	-0.450732	0.239906	-0.591232	-0.165845	0.650623	-0.277182	-0.638709	0.598275	0.644289	0.46704	0.153642	0.614952	-0.439537	0.0601111	0.502185
0.346488	0.023031	0.332445	-0.364423	-0.455646	-0.168748	0.329181	0.225137	-0.441474	0.319001	0.56654	-0.29939	0.0836186	0.0880561	-0.109406	-0.000346038	-0.212263	-0.317598	0.0671625	-0.53664	-0.49457	0.248454	-0.263358	-0.106372	0.344881	-0.063296	0.25916	0.269094	0.104283	-0.673633	0.618686	0.341157
0.0646929	0.497034	0.222264	-0.321902	-0.233043	-0.594116	0.316643	0.716513	-0.687038	0.573471	0.265954	0.0519764	0.609078	-0.708608	-0.627282	-0.700964	-0.597222	-0.00275247	0.0626226	0.0612486	-0.448283	0.172852	-0.237958	-0.451812	0.258998	0.749713	0.19895	0.69827	0.859815	-0.169843	0.397102	0.0887977
0.330583	0.342903	0.221629	-0.733802	-0.349311	-0.228594	0.258751	0.467559	-0.626943	0.246546	0.561584	-0.507644	0.423838	-0.33742	-0.375189	-0.472286	-0.613875	-0.401766	0.588547	-0.444125	-0.361759	0.573878	-0.461481	-0.266251	0.26557	0.339686	0.636812	0.287546	0.259544	-0.504917	0.49777	0.678247
0.411976	0.0619156	0.28992	-0.236479	-0.300121	-0.124988	0.594292	0.0747423	-0.581715	0.374784	0.36595	-0.528757	0.290177	-0.538715	-0.341662	-0.25302	-0.375996	-0.488592	0.292896	-0.553925	-0.461243	0.259861	-0.407732	-0.328441	0.365313	0.322217	0.605118	0.410507	0.354058	-0.210096	0.368197	0.433809
0.265414	0.247357	0.305301	-0.253039	-0.413766	-0.0893371	0.580416	0.130213	-0.199412	0.410467	0.245554	-0.0889417	0.264609	-0.392748	-0.116306	-0.192658	-0.45995	-0.475908	0.552487	-0.624521	-0.454518	0.318022	-0.707096	-0.175111	0.415932	0.132915	0.238075	0.327518	0.260804	-0.326577	0.52157	0.321666
0.506663	-0.0436938	0.407613	-0.32166	-0.520224	-0.158794	0.629789	0.141047	-0.532477	0.180503	0.255986	-0.363205	0.311326	-0.448224	-0.234789	-0.213052	-0.39905	-0.497327	0.30872	-0.553167	-0.437208	0.119972	-0.467388	-0.360398	0.345027	0.222737	0.485656	0.332786	0.230599	-0.299781	0.456281	0.489297
0.366438	0.313619	0.457007	-0.404549	-0.574242	-0.256836	0.307012	0.336775	-0.396505	0.275745	0.496706	-0.564293	0.29479	-0.235592	-0.413905	-0.409239	-0.162667	-0.365415	0.421291	-0.256946	-0.197357	0.38786	-0.572016	-0.362467	0.308118	0.264998	0.422283	0.317103	0.265775	-0.558208	0.482769	0.334623
0.427285	0.162373	0.373849	-0.202118	-0.502532	-0.432761	0.453651	0.297083	-0.544737	0.484381	0.513062	-0.497335	0.357066	-0.531837	-0.470146	-0.164867	-0.358264	-0.472383	0.421654	-0.392273	-0.396574	0.379925	-0.211446	-0.445873	0.496061	0.500581	0.270613	0.403448	0.434395	-0.515111	0.409109	0.314211
0.586397	0.285539	0.628991	-0.0840869	-0.357647	-0.2961	0.589773	0.23695	-0.304235	0.405832	0.325988	-0.263246	0.323341	-0.39596	-0.205629	-0.187913	-0.246106	-0.571682	0.50675	-0.783057	-0.485072	0.454898	-0.481434	-0.371204	0.515727	0.39216	0.220567	0.218456	0.187591	-0.231784	0.454021	0.44958
0.150347	0.522287	0.342192	-0.190311	-0.469934	-0.299051	0.252872	0.457831	-0.584476	0.225795	0.0977696	-0.188632	0.264382	-0.0995116	-0.336688	-0.110194	-0.494088	-0.240449	0.357381	-0.445153	-0.531246	0.131868	-0.50371	-0.100777	0.366676	0.144332	0.232073	0.328302	0.478975	-0.498675	0.52114	0.376168
0.482756	0.442211	0.51636	-0.32617	-0.349555	-0.10962	0.54509	0.235272	-0.398674	0.417664	0.290918	-0.375991	0.335182	-0.324936	-0.263188	-0.138758	-0.583555	-0.768112	0.642754	-0.523139	-0.569746	0.46281	-0.85584	-0.27708	0.41039	0.282645	0.374601	0.425598	0.138503	-0.424175	0.602385	0.402362
0.31727	0.103471	0.332949	-0.312474	-0.348392	-0.29398	0.617866	0.381818	-0.290255	0.331892	0.328115	-0.418139	0.391015	-0.267433	-0.231212	-0.365414	-0.333781	-0.334833	0.50798	-0.481843	-0.524025	0.470357	-0.577717	-0.328581	0.294908	0.236182	0.371734	0.437954	0.411447	-0.50884	0.338733	0.448788
0.361082	0.617763	0.425644	-0.435686	-0.665693	-0.441378	0.338484	0.36335	-0.467481	0.431779	0.395098	-0.334816	0.339453	-0.302399	-0.258573	-0.426102	-0.565431	-0.492139	0.66445	-0.507522	-0.598304	0.221927	-0.728171	-0.275863	0.187205	0.207011	0.329431	0.562743	0.332411	-0.462944	0.676838	0.46037
0.697257	0.197018	0.559099	0.0242229	-0.342816	-0.429978	0.537584	0.441918	-0.0609856	0.670629	0.449277	-0.449154	0.277046	-0.629664	-0.500876	-0.324931	-0.314372	-0.434306	0.375681	-0.493932	-0.144797	0.417786	-0.166206	-0.517514	0.739502	0.577196	0.205923	0.14665	0.583756	-0.233198	0.255975	0.4035
0.350274	0.0704191	0.367654	-0.378606	-0.279434	-0.221693	0.426676	0.0585316	-0.317774	0.340879	0.1866	-0.418068	0.211728	-0.394438	-0.641127	-0.11315	-0.414982	-0.621124	0.557314	-0.49947	-0.575182	0.275668	-0.378418	-0.486124	0.384627	0.208097	0.378383	0.269321	0.540535	-0.310786	0.506289	0.397117
0.508337	0.185462	0.445843	-0.365799	-0.612433	-0.463149	0.363015	0.546633	-0.309447	0.543278	0.36836	-0.522249	0.605534	-0.369406	-0.480385	-0.406231	-0.359801	-0.318614	0.274179	-0.582638	-0.307465	0.502902	-0.300346	-0.502084	0.53178	0.608393	0.214992	0.286587	0.373521	-0.461225	0.383504	0.42555
0.274223	0.171331	0.441069	-0.349513	-0.604798	-0.289665	0.463582	0.278426	-0.621718	0.337164	0.385178	-0.379252	0.369708	-0.0866332	-0.354347	-0.307384	-0.688333	-0.614345	0.590309	-0.654447	-0.651637	0.27411	-0.510379	-0.222153	0.37632	0.238387	0.415819	0.492883	0.420066	-0.617234	0.59079	0.565451
0.29252	0.508427	0.450753	-0.536602	-0.396225	-0.40373	0.34991	0.385889	-0.422681	0.402159	0.550447	-0.443055	0.539523	-0.387335	-0.324105	-0.458562	-0.531361	-0.570744	0.680523	-0.530169	-0.345474	0.665552	-0.648984	-0.398841	0.343897	0.359787	0.575324	0.479001	0.390451	-0.457985	0.439477	0.702212
0.355127	0.292951	0.589482	-0.267559	-0.554	-0.138031	0.617163	0.0511796	-0.452462	0.420652	0.254216	-0.413964	0.205325	-0.401388	-0.140369	-0.0798949	-0.559323	-0.794452	0.715491	-0.498714	-0.549758	0.339418	-0.764342	-0.172658	0.256797	0.248165	0.46375	0.64006	0.0794422	-0.399238	0.681081	0.47874
0.583016	0.332555	0.294638	-0.358226	-0.577151	-0.533017	0.49832	0.464745	-0.106529	0.593238	0.450349	-0.780703	0.601048	-0.263657	-0.514603	-0.352372	-0.284819	-0.265404	0.34037	-0.610727	-0.165212	0.658458	-0.0605758	-0.482343	0.568627	0.572668	0.383245	0.355771	0.4064	-0.49396	0.316411	0.330509
0.486779	0.428957	0.412005	-0.457144	-0.558411	-0.472383	0.407905	0.285642	-0.561117	0.432929	0.40448	-0.167942	0.307929	-0.39479	-0.343723	-0.441568	-0.615075	-0.471818	0.29352	-0.342493	-0.449631	0.119638	-0.460065	-0.390472	0.269412	0.280413	0.321915	0.618874	0.48402	-0.195021	0.597532	0.264425
0.597372	0.517929	0.259717	-0.403365	-0.232578	-0.578839	0.367556	0.685926	-0.591014	0.510791	0.499745	-0.401854	0.505806	-0.509266	-0.595057	-0.58963	-0.232593	-0.145892	0.114115	-0.304132	-0.453173	0.512142	-0.233819	-0.548028	0.357029	0.711598	0.150903	0.417498	0.70212	-0.500845	0.373395	0.400753
0.26211	0.196868	0.507336	-0.231996	-0.368146	-0.425231	0.387931	0.411508	-0.285829	0.519871	0.498726	-0.446973	0.246994	-0.412597	-0.299278	-0.410651	-0.332867	-0.307425	0.469662	-0.485107	-0.205493	0.657693	-0.549357	-0.394963	0.344298	0.486374	0.52403	0.408939	0.191456	-0.429203	0.428618	0.33939
0.58462	0.371344	0.432445	-0.223963	-0.310431	-0.354013	0.531846	0.697673	-0.0376118	0.725522	0.409574	-0.612255	0.677114	-0.630963	-0.593357	-0.565479	-0.117843	-0.223408	0.372236	-0.428235	-0.0448747	0.691585	-0.248441	-0.862925	0.652333	0.765437	0.405264	0.103828	0.481177	-0.35067	0.0937563	0.395486
0.320751	-0.0417532	0.546423	-0.0974988	-0.6716	-0.613211	0.519841	0.294852	-0.512203	0.496371	0.568652	-0.212333	0.104352	-0.202854	-0.496606	-0.214431	-0.611976	-0.157735	0.586209	-0.463445	-0.775887	0.460026	-0.659005	-0.367239	0.355328	0.327866	0.486905	0.391529	0.387517	-0.735509	0.695781	0.402753
0.47987	0.589007	0.341971	-0.268086	-0.0330766	-0.199927	0.270646	0.336674	-0.0917307	0.131919	0.309708	-0.434065	0.1293	-0.488605	-0.512207	-0.392395	-0.269215	-0.193635	0.339968	-0.266002	-0.100646	0.503709	-0.225807	-0.505808	0.351308	0.227313	0.173093	0.0889168	0.398574	-0.0578541	0.257694	0.384791
0.191811	0.43837	0.332779	-0.45655	-0.221253	-0.488659	0.397807	0.509254	-0.71387	0.360767	0.539287	-0.415899	0.422639	-0.414975	-0.247231	-0.556335	-0.427457	-0.333488	0.183123	-0.138419	-0.419174	0.366518	-0.351325	-0.084017	0.189597	0.534489	0.450101	0.514589	0.374604	-0.383828	0.621925	0.374266
0.631462	0.39525	0.484928	-0.293746	-0.160331	-0.435068	0.607248	0.548193	-0.0525132	0.760561	0.590685	-0.646638	0.619818	-0.709917	-0.598334	-0.659046	-0.131217	-0.213327	0.422306	-0.60782	-0.156041	0.5797	-0.160176	-0.649095	0.646173	0.676752	0.39289	0.187066	0.456802	-0.271616	0.0816368	0.426276
0.202428	0.0147123	0.328539	-0.462058	-0.385793	-0.132718	0.616034	0.0721245	-0.507418	0.104394	0.256255	-0.433528	0.171165	-0.386571	-0.349879	-0.252875	-0.337167	-0.631085	0.480469	-0.528568	-0.370236	0.297678	-0.327269	-0.334409	0.541684	0.188515	0.460563	0.218734	0.362894	-0.435886	0.503217	0.485417
0.318941	0.287704	0.46307	-0.247108	-0.324788	-0.454092	0.496601	0.467309	-0.351009	0.559765	0.534112	-0.479935	0.51059	-0.47246	-0.401784	-0.385851	-0.202673	-0.399722	0.401586	-0.429234	-0.134906	0.578415	-0.454259	-0.617178	0.540609	0.598777	0.392349	0.412249	0.295354	-0.404289	0.37974	0.436426
0.504236	0.384188	0.50984	-0.286488	-0.470895	-0.494211	0.385653	0.333203	-0.325192	0.50873	0.224944	-0.289016	0.404271	-0.53099	-0.398413	-0.392875	-0.467395	-0.455138	0.424611	-0.613188	-0.473446	0.157963	-0.390119	-0.459081	0.493085	0.538776	0.0962734	0.340542	0.499463	-0.31386	0.389729	0.141108
0.413553	0.353331	0.378419	-0.48574	-0.218079	-0.313173	0.445163	0.451034	-0.471821	0.300631	0.701288	-0.620766	0.33113	-0.369464	-0.39017	-0.404476	-0.450305	-0.478861	0.304713	-0.453078	-0.320911	0.568472	-0.451017	-0.45764	0.301403	0.334634	0.560381	0.320223	0.366196	-0.635421	0.333656	0.561526
0.619372	0.0618222	0.396433	-0.243711	-0.443882	-0.184315	0.546952	0.188417	-0.387252	0.499511	0.370808	-0.586462	0.188229	-0.365224	-0.3797	-0.138662	-0.398101	-0.426841	0.45517	-0.502336	-0.421907	0.302818	-0.463943	-0.413261	0.460558	0.355846	0.296526	0.364238	0.358675	-0.447663	0.476781	0.319812
0.188987	0.524582	0.430578	-0.552087	-0.55741	-0.468399	0.515208	0.460703	-0.388333	0.250141	0.295595	-0.413598	0.431012	-0.28873	-0.545286	-0.531724	-0.531607	-0.220022	0.527297	-0.173696	-0.299517	0.466026	-0.475528	-0.273276	0.307552	0.273426	0.550411	0.484998	0.301051	-0.519369	0.503838	0.228142
0.547051	0.316349	0.636362	-0.354167	-0.227958	-0.245453	0.689753	0.255547	-0.168409	0.603307	0.361427	-0.314609	0.46463	-0.650924	-0.293252	-0.38328	-0.400094	-0.587382	0.674178	-0.586205	-0.432711	0.370735	-0.610217	-0.397087	0.634619	0.382628	0.374727	0.279833	0.347548	-0.217403	0.392773	0.4221
0.20748	0.635517	0.054842	-0.504067	-0.4626	-0.401831	0.358323	0.25828	-0.643002	0.145749	0.386427	-0.473401	-0.0517583	-0.128064	-0.218064	-0.00197159	-0.255163	-0.604992	0.586351	-0.286389	-0.425365	0.39931	-0.685221	-0.110694	-0.0137277	0.110517	0.567757	0.443388	0.122026	-0.283104	0.542577	0.477665
0.434328	0.579774	0.370202	-0.340747	-0.479131	-0.616158	0.34066	0.654335	-0.50764	0.624451	0.366727	-0.351329	0.498908	-0.483392	-0.460762	-0.606594	-0.358156	-0.200288	0.147395	-0.356114	-0.231059	0.487382	-0.266417	-0.407138	0.542703	0.655274	0.160558	0.419101	0.579289	-0.429372	0.406595	0.275138
0.328239	0.437021	0.534546	-0.34266	-0.563144	-0.457817	0.384307	0.506515	-0.349164	0.493703	0.314501	-0.433956	0.487719	-0.226844	-0.368282	-0.609458	-0.326853	-0.250285	0.380082	-0.296942	-0.283079	0.406641	-0.275945	-0.597966	0.571912	0.57158	0.42456	0.416718	0.383927	-0.400042	0.204872	0.46108
0.308711	0.557496	0.23968	-0.693186	-0.366854	-0.533657	0.174103	0.684272	-0.555053	0.0618712	0.584026	-0.589997	0.244988	-0.107404	-0.390143	-0.397299	-0.326481	-0.529775	0.442946	-0.223124	-0.253137	0.367842	-0.645314	-0.258237	0.251984	0.21624	0.802383	0.470178	0.20277	-0.638278	0.543894	0.409338
0.636826	0.168771	0.524356	-0.216303	-0.208475	-0.490123	0.571418	0.462317	-0.398283	0.542267	0.608474	-0.628601	0.435244	-0.660349	-0.461703	-0.355191	-0.279278	-0.531323	0.275467	-0.561228	-0.290655	0.654341	-0.150241	-0.640766	0.621137	0.609853	0.420154	0.0973815	0.129299	-0.60571	0.306216	0.474926
0.424183	0.109227	0.321106	-0.42347	-0.49367	-0.116228	0.551069	0.201692	-0.441377	0.372098	0.20958	-0.278003	0.428512	-0.43245	-0.420298	-0.267111	-0.303059	-0.524628	0.517226	-0.606861	-0.683879	0.317397	-0.386867	-0.461901	0.41846	0.270101	0.512758	0.401337	0.508417	-0.304005	0.358498	0.276624
0.223201	0.470221	0.319035	-0.742701	-0.160115	-0.568735	0.381002	0.577184	-0.663173	0.462377	0.605906	-0.303477	0.490034	-0.471312	-0.389763	-0.364464	-0.567413	-0.135931	0.330908	-0.29696	-0.391765	0.452963	-0.432122	-0.199173	0.0582579	0.517128	0.532158	0.603246	0.285791	-0.212309	0.416519	0.377543
0.405088	0.488798	0.175072	-0.426773	-0.161404	-0.356471	0.305601	0.577097	-0.694732	0.265312	0.559244	-0.431974	0.365506	-0.568327	-0.31893	-0.258146	-0.695247	-0.109684	0.164576	-0.187011	-0.52416	0.415441	-0.275095	-0.334866	0.106096	0.501264	0.13317	0.550406	0.371263	-0.29626	0.441078	0.235885
0.542629	0.42556	0.51412	-0.559036	-0.460705	-0.502877	0.237897	0.275802	-0.431437	0.517454	0.539178	-0.398923	0.384112	-0.416613	-0.350342	-0.561455	-0.437429	-0.379923	0.516305	-0.387518	-0.370673	0.486758	-0.410789	-0.420122	0.404195	0.494066	0.436688	0.41922	0.380734	-0.394224	0.351233	0.432451
0.54529	0.365514	0.414106	-0.210472	-0.109671	-0.587837	0.475676	0.605867	-0.327293	0.521806	0.494267	-0.724876	0.588787	-0.772063	-0.521102	-0.744103	-0.377419	-0.322735	0.120827	-0.439345	-0.207245	0.455153	-0.40876	-0.446251	0.604561	0.523679	0.0776794	0.295052	0.441679	-0.199693	0.329685	0.155973
0.249169	0.45508	0.171909	-0.752282	-0.212309	-0.465543	0.157752	0.383015	-0.398444	0.154823	0.222801	-0.364293	0.32271	-0.243392	-0.333677	-0.403187	-0.337287	-0.333179	0.300564	-0.0917936	-0.24075	0.370739	-0.496308	-0.337107	0.209037	0.356876	0.579073	0.388478	0.546664	-0.644304	0.255128	0.342686
0.369988	0.753235	0.255201	-0.616008	-0.3245	-0.500706	0.0544599	0.461053	-0.61245	0.207428	0.621866	-0.525795	0.130192	-0.286663	-0.182482	-0.372742	-0.496795	-0.628985	0.60277	-0.235032	-0.4399	0.323927	-0.44002	-0.0687612	0.256774	0.173234	0.648652	0.52379	0.391662	-0.405137	0.646849	0.549658
0.183283	0.247577	0.118325	-0.827626	-0.213654	-0.33391	0.367949	0.231934	-0.763036	-0.00957956	0.680687	-0.536068	0.0850768	-0.0802935	-0.10165	-0.188705	-0.402606	-0.747791	0.507997	-0.400884	-0.53609	0.469057	-0.670349	-0.0335654	-0.077256	-0.118198	0.772111	0.50641	0.141528	-0.706377	0.79047	0.795276
0.690365	0.14959	0.409904	-0.246171	-0.247415	-0.267769	0.668375	0.311969	-0.202892	0.36567	0.3101	-0.366641	0.238977	-0.516785	-0.400065	-0.330593	-0.403698	-0.67058	0.544266	-0.444517	-0.506736	0.28018	-0.53132	-0.377183	0.517904	0.317482	0.329396	0.292326	0.622523	-0.385301	0.418727	0.264167
0.689057	0.356232	0.762955	-0.171366	-0.465861	-0.306361	0.566161	0.356601	-0.324038	0.603378	0.486997	-0.536207	0.313404	-0.439505	-0.3785	-0.118494	-0.229862	-0.496113	0.453414	-0.660878	-0.473619	0.517148	-0.449393	-0.574072	0.604512	0.417152	0.171307	0.319528	0.325747	-0.430572	0.379787	0.370815
0.293549	0.145342	0.249859	-0.2186	-0.392951	-0.339764	0.374653	0.0358261	-0.316818	0.033908	0.221115	-0.395155	0.0606001	-0.0875919	-0.212489	0.158384	-0.139393	-0.27897	0.500742	-0.238102	-0.331849	0.406562	-0.138701	-0.196527	0.255991	0.124668	0.425791	0.306669	0.0702544	-0.286097	0.288725	0.0941937
0.769931	0.135641	0.450967	-0.17092	-0.120922	-0.619857	0.531469	0.563934	0.00139453	0.742006	0.525999	-0.695751	0.689082	-0.73322	-0.630434	-0.529633	0.0046136	-0.127183	0.209343	-0.447045	-0.0260268	0.667521	-0.184896	-0.753335	0.6331	0.818331	0.19578	-0.0177661	0.465501	-0.245752	-0.192059	0.640815
0.489167	0.320972	0.56489	-0.166772	-0.427288	-0.1961	0.732237	0.132581	-0.298229	0.330775	0.191959	-0.233158	0.208487	-0.446429	-0.372602	-0.265981	-0.545599	-0.79724	0.599704	-0.448283	-0.558944	0.30729	-0.718373	-0.393986	0.614015	0.151245	0.432199	0.319758	0.201497	-0.54805	0.726655	0.47686
0.514178	0.449937	0.591352	-0.177925	-0.349653	-0.34736	0.354231	0.549569	-0.272686	0.492827	0.585754	-0.748444	0.402579	-0.266295	-0.337437	-0.315442	-0.254258	-0.321241	0.198404	-0.564126	-0.44098	0.401144	-0.245989	-0.465726	0.352676	0.450687	0.309036	0.226826	0.277332	-0.493187	0.315264	0.583992
0.186652	0.638322	0.433382	-0.515465	-0.302848	-0.580279	0.213863	0.628862	-0.55967	0.582094	0.353605	-0.142073	0.478976	-0.437706	-0.449586	-0.78279	-0.677381	-0.119895	0.123528	-0.289067	-0.456805	0.27344	-0.32275	-0.430748	0.391323	0.48326	0.0234005	0.526852	0.695924	-0.249798	0.462213	0.148928
0.179597	0.505195	0.280024	-0.528707	-0.211181	-0.328716	0.309406	0.452322	-0.727733	0.169679	0.569049	-0.411525	0.195463	-0.10575	-0.40327	-0.323079	-0.605122	-0.452952	0.638061	-0.130657	-0.440627	0.289261	-0.784962	-0.0520063	0.105872	0.263944	0.582535	0.591936	0.280601	-0.77008	0.503229	0.600741
0.219934	0.403443	0.264586	-0.473461	-0.246203	-0.559946	0.205584	0.346662	-0.533364	0.226142	0.413088	-0.443304	0.313182	-0.135223	-0.280007	-0.370339	-0.448013	-0.424892	0.546149	-0.249162	-0.278975	0.436189	-0.621553	-0.168859	0.220879	0.229227	0.571148	0.497404	0.316216	-0.469728	0.474685	0.598288
0.66476	0.49746	0.582299	-0.245826	-0.402791	-0.482913	0.40563	0.672775	-0.154174	0.62931	0.241787	-0.361915	0.57622	-0.52073	-0.597125	-0.793223	-0.17642	-0.380387	0.364574	-0.387973	-0.27288	0.508177	-0.276278	-0.691662	0.752348	0.680037	0.144551	0.21058	0.772862	-0.277893	0.160611	0.236217
0.0666571	0.503349	0.441365	-0.580853	-0.75326	-0.523724	0.171813	0.399588	-0.589414	0.372189	0.173856	-0.208432	0.409245	-0.261449	-0.343744	-0.266934	-0.708243	-0.152148	0.458957	-0.277235	-0.764372	0.118605	-0.370702	-0.300252	0.350259	0.219224	0.315525	0.389512	0.654026	-0.500703	0.551663	0.284442
0.564738	0.19293	0.348933	-0.444324	-0.203724	-0.393022	0.374189	0.438913	-0.276747	0.598917	0.535971	-0.579114	0.549369	-0.658218	-0.514236	-0.499039	-0.198057	-0.344908	0.290227	-0.615386	-0.146461	0.425473	-0.269272	-0.533105	0.417495	0.629972	0.284027	0.174497	0.413451	-0.427751	0.243762	0.470558
0.23909	0.464449	0.224491	-0.477338	-0.203852	-0.416991	0.464533	0.611773	-0.645749	0.438173	0.400794	-0.157949	0.549937	-0.462854	-0.398259	-0.429022	-0.690752	-0.0265027	0.148861	-0.294137	-0.522227	0.356277	-0.321258	-0.329614	0.141965	0.546352	0.190439	0.633046	0.630126	-0.317334	0.336189	0.0902969
0.761216	0.29338	0.558219	-0.248917	-0.266472	-0.579908	0.50433	0.50003	-0.131856	0.855623	0.542524	-0.606312	0.687773	-0.595493	-0.499815	-0.500747	-0.142096	-0.340953	0.21658	-0.422965	-0.0552058	0.668215	-0.151409	-0.842987	0.740296	0.741641	0.14615	0.153609	0.418329	-0.262738	0.19543	0.403824
0.134779	0.468907	0.372996	-0.377501	-0.234469	-0.45649	0.187665	0.519256	-0.690421	0.222332	0.0897465	-0.13516	0.452918	-0.35783	-0.418406	-0.545401	-0.66208	-0.169687	0.198724	-0.0408111	-0.656121	0.11651	-0.178495	-0.388253	0.264038	0.363204	0.0912066	0.676834	0.516422	-0.252782	0.551128	0.167364
0.492478	0.611784	0.425097	-0.462832	-0.456667	-0.395902	0.43015	0.432195	-0.354688	0.444609	0.5516	-0.706875	0.360114	-0.259354	-0.493163	-0.452996	-0.477331	-0.403771	0.46265	-0.407925	-0.384776	0.546247	-0.092531	-0.452768	0.355735	0.427042	0.536026	0.398982	0.389377	-0.329116	0.457518	0.363985
0.107378	0.438891	0.190797	-0.455785	-0.51188	-0.281545	0.322392	0.400841	-0.587325	0.201477	0.393933	-0.411685	0.216229	-0.270345	-0.426957	-0.169645	-0.583072	-0.284805	0.55124	-0.0693654	-0.530744	0.459849	-0.788579	-0.158278	0.188146	0.180512	0.593094	0.525019	0.298149	-0.627095	0.572313	0.352415
0.763743	0.228171	0.489225	-0.359569	-0.204893	-0.437812	0.626712	0.407915	-0.11175	0.591767	0.600543	-0.757032	0.513323	-0.636726	-0.571739	-0.670596	-0.248185	-0.4089	0.269365	-0.568577	-0.141064	0.647217	-0.122692	-0.620592	0.630445	0.670731	0.271093	0.287347	0.553201	-0.229987	0.122272	0.495489
0.151036	0.260179	0.265261	-0.508089	-0.258089	-0.49617	0.19297	0.534093	-0.44577	0.302697	0.278255	-0.296448	0.368887	-0.351745	-0.482387	-0.643974	-0.175191	-0.196805	0.387803	-0.180648	-0.103366	0.3631	-0.459432	-0.357918	0.231685	0.434658	0.490684	0.443957	0.345551	-0.375507	0.458784	0.206944
0.55205	0.3086	0.428977	-0.660234	-0.590344	-0.516694	0.397501	0.366219	-0.705321	0.396076	0.689286	-0.461762	0.341399	-0.393401	-0.242945	-0.182828	-0.631613	-0.449089	0.442339	-0.519451	-0.50746	0.202902	-0.153939	-0.32252	0.337522	0.312469	0.505842	0.459547	0.211482	-0.595923	0.700315	0.524971
0.347334	0.416084	0.30885	-0.459225	-0.506686	-0.461786	0.364456	0.147032	-0.557262	0.218101	0.463035	-0.420989	0.144832	-0.262913	-0.222745	-0.0614138	-0.533357	-0.411935	0.324354	-0.386898	-0.437573	0.198815	-0.246021	-0.0974219	0.402691	0.243048	0.43168	0.381464	0.135783	-0.364152	0.494723	0.258923
0.306459	0.446377	0.599445	-0.14684	-0.506085	-0.344057	0.367302	0.583737	-0.440859	0.635813	0.154935	-0.247762	0.530903	-0.333216	-0.438054	-0.742103	-0.480476	-0.516665	0.367925	-0.212095	-0.357146	0.381469	-0.53667	-0.474038	0.55553	0.455908	0.333909	0.297367	0.57041	-0.343316	0.385415	0.390818
0.348851	0.541687	0.387558	-0.40332	-0.341287	-0.593966	0.465869	0.651193	-0.274405	0.52864	0.289242	-0.317399	0.603412	-0.425309	-0.50132	-0.794956	-0.422433	-0.125828	0.280697	-0.382836	-0.368703	0.274172	-0.308527	-0.523304	0.550545	0.574265	0.314917	0.535558	0.586591	-0.385772	0.205473	0.0759408
0.458406	0.41242	0.655563	-0.212247	-0.164586	-0.516611	0.406919	0.686329	-0.130434	0.641768	0.232721	-0.384153	0.582523	-0.570862	-0.571642	-0.609537	-0.227376	-0.468581	0.219164	-0.298189	-0.0851839	0.520613	-0.43235	-0.676111	0.492025	0.60735	0.249603	0.448138	0.601792	-0.239933	0.0917264	0.279853
0.682297	0.572239	0.480752	-0.226907	-0.0981666	-0.436546	0.45425	0.565194	0.00864162	0.599756	0.402347	-0.539662	0.58457	-0.590477	-0.603704	-0.779847	-0.0796938	-0.380667	0.186755	-0.543976	-0.0909612	0.601643	-0.179197	-0.718267	0.513729	0.682824	0.182941	0.237717	0.538524	-0.121432	0.18195	0.350213
0.550439	0.541222	0.557291	-0.372837	-0.288543	-0.536545	0.454237	0.569751	-0.0426275	0.533252	0.361393	-0.860562	0.694237	-0.561507	-0.456664	-0.628921	-0.330759	-0.318175	0.408075	-0.349969	-0.109224	0.564269	-0.246699	-0.741298	0.587	0.693999	0.325656	0.186796	0.376244	-0.285162	0.158026	0.408441
0.140173	0.238482	0.163465	-0.413389	-0.461251	-0.269816	0.180349	0.308161	-0.401233	0.273394	0.457236	-0.279294	0.0545594	-0.388448	-0.40884	-0.0822676	-0.606823	-0.281246	0.677948	-0.252429	-0.467629	0.394036	-0.806895	-0.293455	0.128092	0.262944	0.779254	0.473145	0.25666	-0.675699	0.690281	0.645316
0.23464	0.781515	0.259689	-0.707945	-0.514104	-0.484491	0.314303	0.5768	-0.725012	0.19708	0.526975	-0.425712	0.0971047	-0.172987	-0.472206	-0.29672	-0.385866	-0.383494	0.743261	-0.185909	-0.355914	0.495396	-0.459405	-0.167972	0.0745053	0.202951	0.499526	0.464475	0.152784	-0.726197	0.377542	0.359946
0.539738	0.382465	0.485309	-0.318899	-0.343518	-0.524324	0.405381	0.546845	-0.188551	0.61068	0.481988	-0.604616	0.631177	-0.624706	-0.525197	-0.88438	-0.321211	-0.243355	-0.0147277	-0.320268	-0.304417	0.459975	0.278507	-0.521796	0.577204	0.639473	0.184769	0.402154	0.651058	-0.334365	0.271476	0.152474
0.236469	0.336117	0.33546	-0.601024	-0.401152	-0.327448	0.277412	0.380969	-0.660191	0.233117	0.535855	-0.439849	0.151705	-0.244726	-0.268379	-0.222956	-0.505399	-0.628123	0.569604	-0.189813	-0.480618	0.385437	-0.478767	-0.188494	0.183381	0.272632	0.624915	0.548637	0.244367	-0.578448	0.702421	0.53953
0.467753	0.197926	0.310887	-0.461009	-0.442885	-0.213569	0.471345	0.32041	-0.614115	0.243442	0.584726	-0.405519	0.251138	-0.249473	-0.338473	-0.335241	-0.366932	-0.682211	0.536171	-0.647175	-0.339797	0.225979	-0.52719	-0.315868	0.245645	0.223391	0.678979	0.219763	0.269656	-0.483034	0.482716	0.651367
0.212634	0.44325	0.43824	-0.592384	-0.609837	-0.298665	0.497973	0.230247	-0.588808	0.206678	0.462974	-0.429223	0.273047	-0.180284	-0.175393	-0.153902	-0.507643	-0.396414	0.509257	-0.633987	-0.577026	0.418068	-0.486603	-0.212152	0.276154	0.192069	0.468939	0.385536	0.293487	-0.789618	0.62919	0.548764
0.253431	0.418729	0.481541	-0.372138	-0.507001	-0.328089	0.319109	0.365887	-0.552298	0.32889	0.50829	-0.328795	0.31156	-0.118853	-0.106416	0.0401403	-0.664865	-0.2441	0.709233	-0.279729	-0.520652	0.299872	-0.805692	-0.0736143	0.0678965	0.0634539	0.607494	0.664933	0.16362	-0.59524	0.584807	0.433948
0.616639	0.178257	0.327478	-0.430182	-0.354839	-0.481592	0.279151	0.526764	-0.218091	0.437875	0.25299	-0.550695	0.502981	-0.312152	-0.492242	-0.357872	-0.191483	-0.309634	0.237821	-0.462656	-0.279998	0.560704	-0.309391	-0.716384	0.598512	0.691925	0.326698	0.11346	0.496716	-0.227534	0.125074	0.498155
0.575975	0.323601	0.37221	-0.498316	-0.24616	-0.430779	0.350587	0.675453	-0.321843	0.568453	0.404509	-0.410016	0.649217	-0.386514	-0.541753	-0.545346	-0.363521	-0.151183	0.272359	-0.284358	-0.194677	0.563037	-0.193219	-0.600186	0.475156	0.476033	0.31319	0.242656	0.611871	-0.414974	0.258709	0.489706
0.507296	-0.00574734	0.354272	-0.390201	-0.304491	-0.209838	0.387322	0.027047	-0.538795	0.415033	0.34605	-0.377812	0.254864	-0.35376	-0.412081	-0.282365	-0.362857	-0.307559	0.203825	-0.535481	-0.584653	0.333752	-0.366045	-0.48867	0.386327	0.471285	0.525849	0.334518	0.131295	-0.263515	0.36489	0.32815
0.284726	0.423522	0.36143	-0.388465	-0.385638	-0.202425	0.669088	0.4612	-0.436217	0.260081	0.462389	-0.625795	0.326015	-0.274339	-0.415213	-0.387088	-0.519608	-0.340645	0.571393	-0.579307	-0.411597	0.415498	-0.527942	-0.323666	0.338809	0.20093	0.523719	0.3887	0.418825	-0.628807	0.405515	0.689211
0.59734	0.33913	0.355603	-0.396762	-0.329243	-0.529834	0.347743	0.612222	-0.276328	0.566065	0.449946	-0.64049	0.36766	-0.401458	-0.560972	-0.45533	-0.159114	-0.15102	0.255681	-0.492241	-0.223184	0.619038	-0.12896	-0.537718	0.572475	0.550057	0.179449	0.321094	0.446335	-0.29612	0.2681	0.468427
0.452509	0.386382	0.318559	-0.362726	-0.317363	-0.375074	0.331032	0.655271	-0.476299	0.355791	0.578927	-0.600141	0.373894	-0.307896	-0.568764	-0.215435	-0.454108	-0.379646	0.255741	-0.386468	-0.511262	0.627183	-0.412246	-0.478686	0.398462	0.524284	0.378783	0.344199	0.415496	-0.50763	0.406725	0.350387
-0.0267454	0.454399	0.448445	-0.286106	-0.898115	-0.50924	0.304165	0.583775	-0.637264	0.345558	0.225277	-0.0739833	0.471103	-0.137298	-0.285669	-0.504729	-0.725687	-0.305632	0.581786	-0.433897	-0.586924	0.242616	-0.498979	-0.358059	0.469839	0.241286	0.388201	0.379658	0.570612	-0.532261	0.496792	0.168325
0.484351	0.1913	0.320542	-0.562584	-0.413637	-0.305064	0.265132	0.116129	-0.512021	0.325419	0.620222	-0.565374	0.227196	-0.40549	-0.190682	-0.17016	-0.557381	-0.370425	0.378122	-0.427442	-0.468381	0.24354	-0.411591	-0.207496	0.17254	0.312783	0.57491	0.380716	0.157152	-0.4385	0.637053	0.471409
0.472734	0.645429	0.243702	-0.56724	-0.429358	-0.452659	0.239739	0.482052	-0.341312	0.486631	0.158517	-0.0945448	0.473288	-0.348754	-0.551968	-0.595745	-0.455431	-0.289952	0.386179	-0.184335	-0.536385	0.22625	-0.44715	-0.326186	0.319127	0.432087	0.291126	0.609821	0.555344	-0.368058	0.5302	0.339886
0.477876	-0.0276316	0.463351	-0.255833	-0.488016	-0.355953	0.110203	0.461962	-0.297206	0.721577	0.079243	-0.142392	0.513156	-0.229689	-0.585251	-0.424837	-0.564299	0.115375	0.258086	-0.0207488	-0.59663	0.324936	-0.298407	-0.407902	0.59265	0.317897	0.293176	0.448095	0.641726	-0.335822	0.346133	0.400581
0.735139	0.261961	0.56665	-0.192691	-0.200552	-0.521754	0.502859	0.803181	-0.220657	0.66548	0.480641	-0.677871	0.765092	-0.573552	-0.554427	-0.6855	-0.137944	-0.42072	0.181154	-0.503572	-0.0819534	0.686988	-0.247313	-0.800564	0.605219	0.804964	0.0519073	0.199082	0.493922	-0.397119	0.178603	0.520343
0.364642	0.276425	0.520988	-0.0905069	-0.323624	-0.193999	0.540809	0.113967	-0.161531	0.435695	0.274847	-0.480542	0.285835	-0.201512	-0.288629	-0.0821151	-0.200567	-0.427021	0.375626	-0.557676	-0.370493	0.354023	-0.43064	-0.437082	0.463041	0.285004	0.266588	0.344139	0.201302	-0.397929	0.340003	0.396287
0.232598	0.418046	0.363724	-0.673843	-0.483893	-0.49991	0.160116	0.265445	-0.725952	0.139463	0.536835	-0.408378	0.111264	-0.0818218	-0.0768672	-0.13182	-0.613878	-0.519718	0.82673	-0.19856	-0.516211	0.317226	-0.6682	-0.074312	0.0824096	0.077332	0.741392	0.505191	0.218448	-0.383903	0.745107	0.726572
0.573129	0.475565	0.400984	-0.43815	-0.48563	-0.724539	0.180697	0.479636	-0.340698	0.590238	0.234169	-0.319313	0.39327	-0.590428	-0.539143	-0.539599	-0.425552	-0.328352	0.422331	-0.154995	-0.37292	0.491702	-0.301764	-0.547986	0.551659	0.612536	0.429951	0.343061	0.527033	-0.387699	0.380977	0.26213
0.687332	0.389028	0.559879	-0.212873	-0.438267	-0.391619	0.489876	0.531546	-0.310396	0.609155	0.523472	-0.601537	0.543902	-0.370642	-0.517183	-0.344353	-0.151779	-0.408979	0.205895	-0.574743	-0.209342	0.6755	-0.306759	-0.613576	0.690972	0.632935	0.324498	0.332126	0.398978	-0.513943	0.164624	0.544669
0.454369	0.38448	0.470265	-0.273494	-0.0715645	-0.397983	0.286343	0.498032	-0.369418	0.477732	0.576837	-0.58264	0.386785	-0.302857	-0.481714	-0.311902	-0.140937	-0.28924	0.197111	-0.345347	-0.167105	0.567464	-0.508785	-0.593908	0.370864	0.518294	0.487882	0.236818	0.0952674	-0.440837	0.146078	0.685695
0.219096	0.524518	0.229781	-0.397447	-0.20341	-0.56354	0.287086	0.57428	-0.650929	0.413952	0.356429	-0.117378	0.293203	-0.611465	-0.473355	-0.636536	-0.741296	-0.0548295	0.232053	0.00871585	-0.621333	0.116156	-0.276501	-0.465885	0.229529	0.440605	0.141822	0.651896	0.446939	-0.323305	0.430119	0.00124705
0.297735	0.120111	0.360551	-0.236244	-0.789911	-0.637655	0.394805	0.352967	-0.593398	0.689312	0.186765	-0.184124	0.429798	-0.394901	-0.263628	-0.487111	-0.886544	-0.463074	0.25432	-0.326199	-0.422432	0.105484	-0.497377	-0.225351	0.56716	0.603556	0.401368	0.399964	0.778938	-0.34376	0.46468	-0.0336433
0.530364	0.119561	0.473684	-0.1536	-0.29397	-0.324961	0.62873	0.546661	-0.247406	0.465104	0.280165	-0.531437	0.393508	-0.34529	-0.534354	-0.417556	-0.102039	-0.407888	0.44577	-0.313355	-0.289416	0.523913	-0.468835	-0.658621	0.523167	0.526319	0.22592	0.325181	0.672063	-0.384367	0.278531	0.409
0.216186	0.109707	0.481766	-0.469115	-0.408749	-0.204656	0.599446	0.103459	-0.628054	0.464212	0.4239	-0.517584	0.148829	-0.137938	-0.403399	-0.139876	-0.36699	-0.561039	0.425803	-0.484946	-0.168013	0.147814	-0.508922	-0.251966	0.044652	0.231571	0.372534	0.344427	0.0201322	-0.641004	0.62026	0.552413
0.43136	0.448802	0.566114	-0.313521	-0.581444	-0.468906	0.474824	0.631772	-0.210778	0.484076	0.122503	-0.192464	0.738036	-0.437436	-0.635054	-0.70184	-0.470255	-0.125575	0.483745	-0.31753	-0.248546	0.26303	-0.372264	-0.487142	0.569064	0.364086	0.0945789	0.116409	0.664958	-0.413244	0.206968	0.297412
0.63758	0.113496	0.605264	-0.170373	-0.190604	-0.735862	0.526261	0.633271	-0.0671921	0.63628	0.688528	-0.665879	0.78506	-0.736161	-0.488088	-0.763657	-0.160685	-0.24775	0.25906	-0.451358	-0.0991698	0.692351	0.0205218	-0.688215	0.741987	0.695015	0.0754954	0.0280814	0.623532	-0.236778	0.122009	0.428454
0.379877	0.461657	0.28691	-0.461283	-0.485427	-0.1903	0.142489	0.479368	-0.283223	0.366508	0.240757	-0.205607	0.429128	-0.411442	-0.418697	-0.556749	-0.354995	-0.376261	0.380505	-0.214251	-0.412563	0.136274	-0.62963	-0.264355	0.22029	0.40922	0.240645	0.445229	0.655259	-0.390231	0.358314	0.29489
0.377197	0.209353	0.348303	-0.514985	-0.571428	-0.442969	0.437752	0.327443	-0.498085	0.304156	0.67396	-0.517185	0.398829	-0.40493	-0.399363	-0.322512	-0.606377	-0.557136	0.515923	-0.608874	-0.610418	0.402738	-0.494124	-0.408717	0.323399	0.329291	0.5017	0.577004	0.358513	-0.543639	0.514812	0.462824
0.480269	0.279142	0.426937	-0.395874	-0.451866	-0.340531	0.553907	0.0957227	-0.27234	0.38064	0.350531	-0.376663	0.244561	-0.454679	-0.266502	-0.268886	-0.299665	-0.476114	0.452282	-0.622915	-0.325401	0.503745	-0.525693	-0.390812	0.315473	0.307079	0.445737	0.435546	0.344846	-0.224703	0.431054	0.307045
0.462702	0.394653	0.301929	-0.40845	-0.451142	-0.474355	0.426451	0.465468	-0.396036	0.451963	0.40395	-0.474949	0.462253	-0.452956	-0.467348	-0.486576	-0.421404	-0.344333	0.399632	-0.481991	-0.374743	0.445805	-0.359911	-0.518667	0.371867	0.385661	0.412513	0.467108	0.387547	-0.469423	0.491876	0.483571
0.388758	0.378025	0.355891	-0.424121	-0.173738	-0.432722	0.576223	0.596498	-0.0625974	0.327304	0.25969	-0.624817	0.573028	-0.507049	-0.647232	-0.730209	-0.292548	-0.385435	0.149082	-0.246916	-0.110444	0.736587	0.0912085	-0.764369	0.440709	0.655677	0.460375	0.324044	0.443715	-0.23034	-0.0270633	0.594805
0.484218	0.132049	0.287437	-0.0464803	-0.367065	-0.217847	0.344197	0.29598	-0.130484	0.413962	0.475753	-0.575979	0.396393	-0.200215	-0.429574	-0.0424255	-0.0897593	-0.242724	0.303044	-0.348531	-0.0466979	0.512098	-0.154032	-0.493466	0.493047	0.530753	0.310105	0.0588675	0.086071	-0.329663	0.0527145	0.51229
0.0684227	0.394251	0.291736	-0.317438	-0.29404	-0.232797	0.354944	0.279429	-0.574226	0.160036	0.307155	-0.311987	0.289653	-0.0882685	-0.165151	-0.0963431	-0.319783	-0.307545	0.427736	-0.197217	-0.381956	0.384097	-0.519368	-0.10252	0.0638608	0.0779146	0.442836	0.466952	0.175267	-0.36307	0.491791	0.381803
0.410454	0.562351	0.307083	-0.314946	-0.28846	-0.382318	0.29545	0.737128	-0.194357	0.713595	0.354033	-0.4587	0.62353	-0.478189	-0.434788	-0.794158	-0.212741	-0.123484	0.183836	-0.29294	-0.0950749	0.634532	-0.276379	-0.574629	0.690967	0.673654	0.216074	0.338415	0.504072	-0.120892	0.153019	0.203117
0.412403	0.312677	0.553967	-0.11286	-0.321476	-0.420266	0.542886	0.583132	-0.167148	0.623714	0.379233	-0.373993	0.453126	-0.574348	-0.344201	-0.5012	-0.137877	-0.516749	0.338879	-0.513818	-0.195398	0.544552	-0.382579	-0.626911	0.523765	0.489102	0.300764	0.455654	0.427092	-0.216814	0.211176	0.297058
0.23872	0.164899	0.458204	-0.332725	-0.383833	-0.100859	0.232336	0.164982	-0.384093	0.264468	0.386202	-0.329302	0.109649	-0.161161	-0.222487	-0.102626	-0.562306	-0.572491	0.50957	-0.435116	-0.641656	0.231856	-0.528815	-0.203612	0.185749	0.048256	0.439754	0.470046	0.228742	-0.303219	0.64243	0.162002
0.270959	0.481649	0.348823	-0.321507	-0.308876	-0.202553	0.147542	0.302223	-0.295754	0.274893	0.277069	-0.230394	0.0886535	0.0165587	-0.332716	-0.411263	-0.0243736	-0.507956	0.457891	-0.105	-0.2268	0.374459	-0.327573	0.0179977	0.20022	0.192822	0.548916	0.194038	0.496437	-0.459945	0.0830691	0.535102
0.240221	0.263746	0.336255	-0.45205	-0.627912	-0.507329	0.20115	0.598454	-0.590567	0.283323	0.303476	-0.301742	0.296701	-0.0764062	-0.239444	-0.151882	-0.540524	-0.343494	0.484996	-0.355886	-0.666765	0.184022	-0.517444	-0.248899	0.210344	0.246253	0.471093	0.397866	0.199434	-0.437434	0.622187	0.36331
0.339074	0.227076	0.565687	-0.19057	-0.501077	-0.198942	0.702392	0.281345	-0.345937	0.467112	0.10484	-0.224069	0.433905	-0.527895	-0.242066	-0.338105	-0.381321	-0.673355	0.63514	-0.668957	-0.569672	0.459993	-0.697648	-0.481	0.495106	0.392564	0.24867	0.37025	0.29676	-0.220034	0.511173	0.447709
0.667116	0.446702	0.567489	-0.192379	0.0607021	-0.591445	0.462131	0.670588	-0.0724772	0.731563	0.60269	-0.600896	0.621833	-0.542299	-0.521194	-0.594269	-0.129761	-0.202259	0.127262	-0.324783	-0.110348	0.554018	0.0939338	-0.72529	0.558086	0.667462	0.101661	0.0868784	0.445532	-0.135199	0.121402	0.0798383
0.409835	0.336509	0.189992	-0.403027	-0.373264	-0.230542	0.239936	0.247497	-0.529286	0.504839	0.517919	-0.536172	0.406319	-0.395892	-0.341587	-0.0722538	-0.511873	-0.505011	0.625198	-0.297196	-0.556513	0.320238	-0.373245	-0.399917	0.371848	0.428944	0.564105	0.427825	0.247978	-0.463931	0.537642	0.306484
0.631653	0.279223	0.143714	-0.570472	-0.540683	-0.441413	0.281416	0.10966	-0.654277	0.25676	0.752307	-0.686435	0.230737	-0.415591	-0.332478	-0.158553	-0.45065	-0.606826	0.600038	-0.375869	-0.494365	0.328234	-0.471384	-0.224355	0.243065	0.408696	0.685773	0.516735	0.0811837	-0.426409	0.65798	0.505466
0.660815	0.326713	0.397409	-0.156694	-0.334694	-0.376872	0.514543	0.493697	-0.045683	0.617678	0.534175	-0.732702	0.583332	-0.613771	-0.603159	-0.645781	-0.152836	-0.381762	0.293767	-0.388356	-0.0281819	0.596622	-0.264382	-0.758004	0.731544	0.72111	0.289518	0.224728	0.540916	-0.209411	0.19695	0.558942
0.687281	0.517304	0.418545	-0.307921	-0.0934215	-0.510124	0.657335	0.655612	-0.0952908	0.505945	0.425465	-0.67967	0.541239	-0.669611	-0.742633	-0.761642	-0.0117816	-0.268763	0.240409	-0.447783	-0.144047	0.75236	-0.161704	-0.661149	0.52808	0.68246	0.142657	0.297212	0.692148	-0.299253	0.134975	0.432787
0.325802	0.283675	0.48639	-0.262493	-0.378975	-0.584335	0.510873	0.525693	-0.332616	0.540895	0.367631	-0.491913	0.597833	-0.359136	-0.344308	-0.493936	-0.110781	-0.311697	0.369785	-0.395437	-0.282293	0.329034	-0.308521	-0.594309	0.51688	0.632578	0.178631	0.265866	0.498261	-0.464857	0.089008	0.328897
0.416312	0.332634	0.595133	-0.0115454	-0.479916	-0.261234	0.688513	0.148146	-0.218664	0.463434	0.0369892	-0.221238	0.16503	-0.498296	-0.208138	-0.0749786	-0.380072	-0.685737	0.715773	-0.6449	-0.552077	0.343294	-0.89251	-0.315099	0.511221	0.207416	0.182149	0.411367	0.0691355	-0.255912	0.7212	0.520086
0.528559	0.258613	0.269125	-0.454285	-0.292333	-0.255182	0.586194	0.428381	-0.320038	0.354519	0.479535	-0.591312	0.290985	-0.40294	-0.526189	-0.473465	-0.27387	-0.464616	0.530158	-0.37012	-0.23782	0.425057	-0.485303	-0.506082	0.411173	0.49897	0.392585	0.496733	0.53317	-0.489912	0.321272	0.673374
0.504602	0.674684	0.174213	-0.453184	-0.514548	-0.390825	0.214588	0.271479	-0.527296	0.294433	0.532139	-0.527098	0.426011	-0.482085	-0.297232	-0.210136	-0.539833	-0.478786	0.454392	-0.413587	-0.690005	0.0964299	-0.454037	-0.428693	0.487632	0.471136	0.5517	0.503196	0.209756	-0.400158	0.414321	0.320661
0.358108	0.291821	0.49967	-0.333942	-0.484206	-0.155688	0.663188	0.168847	-0.409676	0.385512	0.247789	-0.207744	0.39938	-0.287336	-0.400572	-0.267494	-0.432414	-0.623095	0.450372	-0.477148	-0.584979	0.332645	-0.685314	-0.377798	0.512757	0.422273	0.217922	0.274841	0.671471	-0.243706	0.550489	0.448351
0.372803	0.265711	0.442591	-0.256899	-0.359724	-0.115668	0.567072	0.0368472	-0.325051	0.348046	0.147473	-0.14133	0.143944	-0.433478	-0.157169	-0.0510722	-0.643108	-0.723396	0.615513	-0.609484	-0.511366	0.296683	-0.466647	-0.0473597	0.467855	0.124498	0.375966	0.436974	0.255782	-0.384625	0.593814	0.267775
0.6064	0.226108	0.546219	-0.205803	-0.462049	-0.441241	0.609394	0.150835	-0.369138	0.36762	0.410332	-0.584774	0.191651	-0.619949	-0.379005	-0.131358	-0.482174	-0.594486	0.572405	-0.739849	-0.605	0.332209	-0.536877	-0.385569	0.419426	0.352667	0.45455	0.480514	0.356825	-0.298761	0.60532	0.247869
0.215405	0.495614	0.219458	-0.438885	-0.649097	-0.39849	0.160397	0.44342	-0.508113	0.469967	0.29727	-0.0627013	0.44654	-0.23376	-0.29641	-0.475424	-0.450972	-0.411955	0.426055	-0.199825	-0.312027	0.39211	-0.309617	-0.268002	0.456268	0.259548	0.383939	0.564774	0.608465	-0.494463	0.595992	0.35121
0.374177	0.133694	0.449493	-0.294414	-0.115367	-0.231011	0.330488	0.0510924	-0.329367	0.247382	0.350036	-0.517121	0.257849	-0.413798	-0.471266	-0.0393415	-0.308466	-0.609358	0.406122	-0.470977	-0.466533	0.327472	-0.329118	-0.466874	0.365502	0.305074	0.548502	0.247742	0.502589	-0.249656	0.350108	0.590576
0.437448	0.103159	0.421006	0.0426496	-0.349984	-0.531478	0.59042	0.371024	-0.204486	0.397376	0.368808	-0.459179	0.472978	-0.284692	-0.397206	-0.268607	-0.222584	-0.20651	0.194997	-0.594785	-0.402423	0.0509122	-0.45356	-0.347958	0.628553	0.405764	0.301791	0.333578	0.197129	-0.115986	0.256019	0.253733
0.17528	0.44162	0.426932	-0.574838	-0.496872	-0.43136	0.0765004	0.507108	-0.465899	0.183584	0.0880335	-0.0774158	0.394513	-0.0748522	-0.360904	-0.461133	-0.530538	-0.169154	0.329349	-0.0472214	-0.624809	0.155209	-0.429414	-0.221087	0.439364	0.203221	0.249686	0.351202	0.553305	-0.34808	0.462796	0.238656
0.200612	0.0860851	0.543899	-0.243186	-0.581189	-0.144627	0.169153	0.57191	-0.0950262	0.455887	-0.0165313	-0.0861949	0.311942	-0.282354	-0.329821	-0.411589	-0.485601	-0.134126	0.362993	-0.0816514	-0.551834	0.111765	-0.640013	-0.301554	0.46707	0.238621	0.204676	0.298279	0.611096	-0.343131	0.280947	0.288573
0.529872	0.334427	0.473935	-0.431611	-0.475513	-0.416286	0.33454	0.386807	-0.674392	0.334178	0.484433	-0.53801	0.226147	-0.175041	-0.220406	-0.0677417	-0.582605	-0.668033	0.639101	-0.376611	-0.550416	0.412165	-0.677684	-0.223999	0.127064	0.317015	0.478874	0.497728	0.318211	-0.50664	0.668461	0.516533
0.3297	0.303088	0.420659	-0.179946	-0.549277	-0.278336	0.526607	0.0462321	-0.381942	0.278067	0.228101	-0.365064	0.20016	-0.243759	-0.238418	-0.174627	-0.365576	-0.490838	0.448784	-0.551082	-0.563055	0.119828	-0.576815	-0.163809	0.344655	0.223254	0.52783	0.40907	0.197748	-0.270342	0.520954	0.23509
0.570144	0.393279	0.398506	-0.398872	-0.28078	-0.433882	0.361737	0.562945	-0.228036	0.507847	0.479053	-0.610722	0.355199	-0.539984	-0.546176	-0.626744	-0.352886	-0.19857	0.219043	-0.342697	-0.108367	0.605627	-0.237737	-0.516438	0.422105	0.541818	0.387244	0.422478	0.615173	-0.308511	0.242395	0.429287
0.166662	0.442879	0.126061	-0.562466	-0.232542	-0.6043	0.340369	0.554056	-0.747946	0.244394	0.480422	-0.230787	0.475609	-0.552235	-0.441982	-0.492666	-0.737254	-0.23828	0.241714	-0.299378	-0.613494	0.281258	-0.449608	-0.420914	0.129268	0.439947	0.144147	0.582805	0.513898	-0.524568	0.460959	0.386174
0.405632	0.435992	0.562893	-0.222932	-0.448682	-0.374386	0.582593	0.602222	-0.261753	0.45528	0.317991	-0.641942	0.603052	-0.491585	-0.528786	-0.48687	-0.315117	-0.384207	0.354481	-0.304476	-0.341017	0.572136	-0.0899575	-0.612142	0.606086	0.589752	0.264165	0.409952	0.69287	-0.344038	0.29725	0.279772
0.313023	0.395896	0.317991	-0.719549	-0.636755	-0.380037	0.387372	0.341311	-0.66752	0.325557	0.603589	-0.427796	0.363644	-0.391873	-0.29597	-0.40114	-0.682177	-0.443322	0.602929	-0.51988	-0.570667	0.305713	-0.578863	-0.268931	0.326139	0.276102	0.632198	0.57269	0.33118	-0.534895	0.622196	0.616057
0.2714	0.0437739	0.379904	-0.24342	-0.341735	-0.603421	0.401766	0.29647	-0.429675	0.42377	0.235078	-0.204734	0.345054	-0.682705	-0.333863	-0.292477	-0.363134	-0.377129	0.175042	-0.330533	-0.307536	0.296723	-0.153554	-0.488668	0.380829	0.371711	0.318484	0.332937	0.344649	-0.038991	0.336135	0.244954
0.415987	0.192791	0.312084	-0.318661	-0.248603	-0.337844	0.447957	0.453647	-0.14162	0.397027	0.336948	-0.560178	0.362743	-0.074148	-0.424331	-0.19555	0.0754666	-0.0384051	0.119579	-0.398703	-0.149904	0.39995	0.00533378	-0.506602	0.329295	0.450449	0.360036	0.342402	0.308274	-0.368265	-0.0475215	-0.11701
0.461968	0.495929	0.565132	-0.29451	-0.249101	-0.344001	0.477489	0.63575	-0.0779454	0.636694	0.190538	-0.233764	0.606862	-0.467525	-0.606782	-0.748807	-0.25056	-0.302485	0.180151	-0.477365	-0.250502	0.598615	-0.228925	-0.689088	0.646618	0.57723	0.195289	0.504745	0.608042	-0.229167	0.177663	0.132425
0.319513	0.27898	0.207624	-0.156489	0.0460771	-0.275019	0.448005	0.526646	0.0504983	0.350136	0.128874	-0.509361	0.452308	-0.274475	-0.535229	-0.636411	0.0763196	0.173422	0.184058	-0.0300621	-0.0315027	0.42322	0.251733	-0.653534	0.322729	0.506634	0.0594977	0.234561	0.633085	-0.0374249	0.0253887	0.00721829
0.215798	0.448842	0.298417	-0.580359	-0.615107	-0.57408	0.393987	0.447499	-0.664807	0.236897	0.418142	-0.35197	0.29788	-0.145128	-0.235821	-0.313038	-0.557448	-0.578175	0.600903	-0.308186	-0.565894	0.479348	-0.462602	-0.171115	0.227333	0.200606	0.627224	0.511926	0.175595	-0.650248	0.544836	0.455298
0.284344	0.447304	0.340059	-0.261595	-0.358134	-0.449276	0.355435	0.688144	-0.313692	0.348843	0.189646	-0.182043	0.52759	-0.36069	-0.43201	-0.530174	-0.324752	-0.0845481	0.220316	-0.294661	-0.300202	0.210935	-0.217857	-0.474712	0.416499	0.510397	0.194431	0.58729	0.506047	-0.291751	0.265691	0.326769
0.627167	0.52571	0.467133	-0.302447	-0.172413	-0.278943	0.500457	0.635526	-0.215853	0.496004	0.433892	-0.630418	0.712647	-0.584012	-0.507167	-0.626938	-0.0751636	-0.394655	0.228209	-0.557136	-0.0812381	0.518584	-0.149001	-0.553251	0.50398	0.639057	0.266442	0.173159	0.503958	-0.349989	0.122965	0.45075
0.428456	0.179236	0.268924	-0.278599	-0.432034	-0.340212	0.62884	0.312832	-0.175158	0.407725	0.475057	-0.611992	0.52975	-0.733004	-0.484173	-0.405961	-0.219172	-0.303685	0.383172	-0.660945	-0.277549	0.532122	7.25773e-05	-0.707955	0.52739	0.560581	0.236167	0.318586	0.586531	-0.258748	0.196722	0.361514
0.582327	0.579796	0.407938	-0.459764	-0.321842	-0.589454	0.404307	0.576556	-0.31882	0.332967	0.559489	-0.515801	0.587288	-0.584272	-0.400951	-0.643873	-0.502725	-0.349725	0.293243	-0.499941	-0.532821	0.549484	-0.299693	-0.422729	0.606443	0.548533	0.316006	0.331212	0.465809	-0.368667	0.325387	0.513613
0.366428	0.304337	0.526681	-0.19916	-0.507507	-0.272493	0.420926	0.0317145	-0.552492	0.526728	0.446462	-0.290599	0.250184	-0.352546	-0.224942	-0.031665	-0.41012	-0.597867	0.596643	-0.570874	-0.480115	0.259158	-0.499951	-0.243386	0.270511	0.289691	0.550379	0.492964	0.232068	-0.368462	0.601982	0.32408
0.353722	0.313019	0.356895	-0.185347	-0.0202372	-0.30886	0.429321	0.6559	-0.164629	0.556242	0.153981	-0.484737	0.536443	-0.483194	-0.496081	-0.742722	-0.174151	-0.0968255	0.336439	-0.211961	-0.0356961	0.681096	-0.313577	-0.681557	0.306619	0.681302	0.129425	0.384657	0.52985	-0.157626	0.134451	0.300971
0.129886	0.36908	0.464813	-0.398237	-0.544791	-0.43864	0.242108	0.383831	-0.486386	0.372971	0.141558	-0.200388	0.124104	0.00824921	-0.155219	-0.0504854	-0.568457	-0.209292	0.550516	-0.456655	-0.766671	0.211771	-0.4705	-0.069762	0.326322	-0.00537833	0.32773	0.466976	0.221043	-0.629665	0.676154	0.159185
0.395928	0.31438	0.55476	-0.365915	-0.452185	-0.326115	0.528449	0.176249	-0.354432	0.436999	0.204747	-0.0274556	0.3821	-0.667183	-0.41608	-0.487931	-0.593694	-0.311999	0.443092	-0.405858	-0.508412	0.14625	-0.366201	-0.449116	0.394146	0.247646	0.325859	0.412057	0.425736	-0.290519	0.496227	0.159107
0.314499	0.407228	0.243843	-0.586556	-0.646436	-0.375158	0.195046	0.448043	-0.519423	0.270168	0.457606	-0.351656	0.45234	-0.344124	-0.468145	-0.560833	-0.573185	-0.360798	0.48725	-0.491654	-0.558611	0.432995	-0.474111	-0.476034	0.27541	0.371294	0.465499	0.559169	0.437061	-0.46397	0.565153	0.599957
0.441666	0.0529155	0.320302	-0.299857	-0.543425	-0.274926	0.586737	0.203754	-0.333879	0.410198	0.485885	-0.492684	0.290125	-0.489248	-0.400652	-0.146159	-0.569027	-0.737867	0.50331	-0.727485	-0.434245	0.433476	-0.340667	-0.472202	0.564536	0.406471	0.527969	0.250114	0.498334	-0.323703	0.424537	0.573587
0.539481	0.396695	0.458978	-0.278467	-0.164711	-0.620991	0.510375	0.624825	-0.0825372	0.654291	0.531728	-0.646842	0.587602	-0.548343	-0.385966	-0.739661	-0.0596674	-0.202929	0.142517	-0.313205	-0.0221083	0.655849	-0.0997893	-0.670276	0.651633	0.655201	0.0347621	0.0119228	0.397714	-0.205962	0.17236	0.409871
0.393374	0.406944	0.399715	-0.540119	-0.420878	-0.390746	0.381281	0.484513	-0.428084	0.20925	0.500588	-0.452282	0.425916	-0.286736	-0.294485	-0.382623	-0.432511	-0.44087	0.535663	-0.576653	-0.384087	0.488622	-0.408433	-0.411237	0.156107	0.361962	0.568044	0.390121	0.388894	-0.556631	0.431658	0.607255
0.521991	0.592459	0.311659	-0.287558	-0.124562	-0.354378	0.650468	0.567543	0.00343529	0.454266	0.326627	-0.403937	0.445837	-0.508775	-0.740015	-0.678482	-0.13266	-0.210327	0.300935	-0.241975	-0.160343	0.616786	-0.181077	-0.767057	0.400381	0.542208	0.280035	0.359763	0.715912	-0.317867	0.0527112	0.413771
0.690789	0.605625	0.610087	-0.429875	-0.35629	-0.712192	0.341896	0.386337	0.0351188	0.685115	0.171448	-0.264534	0.847451	-0.711647	-0.572033	-0.732083	-0.242068	-0.262682	0.121339	-0.230147	0.0642529	0.565243	-0.0546057	-0.768196	0.624861	0.74419	0.273033	0.445856	0.768814	0.0242319	0.149433	0.18879
0.166839	0.460473	0.112315	-0.429065	-0.264255	-0.29775	0.2818	0.367017	-0.559265	0.126971	0.402403	-0.349522	0.112688	-0.156819	-0.284579	-0.262972	-0.32414	-0.631901	0.407424	-0.158011	-0.434299	0.5506	-0.52096	-0.102958	0.181821	0.101019	0.532444	0.497907	0.211425	-0.438904	0.447444	0.555199
0.458377	0.0853419	0.128951	-0.389855	-0.227127	-0.228419	0.22742	0.104272	-0.59272	0.377368	0.456786	-0.624362	0.18187	-0.375421	-0.229048	-0.230249	-0.33149	-0.456037	0.426802	-0.411737	-0.323553	0.320606	-0.423854	-0.420191	0.363223	0.407067	0.507835	0.494815	0.227241	-0.416355	0.394877	0.662085
0.652673	0.136656	0.36208	-0.204169	-0.249195	-0.453016	0.274477	0.457296	-0.173561	0.584937	0.518498	-0.672757	0.380806	-0.29421	-0.657241	-0.268357	-0.204173	-0.381348	0.330645	-0.612744	-0.211091	0.476153	-0.0617972	-0.559164	0.453088	0.561964	0.491604	0.263239	0.281615	-0.332092	0.261598	0.558262
0.406118	0.0619314	0.468163	-0.351708	-0.641447	-0.278499	0.647013	0.214966	-0.636412	0.219153	0.571638	-0.393152	0.237483	-0.269467	-0.20653	-0.218015	-0.395655	-0.449478	0.440044	-0.72662	-0.573799	0.247814	-0.54997	-0.20191	0.354394	0.287437	0.614873	0.534788	0.392603	-0.527271	0.535244	0.550788
0.559538	0.414878	0.424086	-0.283413	-0.336017	-0.590261	0.410148	0.519642	-0.399011	0.557392	0.542974	-0.482307	0.515963	-0.620166	-0.576966	-0.480406	-0.343446	-0.366647	0.39396	-0.355347	-0.391045	0.515017	-0.282229	-0.554092	0.552498	0.646685	0.375386	0.417609	0.47821	-0.32362	0.406274	0.41114
0.243322	0.265642	0.51128	-0.514766	-0.439602	-0.238811	0.22204	0.384977	-0.609906	0.175007	0.277005	-0.23525	0.194067	-0.0937799	-0.141362	-0.237569	-0.60973	-0.520179	0.677077	-0.368337	-0.733357	0.314126	-0.605821	-0.201641	0.135668	0.171921	0.532681	0.54379	0.177849	-0.341464	0.602014	0.504961
0.732779	0.310563	0.573768	-0.268377	-0.109239	-0.587771	0.603359	0.694733	-0.199723	0.721452	0.562461	-0.677262	0.540832	-0.58444	-0.557009	-0.63044	-0.21424	-0.274699	0.299154	-0.377932	-0.0393562	0.654798	-0.369025	-0.69138	0.544571	0.714812	0.239294	0.465681	0.628551	-0.390763	0.0964234	0.423135
0.634415	0.413801	0.359331	-0.373452	-0.661031	-0.51579	0.315885	0.279126	-0.323811	0.657596	0.481615	-0.72955	0.534186	-0.288987	-0.598247	-0.329555	-0.263062	-0.3457	0.333822	-0.479899	-0.204671	0.434746	-0.0992033	-0.647903	0.647355	0.541277	0.529913	0.171809	0.417123	-0.475599	0.438196	0.314742
0.745204	0.52593	0.478271	-0.228138	0.023039	-0.537121	0.559597	0.638758	-0.104343	0.509663	0.373931	-0.583882	0.513492	-0.716503	-0.55811	-0.73729	0.0131728	-0.229507	0.071463	-0.379562	0.0845438	0.671844	-0.113866	-0.709452	0.580933	0.642196	0.17052	0.251492	0.694458	-0.204098	0.119721	0.252363
0.394385	0.33072	0.371881	-0.282545	-0.304964	-0.571488	0.366894	0.626825	-0.0751095	0.495691	0.367369	-0.308651	0.61528	-0.458045	-0.414583	-0.626904	-0.130942	-0.190732	0.211632	-0.396257	-0.236003	0.411981	-0.239224	-0.579906	0.612262	0.422679	0.147699	0.222779	0.392095	-0.185142	0.29727	0.444788
0.325437	0.441799	0.544143	-0.0913303	-0.258676	-0.298238	0.295008	0.547856	-0.0982049	0.682405	0.22612	-0.25267	0.538351	-0.438518	-0.376269	-0.733772	-0.338099	-0.227318	0.149424	-0.342616	0.0308943	0.584452	-0.553761	-0.774677	0.49563	0.646267	0.298669	0.306928	0.494391	-0.0830356	0.146704	0.258123
0.27309	0.583216	0.303192	-0.519359	-0.440247	-0.247012	0.30923	0.462136	-0.745564	0.29149	0.576507	-0.472769	0.149458	-0.135872	-0.323567	-0.283782	-0.572958	-0.602482	0.661229	-0.27622	-0.52089	0.40979	-0.534095	-0.0964607	0.191716	0.127305	0.631977	0.467976	0.0252483	-0.433159	0.756016	0.453662
0.52983	0.322036	0.274218	-0.389358	-0.144268	-0.440788	0.263469	0.493968	-0.135571	0.510432	0.35357	-0.546813	0.506372	-0.593844	-0.576287	-0.589911	-0.137459	-0.180163	0.166245	-0.361577	-0.0685283	0.473859	-0.126042	-0.644195	0.539503	0.504016	0.286711	0.199739	0.533665	-0.126556	0.227225	0.557182
0.545621	0.394723	0.587923	-0.268422	-0.268515	-0.431468	0.471667	0.711007	-0.0332376	0.627176	0.297746	-0.514435	0.678784	-0.577628	-0.456711	-0.736875	-0.229564	-0.176686	0.359145	-0.398893	-0.228753	0.527371	-0.325054	-0.606438	0.454658	0.569451	0.176571	0.40353	0.59092	-0.177681	0.085523	0.409125
0.208599	0.593591	0.146882	-0.333606	-0.250357	-0.538421	0.145891	0.466059	-0.432348	0.327627	0.283169	-0.0141328	0.395092	-0.521671	-0.416277	-0.660234	-0.603538	-0.247121	0.191394	-0.0707285	-0.533592	0.326431	-0.546136	-0.37175	0.303799	0.561868	0.253066	0.390404	0.566927	-0.161903	0.384452	0.114553
0.637043	0.230786	0.421843	-0.322593	-0.503336	-0.41293	0.450274	0.589263	-0.152225	0.508207	0.571093	-0.57708	0.54409	-0.423701	-0.658316	-0.530051	-0.314793	-0.259241	0.296502	-0.610858	-0.188659	0.584281	-0.291303	-0.569908	0.636057	0.577933	0.427785	0.360657	0.411759	-0.480715	0.138797	0.415705
0.199087	0.363741	0.315248	-0.446107	-0.277729	-0.419001	0.414129	0.536717	-0.485718	0.217346	0.357127	-0.469242	0.328501	-0.138951	-0.256824	-0.35833	-0.219691	-0.477985	0.488564	-0.114646	-0.301537	0.462582	-0.743584	-0.273995	0.286546	0.289798	0.521739	0.499959	0.217122	-0.473822	0.503565	0.676574
0.370278	0.518705	0.383685	-0.673513	-0.531426	-0.414587	0.274496	0.333281	-0.785355	0.0489938	0.519366	-0.453398	0.285323	-0.148133	-0.297348	-0.132545	-0.678942	-0.464333	0.725533	-0.312034	-0.708045	0.290036	-0.732677	-0.265424	0.0985642	0.135709	0.636596	0.458687	0.137348	-0.689165	0.764732	0.80977
0.1358	0.54841	0.139935	-0.566078	-0.419562	-0.527801	0.228498	0.292306	-0.512972	0.182477	0.441234	-0.441618	-0.00714757	0.0153994	-0.155855	-0.168091	-0.267641	-0.502816	0.492835	-0.199698	-0.268644	0.309213	-0.83836	-0.0540034	-0.00815191	0.296613	0.504143	0.531271	0.152904	-0.449332	0.491933	0.367133
0.729514	0.353747	0.530509	-0.155489	-0.191676	-0.546495	0.615609	0.672027	-0.165206	0.598207	0.494747	-0.710545	0.597232	-0.633145	-0.583223	-0.660974	-0.127363	-0.284697	0.290535	-0.421639	-0.203455	0.609235	-0.227299	-0.605089	0.489221	0.647831	0.275187	0.309496	0.551307	-0.298029	0.255035	0.308712
0.351291	0.459781	0.428668	-0.498665	-0.496019	-0.394676	0.499068	0.283965	-0.560003	0.311396	0.601909	-0.395099	0.403427	-0.414215	-0.343042	-0.247139	-0.568356	-0.505023	0.481477	-0.535434	-0.527224	0.350692	-0.404369	-0.377778	0.391808	0.353758	0.516423	0.493893	0.407411	-0.535229	0.486029	0.349641
0.435727	0.414855	0.348769	-0.186535	-0.176776	-0.215328	0.446283	0.534342	-0.194011	0.391136	0.169978	-0.437417	0.335787	-0.342313	-0.580098	-0.474284	-0.133809	-0.163825	0.216376	-0.380546	-0.0696559	0.543929	-0.276972	-0.509799	0.304873	0.579773	0.237155	0.196754	0.481342	-0.254963	0.200948	0.399363
0.23775	0.202857	0.335941	-0.303282	-0.219064	-0.617777	0.489253	0.556326	-0.695068	0.62398	0.452918	-0.240965	0.612816	-0.60029	-0.417688	-0.626934	-0.606744	-0.203692	0.365503	-0.0826314	-0.533699	0.282917	-0.328015	-0.383402	0.239688	0.558542	0.289256	0.580905	0.68574	-0.346284	0.337184	0.281042
0.507193	0.16601	0.31997	-0.214028	-0.124263	-0.221942	0.344197	0.521046	-0.0868941	0.420554	0.167241	-0.426931	0.312973	-0.171191	-0.541208	-0.309794	-0.168886	-0.257085	0.318468	-0.24026	-0.175403	0.539454	-0.0984703	-0.553509	0.375933	0.504431	0.202016	0.338901	0.395019	-0.278128	0.127596	0.369031
0.244275	0.363395	0.292607	-0.680255	-0.319709	-0.527925	0.401659	0.422634	-0.45243	0.184951	0.47828	-0.445588	0.244947	-0.132592	-0.420398	-0.491075	-0.33369	-0.459777	0.589409	-0.228845	-0.271165	0.4222	-0.577217	-0.228684	0.198834	0.260759	0.613254	0.560466	0.320167	-0.634954	0.604118	0.463756
0.142393	0.37523	0.0971514	-0.264497	-0.303551	-0.464452	0.21765	0.506431	-0.501402	0.151669	0.405197	-0.134487	0.0924234	0.109295	-0.167523	-0.10686	-0.444292	-0.0334771	0.582775	-0.0113485	-0.282762	0.310306	-0.886754	-0.0455717	0.0147851	-0.010245	0.459969	0.418781	-0.0916284	-0.596922	0.642044	0.271741
0.783156	0.290673	0.549811	-0.28843	-0.203173	-0.452328	0.567238	0.640647	-0.258041	0.66726	0.499298	-0.724696	0.670779	-0.625765	-0.67956	-0.539259	-0.229404	-0.445349	0.219825	-0.451539	-0.211032	0.692983	-0.0184372	-0.6671	0.705246	0.669893	0.305379	0.376189	0.568208	-0.348428	0.192729	0.339748
0.413055	0.386396	0.252009	-0.470353	-0.464309	-0.448861	0.337868	0.365799	-0.487675	0.436079	0.452685	-0.55327	0.331346	-0.428787	-0.364852	-0.361342	-0.478391	-0.502274	0.579074	-0.408958	-0.463243	0.263575	-0.470919	-0.417672	0.332892	0.441375	0.521517	0.493241	0.278575	-0.483758	0.479114	0.399767
0.290213	0.270218	0.415016	-0.396197	-0.449362	-0.0739994	0.181059	0.388963	-0.230263	0.500543	0.229048	-0.229723	0.588758	-0.0459778	-0.499141	-0.36646	-0.0625389	-0.503742	0.561527	-0.470973	-0.408288	0.382257	-0.727021	-0.361515	0.38456	0.29767	0.451726	0.43793	0.721533	-0.351404	0.193681	0.558795
0.557041	0.0180203	0.317174	-0.440072	-0.258645	-0.487468	0.335742	0.25661	-0.383617	0.397866	0.417613	-0.618411	0.430207	-0.478467	-0.390755	-0.42046	-0.296217	-0.312538	0.217012	-0.137249	-0.533196	0.331711	-0.367043	-0.18832	0.529112	0.444795	0.371608	0.280133	0.308554	-0.265534	0.421521	0.387016
0.609407	0.460149	0.387274	-0.498222	-0.366175	-0.374991	0.42993	0.590476	-0.373938	0.39904	0.471986	-0.419709	0.468084	-0.506228	-0.565813	-0.604645	-0.281067	-0.42285	0.36363	-0.340366	-0.240138	0.534056	-0.348	-0.454197	0.433868	0.47777	0.288752	0.249284	0.539287	-0.383469	0.366273	0.375628
0.473086	0.458722	0.564382	-0.199399	-0.343164	-0.512932	0.198026	0.522925	-0.197921	0.672789	0.449111	-0.551997	0.514439	-0.540546	-0.500356	-0.508873	-0.290747	-0.201425	0.230987	-0.42074	-0.225159	0.557763	-0.178983	-0.6344	0.549721	0.478247	0.353034	0.203562	0.442426	-0.278653	0.280852	0.400159
0.24612	0.315097	0.122525	-0.364812	-0.303884	-0.474187	0.324669	0.514291	-0.650655	0.209381	0.256506	-0.155181	0.406305	-0.412529	-0.294719	-0.451338	-0.645974	-0.103273	0.192732	-0.144945	-0.502008	0.222176	-0.343858	-0.349473	0.101354	0.356415	0.19492	0.603297	0.401312	-0.383896	0.382167	0.252914
0.427291	0.140312	0.302275	-0.402416	-0.446954	-0.383855	0.629392	0.124777	-0.601561	0.255994	0.516598	-0.670993	0.191019	-0.384547	-0.256673	-0.257809	-0.484031	-0.590933	0.49159	-0.717113	-0.509776	0.374759	-0.402034	-0.318111	0.31578	0.426698	0.655418	0.412614	0.500942	-0.483564	0.397065	0.400928
0.220066	0.350346	0.326729	-0.324485	-0.322049	-0.310364	0.53044	0.184955	-0.293143	0.269778	0.301907	-0.398655	0.314462	-0.225889	-0.270573	-0.296119	-0.429853	-0.356516	0.498038	-0.307246	-0.375383	0.261184	-0.503192	-0.317369	0.271355	0.249497	0.445675	0.326028	0.268832	-0.444684	0.446432	0.509368
0.630062	0.0906361	0.415155	-0.387807	-0.407497	-0.603082	0.434558	0.445311	-0.095545	0.66508	0.399613	-0.77872	0.584126	-0.477749	-0.700473	-0.33084	0.0818694	-0.165145	0.314044	-0.457311	-0.0422473	0.667684	-0.121194	-0.704427	0.496452	0.673103	0.524637	0.135041	0.34464	-0.325509	0.0514963	0.391112
0.688844	0.548877	0.445776	-0.265276	-0.0549093	-0.418893	0.549435	0.781231	0.0399872	0.688078	0.472339	-0.537181	0.584979	-0.635542	-0.620203	-0.832913	-0.0766997	-0.36902	0.316933	-0.435103	-0.0134007	0.586567	-0.167049	-0.6413	0.66198	0.668028	0.236824	0.169473	0.421852	-0.14098	-0.0324577	0.242626
0.417835	0.579235	0.443461	-0.616783	-0.381863	-0.531807	0.204357	0.476105	-0.424089	0.54277	0.358779	-0.2733	0.493378	-0.475613	-0.605214	-0.69624	-0.586463	-0.319242	0.233889	-0.241576	-0.434985	0.302749	-0.504578	-0.410821	0.43807	0.557092	0.433905	0.545475	0.581634	-0.168623	0.334351	0.229544
0.628182	-0.0537493	0.481572	-0.252092	-0.335677	-0.243831	0.384847	0.26189	-0.294959	0.566645	0.400662	-0.256795	0.273466	-0.573152	-0.333715	-0.159235	-0.125464	-0.473889	0.290342	-0.508415	-0.367282	0.35155	-0.573769	-0.472662	0.661426	0.451108	0.173048	0.123149	0.293456	-0.210605	0.356326	0.460142
0.454114	0.518884	0.397224	-0.611535	-0.54891	-0.313075	0.340653	0.264718	-0.709783	0.246658	0.708924	-0.413899	0.122004	-0.232655	-0.318719	-0.0988048	-0.635975	-0.398916	0.391818	-0.663294	-0.74287	0.124025	-0.315873	-0.116221	0.225881	0.258799	0.554554	0.36823	0.330678	-0.625489	0.831565	0.398119
0.450942	0.355288	0.465011	-0.354046	-0.2864	-0.624073	0.51061	0.464849	-0.199862	0.583484	0.293614	-0.603693	0.587404	-0.558592	-0.594725	-0.348765	-0.0923942	-0.432198	0.220971	-0.533038	-0.108104	0.581729	-0.174897	-0.717835	0.674002	0.710093	0.30119	0.0933708	0.41965	-0.353824	0.195881	0.452851
0.179149	0.593574	0.108688	-0.486239	-0.371292	-0.364377	0.43933	0.666547	-0.653097	0.356017	0.489846	-0.218748	0.380609	-0.277597	-0.276485	-0.48801	-0.654352	-0.437641	0.251912	-0.289901	-0.478657	0.240872	-0.329241	-0.345016	0.241147	0.400928	0.342728	0.70652	0.563378	-0.364979	0.431187	0.364727
0.357421	0.312696	0.464231	-0.506627	-0.411174	-0.340459	0.497342	0.288941	-0.541211	0.271083	0.353806	-0.354232	0.312477	-0.355135	-0.341274	-0.297581	-0.376217	-0.292594	0.291304	-0.434399	-0.407084	0.29973	-0.437989	-0.26578	0.397349	0.306307	0.444113	0.338073	0.427622	-0.534597	0.501789	0.333961
0.485812	0.630178	0.476217	-0.295779	-0.510259	-0.376236	0.303439	0.56867	-0.304853	0.481447	0.406087	-0.462143	0.426369	-0.320114	-0.427975	-0.382372	-0.265915	-0.393766	0.319243	-0.443073	-0.348791	0.271636	-0.250232	-0.485406	0.451441	0.422203	0.319605	0.315039	0.158392	-0.327017	0.254053	0.475025
0.551158	0.133894	0.412606	-0.223342	-0.292684	-0.431993	0.566287	0.53816	-0.232159	0.588614	0.263424	-0.48593	0.385636	-0.380289	-0.670408	-0.355737	-0.189077	-0.357537	0.335485	-0.407421	-0.238926	0.631943	-0.386172	-0.686535	0.465416	0.578962	0.217022	0.364522	0.52657	-0.351155	0.277927	0.441066
0.245633	0.264317	0.552334	-0.323757	-0.357903	-0.173812	0.174587	0.453003	-0.105892	0.412638	-0.0783379	-0.0661083	0.414671	-0.129907	-0.423674	-0.472215	-0.284225	-0.104713	0.0845734	0.00128292	-0.41922	0.340438	-0.355616	-0.255331	0.314901	0.400495	0.0307687	0.274529	0.475151	-0.206306	0.130881	0.258739
0.537788	0.43648	0.626392	-0.210332	-0.342463	-0.72234	0.472238	0.472263	-0.267768	0.77145	0.327778	-0.575816	0.638205	-0.471261	-0.429543	-0.383676	-0.184034	-0.559459	0.349692	-0.299587	-0.21386	0.494265	-0.423265	-0.676085	0.415506	0.703698	0.326995	0.272581	0.480595	-0.532722	0.313949	0.364152
0.268348	0.490885	0.227471	-0.520124	-0.430549	-0.195601	0.245138	0.337422	-0.555164	0.161326	0.419203	-0.315151	0.159428	-0.200309	-0.222633	-0.175434	-0.627434	-0.26919	0.312793	-0.448897	-0.37381	0.194147	-0.483877	-0.0269011	0.277849	0.168849	0.433458	0.359115	0.318538	-0.432298	0.503865	0.516463
0.350495	0.446748	0.528046	-0.617461	-0.431962	-0.348521	0.440565	0.579515	-0.746368	0.215611	0.688656	-0.54563	0.305271	-0.225711	-0.267775	-0.236502	-0.483811	-0.493843	0.546291	-0.411677	-0.476636	0.5157	-0.550735	-0.288847	0.21641	0.356459	0.634705	0.452971	0.298877	-0.680751	0.724686	0.496603
0.391398	0.443988	0.464093	0.0044307	-0.216547	-0.421492	0.583871	0.514709	-0.214061	0.645171	0.374752	-0.377768	0.592673	-0.471434	-0.428573	-0.57352	-0.172021	-0.366897	0.275737	-0.409523	-0.297088	0.348735	-0.37616	-0.59885	0.545478	0.491041	0.310554	0.431503	0.500714	-0.365282	0.267136	0.301915
0.268595	0.248901	0.464195	-0.254648	-0.253866	-0.31741	0.462221	0.208015	-0.392509	0.410573	0.549774	-0.623284	0.3784	-0.29911	-0.286161	-0.271748	-0.305935	-0.368654	0.333451	-0.577154	-0.258612	0.452396	-0.48112	-0.346366	0.32012	0.238123	0.360031	0.424878	0.161906	-0.483187	0.296693	0.660977
0.20959	0.679393	0.282838	-0.619093	-0.602528	-0.462963	0.210301	0.586591	-0.500949	0.357036	0.186067	-0.151738	0.460532	-0.15783	-0.430764	-0.694059	-0.679078	-0.239756	0.384623	-0.191502	-0.76315	0.207552	-0.490636	-0.260682	0.355941	0.354271	0.287916	0.637073	0.555488	-0.519947	0.55191	0.300302
0.322692	0.381656	0.395343	-0.33048	-0.497471	-0.326431	0.397217	0.284481	-0.50886	0.449509	0.471468	-0.517209	0.390405	-0.21423	-0.422886	-0.319311	-0.549181	-0.49658	0.492445	-0.547569	-0.420376	0.413583	-0.469042	-0.437637	0.329785	0.459535	0.579959	0.530939	0.417437	-0.574847	0.440445	0.532619
0.307639	0.214242	0.313752	-0.470895	-0.270759	-0.272866	0.596267	0.31918	-0.409216	0.249709	0.351831	-0.403118	0.271383	-0.46444	-0.374646	-0.400368	-0.356823	-0.59806	0.547361	-0.502757	-0.439791	0.363916	-0.561685	-0.47404	0.446724	0.364202	0.590222	0.340587	0.461548	-0.306225	0.349328	0.470832
0.476178	0.273005	0.246888	-0.60323	-0.483354	-0.376121	0.534051	0.108028	-0.677309	0.301075	0.697908	-0.694186	0.280125	-0.434677	-0.276622	-0.101468	-0.330383	-0.53186	0.471088	-0.580101	-0.617386	0.491563	-0.357707	-0.296256	0.255917	0.419899	0.68945	0.454679	0.445812	-0.53678	0.501986	0.462541
0.408691	0.173975	0.382618	-0.289596	-0.212391	-0.391727	0.539311	0.46773	-0.14418	0.469759	0.614707	-0.509191	0.253306	-0.643455	-0.279903	-0.306235	-0.19962	-0.43693	0.436574	-0.394806	-0.173668	0.525194	-0.351866	-0.51172	0.479867	0.312034	0.24911	0.253264	0.338175	-0.13468	0.262624	0.691046
0.435298	0.461605	0.395865	-0.396038	-0.226228	-0.66223	0.242007	0.574823	-0.348245	0.409079	0.38898	-0.326398	0.378114	-0.329845	-0.324998	-0.760411	-0.168827	-0.513504	0.375347	-0.272623	-0.190188	0.455901	-0.284409	-0.530572	0.387405	0.44119	0.382581	0.237825	0.492568	-0.39084	0.209741	0.213584
0.511345	0.00187098	0.545881	-0.0402928	-0.257797	-0.422052	0.401549	0.625223	-0.164986	0.543281	0.290439	-0.405989	0.385466	-0.484971	-0.612106	-0.472172	-0.220693	-0.15122	0.303998	-0.385666	-0.319243	0.50839	-0.426168	-0.508995	0.566506	0.532202	0.175819	0.336588	0.623023	-0.334193	0.0635661	0.555979
0.353802	0.428966	0.335325	-0.0364802	-0.15918	-0.178888	0.381998	0.552318	-0.146299	0.50419	0.0440471	-0.314091	0.310054	-0.279415	-0.546735	-0.51355	-0.1192	-0.218117	0.354041	-0.149048	-0.08394	0.570657	-0.316295	-0.508337	0.335712	0.474391	0.143484	0.312141	0.618236	-0.328301	0.109484	0.297775
0.102507	0.288459	0.267494	-0.439076	-0.527116	-0.400993	0.186128	0.465753	-0.300147	0.308401	0.0125565	-0.165684	0.456398	-0.226428	-0.372685	-0.51541	-0.55896	-0.133749	0.273193	-0.250255	-0.436697	0.131646	-0.370493	-0.293479	0.323954	0.315648	0.145718	0.451007	0.552836	-0.347161	0.451156	0.229942
0.18207	0.33705	0.402413	-0.363424	-0.365432	-0.423863	0.399051	0.421305	-0.499016	0.201078	0.412014	-0.377995	0.285839	-0.151587	-0.282322	-0.137844	-0.448585	-0.504908	0.494377	-0.390941	-0.557553	0.375638	-0.67613	-0.143279	0.0615387	0.0979939	0.525557	0.538773	0.207722	-0.379607	0.642405	0.661645
0.486952	0.580507	0.542533	-0.355034	-0.332651	-0.221845	0.446326	0.50549	-0.189823	0.439685	0.19323	-0.479144	0.498612	-0.18929	-0.618934	-0.487753	-0.273721	-0.202876	0.44906	-0.340013	-0.398616	0.544764	-0.506719	-0.535843	0.551871	0.571445	0.272714	0.255926	0.56885	-0.513086	0.376489	0.0287831
0.321237	0.481958	0.465199	-0.519831	-0.581053	-0.39857	0.524446	0.403995	-0.545648	0.342876	0.484641	-0.365456	0.451631	-0.326617	-0.269095	-0.322338	-0.563741	-0.378816	0.465855	-0.553955	-0.608134	0.328169	-0.314717	-0.364601	0.411073	0.328773	0.505815	0.432191	0.291957	-0.602417	0.559823	0.305312
0.267942	0.501612	0.387774	-0.570772	-0.477447	-0.579272	0.175021	0.66435	-0.672648	0.319925	0.414214	-0.140051	0.383551	-0.419909	-0.493087	-0.450746	-0.750678	-0.235448	0.443327	-0.248804	-0.657417	0.226461	-0.375341	-0.301599	0.282196	0.279217	0.471225	0.507095	0.458032	-0.363556	0.488587	0.181984
0.56334	0.243776	0.564168	-0.126217	-0.286677	-0.64157	0.333529	0.748988	-0.0221008	0.669762	0.346644	-0.543576	0.469392	-0.635593	-0.526913	-0.639037	-0.260854	-0.182776	0.0151786	-0.479129	-0.375257	0.401609	-0.501259	-0.534	0.680327	0.654131	0.255813	0.396443	0.452025	-0.221342	0.257271	0.443152
0.323248	0.606968	0.40925	-0.652945	-0.166486	-0.0178016	0.220226	0.244967	-0.786647	0.00866791	0.626308	-0.429375	-0.0342899	0.154546	-0.125584	-0.123665	-0.549653	-0.573375	0.497619	-0.0866174	-0.447441	0.358889	-0.681938	-0.0206973	-0.0185794	-0.0128658	0.655131	0.149527	0.0563544	-0.452505	0.675868	0.537213
0.281297	0.164757	0.213198	-0.335091	-0.263345	-0.160871	0.131087	0.0675852	-0.440881	0.227811	0.357233	-0.325966	0.18308	-0.171818	-0.304376	-0.164027	-0.287894	-0.4148	0.450588	-0.348276	-0.266137	0.289985	-0.239046	-0.0926596	0.124479	0.101335	0.429676	0.223025	0.134484	-0.294991	0.511233	0.461399
0.291964	0.399438	0.727527	-0.187211	-0.467604	-0.351885	0.492281	0.448715	-0.182934	0.408698	0.173032	-0.272256	0.6099	-0.291951	-0.34667	-0.487509	-0.161322	-0.280176	0.408253	-0.414204	-0.311997	0.287215	-0.252104	-0.520912	0.523072	0.303591	0.321564	0.286026	0.585686	-0.224015	0.124842	0.215626
0.515362	0.199119	0.302308	-0.113678	-0.224096	-0.34145	0.436773	0.533141	-0.14157	0.616579	0.420832	-0.416095	0.64086	-0.456547	-0.41104	-0.539494	-0.174358	-0.340271	0.157611	-0.538948	-0.301823	0.605493	-0.293246	-0.582471	0.573571	0.539091	0.254473	0.421461	0.412688	-0.359543	0.141452	0.371811
0.54714	0.192082	0.460744	-0.316471	-0.200034	-0.290714	0.479107	0.703442	0.109453	0.573848	0.272924	-0.521543	0.543731	-0.429266	-0.889416	-0.566291	-0.00769122	-0.0138116	0.314959	-0.313306	-0.124669	0.734894	0.157545	-0.787936	0.418256	0.63683	0.145648	0.590152	0.927442	-0.239407	0.0305076	0.418009
0.482846	0.174767	0.368921	-0.303972	-0.26411	-0.501898	0.493476	0.577266	-0.12182	0.434112	0.472096	-0.765484	0.569606	-0.853951	-0.400602	-0.63237	-0.299964	-0.474268	0.139598	-0.370989	-0.0122376	0.480983	-0.208917	-0.673061	0.557127	0.661886	0.393935	0.432646	0.412053	-0.0198793	0.0255958	0.423114
0.544505	0.205854	0.294203	-0.159785	-0.19032	-0.22951	0.458219	0.0897739	-0.346437	0.253689	0.508491	-0.635595	0.0814307	-0.52994	-0.425682	-0.216389	-0.318575	-0.509854	0.429405	-0.496154	-0.299852	0.208767	-0.229458	-0.395738	0.347598	0.279572	0.544111	0.244343	0.289558	-0.338181	0.320162	0.449725
0.622569	0.507649	0.559705	-0.180259	-0.243669	-0.296448	0.619146	0.524553	-0.0407426	0.552095	0.370492	-0.591756	0.605976	-0.557106	-0.507178	-0.687581	-0.1654	-0.339631	0.313641	-0.372187	-0.146696	0.742387	-0.297091	-0.55945	0.667013	0.552383	0.228073	0.23553	0.643306	-0.36068	0.18258	0.469219
0.541227	0.494515	0.459543	-0.0782501	-0.200244	-0.314749	0.709459	0.645005	-0.187804	0.530275	0.475363	-0.519435	0.631275	-0.565715	-0.460513	-0.605724	-0.141814	-0.362487	0.240476	-0.510801	-0.219902	0.654413	-0.211086	-0.577016	0.6042	0.632149	0.327664	0.33022	0.643595	-0.426864	0.228501	0.1482
0.407917	0.643829	0.490997	-0.272154	-0.331747	-0.491586	0.521783	0.525256	-0.494973	0.49337	0.424101	-0.44977	0.473389	-0.4019	-0.516087	-0.35182	-0.378844	-0.45518	0.451443	-0.358605	-0.399866	0.320511	-0.455395	-0.518248	0.353193	0.427696	0.290021	0.468937	0.457779	-0.380203	0.426483	0.198012
0.477488	0.518947	0.36885	-0.392845	-0.341472	-0.336897	0.42863	0.511439	-0.188479	0.380754	0.429825	-0.603087	0.453004	-0.360334	-0.498981	-0.58567	-0.379819	-0.407252	0.393002	-0.549424	-0.264472	0.392249	-0.421216	-0.495151	0.351702	0.508583	0.397206	0.319202	0.32108	-0.45113	0.351831	0.589586
0.429008	0.393113	0.48811	-0.318177	-0.23691	-0.274584	0.375266	0.562189	-0.167736	0.320474	0.423319	-0.591717	0.3034	-0.387674	-0.464645	-0.495612	-0.301542	-0.328134	0.391253	-0.471297	-0.256308	0.655364	-0.274752	-0.538445	0.351356	0.456941	0.393184	0.264811	0.616341	-0.559016	0.333763	0.462191
0.502344	0.365058	0.553249	-0.536524	-0.502424	-0.311057	0.498865	0.595169	-0.34917	0.740033	0.360655	-0.228944	0.443699	-0.542949	-0.502077	-0.494123	-0.549932	-0.375067	0.372249	-0.512759	-0.309046	0.262148	-0.383029	-0.354	0.450973	0.608848	0.273092	0.247504	0.625177	-0.388004	0.358258	0.289626
-0.037814	0.529492	0.257832	-0.259495	-0.263824	-0.486974	0.289885	0.329426	-0.356349	0.200727	0.191171	-0.137573	0.37582	-0.360147	-0.333086	-0.389501	-0.530419	-0.37136	0.256988	-0.0984819	-0.437627	0.149326	-0.307446	-0.107309	0.230904	0.301111	0.237903	0.59532	0.382794	-0.320819	0.381302	0.181147
0.472062	0.492957	0.377592	-0.186103	-0.293983	-0.139728	0.194802	0.315269	-0.0308704	0.584044	0.246263	-0.399301	0.555513	-0.361948	-0.293396	-0.619558	-0.320745	-0.299799	0.280111	-0.200377	-0.294472	0.516334	-0.14679	-0.562432	0.471284	0.34873	0.252222	0.359005	0.507717	-0.126985	0.121527	0.146669
0.375221	0.351981	0.414326	-0.544942	-0.532325	-0.337355	0.515083	0.346036	-0.698591	0.252593	0.55393	-0.627659	0.196621	-0.271535	-0.427218	-0.269766	-0.705475	-0.527477	0.491339	-0.537405	-0.568322	0.343826	-0.426957	-0.206906	0.183546	0.183271	0.603269	0.340035	0.486777	-0.584513	0.638914	0.569994
0.206178	0.348853	0.347006	-0.653709	-0.59224	-0.404363	0.295976	0.433665	-0.43143	0.273803	0.133695	-0.235407	0.378407	-0.261562	-0.334158	-0.419509	-0.531961	-0.187935	0.374982	-0.306103	-0.554368	0.377392	-0.390295	-0.360685	0.506118	0.324527	0.365661	0.488509	0.579012	-0.416698	0.479846	0.31921
0.298794	0.551475	0.465818	-0.309103	-0.243145	-0.492965	0.442303	0.483335	-0.363198	0.187833	0.188883	-0.146985	0.34401	-0.258858	-0.318231	-0.329476	-0.536066	-0.196512	0.345685	-0.404259	-0.455544	0.287487	-0.691865	-0.28716	0.333788	0.207808	0.243718	0.257034	0.420184	-0.515405	0.278365	0.148399
0.515278	0.1733	0.390676	-0.306934	-0.350487	-0.278377	0.455381	0.133865	-0.620062	0.173562	0.513315	-0.546504	0.200165	-0.253854	-0.182229	-0.0402485	-0.484341	-0.610247	0.332643	-0.418922	-0.506965	0.348528	-0.19566	-0.289844	0.283223	0.234673	0.616488	0.364875	0.25223	-0.509171	0.675921	0.321182
0.336725	0.188817	0.314426	-0.358592	-0.420006	-0.342331	0.324836	0.332515	-0.667801	0.11905	0.383296	-0.296809	0.188405	-0.0410284	-0.20104	-0.0897896	-0.528924	-0.486022	0.514864	-0.335255	-0.489452	0.279804	-0.440273	-0.124523	0.0702431	0.108093	0.449853	0.404989	0.0696845	-0.358962	0.658764	0.482839
0.188369	0.486041	0.572965	-0.417209	-0.438039	-0.357985	0.480869	0.497376	-0.202455	0.358414	0.194709	-0.169963	0.729365	-0.290209	-0.377286	-0.410226	-0.395111	-0.144074	0.167851	-0.416055	-0.351375	0.30336	-0.445284	-0.329377	0.559606	0.280489	0.20836	0.199627	0.551782	-0.326636	0.164694	0.158522
0.364713	0.709168	0.248389	-0.766763	-0.655722	-0.276403	0.0898536	0.31823	-0.716498	0.0713501	0.493688	-0.372884	0.14643	-0.200037	-0.217257	-0.0892703	-0.777565	-0.313298	0.663777	-0.233526	-0.714377	0.430917	-0.585528	-0.0199278	0.159871	0.104984	0.651828	0.343964	0.106269	-0.627494	0.671819	0.288809
0.439273	0.253863	0.510858	-0.207299	-0.404481	-0.287774	0.698537	0.214794	-0.388364	0.297916	0.38932	-0.536605	0.428636	-0.636115	-0.528316	-0.492824	-0.403538	-0.635361	0.273898	-0.587769	-0.470386	0.455229	-0.349453	-0.268995	0.395263	0.498383	0.510365	0.315239	0.54872	-0.414714	0.218743	0.353707
0.241824	0.21187	0.0683558	-0.387051	-0.210003	-0.6439	0.0554989	0.606238	-0.549398	0.190248	0.29759	-0.191382	0.337301	-0.374515	-0.411564	-0.577655	-0.512414	-0.201903	0.119773	-0.115951	-0.579266	0.0519906	-0.484949	-0.18458	0.145445	0.465108	0.183422	0.52915	0.525926	-0.354249	0.284444	0.237489
0.72378	0.483521	0.456468	-0.356309	-0.338823	-0.379509	0.522212	0.72536	-0.219312	0.5521	0.539765	-0.631113	0.43057	-0.268186	-0.610888	-0.233393	-0.235535	-0.480759	0.283226	-0.651202	-0.111208	0.69032	-0.327062	-0.530261	0.581065	0.725602	0.480059	0.3198	0.325586	-0.319003	0.32548	0.574168
