0.0294488	0.0283565	0.0226191	-0.0128541	-0.023728	0.0179295	-0.00697475	-0.047493	-0.00655388	-0.0303707	0.0268247	-0.0367785	0.0250337	0.021183	-0.0345923	-0.0107647	-0.010197	-0.00651209	0.0474224	-0.0167401	0.048333	-0.00864917	-0.0178962	0.0170144	-0.00935046	0.0134907	-0.0165643	-0.016703	-0.00516703	-0.0416858	0.0252176	-0.0119626
0.529773	0.445372	0.455197	-0.167246	-0.234641	-0.382058	0.403601	0.369348	-0.152234	0.432071	0.342805	-0.562931	0.411159	-0.37831	-0.378241	-0.5494	-0.284193	-0.368829	0.265363	-0.29199	-0.374393	0.576829	-0.276196	-0.496301	0.497157	0.210693	0.298206	0.391685	0.264773	-0.273694	0.338799	0.17358
0.34159	0.188153	0.407367	-0.502768	-0.487437	-0.236576	0.510153	0.257317	-0.464795	0.314259	0.441194	-0.461581	0.362236	-0.281532	-0.512258	-0.448442	-0.328938	-0.345457	0.608372	-0.360706	-0.373	0.401831	-0.257005	-0.419755	0.605512	0.466791	0.414295	0.315067	0.414564	-0.421374	0.284932	0.443863
0.34049	0.196868	0.402691	-0.3547	-0.504785	-0.193185	0.527877	0.223414	-0.389458	0.224628	0.301716	-0.417392	0.385672	-0.418331	-0.524455	-0.291546	-0.292548	-0.320122	0.481466	-0.208516	-0.406516	0.420454	-0.437009	-0.506088	0.533097	0.359908	0.344544	0.201541	0.403486	-0.534512	0.250221	0.506175
0.162127	0.172712	0.136325	-0.488631	-0.629652	-0.378124	0.640207	0.568934	-0.690422	0.133044	0.690977	-0.46302	0.356625	-0.378323	-0.662025	-0.304944	-0.0267423	-0.71667	0.584636	-0.163069	-0.374149	0.389631	0.016887	-0.24975	0.731735	0.39173	0.448282	0.384573	0.150409	-0.587522	0.199094	0.303007
0.154614	0.559345	0.260395	-0.39861	-0.390949	-0.413322	0.510497	0.383772	-0.281509	0.286602	0.593121	-0.601467	0.467911	-0.224645	-0.435276	-0.423007	-0.311574	-0.586848	0.526834	-0.247222	-0.314106	0.333052	-0.310715	-0.126238	0.47507	0.529687	0.580428	0.582705	0.178329	-0.486767	0.181189	0.02837
0.242303	0.656246	0.235635	-0.361399	-0.491196	-0.513262	0.352708	0.40162	-0.350227	0.390391	0.508222	-0.325766	0.481966	-0.398609	-0.26492	-0.301305	-0.234902	-0.438848	0.331693	-0.108045	-0.339824	0.364312	-0.234572	-0.221889	0.408122	0.358428	0.271076	0.559166	0.163155	-0.392861	0.265811	0.0257057
0.1481	0.452352	0.415988	-0.375738	-0.434391	-0.324678	0.423022	0.504284	-0.429747	0.352312	0.514021	-0.384914	0.150537	-0.25189	-0.561177	-0.33487	-0.351559	-0.457395	0.508022	-0.496487	-0.327982	0.183179	-0.373684	-0.2227	0.43995	0.649239	0.675855	0.476271	0.502248	-0.404296	0.289643	0.0733946
0.288155	0.495743	0.455969	-0.50421	-0.527492	-0.572341	0.375633	0.380723	-0.251589	0.407495	0.497075	-0.634686	0.511764	-0.605919	-0.503553	-0.415228	-0.269266	-0.620444	0.252644	-0.225255	-0.195838	0.529308	-0.146243	-0.277725	0.496465	0.270032	0.317493	0.41785	0.181663	-0.580402	0.205333	0.175868
0.299044	0.487895	0.313184	-0.465179	-0.406632	-0.589426	0.380936	0.608398	-0.241563	0.369634	0.641907	-0.574967	0.575317	-0.569605	-0.452969	-0.519527	-0.27982	-0.479314	0.43866	-0.11627	-0.324927	0.352075	-0.218169	-0.215288	0.421593	0.14546	0.431166	0.496777	0.128397	-0.356476	0.300045	0.235305
0.428907	0.433442	0.279599	-0.457009	-0.290305	-0.124247	0.377175	0.300752	-0.418468	0.255551	0.29939	-0.164161	0.227761	0.0583101	-0.491581	-0.246009	-0.615905	-0.300477	0.543242	-0.586305	-0.389032	0.339837	-0.074918	-0.62941	0.324025	0.665824	0.55656	0.210191	0.36811	-0.313487	0.243706	0.0167059
0.189909	0.654327	0.385735	-0.346126	-0.503337	-0.51908	0.572634	0.421515	-0.445124	0.315985	0.572663	-0.561807	0.3954	-0.112259	-0.575819	-0.401875	-0.144357	-0.649009	0.61829	-0.231349	-0.376609	0.49074	-0.107344	-0.363369	0.579257	0.519555	0.492305	0.407263	0.183469	-0.643397	0.178683	-0.13969
0.231841	0.434921	0.347414	-0.236998	-0.295997	-0.38837	0.583742	0.461133	-0.216833	0.364851	0.465144	-0.54937	0.319433	-0.208524	-0.53833	-0.374389	-0.274012	-0.519045	0.461187	-0.177942	-0.469697	0.459492	-0.084153	-0.334681	0.555214	0.485317	0.492609	0.434482	0.287866	-0.597199	0.1643	-0.199508
0.40691	0.232719	0.363112	-0.50015	-0.567483	-0.291052	0.434726	0.379277	-0.493912	0.292913	0.202438	-0.452794	0.625023	-0.49551	-0.19209	-0.451741	-0.562013	-0.188223	0.588236	-0.602717	-0.405032	0.471942	-0.387211	-0.469676	0.330599	0.441801	0.299722	0.0842407	0.363267	-0.315312	0.509066	0.444524
0.0526836	0.206023	0.361756	-0.325026	-0.373049	-0.563838	0.464142	0.394376	-0.417668	0.32731	0.417636	-0.40251	0.416914	-0.214118	-0.374906	-0.260889	-0.189135	-0.535702	0.466651	-0.429456	-0.468381	0.299673	-0.0771721	-0.103058	0.297334	0.584641	0.736299	0.479561	0.302893	-0.397858	0.259989	0.362058
0.431784	0.450976	0.413933	-0.253589	-0.416892	-0.324444	0.423519	0.427215	-0.336302	0.339816	0.406858	-0.442342	0.37435	-0.419168	-0.568305	-0.421197	-0.522737	-0.326998	0.571125	-0.46708	-0.373222	0.29383	-0.208452	-0.590289	0.475032	0.448404	0.360718	0.412658	0.381459	-0.374874	0.372401	0.191839
0.241748	0.367214	0.404475	-0.498396	-0.7483	-0.322001	0.648152	0.308089	-0.49141	0.14334	0.571128	-0.506536	0.276588	-0.116604	-0.697278	-0.382883	-0.152892	-0.533281	0.677978	-0.344265	-0.423879	0.322665	-0.0802226	-0.291347	0.631997	0.415121	0.622599	0.245734	0.222572	-0.57257	0.246156	0.283574
0.230775	0.295548	0.518548	-0.455913	-0.399656	-0.314588	0.370122	0.422601	-0.578978	0.237428	0.226913	-0.13103	0.113412	-0.276753	-0.425207	-0.219191	-0.641616	-0.281909	0.500405	-0.680428	-0.413602	0.29508	-0.360349	-0.474817	0.229082	0.548802	0.590501	0.575499	0.522924	-0.219136	0.483823	0.500061
0.202511	0.509722	0.306248	-0.419194	-0.530146	-0.450076	0.460734	0.602455	-0.435285	0.215501	0.478713	-0.374628	0.258244	-0.204864	-0.558807	-0.400748	-0.21152	-0.542212	0.552537	-0.304579	-0.418607	0.388297	-0.327757	-0.258664	0.47872	0.282417	0.558064	0.448871	0.303733	-0.412712	0.251834	0.12349
0.442458	0.215933	0.543587	-0.333252	-0.267597	-0.328989	0.298705	0.201151	-0.449937	0.354968	0.28505	-0.350005	0.208423	-0.292444	-0.328339	-0.414222	-0.562943	-0.204408	0.323105	-0.641988	-0.433767	0.371491	-0.637083	-0.624801	0.21067	0.470586	0.388432	0.289719	0.559482	-0.257031	0.527707	0.659333
0.169364	0.516429	0.352903	-0.398794	-0.570809	-0.425632	0.577901	0.544367	-0.535399	0.364548	0.584326	-0.335308	0.322117	-0.385566	-0.470172	-0.316689	-0.290373	-0.514796	0.366351	-0.205683	-0.352929	0.262199	-0.125607	-0.24071	0.460417	0.324395	0.550575	0.524076	0.234338	-0.546972	0.324624	0.0189631
0.509475	0.226979	0.45119	-0.350939	-0.280206	-0.196795	0.355878	0.439383	-0.317154	0.45611	0.420234	-0.312269	0.246281	-0.218152	-0.433178	-0.537732	-0.525053	-0.274712	0.477283	-0.591748	-0.478585	0.302991	-0.546767	-0.587232	0.301276	0.54767	0.560202	0.438001	0.567535	-0.258697	0.582639	0.487354
0.300586	0.399938	0.343064	-0.380588	-0.500711	-0.484076	0.386474	0.283263	-0.40963	0.347406	0.427343	-0.472932	0.359554	-0.319568	-0.521801	-0.350706	-0.355015	-0.388064	0.669169	-0.42772	-0.367021	0.279659	-0.267715	-0.365294	0.467721	0.497415	0.555376	0.268694	0.296321	-0.43836	0.215961	0.216914
0.346519	-0.0928938	0.411647	-0.233568	-0.155422	-0.334669	0.0901806	0.33466	-0.252844	0.51593	0.296359	-0.193443	0.375769	-0.29772	-0.257859	-0.150342	-0.282002	-0.169372	0.159105	-0.297726	-0.510354	0.266258	-0.262365	-0.339444	0.110764	0.348574	0.430026	0.625677	0.558628	-0.369713	0.412886	0.535142
0.644224	0.266818	0.358283	-0.294482	-0.31937	-0.132862	0.467098	0.515641	-0.363335	0.228351	0.307033	-0.516059	0.336743	-0.649799	-0.476896	-0.447551	-0.470929	-0.205482	0.425214	-0.392909	-0.266705	0.455202	-0.548893	-0.503092	0.669589	0.308541	0.15007	0.281197	0.536649	-0.313438	0.542473	0.404004
0.689469	0.182864	0.411564	-0.465931	-0.339967	-0.305096	0.314469	0.228488	-0.443717	0.570871	0.357418	-0.439353	0.521326	-0.478428	-0.316711	-0.33659	-0.723799	-0.213065	0.395593	-0.665832	-0.216398	0.263491	-0.584842	-0.499618	0.270302	0.534382	0.168827	0.300557	0.513294	-0.283064	0.533156	0.596889
0.519754	0.302994	0.539083	-0.441079	-0.501216	-0.16836	0.582449	0.356166	-0.174029	0.400051	0.23325	-0.59065	0.363214	-0.445051	-0.463193	-0.566362	-0.427279	-0.220004	0.218361	-0.342492	-0.29471	0.478729	-0.423882	-0.364901	0.63849	0.373199	0.398902	0.0730757	0.509807	-0.494266	0.157262	0.459662
0.407349	0.319253	0.114267	-0.367224	-0.191074	-0.365528	0.269314	0.26278	-0.41183	0.206796	0.327666	-0.417495	0.507689	-0.240237	-0.395786	-0.180962	-0.09226	-0.38252	0.515225	-0.0261827	-0.274869	0.33962	-0.26197	-0.318548	0.423265	0.435064	0.0879165	0.311147	0.197993	-0.445114	0.350029	0.0576825
0.430355	0.296547	0.451914	-0.418497	-0.357494	-0.41815	0.310228	0.645958	-0.448594	0.538255	0.502093	-0.346687	0.379978	-0.356347	-0.378732	-0.42938	-0.558133	-0.543402	0.366737	-0.440386	-0.394371	0.323876	-0.340154	-0.415889	0.340344	0.412312	0.517253	0.670138	0.386136	-0.409275	0.480651	0.41647
0.401397	0.437246	0.362395	-0.381119	-0.547483	-0.654283	0.484849	0.599311	-0.389124	0.409156	0.54121	-0.493407	0.542266	-0.329952	-0.470344	-0.441484	-0.181086	-0.536186	0.466321	-0.300249	-0.296726	0.430227	-0.226833	-0.306726	0.479885	0.317572	0.393315	0.558994	0.251531	-0.628191	0.388064	0.314567
0.26933	0.541975	0.356243	-0.311092	-0.32323	-0.490083	0.250349	0.496405	-0.16482	0.582927	0.618361	-0.478797	0.232304	-0.307369	-0.307725	-0.364648	-0.271462	-0.577437	0.223447	-0.314546	-0.56831	0.456937	-0.363585	-0.1251	0.241272	0.169551	0.490962	0.561489	0.481287	-0.222198	0.458283	0.2827
0.527228	0.406078	0.380514	-0.447893	-0.408519	-0.466929	0.26934	0.411406	-0.511062	0.370986	0.567941	-0.343297	0.535315	-0.387372	-0.329329	-0.370977	-0.3259	-0.46175	0.321112	-0.406746	-0.240097	0.445517	-0.391451	-0.488236	0.378547	0.47315	0.406127	0.537021	0.379788	-0.357872	0.604883	0.472463
0.35735	0.397957	0.466072	-0.340173	-0.408132	-0.42769	0.47442	0.317033	-0.347311	0.360519	0.4019	-0.560326	0.290865	-0.332428	-0.47062	-0.516861	-0.4206	-0.442901	0.564733	-0.377482	-0.313045	0.43315	-0.218534	-0.330312	0.548706	0.512943	0.450979	0.344436	0.4068	-0.36953	0.30157	0.550943
0.280202	0.561403	0.285817	-0.36855	-0.57838	-0.488175	0.416165	0.266198	-0.655917	0.3565	0.724419	-0.316659	0.308229	-0.27495	-0.44271	-0.288374	-0.377399	-0.425068	0.408062	-0.366338	-0.468544	0.400201	-0.338967	-0.363249	0.426187	0.410005	0.574648	0.441208	0.290666	-0.563915	0.339593	0.293937
0.393613	0.455207	0.470887	-0.448933	-0.252728	-0.290623	0.24068	0.44623	-0.41423	0.372489	0.329063	-0.319973	0.437126	-0.462643	-0.108827	-0.34395	-0.446385	-0.371406	0.156399	-0.41896	-0.35068	0.444694	-0.293511	-0.462368	0.233765	0.416483	0.329794	0.392957	0.369826	-0.106076	0.55843	0.580637
0.579589	0.360312	0.253738	-0.614645	-0.164753	-0.214395	0.40889	0.106994	-0.613428	0.413181	0.485561	-0.234303	0.334474	-0.211112	-0.169427	-0.153455	-0.550333	-0.225833	0.210648	-0.589714	-0.260288	0.289142	-0.614887	-0.402584	0.293064	0.502193	0.283911	0.160503	0.518734	-0.291268	0.58985	0.212581
0.511629	0.140782	0.446972	-0.316944	-0.421706	-0.364167	0.352594	0.340638	-0.218806	0.451471	0.394845	-0.380427	0.268898	-0.569259	-0.426316	-0.303766	-0.478256	-0.368868	0.34411	-0.520957	-0.367353	0.42522	-0.452565	-0.565015	0.482081	0.377097	0.33671	0.264788	0.507556	-0.404348	0.450449	0.603498
0.335699	0.384583	0.380942	-0.282402	-0.569782	-0.0963494	0.612874	0.458517	-0.230589	0.180802	0.314467	-0.550561	0.171458	-0.192843	-0.604311	-0.45626	-0.347583	-0.422961	0.657909	-0.210411	-0.524309	0.361153	-0.331949	-0.340804	0.702686	0.315815	0.467076	0.111167	0.402221	-0.475471	0.200948	0.0595909
0.430706	0.284507	0.341008	-0.294567	-0.369313	-0.288623	0.228033	0.408335	-0.44428	0.171155	0.271948	-0.218629	0.276626	-0.418803	-0.530776	-0.199145	-0.519106	-0.10605	0.318185	-0.448313	-0.262529	0.33546	-0.260878	-0.31993	0.247051	0.452593	0.355801	0.585972	0.608813	-0.190918	0.591735	0.629385
0.315862	0.298877	0.469907	-0.373548	-0.431077	-0.396821	0.490774	0.413176	-0.38952	0.223024	0.482323	-0.347002	0.282011	-0.273947	-0.405622	-0.352513	-0.287075	-0.528084	0.562191	-0.456212	-0.404559	0.254912	-0.181764	-0.270679	0.504375	0.516392	0.630368	0.330437	0.241206	-0.384277	0.225235	0.0798959
0.148563	-0.0510489	0.316746	-0.408734	-0.402043	-0.159927	0.457935	0.235523	-0.34746	0.665685	0.37819	-0.341864	0.334851	-0.176115	-0.249885	-0.0752703	-0.405053	-0.197368	0.288893	-0.398543	-0.334764	0.557666	-0.483555	-0.155677	0.456974	0.349134	0.445427	0.445271	0.40044	-0.601574	0.318758	0.578074
0.207378	0.651455	0.482637	-0.321744	-0.559998	-0.61802	0.424832	0.435108	-0.33781	0.532218	0.588891	-0.441047	0.386316	-0.403783	-0.534368	-0.441201	-0.311783	-0.569232	0.472033	-0.250694	-0.49012	0.57388	-0.219802	-0.281462	0.52803	0.334025	0.522429	0.623941	0.316061	-0.535118	0.278604	0.365912
0.169413	0.5905	0.263264	-0.422062	-0.314207	-0.584486	0.323626	0.481407	-0.245729	0.556382	0.511246	-0.503312	0.578444	-0.384548	-0.317778	-0.307585	-0.268067	-0.537489	0.304797	-0.292718	-0.21775	0.428136	-0.274295	-0.131233	0.228072	0.301152	0.337584	0.630202	0.355884	-0.397032	0.160592	0.125945
0.43913	0.597713	0.314118	-0.608597	-0.512082	-0.48471	0.445113	0.210004	-0.435152	0.294389	0.566412	-0.334538	0.209687	-0.19737	-0.499562	-0.353467	-0.254609	-0.368816	0.430128	-0.500211	-0.132152	0.335691	-0.311361	-0.513786	0.471814	0.371382	0.421599	0.429495	0.411717	-0.254773	0.306975	0.349181
0.469635	0.466467	0.367995	-0.296284	-0.23665	-0.452981	0.273455	0.337478	-0.297346	0.640998	0.545575	-0.516277	0.308688	-0.317272	-0.373336	-0.458677	-0.358387	-0.291063	0.321821	-0.527546	-0.347987	0.293922	-0.544617	-0.440689	0.245197	0.465612	0.40897	0.49416	0.466976	-0.247827	0.455619	0.269992
0.368244	0.586049	0.247398	-0.519989	-0.492284	-0.636322	0.485536	0.333711	-0.506332	0.428528	0.505699	-0.398656	0.539826	-0.462049	-0.50849	-0.392523	-0.219513	-0.569612	0.384204	-0.231757	-0.320544	0.47069	-0.1534	-0.272165	0.51156	0.329144	0.396497	0.528208	0.332851	-0.56849	0.429816	0.309885
0.43377	0.1034	0.362344	-0.290121	-0.349976	-0.323022	0.161342	0.360659	-0.281979	0.317389	0.217893	-0.247339	0.489018	-0.47909	-0.157712	-0.336636	-0.530095	-0.198753	0.295226	-0.546963	-0.413773	0.304031	-0.511674	-0.505474	0.170884	0.305513	0.298494	0.452075	0.42644	-0.199059	0.563923	0.551587
0.535099	0.530576	0.388533	-0.181017	-0.337193	-0.254441	0.68007	0.574445	-0.367827	0.269698	0.279928	-0.336249	0.598221	-0.454805	-0.58531	-0.549513	-0.362002	-0.26505	0.466888	-0.38295	-0.471021	0.420355	-0.293687	-0.349656	0.517117	0.300928	0.303867	0.458877	0.400599	-0.277961	0.519706	0.554533
0.431144	0.225344	0.498133	-0.37412	-0.332676	-0.479173	0.315825	0.332185	-0.300567	0.418383	0.328704	-0.436869	0.468009	-0.44994	-0.343343	-0.35249	-0.460574	-0.407529	0.337151	-0.343695	-0.321484	0.454871	-0.32298	-0.291843	0.424032	0.362196	0.290199	0.412891	0.36247	-0.426006	0.370865	0.61236
0.571767	0.239049	0.324449	-0.279065	-0.286859	-0.219705	0.292776	0.363568	-0.464402	0.275008	0.227114	-0.236946	0.305651	-0.298895	-0.33907	-0.253036	-0.670833	-0.102554	0.433182	-0.552976	-0.471083	0.292449	-0.523821	-0.582816	0.250966	0.491271	0.341192	0.26372	0.493071	-0.148884	0.539706	0.567263
0.366757	0.332109	0.388312	-0.461096	-0.380276	-0.420906	0.509292	0.579682	-0.402035	0.381203	0.437279	-0.549857	0.339077	-0.376231	-0.445204	-0.506096	-0.426577	-0.516252	0.567291	-0.339363	-0.466222	0.384848	-0.220577	-0.301339	0.384552	0.468571	0.448334	0.404017	0.438993	-0.422665	0.367254	0.174065
0.533179	0.460357	0.335048	-0.66814	-0.441259	-0.300608	0.513089	0.181279	-0.623407	0.42657	0.529787	-0.178365	0.375487	-0.33839	-0.37228	-0.242759	-0.546259	-0.30996	0.441246	-0.515727	-0.367823	0.227768	-0.664397	-0.414878	0.30737	0.637906	0.474753	0.424262	0.523282	-0.280239	0.492491	0.357219
0.39141	0.322599	0.582457	-0.262752	-0.30235	-0.437079	0.306333	0.525137	-0.152144	0.490989	0.34304	-0.524323	0.282188	-0.521591	-0.321878	-0.458519	-0.40684	-0.458879	0.189882	-0.457668	-0.525818	0.598793	-0.452654	-0.421148	0.253206	0.238533	0.335018	0.440101	0.328355	-0.465271	0.279471	0.548577
0.535013	0.153604	0.229561	-0.38492	-0.577396	-0.197087	0.485918	0.470062	-0.472969	0.20264	0.361467	-0.381665	0.537968	-0.654916	-0.291819	-0.410229	-0.511786	-0.368972	0.522971	-0.244342	-0.379637	0.28847	-0.313604	-0.424568	0.696206	0.404583	0.209455	0.279195	0.374901	-0.487761	0.516256	0.331114
0.556075	0.251229	0.342825	-0.42911	-0.513501	-0.29499	0.127685	0.349796	-0.246731	0.507081	0.373165	-0.482261	0.728181	-0.511057	-0.21168	-0.397407	-0.261605	-0.393664	0.389265	-0.275018	-0.350559	0.61145	-0.168477	-0.295114	0.330926	0.208783	0.314444	0.491315	0.309596	-0.420803	0.553767	0.50018
0.552757	0.103971	0.103701	-0.315973	-0.106897	-0.0614285	0.376868	0.38453	-0.327698	0.297282	0.49589	-0.297956	0.433759	-0.0244244	-0.478546	-0.36072	-0.338656	-0.149531	0.28287	-0.160521	-0.441157	0.233694	-0.131823	-0.34515	0.374548	0.454431	0.336903	0.222277	0.142563	-0.55638	0.39151	-0.171835
0.542638	0.394189	0.413915	-0.303805	-0.46066	-0.280263	0.247478	0.289343	-0.475413	0.409579	0.248356	-0.394403	0.622454	-0.516246	-0.256129	-0.423514	-0.481837	-0.228713	0.440262	-0.434435	-0.357686	0.52764	-0.503961	-0.566268	0.485531	0.410717	0.268137	0.298549	0.366374	-0.217989	0.553106	0.571199
0.533672	0.44273	0.236883	-0.243318	-0.446529	-0.293103	0.605451	0.627658	-0.507386	0.239503	0.479737	-0.501254	0.463551	-0.267401	-0.543462	-0.396614	-0.535618	-0.364339	0.536807	-0.199981	-0.435814	0.478143	-0.270843	-0.28126	0.482052	0.50853	0.433628	0.466861	0.259982	-0.634799	0.550061	0.384374
0.590333	0.36955	0.392335	-0.554399	-0.304658	-0.277696	0.431335	0.251179	-0.492778	0.344386	0.497497	-0.247728	0.231678	-0.291801	-0.344549	-0.467846	-0.573392	-0.295298	0.363876	-0.500894	-0.404441	0.421494	-0.565341	-0.509449	0.371461	0.587062	0.497289	0.226804	0.528968	-0.101596	0.49889	0.429362
0.443506	0.380443	0.300026	-0.390028	-0.419901	-0.32402	0.309133	0.316074	-0.615635	0.239961	0.263463	-0.310751	0.518991	-0.548764	-0.394183	-0.286835	-0.47656	-0.330016	0.394321	-0.427551	-0.171662	0.339865	-0.426603	-0.456703	0.413819	0.46273	0.233698	0.381891	0.369903	-0.252822	0.483017	0.479981
0.49691	0.455311	0.447323	-0.472536	-0.197807	-0.45168	0.403055	0.364787	-0.298707	0.464721	0.494479	-0.567115	0.321732	-0.380689	-0.449947	-0.412254	-0.376628	-0.386629	0.318852	-0.327038	-0.321932	0.407308	-0.439897	-0.423588	0.289576	0.389058	0.308091	0.449962	0.587702	-0.271527	0.410567	0.420168
0.368089	0.303358	0.4407	-0.554293	-0.568819	-0.500049	0.510125	0.504384	-0.397821	0.428128	0.626358	-0.544178	0.322818	-0.378343	-0.57107	-0.55199	-0.356194	-0.527632	0.513257	-0.370098	-0.522802	0.316781	-0.135719	-0.363336	0.504344	0.467122	0.557136	0.317456	0.23319	-0.560246	0.338083	0.266918
0.144903	0.246726	0.401118	-0.315699	-0.52224	-0.301267	0.52287	0.344385	-0.589098	0.18217	0.381793	-0.241723	0.253759	-0.318696	-0.399959	-0.205796	-0.358992	-0.39886	0.437163	-0.207697	-0.252389	0.365548	-0.330601	-0.48974	0.570525	0.328733	0.333598	0.289657	0.347359	-0.427273	0.285979	0.3162
0.253641	0.200764	0.273822	-0.288167	-0.419148	-0.335094	0.588867	0.44106	-0.414557	0.148033	0.550001	-0.429803	0.350941	-0.266397	-0.551715	-0.371587	-0.173153	-0.440432	0.568919	-0.262061	-0.33395	0.31473	-0.211442	-0.291564	0.539056	0.440719	0.569664	0.165852	0.190627	-0.440956	0.22515	0.157217
0.321494	0.527116	0.362929	-0.442242	-0.389486	-0.470246	0.370718	0.445179	-0.311013	0.473275	0.620174	-0.549377	0.336448	-0.470757	-0.548431	-0.556268	-0.389227	-0.547037	0.429989	-0.414689	-0.446674	0.417631	-0.385496	-0.4372	0.33382	0.38929	0.542849	0.509051	0.533395	-0.387053	0.500563	0.42958
0.553912	0.199355	0.352444	-0.400316	-0.400387	-0.378237	0.436581	0.424148	-0.370577	0.417119	0.357125	-0.526657	0.450971	-0.596125	-0.421565	-0.522001	-0.592951	-0.42228	0.425613	-0.487767	-0.326927	0.409478	-0.475579	-0.551437	0.575999	0.516987	0.262074	0.353317	0.405564	-0.415672	0.431085	0.621241
0.409652	0.318297	0.222464	-0.478601	-0.601453	-0.178113	0.537913	0.638372	-0.475228	0.340413	0.577624	-0.519423	0.462738	-0.382654	-0.494746	-0.558899	-0.412478	-0.555879	0.688083	-0.339067	-0.373735	0.288475	-0.149497	-0.375486	0.522026	0.387427	0.494486	0.3653	0.248525	-0.530482	0.349911	0.363193
0.412618	0.397427	0.385331	-0.412698	-0.300539	-0.382876	0.15492	0.224137	-0.410512	0.418117	0.478407	-0.249817	0.271794	-0.170984	-0.327758	-0.235552	-0.450944	-0.22197	0.153869	-0.471335	-0.139901	0.321354	-0.461987	-0.512958	0.306721	0.46336	0.36358	0.529446	0.551134	-0.177614	0.55444	0.522569
0.366245	0.478323	0.386383	-0.44765	-0.576881	-0.41556	0.328873	0.286665	-0.586717	0.312267	0.50395	-0.391739	0.392511	-0.276952	-0.535608	-0.322733	-0.388052	-0.419475	0.418214	-0.377114	-0.392539	0.269502	-0.310296	-0.547018	0.555094	0.409453	0.362052	0.233468	0.281296	-0.414295	0.28985	0.42412
0.473254	0.372101	0.264171	-0.386935	-0.366139	-0.41371	0.220208	0.473877	-0.397391	0.460922	0.438491	-0.329555	0.472461	-0.411983	-0.244594	-0.309219	-0.462146	-0.395489	0.248428	-0.384314	-0.278965	0.391697	-0.463692	-0.492784	0.142404	0.274894	0.291524	0.385646	0.292835	-0.202135	0.588436	0.282996
0.41807	0.156219	0.32994	-0.393342	-0.331808	-0.301423	0.347946	0.460755	-0.390745	0.334759	0.438428	-0.384152	0.230535	-0.496404	-0.373517	-0.231967	-0.52138	-0.343808	0.296489	-0.517346	-0.297601	0.348454	-0.336305	-0.409307	0.179565	0.401873	0.38938	0.518268	0.56178	-0.297719	0.503114	0.606409
0.400096	0.269909	0.412262	-0.323349	-0.398529	-0.308781	0.622429	0.505885	-0.431335	0.481256	0.480934	-0.450466	0.241988	-0.311734	-0.352288	-0.578324	-0.280315	-0.350644	0.499283	-0.486828	-0.362918	0.283849	-0.491995	-0.163703	0.497834	0.401365	0.568712	0.482461	0.40322	-0.490379	0.196283	0.37451
0.619919	0.47767	0.35841	-0.321408	-0.14871	-0.25334	0.319347	0.297602	-0.453348	0.361326	0.448664	-0.269153	0.229064	-0.251639	-0.316946	-0.270318	-0.596381	-0.268369	0.250763	-0.522926	-0.370143	0.404533	-0.761957	-0.545943	0.320329	0.491097	0.346456	0.440903	0.573593	-0.333287	0.483014	0.551313
0.594776	0.00923355	0.485965	-0.282043	-0.420153	-0.0910093	0.321858	0.446353	-0.325122	0.619044	0.244954	-0.64763	0.360255	-0.422356	-0.439295	-0.403361	-0.228479	-0.33333	0.478859	-0.328833	-0.53525	0.625357	-0.504678	-0.385838	0.546101	0.394552	0.487133	0.359156	0.45889	-0.482176	0.142454	0.44816
0.449264	0.447716	0.416923	-0.389056	-0.167724	-0.353504	0.48199	0.473581	-0.486508	0.41391	0.545413	-0.355069	0.262471	-0.267654	-0.353091	-0.516917	-0.392854	-0.353304	0.439952	-0.53006	-0.201398	0.418338	-0.361263	-0.397782	0.470695	0.553228	0.377185	0.342432	0.439719	-0.369048	0.386082	0.323948
0.360619	0.283687	0.527636	-0.421463	-0.601182	-0.529613	0.472107	0.468049	-0.387406	0.478023	0.502977	-0.388908	0.379254	-0.341382	-0.598482	-0.417242	-0.266729	-0.576455	0.556084	-0.306825	-0.305536	0.496873	-0.321133	-0.352354	0.599703	0.425961	0.614992	0.574825	0.336787	-0.612919	0.278766	0.499046
0.606088	0.343074	0.384162	-0.198589	-0.49742	-0.200288	0.47912	0.37663	-0.488037	0.15407	0.234804	-0.310176	0.598791	-0.447942	-0.385332	-0.274473	-0.559843	-0.243605	0.43547	-0.435022	-0.355184	0.288064	-0.13962	-0.568945	0.489077	0.423976	0.254268	0.176916	0.4049	-0.348932	0.579064	0.396703
0.317596	0.414998	0.372522	-0.0183607	-0.275591	-0.269091	0.426744	0.511182	-0.452893	0.314702	0.310848	-0.377561	0.242612	-0.239126	-0.238682	-0.358642	-0.436005	-0.446673	0.17706	-0.342296	-0.199582	0.234159	-0.248616	-0.283301	0.13601	0.469527	0.177335	0.492125	0.42212	-0.254514	0.383342	0.231253
0.284673	0.611109	0.360897	-0.328171	-0.415214	-0.484343	0.567642	0.557415	-0.320081	0.217338	0.552585	-0.519631	0.296761	-0.210695	-0.640435	-0.419759	-0.255252	-0.590259	0.549049	-0.20058	-0.436168	0.372826	-0.27284	-0.28627	0.379022	0.363716	0.549366	0.613451	0.295208	-0.605368	0.204388	0.285853
0.35924	0.591879	0.348926	-0.393979	-0.510331	-0.422763	0.450902	0.490059	-0.191678	0.519671	0.555339	-0.494192	0.185449	-0.382008	-0.549046	-0.464499	-0.303233	-0.588976	0.472248	-0.314577	-0.490362	0.335583	-0.265449	-0.239341	0.434097	0.356019	0.627446	0.529263	0.411729	-0.521208	0.245512	0.139678
0.539729	0.147431	0.425298	-0.352071	-0.413527	-0.295899	0.47642	0.353351	-0.394297	0.436422	0.31437	-0.494755	0.362392	-0.407912	-0.504987	-0.530364	-0.495067	-0.298258	0.436371	-0.4507	-0.348555	0.457559	-0.47665	-0.3141	0.51633	0.36698	0.354781	0.252041	0.503468	-0.361192	0.360941	0.443358
0.339415	0.475791	0.422464	-0.329115	-0.339359	-0.596415	0.422106	0.53984	-0.441621	0.450717	0.489795	-0.40934	0.394763	-0.41337	-0.447352	-0.372041	-0.397914	-0.588861	0.280562	-0.284165	-0.506192	0.611903	-0.380143	-0.276421	0.353623	0.383661	0.451874	0.556611	0.469055	-0.407818	0.397564	0.351566
0.431382	0.212279	0.319033	-0.468889	-0.487826	-0.293206	0.439797	0.578063	-0.454692	0.27343	0.442038	-0.405822	0.421144	-0.286158	-0.513016	-0.386402	-0.440299	-0.595169	0.542018	-0.31741	-0.38106	0.360394	-0.289781	-0.483891	0.517286	0.538086	0.489935	0.390734	0.317057	-0.528486	0.445235	0.353075
0.278616	-0.115663	0.238665	-0.292149	-0.297092	-0.345686	0.308129	0.203273	-0.367462	0.524551	0.305291	-0.358441	0.337323	-0.18588	-0.153109	-0.10984	-0.177234	-0.149796	0.330879	-0.412066	-0.226111	0.414394	-0.269765	-0.249788	0.315712	0.350875	0.176802	0.372737	0.35822	-0.55756	0.305601	0.392129
0.509939	-0.0987919	0.385015	-0.309809	-0.35782	-0.0943464	0.21953	0.243294	-0.553403	0.588843	0.308754	-0.14569	0.332927	-0.264656	-0.221495	-0.324823	-0.545456	-0.184814	0.296011	-0.613601	-0.375678	0.127861	-0.818398	-0.63149	0.214055	0.575409	0.511741	0.491736	0.693765	-0.184767	0.581996	0.688908
0.271142	0.466684	0.338661	-0.33094	-0.483544	-0.453911	0.356876	0.53017	-0.311734	0.568273	0.400081	-0.584669	0.342076	-0.54718	-0.600087	-0.584104	-0.406994	-0.589364	0.493079	-0.342423	-0.552046	0.520742	-0.209852	-0.158538	0.315932	0.299068	0.533652	0.54793	0.488013	-0.596797	0.313	0.47733
0.473611	0.249138	0.360982	-0.428874	-0.226639	-0.480327	0.209253	0.198037	-0.459002	0.368643	0.129954	-0.213534	0.481192	-0.579298	-0.154217	-0.263395	-0.573211	-0.160739	0.241757	-0.38454	-0.22213	0.412973	-0.655858	-0.540884	0.153228	0.433898	0.198991	0.261787	0.488984	-0.158448	0.601616	0.695943
0.463401	0.346471	0.348956	-0.191707	-0.229031	-0.184946	0.365002	0.503474	-0.27517	0.385038	0.187408	-0.415749	0.301815	-0.373084	-0.370892	-0.477681	-0.437145	-0.166747	0.202476	-0.4017	-0.323275	0.538732	-0.550997	-0.392961	0.392414	0.319064	0.242657	0.262297	0.348259	-0.468563	0.400391	0.356915
0.615691	0.197226	0.412617	-0.339337	-0.50764	-0.309463	0.2226	0.384867	-0.459584	0.32483	0.290113	-0.233906	0.65891	-0.582935	-0.194007	-0.309766	-0.475847	-0.199717	0.513062	-0.531388	-0.253059	0.492713	-0.446947	-0.57365	0.356157	0.28744	0.244068	0.240686	0.358958	-0.219109	0.530639	0.710409
0.368872	0.441003	0.415171	-0.257581	-0.584287	-0.414998	0.387505	0.592717	-0.322032	0.398391	0.411739	-0.522192	0.34798	-0.29674	-0.353658	-0.568949	-0.216891	-0.430761	0.331362	-0.182703	-0.480632	0.39198	-0.407884	-0.209416	0.287485	0.256873	0.377885	0.511383	0.293193	-0.431536	0.388176	0.0840052
0.439412	0.363064	0.237438	-0.330582	-0.422123	-0.413208	0.47479	0.477354	-0.595456	0.321244	0.455732	-0.473028	0.444719	-0.441776	-0.560959	-0.365838	-0.526295	-0.396507	0.673026	-0.396154	-0.366635	0.386208	-0.302722	-0.506599	0.404895	0.486993	0.381028	0.364739	0.47572	-0.502028	0.476691	0.355391
0.496884	0.238324	0.465953	-0.158369	-0.351322	-0.263166	0.314713	0.378862	-0.338892	0.41732	0.276668	-0.508607	0.382031	-0.387659	-0.302031	-0.500522	-0.451092	-0.364868	0.316044	-0.514463	-0.623086	0.565952	-0.522554	-0.374681	0.419882	0.401302	0.319523	0.275201	0.347932	-0.473656	0.341761	0.600958
0.105313	0.79623	0.477132	-0.211356	-0.305042	-0.466205	0.160751	0.202186	-0.27974	0.477954	0.329073	-0.488832	0.275669	-0.410257	-0.340681	-0.339177	-0.463765	-0.178496	0.293493	-0.516697	-0.237004	0.410388	-0.548893	-0.232553	0.339574	0.2412	0.382246	0.431627	0.591697	-0.163364	0.246522	0.491003
0.553416	0.352576	0.484847	-0.310919	-0.246568	-0.374893	0.233389	0.487871	-0.226345	0.634892	0.285562	-0.578032	0.570296	-0.499099	-0.23914	-0.402259	-0.391437	-0.31152	0.342397	-0.366706	-0.472731	0.585202	-0.626795	-0.386545	0.309585	0.237043	0.260019	0.426372	0.600378	-0.35639	0.400103	0.500982
0.369432	0.0945924	0.288777	-0.268758	-0.0733484	-0.274106	0.435316	0.273343	-0.279132	0.289531	0.32666	-0.187327	0.379042	-0.307441	-0.279945	-0.356487	-0.332126	-0.193874	0.20183	-0.212102	-0.297302	0.358852	-0.359009	-0.191651	0.34947	0.251837	0.280968	0.236385	0.259359	-0.319374	0.309995	0.349742
0.3317	0.488597	0.439204	-0.578523	-0.499647	-0.48925	0.258405	0.329622	-0.366562	0.574459	0.57083	-0.601386	0.34066	-0.52661	-0.408738	-0.436816	-0.541686	-0.510163	0.442958	-0.589136	-0.468535	0.290456	-0.701886	-0.406829	0.254799	0.396208	0.529409	0.562662	0.495463	-0.39961	0.405631	0.486352
0.396886	0.166566	0.305043	-0.280353	-0.361584	-0.223804	0.550958	0.507464	-0.45787	0.241134	0.416464	-0.322143	0.339638	-0.424486	-0.456076	-0.467852	-0.385214	-0.331987	0.493171	-0.276284	-0.196624	0.314904	-0.242109	-0.418023	0.592576	0.615022	0.279275	0.169636	0.368969	-0.469466	0.35283	0.468317
0.560339	0.0759158	0.325389	-0.46406	-0.317486	-0.228483	0.223472	0.247646	-0.363928	0.473145	0.251272	-0.502408	0.624461	-0.458885	-0.272115	-0.342999	-0.419067	-0.257328	0.458166	-0.4393	-0.367587	0.44285	-0.588087	-0.53618	0.341504	0.306185	0.124591	0.34898	0.527394	-0.399986	0.576522	0.639095
0.428602	0.264338	0.541782	-0.411297	-0.502061	-0.443618	0.59571	0.374793	-0.371238	0.517552	0.5798	-0.620897	0.397284	-0.244405	-0.500427	-0.628541	-0.356482	-0.49631	0.561688	-0.475346	-0.345217	0.452297	-0.383028	-0.229599	0.567698	0.476933	0.644925	0.312782	0.365502	-0.487163	0.251754	0.259576
0.361573	0.378773	0.51215	-0.365194	-0.435768	-0.485363	0.365283	0.290303	-0.356283	0.524662	0.48774	-0.475332	0.290307	-0.344953	-0.451975	-0.472765	-0.436828	-0.395342	0.331428	-0.516798	-0.424913	0.312757	-0.478095	-0.340918	0.485615	0.378041	0.394478	0.43506	0.470118	-0.306751	0.38747	0.596609
0.392856	0.604369	0.372039	-0.34366	-0.621568	-0.437829	0.462093	0.546008	-0.428619	0.397789	0.409551	-0.521426	0.414876	-0.3745	-0.458343	-0.394339	-0.364125	-0.566334	0.464209	-0.352712	-0.591012	0.635417	-0.444096	-0.24608	0.36655	0.349581	0.448392	0.61139	0.381891	-0.640166	0.454549	0.479694
0.418905	0.326727	0.555833	-0.0707977	-0.362243	-0.462223	0.399054	0.534088	-0.226624	0.6549	0.236433	-0.719238	0.421742	-0.651549	-0.370895	-0.56193	-0.457056	-0.517006	0.180482	-0.24363	-0.505207	0.494238	-0.49777	-0.180265	0.291675	0.20686	0.336817	0.577775	0.559521	-0.383679	0.329291	0.605622
0.303539	0.482775	0.336306	-0.510197	-0.59192	-0.290109	0.696786	0.405095	-0.434314	0.346374	0.520828	-0.588094	0.317807	-0.221301	-0.595072	-0.495867	-0.34462	-0.559763	0.632362	-0.28666	-0.408184	0.28763	-0.131536	-0.314336	0.564033	0.463791	0.647149	0.3396	0.404418	-0.738526	0.290816	0.0600078
0.54629	0.412764	0.451996	-0.587364	-0.342345	-0.366074	0.30451	0.164775	-0.480394	0.471198	0.317045	-0.24115	0.538692	-0.42741	-0.333049	-0.313407	-0.642335	-0.32626	0.265601	-0.554985	-0.287997	0.300602	-0.566969	-0.691155	0.273983	0.46841	0.325354	0.332126	0.513434	-0.245046	0.653046	0.706785
0.495476	0.366219	0.319002	-0.524539	-0.344168	-0.288402	0.502671	0.476119	-0.626723	0.407944	0.540293	-0.278125	0.350181	-0.424961	-0.486372	-0.289314	-0.504604	-0.458453	0.502912	-0.499811	-0.379016	0.383191	-0.454008	-0.423417	0.401754	0.561825	0.481654	0.374299	0.45879	-0.477328	0.451187	0.427767
0.192528	0.225968	0.368634	-0.211533	-0.382547	-0.511001	0.429633	0.391031	-0.230475	0.601725	0.454861	-0.449945	0.183532	-0.508476	-0.538743	-0.377875	-0.467236	-0.338829	0.515395	-0.316531	-0.415335	0.427401	-0.551064	-0.245025	0.27824	0.591217	0.595758	0.55731	0.46236	-0.545237	0.324676	0.236574
0.241844	0.509121	0.277498	-0.330373	-0.652769	-0.286697	0.628263	0.603733	-0.391824	0.435223	0.468001	-0.534938	0.444123	-0.352469	-0.461801	-0.641264	-0.394081	-0.553555	0.641322	-0.227359	-0.516192	0.451251	-0.369365	-0.300497	0.557472	0.371962	0.593882	0.366207	0.330783	-0.639389	0.259105	0.242531
0.114686	0.182837	0.278968	-0.165105	-0.551801	-0.66995	0.456382	0.0774604	-0.315364	0.813425	0.505875	-0.369152	0.103815	-0.472346	-0.520466	-0.310637	-0.483046	-0.235994	0.550953	-0.383649	-0.340094	0.437438	-0.715181	-0.574849	0.333804	0.707079	0.581083	0.392351	0.550591	-0.392766	0.39795	0.442355
0.345928	0.381289	0.278995	-0.459682	0.024562	-0.188192	0.349853	0.249794	-0.336454	0.19807	0.232878	-0.425645	0.293073	-0.293557	-0.204346	-0.166154	-0.433686	-0.311966	0.327245	-0.334926	-0.213876	0.297856	-0.220474	-0.192985	0.244821	0.410579	0.122012	0.138607	0.149524	-0.306848	0.331582	0.26922
0.256628	0.248144	0.566749	-0.397554	-0.342828	-0.445241	0.259823	0.425316	-0.371585	0.447885	0.314096	-0.349707	0.290392	-0.416203	-0.30648	-0.301279	-0.435065	-0.426192	0.216027	-0.537442	-0.547563	0.372392	-0.377329	-0.271747	0.271509	0.543628	0.487832	0.6006	0.409845	-0.346165	0.48277	0.476551
0.244333	0.409035	0.32522	-0.34788	-0.461901	-0.262181	0.492875	0.468721	-0.323433	0.415602	0.553987	-0.520145	0.395811	-0.370663	-0.480549	-0.499364	-0.360702	-0.532261	0.573587	-0.247392	-0.528153	0.29452	-0.207573	-0.25261	0.565156	0.382419	0.460427	0.315645	0.251379	-0.542183	0.270868	0.247838
0.496685	0.284254	0.34457	-0.410949	-0.392555	-0.347577	0.302894	0.269935	-0.426515	0.229282	0.277678	-0.436863	0.411126	-0.537176	-0.368008	-0.362468	-0.364486	-0.327594	0.337711	-0.502483	-0.214165	0.317394	-0.386228	-0.4658	0.383044	0.346028	0.150637	0.269153	0.399383	-0.199917	0.482705	0.601588
0.305793	0.263114	0.31925	-0.304557	-0.439973	-0.502047	0.584969	0.501403	-0.518163	0.542021	0.633975	-0.457676	0.453723	-0.360447	-0.585805	-0.324244	-0.476923	-0.468467	0.426806	-0.341904	-0.392772	0.389328	-0.55539	-0.412863	0.480423	0.587622	0.553184	0.589899	0.369732	-0.57609	0.511355	0.338372
0.492788	0.313094	0.368625	-0.389903	-0.437187	-0.340535	0.396629	0.335696	-0.459297	0.321499	0.451652	-0.55945	0.502991	-0.456195	-0.385965	-0.536711	-0.563584	-0.257261	0.479279	-0.562698	-0.204067	0.425471	-0.476448	-0.509516	0.450784	0.508657	0.392162	0.270483	0.497889	-0.367961	0.488453	0.528897
0.305769	0.531353	0.312773	-0.240454	-0.379737	-0.390056	0.572389	0.605851	-0.403965	0.402357	0.618525	-0.556543	0.323157	-0.394853	-0.580026	-0.372376	-0.234007	-0.44489	0.38458	-0.263076	-0.364297	0.378118	-0.24337	-0.370929	0.473314	0.405779	0.460158	0.466507	0.443553	-0.475044	0.254596	0.182715
0.611399	0.287076	0.242441	-0.303473	-0.314128	-0.29158	0.344053	0.367316	-0.483227	0.278592	0.349645	-0.371527	0.521873	-0.261748	-0.303716	-0.305164	-0.57877	-0.28714	0.555179	-0.355896	-0.283542	0.368148	-0.683802	-0.530834	0.309126	0.407409	0.242384	0.451521	0.310168	-0.472634	0.614614	0.576673
0.39391	0.492082	0.425924	-0.220711	-0.468514	-0.492056	0.468113	0.498312	-0.27484	0.510889	0.534547	-0.58022	0.429285	-0.328088	-0.384321	-0.597919	-0.391833	-0.51068	0.444147	-0.192964	-0.471664	0.598733	-0.345407	-0.22827	0.291851	0.203772	0.400421	0.550741	0.34925	-0.493381	0.415797	0.328244
0.546944	0.116639	0.54302	-0.329496	-0.230072	-0.269888	0.573701	0.374327	-0.338025	0.541205	0.294561	-0.595831	0.452047	-0.453111	-0.361017	-0.543999	-0.462132	-0.364803	0.357663	-0.400532	-0.456108	0.504929	-0.504865	-0.368742	0.585961	0.456783	0.377386	0.275685	0.548991	-0.431949	0.417473	0.619708
0.102232	0.69749	0.0698268	-0.195377	-0.302521	-0.785186	0.129535	0.474416	-0.226341	0.40895	0.481672	-0.372707	0.191323	-0.6142	-0.200009	-0.188191	-0.208322	-0.607242	0.120784	-0.206487	-0.450795	0.38413	-0.268605	-0.226409	0.155775	0.217329	0.104848	0.519834	0.388637	-0.158008	0.323694	0.312559
0.402243	0.475009	0.358692	-0.387218	-0.399416	-0.482449	0.55824	0.555711	-0.57361	0.472882	0.533686	-0.443319	0.326655	-0.360816	-0.469332	-0.440215	-0.379623	-0.569302	0.41063	-0.447929	-0.336425	0.461022	-0.392026	-0.371656	0.503268	0.586884	0.522274	0.321303	0.396577	-0.509894	0.422407	0.295761
0.320969	0.36282	0.38387	-0.472305	-0.57642	-0.463437	0.55261	0.331096	-0.502444	0.394264	0.594965	-0.40894	0.333493	-0.171466	-0.482822	-0.447625	-0.34671	-0.468976	0.602047	-0.379595	-0.192754	0.43574	-0.211017	-0.502542	0.559019	0.597706	0.544557	0.290354	0.299737	-0.453311	0.183087	0.233789
0.347142	0.677414	0.270265	-0.293985	-0.431057	-0.558374	0.408852	0.615373	-0.358461	0.462204	0.523662	-0.528908	0.458776	-0.372408	-0.298896	-0.465545	-0.45833	-0.577993	0.537681	-0.22537	-0.338426	0.334866	-0.329049	-0.248264	0.499614	0.30651	0.355019	0.58542	0.213631	-0.42498	0.535036	0.199822
0.293001	0.327303	0.468201	-0.408259	-0.535908	-0.476725	0.602789	0.53143	-0.52711	0.432908	0.483164	-0.442612	0.307901	-0.407361	-0.533627	-0.317289	-0.389619	-0.627358	0.489084	-0.293704	-0.50539	0.317395	-0.23454	-0.353745	0.568006	0.562203	0.46407	0.456566	0.279114	-0.719781	0.297327	0.294048
0.530031	0.305993	0.309303	-0.613324	-0.322236	-0.388411	0.211734	0.204322	-0.476251	0.383416	0.284435	-0.211133	0.520995	-0.515176	-0.263689	-0.215418	-0.523655	-0.214413	0.485152	-0.393934	-0.483991	0.432643	-0.641728	-0.649786	0.250028	0.43353	0.306828	0.353531	0.551127	-0.336292	0.555282	0.552722
0.317316	0.416228	0.384216	-0.299083	-0.298493	-0.476644	0.46537	0.50075	-0.491334	0.442057	0.218556	-0.289059	0.397472	-0.471143	-0.415013	-0.250696	-0.436	-0.464096	0.316343	-0.488068	-0.529238	0.269717	-0.495576	-0.394443	0.172948	0.486616	0.571408	0.673881	0.459235	-0.341606	0.382758	0.545256
0.330699	0.198601	0.315044	-0.404422	-0.244267	-0.221275	0.389105	0.267517	-0.581234	0.235597	0.360909	-0.255551	0.202599	-0.27985	-0.302988	-0.169269	-0.570311	-0.302014	0.46522	-0.519056	-0.360062	0.396959	-0.495073	-0.354454	0.22078	0.443162	0.381696	0.516163	0.47427	-0.217331	0.43182	0.481533
0.487637	0.343854	0.459784	-0.339796	-0.418625	-0.452228	0.476161	0.480968	-0.471717	0.456832	0.446632	-0.550106	0.339891	-0.288555	-0.464797	-0.56212	-0.389046	-0.582224	0.558376	-0.380275	-0.460258	0.582142	-0.261026	-0.238016	0.454063	0.375649	0.378336	0.567901	0.344662	-0.481058	0.265307	0.390355
0.135713	0.139243	0.336601	-0.351475	-0.298196	-0.328526	0.549712	0.547011	-0.566579	0.312679	0.420686	-0.48313	0.39993	-0.555511	-0.430615	-0.407769	-0.493154	-0.564786	0.271317	-0.431771	-0.459125	0.19571	-0.537066	-0.209424	0.435251	0.4168	0.370121	0.362395	0.34422	-0.51664	0.448129	-0.0650538
0.345024	0.472461	0.37994	-0.590737	-0.164416	-0.587174	0.179296	0.321717	-0.326681	0.519252	0.418647	-0.508332	0.498961	-0.425044	-0.194589	-0.220796	-0.1042	-0.418617	0.231152	-0.196202	-0.316501	0.373985	-0.272093	-0.441378	0.192921	0.314841	0.48276	0.446505	0.375076	-0.425423	0.343755	0.262967
0.42165	0.731379	0.254045	-0.224362	-0.350436	-0.512369	0.265754	0.527733	-0.377429	0.497429	0.599756	-0.603211	0.462442	-0.578874	-0.306552	-0.336264	-0.363026	-0.507666	0.20369	-0.311911	-0.402273	0.463801	-0.155989	-0.212933	0.507813	0.265417	0.319609	0.579945	0.240199	-0.357787	0.237958	0.302933
0.22135	0.336346	0.244314	-0.365489	-0.376651	-0.548801	0.293069	0.493882	-0.279954	0.422415	0.420247	-0.486174	0.343743	-0.532155	-0.401086	-0.448476	-0.327837	-0.618938	0.2435	-0.268871	-0.495014	0.536961	-0.303095	-0.202848	0.224106	0.152059	0.362303	0.560153	0.329003	-0.493247	0.329983	0.386909
0.567312	0.1839	0.371872	-0.452347	-0.421653	-0.350838	0.40829	0.307389	-0.411462	0.351669	0.384295	-0.420481	0.368141	-0.495261	-0.352674	-0.39333	-0.647186	-0.402339	0.502086	-0.467608	-0.381754	0.42654	-0.524077	-0.547894	0.37622	0.378581	0.40775	0.329491	0.579744	-0.394002	0.415093	0.431311
0.460381	0.221691	0.559832	-0.356424	-0.451976	-0.244952	0.513079	0.364628	-0.404154	0.414524	0.284232	-0.557739	0.327372	-0.425106	-0.445651	-0.462561	-0.480473	-0.292191	0.44445	-0.486114	-0.54364	0.495359	-0.471527	-0.496472	0.645675	0.4338	0.430672	0.210394	0.468686	-0.456427	0.303277	0.516291
0.162698	0.47283	0.178033	-0.133544	-0.34886	-0.483858	0.260279	0.257017	-0.26247	0.134707	0.261206	-0.295421	0.169316	-0.324379	-0.259917	-0.189222	-0.122741	-0.432485	0.368871	-0.0437078	-0.176114	0.29215	-0.0350654	-0.325119	0.320393	0.112115	0.149153	0.414464	0.210157	-0.137037	0.193208	0.142272
0.191482	0.281674	0.161099	-0.419574	-0.517776	-0.267202	0.642482	0.647741	-0.426615	0.385507	0.526173	-0.477567	0.254831	-0.179365	-0.613466	-0.525807	-0.210113	-0.536574	0.634103	-0.165988	-0.614201	0.191586	-0.282862	-0.379194	0.567026	0.52144	0.612085	0.201772	0.120846	-0.684491	0.0377182	0.301876
0.618453	0.114427	0.519224	-0.232744	-0.299824	-0.221393	0.358866	0.297732	-0.259164	0.397091	0.260418	-0.603873	0.375265	-0.530864	-0.430568	-0.510328	-0.438862	-0.338287	0.342434	-0.413383	-0.465309	0.574702	-0.574627	-0.496442	0.466116	0.264802	0.265841	0.237539	0.540798	-0.421274	0.657591	0.612123
0.197155	0.416716	0.514679	-0.401554	-0.533599	-0.429325	0.475338	0.345751	-0.362732	0.499021	0.434261	-0.534958	0.439943	-0.402413	-0.407821	-0.391502	-0.346888	-0.447313	0.398571	-0.275729	-0.55091	0.384841	-0.227116	-0.22491	0.447168	0.447939	0.562999	0.347063	0.34257	-0.476025	0.182663	0.38905
0.433563	0.417569	0.53006	-0.458752	-0.295374	-0.295845	0.214936	0.362319	-0.356759	0.654089	0.470934	-0.360017	0.233358	-0.332631	-0.321235	-0.373497	-0.620781	-0.191709	0.207942	-0.658758	-0.408228	0.311933	-0.606085	-0.558521	0.332791	0.501741	0.396379	0.395107	0.650007	-0.350595	0.618428	0.527507
0.261072	0.499889	0.512517	-0.153609	-0.218929	-0.496066	0.286878	0.649536	-0.30306	0.462107	0.436172	-0.512518	0.292634	-0.281904	-0.500606	-0.453137	-0.319332	-0.530585	0.426324	-0.19469	-0.348686	0.432316	-0.517826	-0.221566	0.22254	0.356203	0.495636	0.51394	0.54552	-0.476485	0.18018	0.394984
0.37608	0.432797	0.322761	-0.248036	-0.325027	-0.603515	0.314867	0.423208	-0.240912	0.475827	0.532736	-0.569283	0.342991	-0.367205	-0.349888	-0.397494	-0.268468	-0.486548	0.344377	-0.197072	-0.280391	0.375867	-0.300374	-0.235871	0.329131	0.256427	0.438564	0.617192	0.436625	-0.373485	0.260987	0.321176
0.487189	0.413799	0.325292	-0.317085	-0.651985	-0.338155	0.613484	0.51293	-0.380723	0.543093	0.598276	-0.567473	0.471309	-0.235667	-0.560168	-0.629776	-0.419655	-0.575445	0.552585	-0.308015	-0.570129	0.340876	-0.35248	-0.445427	0.550191	0.534358	0.566758	0.308169	0.342283	-0.536813	0.384183	0.205925
0.137706	0.406199	0.602194	-0.582343	-0.385616	-0.666437	0.171355	0.094251	-0.323296	0.645782	0.396759	-0.389752	0.293097	-0.348145	-0.19239	-0.198624	-0.424478	-0.256755	0.128759	-0.516706	-0.219487	0.376253	-0.56295	-0.384762	0.193588	0.345919	0.456973	0.351559	0.700073	-0.205292	0.175674	0.646891
0.214006	0.174233	0.221734	-0.371264	-0.503048	-0.250407	0.472083	0.483848	-0.535188	0.151152	0.427289	-0.311385	0.335618	-0.291441	-0.45609	-0.436175	-0.283279	-0.571744	0.491026	-0.35648	-0.299364	0.284303	-0.224724	-0.367935	0.43966	0.539544	0.453885	0.192622	0.242683	-0.573843	0.303784	0.337048
0.453223	0.185724	0.500437	-0.360724	-0.252022	-0.270166	0.319155	0.504856	-0.428966	0.465425	0.327729	-0.239335	0.34083	-0.403379	-0.253296	-0.340294	-0.544029	-0.196657	0.346331	-0.508429	-0.312837	0.34017	-0.586406	-0.532535	0.286282	0.51094	0.356152	0.4928	0.530766	-0.228995	0.538017	0.49413
0.279212	0.369556	0.314901	-0.570153	-0.518631	-0.369327	0.603552	0.52684	-0.541924	0.519776	0.487847	-0.513738	0.475639	-0.289446	-0.537614	-0.474477	-0.345159	-0.563733	0.633274	-0.430515	-0.439719	0.389649	-0.297634	-0.384271	0.59971	0.475393	0.529431	0.268868	0.236477	-0.602486	0.266284	0.285776
0.542852	0.161881	0.384008	-0.479729	-0.17201	-0.329163	0.141357	0.241576	-0.571427	0.252215	0.343489	-0.16182	0.217771	-0.214072	-0.213254	-0.190655	-0.592877	-0.199624	0.271825	-0.560148	-0.26854	0.239812	-0.540655	-0.657644	0.206086	0.429681	0.375966	0.41259	0.564047	-0.134485	0.694041	0.499215
0.40083	0.565265	0.358997	-0.579295	-0.489603	-0.42058	0.31562	0.376606	-0.285569	0.515602	0.441288	-0.657604	0.560094	-0.285702	-0.357253	-0.500153	-0.700505	-0.430244	0.607203	-0.418755	-0.477917	0.505228	-0.191356	-0.411995	0.423831	0.43744	0.386217	0.264939	0.351914	-0.312585	0.445443	0.431436
0.278694	0.388264	0.428485	-0.120952	-0.211365	-0.53877	0.246624	0.339608	-0.204574	0.581906	0.417762	-0.365319	0.307574	-0.614106	-0.472558	-0.258413	-0.272549	-0.485402	0.207097	-0.138239	-0.393636	0.45963	-0.600469	-0.357751	0.214743	0.28184	0.31895	0.531784	0.465827	-0.340838	0.271616	0.342899
0.488146	0.249352	0.289466	-0.545533	-0.599499	-0.227575	0.496253	0.60774	-0.563474	0.17511	0.450458	-0.394114	0.5735	-0.371233	-0.480752	-0.426363	-0.413501	-0.512394	0.576168	-0.346582	-0.537245	0.26786	-0.0947104	-0.369264	0.50879	0.504768	0.423853	0.314678	0.181712	-0.5414	0.459495	0.359809
0.262881	0.288492	0.369943	-0.250821	-0.374537	-0.425388	0.417784	0.539032	-0.279036	0.54816	0.54784	-0.576131	0.477404	-0.524975	-0.350447	-0.51353	-0.303598	-0.512537	0.335099	-0.344486	-0.356279	0.388319	-0.333509	-0.255183	0.294952	0.398483	0.469736	0.626231	0.290216	-0.456747	0.429854	0.163209
0.30474	0.259569	0.538328	-0.632084	-0.463839	-0.747382	0.300685	0.374693	-0.407088	0.692696	0.51072	-0.585149	0.333154	-0.413769	-0.217899	-0.285916	-0.573334	-0.483416	0.501716	-0.629528	-0.259514	0.286931	-0.317428	-0.380986	0.18712	0.348482	0.644632	0.392205	0.521362	-0.567002	0.241356	0.547848
0.233866	0.353204	0.622203	-0.516889	-0.499436	-0.555642	0.277636	0.207154	-0.174348	0.615217	0.326443	-0.42497	0.34776	-0.444987	-0.210056	-0.263893	-0.364949	-0.413017	0.320199	-0.440231	-0.39301	0.216128	-0.393533	-0.513796	0.339567	0.129905	0.467558	0.375998	0.481156	-0.279692	0.241786	0.446732
0.364176	0.298903	0.40811	-0.31961	-0.386249	-0.370493	0.47651	0.436172	-0.443201	0.510887	0.436123	-0.499091	0.335778	-0.332001	-0.380591	-0.507326	-0.352376	-0.342228	0.291642	-0.482149	-0.291	0.448622	-0.5895	-0.305699	0.476349	0.365428	0.336228	0.338629	0.477994	-0.370795	0.433093	0.473833
0.567126	0.228986	0.328141	-0.465971	-0.244052	-0.208782	0.682979	0.322032	-0.592142	0.387188	0.533674	-0.377577	0.443814	-0.424754	-0.326326	-0.536966	-0.588023	-0.223494	0.31561	-0.565785	-0.320089	0.289078	-0.52494	-0.539899	0.656054	0.588907	0.43278	0.286609	0.421338	-0.300633	0.519061	0.230926
0.561254	0.359986	0.258117	-0.234464	-0.347768	-0.336694	0.589132	0.564288	-0.558556	0.125814	0.50545	-0.425593	0.581018	-0.410065	-0.515332	-0.412693	-0.518792	-0.472766	0.523612	-0.20019	-0.473865	0.389394	-0.317264	-0.282887	0.486495	0.295834	0.202098	0.484119	0.202618	-0.585642	0.540232	0.31321
0.441425	0.428186	0.359511	-0.386604	-0.43188	-0.273738	0.42457	0.579573	-0.340784	0.379417	0.491785	-0.577487	0.461303	-0.424361	-0.473695	-0.431362	-0.378856	-0.610697	0.481554	-0.40389	-0.428697	0.399909	-0.438574	-0.433376	0.459174	0.513372	0.414036	0.389818	0.228208	-0.563975	0.48552	0.390409
0.325609	0.494838	0.351423	-0.368794	-0.373706	-0.287359	0.563982	0.497091	-0.409424	0.247133	0.475438	-0.642807	0.44624	-0.284071	-0.562057	-0.467873	-0.364395	-0.665492	0.607664	-0.246024	-0.364949	0.340381	-0.323813	-0.369875	0.566537	0.438104	0.263977	0.344355	0.23864	-0.473031	0.292469	0.334674
0.356661	0.196985	0.437669	-0.0561421	-0.579618	-0.311913	0.329226	0.503094	-0.035584	0.618869	0.385741	-0.507622	0.160531	-0.593475	-0.565114	-0.233762	-0.315909	-0.309801	0.34146	-0.392561	-0.566235	0.52608	-0.638904	-0.398813	0.284403	0.360734	0.646298	0.528897	0.380953	-0.519499	0.34336	0.502622
0.527641	0.711816	0.249373	-0.358464	-0.10866	-0.66683	0.268465	0.612439	-0.458251	0.400854	0.432396	-0.402463	0.258397	-0.596868	-0.297767	-0.390713	-0.352943	-0.433901	0.343356	-0.220828	-0.395652	0.555281	-0.28256	-0.255272	0.149675	0.3056	0.11296	0.589522	0.379735	-0.547983	0.323738	0.271992
0.399984	0.296878	0.297129	-0.447575	-0.538734	-0.238537	0.581416	0.493404	-0.506464	0.226534	0.621746	-0.394656	0.295507	-0.228053	-0.458971	-0.521111	-0.419412	-0.620934	0.422634	-0.450897	-0.419407	0.359035	-0.093306	-0.428154	0.475883	0.455003	0.56345	0.506737	0.357032	-0.554287	0.524915	0.316359
0.241619	0.451368	0.549793	-0.243269	-0.509748	-0.584148	0.201275	0.616805	-0.284539	0.581406	0.427668	-0.543503	0.260268	-0.45268	-0.520462	-0.300638	-0.299776	-0.427223	0.339064	-0.326724	-0.44779	0.483112	-0.363122	-0.407756	0.318527	0.375679	0.480432	0.509188	0.459567	-0.550465	0.346078	0.460171
0.383267	0.548461	0.27134	-0.307745	-0.417322	-0.598828	0.332053	0.458572	-0.270051	0.511319	0.389554	-0.43489	0.29429	-0.414483	-0.492948	-0.43163	-0.323487	-0.61569	0.344754	-0.291512	-0.515995	0.470711	-0.381031	-0.2616	0.182192	0.301772	0.511007	0.571627	0.465443	-0.496675	0.273538	0.413227
0.232422	0.434106	0.50279	-0.495701	-0.548089	-0.571462	0.3912	0.341331	-0.37581	0.459879	0.492152	-0.608022	0.304187	-0.522229	-0.238553	-0.297997	-0.292169	-0.588032	0.439409	-0.501775	-0.265162	0.372971	-0.340108	-0.513147	0.367988	0.530169	0.560901	0.332727	0.563819	-0.469794	0.278841	0.360636
0.28699	0.460777	0.370695	-0.196449	-0.326212	-0.531115	0.423567	0.413158	-0.277408	0.543276	0.43844	-0.394763	0.287986	-0.490028	-0.324221	-0.227599	-0.373873	-0.34803	0.414167	-0.326287	-0.44697	0.350857	-0.656565	-0.283011	0.248245	0.312322	0.358249	0.673174	0.581769	-0.536842	0.227824	0.519531
0.310365	0.406066	0.320551	-0.591273	-0.625495	-0.37239	0.511581	0.371771	-0.492622	0.336824	0.41951	-0.390907	0.392587	-0.179463	-0.433729	-0.272346	-0.259732	-0.513433	0.59462	-0.213828	-0.589821	0.358666	-0.387012	-0.401835	0.570109	0.453575	0.620179	0.414263	0.256159	-0.59922	0.300845	0.297836
0.407539	0.340732	0.420866	-0.487179	-0.445872	-0.333147	0.517295	0.392692	-0.377	0.481579	0.468334	-0.525711	0.338751	-0.313009	-0.38739	-0.423845	-0.330932	-0.402829	0.355267	-0.364516	-0.501758	0.389131	-0.438415	-0.340064	0.419746	0.248552	0.469114	0.50695	0.531552	-0.467567	0.339961	0.476598
0.600645	0.0194859	0.421654	-0.291285	-0.489694	-0.127015	0.206887	0.222902	-0.391523	0.308109	0.24397	-0.326419	0.509758	-0.399429	-0.245852	-0.487093	-0.506685	-0.164471	0.434548	-0.51158	-0.538496	0.58706	-0.44743	-0.561952	0.254911	0.272721	0.341653	0.254423	0.241652	-0.285563	0.564724	0.536482
0.641647	0.478588	0.235309	-0.282439	-0.289764	-0.383775	0.563783	0.575693	-0.457382	0.354273	0.422615	-0.441068	0.508428	-0.441462	-0.39311	-0.321348	-0.376946	-0.166244	0.396209	-0.310485	-0.527599	0.513493	-0.307361	-0.289224	0.465573	0.412148	0.307746	0.45777	0.424512	-0.391681	0.520298	0.470328
0.279371	0.304783	0.412219	-0.507701	-0.496249	-0.361384	0.545926	0.366472	-0.578601	0.373059	0.521115	-0.400855	0.326062	-0.391051	-0.443246	-0.290779	-0.301951	-0.409054	0.591857	-0.462409	-0.370026	0.291542	-0.215428	-0.366516	0.477767	0.499458	0.457553	0.289958	0.336619	-0.562778	0.305005	0.267618
0.287358	0.387788	0.466522	-0.316412	-0.505596	-0.569845	0.515166	0.504704	-0.358415	0.361522	0.627816	-0.570263	0.367976	-0.282068	-0.550099	-0.492693	-0.277684	-0.597817	0.515585	-0.324919	-0.604339	0.551019	-0.359934	-0.286384	0.476341	0.516559	0.494485	0.393567	0.255697	-0.477168	0.307249	0.155689
0.242058	0.393165	0.529023	-0.335935	-0.40966	-0.563069	0.349721	0.382732	-0.388482	0.467891	0.520594	-0.454416	0.116059	-0.300752	-0.387572	-0.427837	-0.495723	-0.263048	0.202088	-0.60272	-0.27114	0.331771	-0.556094	-0.257892	0.465659	0.338517	0.540347	0.548547	0.490393	-0.267406	0.262632	0.372626
0.354468	0.429319	0.584901	-0.581559	-0.451137	-0.402891	0.241856	0.33424	-0.407179	0.523696	0.294808	-0.501758	0.601077	-0.462843	-0.242762	-0.29991	-0.45475	-0.35715	0.387632	-0.542398	-0.309017	0.470139	-0.475466	-0.317174	0.201435	0.321214	0.297934	0.449864	0.379736	-0.228096	0.420042	0.46505
0.565287	0.472515	0.305315	-0.515199	-0.309849	-0.244172	0.321052	0.232075	-0.451897	0.423869	0.563367	-0.266875	0.388965	-0.392335	-0.334726	-0.292413	-0.405233	-0.252503	0.345476	-0.600155	-0.368659	0.382044	-0.636376	-0.583891	0.302887	0.522903	0.292557	0.331985	0.600298	-0.193832	0.547229	0.658364
0.486268	-0.247471	0.211608	-0.0946139	-0.22486	-0.063541	0.244602	0.337473	-0.321289	0.512807	0.430898	-0.185401	0.3161	0.0339427	-0.275032	-0.189966	-0.396118	-0.021116	0.247878	-0.278071	-0.385429	0.453364	-0.393636	-0.328419	0.346593	0.344868	0.393708	0.317815	0.411049	-0.35358	0.514442	0.528914
0.40662	0.207824	0.29457	-0.480619	-0.431957	-0.231733	0.52358	0.649153	-0.526174	0.290074	0.523377	-0.401734	0.436572	-0.334835	-0.53398	-0.531608	-0.355551	-0.58863	0.592371	-0.32816	-0.477153	0.37957	-0.265273	-0.327879	0.524466	0.578727	0.421859	0.344805	0.290735	-0.528747	0.331327	0.393993
0.352766	0.246173	0.474539	-0.12609	-0.27498	-0.257589	0.288702	0.236645	-0.234198	0.434043	0.233093	-0.396127	0.191857	-0.314846	-0.375271	-0.343509	-0.297902	-0.200671	0.186773	-0.238261	-0.370838	0.379652	-0.376349	-0.403103	0.41387	0.200333	0.262737	0.291962	0.363229	-0.282935	0.322143	0.382127
0.238121	0.540406	0.628559	-0.316318	-0.509638	-0.556916	0.31767	0.522162	-0.330945	0.347261	0.320505	-0.514942	0.247929	-0.360579	-0.545349	-0.270782	-0.28003	-0.542227	0.350294	-0.310327	-0.503589	0.494003	-0.416457	-0.27992	0.274272	0.27327	0.512757	0.575315	0.310962	-0.489772	0.22336	0.418335
0.351441	0.409932	0.543613	-0.576757	-0.488142	-0.503301	0.231936	0.296843	-0.350836	0.506614	0.419176	-0.486689	0.377499	-0.421316	-0.28496	-0.537165	-0.483161	-0.280782	0.346701	-0.540639	-0.275214	0.459916	-0.549687	-0.636525	0.417395	0.477478	0.544734	0.33735	0.510169	-0.320694	0.37499	0.363029
0.319514	0.411973	0.363803	-0.309308	-0.517167	-0.285837	0.65147	0.444042	-0.463319	0.426863	0.555389	-0.321259	0.373557	-0.213688	-0.542815	-0.447685	-0.255093	-0.522862	0.492114	-0.314212	-0.408061	0.391778	-0.308155	-0.484546	0.63703	0.542527	0.476395	0.420693	0.276508	-0.609791	0.308575	0.383641
0.20457	0.626694	0.368312	-0.521527	-0.331342	-0.350331	0.447512	0.525082	-0.389773	0.274262	0.50455	-0.470177	0.29067	-0.208307	-0.480264	-0.448721	-0.198631	-0.50005	0.48871	-0.182071	-0.431285	0.36029	-0.3337	-0.395995	0.531451	0.364899	0.495439	0.308849	0.19676	-0.526193	0.212953	0.349945
0.487953	0.266126	0.321656	-0.422323	-0.201303	-0.119289	0.227557	0.206162	-0.579379	0.265695	0.276268	-0.194722	0.270556	-0.2985	-0.193952	-0.254677	-0.614989	-0.203388	0.418995	-0.521326	-0.474513	0.149766	-0.709159	-0.629364	0.212183	0.504032	0.414766	0.496256	0.487056	-0.253663	0.548441	0.514367
0.515427	0.0699207	0.417588	-0.239784	-0.466142	-0.495217	0.409635	0.255677	-0.395277	0.69848	0.343219	-0.382279	0.4173	-0.233911	-0.166991	-0.483365	-0.631764	-0.481381	0.161575	-0.602252	-0.173329	0.215781	-0.721855	-0.445414	0.38509	0.584232	0.399984	0.334611	0.601511	-0.0223032	0.398824	0.317097
0.610448	0.17887	0.167608	-0.197238	-0.23909	-0.162674	0.41314	0.382456	-0.432653	0.13979	0.260574	-0.32033	0.369506	-0.268557	-0.384335	-0.343203	-0.359294	-0.256401	0.380222	-0.182561	-0.392264	0.31612	-0.413622	-0.409727	0.392051	0.256628	0.179565	0.209326	0.360037	-0.425474	0.633537	0.444334
0.0764185	0.0995033	0.486557	-0.47811	-0.458925	-0.43346	0.462205	0.116382	-0.612093	0.597976	0.374755	-0.555472	0.134981	-0.503942	-0.370632	-0.116026	-0.212611	-0.68589	0.393681	-0.480289	-0.195633	0.241785	-0.466133	-0.388522	0.0785107	0.394974	0.480695	0.451013	0.347273	-0.527883	0.280869	0.525599
0.437684	0.0839611	0.514519	-0.252479	-0.30186	-0.22312	0.297545	0.33124	-0.0982781	0.466197	0.465031	-0.396248	0.255228	-0.218654	-0.421555	-0.639577	-0.31387	-0.16512	0.205935	-0.260584	-0.415622	0.251727	-0.494515	-0.405838	0.495061	0.10832	0.283174	0.18847	0.39797	-0.198683	0.144878	0.411192
0.218962	0.165258	0.208488	-0.37418	-0.551659	-0.235824	0.615289	0.590176	-0.493467	0.150957	0.544356	-0.535088	0.418313	-0.304988	-0.563282	-0.575688	-0.316667	-0.670724	0.691153	-0.188829	-0.539849	0.244463	-0.0351375	-0.199964	0.623601	0.451907	0.469068	0.25583	0.204267	-0.575446	0.288585	0.114387
0.400652	0.338953	0.34919	-0.521866	-0.313142	-0.114987	0.318056	0.353293	-0.410185	0.355844	0.539747	-0.231903	0.28694	-0.356867	-0.354126	-0.226396	-0.412987	-0.400222	0.349868	-0.52976	-0.240866	0.225668	-0.73708	-0.289293	0.157624	0.539097	0.399416	0.390081	0.528535	-0.374512	0.368886	0.496079
0.55693	0.397982	0.329637	-0.448726	-0.515971	-0.471859	0.412243	0.325642	-0.39193	0.303322	0.567378	-0.342639	0.499604	-0.518231	-0.506023	-0.373118	-0.477128	-0.398289	0.523831	-0.481322	-0.458038	0.456877	-0.372078	-0.487098	0.333885	0.292081	0.391435	0.46724	0.511455	-0.414196	0.471557	0.382997
0.485309	0.225489	0.290155	-0.359481	-0.369534	-0.361611	0.506404	0.240419	-0.482566	0.32545	0.337341	-0.244942	0.425367	-0.383798	-0.445374	-0.350819	-0.467086	-0.199091	0.339743	-0.336407	-0.326428	0.358643	-0.384912	-0.393429	0.455701	0.467483	0.296506	0.23264	0.283004	-0.427479	0.518487	0.506721
0.362339	0.444375	0.432044	-0.417175	-0.447786	-0.549782	0.511833	0.519124	-0.383273	0.357843	0.421151	-0.426213	0.459634	-0.575625	-0.370559	-0.341465	-0.352548	-0.473855	0.323209	-0.458054	-0.398186	0.440554	-0.407046	-0.531754	0.371983	0.327502	0.517134	0.417242	0.477552	-0.440202	0.529798	0.407664
0.475477	0.344758	0.341703	-0.368782	-0.40253	-0.367288	0.421767	0.555878	-0.430225	0.24033	0.38311	-0.475043	0.602423	-0.300617	-0.407536	-0.633125	-0.589376	-0.445933	0.346455	-0.379533	-0.483062	0.509209	0.004804	-0.537423	0.411879	0.533352	0.535208	0.475424	0.10631	-0.241111	0.424223	0.491714
0.157683	0.233646	0.221456	-0.368475	-0.516899	-0.150758	0.334001	0.294053	-0.450634	0.180782	0.352119	-0.171923	0.38241	-0.117909	-0.372141	-0.132454	-0.211516	-0.367878	0.456042	-0.224552	-0.351457	0.251535	-0.202401	-0.397689	0.512654	0.371269	0.295779	0.126265	0.0840102	-0.373273	0.125232	0.18193
0.142404	0.416716	0.40083	-0.136295	-0.267019	-0.405968	0.167467	0.155239	-0.205604	0.468539	0.237533	-0.262024	0.223275	-0.392085	-0.16138	-0.104072	-0.0491111	-0.481011	0.224767	-0.215349	-0.349933	0.355806	-0.258528	-0.150887	0.147846	0.126646	0.116597	0.453334	0.473901	-0.23183	0.207356	0.279691
0.400453	0.491142	0.283845	-0.341346	-0.442875	-0.237136	0.559224	0.668491	-0.529704	0.327311	0.476775	-0.345722	0.29102	-0.249298	-0.435752	-0.532343	-0.41727	-0.462692	0.558761	-0.290801	-0.312352	0.440392	-0.466852	-0.463456	0.562969	0.421331	0.526807	0.353893	0.365898	-0.453931	0.278895	0.164198
0.470684	0.46161	0.246475	-0.374646	-0.616298	-0.262473	0.604537	0.625277	-0.50034	0.274547	0.480639	-0.462221	0.485058	-0.396823	-0.455783	-0.548153	-0.424322	-0.569139	0.536093	-0.239437	-0.55633	0.405424	-0.254998	-0.493813	0.591279	0.481747	0.415233	0.397376	0.168981	-0.518161	0.481445	0.24703
0.382644	0.155815	0.567292	-0.301596	-0.393294	-0.365148	0.128298	0.249191	-0.230688	0.524171	0.244434	-0.392061	0.543476	-0.534346	-0.13242	-0.313048	-0.471377	-0.310151	0.387859	-0.455906	-0.482807	0.447659	-0.639468	-0.371241	0.227634	0.157653	0.207009	0.326781	0.373486	-0.18395	0.469797	0.46159
0.384618	0.590123	0.345902	-0.152831	-0.464268	-0.338743	0.20225	0.44464	-0.207481	0.399601	0.434835	-0.336913	0.363961	-0.301487	-0.300498	-0.288529	-0.0305309	-0.501205	0.282192	-0.0778646	-0.235984	0.473981	-0.185937	-0.108422	0.336571	0.232063	0.234899	0.358716	0.297304	-0.388308	0.434223	0.307144
0.342123	0.39101	0.502305	-0.386751	-0.381604	-0.589521	0.342538	0.387478	-0.413358	0.504457	0.361572	-0.358472	0.339307	-0.474352	-0.538373	-0.29856	-0.282274	-0.423169	0.282302	-0.350342	-0.368988	0.426079	-0.382383	-0.396421	0.377272	0.398234	0.29605	0.573266	0.47846	-0.272318	0.349368	0.527835
0.55684	0.136879	0.453091	-0.209857	-0.353239	-0.234797	0.41018	0.365403	-0.276795	0.460221	0.196387	-0.569857	0.482573	-0.563203	-0.361678	-0.446269	-0.533611	-0.302657	0.319069	-0.468857	-0.308511	0.463698	-0.599454	-0.484227	0.337505	0.346729	0.241293	0.366787	0.574139	-0.346493	0.388585	0.613056
0.320486	0.333444	0.239072	-0.505538	-0.336956	-0.200851	0.535389	0.552622	-0.503861	0.385853	0.461951	-0.478142	0.552218	-0.27213	-0.519568	-0.47475	-0.344754	-0.455209	0.570468	-0.193885	-0.430656	0.255152	0.108544	-0.482496	0.572699	0.610671	0.447011	0.154384	0.0948429	-0.506969	0.335392	-0.22004
0.32532	0.353593	0.29735	-0.357946	-0.359545	-0.279039	0.373622	0.388152	-0.258707	0.577287	0.450989	-0.546622	0.45	-0.48988	-0.304305	-0.138148	-0.320464	-0.424303	0.549223	-0.31981	-0.405933	0.488458	-0.406815	-0.433135	0.262602	0.43191	0.40769	0.379652	0.468385	-0.474966	0.413195	0.320404
0.307198	0.295539	0.442806	-0.552013	-0.439812	-0.563779	0.304462	0.401917	-0.286017	0.404915	0.383471	-0.432409	0.323232	-0.445265	-0.304802	-0.366717	-0.422735	-0.444606	0.524943	-0.530901	-0.400561	0.320194	-0.484874	-0.619735	0.140605	0.513777	0.546109	0.376187	0.389654	-0.356132	0.453978	0.46327
0.464164	0.43598	0.24745	-0.335222	-0.574904	-0.223121	0.534247	0.533391	-0.550209	0.186476	0.485356	-0.547017	0.464534	-0.382398	-0.60194	-0.439468	-0.364983	-0.453797	0.533923	-0.312225	-0.390428	0.224935	-0.288404	-0.285496	0.607848	0.538558	0.405716	0.338457	0.287115	-0.497435	0.431702	0.349676
0.571045	0.470961	0.274503	-0.332924	-0.2949	-0.29025	0.678658	0.519548	-0.538746	0.256131	0.403951	-0.2681	0.481525	-0.293596	-0.568294	-0.31854	-0.168361	-0.447109	0.422815	-0.357439	-0.349579	0.350598	-0.272057	-0.312994	0.513102	0.450107	0.243118	0.449384	0.263955	-0.568126	0.481647	0.45485
0.209127	0.369781	0.352376	-0.408264	-0.460989	-0.327565	0.515971	0.525471	-0.468383	0.321951	0.368508	-0.374708	0.369515	-0.171257	-0.510546	-0.452566	-0.195053	-0.547602	0.440166	-0.251957	-0.407173	0.412386	-0.293827	-0.343689	0.488469	0.492823	0.432953	0.32447	0.340207	-0.398195	0.191375	0.199268
0.586426	0.212341	0.45196	-0.171196	-0.252302	-0.455936	0.33548	0.300551	-0.298932	0.561035	0.185639	-0.531214	0.280979	-0.581098	-0.232535	-0.286369	-0.465318	-0.299105	0.334719	-0.501022	-0.299962	0.389746	-0.824519	-0.550195	0.359729	0.462686	0.158163	0.199564	0.527457	-0.287302	0.572592	0.878477
0.493798	0.373089	0.3187	-0.541034	-0.408857	-0.242669	0.633072	0.48879	-0.618996	0.307865	0.492834	-0.351144	0.550334	-0.344337	-0.540468	-0.281251	-0.391331	-0.453706	0.589965	-0.277079	-0.330411	0.359589	-0.315547	-0.456508	0.545008	0.478054	0.250816	0.448536	0.347855	-0.5005	0.446489	0.488322
0.384833	0.537731	0.351475	-0.470384	-0.436887	-0.263411	0.172087	0.252799	-0.265539	0.410443	0.334187	-0.535757	0.400332	-0.312927	-0.354391	-0.284442	-0.572607	-0.328623	0.401559	-0.513131	-0.443994	0.314172	-0.623499	-0.651095	0.375685	0.31741	0.557891	0.431392	0.418793	-0.285476	0.357685	0.426022
0.512966	0.228882	0.426724	-0.648288	-0.32277	-0.303805	0.341058	0.284418	-0.479635	0.389921	0.359654	-0.475048	0.570847	-0.370536	-0.278584	-0.364197	-0.51874	-0.296012	0.357876	-0.349126	-0.406979	0.476529	-0.738651	-0.552607	0.309932	0.421254	0.280372	0.310928	0.626995	-0.271277	0.563559	0.732987
0.615169	0.285328	0.554134	-0.317849	-0.290242	-0.210189	0.301979	0.189024	-0.213864	0.450731	0.266001	-0.481844	0.489478	-0.560387	-0.282315	-0.474443	-0.585714	-0.181729	0.280606	-0.542251	-0.221833	0.498318	-0.500736	-0.445494	0.283968	0.250434	0.142839	0.184218	0.57234	-0.169014	0.34661	0.509185
0.533984	0.192196	0.45085	-0.426278	-0.31747	-0.375945	0.398919	0.350443	-0.410135	0.304596	0.304674	-0.313366	0.47522	-0.575373	-0.347185	-0.35069	-0.581169	-0.252419	0.399232	-0.55391	-0.301652	0.271057	-0.600353	-0.578874	0.397703	0.434278	0.28952	0.362824	0.453131	-0.298801	0.605866	0.600004
0.45681	0.443009	0.383959	-0.179554	-0.299208	-0.406052	0.410629	0.310411	-0.276247	0.505564	0.433682	-0.311077	0.282556	-0.147614	-0.346556	-0.456022	-0.230028	-0.236537	0.111611	-0.251686	-0.337942	0.406118	-0.307893	-0.223225	0.362453	0.30159	0.341979	0.329293	0.50306	-0.277127	0.326541	0.267243
0.313648	0.153947	0.395718	-0.394309	-0.19721	-0.304709	0.0822803	0.21653	-0.336602	0.0604615	0.134588	-0.275012	0.492734	-0.383482	-0.255503	-0.125946	-0.279714	-0.344694	0.234066	-0.152834	-0.156892	0.239854	-0.296366	-0.374642	0.302665	0.271086	0.282961	0.16821	0.201634	-0.243308	0.619376	0.504469
0.428176	0.150957	0.188142	-0.321244	-0.445815	-0.501214	0.444211	0.445951	-0.332624	0.287374	0.287173	-0.445564	0.514641	-0.316069	-0.387413	-0.433805	-0.561554	-0.236438	0.353159	-0.39447	-0.491061	0.198749	-0.5356	-0.303762	0.573843	0.324525	0.29381	0.303039	0.32466	-0.299767	0.418336	0.523433
0.398796	0.590795	0.560153	-0.421812	-0.228485	-0.420517	0.24436	0.208624	-0.308776	0.495663	0.617202	-0.457594	0.21246	-0.172321	-0.467473	-0.488296	-0.292587	-0.175541	0.167153	-0.457511	-0.197889	0.343645	-0.44611	-0.436004	0.475776	0.313671	0.480408	0.412878	0.52829	-0.159737	0.255193	0.312982
0.555812	0.0944634	0.382462	-0.154852	-0.168785	-0.137505	0.23972	0.232206	-0.142452	0.406237	0.415111	-0.356263	0.0763951	-0.203792	-0.302693	-0.414362	-0.346491	-0.133074	0.179323	-0.425922	-0.211088	0.350512	-0.668567	-0.298185	0.39827	0.284006	0.438363	0.236923	0.399544	-0.246006	0.322462	0.326377
0.406762	0.408777	0.598529	-0.591869	-0.395896	-0.589428	0.239189	0.287583	-0.529913	0.569049	0.418708	-0.484793	0.414837	-0.491922	-0.298297	-0.157372	-0.489029	-0.414147	0.4036	-0.578757	-0.239856	0.307362	-0.597213	-0.484105	0.302267	0.537709	0.348189	0.384959	0.584322	-0.322599	0.363437	0.562684
0.438061	0.296572	0.36879	-0.43021	-0.340683	-0.357585	0.283371	0.232123	-0.469175	0.341383	0.183077	-0.264667	0.507834	-0.44515	-0.261891	-0.256447	-0.5313	-0.15941	0.331756	-0.415099	-0.269099	0.291908	-0.527779	-0.49912	0.357316	0.445404	0.263883	0.232247	0.497092	-0.298561	0.539286	0.574312
0.589216	0.468152	0.354743	-0.36694	-0.349423	-0.299822	0.496569	0.540996	-0.440356	0.29194	0.343235	-0.506806	0.410958	-0.388229	-0.348271	-0.443255	-0.498836	-0.241391	0.419794	-0.436699	-0.385259	0.42662	-0.282876	-0.17565	0.460366	0.520454	0.374772	0.327472	0.344	-0.515295	0.530151	0.202708
0.354515	0.214074	0.291073	-0.566939	-0.268648	-0.326861	0.273136	0.378723	-0.61035	0.275606	0.295156	-0.229563	0.416593	-0.430266	-0.273224	-0.310311	-0.616964	-0.304182	0.45506	-0.571614	-0.549184	0.213771	-0.511828	-0.535949	0.290046	0.486178	0.376079	0.377979	0.559757	-0.366342	0.596764	0.710127
0.471153	0.671798	0.24787	-0.31269	-0.456798	-0.319933	0.564234	0.536213	-0.460789	0.264381	0.418248	-0.530515	0.513669	-0.4133	-0.570529	-0.47875	-0.517792	-0.404102	0.609837	-0.287559	-0.395998	0.416023	-0.153743	-0.48874	0.58703	0.55461	0.263386	0.357084	0.390822	-0.445706	0.472329	0.194661
0.34692	0.490614	0.347014	-0.548583	-0.441229	-0.492599	0.397161	0.350657	-0.366143	0.47842	0.618761	-0.438032	0.356653	-0.456577	-0.489426	-0.395817	-0.472107	-0.339069	0.435391	-0.377202	-0.338447	0.369975	-0.481585	-0.396446	0.424234	0.483557	0.443413	0.564942	0.54548	-0.32486	0.401308	0.437033
0.532457	-0.0976437	0.319061	-0.158126	-0.375445	-0.17471	0.288404	0.417659	-0.457996	0.221365	0.334144	-0.269528	0.468148	-0.585187	-0.276402	-0.335532	-0.48257	-0.196155	0.365092	-0.320663	-0.269902	0.341536	-0.131513	-0.433734	0.346395	0.133068	0.232767	0.127342	0.137378	-0.125818	0.548809	0.57038
0.1227	0.301233	0.116244	-0.451684	-0.339917	-0.131569	0.500247	0.47149	-0.442901	0.0642841	0.399031	-0.239117	0.113186	0.0314639	-0.342217	-0.265933	0.0250663	-0.306879	0.336511	-0.122164	-0.378198	0.186803	-0.111458	-0.403041	0.282802	0.297494	0.365827	0.233639	0.222597	-0.45009	0.0386408	-0.33253
0.533355	0.40872	0.348767	-0.270981	-0.249633	-0.185446	0.485321	0.485356	-0.359954	0.364697	0.443206	-0.291664	0.40577	-0.22195	-0.450704	-0.544568	-0.347773	-0.395706	0.372822	-0.396188	-0.623104	0.368718	-0.394809	-0.280888	0.527877	0.385187	0.307565	0.395333	0.243323	-0.517909	0.433493	0.226391
0.440328	-0.115309	0.121368	-0.372718	0.0319904	-0.135301	0.387723	0.463175	-0.357626	0.0596075	0.393296	-0.258014	0.389154	0.106535	-0.461773	-0.426339	-0.3786	0.0637659	0.374918	-0.0633595	-0.464407	0.224048	0.103818	-0.270363	0.335367	0.393472	0.162087	0.240544	0.0793303	-0.372955	0.464093	-0.00393381
0.296818	0.501684	0.408542	-0.287678	-0.406166	-0.554395	0.41333	0.574192	-0.384289	0.437195	0.515938	-0.465515	0.301645	-0.424947	-0.39723	-0.423908	-0.396633	-0.640269	0.318261	-0.363619	-0.384073	0.436216	-0.254753	-0.288943	0.331587	0.236704	0.564112	0.533884	0.367655	-0.514045	0.360918	0.175011
0.471705	-0.0427021	0.142474	-0.0851197	-0.16178	-0.0828337	0.326759	0.409618	-0.421411	0.0158607	0.458754	-0.180488	0.308647	-0.242076	-0.257302	-0.446644	-0.576184	-0.106854	0.224698	-0.412054	-0.242777	0.349907	-0.306641	-0.285732	0.365964	0.302806	0.241167	0.282167	0.268533	-0.248731	0.540563	0.427287
0.38272	0.452018	0.251833	-0.385855	-0.41603	-0.310925	0.504884	0.530897	-0.489568	0.295921	0.506917	-0.478671	0.483884	-0.348614	-0.493799	-0.528859	-0.290824	-0.606502	0.470783	-0.300556	-0.448403	0.331255	-0.253564	-0.389331	0.577449	0.537891	0.537124	0.442143	0.26899	-0.538002	0.40831	0.30459
0.394355	0.28165	0.259796	-0.514719	-0.61802	-0.205518	0.4467	0.518743	-0.502386	0.202723	0.387894	-0.517247	0.589278	-0.520487	-0.375096	-0.518397	-0.393968	-0.450526	0.603486	-0.332404	-0.518319	0.449753	-0.0496103	-0.536968	0.537313	0.431997	0.286307	0.31559	0.211819	-0.428345	0.528999	0.418615
0.46415	0.534418	0.398776	-0.483624	-0.425183	-0.455022	0.525552	0.529549	-0.382356	0.388843	0.522472	-0.542512	0.48602	-0.571276	-0.452787	-0.408171	-0.537114	-0.477261	0.441056	-0.549651	-0.55313	0.296355	-0.41356	-0.26648	0.405746	0.497007	0.485408	0.655567	0.492362	-0.609703	0.40332	0.426071
0.517364	0.210033	0.505534	-0.40824	-0.400731	-0.301656	0.191736	0.311559	-0.316793	0.451801	0.273457	-0.421916	0.459128	-0.568317	-0.269406	-0.319714	-0.410009	-0.288133	0.501571	-0.524394	-0.396698	0.573097	-0.479505	-0.506359	0.293709	0.287561	0.2516	0.357857	0.504162	-0.292852	0.353588	0.610911
0.418847	0.105964	0.138406	-0.287729	-0.219158	-0.179869	0.49123	0.600768	-0.555069	0.185604	0.346838	-0.30663	0.463649	-0.299974	-0.34255	-0.343397	-0.356817	-0.200824	0.367751	-0.22896	-0.309446	0.420704	-0.249417	-0.298821	0.37189	0.449977	0.150533	0.343087	0.253325	-0.572547	0.481213	0.349453
0.116371	0.59077	0.416904	-0.400419	-0.28222	-0.669074	0.196307	0.137412	-0.2771	0.552816	0.342679	-0.473838	0.153531	-0.454203	-0.160854	-0.235444	-0.31147	-0.206046	0.257461	-0.548749	-0.0728563	0.1335	-0.614918	-0.236116	0.234629	0.183894	0.484271	0.357231	0.512437	-0.221121	0.194328	0.531551
0.527287	0.185055	0.558754	-0.357216	-0.267768	-0.312584	0.227225	0.227912	-0.325724	0.459324	0.200744	-0.239802	0.437618	-0.559128	-0.212247	-0.393444	-0.676304	-0.129429	0.286641	-0.552062	-0.320957	0.307212	-0.517797	-0.624541	0.313092	0.435788	0.346965	0.261052	0.505278	-0.167421	0.565815	0.624366
0.52169	0.486261	0.470451	-0.575037	-0.448715	-0.386261	0.501015	0.23206	-0.394755	0.537536	0.566722	-0.320342	0.484834	-0.463267	-0.386404	-0.273638	-0.599694	-0.29206	0.369547	-0.513704	-0.343443	0.394773	-0.499863	-0.464527	0.327171	0.533697	0.381958	0.421382	0.612906	-0.318491	0.496971	0.442997
0.557664	0.235526	0.346998	-0.479568	-0.502887	-0.327164	0.432626	0.327066	-0.586043	0.403609	0.377585	-0.457223	0.675358	-0.571461	-0.314549	-0.383397	-0.612294	-0.26235	0.527826	-0.61426	-0.359556	0.279845	-0.372165	-0.424508	0.372224	0.619176	0.295555	0.27847	0.453139	-0.385047	0.506573	0.587323
0.173799	0.284963	0.222011	-0.360181	-0.34938	-0.191665	0.555092	0.58786	-0.479922	0.17902	0.493798	-0.338328	0.325873	-0.336613	-0.346344	-0.327701	-0.267897	-0.532683	0.564138	-0.238273	-0.366793	0.150524	-0.11851	-0.199783	0.550605	0.437218	0.268051	0.242998	0.146998	-0.462308	0.282448	0.257697
0.39688	0.492657	0.509098	-0.41398	-0.440411	-0.433675	0.398393	0.418151	-0.401739	0.47047	0.631675	-0.488725	0.394332	-0.542601	-0.42404	-0.336498	-0.348209	-0.59817	0.399397	-0.492952	-0.534329	0.499235	-0.355352	-0.273518	0.244879	0.322612	0.504825	0.525164	0.563609	-0.586239	0.406898	0.407886
0.493119	0.397445	0.247874	-0.357457	-0.320439	-0.177885	0.641177	0.59764	-0.461475	0.195217	0.45478	-0.268431	0.469751	-0.196795	-0.575397	-0.448056	-0.357133	-0.353752	0.462349	-0.119077	-0.546934	0.494455	-0.267804	-0.310915	0.524324	0.353596	0.238238	0.422345	0.212242	-0.530976	0.384705	0.373137
0.676548	0.471224	0.251414	-0.377998	-0.431834	-0.323257	0.642862	0.398269	-0.382233	0.0753328	0.529913	-0.317945	0.602694	-0.34229	-0.571417	-0.487591	-0.417801	-0.30514	0.44396	-0.196115	-0.44255	0.363914	0.0530845	-0.337466	0.668619	0.336131	0.182706	0.482683	0.251127	-0.437255	0.544718	0.123232
0.203515	0.523913	0.405164	-0.310359	-0.37484	-0.487356	0.252097	0.470251	-0.281862	0.499925	0.473461	-0.462723	0.420371	-0.363351	-0.41721	-0.369531	-0.269356	-0.619735	0.196231	-0.258995	-0.388177	0.348146	-0.244617	-0.183281	0.300347	0.282265	0.415341	0.454984	0.239606	-0.385894	0.212199	0.366574
0.389897	0.0400333	0.287974	-0.332233	-0.298286	-0.22073	0.187294	0.314751	-0.435699	0.394622	0.219592	-0.344787	0.359355	-0.335597	-0.367682	-0.383648	-0.27879	-0.428214	0.434698	-0.254038	-0.266059	0.401451	-0.403894	-0.468076	0.256599	0.321877	0.281694	0.313964	0.330355	-0.377433	0.474959	0.524558
0.269224	0.25129	0.450944	-0.456297	-0.462953	-0.422697	0.454916	0.289371	-0.37687	0.405975	0.471987	-0.394984	0.431043	-0.32019	-0.591963	-0.453253	-0.213656	-0.495523	0.565376	-0.228623	-0.461119	0.247654	-0.102438	-0.356031	0.56871	0.372634	0.642544	0.300618	0.332465	-0.507589	0.310941	0.320436
0.476715	0.187067	0.449884	-0.512266	-0.373951	-0.498993	0.437598	0.380761	-0.361079	0.466423	0.310718	-0.332991	0.485067	-0.471341	-0.316723	-0.357448	-0.448254	-0.300702	0.418234	-0.474674	-0.302223	0.456304	-0.475348	-0.451551	0.365646	0.456128	0.351668	0.266345	0.551911	-0.390622	0.375995	0.705394
0.318576	0.431778	0.440634	-0.397319	-0.561656	-0.588413	0.459355	0.505056	-0.401686	0.390854	0.628945	-0.532798	0.439703	-0.522051	-0.507066	-0.553018	-0.379294	-0.532224	0.559707	-0.42848	-0.436867	0.450217	-0.460717	-0.435566	0.462135	0.491129	0.525805	0.502596	0.529409	-0.413805	0.495767	0.43212
0.246507	0.608759	0.494945	-0.330364	-0.446071	-0.497581	0.387903	0.347281	-0.340508	0.375316	0.391594	-0.327423	0.331539	-0.460175	-0.502964	-0.333574	-0.328252	-0.535985	0.378548	-0.357028	-0.507623	0.428317	-0.37445	-0.37974	0.342738	0.385155	0.354836	0.606307	0.436714	-0.498714	0.306792	0.456951
0.521691	0.45806	0.286675	-0.228806	-0.402581	-0.30347	0.635984	0.601295	-0.498876	0.274588	0.488537	-0.430146	0.453897	-0.294123	-0.518686	-0.481032	-0.410837	-0.36291	0.417041	-0.224673	-0.371998	0.337558	-0.336646	-0.338472	0.612247	0.410707	0.394357	0.482842	0.257863	-0.550931	0.464122	0.193583
0.44917	0.585811	0.307901	-0.537936	-0.630626	-0.386379	0.508083	0.281014	-0.563845	0.400309	0.576629	-0.415889	0.48879	-0.103225	-0.516258	-0.416741	-0.339895	-0.522385	0.526471	-0.35892	-0.374067	0.451868	-0.325497	-0.551402	0.513567	0.367589	0.602906	0.303739	0.370721	-0.454142	0.441365	0.141116
0.449176	0.244351	0.233359	-0.358277	-0.226592	-0.17306	0.61906	0.568316	-0.518155	0.155214	0.374666	-0.26815	0.50379	-0.262931	-0.50634	-0.32776	-0.229115	-0.434793	0.253958	-0.253167	-0.387232	0.290629	-0.174056	-0.320008	0.533339	0.424952	0.201217	0.460385	0.216515	-0.61682	0.460891	0.202129
0.262253	0.26176	0.281232	-0.346049	-0.375994	-0.176129	0.520427	0.37294	-0.132006	0.366159	0.455454	-0.431889	0.391071	-0.299149	-0.352244	-0.571076	-0.131398	-0.492852	0.332425	-0.252252	-0.406522	0.356881	-0.251407	-0.290058	0.558944	0.346953	0.441641	0.284413	0.305754	-0.410535	0.303817	0.217302
0.577297	0.359875	0.220927	-0.231335	-0.556087	-0.113764	0.558368	0.567224	-0.501992	0.145037	0.375421	-0.1791	0.588664	-0.290811	-0.511504	-0.49261	-0.483395	-0.288431	0.413011	-0.219735	-0.472639	0.402406	-0.361694	-0.604981	0.679644	0.466655	0.303131	0.169669	0.0821155	-0.427519	0.491556	0.348602
0.392955	0.598248	0.381244	-0.276186	-0.3833	-0.561067	0.28812	0.569328	-0.336509	0.508155	0.561269	-0.52465	0.562563	-0.430049	-0.34802	-0.484275	-0.337892	-0.503614	0.396658	-0.228882	-0.507908	0.477609	-0.240275	-0.383905	0.23845	0.214679	0.37043	0.498954	0.179373	-0.217998	0.487887	0.356802
0.395357	0.281478	0.219144	-0.327519	-0.40863	-0.270369	0.476721	0.379882	-0.403524	0.284631	0.402674	-0.40116	0.32944	-0.253692	-0.569825	-0.356277	-0.290261	-0.339922	0.380327	-0.232688	-0.29097	0.269844	-0.186782	-0.459596	0.507995	0.386122	0.492193	0.40797	0.300776	-0.510987	0.403804	0.259215
0.531136	0.461842	0.322876	-0.325909	-0.492155	-0.300434	0.594339	0.613359	-0.376175	0.293131	0.457189	-0.461935	0.529378	-0.432082	-0.565078	-0.57594	-0.389535	-0.353693	0.467665	-0.351397	-0.582936	0.412844	-0.20019	-0.343943	0.546141	0.401437	0.472728	0.457188	0.280275	-0.55107	0.498751	0.306526
0.318921	0.335096	0.504226	-0.436743	-0.314174	-0.35228	0.340461	0.219292	-0.406885	0.271973	0.283979	-0.212719	0.172886	-0.139223	-0.319019	-0.251169	-0.540936	-0.266501	0.413976	-0.500239	-0.388222	0.288821	-0.791718	-0.540817	0.258587	0.538173	0.516832	0.519438	0.450651	-0.0859037	0.461776	0.471095
0.252942	0.491467	0.312865	-0.561779	-0.598679	-0.459353	0.57648	0.360294	-0.555402	0.201047	0.61919	-0.371625	0.362796	-0.233529	-0.622024	-0.483868	-0.287417	-0.529128	0.543087	-0.356869	-0.491212	0.314795	-0.303262	-0.190776	0.543944	0.486044	0.501553	0.35514	0.278826	-0.523459	0.21428	0.151691
0.423054	0.368051	0.276762	-0.197612	-0.485303	-0.443878	0.491343	0.619983	-0.283778	0.593569	0.505168	-0.596594	0.556328	-0.454946	-0.322304	-0.341256	-0.215799	-0.559365	0.352941	-0.160709	-0.483789	0.516418	-0.454737	-0.295925	0.47583	0.318703	0.241435	0.605189	0.229209	-0.471069	0.391297	0.368663
0.284066	0.336979	0.492707	-0.411242	-0.424857	-0.550851	0.363125	0.423895	-0.496555	0.49831	0.266832	-0.495442	0.41515	-0.463699	-0.325867	-0.423416	-0.489521	-0.430695	0.374081	-0.430403	-0.438523	0.41003	-0.650829	-0.360987	0.270464	0.503316	0.461323	0.506712	0.41213	-0.541472	0.24974	0.577575
0.208794	0.585193	0.356291	-0.42983	-0.406163	-0.634104	0.251098	0.383129	-0.534311	0.44968	0.440149	-0.510534	0.441261	-0.502347	-0.267737	-0.184954	-0.19503	-0.557384	0.340966	-0.221826	-0.268286	0.248166	-0.450185	-0.204669	0.226168	0.409847	0.298977	0.463239	0.255674	-0.332068	0.262866	0.250083
0.517822	0.392081	0.264444	-0.393623	-0.530773	-0.271975	0.59412	0.612337	-0.47331	0.235444	0.558981	-0.407988	0.5725	-0.300948	-0.475241	-0.578157	-0.188684	-0.568296	0.53563	-0.231249	-0.555945	0.451879	-0.242379	-0.484824	0.509239	0.479497	0.41617	0.217662	0.281434	-0.584194	0.529858	0.335863
0.460416	0.605219	0.48258	-0.299851	-0.376634	-0.465015	0.515737	0.306342	-0.440485	0.340782	0.43415	-0.282081	0.457744	-0.404075	-0.541577	-0.296571	-0.416532	-0.392123	0.415553	-0.438132	-0.374335	0.508248	-0.325846	-0.576748	0.537782	0.515192	0.401161	0.421478	0.479266	-0.351188	0.414829	0.2932
0.462964	0.380725	0.372099	-0.405953	-0.340578	-0.14141	0.379662	0.461097	-0.550847	0.25722	0.346965	-0.27924	0.519183	-0.271229	-0.538472	-0.334269	-0.314468	-0.245982	0.320369	-0.30192	-0.361572	0.394601	-0.249795	-0.416379	0.495721	0.53233	0.226903	0.302541	0.188575	-0.247164	0.482534	0.353415
0.349119	0.0735724	0.561602	-0.359208	-0.231261	-0.195934	0.355927	0.263067	-0.490081	0.553734	0.29331	-0.379057	0.446355	-0.170727	-0.250706	-0.388996	-0.482698	-0.313427	0.456572	-0.533602	-0.489019	0.336293	-0.638209	-0.540712	0.222611	0.718608	0.692577	0.458566	0.604401	-0.280137	0.454851	0.634269
0.429067	0.301961	0.302605	-0.288265	-0.302343	-0.286886	0.474452	0.436089	-0.252141	0.371691	0.307639	-0.403308	0.447306	-0.246076	-0.33009	-0.341431	-0.36594	-0.270737	0.476842	-0.332877	-0.53907	0.464555	-0.0380284	-0.471858	0.437769	0.401088	0.271725	0.348062	0.211953	-0.404502	0.345701	0.318277
0.341184	0.368997	0.379711	-0.521621	-0.374065	-0.549311	0.426415	0.495029	-0.319624	0.555547	0.627016	-0.451725	0.500182	-0.4423	-0.302461	-0.387415	-0.317379	-0.599307	0.465717	-0.38092	-0.31529	0.371039	-0.24463	-0.354458	0.436671	0.486648	0.398978	0.501966	0.244755	-0.353796	0.454412	0.280367
0.180579	0.373948	0.351778	0.0530927	-0.361913	-0.570876	0.278117	0.323042	-0.0182257	0.465011	0.380129	-0.185953	0.132902	-0.390824	-0.384115	-0.285703	-0.178709	-0.284228	0.204409	-0.119504	-0.283571	0.414338	-0.623915	-0.273284	0.192778	0.160625	0.388397	0.533626	0.348652	-0.206358	0.240131	0.105282
0.401747	0.337035	0.479617	-0.57293	-0.496551	-0.427007	0.615873	0.557527	-0.551754	0.404462	0.382787	-0.485285	0.4843	-0.494019	-0.415668	-0.417441	-0.398356	-0.464743	0.479328	-0.430024	-0.476222	0.494541	-0.121275	-0.289229	0.514769	0.504302	0.488745	0.395938	0.326495	-0.584027	0.304353	0.293978
0.461003	0.371022	0.389974	-0.338691	-0.292567	-0.490401	0.365224	0.532466	-0.310162	0.554162	0.371533	-0.552961	0.463327	-0.474152	-0.409643	-0.479874	-0.472378	-0.441291	0.359109	-0.414874	-0.4397	0.451795	-0.47804	-0.478531	0.371735	0.437899	0.38485	0.439747	0.350993	-0.536058	0.44732	0.313297
0.413598	0.171597	0.296329	-0.400827	-0.286485	-0.106646	0.342972	0.368258	-0.374102	0.346907	0.301333	-0.401415	0.509288	-0.0433427	-0.578964	-0.428432	-0.189113	-0.425764	0.460067	-0.413478	-0.385516	0.384083	-0.625482	-0.376031	0.442937	0.370435	0.56222	0.341661	0.509502	-0.391829	0.341515	0.678174
0.304007	0.103961	0.349763	-0.458749	-0.275715	-0.37313	0.147535	0.282519	-0.297595	0.355483	0.243275	-0.452327	0.431073	-0.353598	-0.236096	-0.302852	-0.264403	-0.421346	0.486176	-0.284601	-0.377966	0.393876	-0.568081	-0.26031	0.233954	0.336793	0.188545	0.337179	0.419033	-0.264129	0.378357	0.700469
0.376188	0.228496	0.494874	-0.497893	-0.503916	-0.395059	0.324605	0.63012	-0.508731	0.450527	0.444307	-0.505852	0.304418	-0.375612	-0.366748	-0.513516	-0.535818	-0.592514	0.396997	-0.534046	-0.456541	0.443086	-0.498271	-0.263852	0.380859	0.542169	0.461488	0.381639	0.350066	-0.540175	0.394071	0.353279
0.314606	0.606577	0.344231	-0.45163	-0.44975	-0.382605	0.452242	0.369492	-0.485081	0.370541	0.546548	-0.435381	0.302155	-0.386968	-0.520564	-0.46343	-0.288261	-0.480812	0.457676	-0.325376	-0.3387	0.417615	-0.235052	-0.399516	0.530077	0.420659	0.428926	0.267482	0.347605	-0.511097	0.242012	0.182868
0.388922	0.1753	0.285614	-0.357537	-0.205543	-0.213511	0.255281	0.394989	-0.471706	0.271086	0.203672	-0.245384	0.239238	-0.174316	-0.159008	-0.229413	-0.542266	-0.246301	0.400692	-0.478451	-0.435487	0.262804	-0.544882	-0.496442	0.211171	0.46362	0.434393	0.44068	0.449239	-0.186923	0.483656	0.536798
0.510908	0.27882	0.415549	-0.352262	-0.52379	-0.373331	0.294164	0.420825	-0.511853	0.381441	0.309812	-0.377591	0.552426	-0.36045	-0.380165	-0.504661	-0.590664	-0.411455	0.565131	-0.531105	-0.455123	0.475861	-0.417432	-0.515773	0.290021	0.482577	0.34504	0.365936	0.379399	-0.390548	0.549404	0.470561
0.35539	0.418066	0.421809	-0.281061	-0.289126	-0.472644	0.512103	0.282745	-0.273584	0.492744	0.349475	-0.44742	0.417213	-0.415132	-0.385428	-0.335715	-0.326797	-0.400639	0.482354	-0.304792	-0.427509	0.414247	-0.378965	-0.492945	0.370989	0.466401	0.449992	0.420461	0.397484	-0.403635	0.345991	0.480392
0.212547	0.277632	0.360786	-0.376532	-0.522465	-0.296657	0.501466	0.392658	-0.577559	0.214312	0.517003	-0.48981	0.221702	-0.195548	-0.569457	-0.376454	-0.208684	-0.55887	0.565512	-0.269245	-0.350638	0.297521	-0.131658	-0.368539	0.53885	0.485714	0.506026	0.332755	0.20195	-0.576726	0.281047	0.14098
0.412693	0.446676	0.213245	-0.58434	-0.437596	-0.183585	0.566762	0.64686	-0.392259	0.284461	0.600558	-0.554621	0.438647	-0.380681	-0.506703	-0.598195	-0.405112	-0.585729	0.605851	-0.399776	-0.495879	0.507761	-0.267762	-0.140194	0.520693	0.522689	0.582034	0.341451	0.171071	-0.557357	0.202718	0.178073
0.548284	0.367235	0.367528	-0.624995	-0.297697	-0.259439	0.360715	0.307207	-0.475782	0.379099	0.456658	-0.401995	0.378633	-0.303391	-0.476039	-0.337213	-0.610044	-0.36108	0.332566	-0.567092	-0.272871	0.344867	-0.708629	-0.551063	0.301492	0.61384	0.545237	0.395952	0.503151	-0.279361	0.456116	0.528451
0.368222	0.0570911	0.400345	-0.448827	-0.47333	-0.188817	0.555749	0.370209	-0.44585	0.432782	0.502338	-0.371078	0.218681	-0.440274	-0.466537	-0.468206	-0.16252	-0.476315	0.330591	-0.237861	-0.358712	0.361096	-0.493102	-0.221592	0.547325	0.369067	0.298489	0.265287	0.268721	-0.510252	0.314862	0.519178
0.279238	0.455942	0.209863	-0.536211	-0.37075	-0.638741	0.302709	0.444147	-0.420618	0.451612	0.483917	-0.549139	0.389343	-0.552376	-0.304423	-0.231454	-0.447279	-0.574629	0.373592	-0.427237	-0.398557	0.331348	-0.317568	-0.326135	0.197658	0.559207	0.532934	0.442733	0.628708	-0.585231	0.442806	0.393752
0.224953	0.570639	0.421214	-0.623529	-0.390813	-0.384931	0.500498	0.592661	-0.445099	0.268006	0.559289	-0.356821	0.295752	-0.299167	-0.557456	-0.358715	-0.220644	-0.71387	0.487475	-0.247363	-0.325325	0.503327	-0.292883	-0.389423	0.503239	0.413228	0.498221	0.334614	0.26693	-0.496089	0.249361	0.32087
0.413881	0.380493	0.287728	-0.381445	-0.306511	-0.294462	0.255744	0.360144	-0.396095	0.409038	0.204297	-0.249501	0.253895	-0.148315	-0.247362	-0.305417	-0.593982	-0.306569	0.340644	-0.515271	-0.383135	0.299139	-0.472797	-0.546654	0.292981	0.524311	0.30027	0.488331	0.546604	-0.250115	0.524444	0.430259
0.347324	0.253769	0.40586	-0.547169	-0.451793	-0.43576	0.393122	0.272037	-0.403116	0.467101	0.441388	-0.530249	0.376874	-0.49727	-0.277414	-0.278042	-0.330961	-0.31719	0.441819	-0.437459	-0.31823	0.32736	-0.555242	-0.395211	0.289443	0.322475	0.461624	0.394697	0.613728	-0.52171	0.326282	0.453293
0.363882	0.558828	0.262733	-0.270183	-0.505896	-0.32139	0.562811	0.552539	-0.459499	0.268857	0.477314	-0.47376	0.30608	-0.329391	-0.504497	-0.23816	-0.194963	-0.391458	0.413435	-0.301631	-0.441179	0.230374	-0.149077	-0.212384	0.514224	0.444593	0.346923	0.345123	0.220128	-0.446429	0.214363	0.283743
0.526669	0.432779	0.320897	-0.279277	-0.565334	-0.30029	0.58187	0.509203	-0.566032	0.272417	0.36803	-0.279565	0.603272	-0.401949	-0.602233	-0.346386	-0.3185	-0.370954	0.60665	-0.308749	-0.431208	0.410726	-0.250103	-0.602713	0.564699	0.473654	0.245728	0.380822	0.351571	-0.381752	0.561782	0.373447
0.382554	0.103208	0.362108	-0.324573	-0.157517	-0.247131	0.282772	0.340987	-0.193048	0.292704	0.266465	-0.147779	0.152379	-0.0383822	-0.334526	-0.49518	-0.404997	-0.333948	0.117034	-0.0334187	-0.461637	0.329491	-0.490277	-0.274616	0.173554	0.169371	0.394442	0.239226	0.203079	-0.220135	0.33939	0.252231
0.267282	0.439847	0.534677	-0.282382	-0.390456	-0.505085	0.47815	0.30518	-0.522118	0.504872	0.38438	-0.341428	0.38448	-0.258868	-0.427173	-0.223045	-0.494721	-0.546652	0.435952	-0.151484	-0.320129	0.420023	-0.525591	-0.232939	0.39273	0.6184	0.506059	0.555566	0.379665	-0.492332	0.418216	0.299344
0.216078	0.513071	0.280919	-0.349872	-0.463231	-0.466241	0.183595	0.256807	-0.313	0.402221	0.355021	-0.32167	0.156678	-0.401898	-0.266793	-0.201281	-0.245696	-0.316395	0.20378	-0.296329	-0.233366	0.256605	-0.442477	-0.416861	0.278429	0.347483	0.385133	0.46941	0.4062	-0.230008	0.247424	0.458923
0.395707	0.528147	0.405866	-0.303003	-0.45653	-0.583882	0.390785	0.620139	-0.395429	0.437879	0.47931	-0.571668	0.337429	-0.344378	-0.455314	-0.514264	-0.457266	-0.517495	0.565932	-0.322277	-0.518072	0.582979	-0.342146	-0.387975	0.360086	0.389628	0.581133	0.550657	0.506411	-0.36436	0.463297	0.225591
0.438289	0.25217	0.298629	-0.145613	-0.162789	-0.168773	0.509054	0.524762	-0.381331	0.34044	0.443544	-0.417077	0.418151	-0.236159	-0.472126	-0.424574	-0.28837	-0.150024	0.319906	-0.271647	-0.508414	0.309036	-0.394805	-0.33902	0.603072	0.351221	0.42904	0.447874	0.26192	-0.592666	0.375186	0.208053
0.307009	0.384623	0.264032	-0.286476	-0.252675	-0.397882	0.499864	0.452621	-0.334749	0.42514	0.406687	-0.48522	0.419189	-0.340007	-0.450346	-0.417737	-0.540616	-0.453534	0.445322	-0.27207	-0.432446	0.471313	-0.327506	-0.319573	0.307999	0.288615	0.478436	0.497529	0.29945	-0.498558	0.338176	0.386075
0.560809	0.526821	0.454286	-0.540676	-0.278014	-0.306276	0.43159	0.235522	-0.38089	0.606538	0.682549	-0.317384	0.310826	-0.246137	-0.419027	-0.347685	-0.564723	-0.242937	0.353055	-0.585606	-0.296738	0.367517	-0.56928	-0.643725	0.432884	0.528243	0.542649	0.392095	0.52988	-0.285189	0.525852	0.394576
0.315648	0.318293	0.545772	-0.400324	-0.445774	-0.551043	0.391777	0.343498	-0.459524	0.543725	0.35946	-0.459421	0.367879	-0.342378	-0.401269	-0.370619	-0.479656	-0.418818	0.470153	-0.523638	-0.512892	0.350603	-0.459575	-0.373213	0.287437	0.602249	0.553974	0.543711	0.474503	-0.535104	0.290843	0.471061
0.526204	0.286659	0.317877	-0.46342	-0.225386	-0.356582	0.522071	0.434435	-0.550981	0.337804	0.408361	-0.22034	0.600989	-0.506054	-0.359271	-0.41604	-0.61166	-0.330711	0.426798	-0.261596	-0.247927	0.416801	-0.493438	-0.426041	0.455318	0.47971	0.29758	0.296929	0.515893	-0.373663	0.680318	0.54448
0.342169	0.199358	0.507881	-0.516302	-0.468918	-0.34023	0.223775	0.361959	-0.506277	0.458634	0.258393	-0.260261	0.549422	-0.398634	-0.30001	-0.241382	-0.289075	-0.407016	0.435008	-0.513146	-0.511408	0.444572	-0.437816	-0.489956	0.225356	0.432191	0.379322	0.249016	0.485924	-0.296351	0.368218	0.535442
0.237503	0.159165	0.216851	-0.271134	-0.436446	-0.176827	0.510841	0.535939	-0.219265	0.310633	0.277431	-0.404753	0.311807	-0.514266	-0.271687	-0.375038	-0.353942	-0.588238	0.450547	-0.172808	-0.47885	0.326901	-0.208843	-0.29517	0.525502	0.328308	0.361424	0.230624	0.309942	-0.316724	0.202052	0.291316
0.453685	0.617887	0.21342	-0.379994	-0.376857	-0.561833	0.366551	0.48059	-0.269861	0.457273	0.700974	-0.525681	0.487614	-0.423877	-0.49818	-0.538596	-0.297415	-0.536229	0.348849	-0.284694	-0.316568	0.481097	-0.164497	-0.292482	0.320291	0.395897	0.373489	0.545724	0.318405	-0.543174	0.375861	0.104571
0.492923	0.253329	0.341874	-0.280371	-0.490722	-0.303959	0.361257	0.495391	-0.496147	0.235693	0.48455	-0.319515	0.431735	-0.38749	-0.55491	-0.367089	-0.465486	-0.249293	0.510188	-0.384339	-0.544704	0.459331	-0.449419	-0.297245	0.514479	0.401069	0.416026	0.493286	0.406831	-0.472249	0.449669	0.476979
0.43082	0.384272	0.251987	-0.20298	-0.296013	-0.149342	0.266913	0.519692	-0.472466	0.330158	0.326815	-0.299345	0.381988	-0.128208	-0.519117	-0.407678	-0.328313	-0.361589	0.401458	-0.174564	-0.295752	0.425757	-0.282214	-0.279326	0.413399	0.405745	0.263633	0.432176	0.231866	-0.457315	0.439085	0.289561
0.426388	0.115951	0.49105	-0.489953	-0.237633	-0.262341	0.412736	0.173684	-0.286858	0.317346	0.452432	-0.301833	0.189532	-0.219765	-0.325527	-0.357581	-0.465272	-0.184008	0.166848	-0.513282	-0.137895	0.368103	-0.48795	-0.457148	0.403175	0.338256	0.441541	0.275147	0.443139	-0.18006	0.441172	0.340246
0.203339	0.441876	0.479571	-0.366505	-0.390939	-0.606298	0.30118	0.359956	-0.163398	0.43647	0.330975	-0.497456	0.380017	-0.557885	-0.35368	-0.187002	-0.280144	-0.509456	0.352324	-0.463396	-0.410776	0.390918	-0.431204	-0.222249	0.316464	0.209089	0.488675	0.597466	0.508486	-0.306204	0.334382	0.364203
0.515776	0.603549	0.433962	-0.423705	-0.44462	-0.232113	0.491672	0.405464	-0.351445	0.358403	0.402073	-0.452529	0.525005	-0.0736199	-0.639512	-0.50687	-0.300491	-0.276788	0.492917	-0.334952	-0.50343	0.444263	-0.497735	-0.564494	0.60825	0.553309	0.337619	0.37223	0.44886	-0.492337	0.540581	0.0882642
0.354031	0.541294	0.474878	-0.527567	-0.50524	-0.580872	0.510714	0.522694	-0.361145	0.512551	0.351331	-0.493522	0.452355	-0.431754	-0.369336	-0.475135	-0.503281	-0.439263	0.542816	-0.471125	-0.466693	0.499621	-0.330374	-0.587844	0.454126	0.592583	0.563574	0.449277	0.441465	-0.521425	0.372927	0.28364
0.474997	0.510855	0.457646	-0.433211	-0.39097	-0.533986	0.32207	0.413616	-0.515657	0.447158	0.482144	-0.413843	0.351108	-0.385806	-0.316242	-0.3085	-0.428609	-0.394159	0.323123	-0.525899	-0.348935	0.534889	-0.381136	-0.482611	0.31547	0.396071	0.47717	0.479623	0.3901	-0.374257	0.427985	0.296617
0.54577	0.0325755	0.305126	-0.231288	-0.516773	-0.319442	0.365082	0.637012	-0.337431	0.336591	0.400194	-0.609457	0.37837	-0.383992	-0.518812	-0.504808	-0.547241	-0.395116	0.334589	-0.37583	-0.684638	0.245452	-0.574672	-0.326007	0.594743	0.498508	0.360307	0.453342	0.262741	-0.474276	0.491952	0.450689
0.0410696	0.718364	0.497928	-0.421794	-0.236929	-0.444457	8.00518e-06	0.142335	-0.284464	0.576335	0.190865	-0.429147	0.235526	-0.440993	-0.125799	-0.165873	-0.315043	-0.488458	0.129328	-0.320338	-0.459551	0.385718	-0.587272	-0.289918	0.112071	0.2209	0.268216	0.453838	0.572235	-0.1539	0.145941	0.569812
0.0824986	0.0783195	0.427235	-0.34992	-0.3921	-0.447728	0.0244883	0.0750199	-0.192203	0.430901	0.177633	-0.212968	0.385887	-0.286931	-0.111114	-0.161226	-0.244531	-0.451013	0.330361	-0.331154	-0.283721	0.37766	-0.34044	-0.135451	0.078314	0.0702121	0.0770213	0.3426	0.393994	-0.136115	0.215294	0.598237
0.412355	0.164811	0.447223	-0.413712	-0.404937	-0.321301	0.4476	0.385747	-0.247277	0.327215	0.516988	-0.334883	0.248144	-0.329095	-0.294079	-0.46793	-0.307136	-0.390486	0.332018	-0.37082	-0.454197	0.37878	-0.251153	-0.399433	0.533793	0.253091	0.440222	0.245068	0.377561	-0.205348	0.238838	0.263859
0.533934	0.208969	0.244689	-0.219144	-0.432795	-0.179057	0.459081	0.521002	-0.394523	0.352968	0.519387	-0.552735	0.431088	-0.352688	-0.547166	-0.400231	-0.275665	-0.352217	0.560392	-0.513966	-0.578492	0.451171	-0.330841	-0.292768	0.519525	0.361306	0.52393	0.374781	0.396002	-0.613901	0.251351	0.278996
0.554922	0.154949	0.330775	-0.434281	-0.490016	-0.141341	0.526935	0.713212	-0.492268	0.247405	0.401123	-0.280572	0.664643	-0.294043	-0.539196	-0.28978	-0.430904	-0.0858154	0.514425	-0.287398	-0.523351	0.529579	0.16714	-0.339586	0.560114	0.358488	0.287885	0.50318	0.352575	-0.479936	0.493045	0.299435
0.347971	0.315787	0.198575	-0.338898	-0.621153	-0.50601	0.368251	0.637001	-0.404776	0.184563	0.424853	-0.53533	0.599264	-0.567792	-0.341227	-0.502066	-0.603672	-0.443342	0.457025	-0.3839	-0.273304	0.454324	-0.229326	-0.509607	0.513774	0.45765	0.534952	0.444738	0.184515	-0.449818	0.379555	0.523503
0.367606	0.239798	0.375749	-0.228385	-0.411028	-0.316502	0.168499	0.373123	-0.26758	0.359617	0.235044	-0.370003	0.450203	-0.591232	-0.284671	-0.401932	-0.435996	-0.421947	0.44737	-0.387678	-0.425176	0.405804	-0.385699	-0.515864	0.287912	0.261034	0.291681	0.306569	0.295338	-0.209731	0.383853	0.502044
0.384044	0.542002	0.231001	-0.366743	-0.305811	-0.347647	0.659108	0.550409	-0.419452	0.328902	0.464127	-0.6378	0.455005	-0.445998	-0.487817	-0.419921	-0.410573	-0.516668	0.613508	-0.283979	-0.482376	0.411935	-0.192377	-0.222038	0.46188	0.465678	0.476134	0.454794	0.296146	-0.58014	0.35097	0.168446
0.449371	0.314151	0.250727	-0.0859041	-0.23739	-0.191823	0.612423	0.627988	-0.465392	0.254461	0.46856	-0.442357	0.456435	-0.281197	-0.284093	-0.414753	-0.389741	-0.422533	0.451688	-0.271975	-0.615203	0.400966	-0.274858	-0.33773	0.553653	0.47776	0.419833	0.263528	0.307834	-0.625811	0.443925	-0.0149707
0.440185	0.674388	0.456443	-0.293617	-0.302182	-0.456763	0.554709	0.48849	-0.524116	0.454373	0.416339	-0.408951	0.508094	-0.432842	-0.546123	-0.336454	-0.412212	-0.420535	0.489988	-0.321413	-0.372319	0.294254	-0.426164	-0.549176	0.382582	0.429074	0.258265	0.434898	0.430642	-0.347671	0.469106	0.231194
0.361268	0.471612	0.432686	-0.564988	-0.403442	-0.288413	0.522104	0.516725	-0.385607	0.369046	0.453554	-0.517785	0.524032	-0.337058	-0.560291	-0.408227	-0.385483	-0.539338	0.467341	-0.317084	-0.353033	0.354451	-0.489796	-0.317736	0.460568	0.581931	0.400549	0.595126	0.363543	-0.618403	0.396958	0.45991
0.452909	0.251812	0.430555	-0.391928	-0.301042	-0.261832	0.275452	0.55268	-0.446917	0.349764	0.486772	-0.360606	0.484885	-0.321795	-0.447419	-0.438623	-0.421909	-0.334121	0.355987	-0.34685	-0.435592	0.327177	-0.28159	-0.50887	0.359257	0.502336	0.436143	0.387916	0.310021	-0.421946	0.507367	0.256932
0.36338	0.314337	0.446394	-0.428679	-0.429694	-0.381053	0.415006	0.423621	-0.316492	0.718311	0.519306	-0.500297	0.263502	-0.440013	-0.370049	-0.470158	-0.387875	-0.470406	0.359365	-0.586621	-0.323705	0.168124	-0.551025	-0.219115	0.201116	0.402936	0.45334	0.444317	0.642949	-0.393693	0.320819	0.471688
0.316447	0.304935	0.318188	-0.268263	-0.231128	-0.266101	0.116377	0.136399	-0.288741	0.31649	0.226072	-0.161435	0.313075	-0.269242	-0.166427	-0.272842	-0.5176	-0.221482	0.207298	-0.453364	-0.340173	0.250831	-0.520674	-0.407351	0.190211	0.368524	0.32443	0.2901	0.405786	-0.209381	0.49336	0.53046
0.450256	0.510026	0.139	-0.140052	-0.341868	-0.118595	0.303494	0.298731	-0.211301	0.237482	0.304007	-0.30601	0.358021	-0.199197	-0.32868	-0.462012	-0.418158	-0.352651	0.301855	-0.19276	-0.481201	0.257714	-0.114803	-0.25219	0.355761	0.241954	0.170501	0.348241	0.15705	-0.381379	0.342939	0.133827
0.323197	0.28075	0.556737	-0.414553	-0.387127	-0.50369	0.41705	0.313627	-0.429856	0.490573	0.326835	-0.450191	0.272253	-0.33297	-0.323017	-0.407287	-0.527854	-0.528806	0.344095	-0.51822	-0.331531	0.40617	-0.516013	-0.251847	0.235951	0.457346	0.482027	0.304023	0.455913	-0.455664	0.296266	0.460311
0.473225	0.313837	0.563499	-0.42448	-0.235649	-0.554238	0.314433	0.294926	-0.232241	0.561991	0.48453	-0.457759	0.283698	-0.291965	-0.395242	-0.457535	-0.370251	-0.308187	0.345349	-0.532016	-0.405579	0.513856	-0.463188	-0.436521	0.372729	0.380968	0.492204	0.535527	0.518037	-0.290841	0.50908	0.453226
0.318817	0.585676	0.565133	-0.23248	-0.267447	-0.63379	0.342941	0.29312	-0.415156	0.507762	0.60162	-0.418242	0.210145	-0.386044	-0.356062	-0.31909	-0.233942	-0.306676	0.160136	-0.501476	-0.374626	0.346095	-0.726311	-0.397088	0.391633	0.297588	0.437317	0.447968	0.515097	-0.340851	0.330914	0.325806
0.514188	0.316004	0.499005	-0.352612	-0.372861	-0.312474	0.275732	0.324315	-0.408575	0.239096	0.209726	-0.23665	0.490514	-0.418527	-0.183535	-0.312134	-0.457576	-0.369543	0.383906	-0.448716	-0.398796	0.599529	-0.282317	-0.493516	0.216629	0.250266	0.241516	0.225048	0.316908	-0.23498	0.583996	0.477952
0.248016	0.285787	0.508469	-0.379463	-0.362845	-0.423898	0.332028	0.219517	-0.341484	0.495617	0.276993	-0.409011	0.330292	-0.434687	-0.189992	-0.297937	-0.360557	-0.447892	0.256498	-0.538318	-0.367104	0.355338	-0.248234	-0.251083	0.20434	0.227044	0.313754	0.476167	0.436431	-0.23571	0.266151	0.41205
0.46106	0.253633	0.657285	-0.19068	-0.439817	-0.330026	0.339544	0.437806	-0.246516	0.449295	0.59084	-0.237879	0.313584	-0.207456	-0.450972	-0.393649	-0.25521	-0.406409	0.225864	-0.220047	-0.493658	0.411661	-0.403863	-0.503482	0.602596	0.220098	0.334289	0.331534	0.28498	-0.289373	0.343134	0.258577
0.262893	0.621288	0.499965	-0.542158	-0.311786	-0.558998	0.32063	0.269992	-0.336924	0.535896	0.323854	-0.50713	0.278017	-0.632668	-0.293157	-0.242758	-0.35174	-0.375101	0.370701	-0.471078	-0.340823	0.287978	-0.444076	-0.263109	0.21967	0.237632	0.4943	0.497872	0.575477	-0.426295	0.223671	0.329522
0.597933	0.383818	0.436701	-0.460989	-0.506198	-0.321908	0.439232	0.406035	-0.461038	0.273074	0.308748	-0.489259	0.648985	-0.452803	-0.442387	-0.527053	-0.55311	-0.428739	0.535562	-0.446732	-0.378001	0.474592	-0.299299	-0.406869	0.383726	0.500327	0.362212	0.347739	0.391598	-0.432366	0.585078	0.450671
0.305176	0.13338	0.384884	-0.335096	-0.21594	-0.37218	0.074992	0.292468	-0.400024	0.278088	0.158224	-0.267139	0.131865	-0.230793	-0.354069	-0.217282	-0.472457	-0.243409	0.298343	-0.529091	-0.519462	0.0950133	-0.700217	-0.455285	0.256801	0.576353	0.51676	0.47458	0.511069	-0.331469	0.45409	0.63178
0.326887	0.460497	0.385578	-0.408937	-0.486946	-0.402649	0.530345	0.53236	-0.563574	0.238122	0.633575	-0.349639	0.284036	-0.381174	-0.560636	-0.39528	-0.364122	-0.623033	0.624691	-0.43024	-0.274441	0.363738	-0.471896	-0.453453	0.627405	0.522033	0.505497	0.349415	0.286431	-0.445859	0.250846	0.22813
0.500866	0.109239	0.284499	-0.236529	-0.36873	-0.129875	0.424919	0.47869	-0.49086	0.337009	0.3775	-0.19405	0.410591	-0.146046	-0.461661	-0.346822	-0.157254	-0.204141	0.224205	-0.20244	-0.460609	0.579593	-0.329016	-0.462507	0.601073	0.327068	0.283888	0.385309	0.212	-0.538717	0.409683	0.408607
