0.0294488	0.0283565	0.0226191	-0.0128541	-0.023728	0.0179295	-0.00697475	-0.047493	-0.00655388	-0.0303707	0.0268247	-0.0367785	0.0250337	0.021183	-0.0345923	-0.0107647	-0.010197	-0.00651209	0.0474224	-0.0167401	0.048333	-0.00864917	-0.0178962	0.0170144	-0.00935046	0.0134907	-0.0165643	-0.016703	-0.00516703	-0.0416858	0.0252176	-0.0119626
0.331842	0.291909	0.332653	-0.153939	-0.175976	-0.361295	0.4124	0.235784	-0.14681	0.356696	0.294906	-0.315172	0.509968	-0.361611	-0.368599	-0.269699	-0.3683	-0.341323	0.361261	-0.38909	-0.314575	0.333331	-0.313032	-0.486065	0.304537	0.213548	0.1558	0.34555	0.290688	-0.299064	0.31095	0.140281
0.360918	0.426661	0.554109	-0.553023	-0.410329	-0.154131	0.205721	0.165307	-0.561151	0.282985	0.375464	-0.378267	0.611394	-0.233661	-0.456638	-0.184127	-0.604528	-0.399138	0.520172	-0.485907	-0.318596	0.48002	-0.242996	-0.320358	0.210613	0.416997	0.354777	0.569589	0.215266	-0.274636	0.519893	0.702409
0.247297	0.38618	0.554784	-0.452799	-0.381634	-0.192941	0.401	0.317382	-0.42136	0.255003	0.391536	-0.4324	0.567213	-0.309757	-0.512649	-0.270173	-0.544533	-0.390885	0.425401	-0.349174	-0.314501	0.366259	-0.434757	-0.503116	0.192837	0.441361	0.384284	0.523465	0.41712	-0.481794	0.236712	0.615602
0.743382	0.23274	0.629148	-0.475752	-0.255862	-0.155255	0.726158	0.232736	-0.658745	0.395157	0.693401	-0.338229	0.448022	-0.640803	-0.350091	0.00712212	-0.542328	-0.62071	0.0833831	-0.198681	-0.222778	0.227873	-0.107345	-0.49329	0.433094	0.450409	0.410216	0.533399	0.538136	-0.376897	0.446352	0.785319
0.564016	0.379446	0.412901	-0.228748	-0.348097	-0.215155	0.538409	0.352664	-0.371264	0.39915	0.597503	-0.511014	0.32136	-0.3801	-0.240243	-0.145126	-0.450193	-0.406506	0.30095	-0.229577	-0.300512	0.333502	-0.427831	-0.334044	0.567389	0.32701	0.482388	0.402857	0.407	-0.437033	0.462394	0.314454
0.363751	0.373948	0.367346	-0.218467	-0.388448	-0.254043	0.519418	0.22576	-0.282503	0.249148	0.383314	-0.258213	0.322786	-0.364073	-0.165473	-0.26778	-0.339772	-0.397377	0.249539	-0.203299	-0.124398	0.142189	-0.444179	-0.292127	0.436923	0.267229	0.368476	0.349909	0.418467	-0.451821	0.381833	0.298641
0.389347	0.551565	0.509011	-0.474603	-0.630661	-0.195983	0.405468	0.243586	-0.615878	0.535353	0.530381	-0.310134	0.328144	-0.54857	-0.543934	-0.355314	-0.461597	-0.469816	0.0294844	-0.193339	-0.252337	0.37853	-0.369498	-0.392883	0.457431	0.702817	0.492875	0.580662	0.500298	-0.257956	0.29824	0.174214
0.430252	0.206467	0.480537	-0.234718	-0.311629	-0.319205	0.638801	0.286039	-0.256834	0.446224	0.41613	-0.603744	0.349493	-0.356744	-0.32744	-0.156259	-0.476799	-0.445475	0.477404	-0.553199	-0.104609	0.213531	-0.369118	-0.421852	0.39937	0.253184	0.461471	0.189213	0.365671	-0.524928	0.487216	0.441798
0.555328	0.172327	0.343258	-0.280715	-0.354011	-0.4732	0.503492	0.496519	-0.157737	0.455208	0.46287	-0.549932	0.31639	-0.355059	-0.190817	-0.232621	-0.255912	-0.2234	0.399072	-0.293463	-0.364386	0.27649	-0.440667	-0.25494	0.590481	0.132222	0.491147	0.112561	0.322908	-0.473933	0.477482	0.433998
0.547343	0.848906	0.388641	-0.632471	-0.395974	-0.324172	0.218993	0.42205	-0.323378	0.403732	0.314686	-0.238319	0.393185	-0.396599	-0.467201	-0.392071	-0.494803	-0.481972	0.427012	-0.273064	-0.560217	0.62443	0.248093	-0.413218	0.335855	0.601333	0.634051	0.527896	0.348816	-0.238196	0.215515	-0.0571999
0.624178	0.595455	0.605067	-0.263648	-0.34662	-0.281793	0.65117	0.239732	-0.43594	0.394522	0.573616	-0.499342	0.457109	-0.37723	-0.401087	-0.124077	-0.542318	-0.548836	0.335506	-0.289226	-0.223696	0.409116	-0.309426	-0.596631	0.41274	0.48736	0.441999	0.444522	0.457482	-0.536688	0.377444	0.283745
0.4853	0.423565	0.436078	-0.169758	-0.33795	-0.13993	0.671787	0.201912	-0.382619	0.589807	0.600581	-0.478247	0.268696	-0.474915	-0.444558	-0.176138	-0.535468	-0.3934	0.0943385	-0.199017	-0.285549	0.418169	-0.162919	-0.563997	0.420066	0.555449	0.399559	0.487793	0.616814	-0.414372	0.288437	0.102255
0.216547	0.421353	0.549418	-0.611272	-0.433224	-0.228835	0.461083	0.214993	-0.407978	0.452204	0.236112	-0.187004	0.625027	-0.36187	-0.180602	-0.270115	-0.344456	-0.387767	0.516354	-0.576758	-0.345161	0.381197	-0.38915	-0.388688	0.111634	0.452688	0.277893	0.428663	0.278426	-0.20523	0.514363	0.372879
0.44006	0.158103	0.301785	-0.204121	-0.343547	-0.484925	0.54414	0.334615	-0.436107	0.413224	0.410059	-0.489361	0.354515	-0.501718	-0.305046	-0.247567	-0.269951	-0.291484	0.351988	-0.310955	-0.328816	0.546999	-0.150829	-0.329265	0.437556	0.444084	0.695476	0.351975	0.423938	-0.362455	0.406557	0.539482
0.499344	0.506066	0.529758	-0.424219	-0.344713	-0.369279	0.354102	0.314907	-0.388883	0.490176	0.277375	-0.357165	0.358477	-0.529173	-0.357249	-0.380994	-0.483084	-0.527949	0.599469	-0.491682	-0.530539	0.312316	-0.0357968	-0.413187	0.242069	0.530106	0.410169	0.504713	0.345045	-0.234187	0.421232	0.1092
0.683198	0.600681	0.643836	-0.527732	-0.467417	-0.209495	0.421454	0.247167	-0.565762	0.3223	0.598165	-0.551865	0.398527	-0.335815	-0.630353	-0.173566	-0.579433	-0.507853	0.343245	-0.254804	-0.224364	0.448431	-0.038346	-0.50993	0.326529	0.50348	0.65764	0.58803	0.346295	-0.307067	0.494703	0.667262
0.354185	0.466326	0.297448	-0.661098	-0.676576	-0.597096	0.31594	0.59572	-0.506687	0.490305	0.311118	-0.276843	0.148508	-0.572656	-0.41653	-0.52553	-0.260528	-0.198636	0.275332	-0.371327	-0.504857	0.555112	-0.0529766	-0.203119	0.586201	0.629078	0.530093	0.304436	0.287019	-0.180749	0.284587	0.237896
0.455458	0.363665	0.434831	-0.322652	-0.432478	-0.238938	0.495685	0.307031	-0.435543	0.489995	0.57019	-0.465261	0.296873	-0.315283	-0.493277	-0.31688	-0.41595	-0.460162	0.315053	-0.344524	-0.204957	0.343421	-0.379624	-0.484718	0.360969	0.545687	0.530271	0.376005	0.452973	-0.226425	0.445998	0.26072
0.178624	0.388329	0.226715	-0.546995	-0.457559	-0.663127	0.0896344	0.484224	-0.536149	0.393128	0.129516	-0.259146	0.289421	-0.315637	-0.509772	-0.69496	-0.276734	-0.325307	0.490892	-0.568345	-0.593092	0.313613	-0.415943	-0.256905	0.137401	0.614879	0.323137	0.375284	0.313162	-0.153273	0.398618	0.331503
0.491631	0.300969	0.434792	-0.218003	-0.313405	-0.28331	0.581868	0.316596	-0.357811	0.436146	0.531551	-0.466752	0.363371	-0.619192	-0.269699	-0.231929	-0.410925	-0.268368	0.170963	-0.189607	-0.332439	0.380985	-0.197136	-0.299341	0.603035	0.187183	0.417261	0.276556	0.478047	-0.464851	0.412205	0.247828
0.531286	0.376736	0.340426	-0.557414	-0.447229	-0.506333	0.167537	0.569164	-0.397305	0.360652	0.383398	-0.341861	0.231943	-0.470907	-0.312197	-0.590042	-0.22325	-0.289208	0.391428	-0.386857	-0.567247	0.265448	-0.273443	-0.292335	0.41786	0.506887	0.479653	0.439972	0.253488	-0.359497	0.418345	0.317793
0.538203	0.517173	0.461474	-0.481947	-0.447374	-0.232069	0.517779	0.239338	-0.478251	0.483332	0.544841	-0.286279	0.399777	-0.476881	-0.436887	-0.222005	-0.573379	-0.493766	0.323614	-0.213282	-0.177432	0.364929	-0.156534	-0.493178	0.261214	0.498678	0.519705	0.517671	0.360584	-0.301563	0.404491	0.379934
0.393132	-0.162136	0.145094	-0.253162	-0.488644	-0.424586	0.218786	0.48958	-0.211575	0.496835	0.366335	-0.363422	0.258846	-0.206323	-0.184012	-0.485814	0.0161892	-0.113503	0.359945	-0.319192	-0.477353	0.279088	-0.301051	-0.22476	0.43974	0.275473	0.380156	0.324256	0.406924	-0.569497	0.276131	0.303604
0.267872	0.287793	0.469467	-0.491671	-0.486205	-0.256793	0.306777	0.22847	-0.377272	0.198724	0.308005	-0.340199	0.541889	-0.396716	-0.575778	-0.363255	-0.529933	-0.268024	0.559475	-0.515	-0.296896	0.590053	-0.609216	-0.395788	0.212944	0.404771	0.149088	0.374556	0.440565	-0.369233	0.309995	0.365671
0.569473	0.432321	0.262034	-0.528568	-0.538121	-0.585536	0.315467	0.646417	-0.450129	0.455831	0.284402	-0.523617	0.34795	-0.195876	-0.43528	-0.671147	-0.323858	-0.246757	0.617483	-0.621754	-0.501803	0.194684	-0.496108	-0.234188	0.44293	0.255742	0.511327	0.369076	0.269287	-0.484832	0.331726	0.354416
0.26674	0.540118	0.412445	-0.506374	-0.425274	-0.232667	0.209799	0.328048	-0.376543	-0.0153725	0.411066	-0.408083	0.5888	-0.233987	-0.693004	-0.516044	-0.736307	-0.422844	0.336538	-0.496075	-0.255391	0.426086	-0.305652	-0.567533	0.207824	0.488858	0.325509	0.419995	0.532829	-0.410751	0.176602	0.495651
0.452045	0.394528	0.375765	-0.170359	-0.0355702	-0.260964	0.287869	0.229433	-0.264292	0.238017	0.345517	-0.416437	0.314016	-0.327174	-0.308408	0.0245792	-0.338904	-0.466603	0.362485	-0.178428	-0.40252	0.329972	-0.337734	-0.284128	0.324663	0.396912	0.324236	0.433808	0.358933	-0.482609	0.54728	0.271836
0.600496	0.161151	0.405295	-0.487007	-0.418909	-0.379258	0.402529	0.378902	-0.424093	0.69608	0.415044	-0.234355	0.34262	-0.681817	-0.275738	-0.472136	-0.41147	-0.626484	0.361982	-0.235639	-0.37716	0.35107	-0.306839	-0.469496	0.439406	0.35591	0.47202	0.436596	0.53125	-0.33558	0.564032	0.334265
0.621339	0.321668	0.598394	-0.383636	-0.409046	-0.37675	0.577656	0.393554	-0.461152	0.549284	0.588049	-0.442119	0.283808	-0.463635	-0.441126	-0.304906	-0.45731	-0.465956	0.393221	-0.342277	-0.253583	0.350375	-0.334999	-0.45667	0.418406	0.33097	0.420185	0.492174	0.537957	-0.477313	0.474258	0.451103
0.563822	0.0906961	0.156127	-0.0630465	-0.454334	-0.529026	0.551251	0.600536	-0.19033	0.600443	0.54933	-0.597321	0.0907663	-0.3356	-0.166515	-0.445732	-0.132625	-0.1298	0.283245	-0.346483	-0.451976	0.256196	-0.702088	-0.3836	0.663307	0.123047	0.287673	0.130244	0.533856	-0.489797	0.37593	0.46718
0.475863	0.235222	0.265521	-0.237396	-0.436602	-0.503577	0.382123	0.522461	-0.327709	0.399353	0.272407	-0.3549	0.374611	-0.373466	-0.300224	-0.405728	-0.194067	-0.286921	0.449685	-0.373448	-0.443675	0.219716	-0.572197	-0.315632	0.522749	0.283482	0.551181	0.303314	0.389511	-0.514905	0.563331	0.45003
0.409836	0.623817	0.500887	-0.40528	-0.498798	-0.280562	0.542217	0.294744	-0.56009	0.170431	0.427628	-0.624937	0.42618	-0.243859	-0.427722	-0.413871	-0.615887	-0.460911	0.523539	-0.415545	-0.201403	0.354251	-0.16377	-0.401924	0.39476	0.503203	0.564955	0.543184	0.346417	-0.441739	0.42037	0.536953
0.539372	0.529544	0.401656	-0.405225	-0.552747	-0.430348	0.434963	0.32367	-0.548573	0.360895	0.596264	-0.418435	0.300576	-0.402993	-0.569511	-0.374451	-0.543033	-0.300747	0.297086	-0.296745	-0.420289	0.332018	-0.33605	-0.474015	0.513461	0.278781	0.520092	0.418397	0.331299	-0.465732	0.276862	0.418086
0.237337	0.43623	0.196033	-0.393724	-0.350802	-0.581129	0.238291	0.607856	-0.260256	0.289503	0.203338	-0.357462	0.40037	-0.297891	-0.197232	-0.443473	-0.227116	-0.280428	0.375711	-0.517564	-0.559906	0.341765	-0.371248	-0.260666	0.327217	0.28465	0.262852	0.219253	0.182538	-0.277102	0.322474	0.466284
0.452798	0.715196	0.124098	-0.573438	-0.296396	-0.607356	0.220503	0.571086	-0.421883	0.199689	0.184569	-0.537257	0.230392	-0.156602	-0.332262	-0.592388	-0.173416	-0.280256	0.311138	-0.385306	-0.56134	0.30224	-0.313919	-0.172745	0.615419	0.208014	0.413933	0.164137	0.137811	-0.479821	0.265723	-0.00569627
0.30178	0.127491	0.461378	-0.364388	-0.412291	-0.403678	0.418136	0.486184	-0.258203	0.281206	0.582668	-0.424081	0.504371	-0.317501	-0.602824	-0.421745	-0.469238	-0.47303	0.558356	-0.568511	-0.216743	0.433207	-0.404384	-0.596027	0.241465	0.532468	0.290378	0.354303	0.572017	-0.323095	0.287412	0.602449
0.409063	0.700308	0.625733	-0.532881	-0.219524	-0.0295871	0.408227	0.0901815	-0.429296	0.225031	0.492123	-0.202311	0.48116	-0.468438	-0.576361	-0.116817	-0.744875	-0.603039	0.333127	-0.245656	-0.157529	0.53611	-0.196734	-0.632691	0.141055	0.661016	0.355248	0.61476	0.487473	-0.120499	0.424432	0.333419
0.319041	0.321624	0.244358	-0.575962	-0.747891	-0.571611	0.201144	0.471372	-0.432322	0.48664	0.187392	-0.172781	0.350704	-0.547153	-0.355691	-0.500867	-0.268108	-0.155803	0.278869	-0.355186	-0.43566	0.486778	-0.150707	-0.196679	0.569083	0.399738	0.234137	0.517852	0.458953	-0.179673	0.361824	0.348185
0.590044	0.471599	0.443686	-0.451828	-0.254596	-0.402734	0.362754	0.34381	-0.427148	0.414291	0.255483	-0.278189	0.343197	-0.481883	-0.368832	-0.371328	-0.42339	-0.429165	0.39033	-0.325689	-0.443023	0.381002	-0.150962	-0.443379	0.377879	0.458996	0.587794	0.458431	0.310956	-0.399708	0.390543	0.144975
-0.0144273	-0.107666	0.288429	-0.314854	-0.434452	0.086958	0.522954	0.0546278	-0.402345	0.730922	0.250453	-0.157791	0.29047	-0.218566	-0.333196	-0.0180588	-0.426193	-0.222357	0.0748946	-0.248332	-0.249922	0.5954	-0.346287	-0.289161	0.299902	0.36898	0.219309	0.174868	0.474387	-0.417939	0.288986	0.611842
0.456293	0.475014	0.516571	-0.274409	-0.618083	-0.381055	0.632219	0.379943	-0.347965	0.497697	0.608626	-0.510534	0.364646	-0.477306	-0.383303	-0.261875	-0.471976	-0.327034	0.344457	-0.32575	-0.315126	0.34955	-0.388757	-0.41169	0.527909	0.343575	0.595585	0.505123	0.421673	-0.406738	0.388364	0.520006
0.496721	0.233143	0.130097	-0.198228	-0.414283	-0.470513	0.560728	0.52483	-0.234859	0.519334	0.396803	-0.542034	0.267228	-0.219853	-0.26249	-0.297228	-0.329167	-0.214207	0.354016	-0.355814	-0.296074	0.14992	-0.586263	-0.228773	0.617415	0.155857	0.455493	0.205246	0.444477	-0.549453	0.389526	0.374411
0.519986	0.593239	0.461391	-0.495382	-0.313422	-0.56771	0.486299	0.520479	-0.349557	0.285991	0.361763	-0.585062	0.302143	-0.169549	-0.371844	-0.426157	-0.351316	-0.230723	0.455427	-0.434481	-0.291595	0.230059	-0.249007	-0.434663	0.493003	0.246221	0.554531	0.398286	0.303127	-0.426418	0.277113	0.465275
0.664541	0.365456	0.263457	-0.30026	-0.310268	-0.641953	0.272948	0.55888	-0.282792	0.512589	0.312888	-0.554772	0.181436	-0.372521	-0.390773	-0.587723	-0.160873	-0.158554	0.38881	-0.47251	-0.492326	0.284464	-0.478677	-0.338437	0.62421	0.256721	0.340629	0.356223	0.300198	-0.272788	0.207196	0.275104
0.610288	0.431528	0.314373	-0.36513	-0.289056	-0.535644	0.569932	0.350664	-0.471883	0.471924	0.376121	-0.487501	0.474688	-0.525463	-0.441566	-0.30632	-0.389585	-0.498866	0.3761	-0.235193	-0.233241	0.283593	-0.324966	-0.429985	0.509152	0.320811	0.664115	0.420439	0.501004	-0.412455	0.541491	0.409251
0.395877	0.0658559	0.222944	-0.341987	-0.569707	-0.560494	0.206983	0.652385	-0.1423	0.519697	0.378066	-0.295985	0.267627	-0.35395	-0.274361	-0.620432	-0.210768	-0.131407	0.399831	-0.529015	-0.574949	0.27411	-0.394879	-0.230572	0.451976	0.288697	0.467886	0.346453	0.285927	-0.29893	0.34949	0.29755
0.316099	0.454792	0.57593	-0.171653	-0.4511	-0.251776	0.36919	0.412592	-0.273919	0.409441	0.489585	-0.382764	0.624845	-0.574516	-0.358051	-0.340966	-0.415048	-0.34631	0.2635	-0.382038	-0.565954	0.496489	-0.309675	-0.42204	0.593054	0.473558	0.360077	0.497085	0.428461	-0.454022	0.393274	0.353449
0.284908	0.273977	0.460634	-0.404438	-0.425337	-0.400878	0.447701	0.334935	-0.425288	0.319773	0.304158	-0.370314	0.384083	-0.292813	-0.375858	-0.418561	-0.431372	-0.411277	0.438538	-0.561519	-0.451816	0.316202	-0.402888	-0.214038	0.390656	0.502431	0.347929	0.352685	0.398032	-0.524397	0.347891	0.59024
0.249451	0.402176	0.359121	-0.610983	-0.359805	-0.567751	0.107973	0.461048	-0.298346	0.392184	0.256333	-0.320058	0.472334	-0.299094	-0.470614	-0.456741	-0.420643	-0.285273	0.548352	-0.505561	-0.488589	0.489753	-0.25208	-0.368195	0.319984	0.493041	0.340801	0.261625	0.260445	-0.147545	0.178572	0.360261
0.417941	0.523223	0.569147	-0.573838	-0.467526	-0.350552	0.32941	0.326293	-0.521693	0.581422	0.514681	-0.294731	0.476977	-0.584065	-0.528391	-0.33039	-0.572605	-0.545546	0.333389	-0.311138	-0.334349	0.477533	-0.273366	-0.51702	0.227343	0.552504	0.327504	0.465553	0.540591	-0.244288	0.578039	0.202114
0.573267	0.633291	0.264507	-0.728726	-0.415773	-0.530232	0.352297	0.522255	-0.57442	0.334534	0.31547	-0.376711	0.279816	-0.357181	-0.384679	-0.551363	-0.371059	-0.338577	0.426419	-0.247312	-0.503377	0.310942	-0.377961	-0.29381	0.37076	0.422328	0.650063	0.524815	0.319983	-0.233785	0.271527	0.218407
0.236957	0.217549	0.321929	-0.298155	-0.439074	-0.422495	0.438164	0.475295	-0.24235	0.272018	0.392602	-0.602113	0.452074	-0.327273	-0.528671	-0.448113	-0.437546	-0.291004	0.458971	-0.548915	-0.309118	0.494502	-0.560844	-0.500085	0.346761	0.257871	0.290452	0.286075	0.434952	-0.366424	0.252218	0.518023
0.329707	0.296759	0.506087	-0.662387	-0.402722	-0.211244	0.352486	0.22124	-0.318875	0.374475	0.324457	-0.292324	0.633197	-0.608035	-0.25175	-0.205248	-0.613608	-0.699806	0.454571	-0.344251	-0.379071	0.494032	-0.342397	-0.446707	0.360011	0.456037	0.324951	0.538748	0.400772	-0.289902	0.620277	0.284601
0.548125	0.078634	0.284028	-0.330186	-0.367294	-0.281818	0.395621	0.519192	-0.284465	0.610373	0.281976	-0.449715	0.529078	-0.18952	-0.195366	-0.402275	-0.140933	-0.234468	0.542181	-0.454313	-0.285636	0.302362	-0.419107	-0.112249	0.424455	0.191251	0.521855	0.391557	0.369162	-0.514949	0.482156	0.614299
0.280029	0.214191	0.509537	-0.274285	-0.352283	-0.099133	0.284181	0.00512925	-0.252004	0.516537	0.624998	-0.175499	0.610457	-0.496331	-0.29407	-0.0145719	-0.476578	-0.445564	0.102059	-0.157661	-0.628499	0.551891	-0.113997	-0.490611	0.398877	0.668424	0.241961	0.420148	0.624525	-0.501628	0.415647	-0.100222
0.31078	0.459272	0.367534	-0.359139	-0.378686	-0.47944	0.209323	0.480718	-0.261347	0.276938	0.157564	-0.525481	0.620328	-0.301277	-0.327956	-0.340938	-0.368718	-0.318031	0.626619	-0.528307	-0.330432	0.428004	-0.378658	-0.33419	0.271708	0.341886	0.405341	0.357558	0.18838	-0.367119	0.506693	0.462449
0.271696	0.219115	0.538127	-0.259322	-0.54996	-0.253407	0.480678	0.289512	-0.273498	0.366244	0.59864	-0.368734	0.556549	-0.520081	-0.336017	-0.176084	-0.589361	-0.486283	0.305841	-0.354779	-0.427265	0.60803	-0.253717	-0.363458	0.396897	0.583788	0.30773	0.619298	0.577459	-0.483018	0.448763	0.499414
0.517512	0.494417	0.190833	-0.575542	-0.369884	-0.599646	0.235245	0.503936	-0.48281	0.44225	0.207631	-0.252072	0.257559	-0.448682	-0.296411	-0.572113	-0.230126	-0.179198	0.375463	-0.362945	-0.55077	0.274668	-0.41528	-0.278404	0.224064	0.184491	0.453803	0.371981	0.321557	-0.161774	0.262257	0.424847
0.212187	0.44542	0.214656	-0.397706	-0.509115	-0.395659	0.363766	0.451847	-0.498751	0.251428	0.179326	-0.49912	0.381395	-0.333683	-0.397688	-0.45428	-0.201086	-0.285672	0.420153	-0.429342	-0.390904	0.122987	-0.381674	-0.18706	0.290304	0.411127	0.448176	0.246262	0.357201	-0.524425	0.292531	0.412037
0.390307	0.334624	0.292878	-0.268414	-0.484099	-0.517885	0.332957	0.474527	-0.348093	0.377576	0.363244	-0.583247	0.407215	-0.163589	-0.310685	-0.407061	-0.237254	-0.307974	0.492332	-0.542565	-0.437045	0.231386	-0.619663	-0.393831	0.419308	0.243769	0.403148	0.240822	0.324756	-0.549411	0.437815	0.472578
0.558598	0.469437	0.557833	-0.67103	-0.461406	-0.199789	0.539991	0.233872	-0.570751	0.490995	0.626731	-0.385921	0.56174	-0.699694	-0.5434	-0.277415	-0.661937	-0.494944	0.273114	-0.294835	-0.284607	0.530505	-0.127681	-0.581518	0.236633	0.604077	0.433972	0.542246	0.548095	-0.439549	0.4551	0.546801
0.343715	0.422915	0.485927	-0.506735	-0.429263	-0.151436	0.622871	0.19671	-0.610332	0.276517	0.454233	-0.233506	0.478689	-0.396144	-0.424683	-0.247483	-0.466592	-0.455859	0.275724	-0.328252	-0.261087	0.229195	-0.330208	-0.3972	0.290974	0.336735	0.26467	0.548216	0.417395	-0.365895	0.280187	0.449117
0.531812	0.391415	0.6061	-0.468498	-0.374366	-0.242738	0.533881	0.128344	-0.530386	0.470864	0.569962	-0.283412	0.557965	-0.536443	-0.51847	-0.15262	-0.533145	-0.475023	0.194065	-0.236164	-0.198309	0.369197	-0.145091	-0.530358	0.176798	0.587541	0.52795	0.531978	0.502359	-0.264733	0.375786	0.311374
0.357614	0.397026	0.394912	-0.455846	-0.469609	-0.367225	0.544236	0.352627	-0.521474	0.500541	0.687602	-0.516348	0.427855	-0.531124	-0.589063	-0.573717	-0.415843	-0.418881	0.43494	-0.437855	-0.164177	0.383906	-0.443711	-0.544082	0.443291	0.47246	0.482828	0.38857	0.599397	-0.412707	0.433667	0.495806
0.399148	0.398478	0.472939	-0.542521	-0.441075	-0.381425	0.344694	0.428761	-0.231378	0.371957	0.320684	-0.434828	0.576413	-0.423897	-0.365065	-0.238711	-0.508525	-0.66555	0.46091	-0.574122	-0.504441	0.418847	-0.348767	-0.438992	0.396283	0.414071	0.356107	0.538867	0.337654	-0.524613	0.502867	0.647743
0.31959	0.414255	0.585394	-0.587903	-0.520839	-0.152572	0.422781	0.208153	-0.589084	0.467119	0.616618	-0.300496	0.561577	-0.576038	-0.44994	-0.216172	-0.62865	-0.59885	0.304146	-0.363354	-0.186026	0.534981	-0.179868	-0.495668	0.229962	0.539754	0.419978	0.579829	0.445085	-0.207168	0.641152	0.421556
0.658918	0.409161	0.0849101	-0.375898	-0.296103	-0.700631	0.134207	0.653576	-0.253417	0.329774	0.272041	-0.36131	0.180921	-0.131126	-0.181816	-0.701509	-0.162089	-0.141445	0.338607	-0.31887	-0.516219	0.187859	-0.409378	-0.361907	0.612587	0.226117	0.393675	0.369971	0.298096	-0.379428	0.37584	0.221382
0.621414	0.632206	0.436838	-0.467848	-0.483602	-0.422146	0.40383	0.472429	-0.600617	0.170397	0.52495	-0.671796	0.408119	-0.193096	-0.485839	-0.41573	-0.519081	-0.321636	0.381044	-0.364628	-0.251903	0.228425	-0.268633	-0.409174	0.387049	0.318513	0.566823	0.516871	0.219571	-0.442319	0.225029	0.532349
0.480408	0.293791	0.199888	-0.383522	-0.291817	-0.498207	0.305794	0.647815	-0.317848	0.365536	0.28629	-0.373375	0.239068	-0.265112	-0.307437	-0.405034	-0.214015	-0.257125	0.307811	-0.418065	-0.377638	0.288814	-0.466969	-0.375966	0.423885	0.274402	0.464571	0.235777	0.182444	-0.365832	0.440645	0.192429
0.349381	0.175187	0.27757	-0.54552	-0.606629	-0.366089	0.311402	0.467955	-0.401525	0.544252	0.363372	-0.350636	0.297724	-0.499831	-0.377052	-0.467721	-0.262606	-0.28584	0.260224	-0.35227	-0.42044	0.439419	-0.145526	-0.193354	0.416009	0.574124	0.328223	0.272938	0.421561	-0.231913	0.240891	0.382087
0.286166	0.352572	0.569435	-0.373952	-0.434328	-0.28142	0.569894	0.272376	-0.438333	0.56949	0.392426	-0.32417	0.606726	-0.58883	-0.503899	-0.364913	-0.622279	-0.575876	0.424666	-0.554208	-0.247693	0.571214	-0.478422	-0.320569	0.27472	0.551575	0.282702	0.53889	0.57073	-0.160314	0.353476	0.567275
0.557355	0.589894	0.178423	-0.344	-0.274445	-0.596374	0.277028	0.543732	-0.276345	0.222403	0.352001	-0.497005	0.143181	-0.390925	-0.331745	-0.563513	-0.226197	-0.229468	0.430034	-0.373695	-0.607601	0.282446	-0.71208	-0.362344	0.519033	0.28854	0.539828	0.262308	0.340768	-0.433053	0.272	0.368604
0.402223	0.165466	0.540321	-0.420305	-0.441423	0.00736681	0.383926	0.0918822	-0.55514	0.497415	0.501776	-0.422928	0.586387	-0.309309	-0.614105	-0.0809283	-0.45156	-0.476769	0.422985	-0.392213	-0.366707	0.768787	-0.287475	-0.477551	0.286858	0.635837	0.395683	0.552681	0.560444	-0.40879	0.132858	0.516171
0.463821	0.306433	0.45189	-0.283904	-0.0848496	-0.466713	0.268453	0.44943	-0.352036	0.34173	0.389142	-0.221422	0.256514	-0.376383	-0.161303	-0.402825	-0.412821	-0.466331	0.375218	-0.49778	-0.37718	0.540141	-0.173719	-0.432072	0.209662	0.417818	0.209256	0.318144	0.307825	-0.214326	0.377129	0.391302
0.656485	0.37578	0.575137	-0.414663	-0.406384	-0.248421	0.478736	0.294281	-0.397951	0.529208	0.593039	-0.311402	0.420454	-0.619059	-0.490447	-0.30916	-0.535396	-0.525718	0.384489	-0.273784	-0.202711	0.443271	-0.43621	-0.622104	0.46744	0.454917	0.524804	0.540518	0.501667	-0.424425	0.410341	0.635038
0.359324	0.48662	0.513629	-0.51821	-0.488289	-0.395896	0.353123	0.463703	-0.218361	0.256474	0.301899	-0.503351	0.592023	-0.298666	-0.420137	-0.229831	-0.518352	-0.542332	0.527115	-0.528722	-0.420141	0.371936	-0.130771	-0.351407	0.281518	0.354848	0.457476	0.349831	0.254675	-0.311664	0.44752	0.206457
0.299802	0.426861	0.373288	-0.0578473	-0.281573	-0.289623	0.405461	0.484264	-0.417266	0.355802	0.342888	-0.412933	0.23001	-0.25761	-0.210775	-0.355728	-0.492808	-0.428989	0.202306	-0.379311	-0.226329	0.215238	-0.306969	-0.308062	0.108425	0.440272	0.217084	0.490263	0.453455	-0.275579	0.383173	0.264005
0.337764	0.28175	0.430021	-0.305534	-0.532638	-0.264807	0.61009	0.15268	-0.338657	0.393181	0.680026	-0.46378	0.348637	-0.445808	-0.490082	-0.442458	-0.400409	-0.513561	0.312931	-0.313942	-0.404003	0.47673	-0.466941	-0.460057	0.530575	0.590264	0.306461	0.456326	0.516425	-0.521263	0.253817	0.392442
0.333256	0.459881	0.526782	-0.391803	-0.429062	-0.260877	0.485736	0.26152	-0.410665	0.577941	0.557839	-0.383143	0.51716	-0.487888	-0.533921	-0.308138	-0.50188	-0.510258	0.306799	-0.279165	-0.33908	0.581269	-0.258071	-0.369462	0.208578	0.580575	0.359647	0.55374	0.55658	-0.436007	0.445334	0.345277
0.405154	0.393673	0.562867	-0.703277	-0.412202	-0.343438	0.19555	0.250428	-0.43735	0.374087	0.423064	-0.244774	0.45918	-0.482309	-0.526442	-0.442543	-0.506942	-0.578337	0.396301	-0.371719	-0.452321	0.533045	-0.332572	-0.390332	0.366502	0.583993	0.27217	0.494756	0.394095	-0.191842	0.33986	0.441912
0.470143	0.245714	0.187304	-0.254688	-0.432714	-0.612809	0.694921	0.58391	-0.387346	0.48385	0.391987	-0.499215	0.320231	-0.419915	-0.285189	-0.508078	-0.274229	-0.241713	0.416412	-0.403648	-0.420985	0.306045	-0.584787	-0.259043	0.591112	0.307733	0.500381	0.325091	0.638435	-0.551908	0.17483	0.424111
0.431823	0.352785	0.559211	-0.620288	-0.314952	-0.260863	0.328566	0.303583	-0.475429	0.383677	0.47078	-0.280176	0.482499	-0.485027	-0.422947	-0.161036	-0.624345	-0.615919	0.314424	-0.336552	-0.269137	0.505938	-0.251658	-0.460983	0.217926	0.599737	0.305854	0.652676	0.476168	-0.339799	0.401476	0.442988
0.178597	-0.0153008	0.124745	-0.328494	-0.482159	-0.115948	0.487671	0.142266	-0.377274	0.56208	0.211675	-0.473574	0.188983	-0.23675	-0.360519	-0.310263	-0.256607	-0.247656	0.393122	-0.198301	-0.162347	0.417379	-0.227044	-0.366887	0.18615	0.305531	0.227194	0.166083	0.419472	-0.334236	0.170144	0.245117
0.363153	0.250452	0.240276	-0.551875	-0.704989	-0.461524	0.135048	0.591822	-0.595193	0.611086	0.225303	-0.12521	0.290448	-0.538228	-0.372818	-0.702175	-0.0959577	-0.347306	0.283374	-0.285583	-0.564375	0.286499	-0.353561	-0.184728	0.493281	0.640999	0.55528	0.29584	0.32678	-0.12069	0.293861	0.280055
0.382116	0.224571	0.385532	-0.365195	-0.510602	-0.222132	0.53487	0.2876	-0.582177	0.693978	0.650803	-0.498172	0.468384	-0.459849	-0.643618	-0.532224	-0.44148	-0.339047	0.376529	-0.453975	-0.200732	0.428122	-0.436467	-0.334429	0.48234	0.600404	0.364007	0.347437	0.711102	-0.588486	0.382575	0.735019
0.390537	0.446241	0.447002	-0.391469	-0.446912	-0.416024	0.322663	0.45005	-0.344567	0.48962	0.238625	-0.390701	0.585741	-0.273954	-0.241006	-0.3259	-0.359636	-0.381675	0.533205	-0.573223	-0.424892	0.275908	-0.219329	-0.351959	0.19246	0.445697	0.478267	0.628928	0.233029	-0.353443	0.58556	0.391098
0.159179	0.392778	0.397887	-0.349378	-0.293081	-0.167585	0.197073	0.273051	-0.412579	0.268679	0.308975	-0.32908	0.524929	-0.241943	-0.529374	-0.461237	-0.54434	-0.482852	0.388631	-0.367988	-0.305957	0.635917	-0.516212	-0.387143	0.217971	0.621554	0.154882	0.485646	0.331072	-0.262668	0.352443	0.297624
0.401063	0.325481	0.461269	-0.460651	-0.311828	-0.380207	0.225478	0.483515	-0.130302	0.349788	0.222809	-0.385345	0.542824	-0.293629	-0.289422	-0.213837	-0.373085	-0.341463	0.555795	-0.541186	-0.243352	0.288547	-0.50462	-0.44414	0.216209	0.290726	0.463831	0.456804	0.204416	-0.308817	0.524566	0.552093
0.53759	0.166766	0.409112	-0.259065	-0.507383	-0.415725	0.515225	0.414945	-0.290906	0.378811	0.603483	-0.369137	0.22273	-0.374382	-0.334523	-0.356723	-0.284565	-0.28007	0.230904	-0.216226	-0.342607	0.20332	-0.539597	-0.47246	0.328839	0.332557	0.311211	0.369438	0.647269	-0.357271	0.399958	0.278718
0.361761	0.358226	0.346061	-0.432647	-0.382878	-0.366894	0.48867	0.308714	-0.645742	0.416545	0.303096	-0.281162	0.474602	-0.475297	-0.445089	-0.243216	-0.475875	-0.475363	0.517923	-0.368623	-0.247542	0.392509	-0.3152	-0.463475	0.271901	0.556992	0.466826	0.335556	0.404891	-0.373917	0.335054	0.386232
0.277115	0.336018	0.375238	-0.272658	-0.368567	-0.312036	0.243029	0.203763	-0.469764	0.287785	0.382833	-0.26095	0.543823	-0.240762	-0.589752	-0.434427	-0.546409	-0.440358	0.337435	-0.537761	-0.306775	0.546352	-0.504464	-0.534762	0.269783	0.524651	0.23129	0.429159	0.56658	-0.22928	0.343508	0.653145
0.314961	0.641534	0.220817	-0.122632	-0.351608	-0.431501	0.334597	0.519776	-0.458239	0.431985	0.200385	-0.403114	0.197828	-0.297238	-0.435231	-0.45194	-0.284055	-0.166546	0.316181	-0.328204	-0.160559	0.23658	-0.532923	-0.182862	0.467313	0.214337	0.465671	0.257479	0.486317	-0.456411	0.26736	0.560688
0.289265	0.256782	0.307406	-0.24604	-0.273874	-0.417998	0.301754	0.559426	-0.175267	0.328216	0.422957	-0.636172	0.443276	-0.188301	-0.522393	-0.402176	-0.416367	-0.36935	0.587973	-0.576392	-0.337995	0.584379	-0.782794	-0.531681	0.323673	0.322471	0.25341	0.32803	0.549431	-0.51298	0.205077	0.58754
0.361037	0.187796	0.409784	-0.27098	-0.391316	-0.318443	0.574273	0.296195	-0.373916	0.464655	0.433245	-0.363094	0.465707	-0.552959	-0.362736	-0.316325	-0.364461	-0.500817	0.242862	-0.421501	-0.451879	0.47391	-0.424956	-0.344587	0.476015	0.537552	0.344363	0.309297	0.518845	-0.553834	0.216285	0.406195
0.362075	0.562505	0.195823	-0.478776	-0.612133	-0.319653	0.623138	0.302436	-0.556532	0.430093	0.269576	-0.488783	0.216955	-0.506892	-0.648127	-0.669796	-0.361463	-0.372798	0.337472	-0.329095	-0.274215	0.253932	-0.696483	-0.267154	0.353605	0.474624	0.313577	0.21331	0.645304	-0.516571	0.205676	0.620974
0.277416	0.44886	0.583839	-0.423983	-0.254967	-0.277261	0.480682	0.318609	-0.476342	0.418215	0.303088	-0.21189	0.566283	-0.495187	-0.473316	-0.226527	-0.634709	-0.431201	0.419163	-0.400203	-0.134634	0.46825	-0.201494	-0.397292	0.199912	0.625612	0.306078	0.537105	0.536047	-0.31774	0.542368	0.504255
0.305882	0.254179	0.328327	-0.434538	-0.300781	-0.309908	0.29284	0.398446	-0.303456	0.426987	0.115954	-0.436939	0.578551	-0.057343	-0.241565	-0.171729	-0.212356	-0.358924	0.650603	-0.617909	-0.416679	0.233032	-0.534187	-0.402533	0.166684	0.22601	0.349364	0.507704	0.359356	-0.586859	0.469001	0.519865
0.665556	0.339434	0.567394	-0.453728	-0.234948	-0.452573	0.306635	0.2939	-0.436248	0.5572	0.53959	-0.368788	0.453813	-0.465992	-0.484085	-0.43696	-0.541247	-0.541546	0.519531	-0.403363	-0.223493	0.558242	-0.425364	-0.504955	0.265201	0.481635	0.452883	0.449064	0.333785	-0.291569	0.593071	0.380589
0.543383	0.333704	0.291808	-0.365919	-0.322337	-0.51585	0.314587	0.534817	-0.411425	0.405963	0.407538	-0.462615	0.303561	-0.170788	-0.426355	-0.550407	-0.417614	-0.298358	0.505307	-0.538714	-0.321507	0.319724	-0.504411	-0.442636	0.431894	0.313864	0.411443	0.517651	0.298229	-0.36269	0.56906	0.609358
0.412812	0.397656	0.520206	-0.481732	-0.58215	-0.265066	0.631679	0.306249	-0.470584	0.420706	0.564431	-0.50539	0.498031	-0.503054	-0.577376	-0.372802	-0.557072	-0.466814	0.420243	-0.340435	-0.257914	0.472571	-0.527853	-0.393191	0.431179	0.485686	0.406646	0.533517	0.637137	-0.477717	0.466531	0.5228
0.303908	0.118686	0.364178	-0.0991102	-0.435732	-0.487105	0.467632	0.557283	-0.26473	0.441386	0.419945	-0.693281	0.400985	-0.412603	-0.427039	-0.435049	-0.457989	-0.447238	0.439141	-0.475276	-0.386165	0.485177	-0.584645	-0.326772	0.449979	0.452921	0.273421	0.383583	0.642867	-0.467928	0.350226	0.618839
0.627558	0.605352	0.622492	-0.60644	-0.392756	-0.140232	0.65427	0.180763	-0.52085	0.514744	0.563118	-0.448645	0.573125	-0.474363	-0.598551	-0.317309	-0.688878	-0.522502	0.187095	-0.239491	-0.248445	0.630723	-0.116647	-0.525323	0.504452	0.603673	0.511078	0.663888	0.486892	-0.468612	0.488111	0.328451
0.467184	0.590721	0.281729	-0.45388	-0.50645	-0.623842	0.244801	0.442887	-0.441031	0.433946	0.235047	-0.334523	0.442784	-0.18698	-0.352075	-0.625372	-0.256054	-0.380858	0.578541	-0.576255	-0.547309	0.286148	-0.392758	-0.289549	0.359046	0.250477	0.466958	0.45732	0.257607	-0.421483	0.467376	0.316493
0.47658	0.517189	0.366928	-0.651307	-0.405208	-0.444775	0.316747	0.410673	-0.611	0.486006	0.433904	-0.231938	0.3404	-0.630187	-0.466706	-0.453485	-0.371545	-0.546997	0.37333	-0.258261	-0.516993	0.374861	-0.272619	-0.258906	0.289752	0.481978	0.424929	0.400097	0.419035	-0.292143	0.352728	0.335862
0.169947	0.143158	0.428779	-0.234008	-0.513134	-0.260541	0.5135	0.206472	-0.509639	0.658596	0.375509	-0.28975	0.367905	-0.5776	-0.557066	-0.348725	-0.496557	-0.296046	0.281995	-0.218257	-0.221007	0.542717	-0.405225	-0.341843	0.170452	0.642637	0.339271	0.297182	0.630017	-0.322352	0.298812	0.321964
0.365611	0.598915	0.511224	-0.547436	-0.476651	-0.249459	0.477358	0.301795	-0.483322	0.532655	0.540981	-0.185213	0.462446	-0.571448	-0.445249	-0.288346	-0.609914	-0.544335	0.425798	-0.204619	-0.279693	0.596092	-0.387994	-0.61743	0.27398	0.522228	0.490218	0.468479	0.557921	-0.338547	0.527823	0.284483
0.105829	0.159025	0.152936	-0.213372	-0.631576	-0.36921	0.60904	0.122875	-0.476522	0.688632	0.284894	-0.402891	0.0268774	-0.524168	-0.696751	-0.574162	-0.330857	-0.0635329	0.613571	-0.0335071	-0.248615	0.375737	-0.48455	-0.344194	0.312375	0.690651	0.246226	0.237098	0.481353	-0.416843	0.247603	0.411822
0.270735	0.388762	0.492517	-0.193307	-0.334801	-0.142312	0.339939	0.114022	-0.248559	0.318494	0.508972	-0.245721	0.323816	-0.486646	-0.26369	-0.149497	-0.213805	-0.351417	0.128874	-0.313512	-0.403649	0.346268	-0.289212	-0.468476	0.36707	0.415793	0.184841	0.310279	0.366589	-0.247937	0.485481	0.260537
0.380438	0.148233	0.252515	-0.341883	-0.648202	-0.60925	0.42128	0.568164	-0.353158	0.38599	0.320546	-0.479859	0.146391	-0.465317	-0.31073	-0.569792	-0.203494	-0.245725	0.204666	-0.576495	-0.512941	0.402146	-0.419585	-0.161637	0.678326	0.499473	0.355873	0.32072	0.434955	-0.514491	0.361471	0.322837
0.385012	0.426279	0.624452	-0.40567	-0.266274	-0.234976	0.302809	0.287807	-0.413563	0.491766	0.521695	-0.255726	0.538361	-0.555239	-0.368789	-0.301081	-0.603451	-0.521018	0.387565	-0.245484	-0.443067	0.575806	-0.291374	-0.51252	0.398723	0.552485	0.262425	0.35552	0.465208	-0.267948	0.507391	0.394455
0.270838	0.255501	0.334142	-0.469532	-0.561008	-0.414474	0.411708	0.455557	-0.312405	0.168581	0.186224	-0.49746	0.467211	-0.275618	-0.258851	-0.346192	-0.342753	-0.364231	0.445503	-0.50102	-0.349773	0.206103	-0.365283	-0.288342	0.318957	0.303026	0.241584	0.289319	0.337879	-0.527119	0.351608	0.522167
0.235191	0.148896	0.586792	-0.281907	-0.503568	-0.267921	0.561227	0.228979	-0.527607	0.534999	0.644738	-0.26316	0.614762	-0.625397	-0.526275	-0.148286	-0.49543	-0.574533	0.216301	-0.218662	-0.378518	0.504115	-0.306653	-0.477514	0.375303	0.668317	0.260228	0.451444	0.569093	-0.413261	0.482679	0.350021
0.343336	0.489283	0.403282	-0.581781	-0.359446	-0.509604	0.251835	0.541429	-0.482298	0.247088	0.361205	-0.635385	0.554549	-0.262882	-0.41319	-0.428251	-0.418458	-0.327264	0.602174	-0.536607	-0.355736	0.364523	-0.45784	-0.258344	0.292602	0.338479	0.365278	0.406198	0.317068	-0.567753	0.302692	0.551601
0.568117	0.22283	0.429488	-0.288564	-0.352624	-0.304365	0.545793	0.398696	-0.29272	0.495524	0.652925	-0.512433	0.22506	-0.473435	-0.455693	-0.371598	-0.360558	-0.355504	0.202196	-0.326669	-0.294746	0.424545	-0.34963	-0.342354	0.537535	0.416901	0.330095	0.315215	0.581224	-0.564698	0.221268	0.470985
0.371876	0.417549	0.308449	-0.544713	-0.483832	-0.317054	0.346928	0.310848	-0.350879	0.302624	0.284836	-0.490157	0.432166	-0.157052	-0.213629	-0.272049	-0.32713	-0.39304	0.556959	-0.499277	-0.336239	0.269679	-0.611089	-0.303552	0.226312	0.352037	0.459234	0.447551	0.22297	-0.562194	0.452571	0.529548
0.491673	0.236904	0.230611	-0.202597	-0.587683	-0.582452	0.605562	0.527678	-0.254774	0.390566	0.46499	-0.608945	0.27525	-0.320643	-0.292391	-0.517241	-0.312597	-0.20917	0.468439	-0.414394	-0.28285	0.33947	-0.51861	-0.482665	0.506614	0.185808	0.522334	0.219276	0.400969	-0.593614	0.531006	0.5116
0.282107	0.115652	0.36846	-0.338758	-0.215066	-0.337757	0.416067	0.448376	-0.370002	0.30788	0.311163	-0.56284	0.679114	-0.256628	-0.497885	-0.49676	-0.53606	-0.393437	0.533741	-0.481616	-0.30544	0.562622	-0.555348	-0.501542	0.2919	0.37169	0.264912	0.324134	0.424426	-0.324728	0.350738	0.669115
0.412245	0.294168	0.144972	-0.140088	-0.38833	-0.678371	0.572585	0.593709	-0.236474	0.469996	0.399517	-0.4614	0.143096	-0.416263	-0.170342	-0.167578	-0.172762	-0.276681	0.441364	-0.477537	-0.232898	0.184892	-0.564993	-0.296511	0.492741	0.199567	0.152928	0.1354	0.542915	-0.344434	0.306563	0.423482
0.474415	0.490552	0.452487	-0.546857	-0.485811	-0.419193	0.390414	0.480806	-0.677377	0.519376	0.435446	-0.226043	0.275399	-0.580227	-0.564557	-0.501408	-0.436488	-0.433832	0.157825	-0.296933	-0.402107	0.396134	-0.272594	-0.258975	0.479742	0.53841	0.376434	0.413001	0.589404	-0.382246	0.41025	0.226433
0.622789	0.555573	0.475442	-0.542197	-0.387004	-0.386077	0.490371	0.407788	-0.543348	0.394389	0.433734	-0.564712	0.227963	-0.306844	-0.468899	-0.349845	-0.587519	-0.420368	0.44821	-0.338802	-0.184785	0.564356	-0.221042	-0.487581	0.40282	0.503445	0.541277	0.562253	0.259096	-0.370318	0.414775	0.504957
0.514038	0.354963	0.293951	-0.32289	-0.392055	-0.399342	0.576855	0.520078	-0.374814	0.467491	0.407699	-0.521159	0.394227	-0.306792	-0.272565	-0.31887	-0.398573	-0.309073	0.490969	-0.48832	-0.348058	0.258566	-0.582096	-0.409921	0.549746	0.227489	0.506219	0.280108	0.359206	-0.573922	0.518786	0.328546
0.39365	0.377886	0.562114	-0.532741	-0.332886	-0.3522	0.518561	0.329793	-0.682934	0.374074	0.56836	-0.329755	0.412229	-0.566373	-0.593664	-0.306559	-0.599096	-0.606091	0.382849	-0.302984	-0.398081	0.564897	-0.229052	-0.435701	0.382205	0.637987	0.37369	0.429084	0.535151	-0.464777	0.460539	0.420906
0.471537	0.535653	0.355423	-0.515858	-0.46871	-0.456843	0.217284	0.461127	-0.307009	0.385917	0.348044	-0.432044	0.465551	-0.207738	-0.285909	-0.317276	-0.252169	-0.36078	0.682421	-0.530324	-0.631772	0.40195	-0.410166	-0.386426	0.341065	0.36761	0.593217	0.530727	0.314771	-0.51418	0.539355	0.384362
0.337652	0.203317	0.264496	-0.326588	-0.570112	-0.582008	0.514313	0.580674	-0.334127	0.573352	0.455266	-0.381298	0.249123	-0.595436	-0.316365	-0.448469	-0.147297	-0.196826	0.302783	-0.407699	-0.50631	0.317282	-0.611306	-0.332102	0.523315	0.476035	0.523078	0.279763	0.635095	-0.356315	0.218025	0.391728
0.366624	0.277681	0.218443	-0.554837	-0.438801	-0.485826	0.27982	0.491401	-0.587854	0.46312	0.263167	-0.24807	0.141352	-0.593808	-0.356244	-0.43356	-0.249719	-0.451022	0.388046	-0.405577	-0.557888	0.404224	-0.230878	-0.247657	0.429042	0.508083	0.338456	0.452919	0.322859	-0.250619	0.320243	0.218731
0.380326	0.175335	0.534814	-0.315146	-0.597389	-0.35733	0.52101	0.303491	-0.426798	0.670829	0.586398	-0.408212	0.385536	-0.405976	-0.484084	-0.40835	-0.406864	-0.444189	0.272602	-0.356789	-0.457535	0.297296	-0.420888	-0.429673	0.645428	0.473639	0.350246	0.388062	0.55752	-0.552645	0.335334	0.442651
0.196155	0.162397	0.483488	-0.247803	-0.38734	-0.197455	0.438629	0.284961	-0.476563	0.300996	0.541405	-0.415529	0.625434	-0.727562	-0.452819	-0.323101	-0.659617	-0.631418	0.204049	-0.376404	-0.55634	0.431905	-0.388627	-0.355046	0.518309	0.465003	0.153333	0.433039	0.503951	-0.264497	0.499509	-0.00464583
0.60796	0.194532	0.32553	-0.378346	-0.122261	-0.5249	0.451965	0.376947	-0.256208	0.518951	0.217258	-0.558088	0.34172	-0.502925	-0.134709	-0.0765322	-0.0991861	-0.25946	0.334375	-0.25639	-0.384572	0.214832	-0.493221	-0.440096	0.473361	0.204485	0.479474	0.170109	0.66121	-0.643679	0.389404	0.441647
0.535024	0.447895	0.313287	-0.199118	-0.163169	-0.526576	0.461954	0.57305	-0.355689	0.520365	0.443595	-0.613146	0.259351	-0.460899	-0.245327	-0.228959	-0.348008	-0.39798	0.384173	-0.558181	-0.36592	0.366775	-0.295024	-0.254852	0.615451	0.26498	0.431341	0.259623	0.372199	-0.28077	0.437415	0.416083
0.428554	-0.00173761	0.170538	-0.306937	-0.614131	-0.521262	0.644056	0.573964	-0.239657	0.33891	0.427016	-0.562073	0.116755	-0.362087	-0.296587	-0.441678	-0.193576	-0.255407	0.313075	-0.382479	-0.352364	0.254843	-0.609497	-0.234074	0.479875	0.110126	0.418284	0.180769	0.666418	-0.644334	0.256475	0.701123
0.411112	0.438123	0.320518	-0.538647	-0.350162	-0.490339	0.300468	0.420996	-0.333667	0.307333	0.377481	-0.512768	0.504677	-0.354128	-0.411013	-0.421014	-0.611953	-0.450463	0.542331	-0.455128	-0.439172	0.393018	-0.514274	-0.400378	0.229633	0.308694	0.376784	0.449819	0.268328	-0.525607	0.479225	0.432574
0.347362	0.438252	0.637253	-0.499786	-0.299395	-0.245613	0.34438	0.476893	-0.453493	0.22204	0.59724	-0.58446	0.49739	-0.228194	-0.556774	-0.310038	-0.560062	-0.517214	0.392352	-0.566834	-0.344242	0.567554	-0.377269	-0.478119	0.331831	0.515231	0.344451	0.526608	0.356583	-0.367816	0.398571	0.642332
0.448655	0.299382	0.328508	-0.0861548	-0.26304	-0.318041	0.484467	0.380235	-0.221272	0.180647	0.34532	-0.353804	0.0805677	-0.12525	-0.099217	-0.209419	-0.178439	-0.187556	0.194121	-0.113139	-0.299833	0.0403525	-0.260043	-0.233707	0.438837	0.149765	0.29713	0.296077	0.271312	-0.366809	0.250783	0.297865
0.463041	0.403304	0.562442	-0.641666	-0.232916	-0.179174	0.453441	0.183587	-0.597957	0.451723	0.547409	-0.162554	0.557974	-0.625254	-0.635247	-0.136622	-0.609747	-0.552827	0.245336	-0.11001	-0.228083	0.550557	-0.234263	-0.585484	0.136474	0.662557	0.250681	0.52555	0.498361	-0.200532	0.402888	0.523164
0.313377	0.121527	0.246912	-0.186623	-0.266225	-0.380171	0.312003	0.509688	-0.305357	0.326755	0.219372	-0.541692	0.520137	-0.257565	-0.656318	-0.584512	-0.419371	-0.381126	0.62265	-0.53006	-0.412196	0.583571	-0.602768	-0.552693	0.23286	0.470468	0.249562	0.43267	0.424049	-0.340151	0.489198	0.507421
0.340418	0.440208	0.527805	-0.342757	-0.459871	-0.196678	0.511701	0.317147	-0.459491	0.417547	0.459116	-0.421509	0.308971	-0.495937	-0.519362	-0.376235	-0.452055	-0.426991	0.312074	-0.29476	-0.274623	0.361178	-0.257335	-0.440119	0.264354	0.480635	0.492529	0.405743	0.470848	-0.254049	0.382885	0.566705
0.446039	0.490079	0.310625	-0.703306	-0.470204	-0.625561	0.20371	0.674975	-0.440304	0.587869	0.358812	-0.332871	0.235889	-0.473642	-0.371399	-0.615485	-0.333972	-0.165238	0.30747	-0.542404	-0.491086	0.426652	-0.375104	-0.266105	0.525911	0.391597	0.401757	0.34985	0.382784	-0.31072	0.327853	0.274962
0.37556	0.226384	0.362095	-0.150846	-0.25796	-0.44627	0.558574	0.556387	-0.345614	0.540524	0.662982	-0.570435	0.274034	-0.427405	-0.433523	-0.377329	-0.296418	-0.313578	0.431039	-0.186752	-0.311254	0.221435	-0.724376	-0.303769	0.528347	0.349157	0.276839	0.271541	0.682132	-0.657547	0.160277	0.686363
0.552343	0.127719	0.273554	-0.179375	-0.333627	-0.560574	0.522188	0.535331	-0.244709	0.546081	0.497937	-0.499494	0.224279	-0.331624	-0.234744	-0.297535	-0.277428	-0.332456	0.232694	-0.340266	-0.255091	0.196159	-0.56801	-0.342539	0.53885	0.275029	0.414218	0.315918	0.636124	-0.550003	0.210179	0.546178
0.606731	0.411878	0.49223	-0.352322	-0.308799	-0.383259	0.344414	0.380526	-0.291271	0.387569	0.4933	-0.324218	0.460137	-0.540156	-0.370838	-0.420111	-0.560578	-0.427677	0.346367	-0.308	-0.517437	0.514422	-0.287819	-0.639325	0.260722	0.496368	0.327833	0.376747	0.369802	-0.254234	0.540545	0.246925
0.421663	0.509577	0.125088	-0.501049	-0.474566	-0.687779	0.358165	0.561644	-0.431299	0.356206	0.344187	-0.641627	0.218239	-0.209141	-0.360486	-0.577525	-0.32973	-0.0816932	0.373033	-0.332041	-0.255587	0.31155	-0.479935	-0.283076	0.454346	0.216048	0.601707	0.319894	0.467784	-0.486583	0.278197	0.576938
0.3561	0.310309	0.497237	-0.578974	-0.267764	-0.254517	0.334304	0.246183	-0.520911	0.394186	0.497526	-0.216364	0.552105	-0.527891	-0.431564	-0.294949	-0.514712	-0.589801	0.272531	-0.36435	-0.263142	0.558977	-0.284058	-0.510526	0.195977	0.556959	0.356613	0.511642	0.371045	-0.296882	0.525268	0.479273
0.403402	0.334526	0.345899	-0.593992	-0.532751	-0.500034	0.304364	0.530041	-0.519515	0.521367	0.283649	-0.17257	0.290472	-0.515763	-0.377115	-0.545932	-0.248102	-0.293587	0.328719	-0.334108	-0.487512	0.452683	-0.335262	-0.257253	0.538756	0.585352	0.480115	0.249689	0.369796	-0.201255	0.287182	0.233664
0.476474	0.44956	0.626521	-0.62653	-0.421291	-0.266263	0.486511	0.224685	-0.645048	0.662521	0.547566	-0.222866	0.576	-0.541208	-0.594188	-0.180483	-0.614017	-0.620486	0.344913	-0.297762	-0.200458	0.618114	-0.374371	-0.698506	0.291007	0.541282	0.28518	0.559742	0.563441	-0.242234	0.616524	0.461526
0.422001	0.341235	0.252675	-0.611158	-0.445478	-0.636301	0.0688928	0.601848	-0.509398	0.346842	0.131113	-0.208756	0.189081	-0.356816	-0.338573	-0.632569	-0.112078	-0.22964	0.447341	-0.428371	-0.618866	0.248131	-0.225313	-0.190543	0.518033	0.380364	0.51978	0.194244	0.156591	-0.200805	0.293788	0.194802
0.329068	0.634965	0.448068	-0.518528	-0.575789	-0.401136	0.404661	0.456715	-0.362271	0.484815	0.348629	-0.448576	0.501598	-0.262989	-0.476971	-0.500977	-0.487449	-0.467838	0.563049	-0.451898	-0.523928	0.461388	-0.170137	-0.346236	0.395975	0.361519	0.607685	0.358107	0.39037	-0.394569	0.424805	0.421677
0.294621	0.00748079	0.111493	-0.0888601	-0.545248	-0.553726	0.569727	0.382999	-0.310891	0.430995	0.459585	-0.572284	0.24911	-0.382732	-0.32708	-0.502292	-0.187629	-0.239856	0.391316	-0.327988	-0.308043	0.223344	-0.844448	-0.490494	0.589476	0.22817	0.498801	0.215682	0.590187	-0.662292	0.134733	0.430635
0.306668	0.389716	0.627028	-0.573761	-0.61728	-0.167434	0.260661	0.192922	-0.445268	0.512065	0.513139	-0.280349	0.724001	-0.561179	-0.453628	-0.261394	-0.571117	-0.631783	0.402014	-0.337341	-0.599408	0.499478	-0.160649	-0.424577	0.18877	0.586488	0.43714	0.534017	0.413521	-0.313568	0.637302	0.350771
0.493404	0.0367315	0.237549	-0.170648	-0.28521	-0.465474	0.461938	0.456655	-0.30995	0.512199	0.295111	-0.532939	0.273771	-0.4396	-0.2193	-0.356803	-0.278304	-0.196015	0.461122	-0.490407	-0.3385	0.215079	-0.59573	-0.282084	0.474646	0.314535	0.606459	0.291465	0.296252	-0.425087	0.55429	0.167204
0.438191	0.49595	0.460548	-0.70009	-0.684798	-0.380961	0.633282	0.404022	-0.664474	0.580792	0.276181	-0.44444	0.573361	-0.448058	-0.536654	-0.367399	-0.452196	-0.402203	0.608516	-0.483699	-0.201743	0.387182	-0.192919	-0.311644	0.281729	0.444222	0.499106	0.319458	0.456025	-0.564816	0.286378	0.56388
0.47123	0.46986	0.290325	-0.446474	-0.314494	-0.55761	0.300539	0.489413	-0.334738	0.367563	0.2355	-0.423987	0.245428	-0.177103	-0.339108	-0.504984	-0.3408	-0.245146	0.526792	-0.375524	-0.266438	0.172945	-0.438482	-0.423948	0.393225	0.23184	0.454386	0.224578	0.277889	-0.233128	0.471834	0.399911
0.450983	0.418675	0.298335	-0.474201	-0.35643	-0.49952	0.298957	0.563424	-0.460639	0.465921	0.348675	-0.487848	0.325455	-0.283188	-0.412138	-0.660597	-0.461446	-0.371673	0.513859	-0.453929	-0.151085	0.478659	-0.611269	-0.452783	0.339371	0.262379	0.409774	0.421332	0.311802	-0.255007	0.586943	0.564484
0.457378	0.303527	0.35419	-0.408188	-0.279529	-0.478641	0.35718	0.468069	-0.286469	0.245497	0.388983	-0.495311	0.286206	-0.48199	-0.286076	-0.530217	-0.403868	-0.322039	0.337764	-0.419756	-0.624058	0.313021	-0.408997	-0.411814	0.480973	0.276331	0.475096	0.428315	0.284417	-0.421751	0.305818	0.14206
0.297763	0.218267	0.594885	-0.283198	-0.391636	-0.35995	0.347584	0.267799	-0.347674	0.378804	0.540833	-0.387019	0.620871	-0.649651	-0.308125	-0.16679	-0.485181	-0.530112	0.201748	-0.258451	-0.474518	0.511965	-0.379415	-0.445804	0.438139	0.414552	0.318884	0.580514	0.457085	-0.494088	0.42152	0.279843
0.303604	0.529949	0.633005	-0.293875	-0.471767	-0.192424	0.395146	0.259534	-0.212474	0.487661	0.591349	-0.328621	0.630905	-0.636077	-0.258269	-0.205576	-0.507543	-0.614444	0.358965	-0.397682	-0.553458	0.668263	-0.240938	-0.488696	0.258701	0.595671	0.253981	0.527438	0.405388	-0.357368	0.459635	0.353918
0.442718	0.60347	0.63792	-0.540824	-0.340281	-0.222618	0.524782	0.223765	-0.40415	0.451594	0.500224	-0.408981	0.596048	-0.564414	-0.560159	-0.269235	-0.519164	-0.686612	0.337727	-0.20272	-0.262256	0.438192	-0.262173	-0.590444	0.3571	0.659732	0.310257	0.551399	0.403211	-0.311451	0.520669	0.31121
0.516715	-0.0180186	0.13418	-0.0392929	-0.580431	-0.368882	0.557846	0.536982	-0.054869	0.551695	0.494377	-0.485592	0.145857	-0.513504	-0.446994	-0.41385	-0.250205	-0.0593184	0.382052	-0.493906	-0.422565	0.236898	-0.832027	-0.633278	0.525502	0.372235	0.557874	0.251928	0.60357	-0.581143	0.340583	0.733082
0.570167	0.45554	0.272166	-0.359757	-0.288716	-0.563815	0.589977	0.521413	-0.424832	0.564411	0.681172	-0.480406	0.17258	-0.419311	-0.312701	-0.408253	-0.206408	-0.196515	0.52222	-0.40704	-0.418066	0.295012	-0.472786	-0.288199	0.506816	0.307166	0.13738	0.224819	0.51899	-0.634744	0.256039	0.381636
0.5266	0.437977	0.526298	-0.552234	-0.457768	-0.405232	0.336714	0.337889	-0.486111	0.50044	0.423676	-0.266208	0.455021	-0.55558	-0.420682	-0.520765	-0.398499	-0.557175	0.178886	-0.247425	-0.511884	0.43323	0.0258549	-0.417874	0.39591	0.49559	0.415829	0.608782	0.507894	-0.350059	0.48512	0.307871
0.396534	0.174724	0.297852	-0.1799	-0.540107	-0.511133	0.444795	0.558808	-0.314327	0.552205	0.495903	-0.650928	0.275226	-0.340387	-0.438118	-0.377351	-0.265105	-0.171503	0.426498	-0.357486	-0.308101	0.230196	-0.541984	-0.359984	0.554101	0.369438	0.351798	0.255699	0.554025	-0.5547	0.355085	0.586538
0.367243	0.28765	0.225894	-0.306625	-0.526251	-0.541744	0.58142	0.434754	-0.319106	0.453642	0.362712	-0.463537	0.293281	-0.348012	-0.307579	-0.558833	-0.3116	-0.343195	0.476236	-0.370856	-0.211587	0.290707	-0.604885	-0.450071	0.355977	0.392481	0.507637	0.282138	0.536685	-0.513633	0.292426	0.456558
0.181656	0.563006	0.525092	-0.574997	-0.632787	-0.176144	0.59091	0.16235	-0.604096	0.543811	0.334434	-0.426056	0.557703	-0.646068	-0.458116	-0.23495	-0.417329	-0.51011	0.34848	-0.400089	-0.259919	0.53085	-0.13632	-0.320162	0.177806	0.647071	0.250185	0.38901	0.499744	-0.430948	0.34013	0.408365
0.295822	0.139256	0.290399	-0.126968	-0.553288	-0.367381	0.658659	0.473022	-0.501604	0.623254	0.483143	-0.547687	0.289444	-0.374887	-0.547571	-0.45614	-0.276867	-0.145463	0.322041	-0.26841	-0.235806	0.255095	-0.683402	-0.274036	0.430931	0.373211	0.323408	0.311174	0.639651	-0.545684	0.146337	0.613696
0.594162	0.429873	0.505844	-0.546024	-0.545684	-0.148326	0.378157	0.209768	-0.536848	0.498957	0.441384	-0.368769	0.477099	-0.441283	-0.37018	-0.169907	-0.535306	-0.482443	0.282907	-0.190942	-0.39623	0.59401	-0.36897	-0.58794	0.377977	0.530325	0.604115	0.520153	0.458625	-0.273851	0.531192	0.38136
0.299234	0.140827	0.506626	-0.423446	-0.548562	-0.150143	0.524807	0.249269	-0.528779	0.547356	0.446628	-0.355406	0.505686	-0.437224	-0.458246	-0.322379	-0.406829	-0.435285	0.230331	-0.272706	-0.531622	0.395761	-0.381897	-0.49018	0.450358	0.394697	0.288452	0.42677	0.650076	-0.420736	0.39951	0.485459
0.39394	0.309525	0.388333	-0.507699	-0.49012	-0.319938	0.283175	0.314715	-0.351551	0.443849	0.273439	-0.367721	0.412665	-0.11178	-0.314606	-0.329722	-0.239174	-0.209917	0.48089	-0.558368	-0.459177	0.354522	-0.452293	-0.286866	0.360217	0.40212	0.481836	0.411193	0.206404	-0.542835	0.392674	0.419915
0.401195	0.369251	0.516252	-0.225867	-0.478963	-0.344775	0.494683	0.444802	-0.439437	0.503197	0.416676	-0.383851	0.42215	-0.478492	-0.483302	-0.355411	-0.468384	-0.362895	0.32979	-0.264479	-0.595585	0.445653	-0.423571	-0.344628	0.497278	0.462636	0.446155	0.445395	0.585944	-0.537127	0.487517	0.527271
0.578176	0.48101	0.563717	-0.492185	-0.390643	-0.245045	0.444376	0.23335	-0.56233	0.331581	0.604944	-0.417233	0.451265	-0.522886	-0.482278	-0.251914	-0.525628	-0.5022	0.353945	-0.355635	-0.319907	0.443138	-0.229476	-0.49426	0.303551	0.543453	0.380503	0.541175	0.432449	-0.413615	0.424178	0.461804
0.542688	0.454647	0.48203	-0.369234	-0.404498	-0.37969	0.543171	0.314991	-0.455008	0.380991	0.624088	-0.367286	0.412965	-0.534034	-0.387283	-0.381752	-0.500501	-0.533751	0.26589	-0.337795	-0.437025	0.351058	-0.436395	-0.511073	0.446868	0.556214	0.323835	0.53705	0.432359	-0.38402	0.373013	0.383301
0.536983	0.524526	0.177045	-0.46061	-0.441811	-0.724843	0.197365	0.68298	-0.469158	0.166406	0.243619	-0.336712	0.153444	-0.132104	-0.278728	-0.69957	-0.432326	-0.308901	0.518659	-0.492852	-0.297606	0.352923	-0.446112	-0.38094	0.475671	0.231498	0.492444	0.361051	0.248664	-0.305225	0.453092	0.456475
0.330272	0.206285	0.263566	-0.266952	-0.424808	-0.256335	0.478946	0.401944	-0.341362	0.702872	0.273089	-0.502571	0.438593	-0.184487	-0.356813	-0.383443	-0.334819	-0.315833	0.385811	-0.491018	-0.250031	0.199171	-0.406129	-0.291801	0.345294	0.339392	0.462545	0.327691	0.361705	-0.381411	0.336119	0.465232
0.549178	0.523803	0.19565	-0.638819	-0.299623	-0.567009	0.236875	0.571653	-0.221313	0.179082	0.377192	-0.35884	0.251564	-0.356089	-0.363374	-0.619868	-0.106876	-0.284995	0.466504	-0.437771	-0.65755	0.293722	-0.60453	-0.372131	0.516963	0.299714	0.595667	0.289598	0.324948	-0.430932	0.317521	0.402615
0.447526	0.0571133	0.23297	-0.274517	-0.177024	-0.342209	0.148504	0.408694	-0.412584	0.497233	0.291352	-0.407404	0.294606	-0.00586574	-0.485366	-0.318848	-0.286245	-0.0521872	0.386199	-0.376755	-0.502414	0.470428	-0.41917	-0.255496	0.471437	0.199113	0.451097	0.261865	0.277877	-0.430761	0.267765	0.536313
0.40806	0.400275	0.639342	-0.554574	-0.43073	-0.192114	0.353992	0.306038	-0.577579	0.38495	0.52887	-0.26063	0.530481	-0.64541	-0.469595	-0.307961	-0.566143	-0.618574	0.229125	-0.262602	-0.362181	0.463723	-0.237966	-0.661786	0.262003	0.707986	0.320667	0.567998	0.580535	-0.316006	0.552643	0.505252
0.285049	0.311778	0.369863	-0.201065	-0.17669	-0.176031	0.327749	0.113238	-0.257437	0.241908	0.319483	-0.306312	0.391157	-0.191419	-0.369847	-0.235373	-0.457007	-0.264211	0.225879	-0.286043	-0.223095	0.254116	-0.356745	-0.532864	0.26745	0.311489	0.252633	0.451025	0.387698	-0.334378	0.296302	0.435045
0.407152	0.271069	0.347992	-0.287848	-0.621037	-0.544757	0.635566	0.533995	-0.35793	0.48605	0.48705	-0.508894	0.255519	-0.284077	-0.411786	-0.558956	-0.240436	-0.167503	0.274806	-0.343106	-0.263263	0.276845	-0.595847	-0.383905	0.579319	0.361206	0.286935	0.243168	0.587522	-0.564446	0.196142	0.662602
0.426639	0.424477	0.324455	-0.442536	-0.265336	-0.580875	0.224642	0.569855	-0.205231	0.425551	0.257956	-0.419749	0.419173	-0.320883	-0.222725	-0.452004	-0.460151	-0.551385	0.529618	-0.576134	-0.396647	0.547398	-0.266938	-0.535536	0.245034	0.445009	0.651843	0.423392	0.231944	-0.260284	0.531896	0.21276
0.533896	0.576051	0.580687	-0.482081	-0.492515	-0.207495	0.618655	0.34304	-0.518063	0.384988	0.594991	-0.432231	0.406029	-0.38242	-0.502923	-0.22805	-0.508433	-0.486996	0.305205	-0.305772	-0.250104	0.470284	-0.31852	-0.483328	0.522296	0.557957	0.458775	0.64752	0.444421	-0.566531	0.339746	0.569108
0.379659	0.575073	0.574435	-0.553629	-0.144558	-0.28556	0.346433	0.251303	-0.477422	0.385148	0.538225	-0.179244	0.403019	-0.477436	-0.41126	-0.274661	-0.478836	-0.494728	0.209563	-0.160567	-0.207148	0.552196	-0.349906	-0.541091	0.323583	0.504032	0.288316	0.515518	0.427058	-0.262599	0.304918	0.333619
0.455864	0.455186	0.124094	-0.471227	-0.503416	-0.507445	0.138667	0.561567	-0.417562	0.541938	0.17107	-0.226581	0.183325	-0.596204	-0.294689	-0.682554	-0.218626	-0.289403	0.366907	-0.363948	-0.611319	0.323678	-0.415022	-0.269614	0.46413	0.484663	0.358484	0.213758	0.223543	-0.258881	0.245433	0.171127
0.549972	0.2966	0.196729	-0.253435	-0.474584	-0.666408	0.387596	0.497112	-0.342669	0.523547	0.259392	-0.356787	0.348075	-0.132721	-0.040573	-0.6002	-0.624875	-0.484127	0.354341	-0.545898	-0.291534	0.211954	-0.567722	-0.332776	0.330172	0.47308	0.653695	0.349282	0.363732	-0.0942832	0.360524	0.309451
0.563934	0.137848	0.406511	-0.284438	-0.321888	-0.368991	0.339481	0.451146	-0.335712	0.241179	0.499905	-0.540087	0.327863	-0.331724	-0.246518	-0.213345	-0.413143	-0.543331	0.406819	-0.311798	-0.613172	0.356831	-0.435175	-0.561402	0.522753	0.29781	0.388483	0.375748	0.419026	-0.536532	0.626659	0.544384
0.175957	0.0120877	0.329665	-0.499913	-0.375994	-0.207669	0.58734	0.183812	-0.563532	0.475331	0.227987	-0.4425	0.0508467	-0.479614	-0.631562	-0.373895	-0.29719	-0.510333	0.275899	-0.216897	-0.0363704	0.187017	-0.371977	-0.339777	0.131989	0.413178	0.25763	0.250321	0.393797	-0.49826	0.355705	0.50494
0.636271	0.385747	0.259429	-0.542635	-0.180699	-0.593999	0.227849	0.617602	-0.209338	0.23454	0.383607	-0.250448	0.26196	-0.182087	-0.415095	-0.545591	-0.492302	-0.281766	0.597934	-0.602229	-0.231609	0.316261	-0.428076	-0.442132	0.339777	0.266649	0.531238	0.353767	0.216354	-0.301972	0.516414	0.413572
0.432961	0.331614	0.7329	-0.602363	-0.263874	-0.17373	0.385108	0.115587	-0.548422	0.477127	0.633958	-0.103342	0.618842	-0.736413	-0.603556	-0.174901	-0.733891	-0.771121	0.221571	-0.164585	-0.259477	0.660216	-0.023117	-0.527802	0.212283	0.652324	0.351487	0.577256	0.515619	-0.125865	0.644363	0.278361
0.429919	0.381644	0.245149	-0.501195	-0.345586	-0.376825	0.185372	0.526087	-0.311699	0.415442	0.218816	-0.311942	0.392306	-0.395361	-0.396381	-0.473042	-0.127006	-0.368432	0.340893	-0.434484	-0.536031	0.337749	-0.626926	-0.114293	0.347096	0.301236	0.350847	0.276387	0.364048	-0.366325	0.152118	0.311954
0.57523	0.251142	0.313983	-0.396517	-0.428836	-0.553721	0.340771	0.482959	-0.312627	0.30487	0.563209	-0.477305	0.368614	-0.356347	-0.434219	-0.541498	-0.420601	-0.409229	0.413637	-0.41805	-0.430929	0.420219	-0.503032	-0.572438	0.433579	0.328624	0.386641	0.391095	0.464035	-0.424244	0.365541	0.369213
0.368143	0.378537	0.41987	-0.391021	-0.489768	-0.411487	0.258781	0.259264	-0.248763	0.314181	0.33424	-0.344242	0.510055	-0.246477	-0.313111	-0.208614	-0.390617	-0.32757	0.46419	-0.529035	-0.39968	0.418758	-0.39805	-0.268344	0.297819	0.4214	0.464593	0.440593	0.227254	-0.213123	0.611681	0.47028
0.460583	0.371459	0.356097	-0.42449	-0.433051	-0.49994	0.504449	0.506689	-0.438746	0.390291	0.409496	-0.407477	0.397051	-0.469583	-0.418757	-0.434359	-0.367292	-0.388402	0.351962	-0.456979	-0.430202	0.404394	-0.476512	-0.502464	0.452589	0.369837	0.434674	0.413055	0.478831	-0.434057	0.500391	0.403681
0.330733	0.131307	0.536708	-0.496468	-0.540034	-0.307354	0.437393	0.266637	-0.239954	0.341403	0.534293	-0.66085	0.695978	-0.564907	-0.293305	-0.310024	-0.699106	-0.632596	0.309612	-0.444451	-0.565628	0.547683	-0.0225545	-0.461668	0.341354	0.602725	0.461529	0.568332	0.336709	-0.204827	0.336097	0.51591
0.483012	0.365686	0.417895	-0.397619	-0.190045	-0.0526857	0.396474	0.145517	-0.501237	0.296055	0.416207	-0.287176	0.389339	-0.278016	-0.386902	-0.0308253	-0.550569	-0.360337	0.228103	-0.102105	-0.125338	0.363693	-0.214415	-0.424299	0.271938	0.386456	0.35121	0.436846	0.269589	-0.226027	0.217298	0.322
0.220781	0.189726	0.265594	-0.0821727	-0.440804	-0.352503	0.486599	0.340182	-0.265774	0.313565	0.32418	-0.499805	0.198577	-0.257165	-0.294614	-0.302148	-0.120236	-0.236672	0.364079	-0.234296	-0.0982491	0.275991	-0.497699	-0.190321	0.457999	0.208768	0.256005	0.187753	0.494982	-0.323016	0.204161	0.394689
0.436375	0.549229	0.50599	-0.571089	-0.256242	-0.256414	0.249925	0.345069	-0.540623	0.456111	0.563408	-0.337229	0.371671	-0.5543	-0.450009	-0.406989	-0.596421	-0.55281	0.347401	-0.281625	-0.341284	0.601115	-0.313728	-0.495654	0.378301	0.545834	0.316672	0.585255	0.534054	-0.220929	0.372321	0.164127
0.226786	0.319626	0.571918	-0.340503	-0.529784	-0.237615	0.360055	0.292395	-0.36022	0.43326	0.560205	-0.237142	0.564275	-0.553013	-0.214965	-0.193442	-0.51801	-0.565542	0.212324	-0.353078	-0.549957	0.460207	-0.337207	-0.410622	0.420512	0.499512	0.344665	0.551778	0.330608	-0.406376	0.529808	0.312624
0.211262	0.164215	0.289006	-0.327301	-0.487358	-0.290879	0.477549	0.399381	-0.36642	0.291673	0.295372	-0.487757	0.346863	-0.146718	-0.243071	-0.46789	-0.268861	-0.278411	0.456077	-0.438227	-0.335153	0.21526	-0.608422	-0.183634	0.382973	0.236756	0.416157	0.380899	0.365682	-0.562593	0.281282	0.383708
0.47911	0.366	0.293869	-0.100889	-0.161229	-0.320477	0.287925	0.207181	-0.154814	0.425772	0.212136	-0.356016	0.233526	-0.358524	-0.258452	-0.237162	-0.0569516	-0.333235	0.335343	-0.169143	-0.234291	0.246361	-0.360857	-0.15132	0.505602	0.228335	0.324343	0.0732604	0.485761	-0.403666	0.392051	0.445471
0.396511	0.228924	0.323258	-0.290158	-0.532289	-0.458983	0.573878	0.496121	-0.431944	0.496957	0.288214	-0.453294	0.337521	-0.364522	-0.54107	-0.394123	-0.324467	-0.356029	0.288305	-0.211718	-0.345243	0.272053	-0.379887	-0.243482	0.432976	0.422213	0.346287	0.237941	0.528109	-0.373842	0.219632	0.542367
0.238759	0.167661	0.289526	-0.338221	-0.491682	-0.364354	0.28011	0.362261	-0.309398	0.397205	0.227368	-0.399927	0.599994	-0.265825	-0.457644	-0.484025	-0.456279	-0.44182	0.558234	-0.565349	-0.328339	0.547265	-0.580079	-0.586781	0.251472	0.418345	0.250315	0.471768	0.387556	-0.307022	0.44225	0.51446
0.473412	0.495551	0.605523	-0.514521	-0.0290104	-0.184933	0.286624	0.221212	-0.413117	0.401435	0.562478	-0.277658	0.452794	-0.624043	-0.568009	-0.210673	-0.591506	-0.580617	0.189974	-0.118905	-0.249	0.564906	0.106623	-0.609702	0.275451	0.626552	0.177869	0.484674	0.453915	-0.222001	0.485503	-0.00692296
0.398609	0.332263	0.247297	-0.332093	-0.334496	-0.199289	0.435127	0.387553	-0.342187	0.546078	0.280587	-0.49253	0.4307	-0.381172	-0.439408	-0.182978	-0.314031	-0.368298	0.555829	-0.274069	-0.389891	0.500644	-0.338232	-0.458969	0.350785	0.467548	0.332282	0.276466	0.288127	-0.380682	0.283066	0.197995
0.518881	0.38284	0.341962	-0.549945	-0.319891	-0.521121	0.282408	0.52486	-0.286625	0.368771	0.45764	-0.431869	0.371911	-0.261963	-0.472325	-0.399417	-0.387316	-0.426099	0.64103	-0.540575	-0.29619	0.349467	-0.396554	-0.520849	0.156688	0.38104	0.386465	0.401923	0.127877	-0.210797	0.539633	0.389113
0.309726	0.539059	0.636581	-0.46559	-0.535629	-0.192805	0.401195	0.190037	-0.527488	0.476301	0.522165	-0.305684	0.52671	-0.614489	-0.552027	-0.214059	-0.594104	-0.514772	0.302015	-0.314123	-0.234537	0.531712	-0.277553	-0.474562	0.315304	0.618444	0.288818	0.56661	0.605467	-0.196873	0.604229	0.396408
0.289594	0.349076	0.615156	-0.409429	-0.395738	-0.367077	0.432165	0.229207	-0.262187	0.424624	0.586986	-0.44235	0.514581	-0.603137	-0.369229	-0.407095	-0.432107	-0.550031	0.256706	-0.475518	-0.59776	0.519408	-0.265971	-0.431499	0.500403	0.498004	0.238837	0.642709	0.443844	-0.443073	0.395911	0.368491
0.45813	0.342778	0.518231	-0.554141	-0.22651	-0.301014	0.408673	0.28639	-0.591558	0.439946	0.419183	-0.271138	0.370834	-0.429009	-0.534552	-0.343812	-0.444506	-0.589816	0.314458	-0.180919	-0.275265	0.51445	-0.277899	-0.555853	0.260443	0.546103	0.358367	0.480953	0.538938	-0.13562	0.403997	0.163237
0.24932	0.322958	0.375532	-0.247949	-0.352272	-0.568913	0.26271	0.452897	-0.245488	0.369066	0.263543	-0.52193	0.483486	-0.212835	-0.493081	-0.541484	-0.453151	-0.39327	0.699765	-0.575422	-0.359265	0.488119	-0.818769	-0.58009	0.248588	0.531509	0.218736	0.448845	0.20421	-0.408751	0.486342	0.730386
0.488635	0.284656	0.50008	-0.403305	-0.462209	-0.312484	0.464406	0.338152	-0.330089	0.408498	0.542263	-0.489905	0.460175	-0.479303	-0.401177	-0.268338	-0.386882	-0.466921	0.466333	-0.457369	-0.416829	0.424535	-0.487455	-0.51677	0.594551	0.404038	0.366855	0.539608	0.4622	-0.445709	0.54331	0.44743
0.409279	0.701639	0.28771	-0.516082	-0.537718	-0.170263	0.422943	0.399119	-0.515403	0.406798	0.27737	-0.465581	0.495351	-0.372856	-0.429007	-0.240923	-0.521635	-0.364275	0.563134	-0.570777	-0.42335	0.397507	-0.475403	-0.426438	0.378561	0.464879	0.533705	0.408819	0.300393	-0.367356	0.358655	0.302061
0.295012	0.529308	0.361403	-0.651427	-0.325914	-0.457342	0.368946	0.452758	-0.410364	0.217781	0.266416	-0.581281	0.563689	-0.0825432	-0.300826	-0.357642	-0.425107	-0.395233	0.569873	-0.507125	-0.413846	0.528371	-0.598922	-0.397671	0.1613	0.353639	0.333943	0.53639	0.315909	-0.497167	0.480441	0.763581
0.277077	0.380232	0.298519	-0.226844	-0.341088	-0.633232	0.215264	0.402946	-0.172891	0.214155	0.274592	-0.498466	0.584015	-0.22258	-0.487691	-0.499268	-0.464424	-0.277431	0.589853	-0.530363	-0.186669	0.471821	-0.473761	-0.44675	0.22064	0.242895	0.209938	0.26552	0.315757	-0.312621	0.234916	0.357828
0.348688	0.441461	0.350496	-0.507985	-0.321178	-0.656424	0.420493	0.510671	-0.429423	0.250932	0.29323	-0.559442	0.447601	-0.24203	-0.366727	-0.271002	-0.389565	-0.328337	0.583193	-0.614234	-0.365972	0.376504	-0.479681	-0.333963	0.306248	0.290919	0.384494	0.50913	0.365757	-0.548482	0.408015	0.551971
0.598054	0.567942	0.263544	-0.435925	-0.302635	-0.618265	0.230884	0.634711	-0.328818	0.320942	0.271455	-0.321682	0.288541	-0.14408	-0.407582	-0.556479	-0.270467	-0.327703	0.45274	-0.410179	-0.18549	0.348698	-0.398113	-0.405945	0.317187	0.255684	0.434254	0.419474	0.309514	-0.282201	0.550501	0.436821
0.269983	0.480698	0.429526	-0.551902	-0.272941	-0.454533	0.227873	0.343742	-0.307272	0.162734	0.327685	-0.435898	0.454211	-0.315048	-0.408766	-0.255855	-0.282056	-0.483631	0.418662	-0.405408	-0.310324	0.275157	-0.456138	-0.323292	0.356503	0.27578	0.555954	0.387393	0.251007	-0.214386	0.460213	0.406068
0.310946	0.341628	0.282906	-0.398557	-0.474567	-0.414236	0.246786	0.358622	-0.251027	0.218174	0.295834	-0.279824	0.520473	-0.202841	-0.361043	-0.166559	-0.467394	-0.399988	0.300104	-0.50244	-0.461768	0.15829	-0.335071	-0.255628	0.329694	0.373526	0.309239	0.563723	0.170045	-0.327341	0.511354	0.495481
0.658075	0.561734	0.216637	-0.50346	-0.178517	-0.621221	0.181987	0.604856	-0.24955	0.22771	0.424924	-0.504183	0.271556	-0.18665	-0.325064	-0.569718	-0.39359	-0.256593	0.572503	-0.409686	-0.218614	0.365806	-0.312781	-0.385241	0.429545	0.0945262	0.541113	0.337542	0.209443	-0.341916	0.420882	0.562394
0.616062	0.332898	0.128058	-0.475229	-0.156078	-0.545521	0.153998	0.555859	-0.269885	0.254114	0.243236	-0.53448	0.131148	-0.275105	-0.361892	-0.510047	-0.375312	-0.155497	0.544215	-0.483165	-0.22376	0.342031	-0.642919	-0.352293	0.320697	0.175971	0.472584	0.463612	0.240593	-0.205139	0.475702	0.547403
0.389271	0.273486	0.399022	-0.375204	-0.62707	-0.419195	0.589402	0.339175	-0.505531	0.517637	0.230043	-0.491154	0.314055	-0.439667	-0.485628	-0.314711	-0.497228	-0.520978	0.43438	-0.354754	-0.279218	0.333886	-0.540599	-0.325353	0.312356	0.577138	0.247927	0.251219	0.610122	-0.309957	0.260115	0.50642
0.276093	0.549789	0.18711	-0.405008	-0.352704	-0.500998	0.232254	0.553326	-0.386508	0.20931	0.0961184	-0.582832	0.431109	-0.0676919	-0.209111	-0.331451	-0.178968	-0.194791	0.570946	-0.572346	-0.384015	0.280309	-0.405838	-0.228061	0.198062	0.203921	0.611887	0.237302	0.164716	-0.581612	0.548156	0.516179
0.501143	0.398903	0.527128	-0.411755	-0.446089	-0.261307	0.317535	0.379267	-0.304781	0.277389	0.555293	-0.370296	0.382066	-0.538075	-0.268096	-0.293677	-0.523098	-0.528418	0.254345	-0.440827	-0.487283	0.388199	-0.191055	-0.465274	0.547264	0.568072	0.276085	0.45677	0.386506	-0.473203	0.41451	0.280681
0.389906	0.407349	0.147924	-0.68166	-0.549148	-0.672909	0.251642	0.628827	-0.640646	0.510804	0.241039	-0.232833	0.315846	-0.646606	-0.387737	-0.608175	-0.306438	-0.297177	0.390694	-0.490956	-0.576908	0.395485	-0.27484	-0.220196	0.55482	0.444512	0.390778	0.18631	0.339462	-0.33881	0.286215	0.385178
0.358415	0.355539	0.468866	-0.238026	-0.530052	-0.315139	0.485828	0.34331	-0.409613	0.351732	0.482184	-0.494704	0.522859	-0.594295	-0.382665	-0.248673	-0.41402	-0.448508	0.373935	-0.212855	-0.608327	0.497105	-0.256766	-0.525664	0.551664	0.483484	0.344696	0.502118	0.69708	-0.463235	0.487112	0.332732
0.262859	0.492711	0.485533	-0.605074	-0.628438	-0.297981	0.431	0.351378	-0.552893	0.472133	0.490171	-0.27216	0.560945	-0.560232	-0.462452	-0.40619	-0.505196	-0.376899	0.371705	-0.393451	-0.441772	0.528002	-0.368438	-0.361297	0.294693	0.544935	0.32794	0.525908	0.500148	-0.344093	0.402551	0.347764
0.286219	0.258621	0.360185	-0.487042	-0.394487	-0.594346	0.238334	0.634327	-0.260146	0.250759	0.340958	-0.411856	0.364435	-0.328824	-0.271883	-0.303853	-0.227593	-0.298821	0.520603	-0.522838	-0.27106	0.171763	-0.159181	-0.142858	0.276709	0.0327833	0.549641	0.191855	0.120542	-0.338497	0.346787	0.466317
0.326946	0.402549	0.326614	-0.426811	-0.223824	-0.112187	0.398367	0.181507	-0.496675	0.123023	0.423998	-0.171825	0.268947	-0.169476	-0.327029	-0.210284	-0.223198	-0.317204	0.0175433	-0.0968813	-0.251568	0.148261	-0.130095	-0.410617	0.0839651	0.301367	0.238278	0.509022	0.436349	-0.256388	0.142087	-0.0555269
0.372531	0.395126	0.605258	-0.394953	-0.278306	-0.202458	0.46744	0.22753	-0.28903	0.421965	0.453076	-0.164783	0.469525	-0.537677	-0.397993	-0.240723	-0.610903	-0.660828	0.249954	-0.513006	-0.498163	0.597138	-0.314862	-0.479021	0.332074	0.559864	0.269441	0.633767	0.523667	-0.266423	0.454265	0.382059
0.246086	-0.0436439	0.423026	-0.146213	-0.195236	-0.207617	0.174941	0.192805	-0.160344	0.346793	0.462527	-0.336555	0.442324	-0.161269	-0.209097	-0.132483	-0.222003	-0.0524069	0.243834	-0.181139	-0.460998	0.337178	0.0781501	-0.489248	0.290958	0.43891	0.22632	0.502344	0.374582	-0.364886	0.483449	0.12379
0.43406	0.20611	0.208968	-0.252138	-0.526524	-0.574743	0.658088	0.633607	-0.28627	0.519505	0.454516	-0.622415	0.337163	-0.399011	-0.301764	-0.384916	-0.349952	-0.298399	0.327926	-0.587171	-0.553986	0.386912	-0.348849	-0.425849	0.607973	0.335755	0.377851	0.208007	0.580112	-0.599706	0.4083	0.495959
0.304689	0.299836	0.370899	-0.27473	-0.352483	-0.404561	0.185797	0.510777	-0.407852	0.14939	0.328216	-0.346996	0.384157	-0.489805	-0.269086	-0.383708	-0.327109	-0.178965	0.312439	-0.403343	-0.549258	0.44219	-0.159795	-0.273912	0.476658	0.23639	0.376402	0.451389	0.271966	-0.359804	0.374632	0.33757
0.343048	0.440572	0.412603	-0.50535	-0.273644	-0.31847	0.349658	0.2643	-0.47782	0.370564	0.524998	-0.381704	0.539595	-0.590978	-0.408164	-0.395954	-0.458277	-0.57877	0.273746	-0.350243	-0.305579	0.607988	-0.227651	-0.403006	0.399517	0.56345	0.301721	0.508907	0.569142	-0.265877	0.610153	0.260246
0.328963	0.412965	0.528395	-0.52197	-0.53884	-0.27827	0.496526	0.361869	-0.340261	0.413709	0.48695	-0.363506	0.630575	-0.568343	-0.306355	-0.328359	-0.467375	-0.540698	0.393581	-0.387004	-0.411919	0.502545	-0.0369402	-0.586058	0.306455	0.569528	0.370385	0.536138	0.38032	-0.29564	0.593522	0.355772
0.37102	0.422462	0.5239	-0.334331	-0.581317	-0.283209	0.630821	0.307052	-0.405168	0.49339	0.441831	-0.439018	0.592059	-0.642165	-0.574723	-0.467405	-0.505892	-0.473849	0.227915	-0.322208	-0.510375	0.45386	-0.469246	-0.390848	0.514864	0.593495	0.272549	0.529876	0.704553	-0.539904	0.306841	0.503195
0.401002	0.452634	0.348887	-0.339748	-0.54149	-0.402791	0.37326	0.492077	-0.380589	0.453682	0.331181	-0.505544	0.356049	-0.282826	-0.39273	-0.366392	-0.193757	-0.310775	0.601833	-0.522047	-0.281333	0.331766	-0.564087	-0.312496	0.366069	0.307426	0.49639	0.335218	0.344445	-0.633862	0.35331	0.516409
0.240803	0.111935	0.50645	-0.311924	-0.506789	-0.208258	0.414449	0.307964	-0.369876	0.371509	0.589038	-0.380592	0.593696	-0.568962	-0.363248	-0.249877	-0.485562	-0.457864	0.237497	-0.348873	-0.53604	0.448223	-0.251436	-0.453707	0.39266	0.542326	0.195658	0.454883	0.51991	-0.600137	0.475228	0.385717
0.395128	0.533408	0.204459	-0.421426	-0.299767	-0.515652	0.431154	0.410856	-0.452234	0.240039	0.191484	-0.431832	0.0741517	-0.26781	-0.54388	-0.531807	-0.346599	-0.173079	0.492723	-0.349629	-0.198377	0.213999	-0.581439	-0.214656	0.418168	0.212257	0.364264	0.276197	0.360484	-0.372204	0.33016	0.466374
0.206302	0.281799	0.327584	-0.670058	-0.684497	-0.497904	0.193196	0.392717	-0.390856	0.429473	0.320028	-0.196826	0.438575	-0.438082	-0.440517	-0.612332	-0.31688	-0.322698	0.420087	-0.498578	-0.43519	0.439993	-0.385871	-0.3357	0.413972	0.595484	0.347113	0.38774	0.378762	-0.162937	0.27205	0.381574
0.487487	0.620668	0.338409	-0.470997	-0.486007	-0.590465	0.304001	0.484634	-0.332241	0.291054	0.344254	-0.581986	0.404378	-0.328381	-0.53386	-0.529696	-0.436031	-0.31751	0.564412	-0.480773	-0.417783	0.406246	-0.447489	-0.345803	0.476751	0.314535	0.497342	0.41238	0.379802	-0.432637	0.358374	0.315903
0.283188	0.425546	0.406808	-0.568523	-0.622955	-0.40829	0.410161	0.526648	-0.561497	0.43947	0.343445	-0.438096	0.660377	-0.26461	-0.367352	-0.375635	-0.580976	-0.38219	0.551998	-0.569883	-0.385562	0.294623	-0.444229	-0.396547	0.269549	0.372633	0.582141	0.56493	0.349702	-0.534975	0.462504	0.579397
0.223142	0.46052	0.593716	-0.466631	-0.411316	-0.180502	0.338981	0.275184	-0.450398	0.383161	0.553724	-0.213077	0.528811	-0.633252	-0.349392	-0.201883	-0.562038	-0.611819	0.233396	-0.273724	-0.373465	0.418856	-0.197119	-0.491014	0.357633	0.54637	0.258719	0.440847	0.41839	-0.223909	0.612181	0.255859
0.377594	0.194017	0.522515	-0.276058	-0.688484	-0.292506	0.597236	0.320505	-0.398319	0.4753	0.626537	-0.385018	0.437929	-0.567199	-0.374311	-0.306049	-0.364002	-0.393334	0.314054	-0.371745	-0.385689	0.434838	-0.342681	-0.422053	0.503261	0.545375	0.281003	0.328859	0.694395	-0.660488	0.328611	0.434509
0.324097	0.358876	0.576115	-0.243923	-0.440671	-0.208469	0.273967	0.254872	-0.131868	0.448853	0.565932	-0.453946	0.458618	-0.390534	-0.264759	-0.192697	-0.577718	-0.534971	0.319262	-0.350387	-0.655638	0.581475	-0.215968	-0.609784	0.419302	0.559735	0.250213	0.574894	0.381502	-0.53668	0.523356	0.283802
0.457678	0.400353	0.514732	-0.589172	-0.516293	-0.423254	0.417908	0.0584872	-0.204995	0.311336	0.644131	-0.34725	0.68211	-0.722487	-0.38755	-0.269679	-0.720918	-0.547008	0.274071	-0.303301	-0.311876	0.559387	-0.11989	-0.657414	0.433381	0.503097	0.224987	0.598544	0.600539	-0.275136	0.575886	0.243504
0.23016	0.29676	0.21808	-0.169268	-0.407914	-0.451475	0.518499	0.39508	-0.286818	0.423084	0.368666	-0.48281	0.249821	-0.38042	-0.249667	-0.343111	-0.251938	-0.301103	0.256283	-0.364541	-0.253599	0.214861	-0.560301	-0.320092	0.554165	0.227185	0.257808	0.186143	0.452368	-0.393527	0.272832	0.525048
0.329954	0.15179	0.447523	-0.353069	-0.323439	-0.206491	0.230841	0.33907	-0.391986	0.530225	0.39582	-0.486581	0.403084	-0.273614	-0.460664	-0.227612	-0.151073	-0.431635	0.543093	-0.486219	-0.323344	0.364779	-0.438368	-0.38494	0.29635	0.34107	0.368756	0.372102	0.362548	-0.365135	0.451817	0.446223
0.570833	0.418319	0.505589	-0.426561	-0.239028	-0.269435	0.466778	0.336116	-0.461469	0.292865	0.551017	-0.374258	0.531271	-0.440216	-0.497139	-0.313611	-0.545522	-0.413095	0.356759	-0.254368	-0.263363	0.354318	-0.140083	-0.582777	0.406019	0.456781	0.542989	0.542059	0.484756	-0.503902	0.365501	0.643321
0.450201	0.373806	0.398605	-0.556162	-0.427963	-0.483359	0.411789	0.566922	-0.349916	0.292295	0.302295	-0.558913	0.447978	-0.232489	-0.354585	-0.394522	-0.317604	-0.392879	0.593461	-0.663973	-0.266132	0.365123	-0.365426	-0.391652	0.336635	0.445112	0.644512	0.388208	0.367451	-0.488255	0.546629	0.623537
0.3265	0.413898	0.415676	-0.454072	-0.516412	-0.366733	0.405207	0.430702	-0.483112	0.438896	0.45643	-0.447771	0.540456	-0.506891	-0.510997	-0.419316	-0.476503	-0.457205	0.515197	-0.403081	-0.397681	0.456003	-0.405012	-0.377908	0.373415	0.51578	0.360701	0.382404	0.438455	-0.334326	0.445973	0.413656
0.308841	0.368071	0.359613	-0.306535	-0.379499	-0.390803	0.474907	0.369061	-0.434205	0.487589	0.301129	-0.472793	0.228454	-0.316789	-0.400402	-0.50873	-0.300784	-0.326919	0.507514	-0.538739	-0.355751	0.339735	-0.425629	-0.37442	0.419471	0.489895	0.417561	0.34894	0.468271	-0.393631	0.300838	0.51497
0.43989	0.302826	0.585481	-0.306259	-0.361048	-0.316551	0.481709	0.292515	-0.421895	0.473022	0.56013	-0.405835	0.626527	-0.559806	-0.355369	-0.249084	-0.570722	-0.466086	0.254807	-0.301093	-0.492864	0.546468	-0.330094	-0.561834	0.490491	0.560112	0.298308	0.623353	0.532185	-0.459317	0.429426	0.263254
0.625072	0.724514	0.492625	-0.535524	-0.53351	-0.279046	0.46871	0.335778	-0.519728	0.485541	0.5353	-0.423076	0.379283	-0.2579	-0.469413	-0.304477	-0.521884	-0.530788	0.354172	-0.313829	-0.255611	0.344197	-0.160093	-0.569083	0.294033	0.324598	0.619353	0.559848	0.343635	-0.285835	0.601789	0.322871
0.305954	0.259258	0.595118	-0.325975	-0.457867	-0.140396	0.318209	0.204755	-0.347257	0.397605	0.556816	-0.313535	0.662004	-0.625034	-0.199122	-0.147535	-0.443363	-0.563326	0.168768	-0.30116	-0.431364	0.546805	-0.213148	-0.539274	0.44745	0.577684	0.195977	0.55175	0.476225	-0.462153	0.456511	0.246838
0.417205	0.391973	0.419922	-0.457634	-0.11152	-0.233216	0.242273	0.289486	-0.398044	0.360881	0.450937	-0.250108	0.437077	-0.490005	-0.457547	-0.359672	-0.404075	-0.472036	0.183433	-0.291957	-0.275585	0.401782	-0.24285	-0.497444	0.223578	0.377729	0.518433	0.505519	0.244074	-0.131274	0.607975	0.207414
0.362981	0.316657	0.580043	-0.227426	-0.658159	-0.177572	0.185478	0.231256	-0.220969	0.43616	0.669268	-0.354986	0.626299	-0.463755	-0.172472	-0.226189	-0.61877	-0.326482	0.134525	-0.393847	-0.513167	0.496809	-0.526727	-0.61452	0.490748	0.515237	0.416881	0.415959	0.290854	-0.371721	0.550123	0.394637
0.424888	0.267396	0.204883	-0.19957	-0.604803	-0.602801	0.606194	0.558474	-0.212833	0.512373	0.479382	-0.611953	0.283822	-0.316962	-0.26524	-0.436536	-0.187438	-0.272665	0.536653	-0.438076	-0.39279	0.162764	-0.50324	-0.510631	0.593741	0.177209	0.429864	0.150402	0.416834	-0.46996	0.476553	0.55315
0.326141	0.142557	0.508921	-0.337999	-0.459978	-0.233931	0.375731	0.113964	-0.281303	0.424107	0.437732	-0.307981	0.501074	-0.533031	-0.325824	-0.133232	-0.506397	-0.480286	0.204299	-0.229134	-0.388359	0.455457	-0.109995	-0.583447	0.344869	0.451266	0.294327	0.431641	0.615679	-0.279693	0.571068	0.296876
0.31051	0.264685	0.597435	-0.313359	-0.622716	-0.220507	0.300175	0.244845	-0.283106	0.480245	0.542847	-0.309174	0.597185	-0.681847	-0.293885	-0.269017	-0.507517	-0.390632	0.23472	-0.295622	-0.545096	0.553607	-0.159169	-0.481063	0.459631	0.564545	0.289713	0.419517	0.539555	-0.495254	0.380386	0.236718
0.436219	0.451159	0.205648	-0.453167	-0.46617	-0.657237	0.236934	0.471691	-0.341659	0.344215	0.285442	-0.168421	0.198359	-0.306137	-0.197507	-0.530562	-0.212265	-0.297888	0.377235	-0.373413	-0.526761	0.367838	-0.476549	-0.322498	0.405606	0.481517	0.395722	0.282847	0.121625	-0.154492	0.37813	0.251678
0.553897	0.489201	0.438509	-0.607284	-0.513309	-0.273132	0.546613	0.253055	-0.568737	0.369704	0.576276	-0.345319	0.48219	-0.53068	-0.526771	-0.361882	-0.585189	-0.523712	0.231521	-0.319822	-0.300946	0.243505	-0.31215	-0.430953	0.371533	0.470711	0.508212	0.535674	0.51251	-0.415106	0.35268	0.366401
0.581328	0.11306	0.263679	-0.143374	-0.282702	-0.425197	0.587048	0.554872	-0.290211	0.543097	0.392114	-0.557741	0.462436	-0.383761	-0.199258	-0.123602	-0.254618	-0.290408	0.488506	-0.349392	-0.480449	0.266769	-0.717502	-0.294866	0.565955	0.297173	0.447313	0.329158	0.401546	-0.511107	0.420485	0.568399
0.368056	0.488205	0.336053	-0.37107	-0.540077	-0.443918	0.618494	0.519532	-0.630903	0.529324	0.268684	-0.597443	0.398562	-0.354579	-0.644078	-0.649866	-0.313836	-0.25417	0.433012	-0.381735	-0.311882	0.285656	-0.640157	-0.343042	0.40334	0.416038	0.470777	0.309242	0.60804	-0.608274	0.269673	0.588521
0.429173	0.332278	0.14755	-0.200469	-0.216857	-0.57861	0.555436	0.354223	-0.297459	0.435453	0.290746	-0.512683	0.285568	-0.2755	-0.212661	-0.285691	-0.251647	-0.286286	0.461508	-0.42512	-0.273311	0.179649	-0.717868	-0.239551	0.372302	0.295437	0.329266	0.165916	0.423918	-0.43259	0.360347	0.43479
0.452633	0.366233	0.552006	-0.40259	-0.328388	-0.261024	0.371288	0.349845	-0.474221	0.446089	0.543075	-0.348974	0.594935	-0.530958	-0.410648	-0.321594	-0.454779	-0.592937	0.328837	-0.276464	-0.45288	0.583042	-0.279671	-0.49324	0.395424	0.56302	0.395042	0.451387	0.498339	-0.365115	0.493899	0.45461
0.48188	0.504969	0.440346	-0.344882	-0.376937	-0.437562	0.499269	0.385475	-0.437473	0.379297	0.469886	-0.380838	0.440275	-0.421476	-0.377381	-0.335978	-0.431583	-0.436852	0.472753	-0.502019	-0.428323	0.443369	-0.401321	-0.48126	0.456867	0.427324	0.441381	0.414956	0.449542	-0.415894	0.432397	0.338713
0.37499	0.382149	0.529334	-0.377386	-0.416689	-0.274827	0.202518	0.313144	-0.431104	0.379393	0.459932	-0.287656	0.486896	-0.386429	-0.402052	-0.231241	-0.39831	-0.36794	0.21178	-0.446864	-0.483712	0.474009	-0.345465	-0.426697	0.354841	0.50183	0.329681	0.494361	0.402657	-0.325769	0.54691	0.385378
0.352231	0.170336	0.283971	-0.359715	-0.461823	-0.51003	0.35276	0.453588	-0.48751	0.544187	0.362366	-0.317074	0.373074	-0.461487	-0.327061	-0.579958	-0.200457	-0.376073	0.513044	-0.326931	-0.565559	0.486508	-0.494982	-0.249009	0.448998	0.635959	0.589828	0.558749	0.330068	-0.283906	0.223036	0.440843
0.469984	0.15233	0.470798	-0.228892	-0.228587	-0.253929	0.288249	0.310517	-0.229046	0.35344	0.412623	-0.29224	0.447044	-0.170772	-0.280373	-0.15037	-0.374462	-0.311177	0.325242	-0.447974	-0.509865	0.407735	-0.0319098	-0.390721	0.425404	0.340699	0.307174	0.42834	0.21186	-0.467428	0.39239	0.346323
0.599893	0.104084	0.355471	-0.278486	-0.332454	-0.437934	0.572374	0.454063	-0.262032	0.594129	0.341734	-0.494493	0.368994	-0.426845	-0.235147	-0.242299	-0.280922	-0.496114	0.476451	-0.483094	-0.316656	0.303709	-0.570589	-0.456767	0.39838	0.311706	0.559118	0.205078	0.344374	-0.535875	0.559576	0.544288
0.179563	0.113706	0.0959242	0.0847153	-0.522506	-0.505246	0.545612	0.331335	-0.0521272	0.532983	0.389478	-0.190943	0.157205	-0.383466	-0.264283	-0.551513	-0.15794	-0.0845713	0.270799	-0.153578	-0.188974	0.135643	-0.813093	-0.394126	0.531812	0.304842	0.213887	0.225213	0.364335	-0.431934	0.145777	0.169541
0.340483	0.452851	0.621284	-0.520436	-0.297601	-0.256685	0.517642	0.316544	-0.548798	0.484845	0.545266	-0.228308	0.564511	-0.568037	-0.628728	-0.307885	-0.534005	-0.610055	0.256708	-0.357533	-0.409558	0.612211	-0.0702153	-0.574081	0.252614	0.553807	0.417058	0.595395	0.468915	-0.259667	0.545844	0.302085
0.542629	0.377801	0.349622	-0.309695	-0.271321	-0.565994	0.359996	0.58398	-0.251063	0.357304	0.370987	-0.533853	0.34026	-0.31962	-0.42046	-0.484993	-0.304956	-0.30483	0.491274	-0.440898	-0.492124	0.258078	-0.478418	-0.522052	0.572823	0.337009	0.487745	0.328373	0.347289	-0.543416	0.388482	0.314598
0.510942	0.308996	0.328266	-0.599792	-0.216752	-0.351362	0.274944	0.395366	-0.405337	0.348071	0.307353	-0.307125	0.401912	-0.10946	-0.560121	-0.400731	-0.127147	-0.405744	0.492896	-0.405602	-0.240819	0.315959	-0.713575	-0.330263	0.294718	0.218151	0.719133	0.469824	0.592827	-0.284493	0.428609	0.749905
0.272789	0.288037	0.259858	-0.51273	-0.262156	-0.428453	0.200594	0.430513	-0.303006	0.440159	0.220775	-0.338853	0.319133	-0.206367	-0.320215	-0.410772	-0.192051	-0.414285	0.563652	-0.383402	-0.336562	0.247336	-0.552628	-0.230188	0.280568	0.363142	0.440093	0.261615	0.324593	-0.210671	0.352223	0.469237
0.409885	0.433717	0.478279	-0.564419	-0.523728	-0.295432	0.433256	0.408313	-0.532343	0.414474	0.488617	-0.347791	0.454237	-0.478387	-0.462994	-0.336733	-0.535632	-0.596509	0.39486	-0.469838	-0.394608	0.544844	-0.333086	-0.345033	0.371679	0.492934	0.347745	0.497665	0.376934	-0.471876	0.464368	0.431267
0.49566	0.57974	0.557625	-0.503488	-0.352738	-0.27824	0.382652	0.241059	-0.527371	0.352326	0.576276	-0.387212	0.400524	-0.519365	-0.369039	-0.416839	-0.525172	-0.455017	0.28216	-0.301602	-0.206638	0.220979	-0.275971	-0.472185	0.35522	0.451037	0.468625	0.533319	0.479536	-0.309478	0.388546	0.305865
0.386973	0.282762	0.214017	-0.457547	-0.484091	-0.496089	0.248408	0.494362	-0.412029	0.422519	0.192854	-0.268654	0.18508	-0.483966	-0.258904	-0.458438	-0.278148	-0.184407	0.287988	-0.350493	-0.467806	0.431091	-0.269464	-0.220417	0.359555	0.504089	0.223294	0.228439	0.285902	-0.26232	0.20209	0.290242
0.316743	0.524584	0.391032	-0.546268	-0.314174	-0.515655	0.312151	0.437075	-0.462729	0.39626	0.357213	-0.554342	0.413039	-0.289635	-0.366468	-0.48474	-0.485997	-0.427302	0.605034	-0.596156	-0.328438	0.364496	-0.373577	-0.362215	0.273	0.409324	0.540258	0.549369	0.339339	-0.370674	0.554098	0.405518
0.396013	0.278555	0.252564	-0.134184	-0.144719	-0.455192	0.369038	0.277145	-0.123551	0.339359	0.264898	-0.421394	0.262568	-0.252792	-0.267504	-0.409072	-0.275989	-0.254201	0.409364	-0.165908	-0.313997	0.251518	-0.440273	-0.456025	0.353351	0.317662	0.373634	0.272758	0.244569	-0.279303	0.362545	0.346591
0.504374	0.481741	0.579888	-0.515708	-0.291213	-0.152159	0.317672	0.120838	-0.480847	0.28481	0.499946	-0.301445	0.379523	-0.512403	-0.497989	-0.14761	-0.515759	-0.577493	0.299108	-0.176848	-0.247933	0.426258	-0.175129	-0.561027	0.350354	0.498947	0.400543	0.580389	0.301765	-0.365935	0.506248	0.407666
0.280288	0.508928	0.590609	-0.516595	-0.394193	-0.0462791	0.460337	0.268486	-0.435034	0.440597	0.600857	-0.184139	0.554963	-0.63756	-0.509264	-0.309949	-0.526153	-0.63774	0.236231	-0.300647	-0.363294	0.670968	-0.229116	-0.434714	0.323894	0.60471	0.336984	0.533267	0.45093	-0.311047	0.497589	0.330398
0.571735	0.578801	0.241626	-0.624954	-0.297224	-0.528252	0.228538	0.528648	-0.482086	0.539361	0.278597	-0.47354	0.309965	-0.331543	-0.524485	-0.600771	-0.348287	-0.335681	0.376272	-0.411816	-0.481137	0.460326	-0.467841	-0.330728	0.517217	0.280903	0.460597	0.453506	0.260858	-0.329717	0.261284	0.318719
0.310098	0.180355	0.417703	-0.507405	-0.271762	-0.164724	0.398353	0.198145	-0.445318	0.369647	0.480204	-0.225021	0.425969	-0.30232	-0.534974	-0.336515	-0.478705	-0.491836	0.390439	-0.442789	-0.268069	0.44469	-0.610551	-0.501598	0.276249	0.55312	0.230777	0.535434	0.3995	-0.320498	0.35187	0.596236
0.341116	0.567279	0.189176	-0.458867	-0.600566	-0.489065	0.601231	0.481517	-0.607757	0.495625	0.311053	-0.549604	0.234099	-0.347609	-0.663392	-0.644436	-0.318606	-0.237462	0.305569	-0.238762	-0.238784	0.195866	-0.375472	-0.257662	0.423607	0.4812	0.43081	0.211278	0.675186	-0.563818	0.272661	0.543074
0.545442	0.665167	0.576475	-0.62683	-0.179986	-0.341057	0.530189	0.328549	-0.55227	0.348046	0.423763	-0.495324	0.46635	-0.562128	-0.400086	-0.215328	-0.543511	-0.633771	0.311238	-0.231362	-0.229511	0.475956	-0.325645	-0.564892	0.250869	0.415234	0.526169	0.468575	0.320115	-0.534564	0.445306	0.51794
0.43298	0.541704	0.231158	-0.526821	-0.591281	-0.524025	0.188796	0.59428	-0.481031	0.485601	0.24477	-0.215151	0.171988	-0.346136	-0.378797	-0.534982	-0.306029	-0.445312	0.25566	-0.363342	-0.533488	0.342732	-0.225483	-0.271898	0.542566	0.553653	0.3837	0.480543	0.352137	-0.362985	0.299286	0.214821
0.35249	0.273698	0.403486	-0.465412	-0.432047	-0.31758	0.480576	0.25722	-0.522081	0.398388	0.343114	-0.439209	0.388258	-0.459685	-0.418865	-0.321143	-0.37147	-0.343503	0.366149	-0.31991	-0.316746	0.437778	-0.39437	-0.380401	0.275183	0.466266	0.43042	0.415828	0.521906	-0.421114	0.428052	0.348235
0.28119	0.479502	0.422756	-0.394566	-0.549982	-0.302702	0.5622	0.308645	-0.530607	0.488757	0.322877	-0.384291	0.376662	-0.530748	-0.465932	-0.304333	-0.406637	-0.391389	0.198245	-0.18288	-0.379365	0.328675	-0.213982	-0.40358	0.387019	0.500024	0.412347	0.40026	0.535976	-0.345035	0.293814	0.484506
0.527535	0.26758	0.413356	-0.329538	-0.395033	-0.56044	0.369897	0.452665	-0.376774	0.384967	0.396363	-0.465489	0.37838	-0.449367	-0.412321	-0.349078	-0.37968	-0.398901	0.480748	-0.368348	-0.509967	0.348115	-0.459114	-0.52197	0.50421	0.353297	0.425948	0.374959	0.425867	-0.375908	0.567404	0.526364
0.479244	0.248629	0.297693	-0.582063	-0.157073	-0.474752	0.107654	0.495737	-0.252053	0.216443	0.14243	-0.363844	0.175145	-0.038634	-0.284713	-0.423909	-0.370052	-0.241666	0.436702	-0.288866	-0.341427	0.360763	-0.442676	-0.322261	0.109805	0.180373	0.286782	0.322502	0.12613	-0.213397	0.404822	0.476795
0.297917	0.333624	0.624451	-0.333647	-0.378768	-0.446472	0.420627	0.15381	-0.3807	0.727789	0.46697	-0.176413	0.553543	-0.482706	-0.461675	-0.10739	-0.526192	-0.570492	0.317814	-0.115442	-0.316229	0.575992	-0.411257	-0.483195	0.200378	0.606422	0.368849	0.384721	0.659127	-0.37214	0.489242	0.327616
0.276272	0.452943	0.257673	-0.309747	-0.531376	-0.320975	0.432967	0.28218	-0.457649	0.379956	0.268814	-0.439895	0.19954	-0.473362	-0.42577	-0.425254	-0.309113	-0.21409	0.272296	-0.271147	-0.196762	0.315631	-0.575863	-0.251876	0.404679	0.352914	0.277699	0.308445	0.557881	-0.325983	0.197066	0.472586
0.36588	0.313853	0.309514	-0.338265	-0.5662	-0.512949	0.629014	0.561516	-0.418625	0.421991	0.574526	-0.633175	0.2709	-0.319205	-0.337661	-0.370498	-0.298083	-0.287505	0.55759	-0.508451	-0.368228	0.312418	-0.537561	-0.468878	0.547432	0.410569	0.419421	0.349599	0.596728	-0.537231	0.328644	0.502068
0.253354	0.198015	0.557355	-0.102557	-0.383442	-0.148707	0.456154	0.254682	-0.250212	0.50751	0.578115	-0.422329	0.593847	-0.562371	-0.415386	-0.241004	-0.433878	-0.359698	0.167046	-0.216295	-0.574426	0.496225	-0.349681	-0.490246	0.548546	0.478055	0.347699	0.545332	0.541566	-0.542109	0.364999	0.294851
0.217625	0.223051	0.444333	-0.204031	-0.519048	-0.346736	0.573087	0.263388	-0.3673	0.536321	0.556567	-0.316398	0.449184	-0.526642	-0.353767	-0.213786	-0.366533	-0.275714	0.150859	-0.187866	-0.373202	0.408085	-0.406732	-0.405388	0.407109	0.384357	0.251001	0.385125	0.492981	-0.478906	0.268363	0.491536
0.647958	0.559209	0.175113	-0.59662	-0.25389	-0.662046	0.279115	0.664778	-0.181534	0.31294	0.330186	-0.552107	0.180201	-0.232041	-0.447501	-0.709377	-0.261508	-0.201782	0.536806	-0.435856	-0.59598	0.163599	-0.503431	-0.277401	0.525159	0.140527	0.655028	0.301664	0.230153	-0.633679	0.238372	0.379397
0.351074	0.454455	0.502201	-0.379951	-0.46697	-0.342843	0.47557	0.299874	-0.552485	0.559124	0.485151	-0.374732	0.510429	-0.397606	-0.538208	-0.509167	-0.525919	-0.32253	0.300954	-0.502608	-0.322437	0.506864	-0.504842	-0.397795	0.282531	0.568193	0.377104	0.545424	0.403589	-0.440381	0.331631	0.433927
0.364892	0.460449	0.353361	-0.463721	-0.377429	-0.520015	0.44262	0.471611	-0.39756	0.288697	0.388376	-0.416516	0.49552	-0.287972	-0.234298	-0.424821	-0.332909	-0.374412	0.492026	-0.448849	-0.397247	0.311388	-0.500282	-0.308972	0.42671	0.297535	0.59168	0.383139	0.361861	-0.536433	0.491987	0.303024
0.482124	0.468817	0.401868	-0.614882	-0.334587	-0.405359	0.276199	0.453862	-0.445364	0.517772	0.399041	-0.43357	0.46598	-0.299266	-0.322723	-0.314883	-0.42989	-0.366408	0.590907	-0.570969	-0.40563	0.469526	-0.40875	-0.416634	0.227483	0.358918	0.473457	0.497882	0.34367	-0.337324	0.501332	0.504235
0.259851	0.252837	0.52023	-0.440944	-0.320408	-0.120304	0.463869	0.200661	-0.360914	0.422853	0.419395	-0.212172	0.402761	-0.649144	-0.437525	-0.0526853	-0.546291	-0.567967	0.244023	-0.256788	-0.246738	0.391849	-0.209297	-0.456351	0.218205	0.43205	0.227759	0.457546	0.34667	-0.0442118	0.446671	0.305342
0.633474	0.30739	0.357319	-0.322855	-0.246794	-0.427136	0.522891	0.399663	-0.247438	0.673394	0.510716	-0.39496	0.371962	-0.547279	-0.261082	-0.263692	-0.347039	-0.387451	0.272156	-0.275731	-0.353109	0.462235	-0.378318	-0.494832	0.4414	0.376475	0.355481	0.331406	0.50552	-0.538338	0.444904	0.214927
0.463005	0.0494148	0.522526	-0.19433	-0.383534	-0.441704	0.200828	0.475735	-0.302204	0.277038	0.529958	-0.392882	0.316485	-0.381266	-0.358735	-0.252061	-0.439346	-0.241096	0.337819	-0.450121	-0.599818	0.342788	-0.483489	-0.360246	0.548113	0.336938	0.343067	0.447008	0.381564	-0.528559	0.405253	0.558748
0.503974	0.317835	0.358031	-0.15604	-0.233061	-0.369575	0.159021	0.423893	-0.290781	0.329032	0.369441	-0.335324	0.294631	-0.19056	-0.267625	-0.289855	-0.264037	-0.30655	0.396037	-0.324937	-0.422067	0.350168	-0.42879	-0.418998	0.442809	0.248774	0.383062	0.445119	0.308904	-0.430699	0.531436	0.384954
0.497604	0.341961	0.221557	-0.551429	-0.1778	-0.54433	0.23343	0.443179	-0.40639	0.348499	0.175272	-0.363013	0.302679	-0.331972	-0.375186	-0.496791	-0.278328	-0.177103	0.411048	-0.36066	-0.207834	0.328682	-0.466663	-0.382951	0.323516	0.185465	0.47061	0.416351	0.287598	-0.191634	0.408181	0.301268
0.408145	0.15432	0.24844	-0.183646	-0.565117	-0.550553	0.576131	0.461179	-0.327027	0.410253	0.385136	-0.443977	0.235544	-0.419553	-0.404257	-0.422119	-0.167752	-0.302231	0.243167	-0.385646	-0.380696	0.14839	-0.502478	-0.343378	0.548054	0.231976	0.365062	0.320783	0.638148	-0.340006	0.237214	0.533933
0.528603	0.500573	0.454532	-0.416352	-0.268028	-0.369634	0.39731	0.465657	-0.254903	0.327633	0.333841	-0.497754	0.429241	-0.122599	-0.451632	-0.451716	-0.327659	-0.277699	0.470002	-0.37837	-0.541003	0.397906	-0.510581	-0.49902	0.539508	0.511399	0.363354	0.427524	0.463259	-0.558279	0.51422	0.139708
0.334745	0.557633	0.462363	-0.476144	-0.563954	-0.407066	0.615014	0.415036	-0.521216	0.525544	0.330792	-0.406266	0.546884	-0.471426	-0.459233	-0.422415	-0.40658	-0.420521	0.513134	-0.453083	-0.432333	0.515117	-0.293949	-0.43178	0.334918	0.558599	0.436617	0.470189	0.500545	-0.491804	0.375863	0.320664
0.49225	0.274801	0.222895	-0.330224	-0.586485	-0.68507	0.426517	0.644253	-0.561288	0.542913	0.319891	-0.431538	0.308449	-0.502704	-0.314852	-0.544244	-0.272399	-0.301442	0.376083	-0.36553	-0.492265	0.198849	-0.336367	-0.245377	0.622086	0.282783	0.592544	0.234969	0.476916	-0.556733	0.167026	0.221337
0.499038	0.228049	0.536221	-0.352648	-0.446662	-0.302271	0.345141	0.38055	-0.3265	0.554635	0.421272	-0.357709	0.41684	-0.68197	-0.554119	-0.271273	-0.691127	-0.524232	0.0465635	-0.283893	-0.537604	0.269443	-0.564671	-0.368561	0.378701	0.551612	0.287942	0.675766	0.519232	-0.203408	0.504846	0.533721
0.0862182	0.424899	0.20853	-0.254471	-0.401499	-0.290233	0.383926	0.364153	-0.413198	0.52129	0.485486	-0.566557	0.22067	-0.248702	-0.205999	-0.381384	-0.122889	-0.285187	0.252526	-0.35888	-0.352104	0.234	-0.631326	-0.428672	0.431553	0.488604	0.356292	0.190261	0.563678	-0.477824	0.0983741	0.481203
0.396915	0.0908266	0.264264	-0.194585	-0.342759	-0.36136	0.309611	0.270869	-0.312072	0.394773	0.386109	-0.323055	0.223208	-0.21158	-0.419572	-0.381408	-0.306174	-0.268271	0.29638	-0.291669	-0.199862	0.312037	-0.251959	-0.159006	0.348404	0.281001	0.182852	0.185203	0.415407	-0.396161	0.246635	0.53546
0.535371	0.135416	0.333293	-0.295195	-0.141232	-0.596315	0.147706	0.364937	-0.119049	0.0949501	0.477669	-0.245451	0.173397	-0.112362	-0.0815421	-0.264147	-0.256025	-0.244679	0.280636	-0.355406	-0.514331	0.26158	-0.11171	-0.496681	0.439548	0.160276	0.367491	0.477983	0.169342	-0.31331	0.425582	0.346053
0.344665	0.18438	0.462812	-0.290598	-0.33129	-0.157047	0.304824	0.241904	-0.375443	0.54435	0.433038	-0.226548	0.545194	-0.464689	-0.426014	-0.157586	-0.477046	-0.51641	0.320155	-0.313655	-0.490978	0.629183	-0.321895	-0.406367	0.318034	0.492822	0.402318	0.465199	0.500937	-0.417628	0.413855	0.304586
0.373112	0.0874508	0.625576	-0.415478	-0.686748	-0.18746	0.286663	0.353558	-0.137562	0.393324	0.758111	-0.566723	0.690862	-0.479184	-0.43376	-0.0901718	-0.450379	-0.348868	0.27566	-0.579219	-0.579901	0.58806	0.116919	-0.617496	0.594017	0.417411	0.346385	0.695886	0.508301	-0.515768	0.510556	0.349741
0.124602	0.00740084	0.564188	-0.360001	-0.527703	-0.374111	0.161282	0.309008	-0.247715	0.292463	0.544151	-0.488367	0.643235	-0.704065	-0.29215	-0.150194	-0.769352	-0.759167	0.189266	-0.29562	-0.471983	0.580329	-0.225856	-0.422183	0.290098	0.565038	0.368357	0.471981	0.231526	-0.244695	0.489687	0.4352
0.418844	0.414195	0.378078	-0.240646	-0.145739	-0.330787	0.205597	0.456381	-0.108077	0.398015	0.272412	-0.356674	0.358266	-0.35718	-0.35526	-0.269744	-0.321669	-0.321801	0.442952	-0.433239	-0.275535	0.193096	-0.294181	-0.334724	0.185635	0.323702	0.39053	0.33981	0.18174	-0.328164	0.412362	0.421466
0.300772	0.31509	0.532836	-0.336398	-0.511904	-0.24087	0.612522	0.191504	-0.46672	0.533979	0.615033	-0.386674	0.499039	-0.654365	-0.511406	-0.368685	-0.527885	-0.517858	0.280062	-0.266771	-0.470339	0.593072	-0.462419	-0.561218	0.439757	0.625366	0.230535	0.464821	0.626974	-0.32399	0.35872	0.377483
0.28088	0.376426	0.565519	-0.0921191	-0.323696	-0.203152	0.389796	0.392147	-0.391126	0.354395	0.560717	-0.365531	0.526706	-0.519163	-0.215981	-0.191305	-0.541223	-0.48357	0.235848	-0.355852	-0.62423	0.500139	-0.304176	-0.400924	0.387521	0.466345	0.348626	0.476695	0.432907	-0.534229	0.588036	0.0539428
0.399246	0.64676	0.494315	-0.272726	-0.337092	-0.490086	0.521716	0.520897	-0.500771	0.492276	0.421315	-0.442527	0.473175	-0.405269	-0.517442	-0.345977	-0.385	-0.459123	0.455287	-0.35188	-0.400756	0.318915	-0.459908	-0.516133	0.350985	0.426857	0.294663	0.469875	0.459855	-0.38335	0.428993	0.197848
0.203603	0.396878	0.52097	-0.374889	-0.562201	-0.164376	0.48778	0.29465	-0.27684	0.413867	0.397158	-0.520995	0.550577	-0.485066	-0.43801	-0.37417	-0.452823	-0.481349	0.289295	-0.257399	-0.463266	0.51289	-0.413139	-0.387277	0.38834	0.613825	0.314823	0.378785	0.484602	-0.474827	0.278228	0.398507
0.221189	0.29529	0.512003	-0.272952	-0.493529	-0.149297	0.379545	0.330516	-0.506987	0.353729	0.41843	-0.363998	0.486826	-0.449518	-0.384574	-0.38346	-0.456842	-0.377655	0.272155	-0.371392	-0.499581	0.353658	-0.372432	-0.414868	0.39334	0.552158	0.439781	0.466006	0.493603	-0.432248	0.371668	0.308338
0.547169	0.378183	0.416576	-0.47534	-0.416155	-0.370155	0.449068	0.528749	-0.379961	0.494787	0.602452	-0.402722	0.391735	-0.372378	-0.437812	-0.557434	-0.44917	-0.442128	0.494025	-0.576596	-0.240025	0.290195	-0.547485	-0.322441	0.296203	0.426936	0.425038	0.406088	0.588956	-0.438702	0.454982	0.539379
0.139852	0.555103	0.226589	-0.437463	-0.492725	-0.562772	0.0518608	0.460972	-0.302252	0.42444	0.241745	-0.175693	0.314009	-0.186717	-0.244899	-0.473939	-0.154554	-0.209701	0.350321	-0.514609	-0.538689	0.376461	-0.209201	-0.0264521	0.287533	0.295188	0.378444	0.379587	0.0442115	-0.250895	0.269843	0.172312
0.356989	0.528148	0.410591	-0.115145	-0.408164	-0.161753	0.30017	0.1262	-0.116598	0.420944	0.42816	-0.214926	0.49229	-0.371587	-0.209809	-0.279084	-0.493326	-0.309056	0.155179	-0.213462	-0.535946	0.421074	-0.272237	-0.4543	0.457595	0.339427	0.127585	0.450692	0.451368	-0.309303	0.271617	0.252507
0.274441	0.444018	0.408068	-0.394541	-0.602393	-0.305879	0.675055	0.338306	-0.637868	0.526189	0.226324	-0.580185	0.394393	-0.577997	-0.610982	-0.577155	-0.400114	-0.369776	0.354899	-0.289027	-0.211253	0.295986	-0.574806	-0.237216	0.308502	0.44729	0.314962	0.233976	0.671663	-0.526732	0.253593	0.517314
0.537391	0.471484	0.319587	-0.538393	-0.206696	-0.562576	0.265617	0.551391	-0.273444	0.26611	0.264044	-0.389399	0.265122	-0.217317	-0.344138	-0.483099	-0.437606	-0.380541	0.605669	-0.483188	-0.418707	0.347992	-0.369236	-0.527966	0.402302	0.269514	0.465589	0.431535	0.25055	-0.276525	0.529277	0.454643
0.518093	0.574864	0.17502	-0.318521	-0.187497	-0.64538	0.373272	0.522642	-0.488969	0.206541	0.37598	-0.453149	0.117465	-0.270075	-0.340492	-0.477557	-0.267203	-0.194071	0.312384	-0.382498	-0.220149	0.284784	-0.744312	-0.3911	0.432906	0.148114	0.555706	0.355588	0.377038	-0.43554	0.436698	0.402946
0.341474	0.53286	0.334273	-0.368645	-0.36296	-0.389684	0.312115	0.385124	-0.234782	0.325322	0.196303	-0.330674	0.378929	-0.161895	-0.250025	-0.338091	-0.330247	-0.466931	0.473064	-0.540999	-0.396736	0.334707	-0.373109	-0.453552	0.254728	0.31411	0.396843	0.299591	0.240639	-0.296967	0.44488	0.257825
0.191065	0.183211	0.285983	-0.215092	-0.5289	-0.432129	0.593479	0.36993	-0.529704	0.522394	0.278831	-0.452777	0.256816	-0.21852	-0.463994	-0.512098	-0.272249	-0.282975	0.338291	-0.452182	-0.225587	0.162437	-0.329362	-0.190415	0.321046	0.4246	0.294425	0.253841	0.480431	-0.363425	0.254929	0.410399
0.564023	0.590145	0.254431	-0.336699	-0.211664	-0.698778	0.168517	0.550602	-0.338041	0.356886	0.352337	-0.235481	0.224865	-0.0927113	-0.259825	-0.433869	-0.308573	-0.216011	0.495066	-0.46819	-0.19928	0.305042	-0.453175	-0.397689	0.361237	0.188107	0.478742	0.349381	0.139499	-0.30425	0.470203	0.217718
0.421555	0.333001	0.238317	-0.409703	-0.534627	-0.352907	0.622473	0.421139	-0.55971	0.505208	0.277903	-0.471738	0.206213	-0.444687	-0.537961	-0.539465	-0.215366	-0.216138	0.41524	-0.282562	-0.257686	0.201158	-0.489654	-0.275244	0.432546	0.377729	0.35859	0.170562	0.584792	-0.525487	0.174499	0.481349
0.371628	0.497697	0.463843	-0.536712	-0.375172	-0.38234	0.404915	0.246944	-0.307718	0.378476	0.300902	-0.386161	0.653128	-0.552869	-0.446553	-0.453026	-0.637709	-0.678137	0.475871	-0.489657	-0.425191	0.559342	-0.353145	-0.477263	0.250435	0.553632	0.354767	0.6215	0.317265	-0.29094	0.510425	0.259459
0.370838	0.266401	0.202306	-0.392413	-0.446468	-0.60761	0.0701731	0.475694	-0.36566	0.377959	0.197248	-0.305332	0.0981861	-0.503293	-0.431938	-0.470358	-0.197391	-0.271206	0.249928	-0.34828	-0.646754	0.259441	-0.454227	-0.168373	0.449924	0.515888	0.358312	0.307883	0.321422	-0.353389	0.196433	0.380204
0.626155	0.628896	0.613874	-0.592305	-0.46459	-0.305773	0.532364	0.372312	-0.558603	0.267633	0.610565	-0.35082	0.417813	-0.519099	-0.465833	-0.351299	-0.537455	-0.568	0.380701	-0.350505	-0.206997	0.360858	-0.326749	-0.523925	0.403035	0.548659	0.451331	0.57014	0.550481	-0.447805	0.354455	0.446145
0.438827	0.0495847	0.447904	-0.191167	-0.414982	-0.297116	0.213668	0.302978	-0.326414	0.406296	0.484991	-0.470869	0.473501	-0.388907	-0.197158	-0.26355	-0.256672	-0.347146	0.274304	-0.286464	-0.580106	0.538621	-0.421037	-0.494055	0.586851	0.357612	0.27999	0.52233	0.438755	-0.587287	0.451993	0.374894
