-0.0318376	0.0393259	0.0248725	-0.0330966	-0.00517197	0.0102106	0.0459672	-0.0104158	0.0468115	-0.0169812	-0.0276117	-0.0355312	-0.00152403	0.0205334	-0.0311365	-0.0435849	0.0387699	0.0237269	0.0468405	-0.00395334	0.0478058	0.0318724	0.0352719	0.00367216	-0.0190536	-0.0382514	-0.0404476	-0.024157	-0.000391267	0.0416302	-0.0392993	0.0438742
0.0369277	0.0299844	-0.0505209	-0.0444305	0.016882	0.00951675	-0.0347528	0.0286248	-0.055198	-0.00186685	0.0147378	-0.0758133	0.0889341	-0.0383118	0.0127492	0.00440377	0.0821297	0.0853476	0.00407869	0.0201697	0.0125061	0.0244901	0.0298346	-0.00623844	0.0143906	-0.00497905	0.0110566	-0.0211654	-0.0411242	0.051067	0.0280726	0.0730305
0.083522	0.0909096	-0.0547437	0.0582859	0.10831	0.0126299	0.0312706	-0.105303	-0.178011	-0.00959573	-0.0620636	-0.085626	-0.0291943	-0.0310373	0.188891	-0.0378732	0.0661601	0.0424966	0.076868	-0.132341	0.042539	0.102107	-0.0122265	0.0636391	0.0483627	-0.00679304	-0.0839797	0.0132697	0.168338	-0.0781012	0.0456055	0.0280597
0.137658	0.166053	-0.035227	0.0930157	0.0716783	0.149615	0.0914786	-0.0505885	-0.177565	-0.0422291	-0.0363321	-0.076989	-0.0990157	-0.0412767	0.147102	-0.122881	0.119821	0.087629	0.124051	-0.0771059	-0.00495606	0.153859	-0.0252239	0.164724	0.0461255	0.0553375	-0.057126	0.129011	0.112266	-0.136239	0.104238	-0.0534103
0.0295844	0.110021	0.131218	0.0465485	0.0210729	-0.11023	0.0750652	0.0917617	-0.109449	-0.0837406	-0.0957354	0.0399663	-0.112181	-0.00908968	0.0224526	-0.0245496	-0.0442101	0.0728122	0.0686348	-0.0873858	-0.141826	0.146877	0.0347756	0.124059	0.0160093	0.128133	-0.152955	0.0780537	0.0118463	-0.053217	-0.116548	-0.0616396
-0.0987663	0.0396781	0.17074	0.0949874	0.00901776	-0.129105	0.0526959	0.145341	0.0506326	-0.0026941	-0.0727337	0.0768795	0.10437	-0.0161875	-0.0996076	0.069393	0.0193957	0.0539587	0.0340921	0.240571	-0.0554628	-0.0162029	0.0676957	0.0288124	0.023743	0.0603553	-0.160194	0.125654	0.0136435	0.0321497	-0.105203	-0.00306895
-0.0269058	0.175169	0.0489232	0.162564	-0.112669	0.0776567	-0.0111716	0.0219232	0.0316357	-0.0485069	-0.0879155	-0.0776817	0.120764	0.0107568	-0.0641255	0.0568286	-0.10387	0.0362059	0.0204035	-0.0115619	-0.170629	0.0462484	0.0776676	0.0839899	0.040923	-0.0110441	-0.112958	0.197251	-0.0205047	0.0348208	-0.0661041	0.0029182
-0.00387232	-0.0356465	0.111399	-0.0981591	0.0401007	-0.170724	0.01392	0.179375	-0.0145626	0.0288121	-0.070933	0.119377	0.0509839	-0.0086515	-0.055763	0.0859293	0.0419713	0.101481	0.0101884	0.269518	-0.0677331	-0.00180277	-0.00346617	0.0752534	0.036046	-0.00796639	-0.0449717	-0.00415285	0.00440641	-0.0193279	-0.149848	-0.0337052
-0.0418083	-0.0182868	0.0912936	0.0738537	-0.0573334	-0.0209629	0.00434303	0.028195	0.0405899	-0.0348396	-0.0688821	-0.0574195	0.0267602	-0.0866306	-0.127464	-0.0351111	-0.122024	0.0274161	0.0693802	0.0915202	-0.129359	-0.000778643	0.0464715	-0.10062	-0.0187147	-0.0487784	-0.130562	0.0398433	0.0200948	-0.0214493	-0.081366	0.0268444
-0.123614	0.145962	0.0164177	0.0534549	-0.137336	-0.143823	-0.072867	0.160742	0.0422648	-0.0156824	0.0204503	-0.0631509	0.13578	-0.097149	-0.158018	0.196012	0.0187191	-0.0217714	0.0414838	0.0500158	-0.128768	0.0738268	0.0684376	0.0343527	0.00287861	-0.108226	-0.149975	0.0684044	0.0797754	0.188795	-0.0594032	0.0795012
-0.00277272	-0.207454	-0.0403962	-0.101984	0.208311	-0.134995	-0.0263822	-0.087823	0.0156893	0.14855	0.142649	0.0100486	-0.00292894	-0.165934	0.0042202	-0.0504334	0.0824182	-0.12751	-0.0392986	0.104311	0.334676	-0.0357505	-0.206157	-0.16715	0.0229545	0.142511	-0.00141544	-0.061962	-0.0080906	0.0373198	0.0488577	0.0487191
-0.033995	0.037499	0.165436	-0.0343298	-0.0201523	-0.125231	0.0265992	0.164235	-0.0374612	-0.064944	-0.111058	0.017944	0.0420153	0.147175	-0.0359146	0.0030314	0.00175891	0.078554	0.0744864	0.265114	-0.250979	0.0626844	0.0455369	0.063347	0.0799569	-0.00759513	-0.120717	0.0851364	0.0188825	-0.037204	-0.161548	-0.0320361
0.017481	0.0848391	0.162429	0.024944	-0.168861	-0.124313	-0.0515855	0.0973693	-0.00525308	-0.028501	-0.0372732	0.0732002	0.00955263	0.0643102	-0.0492628	-0.00122288	0.0584458	0.120803	0.0516143	0.159307	-0.106562	0.0266241	0.0976589	0.0563858	-0.032054	-0.052179	-0.157536	0.00775581	0.0120148	0.0252489	-0.142421	-0.00122445
0.127439	0.0568905	0.059412	0.0918938	-0.0288586	0.0473378	0.203505	-0.0478775	-0.117677	-0.133588	-0.0871835	-0.00603056	-0.139592	-0.116073	0.120338	-0.0785179	0.119114	0.0375847	0.0937629	-0.228644	0.0776342	0.144963	0.0188965	0.141762	0.118474	0.141636	-0.0916557	0.163982	0.101534	-0.0230722	-0.102789	0.169512
-0.00391631	-0.0299967	0.10206	-0.0679051	0.00702814	-0.143336	-0.0986442	0.135478	-0.0128407	0.0369583	-0.073665	0.152991	0.0162486	-0.122979	-0.0809816	0.0746975	-0.0325596	0.0934858	-0.0412319	0.223226	-0.0711233	-0.0621323	0.0172077	-0.0362946	0.0388573	0.0220835	-0.0361807	-0.0395513	-0.0818295	0.0310437	-0.100143	-0.0245364
-0.0138417	-0.0547718	-0.0846579	-0.0907695	0.134348	-0.0374121	0.0349285	0.112752	-0.0459129	0.0143706	0.0211593	0.0226048	-0.019149	0.069956	0.0355473	-0.0460227	0.0924664	-0.0333805	0.0775383	0.104084	0.17528	0.0206719	-0.0692966	0.0343293	0.058919	0.0670664	0.0330722	-0.079821	-0.0736468	-0.0483311	0.0735552	0.051237
0.0648476	-0.15985	0.0844061	-0.229265	0.225323	-0.120502	-0.0587718	0.178425	-0.0607082	-0.018964	-0.072864	0.162252	-0.09406	-0.109379	-0.0227431	-0.0865511	0.116208	0.103972	0.116808	0.188633	0.000499693	0.123033	-0.176626	0.080058	0.0125935	0.0593199	-0.0861997	-0.0202768	0.0351239	-0.0581359	-0.141038	0.094046
-0.0675886	-0.0681461	-0.0868215	0.0225391	-0.0385555	-0.117524	0.0617327	0.167085	0.0352746	-0.0586339	0.0570618	0.0993547	-0.0537602	0.0472922	0.0139713	0.0262867	-0.0982843	-0.0755844	-0.13091	0.0230493	0.0338928	0.0117188	-0.0382056	0.0260169	0.0255529	0.0537632	0.0727635	0.00804097	-0.00718997	0.0518447	-0.037158	-0.0924732
-0.0573986	-0.101794	0.0842913	-0.0553515	-0.0407256	-0.0761886	-0.0765399	0.0237412	0.027773	-0.0367863	-0.0875736	0.0389526	-0.011977	0.0239342	0.00895161	0.0363516	-0.00744742	0.11657	-0.023263	0.121186	-0.144971	0.0388148	0.0601716	0.108709	0.027982	-0.0715965	-0.0940815	-0.0304393	-0.0248399	-0.0452646	-0.0795806	0.0579818
0.0579214	-0.0166949	-0.0896395	-0.0685652	0.056455	0.153934	-0.015487	-0.113211	0.00778325	-0.0893538	-0.0150717	-0.159098	0.0629974	0.10112	0.139482	-0.0766284	0.0277997	-0.0425412	0.0164064	-0.105413	0.0758148	-0.0620006	0.0503686	0.0373674	-0.0698435	-0.0597597	0.0522587	0.0123143	0.0655812	0.00999218	0.0820738	-0.0691781
0.00229423	0.0185147	0.160699	-0.0465005	-0.0412364	-0.192412	-0.0564397	0.16199	0.0390642	0.0607708	-0.124741	0.0416395	0.00848757	-0.0382069	-0.0812512	0.0427655	-0.00228383	-0.00621129	0.066311	0.192093	-0.0850631	0.0380532	0.0474789	0.0298842	0.0378243	-0.020348	-0.115045	0.0262869	-0.0610948	0.120494	-0.102337	0.0987614
-0.0194748	-0.119592	-0.107577	-0.141968	0.0363314	-0.0603697	0.068774	0.0780998	0.0844263	0.100304	0.0201344	0.11084	0.052747	-0.0341151	0.0123766	0.108593	0.100293	0.0112167	-0.0341198	0.0808335	0.175603	-0.0477951	-0.0800546	-0.0795792	-0.0525043	-0.0117157	0.0790756	-0.100741	0.0202148	0.0482794	0.0464348	-0.0205441
0.086127	0.0486865	0.0753163	0.146551	0.0856549	-0.0691172	0.0880823	0.0927252	-0.050533	-0.0292843	-0.0701931	0.123	-0.104785	0.140848	0.116273	-0.0778985	-0.0209804	0.131347	0.119044	0.0353098	-0.128809	0.11516	-0.0883483	0.203292	0.099655	0.0661968	-0.113951	0.19657	0.0272666	-0.112107	-0.119926	-0.0611008
0.0456198	0.0720015	0.0429475	0.0812494	-0.203132	0.164482	-0.0100724	-0.0778409	0.0645248	-0.0533904	-0.0921743	-0.176959	0.0262351	-0.0496755	-0.0178027	0.0554541	0.0227202	-0.00576628	0.0281	-0.123334	-0.0609095	-0.0117893	0.165534	-0.0382396	-0.0871213	-0.0807961	-0.0364511	0.0871987	0.14307	0.103315	-0.0169459	0.122605
0.142389	0.0169004	-0.2049	-0.0650431	0.162585	0.103451	0.0627847	-0.111078	-0.187331	-0.0537062	-0.0384748	-0.0372316	-0.12079	-0.229485	0.1905	-0.106769	0.234326	0.1271	0.155068	-0.161204	0.244729	0.119925	-0.146087	-0.0112944	0.168043	0.133194	0.0615296	0.100774	-0.0355589	0.0240446	0.199937	0.181434
0.00871631	0.0127197	-0.0857523	0.0654656	0.00718158	0.122694	-0.0544142	-0.158597	0.0876737	0.0669272	0.0619506	-0.126312	0.112181	-0.125064	-0.0628344	-0.0687725	-0.130511	-0.0380417	-0.0552525	-0.0878817	-0.043294	-0.0802157	-0.00132071	-0.0220741	-0.0498511	-0.1176	0.0746617	-0.0664349	-0.0603649	0.0435777	0.173176	-0.0587938
0.135288	-0.0565046	-0.080667	-0.0443116	0.204603	-0.0177447	0.0812467	-0.0838896	-0.114278	-0.0101443	-0.0236475	-0.0513937	-0.136032	-0.143582	0.281936	-0.0981339	0.144409	0.0694945	0.0544678	-0.0999787	0.152987	0.105293	-0.143466	0.0630993	0.120861	0.127657	0.0262243	-0.0583714	0.141503	-0.102565	0.000237939	0.0880673
0.0181399	0.1039	0.0628089	0.113333	-0.0426386	-0.00715291	-0.127569	0.0389796	0.0683856	-0.0111109	-0.0365327	-0.0210519	0.0175981	-0.00317922	-0.133537	-0.0317183	-0.0186391	0.0636834	-0.0675274	0.00799528	-0.0862222	0.0618905	0.0841282	0.128835	-0.0718893	-0.0185499	-0.0745079	0.0475405	-0.0714676	0.0401593	0.0669329	0.0303789
-0.127834	-0.00190714	-0.0141032	0.00533574	-0.186101	0.00546155	0.0431404	0.0594767	0.0765464	-0.0354643	0.0267618	0.0634751	0.0785183	0.10062	-0.0853929	0.028983	-0.136968	-0.0567515	-0.00238221	0.0363192	-0.0439568	-0.141474	0.11545	0.0249369	-0.0415972	-0.0383253	-0.0146242	0.0113676	-0.0865194	-0.00327874	-0.0726507	-0.136235
-0.0376953	0.0542447	0.101809	0.0474249	-0.0973962	-0.0229779	0.0261792	0.0808801	0.0437615	-0.0184252	-0.0499198	-0.0552815	-0.020733	0.054278	-0.095621	0.193953	-0.0510914	0.023329	0.0369818	0.134383	-0.149627	0.0722659	0.0474736	0.112525	0.0478726	-0.00118065	-0.118205	0.109112	0.089848	-0.0190348	-0.170523	-0.0154869
-0.0763974	-0.0346649	0.00782407	-0.0718966	-0.109917	-0.0032972	-0.0574196	0.0349072	0.133043	0.056226	0.0975389	0.0358934	0.12147	-0.0662138	-0.187078	0.124943	-0.0648635	-0.0651422	-0.0797321	0.241028	-0.0639796	-0.17131	0.0533941	-0.111357	-0.139659	-0.0961613	0.0923129	-0.0777058	-0.0580027	0.173603	-0.0632566	-0.0271923
-0.141082	0.0283383	0.020018	-0.0130617	-0.00684704	0.0263805	-0.0981414	-0.0811051	0.169499	0.0748404	0.147474	0.00213502	0.0614687	-0.0473829	-0.164938	0.141243	-0.0968536	-0.0612822	-0.0698613	0.1394	0.0326827	-0.14466	0.0768077	-0.0274245	-0.0817469	-0.0994145	0.0817981	-0.0737513	-0.139874	0.149271	0.126202	0.00207557
0.0231731	0.0633445	0.0134799	0.0213054	0.190016	0.0235376	0.0672673	-0.00954928	-0.103717	-0.108149	-0.154235	0.099689	-0.0256184	-0.0415491	0.0954399	-0.196473	-0.0472583	0.0139617	0.0650154	-0.00844685	-0.0136339	0.144273	-0.00450068	0.191712	0.0524397	0.00853092	-0.041182	0.111933	0.0318633	-0.0733129	-0.0119713	-0.0315306
-0.0458447	-0.130051	0.135424	0.0765465	0.0752546	-0.0982941	-0.0738886	0.0941339	0.0255374	0.145127	0.00213822	0.163127	0.0357287	-0.0255167	-0.0183138	0.0418593	-0.0580957	0.0126663	0.0153914	0.200727	-0.133111	-0.101058	-0.0269452	-0.128033	-0.0609808	-0.0646155	-0.0180794	-0.0415598	-0.0491885	0.0232002	-0.145719	-0.139579
-0.0872012	0.058538	-0.209116	-0.0617632	0.00443099	0.131394	-0.0494613	-0.0531987	0.116634	0.0473999	0.032337	-0.0327445	0.0481184	-0.078604	-0.00787701	-0.0523584	-0.0247992	-0.0381231	-0.0521789	-0.0108303	0.0775485	-0.0699259	0.0292949	-0.0612515	-0.00744343	0.00708552	0.0657625	-0.0483774	-0.0127158	0.0236925	0.142309	0.0253641
-0.197736	-0.181589	-0.162595	-0.112417	0.099624	-0.13238	-0.0801881	-0.0227053	0.179535	0.145059	0.262226	0.136894	0.149344	-0.0362628	-0.139343	0.168056	-0.0287662	-0.171393	-0.214869	0.179235	0.167074	-0.251186	-0.10986	-0.177922	-0.167357	-0.175207	0.166831	-0.211878	-0.209828	0.150201	0.121056	-0.113987
-0.00789233	0.0472786	-0.195588	0.0523852	0.149657	0.164503	-0.0391865	-0.179673	0.0163878	0.0679981	0.112564	-0.139699	0.0652957	-0.016614	0.0186852	-0.110167	-0.07626	-0.151372	-0.139434	-0.111429	0.160025	-0.0743054	0.0595554	-0.130158	-0.129437	-0.0536374	0.0759356	-0.0683531	-0.0859869	-0.0531493	0.0595418	-0.110581
0.149588	0.0167054	0.00113168	0.00473852	0.251068	-0.0625218	0.185519	0.0883285	-0.190042	0.0145521	-0.0809046	-0.00700638	-0.165911	-0.00323179	0.215803	-0.158237	0.157674	0.169002	0.0991398	-0.0231366	0.0888057	0.130419	-0.225075	0.115979	0.18541	0.173519	-0.0869184	0.076002	0.0680537	-0.138086	0.029577	0.0642088
-0.0365176	-0.0947317	0.0128607	-0.000785924	-0.0922325	-0.0825046	0.00359906	0.0523226	0.00686411	0.028049	0.00115943	0.130527	-0.0231251	-0.0894678	0.0743406	0.0142365	0.0641575	-0.0662614	0.0158053	0.000233741	0.0701236	-0.0671391	-0.125677	-0.0952339	0.0325264	-0.025404	0.0661984	0.0857889	0.0247664	0.0363989	-0.0531651	0.0423375
0.0546295	-0.220995	0.104546	-0.12807	0.144142	-0.0200222	-0.0244566	-0.00197842	0.0196978	0.0880915	-0.048688	0.171281	0.0544544	-0.00027191	-0.0614975	0.0315524	0.135785	0.0175543	0.034666	0.135475	0.0913718	-0.00308627	-0.172621	-0.047779	0.0473485	-0.0688371	0.00415857	-0.138155	-0.00334091	-0.0543875	-0.028554	-0.00115428
1.66247e-05	0.0215891	-0.0413961	0.048924	-0.159887	-0.0338292	0.0541789	0.0838656	-0.0435928	-0.0901571	-0.0908956	0.0402545	-0.0133434	0.00972143	0.0516977	-0.0483993	0.00398709	0.0416672	0.113353	0.103048	-0.0180267	-0.00512276	0.0416699	0.135449	0.046668	-0.0470186	-0.0947599	0.0716763	-0.0214576	-0.105326	-0.0557375	-0.0208178
-0.123902	0.0597095	0.135102	0.186061	-0.133054	0.0449234	0.0075593	0.0177903	0.00331737	0.079796	-0.030476	-0.0790092	0.0391157	-0.00534629	-0.0487496	0.05805	-0.0847205	-0.0147488	-0.00270676	-0.00623842	-0.136412	0.0306906	0.162229	0.0372777	-0.00676058	-0.0271244	-0.128475	0.0629641	0.0500766	0.0216544	-0.0853469	0.0120735
-0.154038	0.113386	0.00784961	0.156742	-0.161029	0.166346	-0.164799	-0.0470009	0.173523	0.112711	-0.0225272	-0.0574549	0.123818	0.0923613	-0.148335	0.131319	-0.176748	-0.0953149	-0.101248	0.10257	-0.25418	-0.17323	0.198116	0.0548318	-0.188185	-0.234428	0.0233809	-0.0571453	-0.16581	0.0941164	-0.0214257	-0.117963
-0.0910345	-0.0827532	0.0457578	-0.0543325	0.203323	-0.0720924	-0.0454805	-0.110388	0.109005	0.0377936	0.113402	0.156204	-0.00504455	0.0843093	-0.0445243	-0.0612796	-0.128255	-0.0459355	-0.112916	0.0209969	0.0433594	-0.0120268	-0.0946885	-0.116711	-0.0896265	-0.0563	0.193352	-0.168673	-0.011157	-0.0708458	0.100214	-0.209998
-0.0883852	-0.0663624	0.0912132	-0.124773	-0.0454454	-0.125666	0.0639714	0.0484257	0.0670297	-0.00731872	-0.0625054	0.215781	0.097563	0.0694522	-0.0411963	0.0780272	0.0826919	-0.0398502	-0.0546366	0.129886	0.0163765	-0.0326621	0.00950763	-0.0828944	-0.0616197	-0.0290816	0.027889	-0.0621313	0.0494375	0.0165045	-0.138416	-0.03508
-0.0394878	-0.0141181	0.111091	-0.0853173	-0.0332022	-0.0741454	-0.0740199	0.111504	0.041521	-0.0514341	-0.0562319	0.0750452	0.0187822	-0.0285203	-0.0399174	-0.0214245	-0.00932058	0.0376989	0.11157	0.193594	-0.0835124	-0.0154208	-0.0631171	-0.0339449	-0.00316688	-0.0101152	-0.125281	-0.0850371	0.0563386	0.0356171	-0.0749382	0.151752
0.0220747	0.133344	-0.0238237	0.0767385	-0.0415462	0.147902	0.0099611	-0.0603745	0.0837616	-0.0857588	-0.155402	-0.0328794	0.0312355	-0.0363181	0.036288	-0.0420701	-0.0269812	-0.0345408	0.0164049	-0.0811256	-0.0352538	0.0421483	0.0609918	0.0248874	-0.012048	-0.00985857	0.0368699	0.0521162	-0.0825512	0.10525	0.0359326	-0.00922575
0.109667	-0.0619082	0.0826101	-0.0338865	-0.146007	-0.153896	0.0944732	0.0233348	-0.118756	-0.110376	-0.111866	0.111962	-0.142841	-0.107715	0.0960846	-0.0506304	0.157312	0.106466	0.111181	-0.130102	0.154557	0.113442	-0.17916	0.0764276	0.150168	0.169755	-0.103846	0.0833915	0.0950945	-0.0747891	-0.0948282	0.107453
0.0665191	0.144757	-0.010231	0.182687	-0.171621	0.0664257	0.148377	-0.0605559	-0.0876233	-0.0853425	-0.0445395	-0.118922	-0.0331096	-0.0401629	0.111669	-0.0528908	-0.124236	0.061235	0.122945	-0.210392	-0.0999878	0.115038	0.15356	0.161749	0.0632654	-0.0322916	-0.137128	0.216689	0.134297	-0.0485933	-0.0505627	0.0397728
0.0501247	-0.0828503	-0.145769	-0.181678	0.0906233	0.0417519	-0.0459071	-0.102795	0.0713898	0.00621056	0.0735187	-0.047716	-0.0139555	-0.0560544	0.0133118	-0.083455	0.0985055	-0.086752	-0.0737027	-0.169261	0.204697	0.0389024	-0.100816	-0.0705209	0.0409369	0.0921217	0.12114	-0.0390276	-0.0358298	0.114679	0.190087	0.0403551
0.0586817	-0.0480423	0.0887945	0.00769083	-0.0488425	-0.0925179	0.118271	0.13628	-0.152556	-0.138493	-0.135466	0.0836172	-0.0605516	-0.104624	0.0914358	-0.100326	0.0698648	0.0566225	0.0657296	-0.0590212	-0.00925799	0.0732732	-0.0233223	0.126646	0.0834858	0.094233	-0.142713	0.0765999	0.117841	-0.0713992	-0.133869	-0.00850932
-0.0964835	-0.302945	0.00586371	-0.2158	0.167656	-0.239479	0.00534455	0.0945784	0.0382111	0.0775711	0.0806448	0.200732	-0.0299171	-0.0877732	-0.0202504	0.0488058	-0.0291618	-0.0944168	-0.11817	0.139152	0.259243	-0.0867957	-0.139405	-0.235289	-0.0840794	0.10027	0.186198	-0.213398	0.00467921	0.0456045	0.071525	-0.0826484
0.0117669	0.198269	-0.0553217	0.0866995	-0.148898	0.0979351	-0.0457375	0.0783281	-0.0328527	-0.11046	-0.110509	0.00647715	0.116116	-0.0168181	-0.0172826	-0.0358831	-0.0872384	0.125105	0.027164	-0.117688	-0.0982352	0.0104248	0.0312669	0.130325	-0.106866	-0.138256	-0.0453479	0.106115	-0.01703	0.118455	0.0882536	0.0247056
0.166916	0.00460826	0.0437718	0.0292702	0.0431515	-0.0621808	0.110731	-0.10761	-0.145301	-0.167002	-0.117674	0.0408179	-0.103402	-0.172929	0.176602	-0.13323	0.0755639	0.028172	0.151233	-0.226566	0.23863	0.130947	-0.0114162	0.135158	0.109899	0.161289	-0.134099	0.158522	0.120132	0.0638291	-0.026298	0.136302
-0.159739	0.189104	-0.0385283	0.152372	-0.14342	0.171217	-0.114027	-0.172276	0.121765	-0.0136707	0.00931879	-0.159578	0.0827577	0.103538	-0.114879	0.0807976	-0.201529	-0.0473714	-0.0502918	-0.0976073	-0.187872	-0.102351	0.226027	0.105412	-0.214678	-0.109749	0.0282712	-0.00678077	-0.0340851	0.0399561	0.0100723	-0.076506
0.0723397	-0.10132	-0.00232728	-0.106691	-0.0120385	-0.0790575	-0.0327554	0.0280735	-0.141822	-0.0367355	-0.0799322	0.0183315	-0.0316122	-0.0921657	-0.0176811	0.138947	0.113415	0.0361573	0.123324	-0.00903073	0.0987696	0.0551826	-0.0597126	0.00657376	0.0406599	-0.00691199	-0.129564	0.107481	0.0281595	0.142297	-0.0130107	0.120947
0.0706501	0.0285689	0.0649937	0.00856571	0.0723188	-0.00785273	0.0713077	0.0468055	-0.141141	-0.165142	-0.117888	0.000187053	-0.133821	-0.158256	0.118203	-0.215485	0.0590487	0.0569508	0.0324093	-0.105248	0.151497	0.1349	-0.152374	-0.0471581	0.0946736	0.0989083	-0.0268066	0.0574971	0.116118	-0.0528561	-0.0127734	0.0302194
0.149043	0.0976431	0.138168	0.0640578	-0.229491	-0.144408	0.0239389	0.0606367	-0.138969	-0.0455842	-0.137853	0.0710879	-0.0941093	-0.10796	0.0739663	-0.0365018	0.0810054	0.130359	0.0977647	-0.0942265	0.038317	0.183111	-0.120283	0.105472	0.114534	0.0852912	-0.115129	0.0974552	0.155449	-0.0364856	-0.0762973	0.133069
-0.0210323	-0.159833	0.0259914	-0.146165	0.0828281	-0.108781	0.0327908	0.150721	-0.0354155	0.068935	0.0759564	0.165886	-0.0104101	-0.105513	-0.0869538	0.0270405	0.158541	-0.0284518	-0.0180621	-0.0765184	0.139233	-0.0353716	-0.072408	-0.140798	-0.0338716	0.135699	0.0420241	-0.0911778	-0.0176415	-0.0233901	0.0299395	0.124644
0.0281053	0.11567	-0.00385488	0.130011	-0.0624411	0.105558	0.0148307	-0.123321	-0.0504976	-0.0696531	-0.0588599	-0.0512552	-0.0463786	-0.0187776	0.0906362	-0.121707	0.0255113	0.0178884	0.0532071	-0.106117	-0.0586786	0.0846936	0.0354939	0.295652	0.0724822	-0.0154619	0.0427737	0.125664	0.112743	-0.0879963	0.0914832	0.00252516
0.00406851	0.0496267	-0.12707	0.0228537	-0.0405238	0.130623	-0.143379	-0.0769442	0.129347	-0.0336829	0.069046	-0.113949	0.158474	0.0439599	0.00372833	0.0193784	-0.00692693	-0.132298	-0.110704	-0.116826	-0.036111	-0.0998837	0.0845241	0.0180299	-0.156195	-0.147146	0.0936815	-0.0603596	-0.14207	0.0357173	0.0659244	-0.0734783
0.130674	-0.12885	0.169135	-0.171782	-0.0123842	-0.203701	0.196662	0.183473	-0.137001	-0.0788972	-0.194584	0.199604	-0.099654	-0.153422	0.0309507	-0.0798985	0.138973	0.138057	0.231886	-0.00280885	0.137825	0.177189	-0.23484	0.0689667	0.227676	0.0661905	-0.0946032	0.195909	0.163307	-0.0241256	-0.153883	0.185629
0.0675267	0.160602	0.0443892	0.146285	-0.0525253	0.0830602	0.179394	-0.036772	-0.20867	-0.125368	-0.0899662	-0.116283	-0.125577	-0.0839167	0.127167	-0.13583	-0.106959	0.139757	0.114251	-0.16041	-0.144159	0.163797	0.0811847	0.243121	0.167854	0.139973	-0.121486	0.177127	0.0713817	-0.1882	-0.0465202	0.0562659
0.112621	-0.109582	0.0942624	-0.0370641	0.217464	-0.0573864	0.180094	0.112978	-0.165794	-0.174981	-0.184508	0.0805345	-0.141536	-0.178462	0.160726	-0.16269	0.0868821	0.100422	0.141009	0.012913	0.0144031	0.208065	-0.145042	0.107364	0.130463	0.179672	-0.123398	0.105917	0.116277	-0.0779733	0.00109317	0.0381496
-0.0639675	-0.106199	0.0448127	-0.0751975	-0.00116155	-0.0804485	0.00365681	0.177286	0.019782	0.0303547	-0.00198819	0.109637	0.0624364	-0.0144244	-0.0408126	0.169284	0.0282559	-0.0568683	-0.0532706	0.115584	0.0202712	-0.0666839	0.0956789	-0.0511638	-0.0562396	0.0436926	0.0661316	0.0477336	0.00882068	-0.0898947	-0.120103	-0.0662471
0.166126	0.206842	-0.091456	0.132259	0.0419355	0.0805446	0.0947252	-0.0967208	-0.126042	-0.132713	-0.128088	-0.176537	-0.113864	-0.120177	0.0804272	-0.237003	0.0525515	0.00824943	-0.00134913	-0.189273	0.0608305	0.160342	-0.00724802	0.115237	0.121134	0.0672603	-0.0622445	0.16895	0.0960691	-0.00744138	0.0863241	0.115808
0.0620711	-0.0954064	0.0584252	-0.103684	-0.117991	-0.176481	0.0783014	0.112522	-0.0443652	-0.120379	-0.146445	0.126227	-0.124797	-0.0942246	0.0684262	-0.0810548	0.11011	0.105805	0.0951413	-0.126048	0.0346813	0.0351909	-0.132657	0.0832441	0.115141	0.0704665	-0.117613	0.0603187	0.0982298	-0.0646719	-0.0639839	0.0448739
-0.0704466	-0.231611	-0.146966	-0.173154	0.0722898	0.0531592	-0.0845802	-0.188423	0.172768	0.198528	0.197903	-0.0348138	0.235474	0.0588338	-0.135384	0.131199	-0.0270065	-0.166552	-0.1433	0.230133	0.130995	-0.131886	-0.0236451	-0.139826	-0.162368	-0.134669	0.195989	-0.258367	-0.178083	0.169656	0.262861	-0.117986
0.0195126	-0.168758	-0.0352876	-0.0545311	0.18852	-0.0683186	-0.132262	-0.209977	0.0578244	0.0603512	0.084509	0.0869531	-0.0352532	-0.019167	0.00992024	-0.045184	-0.094702	-0.11733	-0.070874	-0.0187104	0.0284681	-0.0510314	-0.164581	-0.124813	-0.0627175	0.0216802	0.0930201	-0.117655	-0.127958	-0.012027	0.108396	-0.107461
-0.0587732	-0.0248101	-0.0157928	-0.0210851	0.0874696	0.0732902	-0.0953941	-0.138808	0.0968832	0.0276656	0.0503381	-0.17041	0.092596	0.0659322	-0.0186843	-0.00594862	-0.0606544	-0.135482	-0.137671	0.0740137	-0.0195857	-0.105359	-0.0192401	-0.0619557	-0.0621859	-0.0750665	0.0404778	-0.0899666	-0.0453556	0.101923	0.107364	0.00738977
-0.107373	0.036636	-0.0387251	-0.0205691	-0.0928691	0.0694795	-0.0639146	0.0285498	0.0519231	0.0180578	0.0315855	0.0374679	0.166587	0.0744415	-0.00474167	0.114905	-0.0580206	-0.100572	-0.0509455	0.0654535	-0.0707473	-0.128166	0.131715	-0.0312261	-0.0231465	-0.0936137	0.0772539	0.0588116	-0.0944851	0.0957331	-0.0746826	-0.0817813
0.0702728	-0.0143797	0.0428847	-0.0122167	0.0508557	-0.043016	-0.0506569	0.0131691	-0.0138487	0.0547076	-0.0306075	0.117085	-0.0342241	-0.14554	0.0085992	-0.0452605	0.0869254	-0.00281208	0.00225724	-0.0404256	0.0775077	0.015923	-0.113542	0.0168077	0.0419486	-0.0107121	-0.0480767	-0.00816553	-0.0163345	-0.102176	0.00812186	0.0277211
-0.142523	-0.107301	-0.0481115	-0.134079	0.0351525	-0.020308	-0.0884154	0.0197644	0.148293	0.121978	0.105428	0.0179961	0.109451	-0.0154108	-0.110267	0.179695	-0.0491579	-0.10048	-0.149702	0.148817	0.0243251	-0.170877	0.0829418	-0.0690941	-0.176079	-0.0879261	0.155906	-0.121105	-0.172062	0.0427904	-0.0109742	-0.151464
0.181905	0.0966957	0.139475	0.153387	0.00859931	-0.0437505	0.210098	0.0132518	-0.200708	-0.0971397	-0.169908	-0.0423485	-0.0742501	-0.1139	0.161166	-0.119486	0.0601565	0.213352	0.263061	-0.147424	-0.0707768	0.166316	-0.144984	0.24754	0.223215	0.179309	-0.127343	0.248933	0.0819546	-0.216944	-0.134433	0.0470928
0.0164557	-0.0772266	-0.0170136	-0.0501656	0.0549027	-0.039066	0.0384953	0.0444868	-0.0453347	-0.0398697	-0.0517309	0.15085	0.0457561	-0.0202518	0.00388085	0.0299712	0.0303643	0.00169449	0.0751409	0.0324298	0.0909354	0.0636902	-0.0708009	0.01459	-0.0110566	0.0119138	0.0125569	-0.00126399	-0.0446599	0.0153651	0.00475237	-0.0165708
0.0107603	0.0302015	0.0751516	0.0896911	0.0696154	0.00340949	0.0719123	0.109695	-0.0460996	0.0600428	0.0153999	0.0537082	0.0337882	-0.0443354	0.0423244	-0.0381925	-0.0723704	0.0667411	-0.0001915	0.181671	-0.113451	-0.0262668	-0.0523517	0.112799	-0.00975159	-0.0220387	-0.0424482	-0.00868974	0.00671218	-0.150907	-0.11973	-0.13273
0.108749	0.179072	0.00582778	0.137496	0.0565257	0.104223	0.065818	-0.118885	-0.0911476	-0.130353	-0.0685878	-0.0859426	-0.0673691	-0.0990137	0.0705276	-0.176608	-0.00663705	-0.0169671	0.0296935	-0.177602	0.0792359	0.11289	-0.0594122	0.0776989	0.0390057	0.047843	-0.0555456	0.143226	0.0917768	-0.0780557	0.0426238	0.0506181
-0.0166326	-0.0249358	-0.0456669	-0.0262996	0.0281048	-0.0511417	0.00479977	-0.0236106	-0.0252359	0.00408867	0.0109239	0.0123772	0.0147768	0.0163717	-0.0222387	-0.00613867	0.0215955	0.0446991	0.0148459	-0.0192184	0.0255906	-6.68662e-05	0.0432112	0.00698994	-0.0419269	0.0462322	0.0514039	0.0130889	0.0200936	0.0137474	0.0421991	-0.00204075
0.160849	0.122933	0.1372	0.0834234	-0.214985	-0.100013	0.0935793	0.255191	-0.135749	-0.227404	-0.220966	0.125183	-0.144559	0.0151831	0.197781	-0.168093	0.0758635	0.21907	0.142289	-0.0695615	-0.073968	0.075531	-0.0279282	0.15878	0.154684	0.087188	-0.175907	0.151873	0.0473685	-0.0868145	-0.211986	0.00608047
0.0346155	-0.0488088	0.0906632	-0.0499725	-0.0721466	-0.0200003	0.065819	0.0120625	-0.0773698	-0.0659602	-0.00138444	0.0723695	-0.0520218	-0.0480128	0.109831	0.0409767	0.0257228	0.0903916	-0.00564421	-0.0579875	0.00621666	0.0768359	-0.0437075	0.0693422	0.0760959	0.0469338	-0.0135443	0.103599	0.0551133	0.0192678	-0.069904	0.030746
0.139184	-0.182782	0.0567606	-0.0740525	0.0881475	-0.0814898	0.049401	-0.127113	-0.0415166	-0.0419796	0.0794279	0.0861854	-0.0599847	0.00639139	0.152232	-0.0321137	0.111166	-0.0167114	0.0534484	-0.0696979	0.179044	0.0169771	-0.169954	-0.00110145	0.0505994	0.0451451	0.0844973	-0.0783961	0.0530287	-0.0869579	0.0295008	-0.0253746
-0.119537	0.139259	0.0498338	0.229526	-0.169868	0.0836096	-0.0583028	-0.0560562	0.11014	-0.0420408	-0.0610084	-0.0728562	0.184318	0.237894	-0.126461	-0.10454	-0.250361	-0.0309787	-0.0181382	0.0531977	-0.209202	-0.00632329	0.173911	-0.0282414	-0.0495464	-0.110098	-0.0177538	0.0723578	-0.00864406	-0.0857549	-0.149733	-0.126708
0.198236	0.0671349	0.0954748	0.0523912	-0.125762	-0.0769771	0.158592	0.0432584	-0.203465	-0.200098	-0.122788	0.117138	-0.163985	-0.0678358	0.177864	-0.230924	0.0778764	0.173098	0.155224	-0.0735245	-0.0449461	0.246307	-0.0664696	0.11401	0.192396	0.204193	-0.233188	0.2225	0.0395375	-0.05686	-0.16029	0.20085
-0.116615	0.162969	-0.0592011	0.144948	0.0185423	0.0945332	-0.0609106	-0.0836833	0.100237	0.115253	0.168841	-0.11021	0.0931879	0.071303	-0.104117	0.103759	-0.11641	-0.125172	-0.114154	0.0409367	-0.191909	-0.107778	0.124138	0.0521259	-0.167324	-0.0939462	0.119294	-0.110621	-0.177253	-0.0969795	0.0325094	-0.150034
0.00516314	-0.259265	-0.109921	-0.218224	0.222785	-0.0585055	-0.17131	-0.0907702	0.184694	0.172801	0.16707	0.0892187	0.12303	-0.0599402	-0.139041	0.0581867	0.025835	-0.24646	-0.190812	0.0252039	0.195454	-0.154653	0.0289444	-0.298262	-0.184658	-0.147795	0.221013	-0.24001	-0.12909	0.119937	0.155942	-0.119386
-0.0238744	0.106522	0.0869377	0.0663073	-0.18725	-0.00999008	0.0711474	0.124769	0.0594713	-0.0200325	-0.0990921	0.0735829	0.00503424	0.102564	-0.0101786	0.0991232	-0.0917685	0.056773	0.00314902	0.0406772	-0.177254	-0.00986349	0.0700306	0.20157	-0.0150539	-0.0449018	0.0140712	0.156597	0.0102734	-0.0863662	-0.0903562	-0.0570391
-0.0424325	0.112509	-0.107167	0.104027	0.132484	0.178368	-0.0147511	-0.0353608	-0.00283678	-0.0514626	-0.0316075	-0.0183993	-0.0763995	-0.00443462	0.00338074	-0.157366	-0.0848029	-0.108181	-0.104747	-0.201569	0.020573	-0.00917997	0.0524014	0.106139	-0.122023	0.0217471	0.0713463	-0.0271105	-0.028507	-0.043505	0.0849083	-0.0303793
0.0852728	0.106459	-0.147879	0.0973117	-0.0601553	0.184408	-0.0978764	-0.156998	-0.107911	-0.035958	0.0636692	-0.0887934	-0.000883985	0.0345336	0.115817	-0.149221	0.0643154	-0.0224342	0.0525115	-0.185112	-0.0173234	0.0680768	-0.033926	0.0261675	-0.0110668	-0.0678078	0.090454	0.0570881	0.0304497	0.0477326	0.189465	-0.0831897
0.00539032	0.0944069	-0.17635	0.0292371	0.205758	0.0661848	-0.116221	-0.117799	0.0415303	-0.0415671	0.0338386	-0.0150245	-0.0441686	0.104765	0.0583999	-0.124746	-0.142833	-0.152182	-0.0765457	-0.181936	0.0133314	0.00510084	-0.0213883	-0.0173151	0.00701144	-0.00932503	0.0460369	-0.0727134	0.04426	0.0806824	0.24905	-0.0317591
-0.0536359	-0.0287276	0.0244476	0.0360278	-0.00236232	0.0483443	0.0330069	0.0190312	-0.0529841	-0.0521279	-0.0458251	-0.0295267	0.0534268	0.00309564	-0.138044	-0.00453346	-0.00203273	0.0249041	0.00766313	0.0176432	-0.0183776	-0.028075	0.0423567	0.0605102	0.0239964	0.0307669	-0.0924064	0.0704538	-0.0333049	-0.0298555	-0.0613516	0.0712401
-0.0478718	0.0123717	-0.070505	-0.0203404	0.00863986	0.0976361	-0.089745	0.00389601	0.0529622	-0.00278641	0.0372097	-0.111871	0.0228985	0.0213535	0.0156847	-0.0475828	-0.0691431	0.034828	-0.0505193	-0.123607	-0.0156373	-0.0308089	0.107873	0.103269	-0.00389093	-0.00380771	0.0299121	-0.0131648	0.00348304	-0.0189845	0.0672449	0.0206298
0.148574	0.130411	-0.0273257	0.0963026	0.0578986	0.0809161	0.0612081	-0.138233	-0.155355	-0.0592199	-0.00996607	-0.123851	-0.0810917	-0.071082	0.0461635	-0.144123	0.0931836	0.0997828	0.0611754	-0.0336317	0.109331	0.0680909	0.0171301	0.088278	0.098981	0.0754821	-0.104361	0.156334	0.0800892	-0.12051	0.0449999	0.111197
-0.146278	0.0274145	-0.0571341	0.0618881	0.0638692	0.065158	-0.0816479	-0.0431231	0.0676587	0.0406468	0.0693679	0.00910121	0.0530547	0.125213	-0.0612563	-0.096154	-0.0815075	-0.100529	-0.149301	0.040398	-0.143926	-0.143079	0.119251	0.0276012	-0.13468	-0.0443508	0.139638	-0.0831497	-0.133137	-0.144929	0.00959037	-0.0859774
0.0416146	0.20958	-0.135071	0.159939	-0.089732	0.21077	-0.141192	-0.132793	-0.00690706	0.0151038	0.0197923	-0.14934	0.0727957	0.050765	-0.0764661	-0.0208594	-0.0625294	-0.0693609	-0.125906	-0.0436542	-0.0940738	-0.00605024	-0.000250681	-0.0424457	-0.14111	-0.099301	0.0297595	-0.0370183	0.0106161	-0.0349215	0.100248	0.00606027
-0.012185	0.0887145	-0.00639419	0.0470267	-0.096241	-0.0219481	-0.0449501	-0.0271073	0.0439436	-0.0237884	-0.0777599	0.00915059	-0.00711734	0.0346586	-0.0791693	0.0105421	-0.0404833	0.0930611	0.0225126	0.070263	-0.0892755	-0.0050688	-0.0320574	0.048595	-0.0265977	-0.00290973	0.00791752	0.0131865	0.0372646	0.0472017	-0.0463576	-0.0261805
-0.00950983	0.155212	0.113116	0.070344	-0.0951066	0.0548344	0.148406	0.0680249	-0.0163945	0.0643586	0.0806035	0.0350439	-0.0122788	0.0834008	0.0727943	0.0116534	-0.0905857	0.11285	0.0449688	-0.0216584	-0.0264595	-0.041866	0.0947149	0.0641838	0.0683871	0.0157462	0.00282482	0.080415	-0.0771908	-0.12667	0.023345	-0.0450358
0.266016	0.0362602	0.116076	0.0210812	-0.00151678	-0.0982109	0.165562	0.0849895	-0.179479	-0.224818	-0.196784	0.0990161	-0.267113	-0.0996268	0.223411	-0.201645	0.0861869	0.116304	0.247026	-0.172241	0.060682	0.236338	-0.107251	0.0376798	0.12126	0.19479	-0.16541	0.141637	0.245865	0.0174734	-0.076193	0.0964428
0.0836937	0.0621109	-0.154985	0.0860331	0.25173	0.190998	0.0631984	-0.179444	-0.030775	-0.0602936	0.0562024	-0.103653	-0.0231841	-0.122843	0.095144	-0.0307684	0.0376607	0.0138188	-0.0417261	-0.103599	0.181487	0.106269	-0.053321	0.0549949	0.016535	0.034848	0.135771	0.0722166	0.0619152	0.0615447	0.208647	-0.0513307
-0.0536316	-0.176398	0.0383577	-0.139785	0.192396	-0.0492304	-0.00511551	0.0216738	0.0369483	0.0707672	0.0719649	0.150446	0.0509278	-0.0480415	-0.0191616	0.00181395	-0.0492763	-0.0543004	-0.0411354	0.197946	0.0535234	-0.102699	-0.0262655	-0.0322651	-0.0748739	0.0160507	0.0132755	-0.12184	-0.115975	-0.0594815	-0.0122643	-0.0686494
-0.127881	0.0694383	0.05274	0.047571	0.082952	0.0994833	-0.0617822	-0.0315421	0.0636141	0.0382888	0.106036	-0.104375	0.114354	0.116995	-0.0515531	0.00361095	-0.0682501	-0.113279	-0.132871	0.0993511	-0.0761532	-0.124028	0.0612388	-0.0630887	-0.0809165	-0.1051	0.093674	-0.0516138	-0.113332	-0.0191079	0.0634204	-0.109735
-0.0181544	0.0735098	0.120531	0.0406953	-0.0947618	0.0360483	0.0175538	0.0850054	0.0345136	0.103328	0.0484064	-0.0131743	0.0882971	0.136005	0.0150527	0.188277	0.0199429	0.0118609	0.0747731	0.209035	-0.0635182	-0.0482125	0.0418846	0.109081	-0.0387971	-0.062522	-0.0152928	0.123518	-0.00202398	-0.0157331	-0.0580656	-0.0926638
0.0318	0.209919	-0.0101181	0.260658	-0.202893	0.240956	-0.0487863	-0.170035	0.0637008	-0.140678	-0.0635609	-0.256964	0.116807	0.0320282	0.00186884	-0.0462616	-0.184989	0.0260116	0.0515339	-0.135342	-0.0552216	0.011685	0.173832	0.146097	-0.0330153	-0.0996367	-0.05924	0.179885	0.0793412	0.0187116	0.024086	-0.0807633
0.149545	-0.0951078	0.179139	0.0138877	0.0311192	-0.121308	0.120094	0.232955	-0.13587	-0.00443173	-0.110778	0.103447	-0.0759997	0.0162152	0.100965	0.0543228	0.0939899	0.100384	0.156846	0.0477333	-0.0346501	0.113307	-0.158625	0.0902806	0.194631	0.0902406	-0.125675	0.18755	0.165393	-0.117461	-0.192381	-0.0454733
-0.0758015	-0.0274792	-0.0709182	0.0185509	0.0315316	0.177916	-0.0108599	-0.0674883	0.00503	-0.0123025	0.0564521	-0.0491334	0.0412703	-0.0610673	-0.00554482	-0.122856	-0.0370508	-0.0945142	-0.107702	-0.0994445	0.108443	-0.0141093	-0.063515	0.0201427	-0.0191984	-0.105798	0.139195	-0.0580227	-0.0349064	0.144887	0.117045	-0.0386615
-0.0883645	-0.123447	-0.0109488	-0.138288	0.120453	-0.0611738	-0.00819022	0.0854333	0.00886906	0.0277921	0.051681	0.0550193	-0.0317817	-0.0920315	-0.0395128	-0.0113932	0.110653	-0.0404771	0.0174587	0.0969879	0.0933584	-0.00306815	-0.0564306	-0.0565533	0.0127795	0.0717577	0.033846	-0.0143555	-0.00363121	-0.0354295	-0.0142183	0.0390686
0.106832	0.112782	0.0811706	0.0650301	-0.160866	-0.0526491	0.129467	0.154949	-0.0525704	-0.0669432	-0.110669	0.142147	-0.0828935	-0.0371331	0.198705	-0.146016	0.0661132	0.0936719	0.0803959	-0.110014	-0.0528998	0.0523992	-0.104996	0.0829425	0.0763346	0.107466	-0.0769676	0.102932	0.0268985	-0.15234	-0.192282	0.0335513
0.158921	-0.24456	0.14291	-0.141055	-0.0686766	-0.182883	0.153745	0.106127	-0.200643	-0.134689	-0.161999	0.184898	-0.194555	-0.0152479	0.158028	-0.0729669	0.153909	0.133112	0.132685	-0.111658	0.155303	0.125175	-0.0819325	-0.0883744	0.122949	0.0960636	-0.118993	0.142111	0.0988248	-0.0542957	-0.129475	0.139313
0.0519258	0.118929	0.0196074	0.173146	-0.0431735	0.000427995	0.0637255	0.0163453	0.00251384	-0.0310755	0.0177632	0.00995935	-0.0595529	-0.0012782	0.00292938	-0.165009	-0.0325607	0.0655088	-0.00301234	-0.0159732	-0.148721	-0.00489837	0.0458229	0.0384186	-0.0330682	0.0168948	-0.0326839	0.0669155	-0.0245581	-0.142975	0.00456274	-0.0248467
-0.00348532	0.124469	0.079266	0.0845761	-0.15424	0.00315525	0.100972	0.0492642	-0.166161	-0.030831	-0.106344	0.0491621	-0.0887058	-0.0779036	-0.0252411	8.82303e-05	0.0948797	0.146685	0.101512	-0.114698	0.00509505	0.134584	0.0603396	0.0710215	0.0556409	-0.0018467	-0.0907836	0.105556	0.132631	-0.0392809	-0.146518	0.067694
-0.0486134	0.0578695	0.182556	0.0122087	-0.14842	0.0195653	-0.102072	0.132697	0.107724	-0.103759	-0.0661624	0.0489717	0.00606152	-0.0719607	-0.230507	0.101632	0.00375747	0.0711938	-0.0102843	0.0247462	-0.0610628	-0.0718948	0.171382	0.0381255	-0.0645592	-0.14365	-0.0690587	0.0617338	0.0471423	0.175111	-0.0789672	0.0194804
0.0849657	-0.15421	0.136918	-0.0385785	-0.0220113	-0.0887911	0.0279886	0.104531	-0.0899385	-0.0808706	-0.121936	0.127837	-0.133147	-0.0249836	-0.00823571	-0.0474266	0.0555907	0.0297435	0.153599	-0.0346156	0.10843	0.100219	-0.126903	0.0105435	0.0651908	0.0712115	-0.146934	0.0664857	0.13157	0.00300714	-0.0563837	0.0843713
0.0109973	0.128022	-0.0982367	0.178286	-0.076016	0.208603	-0.128923	-0.103654	0.0160731	-0.15443	-0.0986067	-0.0778823	0.0107365	0.0171616	0.0910007	-0.188427	-0.112775	-0.0651929	-0.0335987	-0.153528	0.00181367	0.0612801	0.0813717	0.110574	0.0326629	-0.0461431	0.0336221	0.0908203	0.0830163	0.0266505	0.0605216	-0.120622
0.00862808	0.0776628	0.0653379	0.0785756	-0.138959	-0.0320463	0.13179	0.097672	-0.089454	-0.0441066	-0.0613317	0.0543953	-0.0760314	-0.0466183	0.0796226	-0.00818966	0.0267413	0.106355	0.0531448	-0.0358801	-0.00883678	0.0945717	-0.00328869	0.1268	0.0272259	0.0738169	-0.0286596	0.142768	0.121472	-0.071376	-0.15569	0.0605095
0.015612	-0.0224525	-0.18595	-0.0576425	0.101168	0.0937169	0.0972064	-0.137431	-0.0624059	0.0533753	0.0363418	-0.12196	0.0184748	-0.0153496	0.103505	-0.052211	0.0402855	0.0556291	-0.0322619	-0.0901426	0.157006	-0.0343217	-0.032531	-0.0678929	0.05023	-0.032302	0.0531283	0.00384202	0.038356	-0.0377812	0.0684806	0.0237115
0.0627881	0.0604618	0.00982621	-0.0335077	-0.231032	0.00678021	-0.114942	-0.001225	0.0394206	0.0655944	-0.0228658	-0.0447057	0.0535356	0.0136716	-0.0577705	0.0696859	-0.0210219	0.0123127	0.0495538	0.108191	-0.100682	-0.00295059	0.0390709	0.0123606	0.00251813	-0.0910181	-0.0742459	0.03085	-0.0687791	0.128798	-0.0475999	0.00845879
0.130083	0.0657622	-0.0456144	0.0500207	0.0420277	0.0402407	0.0742802	-0.0524138	-0.1143	-0.0898727	-0.0756319	0.0553714	-0.100619	-0.212166	0.17996	-0.142221	-0.0047326	-0.00990441	0.0292771	-0.151353	0.0788041	0.069431	-0.105374	0.134815	0.0062023	0.0484905	-0.0322263	-0.00407006	0.127752	-0.150641	0.0366464	0.046165
-0.0940719	0.0635056	0.051343	-0.0131861	-0.0012344	-0.000666414	-0.0613836	0.00711045	0.066551	-0.052045	-0.0526025	-0.05633	0.117421	0.0649128	-0.0769581	-0.0973888	-0.144471	-0.0935159	-0.0673746	0.102417	-0.10932	-0.0873141	0.114907	-0.0122872	-0.0570024	-0.0435198	-0.0115888	-0.142244	-0.123309	0.0715602	-0.0416968	-0.0369113
0.188251	0.0017897	-0.129505	0.0676254	0.00450558	0.0748371	0.0806859	-0.0962345	-0.145117	-0.0382605	-0.0202863	-0.100311	-0.0965871	-0.11463	0.159309	-0.104911	0.0957501	0.0211134	0.0337028	-0.125056	0.198611	0.0730157	-0.173042	-0.00886268	0.10518	0.0963775	0.0051991	0.0730222	0.113885	0.00832295	0.0753307	0.12378
-0.0890588	0.21119	-0.0269797	0.157424	-0.153669	0.208736	-0.101372	-0.104195	0.132432	-0.0357892	-0.0763248	-0.102365	0.144346	0.109487	-0.109222	0.000307667	-0.214405	-0.0198606	-0.0203698	0.0338451	-0.207223	-0.0589186	0.206098	0.0300287	-0.137212	-0.158556	-0.00549416	0.133649	-0.0375925	0.0482923	-0.020831	-0.119472
0.0431416	-0.0297515	-0.0163061	-0.0283736	-0.0688203	-0.0543354	0.00131827	0.0647299	0.017584	0.155765	0.0468391	0.0771413	-0.00181788	0.0217411	-0.0795993	0.0678526	0.022495	0.00846836	-0.0035042	0.158133	-0.0111977	-0.112763	0.0390125	-0.0488883	0.0467238	-0.0750999	0.0341693	-0.0827725	0.0158889	-0.0997429	0.0361697	-0.013065
0.0318883	-0.184151	0.082642	-0.187184	0.107979	-0.125392	0.0289514	0.0389224	0.0306591	0.195781	0.071694	0.0485	0.00204916	-0.115028	-0.0447707	0.0345171	0.0864687	0.0339521	-0.0287825	0.183861	-0.0164176	0.0345501	-0.104315	-0.0991019	-0.0616502	0.0200838	0.036346	-0.197758	0.0546413	0.0250428	-0.019096	0.0427749
-0.0662667	0.0788446	0.185402	0.000830524	-0.152377	0.0153066	-0.0405049	0.0484869	0.0562002	-0.0809507	-0.100128	-0.0261232	0.0463865	-0.137139	-0.0918899	0.175318	-0.0680443	0.0177063	0.0657233	0.0237288	-0.111525	0.0567379	0.0595747	0.0551258	-0.0908077	-0.136066	-0.146011	0.117182	0.0812958	0.128612	-0.081973	0.0324479
0.098719	0.106025	0.119465	0.110695	-0.0437572	-0.101541	0.0416274	0.108888	-0.069694	-0.0607547	-0.0513965	0.118092	-0.120545	0.028227	0.118041	-0.129947	-0.0546171	0.098556	0.107828	-0.0638494	-0.198291	0.0802544	-0.0254655	0.118393	0.0516573	0.0830243	-0.132793	0.0140727	-0.0555449	-0.160478	-0.046248	-0.0165424
0.00785934	0.0874508	-0.0201272	0.0449855	0.0330685	0.147437	0.0282504	-0.0953679	-0.126093	-0.170915	-0.161877	-0.210703	-0.0700143	-0.00796977	0.0344522	-0.167251	-0.110392	-0.0282901	0.0140448	-0.140511	-0.0150006	0.129599	0.0846792	0.0317176	0.0574063	0.0985948	-0.0183511	0.0195364	-0.0149964	-0.130296	0.0133714	0.059969
-0.130686	0.0858886	0.0475129	0.0567378	-0.0906274	0.0376144	0.0111133	0.144833	0.0566999	0.0564871	-0.0335749	0.0907685	0.0879759	0.152995	-0.0959092	0.21762	-0.152823	0.0927051	-0.0666639	0.102024	-0.0932088	-0.0831724	0.164386	0.154929	-0.0988295	-0.136595	0.0761701	0.0725644	-0.0514598	-0.00881891	-0.114627	-0.164033
-0.0361226	-0.0697254	-0.0746218	-0.0824275	-0.0380007	-0.00199706	-0.00782529	0.108566	0.109086	0.133576	0.133445	-0.012978	0.0658314	0.115585	-0.0295124	0.0438737	-0.121522	-0.0344689	-0.093677	0.106663	0.11571	-0.0664929	0.031182	-0.0456524	-0.039331	-0.11726	0.145885	-0.0699774	-0.0279991	0.0210974	-0.0162692	-0.0959614
0.0526861	0.0750524	0.0811656	0.00947731	-0.0692643	-0.0386936	0.0249978	0.115456	-0.0668921	0.00381331	-0.0584562	0.122262	0.000247477	-0.0644633	-0.0668225	-0.0479836	0.0267358	0.0500074	0.0538552	-0.0549248	0.013839	0.0851318	-0.0190407	0.0853463	0.0732246	-0.00168947	-0.0385894	0.0914539	-0.0469741	-0.0316541	-0.0809152	0.017344
0.0500406	0.111997	0.0479479	0.114689	-0.0612325	-0.0311219	-0.0976355	0.0763312	-0.0197887	-0.101587	-0.0377288	-0.00103797	-0.0614489	0.065098	-0.0615934	-0.0899574	-0.00103353	0.0920297	0.026099	0.0703051	0.0562325	-0.0876498	-0.0856837	0.137878	0.0685365	-0.0930464	-0.0114994	0.0700167	-0.0791461	0.00680573	-0.0639986	-0.0686277
-0.110644	0.0468788	-0.0329827	-0.105979	-0.0248861	-0.0550884	-0.0485603	0.201726	0.147036	0.00293026	0.059474	-0.0124083	0.125204	0.0376515	-0.0578874	0.166643	-0.0477189	-0.0848942	-0.0256478	0.176645	-0.104911	-0.0826149	0.0656732	-0.162232	-0.102468	-0.108129	-0.0358901	0.0116255	-0.114349	0.0339039	0.010953	0.0664634
-0.16724	0.100042	0.104066	0.0912129	-0.194194	0.0108139	-0.114072	-0.0989067	0.120718	0.162398	0.0931773	-0.11262	0.145932	0.0693477	-0.160025	0.185128	-0.192006	-0.0404993	0.0448718	0.16688	-0.218981	-0.0501232	0.149743	-0.00133111	-0.15747	-0.139144	-0.0350844	0.0028461	0.00729436	0.174921	0.0427206	-0.0508175
-0.119346	0.175329	-0.074049	0.114996	-0.165966	0.155799	-0.203035	-0.0447949	0.0748817	-0.00459941	0.0216999	-0.0846083	0.142072	0.0335525	-0.224755	0.177269	-0.201893	-0.0894727	-0.123327	-0.0225019	-0.174607	0.00342629	0.216875	0.127128	-0.109532	-0.171552	0.0308817	0.0500074	-0.0402077	0.200774	0.00846807	-0.0993635
0.0567235	0.0748926	-0.0535873	0.0783783	0.0530817	0.0357266	0.0425676	-0.131222	-0.103524	-0.0483074	-0.0287277	-0.0881158	-0.0615834	-0.125542	0.0211704	-0.14971	0.013291	-0.0952686	-0.0351136	-0.174162	0.180623	0.0406721	0.00129414	-0.0303148	-0.00682015	0.120309	-0.0809754	0.0269884	0.0791797	-0.0598875	0.104656	0.193682
0.140097	0.119304	-0.0602122	0.029856	0.129815	0.102057	-0.0260001	-0.115279	-0.153483	-0.063536	-0.0738756	-0.160838	-0.0693796	-0.0798914	0.135544	-0.188877	0.0780866	-0.0798952	0.00641627	-0.123966	-0.00548153	0.117949	-0.0760918	0.146531	0.0682561	0.0287396	0.00270433	-0.0521322	0.0890783	-0.027559	0.122133	0.0514653
-0.0289791	0.130044	-0.0511997	0.116965	-0.00982627	0.115411	-0.0327052	-0.0627354	0.045552	-0.138372	-0.112881	-0.0917451	0.00579824	0.0902034	0.0303958	0.0427947	-0.0263657	0.106594	0.0516542	0.078939	-0.130908	0.107727	0.0442241	0.14696	0.00371559	-0.0741727	-0.0314254	0.0304367	0.0845658	0.0229497	-0.0345802	0.00963673
0.190481	-0.0326437	0.227543	0.0713659	-0.0214358	-0.156215	0.21719	0.173059	-0.216772	-0.0841853	-0.221298	0.0856953	-0.169116	-0.0348686	0.133032	-0.111309	0.105634	0.278545	0.244573	-0.103606	0.027307	0.195836	-0.097159	0.141196	0.205784	0.262748	-0.198826	0.22942	0.169748	-0.217732	-0.261681	0.154816
0.186836	0.104428	-0.108475	-0.020582	0.00714507	0.0621943	-0.0485013	-0.158396	-0.142238	-0.12035	0.0507378	0.000510972	-0.0696369	0.0198991	0.110777	-0.0842017	0.12674	-0.0604355	0.0837333	-0.146176	0.143212	0.0304516	0.0137851	-0.101166	0.0298688	0.0380166	0.154329	0.102021	0.0662814	0.0969855	0.162917	-0.012522
0.0582583	0.0890962	0.0493082	0.0589115	0.0159767	-0.0137481	-0.0421753	-0.0241331	-0.0686307	0.0190429	-0.0474459	-0.0214932	-0.0688611	-0.0037404	0.00613809	0.0024164	-0.0358197	0.0240186	-0.038253	0.034341	-0.154437	-0.00279989	0.0125241	0.0779045	-0.0119571	0.0342097	-0.0237395	-0.0172615	-0.107908	-0.0343036	-0.0815156	-0.0250189
-0.153378	-0.244483	-0.13921	-0.114989	0.0961001	-0.0395084	-0.0570716	-0.0727802	0.186053	0.161898	0.189522	0.0545409	0.157709	0.00166963	0.00197071	0.128769	0.0361092	-0.19721	-0.204153	-0.00687622	0.234655	-0.119689	0.045519	-0.12262	-0.131007	-0.0913335	0.133586	-0.163903	-0.0661076	0.119876	0.0818337	-0.104481
-0.102777	0.163052	0.0544366	0.129092	-0.115411	0.0758957	-0.108798	0.00829759	0.0484674	-0.0132204	-0.0817163	-0.0648323	0.120809	0.093513	-0.104317	0.097153	-0.118565	0.0177442	0.0167323	0.0386074	-0.135286	-0.0705893	0.0857754	0.115931	-0.119934	-0.104276	0.000609628	0.0794821	-0.0958532	0.118451	-0.0323017	-0.0512361
-0.132607	0.0343379	0.00535812	0.188743	-0.205394	0.105726	-0.0386879	0.0328361	0.112922	0.0352397	-0.0436964	-0.0294455	0.168587	0.134145	-0.101006	0.0664981	-0.107127	0.012274	0.0413683	0.113871	-0.13335	-0.120206	0.103895	0.031816	0.00414991	-0.160514	-0.035814	0.0732768	-0.0834971	0.0887721	-0.020421	-0.0346323
0.0644757	-0.141103	0.0410643	-0.126308	0.0163407	-0.0239404	-0.022206	0.0843042	-0.0703165	0.00437198	0.0505609	0.0198682	-0.0158841	-0.0362559	-0.0252367	-0.0154609	0.0774596	-0.0220496	0.0435606	0.0404739	0.107548	-0.0210646	-0.133048	-0.122679	0.0308144	0.0495783	-0.0673428	-0.0629865	0.0358688	-0.00313535	0.0626328	0.0986151
-0.0927242	-0.0852655	-0.117181	-0.0600275	0.079755	0.120015	-0.10769	0.0316273	0.147284	0.0932419	0.0843947	-0.00343059	0.140271	-0.0133285	-0.169489	0.0439715	-0.121201	-0.13739	-0.220763	0.0723798	-0.00268212	-0.139749	-0.038976	-0.069563	-0.128708	-0.0567634	0.0698128	-0.15084	-0.15181	0.0139011	0.14875	-0.0491138
0.144905	-0.0208546	0.0286236	-0.0407292	0.0128594	-0.0102057	0.12475	0.116081	-0.0944951	-0.0576779	-0.0589039	-0.0600405	-0.0296524	-0.079147	0.128497	-0.0611169	0.106214	0.0241248	0.110103	-0.0154621	0.0844834	0.114339	-0.0313426	0.155141	0.0855293	0.109688	-0.154058	0.0894238	0.13968	-0.076771	-0.154149	0.0874223
0.0148061	-0.121255	-0.117551	-0.0783307	-0.0380132	-0.0704915	0.00881337	0.00642384	0.127716	0.124002	0.0955796	-0.00126258	0.0884473	-0.0913412	-0.0111536	0.0507036	0.0704648	-0.148255	-0.16068	-0.0173762	0.113847	-0.0780088	-0.102095	-0.0997596	-0.0594411	-0.0284877	0.0924434	-0.0943711	0.0046977	0.078081	0.106161	-0.0229006
0.144468	-0.0602003	0.119246	-0.0392441	0.0279649	-0.11789	0.163793	0.118797	-0.0822672	-0.0062763	-0.0500458	0.0741978	-0.136975	-0.0408505	0.135633	-0.0288503	0.145386	0.148457	0.13781	0.0424374	-0.0272002	0.10014	-0.139251	0.127424	0.112564	0.185924	-0.105989	0.0618789	0.0878286	-0.151435	-0.129199	0.0569642
-0.21423	-0.163589	-0.177316	-0.148368	0.239352	-0.00113426	-0.112701	-0.0658789	0.202512	0.0532406	0.12315	0.0836032	0.0956365	0.0369051	0.0103465	0.1057	-0.0904845	-0.250326	-0.243196	0.0804352	0.138512	-0.157167	-0.228876	-0.14614	-0.168738	-0.158121	0.232229	-0.228741	-0.182022	0.0914317	0.191779	-0.201099
0.0221867	0.136802	0.110416	0.0996495	-0.0558341	-0.101029	0.0631558	0.133106	-0.0760909	-0.0177039	-0.0570398	0.0706482	-0.0907023	-0.0595678	0.0320765	-0.139585	0.0158222	0.0210075	0.0583336	-0.086002	-0.0406212	0.00437275	-0.110612	0.0165998	0.0352669	0.0999607	-0.0388625	0.0581794	0.0659509	-0.146174	-0.0711261	0.0158003
-0.231637	0.105101	0.00696028	0.0884251	-0.122356	0.0973581	-0.148241	0.073811	0.200087	0.0703211	0.0798503	-0.0270208	0.184114	0.138233	-0.150892	0.163839	-0.185356	-0.133807	-0.0894195	0.180708	-0.166338	-0.231122	0.0623515	0.0840094	-0.235143	-0.193144	0.126997	-0.00770087	-0.107476	0.169607	-0.0342223	-0.147456
0.179987	-0.0135308	0.113525	-0.0454835	-0.119767	-0.0578122	0.104892	0.121813	-0.225095	-0.12427	-0.227915	0.00280293	-0.115559	-0.166324	0.102529	-0.193387	0.123439	0.094792	0.17104	-0.097097	0.0421698	0.172277	-0.0985244	0.148331	0.129706	0.156713	-0.271104	0.232145	0.279013	0.0622682	-0.0780103	0.108737
-0.0943441	0.0425059	0.00630534	0.0252051	-0.113944	0.0379257	-0.0726493	0.0543752	0.0305028	-0.0409183	-0.00418253	-0.0309051	0.0359293	-0.0139689	-0.160496	0.140084	0.0466489	-0.00792119	-0.0351055	0.0503583	-0.0360723	-0.113574	0.079915	-0.0908842	-0.0586522	-0.107326	-0.112634	-0.0284846	0.0111829	0.128586	-0.0437103	0.138703
-0.0505	0.196646	-0.00349519	0.210335	-0.0761518	0.0351572	-0.0128762	0.0283394	0.0317993	-0.0564532	0.0288795	-0.0933942	0.0453082	0.02076	-0.0246697	-0.0492025	-0.10623	-0.0292178	-0.0142346	-0.0351836	-0.153725	0.00146667	0.0659258	0.0867258	-0.0830959	-0.046428	-0.0268049	0.0583094	0.0491572	-0.116226	0.000742123	-0.0497489
-0.136257	0.0610276	-0.13878	-0.00861636	0.0720751	0.214195	-0.119239	-0.117774	0.0624072	0.112234	0.12448	-0.209721	0.156145	0.127803	-0.191658	0.0407071	-0.103544	-0.166065	-0.151451	0.05243	-0.10125	-0.105208	0.173998	-0.0686935	-0.180261	-0.135598	0.149087	-0.0965862	-0.0733464	0.0400394	0.0506488	-0.154264
-0.0811418	-0.00264335	0.0421746	0.0311818	0.0668823	0.020005	-0.00702457	-0.0315768	-0.0100141	0.0232471	0.0176261	-0.0300707	0.052241	0.0916216	0.0855172	0.00933002	-0.0108321	0.00862656	-0.0573663	0.0132493	-0.13002	0.0351267	0.0516287	-0.0201501	-0.0555781	0.0224536	-0.0168564	-0.0283105	0.0765502	-0.0507713	-0.0584342	-0.0333935
0.056488	-0.175188	-0.00987126	-0.211077	0.199831	-0.136791	0.000960429	0.0422783	0.0903233	0.153954	0.0541192	0.14448	0.0700071	-0.217417	-0.0297541	0.112338	0.14055	-0.160022	-0.012551	0.159853	0.178211	-0.0183006	-0.216987	-0.147217	0.0156343	0.0868963	0.0962781	-0.0616194	-0.132083	0.191687	0.0780259	0.0159188
0.17445	-0.172855	0.0209325	-0.0854204	-0.135211	-0.133467	0.15764	0.107644	-0.108538	-0.0189344	-0.185175	0.20086	-0.158568	-0.149365	0.0655716	-0.0397773	0.12396	0.124567	0.192687	-0.058388	0.131451	0.119365	-0.125094	0.16225	0.16044	0.0930945	-0.160246	0.112302	0.16582	-0.0559529	-0.0569998	0.189295
0.153936	-0.0941709	0.105832	-0.0161054	-0.148553	-0.194885	0.0912053	0.119082	-0.0857443	-0.0977329	-0.145952	0.137755	-0.0785667	-0.195066	0.0463015	-0.0152302	0.136767	0.108685	0.18659	-0.0499713	0.167289	0.107338	-0.183873	0.0559393	0.186901	0.0295453	-0.177336	0.106514	0.108472	-0.00719928	-0.187925	0.118409
0.117339	-0.13072	0.160596	0.0162375	0.0217691	-0.0868038	0.102519	0.144705	-0.0690638	-0.0660655	-0.0690696	0.064788	-0.0663218	0.0327107	0.0591294	-0.111256	0.0453188	0.134244	0.128792	0.0484624	-0.0491422	0.0610617	-0.0817748	-0.0135965	0.142899	0.134859	-0.151147	0.0575037	0.131751	-0.0533449	-0.00814214	0.149297
-0.158667	0.113348	-0.0567807	0.134601	-0.141706	0.104309	-0.116885	-0.0149291	0.197959	0.0606897	0.0469449	-0.188774	0.178167	0.214043	-0.101303	0.174285	-0.143441	-0.112948	-0.177237	0.124938	-0.173097	-0.120206	0.148983	0.0260069	-0.109853	-0.19594	0.131839	-0.0356301	-0.0899726	0.156543	0.0237328	-0.193895
-0.13769	0.140912	-0.0185392	0.118925	-0.146705	0.15911	-0.0881156	-0.110242	0.167537	0.0643468	0.096058	-0.145753	0.107645	0.0441283	-0.0984235	0.191666	-0.11989	-0.126014	-0.131662	0.178209	-0.12194	-0.136905	0.0956488	-0.068692	-0.121688	-0.113246	0.0875118	-0.05424	-0.123868	0.115427	-0.056125	-0.149307
0.135505	-0.135524	0.00683581	-0.263803	0.0985696	-0.193978	0.0776088	0.207757	-0.0567699	0.0311233	-0.0445552	0.0560951	-0.0505108	-0.00285971	0.0672902	0.0150385	0.202356	0.0815265	0.0722046	0.065876	0.208051	-0.0191032	-0.160018	-0.00574562	0.0459762	0.0702434	-0.0817276	0.0391154	-0.108062	0.0377797	0.000946869	0.14629
-0.211977	0.168526	-0.103939	0.117875	-0.135135	0.10572	-0.106545	0.0448902	0.069655	0.0630022	0.0633991	-0.0189475	0.168515	0.113429	-0.197312	0.155137	-0.12741	0.0277251	-0.160434	0.0224093	-0.157948	-0.168355	0.124349	-0.0448163	-0.2096	-0.138457	-0.0253276	-0.0908143	-0.187708	0.166531	0.00210021	-0.0341959
0.0313278	0.186667	0.175582	0.11996	-0.218092	0.0353756	0.0393826	0.083894	-0.111654	-0.163956	-0.142213	0.0426963	-0.066412	-0.058699	-0.0331392	-0.0871124	-0.0389991	0.084925	0.0677889	-0.082476	-0.154453	0.0319292	0.0623183	0.0346662	0.0145599	0.0212992	-0.162244	0.115386	0.177632	-0.0195784	-0.20141	0.0842807
0.00014645	0.0348055	-0.0166761	0.0388612	-0.0262387	0.0753586	-0.0326309	0.0195256	0.0208033	-0.00334957	0.0181709	-0.0873904	-0.0074138	0.0598319	0.0156643	0.0325207	-0.011256	-0.0275336	-0.0111014	0.0620948	-0.111029	-0.0266601	0.095029	-0.0113071	-0.0821711	-0.0640215	0.0444679	0.0329303	-0.0561459	-0.035252	-0.000376001	-0.00783265
-0.0466787	0.126165	0.0925556	0.0884661	-0.164636	0.0643791	-0.0517441	0.0199092	0.00911664	-0.0136721	-0.0927521	-0.00058922	-0.0261773	0.0427813	-0.0254028	-0.0083079	-0.0276196	0.0619307	0.0270084	-0.000929413	-0.157567	-0.0261134	0.0291689	0.089343	-0.0263207	-0.0496253	-0.0690777	0.0214956	-0.0157074	-0.0730591	-0.0720625	-0.0149203
0.206811	-0.109258	0.105894	-0.085189	0.0717416	-0.143984	0.138305	0.052026	-0.134707	-0.113101	-0.164454	0.0794434	-0.171885	-0.0321569	0.151678	-0.165262	0.208322	0.168228	0.114558	-0.00820404	0.0166212	0.149322	-0.126654	0.126368	0.126349	0.131916	-0.147681	0.0749963	0.133954	-0.0629428	-0.0767556	0.127096
-0.0566042	0.0982043	0.0460189	0.0643469	-0.0643041	0.0123498	0.0832932	0.054194	-0.0690066	0.00694552	-0.096369	0.00599083	-0.0600898	0.105967	0.0296513	-0.0189734	-0.0597936	0.100676	0.0184184	0.0297478	-0.0576494	0.0151646	0.0604479	0.138693	0.0386929	-0.000928568	0.00804321	0.103211	-0.0412056	0.0026123	-0.0457561	0.0296089
0.0937314	0.0515927	0.00370132	0.0800189	0.0513507	0.110554	0.0845507	-0.028627	0.0186295	0.0119873	0.0322992	-0.0726579	-0.0748155	-0.13851	-0.0401948	-0.0355124	-0.0424459	0.0207618	0.0279267	-0.061595	0.0132773	0.0321793	-0.0432576	0.128783	0.0702275	0.09563	0.0369074	0.0597833	0.0302976	-0.0121573	0.0523819	0.0958361
0.00976869	0.0710849	0.0886371	0.0179713	-0.0867354	-0.0390925	0.0926715	-0.0558908	-0.0407068	-0.0972065	-0.0398719	-0.0167278	-0.0888078	-0.054619	0.0276783	-0.0598957	0.0156237	0.0941779	0.037562	-0.113287	-0.0154973	0.051507	-0.0419378	0.0900267	0.0342098	0.0664913	-0.101623	0.0657402	0.0365133	-0.0224834	-0.0342576	0.0554952
0.182532	-0.00700947	0.141918	-0.0894224	0.110996	-0.0735793	0.0697548	0.0148101	-0.093824	-0.00536405	-0.163067	0.022308	-0.036282	-0.116516	0.128194	-0.153635	0.0966853	0.0905356	0.120544	0.0720674	-0.0711395	0.0342953	-0.149312	0.0412501	0.144765	0.198287	-0.149498	0.0733184	0.0890766	-0.106598	-0.121169	0.153032
0.0253342	0.0593548	0.0541636	0.029469	-0.035286	-0.128237	-0.0720794	0.0349578	0.00372314	0.0680219	0.0388458	0.0098571	0.0292475	0.0515189	-0.0120761	0.13802	-0.0299157	0.0150398	0.0518942	0.0666312	-0.152547	0.0540891	-0.0316268	-0.0714222	0.0260942	0.0200671	-0.0383026	0.0344158	0.0789067	0.0207555	-0.0913198	-0.0222993
-0.108082	-0.021482	0.0676828	0.039374	0.110579	0.026926	-0.0212195	0.00316761	0.0950733	0.170934	0.0973911	0.00378655	0.106161	0.0965523	0.0229651	0.0942251	-0.154018	-0.0713083	-0.103027	0.150245	-0.0484014	-0.108747	0.0617664	0.00493823	-0.148162	-0.127452	0.182812	-0.142176	-0.0587478	-0.0881948	0.0686896	-0.119498
-0.0463655	0.0570968	-0.0847247	0.0646071	-0.0208792	0.119413	-0.0638369	-0.0113016	0.0813532	0.0385016	-0.012065	0.00924501	0.0900468	0.0236232	-0.0861869	0.0389059	-0.0412862	-0.0442885	-0.102555	-0.0461724	-0.00239699	-0.0937967	0.102422	-0.04412	-0.0560214	-0.0757956	0.0906036	0.0346361	-0.167966	0.0857084	0.0512542	-0.000351946
-0.109161	-0.167644	-0.169967	-0.213947	0.209405	-0.161549	0.0152542	-0.07688	0.173094	0.205795	0.174316	0.198373	0.140961	0.146651	-0.0561046	0.0793878	-0.102724	-0.188426	-0.176276	0.146527	0.208168	-0.129337	-0.0357771	-0.222972	-0.111976	-0.0966179	0.223952	-0.209873	-0.202706	0.00260566	0.0904898	-0.122211
-0.0664357	-0.186889	-0.102925	-0.192916	0.125042	-0.108319	-0.0433989	-0.0518253	0.0671052	0.0890565	0.0617538	0.0204336	0.0918672	-0.17699	-0.100355	0.0917163	0.170485	-0.091983	-0.0337149	0.092617	0.10636	-0.087721	-0.187013	-0.149265	-0.0255376	-0.00659433	0.11845	-0.0597493	-0.0978561	0.136408	0.0831661	0.03188
0.14533	-0.0105596	0.088105	-0.0227181	-0.0227745	-0.196262	0.19955	0.146867	-0.132403	-0.0332238	-0.0343956	0.0832455	-0.207304	-0.0262105	0.176793	-0.0914866	0.0715239	0.154523	0.179619	0.00629292	0.0458986	0.180163	-0.163798	-0.0236606	0.149773	0.163214	-0.205284	0.111469	0.135536	-0.0874927	-0.0816492	0.0360644
0.0874464	0.0642989	0.0103243	0.128439	0.0590447	0.0783005	-0.0416488	-0.00847461	-0.106917	-0.0776137	-0.0388327	-0.0273369	-0.117242	0.0050754	0.103069	-0.137139	-0.0118636	0.0109481	0.0700355	-0.0938231	0.0229482	0.113942	-0.0807963	0.191798	0.0885372	0.0168654	-0.0541118	0.116895	0.132396	-0.0132054	-0.000950865	-0.0341966
-0.168881	0.20556	0.0280633	0.206325	-0.183126	0.133761	-0.133956	-0.0432908	0.173601	0.102719	0.0571265	-0.111725	0.182664	0.176012	-0.125854	0.0849425	-0.193458	-0.00786017	-0.0280874	0.221815	-0.207795	-0.160739	0.130526	0.0993523	-0.111498	-0.169867	0.0904342	-0.0227562	-0.107056	0.064461	-0.0148555	-0.196799
-0.0123211	-0.00559039	-0.0401885	0.0465974	0.0809797	0.022943	0.0275326	0.0732447	-0.0339415	0.020637	0.0444615	0.000548525	0.0488334	-0.167997	-0.0647355	-0.0559236	0.126077	-0.0329917	0.000802244	0.0616755	0.033301	0.0167624	-0.113427	-0.042571	-0.0108833	0.0793551	0.0523628	-0.0572819	0.00827598	-0.092504	0.0315622	0.0670987
0.0121884	-0.0917743	0.0629053	0.0285141	0.115795	-0.0646534	0.0772709	0.108593	-0.0775084	-0.108904	-0.100475	0.0599502	-0.135049	-0.104744	0.0342537	-0.0388139	0.133591	0.111343	0.110877	0.0652619	0.0169241	0.0488595	-0.0607092	0.0230829	0.0792796	0.0469811	-0.0702596	0.05766	0.101238	-0.0461401	-0.0186924	0.11742
0.0204835	0.0498843	0.0134639	-0.0539275	0.0589707	-0.0795053	0.0412107	0.118862	-0.0296348	-0.0236665	-0.0745017	0.0410934	0.0578553	0.134986	-0.0105343	-0.0359165	-0.0943043	0.0579185	-0.00215488	0.0486092	-0.0610924	0.00225335	0.0736191	0.0276019	0.00384304	0.0320062	-0.0589311	0.065718	-0.0420278	-0.0876129	0.0332488	-0.161263
-0.0693444	-0.159194	-0.163312	-0.229425	0.158124	-0.0184762	-0.104648	-0.136346	0.177995	0.128352	0.264588	0.0610399	0.221845	-0.0223135	0.0308507	0.208184	0.014893	-0.150163	-0.164888	0.0246515	0.159812	-0.14	-0.144226	-0.184813	-0.145238	-0.132358	0.224054	-0.165739	-0.300393	0.126529	0.155672	-0.122058
-0.09063	-0.149813	0.0636573	-0.122715	0.104131	-0.0361503	-0.0889981	0.0352308	0.04101	0.109608	0.0946547	0.0168128	0.0765283	-0.0322675	0.0346889	0.0252887	-0.0063747	0.0387847	-0.117812	0.0328853	0.0171304	-4.17932e-05	-0.098864	-0.0719835	-0.103261	-0.053999	0.0346384	-0.110368	0.0517593	-0.10461	0.0664418	-0.0278674
0.0933236	-0.000745303	0.00639213	0.0117568	-0.0719008	-0.064204	0.0575368	0.0807439	-0.114085	-0.119933	-0.0807588	0.0613566	-0.117478	-0.128884	0.0102326	-0.0187389	0.115332	0.094845	0.0430116	-0.0353539	0.10315	0.109373	-0.0474875	0.0704128	0.133438	0.0560406	-0.13169	0.0754595	0.102371	8.58659e-05	-0.052883	0.0741765
0.0682306	0.0580184	0.0898091	0.106373	-0.0510104	-0.0207926	0.149002	0.0549151	-0.0600046	-0.00737707	-0.0594894	0.0904707	-0.0780953	0.0115763	0.0629884	-0.0663867	0.0347411	0.0330467	0.0599772	-0.00257124	-0.097838	0.00546759	-0.0275252	0.0817654	0.049171	0.0628963	-0.0528006	0.0831275	0.0132663	-0.135121	-0.0482047	0.0601295
-0.154097	-0.11217	-0.229587	-0.0835997	0.161927	0.0749934	-0.167146	-0.0375737	0.159249	0.166626	0.26211	-0.0460788	0.176144	0.0435163	-0.128715	0.092246	-0.102923	-0.251331	-0.255553	0.150161	0.0493293	-0.17223	0.0294008	-0.145158	-0.214624	-0.162992	0.207442	-0.209916	-0.190689	-0.0290123	0.184824	-0.187206
0.213432	-0.167163	0.166198	-0.157507	0.0353907	-0.188215	0.127167	0.190105	-0.179999	-0.0388228	-0.123613	0.172823	-0.17262	-0.114916	0.0995257	-0.100986	0.22919	0.170201	0.176387	0.0231201	0.0605088	0.207353	-0.174766	0.133666	0.151605	0.119753	-0.155852	0.179703	0.147023	-0.0221137	-0.139282	0.111527
-0.00839341	-0.151707	-0.0215313	-0.093888	-0.061611	-0.0899697	0.0139717	0.0890398	0.0156869	0.119019	0.0580496	0.101591	0.0920568	-0.0861727	-0.0553205	0.0703118	0.0714163	-0.00316587	-0.0626343	-0.0119225	0.0896771	-0.0273067	-0.0531097	-0.116186	-0.0373066	-0.029662	0.10149	-0.0876671	-0.0547819	0.0934418	-0.0183689	-0.0429454
0.00802274	-0.025276	0.0284222	-0.00505073	-0.0775169	-0.0042759	0.0035607	0.0686616	-0.0134243	-0.0120402	-0.00651653	0.0723964	-0.0424725	0.00536568	0.0652088	-0.0591583	0.0550563	-0.0159034	0.0701762	-0.0403594	0.068003	-0.0044152	-0.0649254	0.0639993	0.0024689	0.0568595	-0.0115678	-0.0165541	0.0610817	-0.05657	-0.0238929	0.0679239
0.0838331	0.0018849	-0.0973156	-0.00174943	0.0833173	0.100091	0.0266106	-0.115785	-0.0411859	-0.104459	-0.0793596	-0.0965218	-0.0882735	-0.0679442	0.110508	-0.217866	-0.0629129	-0.0193191	-0.0224653	-0.215183	0.153252	0.108817	0.0116626	0.130343	0.0544482	0.0808268	0.0253874	-0.0241363	0.0761905	0.000249017	0.182318	0.0662495
-0.0240377	-0.0866831	-0.0177072	-0.0432656	0.0778006	0.0993754	-0.0332217	-0.0188248	0.0321698	0.0337836	0.0533489	-0.0345921	0.0597737	0.0901221	-0.0613163	0.0414993	-0.0664342	-0.0237048	-0.0369212	0.0219344	0.0663771	-0.0714946	0.0317437	-0.100921	-0.0869851	-0.0262056	0.0683472	-0.0229196	-0.00321396	0.0738949	0.0407949	-0.0656483
0.122101	-0.0506492	0.00901151	-0.0845737	-0.0321241	-0.119381	0.0689203	-0.0141166	-0.104844	-0.053644	-0.067136	0.0569151	-0.0810262	-0.0527085	0.0467708	-0.00927788	0.140861	0.0937767	0.0602003	-0.107029	0.123566	0.112681	-0.103102	-0.0791953	0.137388	0.107884	-0.0474035	0.0374694	0.0550416	0.0318277	-0.024243	0.0836776
0.130332	-0.212183	0.112228	-0.145886	0.166917	-0.0974577	0.170003	0.201745	-0.140036	-0.180513	-0.152768	0.105504	-0.111782	-0.147755	0.0522115	-0.135918	0.114866	0.176147	0.0547133	0.133447	0.00797928	0.201148	-0.0871959	0.155469	0.113275	0.123933	-0.152386	-0.00282175	0.0794782	-0.0667685	-0.0973999	0.176257
-0.0443598	0.0963411	0.0710734	0.144199	-0.0950646	0.120027	-0.00454337	0.0322395	0.0400537	-0.0392823	-0.00745598	-0.0579569	0.0724998	0.12227	-0.0759426	0.0629835	-0.133123	0.000631117	-0.0551688	0.0451684	-0.101182	-0.0533547	0.102093	0.0351802	-0.0617745	-0.100722	-0.040519	0.0765616	-0.0112278	0.0432982	-0.0970719	-0.090062
0.181163	-0.124604	0.0881878	-0.143019	0.0712841	-0.221068	0.141086	0.107422	-0.155026	0.00607385	-0.060697	0.117656	-0.190921	-0.0686312	0.0634942	-0.0601618	0.156955	0.083186	0.0944937	0.0815913	0.121387	0.0708131	-0.0906545	-0.0258555	0.164846	0.178742	-0.0915437	-0.0265488	0.0530175	-0.0336576	-0.0755016	0.107745
0.100383	0.00431821	0.0282619	-0.00633954	-0.14388	-0.114726	-0.0229338	0.103691	-0.089711	-0.0158214	-0.0716391	0.0444929	-0.0385325	-0.0678869	-0.00259229	0.01309	0.071913	0.0851255	0.136813	-0.01793	0.0720363	0.0729879	-0.104143	0.147032	0.101379	-0.0112672	-0.103948	0.0279929	0.0389909	0.00441298	-0.0700854	0.0638175
0.008758	0.106203	-0.0179638	0.119909	-0.00460596	0.186096	0.00639316	-0.155017	-0.00499633	-0.00643339	0.0214218	-0.112345	0.0882058	0.00501637	0.0871877	-0.0199848	-0.156973	-0.00289345	-0.0547763	-0.055958	-0.0979977	0.0835885	0.14244	0.140856	-0.0572986	-0.11508	0.0831854	0.0347517	0.0460181	2.26697e-05	0.0598128	-0.0562341
-0.143182	0.0557001	0.125538	0.0114993	-0.0658284	0.00139682	-0.0915065	0.00481367	0.077393	0.0138025	-0.0181958	0.0427502	0.0712208	-0.0182706	-0.130284	0.103107	-0.0433865	-0.0815443	-0.0680904	0.0341777	-0.120904	-0.187882	0.0708528	-0.16062	-0.128912	-0.130453	-0.0929807	-0.0964772	-0.0213339	0.0925149	0.0155856	0.103671
-0.0943291	0.0990877	0.0639204	0.155566	-0.0488227	0.176189	-0.14891	-0.0405491	0.117576	0.139087	0.0856737	-0.0625669	0.170466	0.133108	-0.0574716	-0.000568493	-0.100247	-0.0415199	-0.149879	0.185437	-0.176236	-0.0759551	0.17124	-0.0388552	-0.172225	-0.133639	0.0553839	-0.105783	-0.100045	-0.100905	0.00308446	-0.123277
0.202231	0.0678597	-0.0589113	0.00733608	0.0568596	0.150477	0.00647148	-0.191838	0.0172288	0.0790495	0.128851	-0.0968528	0.0504207	-0.0559109	0.148215	-0.0848402	-0.0353803	-0.0861464	0.0332494	-0.143276	0.15328	0.056995	-0.115221	-0.0529796	-0.0193539	0.0148393	0.0334746	0.0406324	-0.0142869	-0.0633591	0.0801242	-0.0181167
0.185326	-0.0539012	0.211833	-0.0321792	-0.0611304	-0.172241	0.241537	0.23504	-0.103204	-0.0671985	-0.192596	0.158449	-0.21908	-0.00554888	0.153043	-0.117367	0.202747	0.220455	0.190094	0.0746371	0.061855	0.132937	-0.105795	0.176252	0.141085	0.218403	-0.139366	0.221834	0.0843108	-0.139619	-0.187458	0.173489
-0.0512314	-0.0103784	-0.0413285	-0.0454601	0.104119	0.0713479	-0.0913722	-0.0432322	0.0927183	0.0733805	0.0602941	-0.0870359	0.0906343	0.10291	-0.102882	0.0933203	-0.12258	-0.0715538	-0.0404177	0.0763623	-0.095921	-0.0306013	0.0853117	-0.0852104	-0.033311	-0.0456356	0.0544658	-0.0403295	-0.0676212	0.0358187	0.0368072	-0.10293
-0.0843464	0.175404	0.0355537	0.140836	-0.0806755	0.142539	-0.0338974	-0.0786614	0.0610717	0.0273654	0.0833719	-0.0991254	0.107481	0.100506	-0.0805208	0.0333754	-0.0677235	-0.116647	-0.0631135	0.0310599	-0.181488	-0.0244784	0.204187	0.0299446	-0.138785	-0.105951	0.0337915	-0.0594071	-0.0281714	0.045935	-0.0138295	-0.113026
0.101468	-0.152785	0.170938	-0.164462	-0.0684794	-0.143709	0.138204	0.128977	-0.0855222	-0.085664	-0.135468	0.12876	-0.14938	-0.111026	0.169864	-0.0140589	0.134021	0.0833739	0.130467	-0.01661	0.206493	0.0682908	-0.214102	0.138547	0.137309	0.0719583	-0.156032	0.1532	0.0450753	-0.0227669	-0.042367	0.186963
0.114616	-0.0638489	0.093066	-0.0698597	-0.138859	-0.183765	0.116772	0.00537469	-0.165918	-0.147788	-0.111242	0.132755	-0.124379	-0.151868	0.00550196	-0.00792274	0.181324	0.0915493	0.166851	-0.0978081	0.154073	0.0865078	-0.169745	0.0801489	0.120897	0.118409	-0.0866062	0.125419	0.16749	0.0118746	-0.0398215	0.154546
0.0408639	-0.0211227	0.110726	0.0049908	0.0909783	-0.0978305	-0.158741	0.0355874	-0.0776232	-0.0278186	-0.0492016	0.0924164	-0.0387405	0.0318517	0.00247808	-0.0653966	-0.0149659	-0.0155471	0.0262684	0.0578214	-0.036985	-0.00997876	-0.00579201	-0.0173317	-0.0394717	0.0434745	-0.0342685	-0.0811976	-0.139898	-0.0558635	-0.054274	-0.137554
0.0946189	0.20681	-0.0920932	0.191142	0.104876	0.20228	-0.0133696	-0.176704	-0.0796509	-0.0952344	-0.116457	-0.135438	-0.0594087	0.127444	0.185563	-0.169821	0.0574611	0.100461	0.0989778	-0.175889	0.0946101	0.17292	-0.0439288	0.112431	0.0972788	-0.0509537	-0.055823	0.120099	0.174406	-0.038646	0.0806621	0.0203626
0.138655	-0.10971	-0.0350591	-0.035482	-0.0514194	-0.19086	0.109039	-0.0534462	-0.0977601	-0.117781	-0.145817	0.0995649	-0.197221	-0.0852492	0.177208	-0.113247	0.195465	0.0616055	0.107442	-0.0626871	0.190387	0.11796	-0.147159	0.104848	0.145712	0.109493	-0.0799472	0.00498606	0.0553376	0.0374858	0.0385375	0.207728
-0.0796894	-0.0932473	-0.0824117	-0.0343575	0.0703468	-0.0448632	-0.0761231	-0.0310585	0.020789	0.128142	0.124025	-0.0777091	0.0210765	0.0536869	-0.0159882	0.104064	-0.10045	-0.0905423	-0.0351122	0.107241	-0.0112249	-0.101223	0.0650337	-0.0782011	-0.103902	-0.0355573	0.144812	-0.0856816	-0.0911244	0.0552787	0.0412638	-0.111997
0.109185	0.0517105	-0.185642	0.0573506	0.106487	0.126478	0.00620113	-0.125256	-0.101643	-0.0836076	0.0685443	-0.156293	-0.00419062	-0.0655332	0.0999344	-0.0723748	0.034607	-0.0882252	-0.0662919	-0.158094	0.151327	0.0302466	-0.15356	-0.101426	0.0170826	0.0901594	0.0957976	-0.102604	-0.0400057	-0.0589302	0.195647	-0.0632882
0.089566	0.183209	-0.0946643	0.114768	0.0172495	0.17281	-0.147188	-0.171538	-0.012767	-0.128332	0.0417868	-0.137261	0.0210433	0.070605	0.150412	-0.0823194	0.0135452	-0.127529	-0.0177877	-0.132904	0.167191	-0.0523666	0.0947091	-0.0452594	-0.0378062	-0.137973	0.135365	-0.0146842	0.0364242	0.17036	0.170591	-0.0797683
-0.00766829	0.0856214	-0.0414373	0.0867026	0.121372	0.0997039	0.0391785	-0.131084	-0.166041	-0.0493427	-0.0582238	-0.110119	-0.120428	-0.0120561	0.163245	-0.103104	-0.0867775	0.0137873	-0.0562132	-0.106928	0.0132737	0.0489813	0.0629749	0.0231557	-0.0632474	-0.0316858	0.00662328	-0.030626	0.105562	-0.0893412	0.0796489	0.0414844
-0.142463	-0.120191	-0.146044	-0.0603568	0.114141	0.0159827	-0.158443	-0.0658987	0.1318	0.199733	0.19491	-0.0562262	0.0943716	0.0111909	-0.104151	0.169767	-0.0892362	-0.128438	-0.20044	0.180132	-0.0188972	-0.183225	0.00505481	-0.185566	-0.117687	-0.0498312	0.139569	-0.192192	-0.116936	0.0280739	0.203605	-0.114216
0.0913817	0.00973602	0.000528322	0.0211467	0.0833483	-0.0449539	0.114694	0.141901	-0.131521	-0.117726	-0.0548249	0.0133382	-0.0925538	-0.119333	0.182947	-0.205262	0.0607435	0.000928426	0.0837475	-0.137298	0.0677966	0.0308549	-0.0949726	0.0621082	0.055304	0.185814	-0.0289813	0.0407036	0.126781	-0.131908	-0.124	0.0442334
0.0861449	0.0586277	0.0519429	0.0492632	0.177975	-0.0628754	0.165544	0.0355983	-0.147857	-0.189034	-0.117986	0.100298	-0.183089	-0.154269	0.124613	-0.211056	0.0143082	0.06407	0.10624	-0.151506	0.016027	0.135145	-0.0970614	0.0412747	0.0775814	0.150263	-0.0860122	0.0996449	0.0537952	-0.031779	-0.0148803	0.0266929
-0.0703592	-0.066979	0.0381556	-0.0231975	0.105775	0.0980551	-0.0876204	-0.0455832	0.142009	0.0587361	0.0932168	-0.0569096	0.100064	0.120718	-0.0376304	0.0187437	-0.0707503	-0.0458865	-0.134614	0.0914127	-0.146116	-0.0543749	-0.0277384	-0.127924	-0.12004	-0.0217528	0.0537312	-0.142798	-0.0298558	-0.129475	0.0167299	-0.00790171
-0.119388	-0.0708967	0.00897478	-0.0443242	0.13794	-0.0271577	-0.121969	0.0192869	0.0267216	0.107276	0.121633	0.0119004	0.157019	0.0251577	-0.0162844	0.077365	-0.0237779	-0.0997041	-0.171686	0.11697	0.088682	-0.00475089	-0.0411722	-0.159584	-0.163912	-0.0985876	0.0831039	-0.125164	-0.00567025	0.0263491	0.159817	0.0432855
-0.0547395	0.195879	0.0131772	0.127546	-0.0814872	0.116372	0.0589321	0.0439339	0.085119	0.0708791	0.0046723	-0.0421202	-0.00216715	0.089774	0.0216686	0.0518052	-0.0631921	-0.0636785	0.0331965	0.0384655	-0.118351	-0.0147729	0.0832278	0.0860868	-0.0351217	-0.0394874	0.0901948	0.00463707	0.0138817	-0.0422853	0.0257527	-0.127337
0.0507131	0.208132	-0.0994549	0.145558	0.10194	0.168045	0.00521985	-0.115828	-0.00745826	-0.0560911	0.0795606	-0.115328	-0.0963327	-0.0132027	0.0555618	-0.158501	-0.137731	-0.11196	-0.0922312	-0.204295	-0.00205691	0.0577496	0.0353215	0.0621744	-0.133745	-0.0198037	0.10022	-0.0175177	-0.0079785	-0.0621994	0.160313	-0.0114391
0.105935	-0.00831659	0.00728131	-0.0878582	-0.104528	-0.0604132	-0.0370434	0.0155225	-0.0659365	-0.0592982	-0.0237024	0.129305	-0.102693	-0.0369962	-0.0326727	0.0293612	0.0501586	0.0290843	0.0404097	-0.0032139	0.141197	0.0342881	-0.135772	0.082011	0.031035	0.0533189	-0.104121	0.0233216	0.0340727	0.0960109	-0.0175328	0.0952564
-0.123705	-0.13158	-0.199321	-0.155869	0.134206	-0.0583973	-0.192252	-0.00371498	0.0681335	0.0304667	0.0494891	0.103976	0.0252728	0.0750795	-0.163399	0.0882011	0.0358492	-0.135848	-0.120951	-0.0457909	0.182633	-0.2108	-0.0291865	-0.142527	-0.0855636	-0.183934	0.115706	-0.0705421	-0.135083	0.180997	0.221379	-0.0708876
0.0224791	-0.238134	-0.0748598	-0.161767	0.0675701	-0.0354745	0.0482258	-0.0332414	0.0375619	0.0515922	-0.0112091	0.0565382	-0.0011571	-0.0125976	-0.00952256	0.149931	0.0759251	0.00561605	0.0131157	0.0425986	0.148518	0.0118403	-0.0808343	-0.111479	-0.0235184	0.0592071	-0.0305217	-0.0372581	-0.0408995	0.120458	0.0305254	0.0148835
-0.086389	0.0582361	-0.04683	-0.000247692	0.0439024	0.154858	-0.100039	-0.13648	-0.00385087	-0.019373	-0.00995186	-0.165951	0.0740935	0.164968	-0.0899118	0.0781835	-0.101161	-0.0487113	-0.0631121	-0.0078512	-0.0421384	-0.0201785	0.157819	0.011712	-0.11438	-0.118254	-0.0180165	-0.0409723	-0.052262	0.0719558	0.0112396	-0.0739063
0.0250995	-0.0375335	-0.108379	-0.115965	0.191148	0.0888806	-0.0276689	-0.0927291	0.0970568	0.084837	-0.0188148	0.0219965	-0.0120196	-0.0942307	-0.0243159	-0.0744024	0.0287058	-0.0731555	-0.0505108	-0.0211639	0.086213	0.0117	-0.0438239	0.0718831	0.00730757	0.00111939	0.0809332	-0.127929	-0.0267575	0.103058	0.170956	-0.00908504
0.127322	-0.135664	0.072746	0.0179222	-0.0122483	-0.110547	-0.00297594	0.0923517	-0.0863183	0.0532715	-0.122962	0.138428	0.025482	-0.10922	0.030357	-0.0870277	0.0616808	0.130991	0.132016	0.112156	-0.0665007	0.0836596	-0.0701894	0.0103957	0.0407092	0.00678714	-0.0541329	-0.0176991	0.0565878	-0.00553478	-0.0899193	-0.0129901
0.143371	-0.0166836	0.0988363	-0.0174256	-0.0824556	-0.147042	0.0696785	0.028814	-0.0884045	-0.0930202	-0.0717229	0.139683	-0.107814	-0.128933	0.0884828	0.00641762	0.0786922	0.0188077	0.0813046	-0.0290307	0.123637	0.0867062	-0.0978148	0.0401786	0.106842	0.0379216	-0.133555	0.0192482	0.0688999	-0.0465659	0.0148275	0.153864
0.0962659	0.014034	0.0577063	0.0477009	-0.133515	-0.138206	0.147806	0.0891689	-0.127299	-0.146237	-0.0893276	0.0780567	-0.0932689	-0.0677595	0.0550425	-0.0592996	0.0675325	0.0631317	0.127816	-0.140463	0.0693431	0.134976	-0.119264	0.0269526	0.101976	0.105596	-0.140906	0.083167	0.119279	-0.0607074	-0.0674285	0.0979703
-0.0910225	0.130537	-0.00537653	0.1188	-0.135184	0.0458063	-0.090726	-0.0920041	0.099102	0.062057	-0.0141243	-0.136268	0.153597	0.0351696	-0.0803182	0.0954097	-0.107043	-0.0785673	-0.0460201	0.0684746	-0.165443	-0.0992836	0.134304	0.0429865	-0.114402	-0.0938117	0.0349607	-0.0327591	-0.0548104	0.105624	0.00379665	-0.113857
0.0314797	-0.0994366	-0.0428939	-0.109253	0.00444936	-0.205619	0.0130365	0.112107	-0.0648678	0.0936701	-0.0233546	0.109266	0.0250103	-0.157697	-0.0864037	0.0651458	0.0986509	0.0425863	-0.0405444	0.063938	0.129402	0.00247361	-0.122356	-0.102333	0.0546845	0.0315924	0.00558373	-0.0220464	-0.0452107	0.102804	0.00855525	0.14864
0.0725612	-0.0953056	0.0701684	-0.0711634	0.0046115	-0.0991662	0.121341	0.116256	-0.0551736	0.0132458	-0.0349928	-0.00921223	-0.0668312	-0.0799369	0.048193	0.0906006	0.00659067	0.0641282	0.0397623	-0.0284351	0.116302	0.0402264	-0.1076	-0.0165087	0.0468388	0.0150977	0.0131543	0.00548745	0.0610369	-0.0360603	-0.061984	0.00307015
0.18792	0.0262079	0.0306687	-0.0986286	-0.014295	-0.0272703	0.0720395	0.0280666	-0.103012	-0.221935	-0.190575	0.0481743	-0.157133	-0.0976542	0.16948	-0.204854	0.155117	0.084638	0.11879	-0.107874	0.0849277	0.177249	-0.0705764	0.188279	0.144519	0.152943	-0.164807	0.193135	0.160833	-0.103035	0.0171149	0.16982
0.0655197	0.106032	0.129022	0.136306	-0.140019	-0.0616131	0.0200049	0.111398	-0.00368513	-0.127497	-0.130592	0.066939	-0.0192776	0.043625	0.0919293	-0.10559	0.0179481	0.12433	0.0527998	0.0148987	-0.099228	0.0531104	0.116451	0.125754	0.0769626	0.0458295	-0.0634404	0.0695224	0.0225271	-0.11729	-0.127161	-0.00269373
0.0506398	0.164813	0.0580014	0.196376	-0.0522313	0.212687	-0.0538158	-0.182714	-0.00473646	-0.115293	-0.0807708	-0.148206	-0.0455423	-0.00533079	0.0932895	-0.172114	-0.0799436	0.0283729	0.0447344	-0.124704	-0.0709452	0.00282082	0.10284	0.143397	-0.0265258	-0.0411892	-0.0365261	0.0537393	0.0712255	-0.0588421	0.062721	0.0068219
0.151919	-0.0712828	0.0533549	-0.0434076	-0.086198	-0.152829	0.034859	0.066784	-0.111483	-0.198445	-0.201867	0.161046	-0.148168	-0.175984	0.0240549	-0.143135	0.182132	0.0931997	0.187979	-0.191046	0.157122	0.0905388	-0.192335	0.0940066	0.151605	0.207102	-0.154409	0.0598847	0.123173	-0.0131338	-0.0329814	0.12881
-0.150551	0.0688782	-0.0491269	0.0944743	0.0580663	0.161237	0.0149233	-0.0505863	0.108216	0.0891696	0.0563811	-0.167694	0.110466	0.195141	-0.0394923	-0.0226186	-0.252443	-0.00601949	-0.056463	0.053847	-0.140981	-0.0509346	0.225603	0.0110489	-0.111152	-0.0680143	0.0754948	-0.0592454	-0.0688693	-0.142847	0.0641525	-0.0840281
0.107547	0.0229796	-0.118849	0.0325428	-0.0285615	0.0483584	0.186394	-0.0813188	-0.0770744	-0.0616876	-0.0382875	-0.0668923	-0.126428	-0.0102509	0.213893	-0.0690788	0.136533	0.0108965	-0.0186342	-0.176602	0.115656	0.0149812	-0.0631242	0.0752668	0.135002	0.131171	0.0213586	0.0632783	0.116142	-0.0641871	-0.0380287	0.141224
-0.079615	-0.121019	0.00286895	-0.078265	0.0899703	-0.0945883	-0.14234	-0.0763573	0.0537886	0.0612441	0.0395331	0.0880519	0.0573367	-0.0437497	-0.0711639	0.0656226	-0.0833299	-0.104638	-0.0934464	0.0757894	0.0626088	-0.0787657	-0.0080029	-0.138774	-0.0803507	-0.121216	0.0652607	-0.0854133	-0.133379	0.0560122	0.0887744	-0.0617022
0.134654	0.208226	-0.0432587	0.095234	-0.0400645	0.111956	0.0339802	-0.0680788	-0.0591971	-0.140404	-0.0873113	-0.114223	-0.0936498	-0.05312	0.120915	-0.236379	0.0797682	-0.0173974	0.00813379	-0.176101	0.0319572	0.00844922	-0.00612221	0.252146	0.0406612	0.0601335	-0.10948	0.101051	0.0908039	-0.13242	0.0933842	0.0726118
0.175477	-0.167077	0.159342	-0.0864872	-0.0182908	-0.074147	0.179125	0.139563	-0.11053	-0.0719227	-0.140926	0.107736	-0.0562001	-0.132463	0.10114	-0.15572	0.183382	0.041413	0.137026	0.0235397	0.189847	0.147234	-0.1533	0.0584024	0.216521	0.134302	-0.199773	0.16173	0.0822013	-0.159529	-0.11693	0.0894002
-0.0143878	0.0663025	0.00256297	0.099348	-0.158394	-0.00987804	-0.0481555	0.10226	-0.0300483	-0.156303	-0.209934	-0.0295979	0.0603705	0.0631208	-0.0815409	0.0543922	-0.0685453	0.109293	0.133649	-0.00577175	-0.0579137	0.0950302	0.0684803	0.137369	0.00080453	-0.073748	-0.139884	0.142681	-0.00386758	-0.0158622	-0.145186	-0.00930547
0.163559	-0.0892106	0.114727	-0.0609737	-0.188286	-0.24034	0.109352	0.104878	-0.167638	-0.191294	-0.169908	0.184428	-0.190271	-0.185638	0.0904638	-0.0346958	0.200496	0.137054	0.216435	-0.18754	0.178392	0.173378	-0.183089	0.0630044	0.199007	0.158086	-0.183564	0.110523	0.156262	-0.0406471	-0.146939	0.23864
0.120442	-0.00135203	0.0471849	-0.0728713	-0.0873228	-0.108383	0.111706	0.035369	-0.164222	-0.137108	-0.187501	0.0908479	-0.167695	-0.148048	0.0921685	0.043894	0.168986	0.133781	0.181981	-0.115319	0.0373283	0.166269	-0.127576	0.0568516	0.17804	0.137974	-0.122118	0.101426	0.0823797	-0.00546354	-0.0847281	0.184246
-0.106462	0.137245	0.0566858	0.159639	-0.199885	0.0791054	-0.0116248	0.154676	0.113033	-0.0620712	-0.0586689	-0.091235	0.0682446	0.098057	-0.174692	0.00558568	-0.140431	0.0851309	0.0956064	-0.0626856	-0.132593	0.0382904	0.120069	0.0696744	-0.0777643	-0.169611	-0.112747	0.147068	0.103078	0.0471208	-0.072845	0.0426944
-0.0471089	0.154682	0.157101	0.129136	-0.134863	0.0499095	0.0560819	0.0568536	-0.024033	-0.212014	-0.160053	0.00171009	-0.0326513	0.0950514	0.119503	-0.111368	-0.0920381	0.0576548	0.0669532	-0.144816	-0.161477	0.0910311	0.0643208	0.140018	-0.011589	0.0598183	-0.164172	0.102668	0.0315935	-0.0526823	-0.149282	-0.0723994
0.0392909	-0.107743	0.05711	-0.0805406	0.105142	-0.0657236	0.0899865	0.136911	-0.0653645	0.0103209	-0.096539	0.121405	-0.100856	-0.190125	-0.0495936	-0.00775392	0.0934612	0.131425	0.0124358	0.0302313	0.0213192	0.131999	-0.113199	0.0184229	0.055557	0.04031	-0.128461	0.0880969	0.110891	-0.134454	-0.0320081	0.0562606
-0.0517089	0.136239	-0.121621	0.168552	0.0663338	0.0720885	-0.0501893	-0.0658455	0.0155064	-0.134911	-0.0681571	-0.0253334	-0.0138217	-0.0463267	-0.0972672	-0.0594721	-0.11047	-0.117912	-0.129959	-0.184252	-0.0662398	-0.0696491	0.0775278	0.0300835	-0.0516676	0.00787322	0.0381106	-0.0685296	0.0811133	0.048779	0.0983966	-0.108748
0.0655693	0.00141876	0.079991	0.0561355	0.00740541	-0.04721	0.10545	0.07522	-0.0485245	0.016614	-0.00564299	0.086669	-0.0694367	-0.0390388	0.079221	-0.117883	0.0460562	0.0331845	0.0874327	-0.0567154	0.0528089	0.0962334	-0.109719	-0.0139276	0.10126	0.0249651	-0.00571461	-0.0291665	0.092301	-0.120972	-0.0432071	0.064626
-0.0715128	0.137027	0.0805544	0.124764	-0.182076	0.105013	-0.060917	0.0309563	0.0718725	0.00334996	0.0445765	-0.0809105	0.103718	0.0803198	-0.0853352	0.0353913	-0.0635327	-0.062458	-0.0771201	0.0353399	-0.149287	-0.0396254	0.0759147	0.0899149	-0.0631789	-0.120656	0.0419067	0.0533549	-0.0458249	-0.0483853	0.0161435	-0.0761684
0.212639	-0.0445762	0.204655	-0.0134925	-0.149788	-0.202486	0.160255	0.0815421	-0.164601	-0.0499533	-0.143168	0.121533	-0.139258	-0.189993	0.0952579	0.0189992	0.126348	0.139435	0.180105	-0.0887124	0.176492	0.198296	-0.218729	-0.0451627	0.171013	0.152019	-0.137082	0.103582	0.152503	-0.00627799	-0.0995292	0.149664
-0.0787493	-0.122781	0.020564	0.0102428	0.245147	-0.0213305	-0.0264327	-0.0192865	0.0729821	0.280004	0.0387016	0.0965861	-0.0227236	0.112238	-0.087418	0.136321	-0.162434	-0.00137194	-0.2519	0.177489	-0.031293	-0.0494953	-0.086773	-0.0185153	-0.0523335	-0.0702196	0.0550095	-0.155235	-0.0788841	-0.0781714	-0.0250979	-0.26424
0.174953	-0.158937	0.14561	-0.0480407	-0.251918	-0.198265	0.174011	0.126427	-0.230783	-0.0949105	-0.22563	0.189689	-0.111314	-0.171054	0.026585	-0.126966	0.2442	0.180475	0.200423	-0.215677	0.125748	0.154633	-0.145182	0.0849367	0.146958	0.153483	-0.221593	0.177467	0.194529	-0.0608452	-0.17224	0.172265
0.0235249	-0.104597	0.0770673	-0.152189	0.126781	-0.0618309	0.0589048	0.0258563	-0.0541568	-0.0156242	0.0217919	-0.037565	-0.0383601	0.00675071	0.0366288	-0.0191028	0.0858437	0.0569472	0.0560433	0.0729148	0.0128484	0.0324003	-0.0881821	0.000420304	0.0407218	0.0484528	0.0115827	-0.0361475	-0.0061639	-0.0796853	0.00873521	0.0192366
0.147603	-0.104577	0.0703263	-0.0750437	-0.14857	-0.119822	0.0917134	0.0722213	-0.162723	-0.0703247	-0.193027	0.114902	-0.170936	-0.151144	0.108188	-0.0663158	0.123178	0.13474	0.186853	-0.111006	0.157622	0.133847	-0.208115	0.0674399	0.154306	0.0756104	-0.173455	0.113468	0.163014	-0.0712062	-0.0315004	0.156235
-0.152653	0.128295	0.0174988	0.194507	-0.168586	0.0607675	-0.075902	-0.0164444	0.0526394	-0.13564	-0.116168	-0.107449	0.0836735	0.038401	-0.194982	0.162504	-0.0913806	0.020182	-0.0322671	0.0728843	-0.159222	0.00332828	0.159962	0.117152	-0.120254	-0.098093	-0.169233	0.0879814	-0.0226702	0.178627	-0.0279351	-0.029684
0.0555747	-0.00717057	0.0728192	-0.114955	-0.107773	-0.113021	0.0677325	0.0953344	-0.0662189	-0.0451872	-0.136344	0.10567	-0.0945246	-0.0627829	0.129999	-0.0149488	0.0650098	0.0475468	0.0741143	-0.020319	0.0627644	0.0875542	-0.109689	0.0291138	0.0717482	0.129972	-0.104401	0.081542	0.0912343	0.0153452	-0.111381	0.104626
0.147955	-0.0511441	0.178456	-0.0563479	-0.095271	-0.1418	0.134201	0.123854	-0.1462	-0.169996	-0.121901	0.172308	-0.132569	-0.114697	0.180797	-0.101032	0.147158	0.138138	0.16765	-0.10812	0.020226	0.159705	-0.120618	0.0647059	0.194995	0.122934	-0.190239	0.151231	0.159898	-0.00782743	-0.0622462	0.130726
-0.142014	-0.0938285	-0.0862963	-0.139286	0.1586	-0.0745021	-0.140008	-0.103007	0.103867	0.207493	0.169187	0.086205	0.117792	0.0595617	-0.16502	0.17521	-0.0824878	-0.149248	-0.178411	0.0626281	0.107558	-0.125767	0.0148452	-0.158032	-0.14177	-0.0889712	0.189651	-0.181996	-0.155766	0.0543079	0.141427	-0.174407
0.140266	-0.13492	0.0839193	-0.149993	0.137566	-0.090226	0.0814293	0.0630213	-0.160184	0.0106341	-0.0814199	0.061161	-0.0755938	-0.0547472	0.0945005	-0.037806	0.124518	0.107192	0.0804991	0.0666193	-0.087759	0.105475	-0.0366741	0.0657008	0.110954	0.0494394	-0.0103105	0.0657007	0.0887381	-0.121613	-0.144437	0.105758
-0.0526648	0.0359757	0.192424	0.0912651	-0.137113	-0.0621161	-0.0118071	0.172017	-0.0120322	0.00560701	-0.14825	0.0298783	0.0129487	0.0042844	-0.133404	0.0744682	0.0239823	0.123917	0.0618023	0.149524	-0.131012	0.0638962	0.134529	0.0291885	0.00107118	-0.000432164	-0.169177	0.171127	0.0191586	0.0701291	-0.11096	0.153708
-0.0547221	0.11049	0.0635901	0.164599	-0.0833981	0.0983277	0.000154009	0.0589322	0.00416765	-0.0576503	0.0186573	-0.0139228	-0.0445862	0.105844	0.0497087	-0.119163	-0.127859	0.000360819	-0.0013496	-0.0457469	-0.137207	-0.0371511	0.0729256	0.116388	0.00855236	-0.0336366	0.0273487	0.0220995	0.0446338	-0.127408	-0.0236219	-0.0303264
-0.134512	0.198603	0.121405	0.171677	-0.218647	0.213031	0.0122405	0.0236969	0.124186	-0.024053	-0.115045	-0.135591	0.015049	0.192865	-0.105235	0.0258699	-0.165162	0.0639452	0.0352398	0.165677	-0.25702	-0.0997222	0.225174	0.216055	-0.091207	-0.169644	-0.129008	0.0741275	0.0111638	0.0114209	-0.0336507	-0.118527
0.155402	-0.110111	0.035175	-0.0781643	-0.102195	-0.131	0.110296	0.0649198	-0.105214	-0.128898	-0.109719	0.102129	-0.150986	-0.13619	-0.0241557	0.0103306	0.13183	0.105556	0.0924821	-0.0573273	0.0535179	0.145448	-0.15606	-0.0142079	0.11195	0.0759682	-0.090899	0.071324	0.144524	0.0228169	-0.150822	0.112531
-0.030982	0.0723747	-0.0522479	0.0860338	0.042675	-0.000187423	0.00281834	0.0203037	-0.0210742	0.00646343	0.00786202	-0.00664991	0.00699985	0.0288952	0.0299726	-0.0133178	0.0271558	0.0125705	-0.0409585	-0.0216543	0.033184	-0.046194	0.0375379	0.0537881	0.00687269	0.0302136	0.0227145	-0.0549402	-0.00225807	-0.102339	-0.0094582	0.0179174
0.213864	-0.0126387	0.0871753	-0.0368841	-0.120188	-0.241389	0.145864	0.144388	-0.131624	-0.099288	-0.103234	0.139103	-0.208113	-0.220614	0.157035	-0.0979823	0.185258	0.106091	0.208675	-0.0899185	0.108633	0.119648	-0.167255	0.0585939	0.220438	0.164919	-0.104087	0.0718791	0.161479	-0.0391974	-0.124698	0.156476
-0.0644255	-0.119005	-0.0978862	-0.10798	-0.0314978	-0.103216	-0.0290426	-0.148819	0.121886	-0.0173651	0.0805223	0.100597	0.0577991	-0.0172945	0.02401	0.0864038	-0.0749327	-0.109685	-0.0886698	-0.0353382	0.14901	-0.131967	-0.0750536	-0.13271	-0.0500707	0.0983705	0.0901362	-0.126987	-0.119652	0.0775843	0.00959429	-0.0832439
0.0415532	0.0770489	0.0266862	0.029659	-0.116157	-0.0875435	0.0318164	0.0458686	-0.0636463	-0.0577504	-0.133	0.0873852	-0.129095	-0.0531235	0.0473677	-0.0404222	0.112662	0.128668	0.112196	-0.0434796	0.036951	0.066957	-0.0331361	0.0482705	0.126726	0.0690538	-0.0993284	0.0622832	0.0674981	-0.0659261	-0.039152	0.107029
-0.0893171	0.166216	0.151805	0.14318	-0.150827	-0.0270097	-0.0739594	0.129585	0.013391	-0.0848515	-0.118406	-0.0799867	0.0753701	0.178513	-0.0528527	-0.0474197	-0.0852898	0.0490787	-0.0378211	0.0547879	-0.160779	-0.0214099	0.128482	0.0344904	-0.0473939	-0.0939849	-0.139049	0.0577574	-0.0602029	0.130924	-0.181164	0.0716903
-0.192481	0.13181	0.0123722	0.112583	-0.173331	0.161058	-0.0865794	-0.0116989	0.150659	-0.0411513	-0.0591479	-0.0715866	0.14032	0.0863013	-0.148957	0.17298	-0.0947579	0.0714554	-0.0328729	0.163233	-0.18541	-0.0300673	0.159853	0.0766509	-0.169019	-0.175833	-0.0264666	-0.0179096	-0.131989	0.0465136	-0.0161791	-0.102703
0.183356	-0.0292368	0.12649	0.0340233	-0.12091	-0.138563	0.0773382	0.0888435	-0.150896	-0.165277	-0.120988	0.0758633	-0.0681877	-0.11134	0.118793	-0.198952	0.144401	0.135292	0.144927	-0.215546	0.0186834	0.099373	-0.091182	0.119963	0.146203	0.0609052	-0.0928317	0.179392	0.0486194	-0.0899666	-0.180479	0.0822437
0.0106637	-0.000864685	0.0212003	0.0410607	0.0403784	0.131395	0.0194041	-0.103974	0.0157575	0.0229398	-0.00842828	-0.0762696	-0.00142732	0.102777	-0.0193598	0.0290103	-0.0216958	0.0163433	-0.0132599	-0.00534193	-0.0673585	-0.0628447	0.0885975	0.00391009	-0.00838877	-0.0670631	0.000288914	0.0261986	-0.00844117	-0.00923541	0.0474427	-0.0242584
-0.081196	-0.172668	-0.0995441	-0.0398138	0.131788	-0.042885	-0.0796578	0.0638876	0.0766293	0.0939426	0.0365082	0.0538025	0.0443927	0.0320177	-0.0905336	0.0629767	-0.0181228	-0.0476136	-0.0976117	0.0806256	0.0042385	-0.0703231	0.0177422	-0.135886	-0.117012	-0.0785565	0.0505701	-0.069216	-0.0844271	-0.0249701	-0.0798155	-0.0753327
-0.0183892	0.121653	0.00317628	0.135496	0.0224329	-0.00796579	0.0495489	0.0353406	-0.0673687	-0.0189531	-0.00430261	-0.00280551	-0.0375806	-0.063061	0.0639304	-0.132651	-0.00494731	-0.021403	-0.0258658	-0.058624	-0.0675901	-0.00990133	0.00967677	-0.0157122	-0.0305749	0.0673996	-0.0408978	-0.0133947	-0.0206818	-0.12611	-0.012753	0.00989061
0.126173	0.0577568	0.0811179	0.140099	-0.0809148	0.0814271	0.0657529	-0.0476645	-0.0420729	-0.1075	-0.127322	-0.0569095	-0.0999632	0.0656349	0.103933	-0.083934	-0.0085762	0.117288	0.127274	-0.053809	-0.118591	0.0724925	0.0635439	0.0847328	0.108404	0.0353459	-0.126655	0.0881772	0.0882762	-0.0407605	-0.0964169	0.0406155
-0.0796968	-0.089332	0.0637969	-0.0781766	0.0855456	-0.0634901	0.0131582	0.0394149	-0.0175242	0.116792	0.173055	0.0743851	-0.034674	0.0605907	0.0141135	0.13484	0.0605515	0.000736414	0.0203406	0.104377	0.0366736	-0.00850454	-0.0566894	-0.0261359	0.0128066	0.0118631	0.0275369	-0.0134651	0.0929782	-0.131681	-0.0864135	-0.173151
-0.0241417	-0.134244	-0.047174	-0.164428	0.00165697	-0.167551	-0.0853363	0.028219	0.10195	0.0178011	0.0200097	0.0658056	0.0234144	0.0160069	-0.0728321	0.0804393	0.00788964	-0.0974596	-0.0875783	0.0089459	0.125056	-0.0541277	-0.0958064	-0.0308729	-0.0447329	-0.0294093	0.0638797	-0.0689785	-0.0721741	0.0858357	0.0950278	0.0489008
0.0257887	0.108931	-0.034254	0.104776	0.00322093	0.110855	-0.0897683	-0.0393317	0.0962006	-0.139622	-0.00538009	-0.100711	-0.0309908	0.00980825	-0.0399226	-0.0460342	-0.00380369	-0.0527163	-0.0962687	-0.0722148	-0.0672043	-0.0224904	0.0327367	0.106555	-0.0531156	-0.0522491	0.0725971	-0.0607486	-0.0385609	-0.0329996	0.0434238	0.0136915
0.0139618	0.0473438	0.082485	0.0382938	-0.0627312	-0.0772248	0.0299725	0.0852431	-0.0142754	-0.0537188	-0.0532047	0.063002	-0.0636669	-0.0025373	0.074573	-0.0544188	0.018323	0.0734489	0.0857239	-0.0523199	-0.0427549	0.0667284	-0.0635077	0.0473033	0.0329268	0.0672053	-0.0977187	0.0796643	0.0918783	-0.0281241	-0.0628252	0.0644849
0.146908	-0.136263	0.129319	-0.0881123	0.0890298	-0.156714	0.0572355	0.162442	-0.027307	0.0488074	-0.0803428	0.0992284	-0.0672011	-0.120661	0.110911	0.0173452	0.109645	0.0536762	0.119326	0.15427	0.0396957	0.157972	-0.0833245	0.0954051	0.189734	0.126715	-0.0965025	0.233402	0.146389	-0.112806	-0.159195	0.0787473
0.0744064	-0.114309	0.0799923	-0.167694	-0.0650654	-0.0719494	0.0873681	0.0951084	-0.12376	-0.0529716	-0.0933093	0.109261	-0.0448336	-0.103342	0.0569222	-0.0168987	0.126035	0.0497048	0.114707	-0.0273696	0.0808318	0.0239282	-0.0937635	-0.00743762	0.1296	0.12976	-0.0633643	0.0679055	0.0742288	0.126627	-0.0390494	0.0976331
-0.109248	-0.105405	-0.0232907	-0.145981	0.0573932	-0.0541238	-0.121991	-0.0807667	0.143875	0.167225	0.133804	-0.0229401	0.0990049	-0.162157	-0.0492828	0.11817	-0.0590006	-0.166169	-0.168241	0.0430853	0.188692	-0.0891392	-0.167372	-0.0928225	-0.0573351	-0.0661372	0.106749	-0.132989	-0.0724011	0.0548309	0.0326175	-0.13038
0.116867	0.111019	0.00171562	0.0759886	0.108307	0.00932643	0.1261	-0.163836	-0.186078	-0.0382577	-0.0214294	-0.0197306	-0.185186	-0.0127	0.175967	-0.171535	-0.035885	0.0305436	0.00425614	-0.043075	-0.0335385	0.0374226	-0.133855	0.107488	0.0810098	0.158708	-0.0126015	0.132108	0.0118381	-0.0706038	0.0853171	-0.0626752
-0.0729688	0.163597	-0.0126114	0.0802607	0.0610592	0.0960112	0.00060905	-0.0979002	0.153632	0.0201252	0.0747224	-0.149837	-0.00969099	0.112694	-0.038148	0.0149179	-0.0872833	-0.037554	-0.102496	-0.00307436	-0.122933	-0.0586619	0.107196	0.0036048	-0.109648	-0.059842	0.0986876	-0.00457877	-0.0917959	0.0309788	0.061782	-0.130357
0.0204795	-0.0612626	0.0856844	-0.0402441	0.0945591	-0.0792346	0.11106	0.0987562	-0.152179	0.12074	-0.135358	-0.0350343	-0.0725396	-0.118677	0.137109	-0.0198171	0.13351	0.147921	0.103682	0.0817549	0.113542	0.130876	-0.119229	0.00976825	0.10142	0.0928612	-0.0752011	-0.0208716	0.0995571	-0.0723546	-0.16407	0.0446978
-0.02814	0.016753	-0.0924853	0.022719	0.0310447	0.171469	-0.0675265	-0.125119	0.0981795	-0.0110566	0.0856015	0.0147225	0.0756711	0.145613	-0.0242715	0.0743648	-0.0465907	-0.125838	-0.1528	-0.0800833	0.0064481	-0.129146	0.024598	-0.130647	-0.216797	-0.0664807	0.122562	-0.139625	-0.0802074	0.0993184	0.0337315	-0.0938221
0.128139	-0.000645371	0.0251513	0.0125122	-0.0453073	-0.0589623	0.0859906	0.062814	-0.040895	-0.045144	-0.0510547	0.0702488	-0.0328952	-0.070276	0.0580897	-0.0292353	0.0381842	0.122312	0.0656716	-0.0354622	0.0937	0.125698	-0.0532479	0.0829967	0.0475768	0.0718759	-0.0970436	0.0876068	0.114555	-0.0753373	-0.10579	0.0391908
0.0418154	0.0251394	0.198984	0.119264	-0.0635581	-0.0861624	0.0584807	0.183773	-0.0880444	0.0341414	-0.0459429	0.142171	-0.014315	-0.0455352	0.0788632	0.00784788	-0.0147638	0.0686129	0.0604928	0.157629	-0.0564465	0.040762	0.0265802	0.195902	0.0683822	0.0685735	-0.148608	0.148643	0.0118659	-0.220612	-0.176886	-0.0331445
0.0366875	0.0350122	0.0784822	0.0799016	-0.117458	-0.0893007	0.108325	0.0234637	-0.0995712	-0.0665243	-0.104667	0.053608	-0.0788883	-0.0446191	0.0570848	-0.0870877	0.0739755	0.084259	0.0503502	-0.0995325	0.122596	0.06301	-0.103204	0.115326	0.0769362	0.0764208	-0.12408	0.0334877	0.0399744	-0.0898965	-0.0607028	0.118372
-0.0563789	-0.122403	-0.0882158	-0.0593953	0.154272	-0.0603387	0.0787403	-0.0260211	0.0643875	0.104111	0.0686221	0.0908898	-0.0620202	-0.0738079	-0.0530173	-0.0655411	0.0350348	-0.0910077	-0.0577584	0.0864296	0.127849	-0.090959	-0.162093	-0.105019	-0.0596159	0.0232496	0.0975069	-0.0966121	-0.0680678	-0.0853651	0.0525871	0.00842987
0.0888592	-0.0428957	0.0707951	-0.0334039	-0.128612	-0.0612853	0.105166	0.153622	-0.0727869	-0.119754	-0.108679	0.150924	-0.0569891	-0.069481	0.115009	-0.0137342	0.0186208	0.116371	0.0779597	-0.0694796	0.0442938	0.0902159	-0.0280911	0.152311	0.0767387	0.0901564	-0.0710385	0.0875355	0.154453	-0.0741546	-0.0994809	0.0632443
-0.0625959	0.0772215	0.0464704	0.0341646	0.0201817	-0.0310645	-0.0280956	0.0643238	0.0260319	0.0589668	0.024421	0.0191398	0.0253512	0.0513436	0.00682426	0.0399038	-0.0698138	-0.08695	-0.0520818	0.0691981	-0.130433	-0.077077	-0.0331844	-0.0671616	0.0118441	-0.0781551	0.0163947	-0.0939252	0.016482	-0.118317	-0.0681682	-0.0620813
-0.121729	0.146749	0.120717	0.0395355	-0.118865	0.129468	-0.106386	0.0181206	0.0691077	-0.0340269	-0.0220243	-0.0844216	0.0836244	0.110214	-0.129968	0.0975036	-0.137362	0.0662503	-0.0542737	0.0640966	-0.0882968	-0.0625691	0.0918433	0.116239	-0.139163	-0.166934	-0.140436	0.0932696	0.0490673	0.0422799	-0.0444466	-0.0884895
0.0304072	0.028151	0.0690433	0.0638613	-0.0756022	-0.0469906	-0.0681339	-0.0044272	0.0232779	-0.0796702	-0.0612456	-0.0511145	-0.0196719	0.0873342	0.0138632	0.0168825	-0.0181535	0.063016	-0.00707958	-0.0061293	-0.0513437	0.0497482	-0.0168807	-0.0397089	0.037485	0.0212037	-0.0676017	0.0755398	-0.00816839	0.132611	0.0158172	-0.0248779
0.0592109	0.0876291	0.0161552	0.13457	-0.10842	-0.00137719	-0.00321882	0.0778052	-0.113824	-0.13932	-0.126661	-0.055619	-0.06755	0.0489375	0.0842902	-0.0616319	-0.0583288	0.111596	0.0687484	-0.1472	-0.108378	0.137376	-0.0304145	0.170314	0.0658736	-0.0392436	-0.115026	0.0973262	0.0812457	-0.079352	-0.178295	0.00847435
-0.202346	-0.186544	-0.0624772	-0.160843	0.16445	0.0489495	-0.122892	-0.082468	0.198562	0.157297	0.193176	0.0161387	0.0680086	0.189943	-0.113651	0.111322	-0.13973	-0.212111	-0.144171	0.195992	0.062794	-0.18004	0.00572126	-0.203886	-0.125525	-0.0827659	0.207283	-0.143705	-0.199005	0.109903	0.106114	-0.228735
0.0164725	0.0588331	0.0953973	0.0654136	-0.0880423	-0.00729634	0.0594759	-0.00847803	-0.00834269	-0.00762818	-0.0934002	0.052906	-0.0779508	-0.00623232	0.0910997	-0.0878282	0.0280007	0.00183831	0.00532168	-0.0805425	0.0196915	0.0301673	-0.0490163	0.0973056	0.00504062	0.0377914	-0.060291	0.0924196	0.00398814	-0.0429658	-0.0676999	-0.0100042
0.181136	-0.0441935	-0.0714358	-0.0213102	0.0844621	0.0319711	0.0751695	-0.0422077	-0.128294	-0.158424	-0.0721229	0.0286586	-0.0806304	-0.293992	0.120854	-0.196405	0.112053	0.0948125	0.106849	-0.193679	0.310361	0.11042	-0.140942	0.0388378	0.138587	0.167295	-0.091182	0.0878887	0.108442	-0.00869479	0.0939451	0.221145
-0.125029	0.0244111	0.0119161	0.0550609	-0.0132755	0.0954023	-0.139589	-0.0712644	0.128392	0.048946	0.0695372	-0.124052	0.0702209	0.140814	-0.1582	0.00369061	-0.0947993	-0.0705705	-0.0796465	0.0541545	-0.115279	-0.101621	0.187987	0.0103871	-0.121551	-0.0968777	0.0211727	-0.0856617	-0.0844569	-0.0112979	0.0378028	-0.07609
0.0636036	0.0303183	-0.0572846	-0.103096	0.0928743	-0.10817	0.0933731	0.102826	-0.0695762	-0.0055741	-0.000179164	0.0248431	0.0720779	0.0498332	0.0481415	-0.0899416	0.0267651	0.0466709	0.0121548	0.0890584	0.0730688	0.0310331	-0.0642391	0.0830566	-0.000217382	0.0516611	-0.0143496	0.0591159	-0.0409467	-0.0652418	-0.0774947	0.051261
0.00055052	-0.0786258	0.0995261	0.0671882	-0.150142	-0.188846	0.0796969	0.136724	0.0198927	0.016073	-0.0152122	0.0725289	0.0348504	-0.0936857	-0.0570837	0.0641395	0.0480674	0.0365774	0.0812998	0.0159587	0.046669	0.0437554	-0.00895158	-0.0884975	0.0478557	0.0897901	-0.158955	0.0939499	-0.0164183	0.126196	-0.189811	0.113454
0.0238495	-0.0395648	0.0105534	-0.0182413	-0.0343629	-0.0193449	-0.0243744	0.0246877	-0.0749776	-0.0453201	-0.0893251	0.0910245	-0.00868686	5.27467e-05	0.0567495	-0.000551288	0.0131382	-0.00316868	0.0840501	-0.058995	0.0920347	0.0388539	-0.0911829	2.44809e-05	0.0192814	0.00251028	-0.039798	0.0510495	0.0551079	0.0210506	-0.0252029	0.0626381
0.0996501	-0.0624886	-0.00114393	-0.138316	0.0680898	-0.0340727	0.101452	0.00909599	0.00405386	-0.0133397	0.0583029	0.132722	-0.046356	-0.0778801	0.119204	-0.0730699	0.0252366	-0.0182818	0.0102185	-0.0145626	0.115404	-0.027003	-0.142976	-0.0660063	0.088786	0.0678264	0.0470232	-0.0170268	-0.0163972	0.072578	0.118411	0.0701222
-0.127051	-0.0350953	-0.000187718	-0.0391929	0.112937	0.00821627	-0.116658	-0.0939757	0.189549	0.161369	0.147453	-0.0117358	0.10797	0.103852	-0.186645	0.128007	-0.060871	-0.0933233	-0.119278	0.164364	0.0387535	-0.171831	0.0551674	-0.131681	-0.201824	-0.0848005	0.0922244	-0.0838361	-0.161548	0.0573341	0.108517	-0.0644818
-0.118644	0.203916	0.0316765	0.173403	-0.10349	0.102295	-0.151088	-0.0296927	0.0234527	0.0351484	0.0183598	-0.110099	0.0947851	0.115349	-0.0780941	0.0676983	-0.183343	0.0240565	0.0334983	0.0490264	-0.19723	-0.0767027	0.11124	0.0678685	-0.0916513	-0.139132	0.0239492	0.0778739	-0.150715	0.0517868	-0.0607073	-0.101709
-0.108564	-0.0669179	-0.108111	-0.0336489	0.0329386	0.0601382	-0.0922824	-0.0429322	0.0338749	0.0873555	0.0335989	-0.0549762	0.0676795	0.0469747	-0.0499987	0.0739377	-0.109382	-0.0424642	-0.0503457	0.068142	-0.0368284	-0.0903301	0.0914377	-0.0994985	-0.0645043	-0.0613931	0.100894	-0.0894605	-0.0474968	0.0421804	0.0732423	-0.0595969
-0.0423501	0.104631	-0.0153302	0.156943	-0.0175622	0.0908557	-0.0574752	-0.0751851	0.0153862	0.0263705	0.0788498	-0.0437125	0.0482126	0.0831133	0.000561901	-0.0700238	-0.042127	-0.0477607	-0.0527197	-0.0160857	-0.120982	-0.0997713	0.0907585	0.104623	-0.0374211	-0.0990954	0.0552977	-0.0408443	-0.0780596	-0.0924494	0.0542649	-0.0876382
-0.136445	-0.0309307	-0.187812	0.0110976	0.065633	0.0433644	-0.117374	-0.0940656	0.189065	0.139438	0.0357582	-0.000544029	0.190375	0.106475	-0.199504	0.167558	-0.138411	-0.115509	-0.127278	0.153421	-0.028159	-0.217335	0.0240781	-0.0920674	-0.210322	-0.221857	0.204897	-0.140742	-0.108997	0.0844375	0.0275211	-0.20251
0.142132	-3.72588e-05	0.136033	-0.00761405	0.191268	-0.145826	0.174265	0.0689843	-0.153324	-0.0939005	-0.184921	0.20567	-0.195497	-0.193824	0.164066	-0.168778	0.084475	0.0588934	0.151688	-0.108921	0.0653856	0.200557	-0.176431	0.0739235	0.155245	0.177747	-0.0720326	0.204698	0.00843058	0.00605804	-0.110925	0.0810505
-0.083156	0.138388	-0.0311861	0.130595	-0.174273	0.155812	-0.0457049	-0.0291209	0.0779887	-0.0376422	-0.0430628	-0.125729	0.110797	0.134976	-0.0670635	0.0618886	-0.138888	0.037758	-0.0402913	-0.0130015	-0.1892	0.00263931	0.142988	0.202611	-0.0707541	-0.128719	-0.0357151	0.0192061	-0.0272579	-0.106428	-0.0664562	-0.101466
-0.0414555	0.163614	0.0476342	0.116774	-0.149723	-0.0493235	0.0357901	-0.000484077	-0.0589618	-0.0291114	0.0349235	0.00778633	-0.111383	-0.0041595	-0.0467304	-0.0116672	-0.0253767	0.0880838	0.0714834	-0.032409	-0.123666	-0.0162296	0.103114	0.144785	0.0528123	-0.0234463	-0.0185573	0.0835435	0.0403773	-0.163122	-0.112192	-0.00506696
