-0.0305472	0.00490385	0.00520585	0.0341774	0.0471298	-0.0433136	-0.0324637	-0.0210263	0.0307773	0.0212058	-0.0342264	-0.0212071	-0.00106653	0.0436865	0.00719445	0.0445921	-0.0267661	0.00926667	0.0165539	-0.0420808	-0.019955	0.0251711	-0.0360597	0.0393927	-0.00848524	0.0396849	0.0281491	0.0205332	0.0240859	-0.0316207	-0.0449256	0.0472996
0.0342622	-0.0678641	-0.0309119	0.0284217	-0.102841	0.00690363	0.0292854	0.0554594	-0.0443135	0.00524555	0.116349	-0.0413918	0.0363756	0.0534472	0.0524309	0.00956925	-0.0776363	0.0441123	0.086661	-0.0904845	0.00435393	-0.0572394	-0.0406883	-0.0302121	0.0187939	-0.0528538	0.0353708	-0.0337313	-0.0429459	0.0210959	0.0164534	-0.0224867
0.0620105	-0.118647	-0.0475909	-0.135601	0.0895813	-0.162677	0.0782853	0.0154001	-0.067443	0.141059	-0.0532241	0.141238	-0.0447851	-0.075844	0.0532971	0.0344246	-0.202796	0.0585045	-0.0818229	0.0943762	0.041708	0.0226004	-0.0431573	-0.0477103	-0.131171	-0.158989	0.0297319	0.203653	0.000739017	0.121116	0.0144056	-0.090163
-0.0447073	-0.160797	-0.131092	-0.0494191	0.177749	-0.1977	0.00906563	-0.0131158	-0.100173	0.137191	-0.0446112	0.114067	0.0583831	0.0585889	-0.0666905	0.0185706	0.00756461	0.103682	-0.000995893	0.0305087	0.0409945	-0.0277001	0.00462996	-0.160717	-0.048249	-0.0700214	-0.0929173	0.108996	0.069516	0.0533844	0.00650725	-0.114661
-0.167237	-0.125948	-0.0393995	-0.0754008	0.0623553	-0.255156	-0.189291	-0.158682	-0.00815631	0.154408	-0.110763	0.0772973	0.0394644	-0.206417	0.00651518	-0.000321842	0.0280655	-0.210861	-0.0798826	0.130309	0.0283186	0.158114	-0.184308	0.135661	-0.117284	-0.111317	0.116457	0.00171148	0.216265	0.14504	0.186206	-0.114499
-0.146759	-0.0759127	-0.0322986	-0.0819665	0.155539	-0.037793	-0.16263	-0.112055	-0.000199861	0.0309403	-0.0515611	0.0271335	-0.0686535	-0.0953487	0.0765459	-0.00277145	0.00919135	-0.0766912	-0.0725094	0.104326	-0.12187	0.0776197	-0.136837	0.161709	-0.0465384	0.0600642	0.098437	-0.110604	0.143079	0.0684965	0.0885708	-0.0282762
0.00281615	-0.0358938	-0.140301	0.0473682	0.129201	-0.0577458	-0.073191	0.0265726	-0.0361116	-0.00267912	-0.0735425	-0.0813272	0.0824113	0.038388	0.00200303	-0.0839975	0.140117	-0.159651	0.0647725	-0.00356225	-0.108663	0.0741664	-0.131713	-0.131013	0.0066079	0.0742765	0.0307313	-0.035843	0.112622	-0.0755192	0.0121515	0.0147323
-0.0458007	-0.00131797	0.0529604	0.00367722	-0.0713078	0.0189359	-0.0589391	-0.0702422	0.0667152	0.0477975	0.117177	-0.0567774	-0.0166935	0.00644342	0.0916485	0.0572401	-0.0243081	-0.0752429	-0.108192	-0.061781	-0.081027	0.164295	-0.0129362	0.137227	-0.0339039	-0.0430717	0.0370937	-0.0995629	0.0854165	0.0539618	0.116729	-0.127563
-0.0584178	-0.0941148	-0.0243489	-0.0393938	-0.00872232	-0.108821	-0.0835377	0.0152988	-0.0265932	0.0837009	-0.0229722	-0.0162073	-0.0948038	-0.0299853	0.0457625	-0.0286477	0.0244936	-0.0411164	-0.0641924	-0.091581	-0.0152249	0.0631959	-0.0439193	0.0115146	0.0280009	-0.0231275	0.124778	-0.137485	0.102837	-0.000426622	0.0272314	-0.122388
-0.0897627	0.0256355	-0.139293	-0.00773943	0.0440496	-0.0367752	-0.110934	-0.0178629	-0.0873444	0.0456994	-0.102914	-0.0153415	-0.0402552	-0.106367	-0.0902308	-0.153631	0.215059	-0.0857757	-0.0939763	0.0775557	-0.0625642	0.0744415	-0.106774	0.0212027	0.0922253	0.0990635	0.135045	-0.186794	0.185956	-0.0590208	0.0726465	-0.0652693
0.0622748	0.0232575	0.240042	-0.13864	-0.0847448	0.0757671	0.25279	-0.0579444	0.0885384	0.0948054	0.0653673	0.233802	0.0011615	-0.074992	0.148538	0.244766	-0.275367	0.15782	-0.143447	0.177875	0.0433411	-0.045366	0.0441559	0.0653194	-0.124726	-0.0718114	-0.152864	0.129913	-0.0246624	0.165595	-0.0274951	-0.0409597
-0.0819503	-0.0463733	0.0530857	0.0252393	0.0322867	0.0121932	-0.254987	-0.115768	0.0630935	0.0599716	-0.00808382	-0.0605465	-0.00522033	-0.159085	-0.0662474	-0.046916	0.138645	-0.142897	-0.0705657	-0.0392627	-0.096755	0.295346	-0.145083	0.0325395	0.035635	-0.0484713	0.237136	-0.0986644	0.11608	0.0741191	0.190136	-0.0627301
-0.160152	-0.0492605	-0.0427607	0.0114531	0.154548	-0.0752075	-0.220015	-0.0131516	-0.0390958	-0.0184399	0.0111535	0.00320716	-0.104336	-0.0724775	0.0256833	-0.149891	0.110895	-0.241713	-0.120723	-0.0983484	-0.108635	0.238661	-0.102676	0.0882572	0.00647779	0.0388085	0.0387478	-0.0472827	0.239007	0.0364855	0.174751	-0.0795605
0.0296983	-0.0714863	0.0144094	-0.155551	-0.0253599	-0.131981	0.133988	0.0522577	-0.0330245	0.118073	-0.143723	0.138688	0.0822382	0.00191962	-0.000491507	0.0464577	-0.175972	0.143977	-0.124293	0.263555	0.109113	-0.0172356	-0.00590133	-0.0706843	0.00440299	-0.0123747	-0.110901	0.00688767	-0.110112	0.12528	-0.029835	-0.00336699
-0.108494	0.0497869	0.0991233	-0.0458208	-0.15432	0.062559	-0.0277186	-0.114541	0.0973487	0.0890627	0.0562973	-0.0303431	-0.08772	-0.157024	0.024848	0.0683272	-0.0012396	0.00990649	-0.0109342	0.0727655	-0.0682949	0.167933	-0.0536602	0.188298	0.00484478	-0.0364672	0.0577178	-0.124895	-0.0464525	0.00248795	0.099829	-0.0344634
-0.0182947	-0.0146306	0.0903842	-0.196676	0.0168066	-0.0514428	0.116923	-0.0623187	-0.0346488	0.116355	0.00409585	0.146419	-0.0706211	-0.079953	0.0713039	0.0485832	-0.0651199	0.0387551	-0.0145578	0.13475	-0.0542517	-0.0392486	-0.0697037	-0.00813218	-0.109369	-0.194593	-0.0826303	-0.00425716	0.0360149	0.0885344	0.0371913	-0.100531
-0.133355	-0.123063	0.0758953	-0.0992891	-0.0658513	-0.047208	-0.0182395	-0.151072	-0.0177915	0.141985	0.0766679	0.0364578	0.0131179	-0.12667	0.0455383	0.0804876	-0.139752	0.0373379	-0.15577	-0.0233403	0.0754064	0.0339149	-0.0926615	0.08278	-0.000567151	-0.171614	0.046613	-0.05613	0.014336	0.159984	0.109852	-0.169922
-0.0666282	0.0110341	0.0965083	-0.0616137	0.043318	0.0981109	0.0525738	-0.0330336	0.0201123	0.00109874	-0.113947	0.0690127	0.0164499	-0.102951	-0.0424436	-0.0474842	0.0106379	0.121576	0.0110005	0.142111	0.0260525	0.0103333	0.0154413	0.117035	-0.106159	0.0830278	-0.191613	-0.0453664	-0.0130914	-0.0809094	0.0220267	0.120632
-0.143266	-0.0398275	0.00587805	-0.0345177	0.0670745	0.0203002	-0.109269	0.0066981	0.0015265	0.0664611	-0.0813279	-0.00500896	-0.0123169	-0.0766388	-0.0737798	-0.0428878	0.0976148	-0.111438	-0.0191185	-0.041337	-0.106741	0.0413146	-0.0700716	-0.067022	0.0134387	0.00627899	-0.0412805	-0.160712	0.0421309	0.0717139	0.112553	0.0174908
0.00221149	0.02567	0.0265709	0.0415083	0.0173486	0.04837	0.143633	-0.0267744	-0.104259	-0.0112901	0.0132779	0.112412	-0.0105367	-0.00570417	-0.045205	0.0436704	-0.154304	0.206607	0.046688	0.042242	0.0433939	-0.104969	0.0112223	-0.147448	0.0297564	-0.077727	-0.0409778	0.0447948	-0.0781517	0.000550529	-0.0432771	0.0388048
-0.132099	0.0119413	0.209745	-0.0771465	-0.122041	0.0799044	-0.157224	-0.187943	-0.032949	0.0111742	0.10398	-0.0124285	-0.0365402	-0.147873	0.21964	0.0107252	0.0552348	-0.0556192	-0.0867474	0.0364097	-0.201981	0.110164	-0.0473193	0.155495	-0.0219818	0.0430311	0.17783	-0.119871	-0.0641724	0.0104817	0.139294	-0.0413978
0.112721	0.117741	0.137671	-0.0193168	-0.164739	0.0709037	0.0746425	0.0371536	0.0603944	-0.0570646	0.125789	-0.0185028	-0.0252714	0.0166803	0.0561846	0.141449	-0.188514	0.074775	0.0202093	-0.146698	-0.0298524	-0.104061	0.135915	0.0367548	0.0446819	0.00112417	0.0811242	-0.00356526	-0.139374	-0.0192551	-0.0953498	0.0434547
-0.158999	-0.230353	-0.17453	-0.0863043	0.209146	-0.263062	-0.198159	-0.138341	-0.0687691	0.0749305	-0.0682945	0.00629627	-0.12633	-0.0909032	-0.0431573	0.0560417	-0.0577703	-0.138626	-0.0718191	0.127959	0.0431053	0.118242	-0.174627	0.0999975	-0.133608	-0.104937	-0.00668535	0.109166	0.130928	0.0649453	0.0809241	-0.094656
-0.00458046	0.115746	-0.0636424	0.00317279	0.0659466	0.123035	-0.00478627	0.0818805	-0.0216578	-0.116871	-0.111206	-0.0376293	0.00652206	0.0606339	-0.105081	-0.0299402	0.148449	-0.0394465	0.0202977	0.0788656	-0.0117816	0.057012	0.039469	0.0107199	0.0691637	0.143666	-0.0303291	-0.0860192	0.0643906	-0.137723	-0.0823415	0.115938
0.0382624	-0.275671	-0.179825	-0.0967687	0.160076	-0.176955	0.0636436	-0.0022737	-0.20375	0.108108	0.0179464	0.125976	-0.110273	0.0527495	-0.0580411	0.111569	-0.115442	0.0430488	0.0227477	0.00505977	0.0679197	0.044738	-0.0610126	-0.0829198	-0.0813253	-0.239107	-0.0105569	0.0559011	0.149036	0.13918	-0.116104	8.91458e-05
0.0213588	0.0877418	0.0120279	0.147746	0.0179312	0.0567813	0.0311946	0.170417	0.0068182	-0.083935	-0.163662	-0.0278615	-0.00817667	0.0826523	-0.127394	-0.0430934	0.00873381	0.0107038	0.118563	0.0882562	0.0920716	-0.022567	0.0782498	-0.187718	0.0675435	0.114357	-0.0780534	0.0477492	-0.0134089	-0.0956817	-0.088059	0.045813
-0.0487245	-0.120143	-0.0786619	-0.0809184	0.0505906	-0.11324	0.128324	0.0127502	-0.230321	0.106322	0.0333188	0.0996353	-0.12889	0.0074227	-0.0776455	0.159575	-0.0413221	0.171227	0.0413825	-0.0415523	0.00880092	-0.0960144	-0.0303415	-0.159636	-0.149883	-0.214272	0.0887251	0.0930791	0.0340343	0.139279	-0.0266179	-0.0676433
-0.0300807	-0.141875	-0.0607273	-0.00821159	0.064147	-0.172414	-0.0998207	-0.0165975	-0.150815	0.136921	-0.0765731	-0.0918147	0.0664524	-0.0931749	-0.128415	-0.00737117	-0.0322307	0.0183373	0.0108273	0.0182217	0.0108058	0.0707089	-0.0970816	-0.040095	0.051852	-0.0433897	0.0172442	-0.135565	0.115306	0.0597743	0.0737016	-0.0476933
-0.177587	0.0136262	0.116205	0.0183682	-0.000811875	0.0123705	-0.0506896	-0.0963751	-0.00922271	0.0368157	0.0410943	-0.0569518	0.0374098	-0.115632	-0.00603092	0.0345398	0.146807	-0.121571	-0.0384378	-0.000893956	-0.177766	0.212815	-0.0104571	0.0968399	-0.0128005	0.10604	0.0650934	-0.167288	-0.0646437	-0.0249328	0.0870393	0.0576077
-0.15706	0.0576653	-0.0481509	-0.0401364	0.0169529	0.0405202	-0.176391	-0.131067	-0.000278486	0.0944229	0.053744	-0.0949376	0.00869282	-0.0882487	-0.0689153	0.0166609	0.207366	-0.131261	-0.107016	-0.0690718	-0.123232	0.142281	-0.145856	0.156449	-0.0010424	-0.0672213	0.117259	-0.162504	0.139893	0.0153618	0.0880164	0.0195088
0.00106515	0.146551	-0.0147796	0.156925	-0.172218	0.175298	-0.0352893	0.0113767	0.0563947	-0.199637	0.0647735	-0.136117	0.060495	0.102268	0.0163965	-0.0622315	0.0451335	-0.0106884	0.143516	-0.11184	-0.0202755	-0.0605553	0.0435764	0.0468982	0.213564	0.160915	0.0631931	-0.0391263	-0.0107432	-0.174089	-0.006027	0.0919591
0.0207451	0.123056	0.0769621	0.00401078	-0.140164	0.168064	-0.0168015	0.12834	0.153374	-0.108823	0.0191921	0.0135036	0.020407	-0.0452491	-0.0395931	-0.0358807	0.116196	-0.0244408	0.000337803	0.0283417	0.00573749	-0.0216705	0.0608997	-6.07725e-05	0.0607554	0.113017	0.0406399	0.0152512	-0.00963044	-0.0364197	-0.0854396	0.0628193
-0.0924616	-0.201149	-0.0840444	-0.140045	-0.01938	-0.144457	0.00782332	-0.0513815	0.0314116	0.130666	-0.0870579	0.0380259	0.0568373	-0.0692993	-0.0203613	0.0511331	-0.0864748	0.0349535	-0.00230927	0.0494779	0.0665542	0.106411	-0.183502	-0.0769689	-0.0546327	-0.127321	-0.0153813	-0.095755	0.10621	0.10553	0.0797062	-0.122127
-0.0321947	0.08629	0.0388128	0.0881633	-0.0296156	0.0710636	-0.025706	-0.0690173	0.119427	-0.00820098	0.0832682	-0.0154128	0.00202663	-0.039417	0.0422209	-0.111319	-0.00387082	-0.0297427	-0.0486063	-0.0181477	-0.0594287	0.0737126	-0.0290333	0.0944596	0.0548833	0.0940616	0.036598	-0.027463	-0.0706965	-0.0486074	0.0097712	0.0379969
0.156579	0.0165495	0.026958	-0.0580083	-0.0285673	-0.00166493	0.101602	0.0275939	-0.0599007	-0.0404514	-0.0224898	0.0595814	0.076491	0.0460993	-5.19215e-05	0.0632725	-0.0198534	0.132124	0.0548072	0.0133961	-0.0266768	-0.0978988	0.0448719	-0.150797	-0.0391439	-0.0259084	-0.01175	-0.0147038	-0.0584875	-0.0683263	-0.110623	0.0556072
0.179964	0.220792	0.0218677	0.180848	-0.0649463	0.185105	0.106453	0.145385	0.230055	-0.173359	-0.00465848	-0.0985564	0.0618763	0.186611	-0.0182024	-0.092763	-0.0833254	0.0113418	0.109406	-0.0972203	0.153606	-0.122001	0.124786	-0.0306712	0.132219	0.27592	-0.233562	0.148643	-0.0824322	-0.0969304	-0.143568	0.113341
0.14931	-0.020157	-0.105054	0.0275031	0.02678	0.0253956	0.0811534	0.103024	-0.0372249	-0.0439501	-0.0848099	-0.0725466	0.0894675	0.177111	-0.123275	-0.058894	-0.071484	0.0685299	0.119423	-0.14825	0.0962878	-0.129754	-0.0151715	-0.173833	0.0693339	-0.108662	-0.0648761	0.0785751	-0.0897226	-0.122007	-0.161587	-0.0340016
0.00950577	-0.200292	0.0290652	-0.0890675	-0.0360862	-0.213077	0.0747041	-0.104398	-0.14458	0.169114	0.119745	0.0904044	-0.0133438	-0.0825957	0.098642	0.138547	-0.191297	0.00554794	-0.110938	-0.0356512	-0.0373074	0.0339255	-0.0774123	-0.0810871	-0.22173	-0.214806	0.0677959	0.16301	0.0551638	0.198078	0.0627591	-0.200634
-0.12803	0.0840181	0.0566732	-0.0886489	-0.0614966	0.115865	-0.0414704	-0.0501374	-0.073414	-0.0738144	0.0373863	0.087043	-9.12586e-05	-0.0370411	0.1174	0.0879671	-0.00331248	0.0972371	-0.0922661	0.0782044	-0.0210426	-0.0117017	0.0399266	0.0798965	-0.0401285	0.00642534	-0.0192055	-0.129825	-0.131632	-0.0917867	0.0481211	0.0187399
-0.0306534	0.0274601	0.260691	-0.148482	-0.22098	0.065578	0.140727	-0.0635784	0.0909984	0.0261772	0.260559	0.0397213	-0.00363802	-0.105525	0.072588	0.183824	-0.1902	0.0125165	-0.103183	0.0308469	-0.118941	0.122085	-0.114539	0.10405	-0.126015	-0.263515	0.0880032	-0.0443265	0.0080054	0.160336	0.162623	-0.0306432
-0.166899	-0.17123	-0.0435967	0.0290451	0.180931	-0.150235	-0.148038	-0.0756048	-0.0716171	0.0944878	0.024342	0.102847	-0.142145	-0.0920331	0.0329482	-0.0234401	0.188133	-0.216741	-0.0706113	0.132229	-0.0584652	0.231029	-0.171921	0.174007	-0.0762232	-0.060336	0.0763116	-0.0632576	0.250235	0.0990228	0.111295	-0.0678301
-0.0971598	-0.134535	-0.126823	-0.111529	0.195554	-0.240726	-0.231563	-0.00878241	-0.055879	0.0723156	-0.129131	-0.00932043	-0.0104532	-0.0830158	-0.109353	-0.0449896	0.0652413	-0.210654	-0.127983	0.094389	0.0282016	0.19399	-0.123924	0.105184	-0.0526737	0.058295	-0.0294948	0.0191633	0.118977	0.00323862	0.114214	-0.0253546
0.0523406	0.06716	-0.116833	0.210296	0.113528	0.0133379	-0.259486	0.022732	0.127875	-0.137964	-0.173396	-0.163073	-0.124099	0.0479714	-0.113024	-0.248359	0.080043	-0.16803	0.0763717	-0.105271	-0.06593	0.164302	0.0796655	0.0878182	0.100832	0.154622	0.029919	-0.0258732	0.0562363	-0.189395	-0.0209103	0.142177
0.0458553	-0.0183781	0.0232299	0.0322267	-0.0200869	0.0988649	0.0365373	-0.0595558	0.0248466	0.0371365	0.140197	-0.0650538	0.0578093	0.122317	0.0318376	0.0179706	-0.090798	0.114181	0.111981	-0.147436	-0.0165931	-0.0200912	0.02997	-0.0995344	0.0858709	-0.10558	-0.0153515	-0.000485177	-0.0779716	-0.00466999	-0.0355765	-0.0427369
-0.11859	0.110997	0.102179	-0.019541	-0.120413	0.133542	-0.00897626	-0.087568	-0.0134477	-0.0566708	0.168529	0.0654028	0.0165739	-0.00838101	0.186056	0.0719831	-0.0322138	0.0129968	-0.033883	-0.0270923	-0.139426	0.0216323	-0.0480631	0.115229	-0.110777	0.117202	0.0762594	-0.0491434	-0.0381598	-0.00916052	0.0373874	0.0934539
0.0764429	0.0572702	0.166461	-0.0647143	-0.184504	0.0679478	-0.00239693	-0.106701	-0.0700529	-0.00975724	0.246105	-0.0692956	-0.0616472	-0.102127	0.14952	0.0901292	-0.0313674	-0.028215	-0.101914	-0.110477	-0.110234	-0.0321281	0.0248645	-0.0207457	-0.00811198	-0.0809699	0.184864	-0.129154	-0.115456	0.0458092	0.136844	-0.106973
-0.0179036	-0.00478043	0.0876033	-0.107371	0.0710679	-0.0543933	0.00457467	0.0304543	-0.0563427	-0.0283939	-0.0871735	0.0270815	0.0218699	0.0174743	0.052032	-0.0285634	0.034897	-0.0211495	0.0260836	0.190793	0.0355551	0.0217048	0.0556629	0.0270037	-0.0988099	0.115459	-0.0118547	-0.140079	-0.0112194	-0.0284885	-0.0208662	0.117287
-0.159109	-0.134292	0.0611097	0.000176875	0.0936737	-0.131735	-0.16334	-0.084442	-0.135985	0.162541	0.104863	0.091977	-0.101976	-0.159967	0.12159	0.0280151	0.017239	-0.103366	-0.0829172	0.0934846	-0.102214	0.166916	-0.151637	0.130801	-0.137891	-0.0262761	0.151804	-0.11023	0.127464	0.105612	0.0876408	-0.144811
-0.0634654	-0.146952	-0.116465	-0.081587	0.10121	-0.080389	-0.00557476	-0.0943587	-0.167527	0.100368	0.0637178	0.0332836	-0.0343273	-0.0206629	0.0192589	-0.03635	-0.024455	-0.0175892	-0.0327005	0.0652592	-0.136713	0.010848	-0.0300029	-0.0629254	0.0448218	0.0167347	0.146942	-0.141661	0.0627228	0.0462902	0.0589434	-0.0926437
0.0914774	0.0711339	0.0460605	-0.0943218	-0.0311752	0.0448896	0.0785861	0.0292527	-0.0130529	-0.0799028	-0.0210659	0.0750296	-0.00508049	0.0493891	0.0587241	0.103214	-0.110238	0.179622	-0.0223235	0.0383968	0.0532368	-0.12671	0.114081	-0.0988104	-0.100364	-0.00859517	-0.0747114	-0.0133077	-0.0732108	0.00996651	-0.0984466	0.0622548
-0.0274538	-0.0317343	0.154451	-0.0906506	-0.00176269	-0.015229	0.0864274	-0.0924458	0.103202	0.0297364	0.0968518	0.0732922	-0.0221498	-0.0096336	0.159029	0.0973847	-0.0979783	0.0287707	-0.100353	0.0209342	-0.0763423	0.0382566	0.0422384	0.0685849	-0.00661764	-0.0870604	0.0357313	0.0130383	-0.0925596	0.0701975	0.0452443	-0.0308205
0.0107494	0.102969	0.224728	0.000866622	-0.155369	0.144137	0.17224	-0.0602592	0.0783863	-0.0447048	0.108188	0.0102983	0.158426	0.0625122	0.128023	0.160273	-0.136345	0.162429	0.0578485	-0.0101077	0.0448393	-0.124962	0.131471	0.0783952	0.0481612	0.050445	-0.0871395	0.0743245	-0.168661	-0.030343	-0.0451387	0.0152524
-0.13076	-0.0520382	-0.167955	0.146028	0.08989	-0.0726451	-0.155133	0.0981584	-0.113912	-0.0177687	-0.113914	-0.0392913	-0.0964149	0.0981454	-0.0595284	-0.182764	0.108063	0.0273319	0.112552	-0.074585	0.0731376	-0.0198766	0.0457856	-0.141691	-0.00865726	0.0753603	0.0983079	0.0368365	0.131083	-0.0199746	-0.114822	0.00329279
-0.119887	-0.243471	-0.0504265	-0.202777	0.0646951	-0.186525	0.130406	-0.00645497	-0.16743	0.132258	-0.0349488	0.203716	-0.0263722	-0.0825801	-0.0127854	0.0531887	-0.0932442	0.0468766	-0.181111	0.160347	0.0723037	0.047057	-0.12923	-0.120517	-0.186846	-0.131289	-0.0701257	0.0474175	0.102572	0.147734	0.0490751	-0.111707
0.00816637	0.0343318	-0.193724	-0.0443026	0.122016	-0.178066	-0.0852094	0.213725	-0.0680525	-0.123231	-0.267856	-0.135379	0.0789365	-0.0319958	-0.281071	-0.171664	0.208319	-0.117738	0.00698573	0.0978034	0.0882112	-0.047683	-0.0479933	-0.0963261	0.127216	0.137818	0.0146849	-0.0980867	0.0363049	-0.0948052	-0.0730629	0.178803
-0.188922	-0.148027	0.0882795	0.0408821	0.207725	-0.150777	-0.243164	-0.149585	-0.0878978	0.135192	0.0620539	0.131371	-0.18854	-0.148924	0.0964972	0.0379969	0.081796	-0.221489	-0.0787559	0.248747	-0.0538381	0.195849	-0.00657593	0.0418095	-0.0714515	0.0402835	0.122668	-0.0713058	0.184428	0.121513	0.0982973	-0.0345936
0.0117963	-0.0680712	0.0210038	-0.0383678	0.051763	-0.065706	0.179822	-0.0540203	-0.111017	0.0478909	0.0254588	0.123446	0.015648	0.0543109	0.0556524	0.0884118	-0.136868	0.0959554	-0.0404822	-0.0029109	0.016739	-0.114304	0.0513447	-0.0449478	-0.0505829	-0.0512917	-0.0789831	0.0550587	-0.0457503	0.0661868	-0.134219	-0.0485287
-0.0724537	-0.14145	0.00988226	-0.0537048	0.169415	-0.0515052	-0.110473	-0.12536	-0.126388	0.0627642	0.0550985	0.0595578	-0.171126	-0.0827982	0.108802	-0.0298059	0.0987965	-0.144947	-0.0541725	0.0465305	-0.162023	0.133561	-0.110722	0.135219	-0.0785607	-0.0255688	0.0970723	-0.154682	0.0636194	0.0509058	0.0285757	-0.0558376
-0.0900483	0.0812244	0.131037	-0.0594006	-0.137791	0.0924327	0.123977	-0.050514	0.0456295	0.0775894	0.0372566	0.0202922	-0.012814	-0.0772784	0.0562775	0.0255873	-0.0488779	0.0381566	0.0446499	0.0212369	-0.123685	0.00224986	0.010498	0.03344	-0.0941196	-0.0727285	0.05746	-0.0818702	0.0120728	0.0774133	0.0460018	0.0122547
0.0031001	-0.175257	-0.1108	-0.0255999	0.152918	-0.17348	-0.0339868	0.0512119	-0.0762124	0.0134946	-0.106722	0.0223635	-0.0214488	0.0305267	-0.0987935	-0.0425274	-0.0383116	0.0755672	0.0956326	0.122052	0.0962721	-0.0744628	-0.00504678	-0.0467762	-0.0297777	0.0284237	-0.0573407	0.0233916	0.0630871	-0.0452356	-0.051269	0.000364616
0.0856095	0.0310376	-0.100321	0.0910538	0.126648	-0.0513943	-0.0191601	0.126447	-0.144297	-0.131725	-0.146523	-0.10339	0.144849	0.135104	-0.202678	-0.113626	0.00558728	0.0118523	0.153817	-0.055355	0.106148	-0.127907	0.131785	-0.14376	0.0916204	0.0475988	-0.102286	0.0707736	-0.00138754	-0.149476	-0.127575	0.216035
-0.0438819	-0.148985	0.0436742	-0.0598085	-0.0129704	-0.0855135	-0.134007	-0.188388	-0.0774759	0.0959103	0.206794	0.232594	-0.145094	-0.162499	0.19668	0.142338	-0.138649	-0.167754	-0.158118	0.164986	-0.154873	0.0558571	-0.164363	0.223663	-0.156375	-0.113268	0.117856	-0.00148204	0.0591624	0.108957	0.139615	-0.139618
-0.0781921	-0.178455	-0.146138	-0.0506848	0.145308	-0.150913	-0.00970971	-0.0484885	-0.0361895	0.121565	-0.044077	0.0319051	-0.136935	0.0435205	-0.0904183	-0.00670679	-0.103139	-0.0461015	-0.0206584	0.140515	0.0450772	0.127926	-0.152109	-0.0724899	-0.0370298	-0.0754991	-0.0691516	0.157383	0.195821	0.0662017	0.0764962	-0.0600077
-0.147424	-0.124752	0.176634	-0.185663	0.0708183	-0.143709	0.0603427	-0.111472	-0.00529516	0.213704	0.0522914	0.0881433	-0.0190883	-0.145829	0.0593985	0.192399	-0.173338	0.0326016	-0.175274	0.271206	-0.0019113	0.19105	-0.101131	0.0206475	-0.176893	-0.21594	0.00561221	-0.115573	-0.0303432	0.210234	0.105844	-0.183092
0.000253183	0.00842985	0.12141	0.0459347	-0.0843823	-0.0266314	0.076126	-0.0421805	0.0894979	-0.00715204	-0.00828145	0.00039375	0.0623575	0.0444286	0.0539179	0.111347	-0.0341188	0.0691707	-0.0260115	0.00498379	0.00134459	-0.00467176	-0.0535496	0.0119026	0.041609	-0.0194145	0.00695209	0.00202285	-0.0915147	0.030288	0.0123015	0.0272717
-0.00757065	-0.143405	-0.12808	-0.193689	0.0932923	-0.176406	0.00633304	0.0167481	-0.177288	0.146787	-0.0105423	0.165799	0.0172471	0.00259994	0.0682743	-0.00775195	-0.0379532	0.0976363	-0.131318	0.0218621	0.00578369	-0.113297	-0.114632	-0.0511396	0.0127054	0.00994188	-0.0538967	-0.0858225	0.0566749	0.0785923	0.0041346	-0.070983
-0.100955	-0.00297877	0.108966	-0.124426	-0.0546069	-0.106309	-0.0532982	-0.0782501	-0.0446099	0.0860157	-0.00606884	0.211349	-0.0812897	-0.137036	0.0298517	0.161491	-0.045888	-0.0192357	-0.110496	0.135138	-0.137978	0.133671	-0.0896734	0.0928571	-0.150246	-0.1464	0.10103	-0.1129	0.0422397	0.165189	0.0831304	-0.0406834
0.104389	0.175048	0.13085	0.0627466	-0.219646	0.250272	0.112321	0.128136	0.153684	-0.161466	0.113283	-0.167158	0.0212859	0.127074	0.0667353	0.196546	-0.103734	0.116677	0.133205	-0.140216	0.0715291	-0.0979248	0.229154	0.0510093	0.0731321	0.062166	-0.120133	-0.0491387	-0.062635	-0.158813	-0.119829	0.122014
0.0177466	0.106642	0.0514199	-0.0395175	-0.0709556	-0.0227831	0.172576	-0.0256765	0.131608	0.0506037	-0.099954	0.0130013	0.171965	0.0365225	-0.00466561	0.0699345	-0.233606	0.17518	0.00264008	0.0733255	0.131007	-0.0290016	0.0341005	-0.165251	-0.0249842	0.0287884	-0.115882	0.046498	-0.122874	0.00136867	0.00970879	-0.0287955
0.10352	0.0506533	-0.0220976	0.0556129	-0.13027	0.0392152	0.14605	0.0237723	0.0967399	-0.121101	-0.0561088	-0.08248	0.0795439	0.136645	-0.18587	-0.0743465	-0.0708734	0.0824841	0.0345162	-0.0409818	0.0372876	-0.0440326	0.150598	-0.0650127	0.103992	0.123491	-0.103064	-0.00526027	-0.119392	-0.0947004	-0.120723	0.115444
-0.059743	0.0367941	0.0245901	-0.0144184	-0.0103073	0.0380685	-0.0219529	-0.028659	0.0233149	-0.0770877	-0.037383	0.0558308	0.0255596	-0.0627567	0.00761132	-0.00434016	-0.0312296	0.0350817	-0.0348421	0.0886932	-0.0391405	0.0699855	0.0662419	0.0804263	-0.00990291	0.061166	-0.069103	-0.0100936	0.0669061	-0.0406022	-0.0138066	0.0404582
-0.0680918	-0.0543124	-0.0243818	-0.0501071	0.0493549	0.0175467	-0.0833366	-0.0955149	-0.0767597	0.0579363	0.0787316	0.0940173	-0.00572607	-0.0954392	0.0338131	-0.0623264	0.0386123	-0.0339478	-0.0830296	0.0520511	-0.0459922	0.036577	-0.0937258	0.0570345	-0.0204084	0.0173404	0.0831785	-0.0649228	0.0275107	-0.026593	0.048821	-0.0344741
0.0452758	0.0510154	0.0687596	0.185318	-0.0923988	0.103526	0.0645904	0.0177625	0.0590357	-0.14095	0.0891584	-0.105771	0.0585784	0.125532	0.00878542	0.0633178	0.0411969	0.012672	0.0763627	-0.0639081	0.0433849	-0.0074997	0.0410323	0.0919596	0.0739627	0.167064	0.00542525	0.013854	-0.0364521	0.0029743	-0.0758338	-0.0150561
-0.117838	-0.309701	-0.0917764	-0.0475158	0.136403	-0.224066	-0.0610285	-0.0111199	-0.153451	0.157342	0.0877527	0.0457535	-0.168873	0.00303417	0.0359754	0.152106	-0.0328444	-0.0709269	-0.0997437	0.0990742	-0.0879571	0.101224	-0.0571676	-0.0161896	-0.0765438	-0.0824626	0.107289	0.0756312	0.157705	0.129672	-0.0188065	-0.148728
0.0510548	0.013407	0.0788332	-0.200863	-0.0972051	0.096657	0.113283	0.0200286	0.035317	0.0353215	0.126419	0.0998306	0.00915072	-0.0209832	0.112051	0.143884	0.0239844	0.126322	-0.0853082	-0.0163414	0.0588647	-0.0996107	-0.0341084	-0.0211264	-0.0816239	-0.00894274	-0.043567	0.0543848	-0.0177394	0.084151	0.0490383	-0.0684738
-0.0616362	-0.0341612	-0.0197746	-0.0852346	0.0710269	-0.143059	-0.160031	-0.0405823	-0.109541	0.050628	-0.0257047	-0.00744391	-0.0249427	-0.0102443	0.0618293	-0.0501676	0.0772337	-0.156865	0.0026586	-0.0717231	0.0101731	0.0811892	-0.147304	-0.042435	0.0615826	-0.105386	0.051243	0.0260602	0.1465	0.0167034	0.0551362	-0.0971994
0.0238994	-0.00699503	-0.11517	-0.0745763	0.0893679	-0.0343906	0.0914025	0.0811585	-0.0298004	0.0936181	-0.140441	-0.00381879	0.0338654	0.00557657	-0.0764814	0.00825861	-0.074327	0.113273	0.00688483	0.0262016	0.0673649	-0.0427786	-0.0576331	-0.0325551	0.0752818	-0.04061	-0.10839	-0.0681542	-0.00210809	0.0803744	-0.0202056	0.0199637
0.0392997	0.0467697	0.0326937	0.0234987	0.037077	0.0337099	0.0656848	-0.0261788	-0.035138	-0.0167088	-0.0195031	-0.0167915	0.0223528	0.0546143	0.0112485	-0.0217617	-0.0316696	0.0552184	-0.0254247	-0.020634	-0.00644551	-0.0338636	0.0163359	-0.036081	-0.0306692	0.050148	-0.0227121	-0.0109579	-0.00289447	0.00925499	-0.0204814	0.0517878
-0.168992	-0.15815	0.0451829	-0.003339	-0.0048637	-0.0553148	-0.063543	-0.115222	-0.246725	0.0941233	0.132422	0.0644222	-0.145396	-0.151222	0.156968	0.0236996	-0.0390791	-0.128659	-0.0940813	0.0772168	-0.118807	0.129576	-0.145123	0.130363	-0.0852922	-0.0670862	0.205175	-0.197617	0.0931361	0.0683161	0.16687	-0.173646
-0.0470725	-0.0249804	0.0500712	0.0942413	-0.0880395	-0.001655	-0.0141183	-0.0263635	0.00682898	-0.0292302	0.0545416	0.0786035	-0.0582343	-0.0209511	-0.0474418	-0.0334948	0.118583	-0.0186792	-0.0484385	-0.0300135	-0.0842325	0.112072	-0.022107	0.0589582	-0.0119912	-0.0727617	0.0382493	-0.0115171	0.0276347	0.00670943	0.0726483	0.0545735
-0.059624	0.0088685	0.128082	-0.0637548	-0.0404815	-0.00819747	0.0914947	-0.0684798	0.040112	0.0425189	0.135727	0.161077	-0.0960236	-0.0654827	0.184147	0.0634919	-0.187626	0.102094	-0.00636014	-0.0325814	-0.0944061	0.0708628	-0.0290864	-0.0267295	-0.0700535	-0.215135	0.0275995	0.0618148	-0.0516206	0.201991	-0.020464	-0.0206619
-0.0586821	0.109993	-0.1259	0.108148	-0.00603776	0.102797	-0.0214188	0.185919	0.0048072	-0.14264	-0.151577	-0.177335	0.0645353	0.147824	-0.128841	-0.167531	0.134849	-0.0149724	0.105092	-0.0624825	0.105344	-0.0465335	-0.0602507	-0.0686386	0.0835228	0.177653	0.0238395	0.0180109	0.0295831	-0.157635	-0.0582405	0.115217
-0.0379173	-0.1269	0.148587	-0.105886	0.103222	-0.0952837	0.0214817	-0.115066	-0.0463683	0.0725444	-0.00597382	0.185842	0.0243453	-0.0725059	0.0392442	0.108313	-0.150059	-0.00361451	-0.145633	0.24286	-0.0430145	0.0545108	-0.0451477	-0.000824432	-0.0843692	-0.0979258	0.0526599	0.075737	0.00488758	0.152694	0.101389	-0.0906445
0.0735183	0.0736653	-0.0489895	0.175591	0.0614013	0.00542868	-0.0576494	0.124624	0.0313734	-0.162198	-0.168177	-0.161142	0.0881885	0.0903821	-0.187019	-0.0768779	0.0876392	-0.00607345	0.178214	0.0135564	0.0797047	0.00459415	-0.0175261	-0.179162	0.180282	0.118375	-0.128464	0.0945402	-0.050248	-0.227905	-0.120046	0.148706
0.0615282	0.24346	0.262644	-0.0392841	-0.331598	0.28636	0.194051	-0.0409432	0.265055	-0.237214	0.0518112	0.157614	-0.00599721	0.053393	0.173927	0.0555114	-0.126638	0.306361	0.0464964	0.0113796	0.0646398	-0.256518	0.179587	0.0774682	0.0174263	0.111899	-0.187853	0.0732448	-0.209386	-0.105201	-0.0892898	0.160437
-0.223435	-0.0496932	-0.0443083	0.0279652	0.0271932	-0.0485598	-0.201986	-0.110302	-0.144878	0.0366215	0.00236981	-0.008572	-0.127109	-0.015345	-0.0227845	-0.0116308	0.143437	-0.16257	-0.0697905	0.00582648	-0.0913141	0.184985	-0.157445	0.111531	0.0490928	0.0493784	0.181735	-0.257819	0.179012	-0.015425	0.177385	-0.0903699
-0.139896	-0.0867058	-0.0329091	-0.114495	0.14285	-0.196138	0.0787734	0.00594881	-0.0290975	0.0320622	-0.0917697	0.194079	0.0242113	0.0108694	-0.0462376	0.0912559	-0.124228	0.122071	-0.126984	0.192711	0.129704	-0.0200223	-0.102019	-0.0614884	-0.0839991	-0.0293607	-0.151917	0.0650638	8.60682e-05	0.0241907	-0.00353593	-0.0205319
0.00277858	-0.0946766	-0.135559	0.134606	0.175519	-0.151449	0.0428777	0.140521	-0.153223	0.0505099	-0.0212149	0.0753443	-0.0389061	0.0604588	0.00129163	-0.124159	-0.0886064	0.0683001	0.131993	-0.0314934	0.0621333	-0.0664091	0.0198415	-0.00278877	-0.0860438	-0.0169959	-0.0922336	0.175247	0.0977006	0.0780205	-0.163931	0.0510231
0.188987	-0.00624041	-0.108857	0.0610214	0.0829462	0.0332609	0.119511	0.0462272	0.0476155	0.0248726	-0.0703473	0.0206975	0.116559	0.0992884	-0.0231058	-0.0150985	-0.151463	0.181915	0.111985	-0.00211625	0.0719423	-0.124198	0.085596	-0.214551	0.0565766	0.116139	-0.125197	0.117552	-0.145196	-0.00702622	-0.192485	0.0769581
-0.0858131	-0.0648815	0.0971684	-0.0498024	0.0465853	-0.0985584	-0.0902184	-0.0455853	0.0235507	0.0445427	-0.0270396	-0.0300205	0.0346982	-0.071211	-0.0135599	-0.0138586	0.0358876	-0.127971	-0.0409328	0.000780873	-0.0343448	0.173794	-0.0818167	0.00692271	-0.0249469	-0.0806386	0.0878247	-0.0781985	0.0824373	0.02278	0.0737737	-0.0202724
-0.123897	-0.0240113	-0.115109	-0.0163169	0.16057	-0.159773	-0.0146169	0.0236432	-0.1141	0.0866989	-0.130606	0.035503	0.0237609	-0.0307244	-0.0714604	-0.07369	-0.074156	-0.0826577	0.0579992	0.126422	0.0513371	0.118685	-0.114831	-0.115359	0.00913093	-0.0207851	-0.149797	0.091831	0.139488	-0.0503962	-0.0188765	0.0120944
-0.00246065	-0.140969	-0.0997687	0.0885437	0.0636595	-0.201875	0.0578257	0.0576834	-0.19047	0.12352	0.0699279	0.0681041	-0.140767	0.0204401	-0.019083	0.0436343	0.0684184	0.0868942	0.0196466	-0.114413	-0.0325473	-0.00475385	-0.0346039	-0.0797503	-0.11406	-0.0965399	-0.016973	0.151891	0.174432	0.0994111	-0.0492138	-0.0247715
0.154543	0.0642884	-0.0239302	0.121061	0.0175525	0.072433	0.0460565	0.138194	0.0974184	-0.103541	-0.0170554	-0.144087	-0.0415169	0.0892676	0.017226	-0.0263115	0.0488926	0.0364752	0.157347	-0.129827	-0.0531696	0.052557	0.107082	-0.0173277	0.0543426	-0.0165665	-0.0737337	0.0867957	0.0344077	-0.13951	-0.0717134	-0.0222308
0.0930499	-0.0432583	-0.194411	0.185158	0.202037	-0.137041	-0.107905	0.19599	-0.154766	-0.0991878	-0.100711	-0.104849	-0.0295132	0.145372	-0.105231	-0.137315	0.152933	-0.102415	0.121689	-0.0189718	-0.0246424	-0.0838982	0.0723034	-0.15805	0.0777406	0.0835928	0.027444	0.0217314	0.13805	-0.101674	-0.206302	0.120973
-0.101524	-0.014912	-0.174726	0.0611788	0.225582	-0.161449	-0.194886	-0.0540952	0.039641	-0.0773268	-0.0925996	-0.0286358	-0.0247321	-0.0044495	-0.00219361	-0.219314	0.147341	-0.127369	0.0541148	0.0989452	0.0400337	0.13389	-0.0846464	-0.0356859	-0.0165833	0.0493735	-0.0681246	0.0566512	0.111885	-0.107523	-0.0766743	0.104052
-0.033991	0.0282618	-0.178196	0.109805	0.146083	-0.0243443	-0.0814082	0.0599431	-0.00214176	-0.173241	-0.252469	-0.0937203	-0.0237131	0.0266223	-0.204942	-0.150952	0.0920409	-0.0479301	0.171397	0.110232	0.0321467	0.0440852	-0.0382712	-0.00714149	0.0766597	-0.044989	-0.144822	0.0760906	0.00769626	-0.127927	-0.101912	0.137935
-0.000614465	-0.230172	-0.0399739	-0.143704	0.0379891	-0.143621	0.0378692	0.0276392	-0.121602	0.146182	0.106926	0.142605	-0.0788798	-0.0379666	0.0171446	0.012754	-0.0369859	-0.0505397	-0.0434204	-0.0401928	-0.0350316	-0.0617948	-0.0933314	0.0797393	-0.0833596	-0.176803	0.0605772	0.0151307	0.165017	0.178612	-0.00324301	-0.0905649
0.202584	-0.0877186	-0.0950122	-0.00783227	0.168066	-0.00452252	0.216827	0.154694	-0.0793814	-0.0507913	-0.157455	0.0998794	0.0684702	0.176662	-0.145042	-0.047811	0.0193372	0.173958	0.0721474	0.124894	0.158597	-0.122954	0.0924559	-0.211982	0.0219883	0.103486	-0.210417	0.0947352	0.00384386	-0.0243322	-0.12427	0.0879024
0.0964579	0.11139	0.0539087	-0.0488485	-0.173714	0.0962817	0.0764504	0.0492519	0.0634434	-0.0175017	0.0615842	-0.0180612	0.0894426	0.0248731	0.0841934	0.159775	-0.0164914	0.143464	0.0545795	-0.181626	0.0265977	-0.0317412	0.0772359	-0.0488004	0.045394	-0.0368416	-0.0612316	0.0282203	-0.039491	0.00845664	0.00562453	-0.0499992
0.150473	0.158935	0.0231904	-0.024764	-0.0778907	0.135801	0.139772	0.0655349	0.132958	-0.133381	-0.0723545	-0.0442022	0.0582055	0.0927267	-0.0841594	0.0592337	0.0021063	0.149668	0.119772	-0.140731	0.0574174	-0.12312	0.0643644	-0.0610067	0.0682444	-0.000701212	-0.0925988	0.147944	-0.136643	-0.120109	-0.0730193	0.129021
-0.124959	0.0687992	-0.0821946	0.0129861	0.114112	-0.0263326	-0.114966	-0.0716921	0.10055	-0.0461848	-0.0203807	-0.00924386	-0.112364	-0.0307977	0.00190881	-0.0332479	0.173862	-0.110749	0.0701616	-0.063716	-0.102009	0.191784	-0.116873	0.0987994	0.0664038	0.080875	0.120734	0.0874138	0.156464	-0.00136035	0.117657	0.0190067
0.0428827	-0.107621	-0.239196	0.12289	0.238263	-0.0870275	-0.143946	0.152446	-0.214903	-0.0797878	-0.156598	-0.192504	-0.0693119	0.192534	-0.183753	-0.135764	0.160202	-0.170677	0.149153	-0.133213	0.000352641	0.0540704	0.0543427	-0.160749	0.088745	0.011878	-0.0132518	-0.0138549	0.250815	-0.0841215	-0.129535	0.120943
-0.229459	-0.128148	0.115023	-0.108133	0.0928608	-0.208324	-0.173117	-0.147539	-0.0627652	0.133033	0.119387	0.0563995	-0.089705	-0.240846	0.00140604	0.0734657	-0.00263879	-0.165896	-0.179604	0.0697377	-0.182376	0.200305	-0.181396	0.122032	-0.183783	-0.0670916	0.0936199	-0.0747884	0.10625	0.143924	0.149689	-0.17137
0.150465	0.0727133	-0.0345209	0.0791027	-0.0165089	0.0881177	0.188705	0.1219	0.0595696	-0.0292988	-0.16654	0.0781265	0.0382292	0.178132	-0.058651	-0.0395807	-0.126694	0.132526	0.00361448	0.0687448	0.0963833	-0.129802	0.100607	-0.0997749	-0.0134388	0.121957	-0.130705	0.141006	-0.0711564	-0.0430036	-0.11021	0.197631
-0.0260883	0.0970277	0.13858	-0.160766	-0.183427	0.13342	0.118423	-0.0764485	0.0749127	-0.00586052	0.181986	0.133351	0.0318238	-0.0588424	0.171502	0.192257	-0.113312	0.0809314	-0.013495	-0.00327925	-0.104859	-0.0641195	0.0329614	0.124341	-0.149575	0.00304624	0.0989881	-0.0316597	-0.0845791	0.110742	0.00448423	-0.0589103
-0.0838211	-0.0988333	-0.110647	0.00337341	0.205211	-0.0901906	-0.211126	-0.0537279	-0.0736454	0.0804226	-0.00675579	0.0293699	-0.136039	-0.0835487	0.00301803	-0.110834	0.194394	-0.205904	-0.0504591	0.0815722	-0.0970941	0.0819846	-0.15798	0.163681	-0.0752217	-0.0842358	0.0499522	-0.00138076	0.144277	0.0677427	0.0997729	-0.0810746
-0.0148266	-0.132151	0.110304	-0.0960913	-0.114502	-0.057533	0.00527526	-0.0771907	0.0467992	0.138121	0.1124	-0.00087971	0.0879041	-0.118376	0.109418	0.135624	-0.0427291	0.0680572	-0.0650582	0.0173759	-0.149137	0.0771895	-0.112394	0.12886	-0.0943691	-0.113888	0.0266925	-0.097243	0.0112987	0.0778626	0.0904453	-0.136608
0.187768	0.0971009	-0.147715	0.122516	0.0752247	0.0288735	0.0262778	0.0697681	0.179093	-0.173007	-0.176139	-0.153335	0.13142	0.157708	-0.207052	-0.0798441	-0.0230037	0.119637	0.141626	-0.0531771	0.206737	-0.104406	0.15376	-0.122963	0.115072	-0.0224314	-0.10211	0.0918973	-0.140112	-0.162585	-0.1706	0.122306
-0.179027	-0.188768	-0.000794512	-0.0104911	0.14588	-0.163842	-0.203101	-0.155171	-0.135229	0.109027	-0.0651696	0.102124	-0.118934	-0.183089	0.0221508	-0.070709	0.0252522	-0.0942842	-0.156343	0.171225	-0.079487	0.234833	-0.0380897	0.173751	-0.117181	-0.0971437	0.0916587	-0.0849215	0.129244	0.0503633	0.0814303	-0.0797886
-0.228951	0.0304388	-0.0214657	0.0718149	-0.0442328	0.0725495	-0.111413	-0.078992	-0.131513	-0.112086	-0.0400331	-0.0264358	-0.168847	-0.0789554	-0.042693	-0.071181	0.173587	-0.0967314	-0.127581	0.0924892	-0.0646066	0.117105	-0.104748	0.16784	0.0641154	0.241513	0.127203	-0.200293	0.0675276	-0.174732	0.164193	0.152314
-0.159472	-0.0898399	0.0626512	-0.095618	-0.0278535	-0.14473	-0.056971	-0.156799	-0.0438036	0.145615	0.117075	0.156984	-0.0553171	-0.113887	-0.00299145	0.0739621	0.0504136	-0.00744515	-0.117692	0.130191	-0.169511	0.107793	-0.0602401	0.146085	-0.123761	-0.126921	0.119163	-0.0896463	0.0435686	0.156856	0.162205	-0.0679328
0.058569	0.0150422	-0.131087	0.0771558	0.0892633	-0.0971331	0.0103885	0.0378009	-0.0481411	-0.0155306	-0.174671	-0.022654	0.12925	0.0861087	-0.0798074	-0.105708	-0.057459	0.128325	0.148599	0.00873727	0.0664517	-0.0598839	0.0787742	-0.167801	0.10085	-0.0468852	-0.0617834	-0.0318067	-0.0947725	-0.0361088	-0.124304	-0.0425706
-0.111586	-0.166693	0.017429	-0.0248422	0.0653044	-0.134708	-0.154186	-0.0490784	-0.0948617	0.0877674	-0.0198453	0.0796483	-0.146451	-0.191973	0.0465279	-0.0782397	0.12135	-0.133384	-0.156163	0.148958	-0.11283	0.124473	-0.14495	0.0452822	-0.0974314	-0.124015	0.131237	-0.0687576	0.135372	0.0526952	0.0529877	-0.0207392
0.136265	-0.0159421	0.00175017	-0.0968299	-0.0939915	-0.033965	0.241998	0.0408217	-0.0358153	0.113961	0.0380386	-0.0591382	0.173817	0.104216	-0.00721928	0.15622	-0.237536	0.168548	0.0651586	-0.0861748	0.0409621	-0.134659	0.152744	-0.149864	-0.0882751	-0.203034	-0.0611931	0.149849	-0.135781	0.0679004	-0.156322	-0.0247764
-0.155326	-0.0339784	-0.108057	-0.027466	0.179022	-0.0772525	-0.165177	-0.0881858	-0.0917853	-0.0585469	-0.101577	-0.00896835	-0.0626522	-0.0618629	-0.0278031	-0.161186	0.00691836	-0.168556	-0.0353743	0.067276	-0.0230391	0.203258	-0.0886258	0.0376696	-0.0682437	0.0360496	0.027786	-0.0222746	0.223777	-0.0500119	-0.0285078	0.0098199
-0.00143257	-0.117044	-0.151404	-0.139523	0.0990178	-0.0740417	0.0376704	0.0779803	-0.222044	0.0742372	-0.0493719	-0.0405752	-0.0287195	-0.0500361	-0.0834031	-0.0342437	0.0158	0.0773743	-0.00699087	0.0390655	0.0591366	-0.0493254	-0.105575	-0.19719	-0.0219474	-0.120984	-0.0960899	-0.0263802	0.0343677	0.0451804	-0.0741006	0.0577054
0.108174	0.0565431	-0.0335115	0.00633555	-0.03279	0.124049	0.0368963	0.12795	0.0205564	-0.133374	0.0711587	-0.080124	0.0963353	0.0370274	0.057295	-0.0187202	0.113838	-0.0173597	0.00383877	-0.179217	0.0306758	-0.00433591	-0.0154915	0.129594	-0.000654089	0.0977447	-0.0312166	0.017167	0.000106534	-0.0805329	-0.0705225	0.0686199
0.0500205	-0.202338	-0.0786938	0.0761174	0.136736	-0.248625	0.0662912	-0.0659946	-0.267963	0.136009	0.0173302	0.139586	-0.0144023	0.0189346	0.00697712	-0.00189629	-0.0881367	0.102274	0.0124531	0.145177	0.0251549	0.0561632	0.0219558	-0.114744	-0.0982447	-0.148484	0.0851393	-0.00739557	0.0222592	0.0942023	-0.116175	-0.0417535
-0.136994	0.0284452	-0.221326	0.171525	0.196551	-0.0609359	-0.141146	0.18117	-0.00554495	-0.126721	-0.274703	-0.119099	0.077542	0.0734656	-0.223162	-0.239401	0.127435	-0.153265	0.14399	-0.0812961	0.047659	0.0848768	-0.130643	-0.0704983	0.202547	0.135584	0.0360784	-0.0898177	0.215134	-0.221971	0.0455066	0.1464
-0.0585121	-0.00413412	0.110452	0.00190769	-0.0208782	0.0584368	0.0385966	-0.0465045	0.0831124	0.025317	0.0771172	0.0958989	0.00194284	-0.0414912	-0.0139011	-0.0198325	-0.0557988	0.0654444	0.0120895	-0.0801994	-0.0898136	0.0598421	-0.00337535	-0.00126139	0.0225888	0.00972033	-0.0667387	0.0268249	-0.100674	0.0353615	0.0932495	0.031186
0.0105218	0.0379873	0.218377	-0.0244422	-0.223781	0.116141	0.141596	-0.00148909	0.0710566	0.0809267	0.198757	0.0389243	0.0535033	0.0119074	0.181222	0.239189	-0.0977536	0.0660373	-0.00453807	-0.0356505	-0.0944417	-0.0282371	-0.00887231	0.0193303	-0.0647545	-0.116951	0.0384787	0.0654174	-0.0554587	0.146124	0.0108672	-0.0968469
-0.0149471	-0.0181055	-0.0719665	0.111629	0.0681798	-0.116774	-0.0840411	-0.0565587	-0.103079	-0.0305063	-0.0808559	-0.0773184	-0.0798811	-0.0955672	-0.0319418	-0.15607	0.157617	-0.148334	-0.0453382	0.00980554	-0.139197	0.0608934	-0.238339	0.056422	0.0347771	0.0815839	0.176681	-0.203731	0.162806	-0.133471	0.0426296	-0.0160826
-0.143146	-0.151119	-0.0256602	0.0404012	0.157337	-0.197826	-0.221302	-0.117377	-0.0900254	0.0890495	-0.0783948	0.0248791	0.000944098	-0.0341177	0.0473505	-0.149502	0.145603	-0.0946019	-0.0526194	0.0656533	-0.0516485	0.119268	-0.162025	0.0473635	-0.0695164	-0.0569337	0.0374602	0.00708056	0.108986	0.000476286	0.0373594	-0.0773407
0.0217676	-0.0751926	-0.0995488	-0.0469448	0.165026	-0.0503556	0.132443	0.148033	-0.0339227	0.0792235	-0.106265	0.102049	0.0510489	0.0591552	-0.127867	0.103964	-0.0940251	0.178891	0.0164675	0.0676609	0.171089	-0.120754	-0.123453	-0.133643	0.00723351	0.0842795	-0.131003	0.00820622	0.0115726	0.0324738	-0.130363	0.0518087
-0.147137	0.109925	-0.0909606	0.0990445	0.0594182	0.106945	-0.213717	0.0189818	-0.00483195	-0.0816862	-0.0339973	-0.07235	-0.0957688	0.0450678	-0.013832	-0.110832	0.187301	-0.201485	0.00837296	0.0126781	-0.14075	0.145226	0.049364	0.0695549	0.106808	0.17489	0.105953	-0.187518	0.0846579	-0.150094	0.0549581	0.0718066
0.0755114	0.0993476	0.113453	0.0400462	-0.142892	0.112344	0.15826	-0.0423661	0.151002	-0.0704212	0.0892193	0.0445488	0.113327	-0.0288104	0.0329861	0.0681976	-0.107058	0.084595	-0.0430337	0.110096	0.088195	-0.0603401	0.192787	0.185184	0.00852755	-0.0128235	-0.00602103	-0.027763	-0.0939773	-0.0162839	0.0562759	0.0550034
-0.165921	-0.0356284	0.0557503	0.0590441	0.068337	-0.0443529	-0.125125	-0.120106	-0.103806	0.00798704	0.0914785	0.0764859	-0.140384	-0.114822	0.124102	-0.0914915	0.0175927	-0.129599	-0.0331599	0.0789817	-0.120993	0.205184	-0.121254	0.121577	0.0275076	0.000855209	0.121196	0.000211548	0.0778098	0.0110077	0.170045	0.0105737
0.0201923	0.00646412	0.0215507	-0.0358871	-0.138427	0.0362283	0.0102286	-0.0586365	0.0113926	-0.0228601	-0.00295239	0.0533131	0.0372398	-0.0567217	-0.0101506	0.0722062	-0.101558	0.0766662	-0.0610388	-0.0142103	-0.0602553	-0.000707877	-0.0105146	0.0403841	-0.0198701	0.0248988	0.0203139	-0.0209807	-0.000659329	0.0281139	-0.00305515	0.02375
0.0146856	0.125921	0.0615486	0.0333295	-0.127136	0.139949	-0.0633358	0.0143385	0.0937641	-0.0781048	0.0636462	-0.0706906	0.113143	-0.0582414	0.0709728	-0.0168395	0.044607	-0.116458	0.0145446	-0.123285	-0.13588	0.0674136	-0.0523352	0.0470674	-0.00727481	0.0728418	0.0643564	-0.140915	-0.00751148	-0.052594	-0.00886556	0.0304271
0.162047	0.0975461	-0.170324	0.0193694	0.053341	0.105372	-0.168493	0.103876	0.113142	-0.223613	-0.178152	-0.0982219	-0.0350195	0.104852	-0.104121	-0.150406	0.109268	-0.138024	0.0765942	0.0911828	-0.108815	0.128258	-0.00358685	-0.0254541	0.0702248	0.128751	0.00773102	-0.00558284	0.0644598	-0.21502	-0.0129546	0.199108
-0.144441	0.0378965	-0.166927	0.10041	0.0851547	0.0201528	-0.0988059	0.075024	-0.0221566	-0.0882421	-0.151844	-0.156768	-0.0816563	0.0932866	-0.23777	-0.084936	0.197562	-0.115966	0.0660552	0.0269543	0.00907989	0.148534	-0.0634368	0.0656931	0.136709	0.210166	0.0433805	-0.110872	0.133463	-0.120066	0.0199206	-0.0130664
0.0838768	0.0288448	-0.107661	-0.0230018	0.0876216	0.0332576	0.16252	0.111689	-0.0226638	0.0468959	-0.00727454	0.137969	-0.0492686	0.0709694	-0.0356883	0.128782	-0.054913	0.0997076	0.0641185	0.0527386	0.0999382	-0.0714956	-0.0243419	-0.140798	-0.0806178	0.105435	-0.068675	0.0196849	0.08363	0.0350586	-0.091376	-0.0638839
-0.0508036	-0.163769	-0.0941362	0.00650086	0.124692	-0.266663	0.0339418	0.0470349	-0.123681	0.0591763	0.00340205	-0.0692818	0.0598437	0.0422975	-0.0436968	0.00552886	-0.117484	0.115152	-0.0154649	-0.00294433	0.0779832	-0.0532776	-0.072982	-0.0908047	-0.155775	-0.195678	0.0136896	0.0334429	0.02459	0.067255	-0.01235	-0.0284291
0.0331873	-0.00790943	-0.211332	-0.00189785	0.164597	-0.142675	-0.0474326	0.162762	-0.0325924	-0.00256466	-0.21091	-0.0932389	0.182441	0.0532112	-0.0951384	-0.0407133	0.110863	0.0298492	0.0592916	-0.0392311	0.124144	0.0183443	0.0224297	-0.16015	0.0299539	0.0426374	-0.140412	0.0473788	0.0719117	-0.132836	-0.158387	0.0459533
-0.118901	-0.207227	0.178249	-0.204945	0.0678537	-0.159382	0.0494352	-0.243773	-0.101417	0.272044	0.150281	0.233116	-0.159799	-0.183095	0.157858	0.231143	-0.0423429	-0.0233284	-0.192894	0.274935	-0.173806	0.145045	-0.144897	0.144874	-0.1801	-0.167601	0.0908467	0.161739	0.146963	0.188594	0.247342	-0.254493
0.166073	-0.082948	-0.137164	0.161317	0.0903621	-0.0247997	0.22913	0.166231	-0.0602063	-0.0230402	-0.065265	0.0796161	-0.019073	0.158617	-0.0769759	0.0643437	-0.0700747	0.185223	0.236114	-0.0819358	0.0944874	-0.193298	0.204355	-0.164132	-0.0158416	-0.092771	-0.126137	0.140743	0.105899	0.0175999	-0.186589	0.0302535
-0.0854084	-0.101056	-0.0334325	0.024249	0.0420286	-0.137417	-0.191632	-0.132779	0.0368385	0.0433288	-0.0464851	-0.0475574	-0.00146789	-0.121903	-0.0342073	0.0463009	0.0277161	-0.121003	-0.0723664	0.0366359	0.0473758	0.136529	-0.140373	0.047801	-0.0600763	-0.123434	0.127311	-0.0702616	0.0929576	0.0610516	0.0883186	0.0593278
0.0926853	0.170774	0.170123	0.111171	-0.141319	0.243343	0.208785	0.0654834	0.202832	-0.197105	0.21735	-0.0344782	0.128805	0.105594	0.083924	0.144235	-0.0843889	0.181585	0.0418255	-9.31909e-05	0.0738684	-0.124299	0.244083	0.143297	-0.0479816	0.0722738	-0.0525451	0.0749083	-0.243675	-0.0413148	-0.12155	0.0210469
-0.198236	0.0528239	-0.0935925	0.0978637	0.102044	0.0234336	-0.189349	0.0368153	-0.0552114	-0.175544	-0.0263239	-0.121635	-0.023991	0.0933252	-0.0442102	-0.138397	0.127197	-0.109394	0.0866932	-0.0765916	-0.00242942	0.18422	-0.0847618	0.0429053	0.0653676	0.183392	0.0761295	-0.129857	0.110486	-0.182115	-0.0409655	0.149187
-0.0388742	0.0795	-0.0158367	0.0340007	0.0447334	0.0371089	-0.14275	-0.0594274	-0.067026	-0.037342	-0.0764086	-0.0376421	-0.126848	-0.00997341	-0.0484293	-0.100221	0.116289	-0.0965027	-0.022952	0.0420717	-0.0641992	0.0976044	-0.00111426	0.0382031	0.0306661	0.142269	0.0537846	-0.192221	-0.030979	-0.0458903	0.0533664	0.0767553
0.0503259	0.0186448	0.15858	-0.122465	-0.248223	0.101757	0.148673	0.0146071	0.0176683	0.00645622	0.187082	0.0567784	-0.0411886	0.0241327	0.200698	0.284948	-0.241445	0.0946939	-0.0190285	-0.0720662	-0.0691472	-0.098003	0.0536097	-0.0185902	-0.0527068	-0.115748	0.0337745	-0.0607405	-0.0936183	0.0673662	-0.0349643	-0.0324163
0.084427	0.112398	-0.0264598	0.156707	-0.0259058	0.0651435	0.0589204	0.118634	0.185706	-0.202491	0.0297718	-0.164902	0.0351054	0.165722	-0.0100405	-0.0323443	0.0377897	-0.0146946	0.127745	0.00591812	0.0321985	-0.000724484	0.0986838	-0.115884	0.0627017	0.0599542	-0.111527	0.140137	-0.056549	-0.170354	-0.10986	0.0977615
-0.13924	-0.014275	0.187554	-0.153958	-0.080345	-0.061062	0.0226105	-0.167889	-0.0530443	0.150188	0.0250927	0.110973	-0.057111	-0.0812333	0.132444	0.208106	-0.137609	0.0591039	-0.147487	0.158853	-0.077821	0.110181	-0.0905133	0.114709	-0.14093	-0.130021	0.167756	-0.103839	0.0397585	0.116977	0.173978	-0.181617
0.0374324	0.107845	0.162833	0.0486894	-0.191566	0.128211	0.135872	0.00639534	0.184408	-0.0926074	-0.0557949	-0.00636818	0.169126	0.129941	0.126306	0.102128	-0.167542	0.180047	0.0404243	0.0029792	0.100587	-0.126105	0.116167	0.13828	0.0822182	0.0835334	-0.176377	-0.0541881	-0.180802	-0.131775	-0.0238597	0.124877
-0.185695	-0.060301	0.159758	-0.238853	-0.10708	-0.0108579	-0.141535	-0.203591	-0.122093	0.174005	0.207384	0.0715182	-0.179673	-0.139683	0.104826	0.156229	-0.121675	-0.0225142	-0.130228	0.0815666	-0.184057	0.107565	-0.1802	0.165346	-0.0348188	-0.184888	0.235774	-0.12828	0.00797895	0.151959	0.158596	-0.148581
0.229265	0.12292	0.172688	0.0233194	-0.123485	0.186453	0.246969	0.129362	0.206053	-0.185293	0.0259882	0.13526	0.163863	0.103993	0.0419524	0.083809	-0.131269	0.279595	0.216394	0.0895742	0.177354	-0.243117	0.212498	0.0313741	-0.0346277	0.116959	-0.234855	0.180434	-0.230607	-0.0895475	-0.224924	0.143741
-0.0709088	0.00463449	0.056394	0.048702	0.0213333	0.0111942	0.0408877	-0.0627397	0.0782644	0.00595191	-0.0275682	0.0616223	0.0286686	-0.0512524	0.0164327	-0.0120488	-0.0278088	0.0116944	-0.0227285	0.0351815	0.0456186	0.00563347	-0.0726112	0.0207775	-0.0465521	-0.013319	0.00104313	0.0525472	-0.00601079	0.059059	-0.0120207	0.0221488
-0.000177071	0.0379675	-0.1482	0.0876883	0.0746524	0.0396814	-0.124486	0.200703	0.0293089	-0.145669	-0.0333787	-0.131372	0.130683	0.190856	-0.162753	-0.180596	0.189824	-0.206418	0.105632	-0.0990969	-0.0132959	-0.0183674	0.0370161	-0.0418911	0.13935	0.191323	0.121492	-0.0300099	0.0604324	-0.159173	-0.00396558	0.105778
-0.150663	-0.0981026	0.158105	-0.2431	0.136058	-0.192353	-0.0882603	-0.187659	-0.103851	0.204834	0.0194003	0.243051	-0.065899	-0.201191	0.0371978	0.106699	0.07654	-0.00793932	-0.214631	0.283456	-0.0879318	0.1246	-0.184437	0.0585907	-0.19439	-0.01487	0.120798	-0.115145	0.0430468	0.179319	0.206899	-0.0347976
0.00613678	0.149418	0.0727363	0.0452337	-0.12733	0.104394	-0.114406	-0.0713511	0.0896353	-0.130769	0.0976828	-0.023399	-0.00424748	-0.0584362	-0.0100917	-0.0879175	0.076051	-0.174228	0.0745539	-0.00541328	-0.119916	0.0472532	0.0275693	0.117304	0.114927	0.137178	0.158608	0.0495429	-0.0556466	-0.106353	0.0731118	0.0825707
0.0975187	0.0741185	-0.137273	0.0541993	0.0559621	-0.0281315	0.00485855	0.0119275	0.0863728	-0.0477385	-0.120744	-0.119577	0.0793521	0.108979	-0.111991	-0.138021	-0.0307728	-0.00837804	0.0811491	0.00983637	0.0648758	-0.102677	0.0706494	-0.0207677	0.0946427	0.0805028	-0.08553	0.0558372	-0.046817	-0.151255	-0.0815882	0.132819
0.0222795	0.0978467	0.138952	-0.0251383	-0.204924	0.088025	0.131398	0.141502	0.119265	-0.00197078	0.0203098	-0.0629423	0.0218217	0.099419	-0.10325	0.0613459	-0.131523	0.112824	0.058764	-0.04126	0.0375671	-0.00681915	0.059118	-0.0804323	4.88115e-07	0.00619307	-0.052436	0.0969986	-0.0256213	0.00406396	-0.0214108	0.0817656
0.154516	0.150872	-0.0171267	0.107015	-0.118023	0.164784	0.167844	0.125253	0.113604	-0.0861041	-0.0656249	-0.0900941	0.094325	0.100882	-0.173581	-0.0559518	-0.110588	0.180595	0.0941227	-0.168844	0.163398	-0.17312	0.112852	-0.109549	0.0936363	0.0245481	-0.106734	0.0693984	-0.108496	-0.0869274	-0.176428	0.0433047
0.0774674	0.0762975	0.201989	-0.0519331	-0.106975	0.153502	0.0178514	-0.0242882	0.0470645	-0.0769364	0.263097	0.0107061	-0.0634414	-0.00565418	0.263018	0.241097	-0.165586	0.0516254	-0.0464219	-0.132864	-0.104262	-0.0624417	0.0621383	0.112112	-0.00850354	-0.0768453	0.0637064	-0.0204867	-0.132123	-0.0199148	0.0160262	-0.0793713
-0.143918	-0.0931006	0.123469	0.0197641	0.0176545	-0.058713	-0.0331505	-0.103551	-0.0960336	0.161649	0.0763732	0.0957518	-0.118352	-0.0902267	0.149217	-0.0678005	-0.0110024	-0.0317249	-0.113501	0.101385	-0.116737	0.049478	-0.0718177	0.144074	-0.0936818	-0.0170649	0.0994292	-0.107014	0.00860972	0.0769168	0.12409	-0.0554724
-0.0877611	-0.16746	0.15011	-0.104418	0.0320237	-0.11117	-0.147021	-0.121857	-0.176248	0.154623	0.136178	0.125504	-0.173518	-0.164416	0.1818	0.101541	-0.0245925	-0.166811	-0.153414	0.0752233	-0.191867	0.0854898	-0.130286	0.136306	-0.143583	-0.108054	0.171016	-0.0955415	0.116254	0.0918696	0.0415833	-0.121204
-0.17953	-0.0654924	0.163272	-0.170178	-0.0580854	-0.0898485	0.0466022	-0.0628652	-0.0844012	0.113462	0.054774	0.148926	-0.186566	-0.106499	0.065965	0.118736	-0.181941	-0.0157202	-0.114856	0.139727	-0.101796	0.170105	-0.11258	0.17007	-0.105029	-0.173643	0.0830333	-0.185607	0.0927419	0.176065	0.169705	-0.170742
0.0135581	0.073931	-0.139697	0.0884486	0.172003	-0.0457283	-0.161731	0.0468899	0.0138322	-0.167399	-0.048628	-0.143806	0.147233	0.129798	-0.158409	-0.105941	0.153964	-0.174964	0.131618	-0.0454376	0.00944341	0.103638	-0.0020168	-0.0286474	0.179594	0.135946	0.00201593	-0.0322494	0.113195	-0.120799	-0.0436314	0.110975
0.0129632	0.0105908	-0.0642346	0.122707	0.108997	-0.0527482	-0.180069	0.160708	0.0801899	-0.198118	-0.144487	-0.158912	0.0342596	0.0460705	-0.0505438	-0.122986	0.107224	-0.170597	0.0105538	-0.0281388	-0.0554477	0.149649	-0.0448821	-0.0310114	0.0171621	0.169087	0.0137082	-0.0222455	0.0720088	-0.10992	-0.0657777	0.114576
-0.0720381	-0.0425955	0.290273	-0.114534	-0.0704663	0.0305001	0.0279992	-0.137324	0.00893644	0.0713114	0.317382	0.118122	-0.119457	-0.0915606	0.284561	0.184068	-0.09494	-0.0352876	-0.113846	0.00627422	-0.151989	0.0770425	-0.0051249	0.142151	-0.143077	-0.0735279	0.10857	-0.0538883	0.0497978	0.188654	0.12326	-0.0639589
-0.0969128	0.0563352	-0.1227	0.105979	0.0916458	0.0799496	-0.0243029	0.076314	-0.036877	-0.138286	-0.199507	-0.19808	-0.0146657	0.123742	-0.185721	-0.0595214	0.162563	-0.0825569	0.131914	-0.0673643	-0.0397157	0.0781093	0.105293	-0.153682	0.129701	0.0154865	0.0878671	-0.00371596	-0.0699265	-0.183158	-0.0371931	0.0892615
-0.172717	-0.0974889	-0.0559528	-0.0755269	0.0612899	-0.139	-0.118751	0.00040368	-0.113355	-0.00985519	-0.0847543	0.0229823	-0.0970427	-0.0514422	-0.0847036	-0.0650541	0.165032	-0.114157	-0.0768436	0.0917066	-0.107055	0.15377	-0.131678	0.0270533	0.0224122	0.0686048	0.106889	-0.150248	0.11857	-0.0330697	0.106123	0.0536056
0.0246731	0.0318064	-0.144124	0.0278269	0.0312819	-0.0247918	0.0300466	0.0349876	0.0130583	-0.0422758	-0.11958	0.005019	0.0898293	0.0606621	-0.101388	-0.101896	0.201794	-0.00288437	0.007696	0.0290508	0.0667652	-0.0594461	0.0185403	-0.035292	0.0765382	0.0382196	-0.0718955	0.040111	-0.01751	-0.0289398	-0.0689205	0.075525
-0.0876821	-0.0806134	-0.21582	0.149956	0.159269	-0.0605135	-0.172187	0.146001	0.0494377	-0.0733033	-0.18452	-0.153981	-0.0432723	0.116123	-0.223633	-0.232366	0.236022	-0.174677	0.0891186	-0.0316953	0.023908	0.150089	-0.0932987	0.0230189	0.106827	0.106463	-0.0617315	0.0772944	0.185115	-0.127703	-0.0159349	-0.00107086
-0.207257	-0.179435	0.0254852	-0.105576	-0.0817949	-0.112872	-0.0363901	-0.133159	-0.0501973	0.17017	0.138968	0.0136129	-0.060225	-0.208639	0.119793	0.0837513	-0.0420066	-0.0374321	-0.101785	0.0152004	-0.0753474	0.11748	-0.110058	0.131845	-0.2296	-0.0770523	0.15409	-0.0289822	0.107668	0.16287	0.0377035	-0.0783897
-0.0507418	-0.0961017	-0.00238009	-0.0702687	0.0758595	-0.0653662	-0.0317021	-0.0407666	-0.0360384	0.0260272	0.0154936	0.10115	-0.104948	-0.0637877	-0.012263	-0.00507987	0.032675	-0.00155965	-0.0591212	0.0733461	-0.0381538	0.00851799	0.0073744	0.103261	-0.0446379	-0.0809587	0.00995424	0.00575105	0.0394736	0.0594347	0.09812	-0.028578
0.163584	0.109371	-0.0325507	-0.022349	0.0155611	-0.0280706	0.129344	0.0886372	0.103355	-0.114525	-0.158969	-0.00494717	0.107738	0.159458	-0.129009	-0.0480366	-0.0423469	0.0904219	0.122685	0.0812105	0.114824	-0.132845	0.10775	-0.109647	0.0362026	0.0866911	-0.164261	0.0914154	-0.0914289	-0.144233	-0.121618	0.0541468
-0.0149237	-0.0365103	-0.0313021	-0.000456823	0.0356661	-0.0609893	-0.0272729	-0.0197899	-0.0436282	0.0379287	-0.00623983	0.088002	-0.0600373	-0.0848256	0.0738471	-0.0564373	0.0652428	-0.106874	-0.00591226	0.0296729	-0.0940371	0.0295544	-0.0715766	0.0979202	-0.0700633	0.0361807	0.0292182	-0.0105621	0.0486971	0.0219479	0.013704	-0.0724287
-0.105459	-0.0951491	-0.027996	-0.101881	0.172745	-0.149732	-0.119007	-0.0767026	-0.0862359	0.129074	0.0360551	0.0179521	-0.0736547	-0.101899	-0.00332709	0.0561963	0.135176	-0.175297	-0.142472	0.013602	-0.138994	0.126157	-0.191698	0.0906333	-0.0970338	-0.085377	0.0628803	-0.110938	0.0807109	0.127418	0.160969	-0.0750802
-0.0707336	-0.00559388	-0.106292	0.0371884	0.0827778	-0.0693482	-0.14201	0.0740352	0.0258275	0.0301614	-0.114601	-0.108074	-0.0286425	-0.0581446	-0.00299656	-0.18462	-0.0403855	-0.239078	-0.0330195	-0.0458715	0.00495847	0.110347	-0.0557586	0.012839	0.0720024	0.00898941	0.0346205	0.00479961	0.203918	-0.0587509	-0.0145389	0.0415781
0.185878	0.116859	-0.143993	0.113526	-0.110552	0.163478	0.161589	0.134183	0.17847	-0.19649	-0.129654	-0.156502	0.126813	0.213583	-0.18927	-0.0687511	-0.0494318	0.0751082	0.184087	-0.140579	0.151663	-0.149486	0.194167	-0.16923	0.168907	0.0678954	-0.20859	0.0984138	-0.143186	-0.153629	-0.129088	0.0814675
-0.00174434	-0.0454979	-0.029102	0.112501	-0.0600757	0.0625168	0.0365079	-0.0543263	0.0252195	-0.0908425	-0.0575899	0.0573043	0.00329498	-0.00741318	-0.0392074	-0.0943901	-0.124969	-0.0243538	0.0194938	-0.0138035	0.0492164	0.045098	-0.0296179	-0.0668439	0.0476611	0.0581266	0.026712	0.11385	-0.0741009	-0.0862418	-0.0314829	0.0868648
0.0858556	0.206453	0.158627	0.0664011	-0.201291	0.21172	0.158437	0.0651349	0.148788	-0.19778	0.108656	-0.072774	0.105959	0.107377	0.0875259	0.119618	-0.159694	0.17657	0.0814335	-0.148698	0.0780472	-0.146973	0.136737	-0.0108023	0.113463	0.0867791	-0.137361	0.16762	-0.189464	-0.0951741	-0.127698	0.130651
0.0907612	0.106869	0.203067	-0.00173635	-0.167903	0.158395	0.0963968	-0.00630508	0.0525569	-0.0598513	0.182865	0.00257188	0.0360336	0.0746029	0.153017	0.105905	-0.120895	0.138696	0.0446841	-0.147628	-0.135771	-0.110249	0.143154	0.0713301	0.00322205	-0.0204151	0.00725164	0.00141853	-0.145746	-0.00271553	-0.025642	0.00390384
-0.158074	-0.181165	0.119086	-0.118447	0.0305522	-0.133575	-0.0664458	-0.183442	-0.0156866	0.194684	0.180511	0.185667	-0.157015	-0.115051	0.118694	0.170527	-0.088717	-0.12961	-0.15932	0.0303712	-0.22128	0.168889	-0.0855362	0.191619	-0.146076	-0.139041	0.201444	-0.0625153	0.109244	0.15266	0.127731	-0.168506
0.0483925	-0.130779	-0.168823	0.0515018	0.123631	-0.229637	-0.0477991	0.0748621	-0.125765	0.0601926	-0.0893552	-0.0291757	-0.0779174	0.0916393	-0.161572	-0.0401785	0.0431552	0.0614879	-0.00898935	-0.0116683	0.0146246	-0.0703958	-0.0472096	-0.0269407	-0.0102621	-0.185275	0.0832684	0.0324516	0.086417	0.0424427	-0.0813043	0.0102268
-0.0722263	-0.0119317	-0.184374	0.223608	0.225807	-0.0697876	-0.134598	0.125529	-0.00252836	-0.115492	-0.14272	-0.130374	-0.000180876	0.0882347	-0.0463682	-0.24223	0.137603	-0.16237	0.126941	-0.0119954	-0.0654864	0.152953	-0.0286757	-0.0171508	0.171727	0.173502	0.0377731	-0.0329174	0.155891	-0.124815	-0.0741529	0.137356
0.083933	0.13807	0.0918256	-0.0491861	-0.137501	0.0415775	0.159425	0.0835451	0.13412	-0.058227	0.0283659	-0.0171761	0.089611	0.0445008	-0.00418926	0.153714	-0.0645479	0.091658	0.0492565	-0.0163598	0.0399641	-0.0726651	0.0547984	-0.0582556	0.0698498	-0.0549328	-0.0126822	0.0278057	-0.130208	-0.0441321	-0.0410967	-0.047921
-0.148887	-0.0425696	0.0999468	-0.0855237	-0.0420493	-0.075902	0.0352089	-0.104493	-0.0380891	0.142597	0.0487382	0.106743	-0.0177907	-0.106167	0.143158	0.0625432	-0.0295191	-0.0108407	-0.116235	0.0983535	0.0713099	0.161722	-0.110186	0.0690422	-0.151994	-0.105856	0.0499899	-0.0794609	0.174139	0.0754187	0.127224	-0.103012
-0.0300509	-0.153276	0.0575501	-0.121878	0.0825152	-0.131954	-0.00921764	-0.0665307	-0.0988661	0.104843	-0.0390848	0.0565123	0.0243625	-0.0643536	0.0789775	-0.0173419	-0.0645661	-0.00612944	-0.0841565	0.0752629	-0.0583341	-0.0102153	-0.122838	-0.00983517	-0.111228	-0.110982	0.0996262	-0.045292	0.0394078	0.108227	0.0160071	-0.111114
0.0974309	0.172681	0.165026	-0.0370882	-0.201547	0.241899	0.232382	-0.00331685	0.155824	-0.170838	0.0359917	0.11645	0.00119642	0.0238251	0.0928519	0.20115	-0.0622059	0.18664	0.0356264	0.054501	0.037119	-0.1273	0.138886	0.155653	0.0255815	0.162547	-0.177011	0.0503336	-0.0838644	-0.0940168	-0.0208871	0.157708
0.10523	0.0539212	0.0681359	-0.0352308	-0.084632	0.126078	0.109955	0.0414965	0.109204	-0.102277	0.0606431	-0.00778885	0.10025	0.078824	0.0528235	0.00682332	-0.0902156	0.14311	0.0379664	-0.115751	0.00610806	-0.0491543	0.115851	0.0458971	0.0621929	-0.114501	-0.0776284	0.056691	-0.150652	-0.0392617	-0.0556576	-0.0681747
-0.10296	-0.0356623	0.0119058	-0.0678931	0.066763	0.00702084	-0.0716739	-0.0930159	-0.045468	0.129776	0.0227601	0.107926	-0.0330974	-0.0750338	-0.0139783	-0.0100629	0.0113122	-0.0588912	-0.0681314	0.0036138	-0.0416511	-0.025631	-0.0221287	0.0968885	-0.0188308	-0.0214876	0.104803	-0.0757548	0.0857735	0.150588	-0.00160585	-0.0301874
0.0739447	0.0424257	0.0256537	0.0942271	0.0312187	-0.00400961	0.0580047	0.0497019	0.144231	-0.0919163	-0.138212	-0.0792662	0.0798781	0.0710025	-0.117744	-0.0148443	-0.0812294	0.0227077	0.0908104	-0.0287329	0.154546	-0.107476	0.0254273	-0.0735034	0.0839609	0.0393104	-0.11984	0.0756164	-0.0731724	-0.113041	-0.141666	0.102732
0.173518	0.112083	0.159964	-0.0464477	-0.111691	0.138656	0.156208	0.0740801	0.140624	-0.0742833	0.112678	-0.0927369	0.16028	0.133903	-0.0543792	0.256137	-0.0652317	0.160282	0.0904605	-0.132163	0.0997567	-0.137475	0.109264	-0.0770524	0.134366	-0.089482	-0.0716219	0.0859338	-0.100377	-0.0514123	-0.0918428	-0.00528828
-0.115234	-0.160542	0.23033	-0.212268	-0.074682	-0.118393	-0.0900654	-0.21985	-0.0260026	0.249304	0.20004	0.223201	-0.0964108	-0.178357	0.122049	0.202746	-0.0567627	-0.0888826	-0.208735	0.0485887	-0.251804	0.107031	-0.106511	0.112548	-0.194531	-0.150584	0.221632	0.0195119	0.0449526	0.236038	0.168757	-0.168379
0.0621717	0.0846964	0.146754	0.0242389	-0.119273	0.118731	0.184058	-0.0403994	0.13123	-0.0885291	0.0649936	0.11649	0.0445672	-0.0453441	0.0781259	0.195813	-0.0825086	0.0934516	-0.000681025	-0.00672073	-0.0441166	-0.0678058	0.0796071	0.0496326	-0.0496924	-0.0576638	0.00131501	0.067037	-0.188395	0.0570967	0.00730294	0.0447415
0.0172499	0.036443	-0.0433564	0.0660369	-0.0874648	0.0427771	0.0764169	0.0514599	0.011972	-0.077738	-0.0419026	-0.0732434	0.0694538	0.0422301	-0.0410768	0.0106707	-0.0693471	0.0545037	0.0382375	-0.0196763	0.0756016	-0.0896029	0.0283576	0.000288907	0.0185715	0.00631172	-0.0576436	0.0920164	-0.048572	-0.0368857	-0.0777005	0.0510539
0.0406777	-0.0458015	-0.027375	-0.0890239	0.100845	-0.0894079	0.124367	0.106727	-0.0596646	0.00268111	-0.07104	0.173287	0.105427	0.0125997	-0.0492833	0.0337589	-0.188549	0.140769	0.0329871	0.0212465	0.100974	-0.104376	-0.0633913	-0.0988401	-0.0269388	-0.0595381	-0.0420645	0.0472251	-0.0243543	0.0925089	-0.132355	-0.0199005
0.0359605	0.104383	-0.0156332	0.046321	-0.0570344	0.03492	0.0502602	0.10443	0.0198257	-0.106921	-0.0768742	-0.0750992	0.0147503	0.0754088	-0.12693	0.0116018	0.000504078	0.106987	0.0679456	-0.0462123	0.064577	-0.0650563	0.0519493	-0.119109	0.0266298	0.0803452	-0.0753121	0.0628452	-0.0997129	-0.101363	-0.102044	0.0213514
-0.0341267	0.0300056	0.00208266	-0.0223207	-0.0821972	0.0399719	0.0800373	-0.121685	-0.0506134	0.120887	0.106468	0.0718221	-0.0812702	-0.0633959	0.0935019	0.0662169	-0.196836	0.00967256	-0.106437	-0.152788	-0.126969	-0.0835085	0.0794675	0.12861	-0.0826709	0.0457079	0.0876894	-0.0477321	0.0250802	0.139563	0.0385383	-0.137681
-0.154015	-0.132378	-0.0330144	-0.155068	-0.0454562	-0.165441	-0.0132705	-0.135473	-0.0851351	0.145271	0.0519104	0.0506707	0.0227566	-0.0484692	-0.0144728	0.107324	-0.120622	-0.0139429	-0.190788	0.179097	0.0202854	0.154611	-0.0251921	0.0256104	0.00335191	-0.124785	0.0998332	-0.0484815	0.0222084	0.20375	0.14438	-0.203209
-0.0764044	0.0972565	-0.15068	0.0963287	0.124895	0.109874	-0.146542	0.152625	0.00637582	-0.0834944	-0.0719957	-0.128229	-0.0139331	0.012531	-0.0975084	-0.0928359	0.102788	-0.14903	0.12069	-0.134131	0.0527241	0.112015	0.0550513	-0.0483404	0.139715	0.074848	-0.0823586	-0.0215457	0.0501507	-0.0789408	-0.131179	0.128345
0.00821746	-0.0369856	0.211469	-0.0910743	-0.0906857	0.0292833	0.122716	-0.122816	0.0290521	0.0213288	0.281603	0.0545086	0.010295	-0.0881694	0.186983	0.14295	-0.0830602	0.0908635	-0.0686915	-0.0489573	-0.170139	0.0721783	-0.0145683	0.122206	-0.0518294	-0.117332	0.100186	0.00944232	-0.12171	0.0857828	0.0955416	0.0287262
0.0331594	-0.0786967	0.076369	0.0520488	-0.00409628	-0.0506988	-0.00859374	-0.0481678	-0.0392386	-0.0169751	0.018841	-0.0263775	-0.00486426	-0.00901945	0.0159228	-0.0608259	-0.00312317	0.0113178	0.0105696	0.0732473	0.00353673	0.058514	-0.0260942	0.0382761	-0.00283174	0.0305239	0.054342	-0.0314866	-0.0138844	0.00704707	-0.0416709	0.061195
0.011451	0.00133056	-0.166273	0.141761	0.124425	-0.053704	0.00647456	0.155541	0.0374523	-0.108022	-0.23138	-0.0809857	0.0199677	0.104157	-0.141029	-0.177445	0.10192	0.0618763	0.172898	0.105673	0.098557	-0.0704721	0.0704847	-0.14788	0.0478328	0.134666	-0.107673	0.0553825	0.103087	-0.123016	-0.0943644	0.148668
0.0130559	0.102419	-0.0929153	-0.00811523	-0.0388053	0.0633112	-0.114866	0.076695	0.151807	-0.145288	0.073103	-0.136005	-0.0103645	-0.0462971	-0.120582	-0.0444391	0.15454	-0.105506	0.0177167	-0.106837	0.0468108	0.0329699	0.0751193	0.0235835	0.00682377	0.150425	0.0487633	-0.0714489	-0.123382	-0.0875001	0.0630217	0.0823872
0.0183483	-0.100667	-0.161377	0.113348	0.137257	-0.192725	-0.161361	-0.0413412	-0.0245798	-0.046057	-0.165258	-0.138395	-0.0567043	0.0153413	-0.0309731	-0.198942	0.0619361	-0.125234	0.0719993	0.186811	-0.0767856	0.160854	-0.0372923	0.0956932	0.0555268	0.0416044	-0.0112795	-0.0342105	0.0461056	-0.149612	-0.00200469	0.0852102
0.129354	-0.163626	-0.070559	0.0224555	0.0985641	-0.124723	0.189901	0.0760805	-0.0992598	-0.0448688	-0.088119	-0.0267781	0.0714057	0.0874505	-0.118825	0.0879175	-0.0787803	0.140919	0.0766802	-0.0698791	0.135801	-0.172618	0.144986	-0.148698	0.0582385	-0.112721	-0.106064	0.164291	-0.0317938	-0.0366423	-0.0938661	0.141682
-0.170515	-0.222349	0.194908	-0.0940675	-0.134957	-0.141907	-0.0253907	-0.171115	-0.0555175	0.230398	0.208722	0.118114	-0.210165	-0.23434	0.0841493	0.139528	-0.168027	0.0302222	-0.210631	0.120639	-0.163555	0.120927	-0.143426	0.210608	-0.0816392	-0.122652	0.176191	-0.083581	-0.000646153	0.177064	0.221933	-0.0991693
0.117208	0.117484	0.133943	0.00165477	-0.0884554	0.0581036	0.0488295	0.0430631	0.122387	-0.067297	0.00297675	-0.0395995	0.0633079	0.095709	-0.0306928	0.149349	-0.0653508	0.0770847	0.13221	-0.110001	0.0342011	-0.134961	0.0693247	-0.0831229	0.110148	0.00908092	-0.0342765	0.113254	-0.0457238	-0.0698136	-0.0696483	0.126336
0.0200788	0.0864073	0.097239	-0.136141	0.00198631	-0.0377719	0.00684819	0.0667693	0.0526926	-0.0371713	-0.103457	0.0531955	0.013433	-0.0510893	-0.12233	-0.0162544	0.055385	0.00653131	-0.0230611	0.169479	-0.0175357	0.111131	-0.0413704	-0.028673	-0.0723185	-0.140695	-0.0142063	0.030188	-0.0151949	0.0301435	0.0854692	-0.065207
-0.135721	-0.0934304	0.101484	-0.022089	0.0702994	-0.110615	-0.160051	-0.112311	-0.0950928	0.164328	0.107524	0.124106	-0.156284	-0.130817	0.146283	0.0987191	-0.0436803	-0.158401	-0.16663	0.0103068	-0.158188	0.156445	-0.113977	0.165104	-0.066234	-0.155421	0.170935	-0.0810728	0.0639001	0.155789	0.159563	-0.169061
-0.091695	-0.0681697	0.0580696	0.00645011	0.0408437	-0.0353196	-0.0544992	-0.142138	-0.150563	0.163273	0.112599	0.131274	-0.134118	-0.0781802	0.163405	0.0827603	-0.0500989	-0.0547249	-0.101593	-0.016484	-0.095687	0.100438	-0.115176	0.0935813	-0.107145	0.0160919	0.104827	-0.12721	0.0930646	0.162767	0.0762353	-0.0780862
-0.0264704	-0.0250554	0.168564	-0.112077	-0.179581	-0.117998	0.0494809	-0.150416	0.0451979	0.147345	0.0812955	0.0804818	0.0223255	-0.0603666	0.142798	0.147622	-0.110425	0.0550152	-0.0377663	0.0581027	0.0118563	0.0818492	-0.122305	0.0888213	-0.112972	-0.161844	0.0162675	-0.102435	-0.0766642	0.0559402	0.0557425	-0.0908414
0.098453	-0.0782939	-0.241617	0.137456	0.236082	-0.093908	0.15749	0.2067	-0.155272	-0.0772102	-0.114423	-0.0469141	-0.0522174	0.11707	-0.0512189	-0.052755	-0.111971	0.0545051	0.143024	-0.0610374	0.113316	-0.18496	0.0417026	-0.205905	-0.0115309	-0.0446868	-0.0878655	0.200151	0.0847645	-0.0214623	-0.128691	0.110815
-0.0829832	-0.0316314	0.0226074	-0.0320669	-0.00538852	0.0029777	-0.0419789	-0.120239	-0.0479203	0.0733335	0.18211	0.137573	-0.0258495	-0.0486116	0.147056	0.0525777	-0.127904	-0.0796508	-0.0504563	-0.0222079	-0.0361183	0.00474324	-0.0224027	0.0424028	-0.129163	-0.0298332	0.0371312	-0.0896504	0.0353523	0.0862049	-0.00754561	-0.0348122
0.0677739	0.0805961	0.051421	0.00771583	-0.0937781	0.07158	0.0440402	0.132683	0.0515903	-0.0519961	-0.0449767	-0.0531864	0.0489487	0.0319491	9.85963e-05	0.0787055	-0.0414457	0.068824	0.0321641	-0.00819558	0.0782593	-0.107951	0.0433198	-0.0881045	0.0330411	0.0101178	-0.0424488	0.0514131	-0.122783	-0.0767085	-0.100842	0.0985281
0.247773	0.0459188	-0.0587568	-0.0585335	0.05325	-0.0132509	0.175228	0.139684	-0.130091	-0.0143142	-0.0201161	0.0489316	0.0104855	0.11718	-0.110773	0.0742479	-0.0816991	0.110013	0.212138	0.0143266	0.145021	-0.235324	0.0712478	-0.141075	-0.0429774	-0.0961626	-0.113143	0.14575	-0.0472697	0.060692	-0.153405	0.0371548
0.063273	-0.105383	-0.128669	0.0637848	0.205389	-0.187216	0.172716	0.178401	-0.0565196	0.0068458	-0.157406	0.0665464	0.172401	0.177692	-0.118683	-0.134395	-0.157264	0.174662	0.0719141	0.0272214	0.193698	-0.15341	0.109703	-0.169906	-0.0708298	0.0526233	-0.128266	0.161394	0.079035	-0.0815794	-0.174412	0.0674773
0.115202	-0.0694414	-0.127521	-0.11638	-0.0112122	-0.0969558	0.0778168	0.115084	3.42664e-05	0.134012	-0.0437553	-0.046882	0.13471	0.0561526	-0.00537254	0.0356573	-0.0821009	0.154414	-0.0445745	0.134173	0.155552	-0.0359863	0.0182303	-0.112524	-0.0185277	-0.111305	-0.0697097	-0.0467641	-0.0881828	0.0194939	-0.166668	-0.0799267
0.132276	0.153353	0.159603	0.0670392	-0.195148	0.114008	0.162104	0.127874	0.0574989	-0.0998849	0.205293	-0.12459	0.100205	0.0890444	0.10865	0.148574	-0.0730242	0.106806	0.107878	-0.1158	0.0471885	-0.166144	0.113895	-0.138473	0.0557804	0.0186492	0.0378759	0.0251208	-0.106946	-0.0930154	-0.0700072	-0.00833051
-0.101172	-0.0885421	-0.109072	-0.0492831	-0.0168798	-0.131786	-0.00720518	0.0737179	-0.00452979	0.0800395	-0.0640731	0.00396406	-0.0418704	0.00580459	-0.101877	0.0441968	0.0352561	-0.0126745	-0.0537774	0.223415	0.0581324	0.0671475	-0.147435	-0.0167531	-0.0103867	0.133707	-0.0475494	-0.0515954	0.118519	0.0479571	0.038474	-0.0764588
-0.0505998	-0.127112	0.022025	-0.226837	0.0719141	-0.179975	0.129798	-0.0182255	-0.123641	0.154911	0.0301893	0.166761	0.0269015	-0.0575251	0.053121	0.0133605	-0.0566057	0.0632231	-0.128052	0.129405	-0.0614774	0.0997262	-0.0953889	0.0399748	-0.0244181	-0.0709268	0.0305125	-0.0879542	0.127455	0.0722013	0.0347512	-0.0436258
0.176288	0.210248	0.0915134	0.099991	-0.193831	0.216377	0.206671	0.170211	0.192559	-0.218756	0.114499	-0.161531	0.107225	0.161445	-0.0303601	0.154329	-0.0498859	0.134686	0.223657	-0.212858	0.075224	-0.0846915	0.219702	-0.117958	0.162889	0.0725244	-0.0120308	0.191415	-0.0570944	-0.106803	-0.167977	-0.00301903
0.154398	0.130253	0.181246	-0.00945075	-0.131389	0.183323	0.160415	0.0222139	0.128435	-0.117695	0.15601	-0.0928257	0.0811033	0.112389	0.0234986	0.109016	-0.131454	0.0870563	0.027792	-0.224697	-0.0253604	-0.164108	0.174434	0.0332661	0.0512907	-0.135432	-0.0491268	0.14015	-0.175084	-0.00203251	-0.0688407	0.0151135
-0.0600637	-0.056936	-0.0351929	-0.0899091	0.0162949	-0.0740354	-0.0179648	-0.0349653	0.0790181	0.0545218	-0.0858508	0.120586	0.00321333	-0.0803534	-0.162611	-0.0818055	0.0661174	-0.0164609	-0.0877346	0.147632	-0.033025	0.0875265	-0.0668813	0.0276562	-0.0984465	-0.0923861	0.0775055	0.0358403	0.0692454	0.0760811	0.0478135	-0.0688021
0.034352	-0.0710002	-0.134617	-0.0474917	0.157312	-0.0669964	0.0960348	0.0993565	-0.0851581	0.0153952	-0.236033	0.0939836	0.0671945	0.0138159	-0.130718	-0.178682	-0.0693639	0.00847903	0.0406877	0.0914945	0.165568	-0.0895934	0.0290772	-0.158633	0.0153182	0.0331859	-0.219253	0.0774725	0.083313	0.0482458	-0.129068	0.0465475
0.0304645	-0.0197589	0.119711	-0.00216265	-0.00010398	0.126218	0.0154216	-0.0458547	0.0230419	-0.0109064	0.0321743	0.00802722	0.0133031	0.0229079	-0.00718511	0.131582	-0.040214	0.00117205	-0.04292	-0.0392863	0.0496999	-0.0985643	0.114595	0.000830786	0.0388146	0.0852432	0.0193374	-0.00207148	0.0190799	-0.0296083	-0.0221597	-0.0344538
0.0804399	0.155689	0.0781989	0.057056	-0.111358	0.112861	0.0999461	-0.0316522	0.192127	-0.171798	-0.052279	-0.0418789	0.00414336	0.107166	0.00303192	0.0106106	0.00464608	0.126352	0.0815308	0.106423	0.136362	-0.0801443	0.155335	0.00173172	0.0996252	0.148388	-0.202752	0.0375134	-0.0542088	-0.168691	-0.108067	0.201525
-0.0514475	-0.0623358	0.0170822	0.0854101	0.065918	-0.0445434	-0.180558	-0.0753568	-0.12662	-0.0264422	0.0214782	0.0868326	-0.0360684	-0.0511458	0.0909994	-0.0996626	0.110121	-0.0335083	0.0192483	0.03132	-0.0582842	0.0758672	0.00144851	-0.0297358	0.0325401	-0.0168752	0.061269	-0.0796809	0.0475733	-0.0229756	-0.0177312	0.0376399
-0.0186046	-0.0535331	-0.100138	0.025907	0.101495	-0.07512	-0.0113053	0.0233965	-0.0262454	0.0116936	-0.0691285	-0.0196716	-0.0249722	-0.0610169	-0.0683193	-0.100116	0.0656396	-0.031749	-0.0216693	0.0588237	-0.0360915	0.0143873	-0.0189295	-0.0327885	0.00494437	0.0687485	0.0283948	-0.0207221	0.0916948	0.0184871	-0.00797364	0.00948352
0.0999422	0.165283	-0.154981	-0.095237	-0.0401873	0.0314874	0.122049	0.19022	0.107632	-0.0621645	-0.143789	0.0191992	0.110151	0.0902691	-0.128729	-0.0453295	-0.0981036	0.181564	0.0678626	0.0198023	0.170946	-0.131207	0.0354333	-0.138024	0.0467968	0.129949	-0.134133	0.0943847	-0.0287586	-0.144935	-0.116471	0.130898
0.00468486	-0.0639778	0.0895493	-0.0830195	-0.125388	-0.0902617	0.0988173	-0.100488	-0.0496047	0.0382712	-0.0251717	0.0628488	0.0714333	-0.077111	0.126794	0.0584313	-0.073069	0.0760621	-0.0632734	0.102198	-0.0332406	0.116787	-0.0690935	-0.0321972	-0.0673941	-0.0540173	-0.00409263	-0.0822684	-0.0310517	0.0508265	0.0770539	-0.0991528
-0.119372	-0.0349948	0.14788	-0.162071	-0.0233286	-0.0533582	-0.107021	-0.117438	-0.0894756	0.0608771	0.150998	0.0689087	0.0112286	-0.0707311	0.125423	0.0920524	0.0417929	0.0330162	-0.0665239	0.0197708	-0.149769	0.010016	-0.126763	0.153453	-0.00462192	-0.0636925	0.12494	-0.153166	-0.0303152	0.0833542	0.0474273	-0.0539188
-0.156912	-0.117275	0.111375	-0.106882	0.073889	0.00160684	-0.0816501	-0.109226	-0.165417	0.0939521	0.125392	0.171667	-0.094341	-0.123693	0.126696	0.121795	-0.0475142	-0.082974	-0.156709	0.0475764	-0.170475	0.0634018	-0.0616542	0.129952	-0.100846	-0.0275299	0.0886434	-0.141619	0.0593814	0.179492	0.0854674	-0.184316
-0.0274442	-0.0214356	-0.0955218	0.132231	0.119589	0.00638894	-0.119245	0.0160025	-0.0459344	-0.0869827	-0.0776554	-0.160584	-0.0668382	-0.0170667	-0.0509067	-0.146099	0.208881	-0.181864	0.0711977	-0.0281538	-0.0895106	0.156031	-0.0196742	-0.0334744	0.142273	0.203363	0.132135	-0.0283124	0.0700652	-0.100844	-0.0312526	0.140044
0.107971	0.0429228	0.287204	-0.00764537	-0.144993	0.146662	0.127547	-0.138566	0.00391666	0.00507195	0.273844	0.0948919	0.0136639	-0.0427124	0.272251	0.0974763	-0.174431	0.129094	-0.0387864	-0.115143	-0.173088	-0.170358	0.161289	0.214329	-0.125286	0.0340271	0.0261116	-0.0303242	-0.115372	0.02026	-0.0229973	0.0165522
-0.0834531	-0.048935	0.146819	-0.132815	-0.0660946	-0.00315732	-0.02817	-0.0697814	-0.0282776	0.138591	0.18289	0.155402	-0.0536619	-0.113283	0.12807	0.13589	-0.0681221	-0.016595	-0.111404	0.0856685	-0.0922774	0.0946935	-0.0609263	0.143534	-0.116783	-0.0847024	0.144278	-0.069588	-0.105735	0.124617	0.0610022	-0.025016
-0.00260304	-0.0651764	0.0624624	-0.176068	-0.00842742	-0.0368402	-0.00180997	0.0183648	-0.129319	0.0792726	-0.0123544	0.125675	0.0495231	0.00987851	0.001126	0.047934	-0.086159	0.0416363	-0.108973	0.152285	-0.0128164	-0.050665	-0.0182646	-0.0244814	0.0380475	-0.0946005	-0.0317887	0.0175351	-0.0596634	0.0900417	-0.00773172	0.0238365
-0.0634676	-0.147878	-0.0858759	0.0804865	0.154537	-0.166271	-0.172621	-0.153443	-0.0726849	0.0863019	-0.0928707	0.0489654	-0.139751	-0.0637693	-0.0239246	-0.109776	0.0969486	-0.140015	0.00314814	0.156378	-0.108871	0.084137	-0.0685719	0.0735336	-0.0411358	0.0930447	0.0680337	-0.0141336	0.011514	0.0453886	-0.0246429	0.00373983
0.050732	-0.0293317	-0.229911	0.092004	0.163311	-0.119182	-0.0079271	0.086511	-0.0871553	-0.081204	-0.172681	0.0511851	0.0227241	0.190087	-0.200886	-0.0977718	0.16123	-0.0225402	0.126314	0.0953403	0.043243	-0.122471	0.0125516	-0.13137	0.142985	0.145005	-0.153945	0.0137997	0.168856	-0.171954	-0.0624987	0.0491553
-0.088331	-0.142611	0.0931287	-0.102324	0.036689	-0.0206985	-0.023785	-0.202542	-0.166226	0.125317	0.100981	0.152489	-0.160945	-0.107081	0.116014	0.0285008	-0.00392357	-0.0643757	-0.186452	0.0109761	-0.126621	0.046618	-0.0251244	0.178933	-0.199729	-0.0746048	0.13593	-0.0587512	0.0661926	0.151749	0.128357	-0.0980956
0.0262955	0.0277817	-0.150599	0.0446652	-0.0605986	0.0526487	0.0344658	-0.0148922	0.0656245	-0.00886566	-0.141437	-0.100452	0.0931339	0.0861237	-0.086669	-0.111239	0.0377248	0.0841045	0.086946	-0.0565964	0.0370598	-0.0711406	0.0526773	-0.084861	0.00218878	-0.114106	-0.0496183	0.0301894	-0.0884741	-0.11865	-0.000401212	0.0494217
0.104761	-0.0340574	-0.07452	0.0377989	0.111601	-0.028429	0.131453	0.0797416	-0.0671256	-0.104529	-0.0162611	0.118886	-0.0519203	0.18632	-0.0971569	0.0667111	-0.17936	0.0835959	0.117627	-0.0443312	0.113314	-0.147947	0.115076	-0.135059	-0.0151333	-0.115474	-0.175449	0.122063	-0.121921	-0.0229356	-0.163364	0.048736
0.0555915	0.137984	0.0481888	0.159888	-0.0624626	0.158878	0.0977262	0.107204	0.138211	-0.153766	0.0830329	-0.163232	0.113054	0.178711	0.0250793	0.0234611	0.0197374	0.0754351	0.0831931	-0.177186	0.0028845	-0.132706	0.0536042	0.0221305	0.0786762	0.0745194	-0.115004	0.0700447	-0.127466	-0.11085	-0.069663	0.106045
-0.0333141	-0.182917	-0.115396	-0.0901333	0.197004	-0.227375	-0.0890697	0.0615115	-0.260225	0.0846506	-0.0949083	0.126932	-0.00246679	-0.0217781	-0.108329	-0.0882752	-0.0334222	0.0438492	0.0566474	0.110095	0.0330808	-0.0405409	-0.189402	-0.0990836	0.0221379	-0.0865073	-0.0376762	-0.0283546	-0.00199341	-0.00515903	-0.0161764	-0.0839041
-0.166857	-0.147302	0.188432	-0.180684	0.0234313	-0.0970137	-0.0538007	-0.170842	-0.0864969	0.196279	0.177212	0.144669	-0.215208	-0.212588	0.20252	0.113097	0.0387468	-0.0660821	-0.162974	0.128581	-0.201772	0.187602	-0.150632	0.2105	-0.170267	-0.16069	0.220899	-0.158424	-0.00980782	0.211565	0.2328	-0.111622
-0.220515	-0.191263	-0.0332211	-0.0878809	0.183202	0.0196346	-0.202948	-0.155722	-0.243706	0.102255	0.0792835	0.0288427	-0.162987	-0.0943919	-0.0158099	0.0123448	0.155188	-0.16032	-0.108042	0.0022404	-0.127393	0.0924357	-0.128468	0.173961	-0.15736	0.0282306	0.131898	-0.13435	0.141268	0.145117	0.14261	-0.155811
-0.148022	-0.188358	0.107547	0.0209339	0.0945966	-0.173656	-0.141671	-0.146324	-0.10985	0.117571	0.177326	0.121163	-0.115136	-0.132267	0.18485	-0.0319926	0.0238766	-0.14881	-0.158402	0.184466	-0.151332	0.0836252	-0.183792	0.200803	-0.174798	-0.0496309	0.151129	-0.153497	0.0793767	0.179094	0.124386	-0.161863
-0.170258	-0.166346	0.151059	-0.130114	0.0185762	-0.0354765	-0.144941	-0.208069	-0.20397	0.147745	0.252341	0.139928	-0.146861	-0.15609	0.214246	0.12874	-0.106729	-0.0526862	-0.199977	0.0260895	-0.191574	-0.00268885	-0.115924	0.18788	-0.157358	-0.143097	0.263536	-0.227985	0.0739361	0.17724	0.128302	-0.24031
-0.143592	0.00431836	-0.142079	0.0809507	0.10302	-0.111928	-0.183569	-0.0674528	-0.0392994	-0.0512101	-0.168792	-0.135239	-0.0226392	0.0221588	-0.121718	-0.195571	0.202964	-0.200512	-0.0491077	0.0982924	-0.0487964	0.199568	-0.0751464	-0.013047	0.0910285	0.159255	0.162653	-0.148705	0.152337	-0.134824	0.0976479	0.0983039
-0.105271	-0.0921347	0.0603288	-0.0869172	0.144129	-0.148436	-0.149113	-0.107912	-0.122638	0.0943396	-0.0678843	0.102462	-0.131363	-0.0933518	-0.0817669	-0.0625897	0.0762613	-0.170401	-0.205943	0.146413	-0.0780731	0.147421	-0.0975305	0.105371	-0.127184	0.0755096	0.159804	-0.109592	0.123762	0.130175	0.102684	-0.0145681
-0.0338652	-0.0886467	0.179473	-0.110664	-0.119777	-0.185343	0.0984643	-0.059789	0.00777051	0.10249	-0.044255	0.184313	0.0123985	-0.0870785	0.0792049	0.143989	-0.119349	-0.0163216	-0.0963999	0.111866	0.026413	0.165888	-0.10108	-0.108046	-0.114964	-0.130873	-0.0445551	0.0162427	0.0855493	0.192639	0.111671	-0.160681
0.0785716	0.081527	-0.0711219	-0.0069877	0.0392818	0.0202177	0.138071	0.14316	0.0886988	-0.0544888	-0.164425	-0.0397659	0.122321	0.0985644	-0.153389	0.0516612	0.055847	0.0456431	0.0447108	0.0733663	0.148258	-0.00377568	0.0539465	-0.140792	0.118425	0.0854155	-0.0976292	0.0117397	-0.0268876	-0.0805248	-0.12865	0.0494653
0.0126871	0.0224753	0.0684087	0.00255437	-0.0465499	0.0762561	0.021369	0.0430902	0.0782902	0.00721519	0.013649	0.0112808	0.0310414	0.0581118	0.00270854	0.00409336	-0.0246856	0.0260985	-0.00577749	0.00286807	0.0190996	-0.0451823	0.00388297	-0.0521121	0.0680115	-0.00289146	-0.0250289	0.0634635	-0.00246711	0.00321364	-0.0638774	0.0448371
-0.0771257	-0.0454746	-0.153554	0.119691	0.0771337	-0.0574302	-0.106488	0.0847552	-0.00775003	-0.161462	-0.21213	-0.217983	-0.0184386	0.0687017	-0.163014	-0.140846	0.111832	-0.105885	0.0934976	0.0276895	0.0704268	0.115562	-0.0564088	-0.0516308	0.197939	0.14354	-0.0700731	0.0520284	0.100014	-0.146413	-0.0544093	0.0277387
-0.136275	-0.188109	0.0863297	-0.0485773	0.122123	-0.170735	-0.11237	-0.177192	-0.114559	0.105588	0.0948713	0.129238	-0.155137	-0.114083	0.0841007	0.0753317	0.0230645	-0.124168	-0.203816	0.12331	-0.109003	0.12428	-0.143458	0.15191	-0.160448	-0.0947656	0.201274	-0.178407	0.152567	0.127049	0.131323	-0.14124
-0.0772557	0.00656338	0.0466727	-0.0910317	-0.111981	-0.0594091	0.136145	-0.0245466	0.120239	0.0755321	0.102176	0.0270219	0.0260704	-0.0416165	0.0105763	0.0962406	-0.0596777	0.128892	0.0165259	-0.0260614	-0.0294024	-0.00922127	-0.0219776	-0.0518609	0.0571876	-0.115173	0.039547	0.055239	-0.0609089	0.0624984	0.0347236	-0.129609
-0.143491	-0.207589	0.173566	-0.0962527	0.193881	-0.168964	-0.213127	-0.195682	-0.184378	0.203793	0.14387	0.204724	-0.19583	-0.168085	0.153555	0.129087	0.0174576	-0.188854	-0.216082	0.15056	-0.182563	0.177709	-0.164242	0.210115	-0.165769	-0.0184088	0.221829	-0.222887	0.134735	0.206169	0.14797	-0.181057
0.0699295	0.0632299	0.128072	-0.0586102	-0.149387	0.0464747	0.0452844	-0.000525481	0.139203	-0.0468737	0.209795	-0.071427	0.0560257	-0.0244314	0.086131	0.155778	-0.0766949	0.10158	0.023578	-0.0784543	0.0412117	0.0184494	0.0812876	0.0441287	-0.0268279	-0.0988511	0.00364176	0.0497427	-0.0966889	0.113341	-0.0124271	-0.0453859
-0.0748843	-0.108752	0.0276301	-0.0473272	0.0660659	0.00840651	-0.108829	-0.167992	-0.201806	0.150447	0.177243	0.131654	-0.141503	-0.130243	0.203984	0.0166099	0.0781127	-0.0781137	-0.135146	-0.012051	-0.175897	0.000404917	-0.102351	0.167456	-0.0662091	-0.00559457	0.140843	-0.131741	0.08497	0.154061	0.02881	-0.0364881
-0.00273801	0.0712352	-0.184948	0.0297337	0.0735953	0.0578317	-0.0787735	0.029104	-0.0219062	-0.136456	0.0190772	-0.105627	0.0465288	0.110778	-0.0228196	-0.169671	0.211887	-0.0688052	0.0608965	-0.133501	-0.0487307	0.102234	-0.0390363	-0.0157137	0.0972714	0.188154	0.0335736	-0.142436	0.0777786	-0.151767	-0.0829129	0.119961
-0.158097	-0.0996991	0.110008	-0.0676745	0.126925	-0.076903	-0.167359	-0.118041	-0.134078	0.1478	0.0710976	0.102424	-0.158835	-0.162989	0.134044	0.0659853	-0.0193042	-0.165803	-0.122495	0.0920364	-0.0612873	0.068472	-0.143593	0.130902	-0.156747	0.00573823	0.0539974	-0.0447184	0.102515	0.154104	0.111372	-0.136403
-0.156988	-0.0813883	0.136306	-0.173806	0.16753	-0.0447351	-0.0612888	-0.162542	-0.149101	0.0761058	0.177511	0.179905	-0.14402	-0.169564	0.109998	0.0951355	0.0829338	-0.124235	-0.127765	0.0773266	-0.152827	0.159267	-0.0756359	0.080996	-0.082292	0.0258293	0.060856	-0.137105	0.0743765	0.0966271	0.104491	-0.168339
0.196299	0.131969	0.140825	0.0271543	-0.197074	0.136848	0.112162	0.0871916	0.15615	-0.0968323	0.0311731	-0.115917	0.159926	0.125807	0.144664	0.117079	-0.127893	0.166265	0.12647	-0.178411	0.0611844	-0.146915	0.169286	0.0350294	-0.052509	0.10598	-0.129468	0.125793	-0.161901	-0.139732	-0.0824743	0.131189
-0.135138	-0.0728827	0.140908	-0.122132	-0.040155	-0.0987906	0.0567039	-0.119196	-0.0559675	0.157454	0.0751256	0.064791	-0.0899153	-0.143535	0.104638	0.0947848	-0.145646	0.0125153	-0.00685232	0.0669378	-0.0854832	0.136963	-0.0970495	0.0831464	-0.097428	-0.131073	0.0122022	-0.121481	0.112046	0.0933315	0.0427657	-0.13899
-0.111655	-0.0280728	-0.071379	0.0420299	0.0589739	0.0218073	-0.180299	-0.125337	-0.105947	0.00746006	-0.0212406	-0.0624167	-0.0734406	-0.137127	0.062728	-0.127302	0.148706	-0.157223	-0.0583805	-0.0490462	-0.139762	0.107931	-0.197727	0.148913	0.0108349	0.0375178	0.171302	-0.193489	0.185107	-0.0392886	0.128689	0.0178187
-0.0460912	-0.0862743	-0.119351	0.0959674	0.112756	-0.0453948	-0.0229165	-0.0456318	-0.0257842	-0.00678435	-0.153178	-0.0226357	-0.0608607	-0.0297066	-0.0793502	-0.121299	0.0645606	-0.0286892	0.0333826	0.132421	0.0292555	-0.0355854	-0.0942536	0.0300829	0.0178335	-0.0481752	0.0243159	-0.00407151	-0.0260559	-0.0563522	-0.0122885	0.0201904
-0.108155	-0.0448256	-0.250149	0.152402	0.122433	-0.118712	-0.234385	0.0497196	-0.0350229	-0.160266	-0.31027	-0.0990255	0.03918	-0.0318641	-0.184096	-0.243361	0.188203	-0.187858	0.0856881	-0.0599663	0.00373586	0.0805153	-0.0897254	0.0887607	0.166515	0.18126	0.00650931	-0.0642321	0.0624387	-0.218493	-0.0438586	0.119153
-0.0707059	-0.0435698	0.130306	-0.0730604	-0.0559794	-0.0880671	-0.05201	-0.0591431	-0.0841158	0.0918277	0.148773	0.113463	-0.0534463	-0.0875509	0.0513369	0.133851	-0.128625	-0.0851914	-0.148977	0.0819766	-0.105597	0.0889889	-0.0972199	0.0599076	-0.0935976	-0.0912055	0.135879	-0.0684701	0.076211	0.104634	0.123721	-0.145163
0.093121	0.0883859	-0.020852	0.156436	-0.073966	0.0425333	0.0326102	0.146855	0.0262137	-0.118795	-0.0899165	-0.0727008	0.0417301	0.100011	-0.143875	0.0233653	-0.0372842	0.0120892	0.114819	-0.0175892	0.0757437	-0.0631984	0.0377659	-0.103912	0.0775411	0.116063	-0.103313	0.111718	-0.100755	-0.0846856	-0.110339	0.112123
-0.0246576	-0.011835	0.0524273	-0.0748807	0.0526822	-0.056096	0.0119812	-0.112264	-0.0986548	0.0406762	0.0940935	0.0937913	-0.062917	-0.0578483	0.0648278	0.0552491	-0.0597341	-0.0170096	-0.0907439	0.0490296	-0.071438	-0.0459858	-0.0496308	0.0845847	-0.050968	-0.0285793	0.107077	-0.0207957	-0.0125525	0.166432	0.0600609	-0.107482
-0.0146931	0.123741	0.118394	0.0541048	-0.135871	0.123178	0.108281	-0.0751568	0.0385137	-0.104254	-0.0272396	0.0701528	0.0769884	0.157295	0.084325	-0.0661876	-0.0856483	0.1013	0.00252031	0.118531	0.0769129	-0.0487526	0.162421	-0.051601	0.0874203	0.0784109	-0.0857968	-0.083397	-0.110731	-0.109746	-0.0410367	0.067099
-0.0577062	-0.0282111	0.0725432	-0.0560389	0.0619126	0.00829167	-0.0876872	-0.126356	-0.0932733	0.0603208	0.0996241	0.150745	-0.0696716	-0.0970565	0.0489256	0.0678748	-0.017195	-0.0375529	-0.122948	-0.0143714	-0.0900392	0.0283768	-0.0364798	0.0568092	-0.109183	-0.0532072	0.12967	-0.0807758	0.0309335	0.0753127	0.0671874	-0.0942709
0.0820474	0.0906865	-0.0753188	-0.0404916	0.175827	-0.0750604	-0.0865659	0.058835	-0.0278682	-0.125806	-0.0279728	-0.0711127	-0.0243242	-0.136671	-0.051115	-0.144734	0.128079	-0.152798	-0.132195	-0.0118981	0.0187659	0.102629	-0.20518	0.0657522	-0.0247612	0.163222	0.0106603	-0.0953536	0.0742744	-0.0905602	0.115241	0.0622048
-0.193147	-0.0712031	-0.112946	0.13854	0.214466	0.0128435	-0.128714	0.0840958	-0.0481415	-0.155299	-0.15243	-0.111101	-0.129843	0.058072	-0.160171	-0.242145	0.130344	-0.146347	0.11664	-0.0668285	-0.0286747	0.194097	-0.134572	0.032159	0.163116	0.141769	0.0368083	-0.109089	0.169353	-0.163617	-0.0641526	0.108518
-0.117637	-0.188895	0.138541	-0.107488	0.0364485	-0.186881	0.00235634	-0.13518	-0.0904447	0.144642	0.122689	0.215505	-0.210242	-0.221066	0.0602646	0.132834	0.0420577	-0.046921	-0.155339	0.207529	-0.175212	0.154018	-0.184667	0.160345	-0.136011	-0.144377	0.0947771	-0.182155	0.130684	0.121516	0.178537	-0.198094
0.00293788	0.0159035	-0.0595258	0.110592	0.0339588	-0.0747251	0.028691	0.014825	0.0194578	-0.0321265	-0.121232	-0.0457669	0.0599344	-0.00840243	-0.0383363	-0.0885235	0.0087307	-0.0154466	0.0636086	0.00503566	0.024709	-4.27719e-05	0.0459654	-0.101023	0.0158134	0.0510113	-0.0765644	0.0789466	0.0384228	-0.0120128	0.00637511	0.0779812
0.0431475	0.0388305	0.110289	-0.0152672	-0.137009	0.103318	0.0440143	0.0882023	0.0272138	-0.0961869	0.0945903	-0.0711788	0.0621048	0.0163562	0.130611	0.167662	-0.11781	0.0635696	0.000252908	-0.139284	-0.028608	-0.0616409	0.134064	-0.052818	0.0408785	-0.0531427	-0.0629419	0.0435767	-0.120447	-0.0165411	-0.0873628	0.0906919
-0.0384236	-0.0302908	0.102734	-0.118522	-0.00308497	-0.079172	-0.0824545	-0.093339	0.03737	0.121218	-0.0591695	0.105601	-0.0208261	-0.132699	0.0206267	0.0416511	-0.0289069	0.0109936	-0.135825	0.104532	-0.0805564	0.0868763	-0.114693	0.0448607	-0.112559	-0.2045	0.0645571	-0.0461364	0.0195028	0.165432	0.11011	-0.0912242
-0.0344959	-0.0623618	-0.0845352	-0.00248469	0.116271	-0.0252871	-0.0937966	-0.0424819	-0.0467863	0.109289	-0.0243078	0.019383	-0.0775676	-0.103161	-0.0144349	-0.0355948	0.00503441	-0.108339	-0.0316935	0.0794167	-0.0561511	0.105483	-0.107765	0.107976	-0.0649731	0.0380248	0.0993901	-0.0791931	0.120049	0.0158569	0.0393814	-0.034225
-0.11526	-0.0337868	0.166976	-0.0871772	-0.198584	-0.0230883	0.0492138	-0.119174	0.0780594	0.120321	0.135587	0.094838	-0.00673412	-0.0700657	0.134448	0.182612	0.00571209	0.00415626	-0.144347	0.0225264	0.060378	0.140241	-0.112551	0.0788502	-0.130931	-0.133651	0.0216387	-0.0409491	0.0263237	0.130277	0.107149	-0.0798796
-0.151788	0.0977868	0.111593	-0.0533213	-0.0985488	0.109011	0.12726	-0.0256876	0.0457872	-0.0350271	0.0857923	0.111124	0.0268394	0.0297857	-0.0454166	0.0385858	-0.029178	0.0526306	0.00492705	0.0955132	0.00623102	-0.0737801	0.016932	0.0394786	-0.0267249	0.128946	-0.0403611	0.0834435	-0.00165274	0.00279622	0.0602939	0.0343785
0.0592039	0.0389597	0.0103065	-0.0146454	-0.053748	-0.0190902	0.0920137	0.0929109	0.057549	0.0150694	-0.0811882	0.0286161	0.0604515	-0.00718799	-0.123506	-0.0399672	0.0774808	0.0174247	0.0195293	0.0892082	0.0803259	-0.029629	0.0295639	-0.0904626	-0.0220096	0.0908546	-0.072831	0.140907	-0.0479255	0.00294075	-0.0596176	0.112552
-0.00761797	-0.100447	-0.0730752	-0.0820805	0.0262044	-0.096339	-0.0206141	-0.0154345	-0.0913024	0.0604234	-0.0342142	-0.00514018	-0.0740886	-0.0658673	-0.0982434	-0.110392	0.0980215	-0.0564053	-0.0571845	0.0860817	-0.0277247	0.0905998	-0.035394	-0.000881175	-0.00146455	0.00446803	0.02728	-0.0577845	0.0445933	0.0745235	0.0365551	-0.0820724
-0.12419	-0.208109	0.121196	-0.189237	-0.0887984	-0.148554	-0.0877909	-0.185698	-0.0950784	0.172324	0.130183	0.143702	-0.0264092	-0.176391	0.114172	0.19197	-0.144286	-0.0283729	-0.196213	0.151313	-0.123402	0.176463	-0.164283	0.211505	-0.114169	-0.145033	0.188633	-0.212414	0.12275	0.203149	0.158617	-0.146686
-0.0846536	-0.146423	0.106112	-0.155481	-0.0746662	0.011621	-0.0270355	-0.152444	-0.0214201	0.130752	0.188614	0.205036	-0.106227	-0.128607	0.157437	0.142649	-0.0275396	-0.0875062	-0.189639	0.14015	-0.122487	0.038668	-0.144633	0.141767	-0.202946	-0.115558	0.135624	-0.0785797	0.0697199	0.17738	0.132654	-0.148825
0.12881	0.147077	0.17293	0.0462941	-0.160971	0.114233	0.0701091	0.0551458	0.068021	-0.152455	0.159447	0.0594399	0.0592112	0.104418	0.143548	0.0368641	-0.130002	0.15217	0.0857217	-0.0822287	0.127608	-0.129609	0.137146	-0.0642299	-0.0123331	0.0239963	-0.130401	0.0567974	-0.089982	-0.0907023	-0.111426	0.0770309
-0.0497615	-0.198115	-0.142224	-0.0502602	0.138793	-0.175677	-0.0215974	-0.0142553	-0.221557	0.119291	0.0762852	0.125651	-0.234026	0.0665997	-0.0334526	0.157483	-0.101357	0.154402	-0.0554845	0.0323843	0.0483195	-0.112822	0.0648238	-0.0367537	-0.0616742	-0.169585	0.1159	0.125109	0.142879	0.139019	-0.0584527	-0.044283
-0.08889	0.0569689	-0.18485	0.109219	0.182193	-0.133461	-0.0687728	0.079622	0.11078	-0.0505824	-0.144471	0.000360834	-0.0134385	0.0704858	-0.189309	-0.171803	0.192028	-0.0378373	0.0786653	0.0694023	0.105307	0.126009	-0.0737887	-0.02824	0.0163073	0.0752085	-0.1423	0.120876	0.115938	-0.0531873	-0.00954049	0.00158513
-0.0448983	-0.160645	0.0609987	-0.0919765	-0.0430338	-0.152327	-0.0905825	-0.108415	-0.0144402	0.0916126	0.028933	0.162111	-0.0829693	-0.166217	0.106485	0.0781311	-0.104318	0.0176084	-0.167073	0.0183767	-0.0607896	0.0974149	-0.125519	0.0930328	-0.177836	-0.146051	0.0733432	0.0961833	0.109802	0.152507	0.0340122	-0.13088
-0.0351325	0.0419834	0.0125028	-0.0490809	-0.04728	0.100912	0.166206	0.0316941	0.0257898	-0.0764238	-0.167346	0.100381	0.199395	0.185766	-0.0640314	-0.027326	-0.113281	0.0910127	-0.0565364	0.18336	0.14678	-0.116864	0.0535105	-0.163158	0.133354	0.105624	-0.183479	-0.0816453	-0.0967698	-0.0454422	-0.0950986	0.075477
0.0488357	0.0365657	-0.00678805	0.0420462	-0.0141821	0.0420697	0.0658305	0.0523428	0.0736558	-0.0310622	-0.0139147	-0.0925219	0.0190429	0.033782	-0.0292177	-0.0479086	0.0824514	0.02127	0.102225	-0.0561969	0.014756	-0.00695693	0.0759016	-0.0349727	0.0293575	0.0925714	-0.0496776	0.0724629	-0.0284261	-0.0589599	-0.00224463	0.0547976
-0.0285593	-0.00548989	-0.0684694	0.0154249	0.105832	-0.0414059	-0.121833	-0.0204978	-0.0366136	0.00972348	-0.0554594	0.0539354	-0.0389315	0.0633156	-0.0748211	-0.0701529	0.112334	-0.0598294	0.0278302	0.0772377	-0.0243786	0.0648734	-0.0423445	0.0711467	-0.0415519	0.018661	0.021789	-0.0140814	0.0401032	-0.00237463	6.65714e-05	0.0141497
-0.0574747	-0.138212	-0.0957759	-0.0376302	0.111432	-0.0994345	-0.111598	-0.136358	-0.144925	0.0604303	0.00767259	0.11387	-0.0960426	-0.0638665	0.0669671	-0.110214	0.0305819	-0.0789036	-0.103461	0.112189	-0.0733069	0.126814	-0.0750951	0.061928	-0.0873631	-0.0383512	0.106518	-0.116038	0.0752345	0.0970364	0.128871	-0.105286
0.0687887	0.0756892	-0.0758175	0.0131509	-0.123464	0.12225	0.123191	0.111241	0.0408896	-0.0756563	0.0567949	-0.093371	0.0960525	0.139426	-0.0378779	0.0695982	-0.136997	0.100161	0.0674482	-0.114961	0.0925307	-0.114293	0.0624901	-0.142343	0.153828	-0.00100674	-0.0470543	0.0526221	-0.116374	-0.131952	-0.136546	0.0247114
-0.116647	-0.084944	0.094105	-0.158422	0.00394982	-0.0683981	-0.052954	-0.167797	-0.0897424	0.111408	0.0941869	0.109194	-0.137061	-0.107874	0.0658169	0.0555719	0.0157739	-0.0655677	-0.141669	0.132943	-0.117039	0.157764	-0.135948	0.119056	-0.120865	-0.101918	0.17943	-0.0211779	0.0462183	0.0832687	0.153173	-0.122477
-0.0732355	0.0462777	-0.0295284	0.109688	0.0716305	-0.0202732	-0.0105767	0.0509721	0.116034	-0.0865958	-0.0751072	-0.0412806	-0.00971637	0.019465	-0.0230299	-0.000686897	0.0121936	0.0194432	0.129893	0.0521129	0.0128602	0.00256852	-0.00199354	-0.0189744	0.0109828	0.0544013	-0.0932804	0.0539797	0.0439842	-0.121692	-0.083338	0.0699711
-0.0282333	-0.107751	-0.0399157	0.109856	0.166134	-0.142523	-0.150106	0.0200475	-0.0875044	-0.0115085	-0.0902846	-0.0975413	-0.0909114	0.00163261	-0.0388671	-0.111686	0.102742	-0.12296	-0.000482591	0.00885273	-0.0364874	0.104016	-0.0242972	0.0732334	0.0512558	0.118944	0.0492913	-0.157826	0.124353	-0.104045	0.051437	-0.0104253
-0.132306	-0.129281	0.0808914	-0.130732	0.0285179	-0.062896	-0.105681	-0.112439	-0.112835	0.173109	0.166885	0.145727	-0.19251	-0.147376	0.116058	-0.0192294	0.0306337	-0.0288176	-0.167627	0.109307	-0.14649	0.125573	-0.201056	0.129721	-0.102331	-0.0530164	0.142508	-0.129253	0.0245597	0.187053	0.078556	-0.062215
-0.163228	-0.165986	-0.0275092	-0.10347	0.166508	-0.0920165	-0.067885	-0.0687006	-0.0948462	0.0949396	0.0401803	0.064449	-0.0961039	-0.0638842	0.0289714	0.0107785	0.101735	-0.0763871	-0.102173	0.153471	-0.0780395	0.151838	-0.152503	0.0700976	-0.0289173	-0.0219892	0.0124329	-0.0561425	0.127937	0.0129087	0.0470642	-0.0527222
0.192777	0.156123	0.207678	0.174502	-0.210858	0.131143	0.188162	0.134583	0.150609	-0.159787	0.0597428	-0.136048	0.2076	0.215598	-0.073925	-0.0202371	-0.141505	0.11515	0.140715	-0.201518	0.147085	-0.138485	0.147374	-0.090992	0.178354	0.0730255	-0.110018	0.143029	-0.170803	-0.147027	-0.194688	0.0921282
-0.0906289	-0.101147	-0.156389	0.0495156	0.116934	-0.132233	-0.117712	-0.0443468	-0.0526266	0.05561	-0.118559	-0.0175803	-0.0563346	-0.0776726	-0.123249	-0.128373	0.111503	-0.0774135	-0.0381793	0.0352433	-0.0698471	0.139154	-0.0823612	0.0248287	-0.0522525	0.000267053	0.00436604	-0.0132791	0.145189	-0.0181346	0.0794866	-0.039173
-0.0386214	-0.0101804	0.0585793	-0.0954046	0.00419806	-0.0348561	0.0441068	-0.0131755	-0.0503125	-0.0169394	-0.0454065	0.130274	-0.0409012	-0.0159273	0.0172946	-0.0298624	-0.0495653	0.115817	-0.033848	0.0537202	0.0750289	-0.0671383	-0.137322	0.0157705	-0.00582095	-0.0821998	-0.040917	0.0465866	0.0374793	0.0489229	0.0211689	-0.00382178
0.0969233	0.0913788	0.021106	0.0139939	-0.084977	0.0157564	0.0761616	0.0992716	0.157841	-0.0141432	-0.0854697	-0.0941361	0.144222	0.0579991	-0.112131	-0.0558934	-0.0414146	0.0696495	0.00900168	0.0582611	0.119757	-0.0968613	0.00607866	-0.0744157	0.0626081	0.0747142	-0.13228	0.0916387	-0.0123168	-0.0959395	-0.0814541	0.119924
-0.0218279	-0.149201	-0.0226036	-0.0696549	0.0231803	-0.108313	-0.0601064	0.0513352	0.0780959	0.114637	0.0308803	0.0255874	-0.134239	-0.0442674	-0.0929857	0.0320229	0.0988607	-0.08839	-0.0701968	0.0497387	0.0061701	0.132861	-0.0850525	0.0151384	-0.0314536	-0.049243	0.0229615	-0.0344293	0.127802	0.0246648	0.0850846	-0.0825769
-0.0558276	-0.00278185	0.103783	-0.0274864	-0.0894059	0.0862513	-0.115433	-0.0845406	0.0630891	0.015431	0.0401748	0.0520013	-0.137581	-0.121944	0.128961	0.0380733	0.098614	-0.100705	-0.0562363	0.103189	-0.159793	0.143404	-0.0440994	0.107901	-0.0831189	-0.00543515	0.161539	-0.126173	-0.0556674	0.0369272	0.105387	-0.0335661
-0.00350188	0.021252	-0.095262	0.102038	0.120876	-0.0191128	-0.0737868	-0.0724605	-0.0435192	-0.0143149	-0.0274161	0.0457839	0.0248331	-0.0012877	-0.0272386	-0.105533	0.0175521	-0.112428	0.0219369	0.0190404	0.0130872	0.0602854	-0.0174749	0.0204315	0.0079018	0.0957911	0.0223215	-0.0701763	0.0684538	-0.0202244	-0.0145782	0.0406843
0.005225	-0.00265199	0.00142153	0.0428525	-0.00065504	0.0992235	0.00311418	0.0588289	0.0731716	-0.0647917	-0.0875135	0.0240135	-0.0188386	0.0105346	-0.050601	0.0212367	-0.0641987	0.0208037	0.0393968	-0.0599446	-0.00326928	-0.0348456	0.0657306	0.00142228	0.0785475	0.0736576	-0.0451205	0.024595	-0.0155444	0.0148172	-0.06768	0.00730624
0.072852	0.059291	0.121552	0.0238242	-0.193683	0.0591397	0.166297	0.00554843	0.0898991	-0.0490306	0.0192954	-0.0893338	0.166014	0.00995172	0.0350419	-0.0278516	-0.0907953	0.0902927	0.0385766	-0.100226	-0.0417088	-0.0793729	0.140825	-0.0351812	0.0767259	0.0522888	-0.0373538	0.0458845	-0.15983	-0.104467	-0.110291	0.10312
-0.21107	-0.0326281	-0.249678	0.138927	0.19079	-0.0411369	-0.232177	-0.0451035	-0.0888008	-0.0590262	-0.186673	-0.128713	-0.100444	0.0879736	-0.176519	-0.187061	0.237729	-0.193649	0.0822416	0.0154784	-0.00867364	0.12096	-0.0827345	-0.0260267	0.12942	0.163906	0.0876458	-0.0209019	0.151847	-0.188007	0.0262813	0.0698044
0.096613	0.0914451	0.13895	0.0306594	-0.112494	0.0937644	0.0815761	0.0944755	0.0860723	-0.0688047	0.00785547	-0.0380825	0.131732	0.117887	-0.0841103	0.0563463	-0.042441	0.0626072	0.132272	-0.0499216	0.0832387	-0.0435761	0.107522	-0.0400757	0.0584462	0.0619232	-0.050014	0.111895	-0.113403	-0.0724523	-0.0867808	0.00249881
0.154699	0.137804	-0.0888919	0.102908	-0.0235915	0.0135096	-0.0240779	0.150693	0.0875533	-0.101249	-0.124171	-0.132696	0.0944912	0.14747	-0.0630475	-0.103717	-0.0390729	0.0249702	0.104075	0.0322065	0.124005	-0.0321803	0.114464	-0.106506	0.116511	0.0811097	-0.126957	0.070852	0.00267511	-0.156477	-0.0756405	0.153982
0.0898929	0.109629	0.0530719	0.177703	-0.00138009	0.152002	0.0322505	0.0261265	0.114938	-0.120554	-0.061842	-0.107704	0.0587984	0.202497	0.00121256	-0.103354	-0.0349633	0.023084	0.197335	0.0241804	0.0235662	0.0516432	0.0644578	0.0560447	0.131932	0.124182	-0.103149	0.137485	-0.153475	-0.126325	-0.157492	0.158626
-0.104045	-0.149263	0.11137	-0.125864	-0.176626	-0.0354989	-0.013657	-0.117446	-0.0961	0.103316	0.159568	0.116922	-0.109994	-0.121198	0.14894	0.04477	-0.108509	0.0759309	-0.177603	0.0819915	-0.0992336	0.0710653	-0.13986	0.176974	-0.11386	-0.156627	0.143537	-0.0971886	-0.019291	0.177785	0.120634	-0.113188
-0.119434	0.00383315	-0.201681	0.201606	0.174501	-0.071114	-0.109579	0.0983445	-0.0701347	-0.0405065	-0.131793	-0.171425	-0.103705	0.051602	-0.164267	-0.121018	0.213775	-0.129104	0.0513715	0.0169918	0.00834483	0.140051	-0.0481834	-0.067786	0.133264	0.202632	0.0805553	-0.0606527	0.138813	-0.167356	0.0557703	0.075172
-0.0968582	-0.0775071	-0.11294	-0.00805048	0.0636409	-0.0553246	-0.116366	-0.0546517	-0.0215324	-0.000861902	-0.101927	0.0459499	-0.0657681	-0.0282881	-0.105601	-0.0972863	0.0965562	-0.0173702	-0.00179239	0.0128089	-0.0902647	0.0691764	-0.0657633	0.0358831	-0.0807272	-0.127908	0.0391439	0.0407173	0.0557279	-0.034232	0.0704517	-0.0475168
