-0.0237629	0.0199455	0.0125342	-0.00997205	-0.0333416	-0.00241875	-0.0298872	-0.0358745	0.0412369	-0.0496853	-0.0314145	-0.0368418	0.0254306	0.0338905	-0.0490926	0.0265363	-0.0279372	0.00357944	-0.0232998	0.0302456	0.0274157	0.0039284	-0.0367208	0.00900546	0.0257875	-0.0216895	0.00699626	0.0266225	0.0082716	0.0476443	-0.0172954	0.045246
-0.00370675	-0.0325704	0.00571782	-0.0171295	-0.00710399	-0.0274759	0.0217929	0.0303919	0.0262572	-0.0321457	-0.0195805	-0.0225837	0.0151243	-0.0414372	-0.018012	0.0238657	-0.0450399	-0.0263852	-0.0745219	-0.0773632	0.0405089	-0.0189919	0.0210951	-0.0719683	-0.025339	0.00291719	-0.0182346	-0.0681109	-0.024022	0.121483	-0.0442984	0.0673652
-0.0839824	0.0553562	-0.0802669	0.0150132	-0.00511288	0.14054	-0.0145983	0.062208	0.0866293	0.00102005	-0.131724	0.0462274	-0.115757	-0.1492	0.163209	0.105105	-0.0551645	-0.020562	-0.0673459	-0.0763963	-0.133594	0.0244386	-0.1068	-0.117294	-0.0461137	0.0178466	0.0814941	-0.0986283	0.057745	-0.0040214	-0.0269813	0.0254731
-0.00506941	0.0758684	0.0082843	0.0395261	-0.0526468	0.133187	-0.0654257	0.0176206	0.00132266	0.0587484	-0.0340828	0.0386625	0.00308564	-0.0783678	0.0525704	0.141403	-0.0663305	-0.0343008	-0.0552038	0.134261	-0.155855	-0.0253246	-0.128445	-0.141584	0.0106722	-0.0225865	0.0532894	-0.0700268	0.124024	-0.0138404	0.0450851	-0.0853781
-0.15468	0.068505	-0.0969436	-0.11556	-0.0936605	0.222809	-0.261694	0.167215	0.0889037	0.245405	-0.163797	0.158732	-0.0894062	-0.0650101	0.153583	0.0107753	0.0654627	-0.100639	-0.0875255	0.0458344	-0.0596516	0.248337	-0.193393	-0.0782354	0.0213449	0.0746609	0.102972	0.155488	-0.010801	-0.0299477	-0.0929759	0.0170695
-0.124496	-0.0148523	-0.116405	-0.161233	-0.0791934	0.170121	0.00644063	0.148299	-0.050329	0.156574	-0.0447096	0.134417	-0.110229	0.0131134	-0.0598438	-0.0192684	0.0241752	-0.0669849	-0.0700537	0.0184483	0.0098329	0.156024	-0.0317297	-0.0695446	0.0400819	-0.0423387	0.14336	0.130535	-0.0105312	0.0244123	-0.109489	0.0995152
-0.0341054	-0.0319728	0.00524216	-0.0732189	-0.0886699	0.087843	-0.0741856	-0.00177325	-0.102389	0.124078	0.0360813	0.111576	0.0814925	0.0246096	-0.025248	-0.0290073	-0.00667001	-0.00512124	0.00495865	0.0250205	0.0469224	0.16756	-0.0560219	0.0596677	0.0255763	0.0444319	-0.0620954	0.1058	-0.119308	-0.0138165	-0.00656304	-0.0263027
-0.159114	-0.0902574	-0.117552	-0.157092	0.109568	-0.0148167	0.0877556	0.123944	0.129832	0.0179424	-0.0243631	0.0447273	-0.0078673	-0.117324	0.102269	-0.101633	0.113803	-0.0388167	-0.145134	0.0182352	-0.0803222	0.0898194	0.0586828	0.0346378	0.00415668	-0.108833	0.0432087	0.113567	-0.177238	-0.217493	-0.0100489	0.212694
-0.0600549	-0.0748499	-0.0090361	-0.0855524	-0.0356392	0.0715915	-0.0618647	0.0162499	0.0142646	0.115883	-0.0727477	0.086556	-0.035055	0.00927861	0.0198915	-0.0815736	-0.11761	0.0138758	-0.0165051	0.0948648	-0.00453908	0.153953	-0.0890971	-0.0393765	0.0716354	0.0498719	-0.0495316	0.140051	-0.0568106	-0.140208	-0.0104766	0.0337649
-0.114617	-0.0412247	-0.0602858	-0.0823509	-0.144174	0.086472	-0.00615501	0.0362485	-0.0510917	0.127451	0.00812592	0.20381	-0.0317363	0.102041	-0.0923799	-0.071484	-0.10373	-0.0170943	0.0724878	0.113664	0.15266	0.157082	-0.052185	-0.0955454	0.00970106	-0.0404211	0.0108554	0.197817	-0.0715473	0.149048	-0.0889131	0.02783
0.0439744	0.0523392	-0.119836	-0.0231082	0.0252119	-0.0958937	0.0579202	0.012767	0.14009	-0.086526	-0.0290308	-0.0268738	-0.138774	-0.13637	-0.00359752	0.0352109	-0.0137639	-0.0638074	-0.102981	-0.0936042	-0.0836945	-0.115041	0.0448605	-0.0420327	-0.0954944	-0.103802	0.0732263	-0.295198	0.0372804	-0.0297633	-0.0299412	0.0638951
-0.17524	-0.156976	-0.127025	-0.132711	-0.0823676	0.224253	-0.060933	0.0729561	0.0443408	0.132006	-0.12081	0.100533	-0.00822064	-0.00555754	0.10503	-0.167459	0.0507995	0.125486	-0.0375786	0.101891	0.0352232	0.185513	-0.0295416	-0.0110557	0.0331617	0.00737005	0.0393518	0.191196	-0.0970706	-0.0892305	-0.0229046	0.113936
-0.13409	-0.0707108	-0.101307	-0.185401	0.00616709	0.298795	-0.0406414	0.0638981	0.0569843	0.250922	-0.125443	0.210213	-0.0468966	-0.116426	0.0396549	-0.0318496	-0.0470282	0.0147932	-0.125659	0.210315	0.0202032	0.18278	-0.0658325	-0.065401	0.142196	-0.133386	0.0772747	0.227643	-0.108403	-0.222054	-0.03596	0.0794656
0.000820196	0.0507856	-0.0534309	0.0914686	-0.0508001	-0.0517337	-0.0257569	-0.0108849	0.0355853	0.0109413	-0.130674	0.0105413	-0.0132953	0.0654749	0.174352	0.214197	-0.049182	-0.185316	0.0178906	-0.197869	-0.121737	-0.0439018	-0.167999	-0.0800628	-0.224855	0.00580877	0.177598	-0.18108	0.12198	0.174062	-0.135617	-0.0170177
-0.106007	-0.16337	-0.0882808	-0.172019	0.028626	0.100581	-0.00285252	0.0985723	0.00170689	0.0947236	-0.0770447	0.114558	0.0397843	0.0329375	-0.0123965	-0.139584	0.0808948	0.0429981	-0.0776065	0.142108	0.13372	0.101864	0.05282	-0.039714	-0.000797004	-0.0644335	0.0688815	0.141445	-0.0922936	-0.134175	-0.096877	0.126635
-0.0548406	0.026682	-0.0847884	-0.0436368	0.0862265	-0.120676	-0.0807334	0.110978	0.142172	0.027595	-0.0755263	0.0667866	-0.201243	-0.0672212	0.0462461	0.0649365	0.00875302	-0.0870748	-0.0917794	0.0483585	-0.173098	0.0431724	-0.0099022	-0.0383549	-0.116624	-0.070981	0.123266	-0.158169	0.105387	-0.00813351	-0.0326799	-0.0269125
-0.141222	0.104118	-0.120796	-0.148265	0.032134	-0.0160468	-0.124425	0.143181	0.111682	-0.0286961	-0.172374	0.116911	-0.177365	-0.12086	0.201036	0.0827474	0.155475	-0.0147755	-0.130157	-0.0178142	-0.161953	0.0995654	-0.174691	-0.137167	-0.125886	-0.00705073	0.141918	-0.197486	0.147053	-0.106955	-0.0556346	0.0842461
0.0322187	-0.159044	0.00966623	0.020305	0.17091	-0.109699	0.0448833	0.00270913	0.180615	-0.0971038	0.0331355	-0.0782909	0.0944726	-0.0912437	-0.0332712	-0.0526295	-0.00843391	0.0023608	-0.00662928	0.0868802	0.0473422	-0.0880618	0.0726921	-0.0266343	-0.0559031	-0.139143	-0.0167398	-0.0395743	-0.0463734	-0.0176475	-0.0415032	0.0760395
-0.0604804	0.0438955	-0.0422795	-0.0819632	-0.138353	0.0558298	-0.0873349	-0.0110445	0.0106016	0.122194	-0.0295938	0.0910238	0.014705	-0.011561	0.0544752	0.0910943	-0.10113	0.00612134	0.00683279	0.0843397	-0.039657	0.13095	-0.141472	-0.0404851	0.0710983	0.00304563	-0.0442192	0.0614508	0.0173581	0.0248477	0.0249652	-0.0633917
0.099896	0.0472405	0.0792807	0.0737408	0.0358785	-0.111665	0.0222474	0.00953321	0.0611794	-0.0439388	0.0902711	-0.0334991	0.0331179	-0.0562181	0.0505079	0.08447	-0.0787962	-0.0881966	0.00122786	-0.00430081	-0.0949192	-0.109673	-0.0114916	-0.0605376	-0.0936884	0.0390194	0.0359488	-0.150436	0.0949618	-0.00912904	-0.00314207	-0.0374581
-0.0885008	-0.118039	-0.126263	-0.131171	-0.048685	0.0536762	0.00606075	0.0937719	0.0808034	-0.0373256	-0.0179371	0.0883982	-0.0219518	0.0585423	0.0609055	-0.149402	0.0674518	-0.00532738	-0.0528253	0.0558341	0.0330971	0.0963213	0.0106354	-0.0829146	-0.06591	-0.0981628	0.0883585	0.0726422	-0.118222	0.0114882	-0.115127	0.107461
0.0413645	-0.00903854	0.0589095	-0.0480401	0.104637	-0.0983005	0.166233	0.0549024	0.112367	-0.17778	0.0536069	-0.0931653	-0.108693	-0.230769	-0.0544253	-0.0782582	0.039157	0.0277196	-0.0153357	-0.0789858	-0.025635	-0.183703	0.149835	0.0792323	0.0873961	-0.0357903	-0.00986045	-0.218808	-0.100908	-0.102224	0.0167024	0.0756318
-0.0652745	-0.0585722	-0.169236	-0.0317811	0.0871824	0.0991134	-0.0799288	0.143102	0.096783	0.151534	-0.112051	0.121	-0.113163	0.0130491	0.203251	0.133524	0.100024	-0.0656816	-0.13411	-0.00879792	-0.137266	0.192038	-0.13238	-0.0793986	-0.0907629	-0.137889	0.0993304	0.043959	-0.00211143	-0.133078	-0.0101769	0.0428099
0.00490333	-0.065363	0.10889	-0.0465715	-0.10499	0.0268996	0.06919	-0.0156644	-0.0209924	0.0583249	0.0784505	0.046265	0.0117199	0.130846	-0.140512	-0.120719	-0.0585568	0.0995988	0.0194012	0.0194367	0.115742	0.0696236	0.127109	0.0474978	0.0760641	-0.0366946	0.0574717	0.058425	-0.126288	0.0730072	0.0157529	-0.0124684
0.00236935	0.0261857	0.0507337	0.0102579	-0.00756385	0.135152	-0.0132674	0.0735221	-0.0158651	0.0320404	0.0337537	0.00442693	-0.124702	0.124766	0.00976393	0.183953	-0.0116157	-0.0805007	0.0426674	0.0277234	-0.0406955	-0.0200796	0.0607501	-0.175252	-0.0777607	-0.0669936	-0.026873	-0.183351	0.189317	0.100693	-0.11957	-0.0441002
0.0970293	0.134628	0.071301	0.0287721	0.0100453	-0.109436	0.0600045	-0.0210726	0.0393903	-0.140732	0.141023	-0.0833741	0.0315735	-0.0729408	-0.0415153	-0.0258962	-0.136494	0.0246592	-0.00959233	0.0121374	-0.026375	-0.125937	0.0521961	0.104342	-0.0293379	0.00887746	-0.019626	-0.0760322	0.0294901	-0.066951	-0.0338086	-0.061055
0.00213911	0.0865345	-0.0169867	0.0371196	0.0479623	0.115068	-0.0631053	0.0966267	-0.00558596	0.101702	0.0112858	-0.0321951	-0.12491	0.0466176	0.0622682	0.0998997	-0.000308274	0.0323563	-0.0474163	0.163663	-0.081631	-0.0815768	-0.126711	-0.104668	-0.0820379	-0.160114	-0.007633	-0.225392	0.164501	0.0891656	-0.0277462	-0.0739253
-0.0107223	0.104263	-0.0595421	0.0585418	-0.21396	0.0369871	-0.112859	0.0120014	0.00299973	0.161532	-0.038688	0.127705	-0.048052	0.121146	0.0872952	0.114929	-0.0902976	-0.134806	0.0232648	0.127451	-0.00072299	0.0619149	-0.174057	-0.0973037	-0.0952596	0.0323416	0.0507783	-0.0405756	0.0938198	0.0797705	-0.00504735	-0.0580649
-0.123407	-0.201276	0.0575253	-0.152473	-0.0370964	0.094892	0.0836904	-0.00725075	0.0622021	-0.0040761	-0.00206199	0.0525696	0.015223	0.0278358	-0.00734449	-0.0820976	-0.0264171	-0.0215433	0.0303147	0.00978189	0.0781218	0.0364223	0.085542	0.0382449	0.0470296	-0.110135	0.0254434	0.152053	-0.0625099	0.0562195	-0.0199105	0.0784706
-0.119937	-0.120852	-0.112262	-0.127481	-0.121975	0.195303	-0.163037	0.0498779	-0.0130541	0.199351	0.00734556	0.175544	0.0238819	-0.00971289	-0.0121826	-0.121477	0.0281808	0.0535874	0.0308572	-0.0632753	0.0417301	0.230853	-0.0895021	-0.0387203	0.0370247	0.0377399	0.014111	0.0914115	-0.0504721	-0.0758458	-0.0070171	0.0487572
-0.0615111	-0.245443	0.0339841	-0.190921	0.0272188	0.0885422	0.176113	0.0126486	-0.0410286	-0.00763328	0.0459358	0.0867126	0.0882741	-0.0797375	-0.160348	-0.234872	-0.00887402	0.141157	-0.0541701	-0.0192714	0.143784	0.0491364	0.223912	0.0698961	0.227624	-0.0659067	-0.10381	0.135622	-0.271304	-0.0828381	0.116066	0.122395
0.0161099	-0.00947506	0.0842836	0.00855083	-0.0935217	-0.0780947	-0.00258638	-0.0935934	-0.113463	-0.00452249	0.0983013	-0.00311456	-0.00881949	0.113455	-0.104572	-0.0821714	0.105108	0.0686184	0.0739937	-0.101621	0.0718167	0.0762149	0.00815876	0.0450032	-0.0452859	0.14279	-0.0176949	0.0396633	-0.0733577	0.186699	0.0577356	-0.0789053
-0.0899959	0.00878279	-0.117754	0.00610348	0.183307	0.0521066	-0.177807	0.0361495	0.0500724	0.088139	-0.032991	0.138108	-0.0193835	-0.0876774	0.134089	0.0596158	0.0116827	0.0248258	-0.0978165	-0.048429	-0.0659621	0.11639	-0.189507	0.034434	-0.0728019	0.111526	0.0707374	0.0162629	0.0448498	-0.0810184	0.0630125	0.0216503
-0.0951913	-0.0458428	-0.0101556	-0.122473	-0.0702984	0.0567498	-0.0177057	0.0881254	0.113796	0.0844503	-0.113569	0.0821773	-0.112329	-0.11914	0.0335603	-0.0319521	0.111942	-0.0855523	-0.0834936	-0.00159298	-0.0957546	0.0485401	-0.030982	-0.0303497	0.055952	-0.108089	0.0147627	0.0633205	-0.11693	-0.176836	0.0375061	0.15316
-0.0421008	-0.0236462	0.0674019	0.0717927	0.0300286	-0.0316295	-0.0472065	-0.00183336	-0.0409119	-0.0189665	0.109253	-0.0810385	0.0833265	-0.00955203	-0.0597663	-0.0587795	-0.0836291	-0.0310126	0.00792275	-0.0102815	0.102497	-0.0199005	0.0691245	0.0354398	-0.0505121	-0.0155153	-0.0706379	0.0237667	-0.0502987	0.0715818	-0.0648985	-0.0212204
0.147429	0.020463	0.109666	0.067214	0.13946	-0.0900662	0.0846956	-0.0641321	0.0108501	-0.0940089	0.107066	-0.147511	0.00875397	-0.155239	-0.103105	-0.127385	-0.0851009	0.140415	0.0252359	-0.068894	0.113596	-0.111915	0.0562167	0.0927661	0.106392	0.0393821	-0.154101	-0.0860157	-0.102544	-0.103745	0.0714247	0.070943
0.0672321	0.13254	0.0128724	0.0974356	0.0136219	-0.0547519	-0.172888	0.0125954	-0.0446625	-0.0291986	0.0538899	-0.0122636	0.0691282	-0.0814267	0.00468887	0.0268043	-0.113145	0.0868156	0.0316898	-0.0687192	-0.0624305	-0.0411031	-0.109439	0.0307577	-0.0215434	0.167456	-0.0139325	-0.141601	0.0708687	0.00616345	0.20067	-0.0703251
-0.109747	-0.031027	-0.210746	-0.151214	0.115047	0.0946317	-0.0933484	0.190228	0.15923	0.00719228	-0.17426	0.132774	-0.0701447	-0.134922	0.244613	0.140148	0.0737107	-0.0411276	-0.112943	-0.0247568	-0.16602	0.0566232	-0.159724	-0.150208	-0.0665709	-0.0791124	0.151213	-0.130029	0.176224	-0.026067	-0.0337753	0.149173
0.00716219	-0.161786	0.0406839	-0.0673684	0.0558188	-0.02656	0.112422	0.0741954	-0.0096343	-0.0418415	0.0304498	-0.0284189	0.0177377	-0.0241976	-0.105847	-0.0554143	-0.144175	0.0109548	0.0249145	0.0554552	-0.00175283	0.0289846	0.0672039	-0.0155769	-0.049062	-0.201082	0.0161912	-0.0267471	-0.077686	0.0520109	-0.0478067	0.0691126
-0.0845416	-0.0351783	-0.132245	-0.15167	0.022466	0.0326609	0.0401875	0.0325019	0.065947	0.00383014	-0.11394	0.0281989	-0.163124	-0.130143	0.0851677	-0.0346287	0.228184	0.078166	-0.0574029	-0.204251	-0.0928191	-0.00549329	-0.0206804	-0.0234643	-0.0328847	-0.0278722	0.127536	-0.157233	-0.145165	-0.0534841	0.105611	0.18135
-0.113309	-0.107898	-0.139641	-0.165194	-0.0742333	0.136437	0.0989158	0.108739	0.147112	0.178687	-0.0769667	0.148527	-0.0516824	0.0739524	0.0458988	0.015169	0.0807524	-0.0686669	-0.0960691	0.0841698	-0.0947045	0.165791	0.00400036	-0.0570723	-0.075765	-0.159953	0.104795	0.174796	0.15685	0.07583	-0.125669	0.0842688
-0.0728724	0.019771	-0.127804	-0.0358181	-0.149995	0.18074	-0.271529	0.0388952	-0.0664095	0.202594	-0.077707	0.148944	0.0636772	0.10401	0.100768	0.0276445	-0.0562997	-0.0638779	0.040045	0.100238	-0.00948034	0.238604	-0.158304	-0.0603407	-0.0170046	0.0213161	-0.0183061	0.149221	0.0208392	0.057971	-0.0613156	-0.030466
0.0334252	-0.153219	0.130459	-0.0608615	-0.0575907	0.0870368	-0.164917	-0.160849	-0.19374	0.101551	0.120339	-0.00627373	0.32746	0.0747772	-0.253331	-0.236904	-0.107454	0.192597	0.185777	0.124384	0.25537	0.138407	0.00264719	0.284005	0.325893	0.108887	-0.236782	0.195644	-0.221549	-0.075149	0.129848	-0.212039
0.0165965	0.0946654	0.0992364	0.00306521	0.112425	-0.0566839	-0.00624968	-0.0201433	-0.0144513	-0.0453618	-0.0120934	-0.0861846	-0.0147384	-0.104879	0.0356154	-0.133986	0.089857	0.164961	-0.0732372	-0.0135343	-0.058442	-0.010996	-0.0191636	0.0991302	0.0813229	0.12914	0.0237525	-0.0184917	-0.132043	-0.208878	0.15525	0.0787661
-0.0722314	-0.221073	0.0295994	-0.0301379	-0.0106313	0.0176214	0.140737	0.0342235	0.112453	-0.0338886	0.0887502	-0.000176981	-0.190855	-0.0152759	-0.04415	-0.152803	0.0587433	0.013357	-0.0388293	0.0567249	0.000717208	-0.0724359	0.159991	-0.113555	0.0885174	-0.132487	0.0627972	0.00469615	-0.0283011	-0.0430441	-0.12248	0.158766
-0.0499966	-0.0651412	0.0425459	-0.172111	-0.0731273	0.0520078	0.144582	0.0978667	-0.038039	0.0204626	-0.0346018	0.0503825	-0.0706514	-0.060711	0.0379727	-0.134519	0.098035	0.0986425	-0.0384873	-0.209061	-0.0640693	0.0804684	0.0913083	0.0291748	0.0699751	-0.0437941	0.136541	0.0271382	-0.116562	-0.10763	0.0472291	0.191668
0.0432599	-0.00352023	0.0249021	0.115773	0.00275084	-0.0942789	0.0693497	-0.0305318	-0.0297705	-0.0109882	0.0994895	-0.0351373	0.0426089	0.0278161	-0.0855093	-0.0394753	0.00853933	-0.07161	0.0666165	0.0652609	0.0443709	-0.0720569	0.0355802	0.00283	-0.0641203	0.065406	-0.0546706	-0.0541359	0.0617051	0.0418297	-0.0647001	-0.0159556
-0.0384056	-0.0865217	-0.0573051	-0.0490024	0.0648514	0.0159653	0.188533	0.0588558	0.0898219	0.0391967	-0.017061	0.0749067	-0.0405122	-0.00489461	0.0274968	0.0198153	0.0171009	-0.0248502	-0.0347363	-0.0309306	0.156229	0.0242751	0.0936577	-0.0336401	0.1057	-0.0435469	0.0582252	-0.142284	-0.0125456	-0.0504865	-0.10236	0.106778
-0.0831427	-0.0442009	-0.124673	-0.0448072	-0.185618	0.116693	-0.0626094	0.058673	0.111841	0.182018	-0.0951393	0.136448	0.00250479	0.145996	0.0799305	0.184634	-0.0489214	-0.164535	0.00953739	0.0689085	-0.0329809	0.10139	-0.0551059	-0.160172	-0.114286	-0.0517763	0.0712805	0.0249719	0.119982	0.132115	-0.0638257	-0.0556917
0.0751487	-0.0109832	0.0597979	0.0694712	0.0652082	-0.0887702	0.0402658	-0.00138251	0.159881	-0.133031	0.0303221	-0.0902993	-0.0755463	-0.0104359	-0.0346936	0.0555634	0.0261841	-0.0781998	-0.0207925	0.0960755	0.0842706	-0.162146	0.000504133	-0.0788718	-0.10058	-0.00839006	-0.0322418	-0.267571	0.0716933	0.12526	-0.0630143	-0.0315601
-0.161322	-0.0348965	-0.127069	-0.107037	0.0285662	0.119393	0.166433	0.123831	0.136136	-0.0234201	-0.195629	0.160924	-0.164941	-0.037605	0.129778	0.0402512	0.143838	-0.201651	-0.174509	0.00180424	-0.0806866	0.0476659	0.0261147	-0.206762	-0.162055	-0.13845	0.0364633	0.0200398	0.128198	0.0198658	-0.150139	0.138163
-0.034136	-0.07631	-0.0208691	0.00274348	0.0942835	-0.15852	0.216628	0.0397779	0.129818	-0.206342	0.059555	-0.150588	-0.14413	-0.16921	-0.120431	-0.14707	-0.016486	0.145672	-0.175057	-0.167047	0.00368463	-0.123334	0.168421	0.073414	0.0235689	0.0147045	0.0683861	-0.184791	-0.147322	-0.219077	0.0507396	0.24682
-0.0684457	-0.140127	0.102863	0.0204312	-0.0887032	0.241986	-0.148414	-0.0775006	-0.101801	0.094629	0.0259376	-0.0284485	0.152753	0.046193	-0.0695999	-0.0152687	-0.0978113	0.12627	0.109229	0.122349	0.140028	0.0746577	0.015107	0.06576	0.201237	-0.026688	-0.122688	0.143849	-0.0655668	0.0206375	0.0667389	-0.0994239
0.00343255	0.0053292	-0.0561168	0.072136	0.047889	0.0629988	0.0155937	0.0487735	0.146884	0.0618909	-0.0578729	0.0626324	-0.215424	0.0734358	0.126308	0.14413	0.0209822	-0.132483	-0.103625	-0.105338	-0.0979962	-0.055574	-0.0267301	-0.192535	-0.263345	-0.0847924	0.184455	-0.25138	0.194581	0.164058	-0.14908	0.00880535
0.0480005	0.032181	0.146747	0.0152681	-0.151334	0.145327	-0.132049	-0.133685	-0.182329	0.132458	0.127335	-0.0164997	0.183395	0.199066	-0.0966094	-0.0764086	0.00253631	0.0396033	0.163994	-0.0149337	0.0578616	0.0471869	-0.155968	0.128525	0.0110977	0.187788	-0.220766	0.0986883	-0.000100557	0.102063	0.0529387	-0.122137
-0.220595	-0.246658	-0.157705	-0.17644	0.0266697	0.0927039	0.2142	0.25039	0.247311	-0.0265509	-0.0819676	0.0658761	-0.148373	0.0285732	0.072633	-0.0765682	0.165769	0.00500161	-0.201163	-0.0940686	0.0698367	0.0538557	0.207263	-0.12551	-0.000519058	-0.259648	0.152767	-0.0821894	-0.0438294	0.0347939	-0.175332	0.228987
-0.00214576	-0.0735583	-0.0191211	0.0256049	0.0338799	0.0142402	0.0676116	-0.00111211	0.0866879	-0.0630015	-0.00138493	-0.0666318	-0.0409334	-0.00445426	0.100064	0.1007	0.0612688	-0.0818495	-0.0250671	0.0461488	-0.0199207	-0.0280037	0.0148661	-0.0555058	-0.112909	-0.0509256	0.0664547	-0.119622	0.0919452	0.107858	-0.0496253	-0.038684
-0.0936955	-0.156957	-0.141841	-0.093387	-0.0266656	0.111706	0.0333435	0.191411	0.115782	0.183616	-0.195931	0.145754	-0.216058	0.149947	0.150346	0.136169	0.0932804	-0.161308	-0.145007	0.0652795	-0.0176234	0.084432	0.0541918	-0.206691	-0.116663	-0.207939	0.251145	-0.186952	0.125261	0.11692	-0.252684	0.0968393
-0.037261	-0.0413467	-0.115081	0.00910723	0.0826988	-0.109015	0.0695103	0.0283376	0.0729176	-0.0770546	0.0199035	-0.0640508	-0.0368306	-0.130282	0.068261	0.00138463	-0.0042387	0.018026	-0.114385	-0.0914926	-0.0162301	-0.110305	0.036274	-0.0135823	-0.0280313	-0.0802121	0.0649064	-0.175316	-0.0255088	-0.140652	-0.0316136	0.138577
0.0705354	0.00190429	0.167325	0.0886928	0.0412358	-0.00291798	-0.166053	-0.0857343	-0.112787	0.0651785	0.136809	0.00454979	0.108963	0.0205933	-0.13998	0.0592761	-0.0632603	0.0414119	0.0951649	0.13919	0.0383906	0.0370426	-0.108424	0.0451096	0.0759304	0.0431402	-0.167695	0.0160471	0.0607605	-0.0199937	0.0618343	-0.179945
0.0756	0.0820121	0.04668	0.0660241	-0.144191	0.0515131	-0.155805	-0.106725	-0.167552	0.0906058	0.0520011	0.0239795	0.162726	0.194924	-0.0143965	0.0125545	-0.10744	-0.0313032	0.15784	0.00815871	0.0716968	0.0874975	-0.0655978	0.0140248	0.0172635	0.0907981	-0.0831893	0.0503973	0.0289271	0.170346	0.110148	-0.135482
-0.247057	-0.27039	-0.237615	-0.171449	0.0157235	0.124971	0.105914	0.228509	0.211328	0.0207632	-0.233642	0.175418	-0.183229	-0.0674309	0.189438	0.163025	0.127194	-0.0593154	-0.224342	-0.00492242	-0.0628195	0.0472537	0.0791911	-0.177206	-0.234382	-0.17398	0.118545	-0.0383585	0.176735	0.0384618	-0.241597	0.239983
-0.0483074	0.13021	-0.0550999	-0.000440416	-0.0869734	0.218736	-0.176072	0.0531997	0.0362222	0.206958	-0.111163	0.0789295	-0.0285823	0.0241879	0.0882736	0.173074	-0.0331334	-0.0292277	-0.0556675	0.158158	-0.0939753	0.126973	-0.202069	-0.0751046	-0.11176	0.0431236	-0.0117825	0.0433037	0.0942213	-0.0577744	-0.00653087	-0.0751832
-0.0612009	0.119328	-0.16399	-0.129915	0.0882687	0.00495395	-0.0517135	0.12109	0.128964	-0.00635046	-0.145397	0.110378	-0.038801	-0.0767004	0.216393	0.142589	0.0796704	-0.224803	-0.167542	-0.0565422	-0.167156	0.140269	-0.167274	-0.232477	-0.149859	0.0101623	0.221179	-0.112546	0.165953	0.0267578	-0.0245831	0.126027
-0.161526	-0.168031	-0.0957733	-0.154406	0.0823353	-0.0072438	0.0999282	0.107514	0.122133	-0.0367682	-0.0130719	0.0375861	-0.0129927	-0.0638424	0.0224836	-0.062143	0.0503543	0.0568111	-0.140089	0.00653943	0.0214967	0.0386295	0.162571	-0.0167542	-0.0132819	-0.0429471	-0.00661837	0.0967562	-0.0322825	-0.0495545	-0.0625572	0.115991
0.0486086	0.062361	0.0434796	0.141778	-0.165588	0.0928887	-0.0979472	0.0105132	-0.00755322	0.0647748	-0.0404586	-0.0208022	-0.0370578	0.151995	0.0119844	0.128222	-0.117076	-0.0257809	0.0689165	0.12589	-0.00441396	-0.00948506	-0.153746	-0.133479	-0.138787	-0.0283379	0.0217463	-0.135057	0.206286	0.230048	0.0259795	-0.0512699
-0.136166	-0.0954689	-0.19986	-0.149087	-0.163575	0.177854	-0.0222519	0.156349	0.12827	0.230049	-0.107058	0.141703	-0.0821073	0.129502	0.213138	0.214513	0.0680158	-0.216111	-0.15329	0.0981545	-0.21174	0.169258	-0.108005	-0.232173	-0.229399	-0.154049	0.213009	0.0323659	0.135061	0.114252	-0.187095	0.0236523
0.116564	-0.0204359	0.142474	0.110993	0.133006	-0.155859	0.140988	-0.113985	-0.0150602	-0.10935	0.0974129	-0.172784	0.0297901	-0.0493947	-0.0661675	-0.203947	0.106199	0.162114	0.053443	-0.147995	0.152609	-0.172572	0.142267	0.161234	0.139726	0.0989739	-0.144641	-0.108329	-0.122011	-0.0758045	0.168251	0.0925556
0.115466	0.195352	0.0837032	0.0419306	-0.0433797	-0.0702481	-0.0494115	-0.192267	-0.118587	-0.0366938	0.063755	-0.132941	-0.019247	-0.208326	0.0514014	-0.00334457	0.0584245	0.0279352	0.0275155	-0.207386	-0.0636581	-0.125158	-0.143375	0.127883	0.0183928	0.229553	0.028958	-0.25922	-0.0210029	-0.101879	0.222504	0.0951997
0.0391191	-0.00212172	0.0489305	0.0900927	0.0635569	-0.0601556	-0.00029076	-0.124948	-0.0873113	-0.0482914	0.0762332	-0.0195696	0.0882545	-0.0718274	-0.0614603	-0.0500503	0.000808154	0.0844718	0.10381	0.0528149	0.0748841	-0.0239871	0.00129771	0.128351	0.0783158	0.0843567	0.0174744	-0.0699094	-0.142556	-0.00161098	-0.00906065	-0.0621908
-0.0685628	-0.142139	0.0249235	-0.00173629	0.039873	-0.0470072	0.12484	0.0188805	0.0839986	-0.00613908	0.0562458	-0.0124927	-0.02648	0.00708577	-0.0776931	0.0112334	0.0880235	0.00503457	-0.104711	0.00231998	0.0551362	-0.0113546	0.124174	-0.0292758	-0.000901217	-0.047613	-0.0361478	-0.0269192	-0.0260913	-0.0483651	0.0216838	0.0508919
0.0322666	-0.120038	0.103843	-0.00572252	0.127505	-0.0301197	0.0789417	0.0155424	0.0213576	-0.118926	0.109502	-0.0554929	-0.0286509	-0.0742016	-0.105108	-0.127179	0.0419236	0.160213	-0.0129522	-0.0504576	0.103559	-0.117271	0.0659106	0.0806857	0.145501	0.0246352	-0.0353952	0.0261476	-0.191396	-0.139398	-0.0258995	0.122506
-0.0273425	-0.204472	0.011298	-0.0156915	0.0423664	-0.0492657	0.122263	0.0827657	0.0675136	-0.0706552	0.0731991	-0.0557396	-0.006616	-0.0843861	-0.0840632	-0.116207	-0.0174431	0.131627	-0.114807	-0.00933511	0.149433	-0.0786573	0.0904897	0.0758959	0.0869627	-0.0931904	-0.136553	-0.0415134	-0.0917939	-0.0763941	-0.060938	0.137483
-0.1613	-0.0988038	-0.134207	-0.0903259	0.106769	0.157178	-0.134832	0.166264	0.21062	0.101225	-0.118847	0.121039	-0.0776459	0.0417439	0.0955589	0.0200998	0.035711	0.0305045	-0.0946797	0.0310935	-0.0337671	0.116863	0.00511957	-0.158934	-0.0403165	-0.214378	0.151026	-0.0705153	0.0585632	-0.00790263	-0.173228	0.0161247
-0.0514132	0.00765251	-0.0211737	-0.0696576	-0.0927743	0.0269358	0.100668	0.0267325	0.117691	-0.0227819	-0.0424654	-0.00598857	-0.13728	-0.0538579	0.0963924	0.000451192	0.0994386	0.00207191	-0.143023	0.00394212	-0.0780473	-0.0659405	0.0449714	-0.0759886	-0.0898008	0.00829415	0.135441	-0.0886313	0.0901474	0.0102556	-0.052758	0.0786962
-0.0276436	0.0027707	-0.092513	-0.160412	0.0488684	0.0743148	-0.0287453	0.116769	0.0531327	0.131636	-0.0991727	0.109013	-0.0762766	-0.0908183	0.137951	0.076781	0.137387	-0.0259506	-0.00768336	-0.0106159	-0.150015	0.0889389	-0.118481	-0.0140126	0.0586039	-0.0341418	0.0170307	0.0849965	-0.0571884	-0.127554	0.0722135	0.0625354
0.051936	0.0673217	-0.0684236	0.118327	-0.010124	-0.0634901	-0.0565852	-0.0348475	0.0905543	0.00300016	-0.000848792	0.0167093	-0.0296237	0.147027	0.159055	0.101202	-0.0351004	-0.106173	-0.0493746	0.0602895	-0.0397094	0.0236683	-0.0576318	-0.0147362	-0.135943	-0.00566647	0.0926281	-0.12166	0.213237	0.0408015	-0.0603405	-0.0757468
0.0368964	-0.00599852	-0.0314992	-0.0123754	-0.00171797	0.00181532	-0.00756916	-0.0171106	0.01549	-0.0223951	0.00255416	-0.0438685	-0.0213262	-0.0332201	0.0177254	-0.04845	0.0368032	-0.0349056	-0.0185919	0.0372627	0.00197436	0.0172221	-0.0115657	0.0395245	-0.0252389	-0.0346438	-0.000276144	0.0358245	0.0118276	0.0102963	-0.018108	0.000605434
-0.168543	-0.211331	-0.148783	-0.0837073	-0.032993	0.232668	0.0250869	0.140987	0.0365572	0.215203	-0.0811048	0.222521	-0.120294	0.098035	0.0477609	0.00960465	0.055684	-0.105988	-0.0675181	0.150319	0.0132352	0.166693	0.0994406	-0.102489	-0.0437893	-0.141568	0.103061	0.0973219	0.123161	0.178336	-0.0735669	0.0201244
-0.101705	-0.108336	-0.116957	-0.16338	0.0205045	0.0745783	0.0258311	0.11759	0.0536974	0.0324271	-0.083811	0.0951724	-0.0474004	-0.0197367	0.11883	0.0371658	0.0333942	-0.0756044	-0.0332743	0.00319103	-0.167574	0.123437	0.0211123	-0.10025	-0.034169	-0.0625312	0.0825356	0.00935216	0.0487742	0.0265496	-0.0482323	0.0480627
0.0225723	0.0643929	-0.0556582	-0.0352206	-0.0399005	0.094477	0.0802213	0.00961875	0.108626	-0.0450669	-0.0750022	0.00706138	-0.111544	0.0917157	0.0800243	0.0864487	-0.0286006	-0.0630016	-0.0977328	0.053913	-0.0643884	-0.108164	-0.0032101	-0.185365	-0.176494	-0.134928	0.0706086	-0.230241	0.0874965	0.148948	-0.0724418	0.0531496
-0.144571	-0.0857193	-0.00891991	-0.108203	-0.0883661	0.0691014	-0.0963995	-0.00226617	-0.069371	0.109689	0.0588276	0.041637	0.0216892	0.139227	-0.00887846	-0.121481	0.0195732	0.041785	-0.00481488	0.194155	0.0757582	0.0506001	0.036782	0.0641535	0.040611	0.0169134	-0.0232038	0.093669	-0.00733967	0.0504727	-0.0934071	-0.0305245
-0.0708703	0.0145928	-0.169507	0.00910292	-0.131484	0.0958206	-0.0606113	0.0711157	0.182842	0.171113	-0.154978	0.161892	-0.199663	0.150238	0.212308	0.198488	0.0713239	-0.22816	-0.0670447	-0.030092	-0.168723	0.0762144	-0.0165116	-0.253509	-0.188656	-0.067321	0.17231	-0.218646	0.109535	0.174859	-0.122406	-0.0344026
-0.0189085	-0.0500135	0.0878367	0.00656089	0.0988274	-0.0586807	-0.00164819	-0.0580674	-0.0246829	-0.0232252	0.0987008	-0.0135578	0.0872648	-0.0679882	-0.0488304	-0.0973254	0.0446062	0.117489	0.0529711	-0.0235307	-0.0262863	0.00393198	0.0231578	0.125677	0.0225286	0.0316473	-0.0390569	0.0496583	-0.0829445	-0.125828	0.126229	-0.0346178
0.149433	-0.0664445	0.136936	0.0785113	0.152338	-0.206012	0.161011	-0.202906	0.143972	-0.219045	0.134088	-0.227979	0.0317933	-0.255604	-0.109476	-0.190232	-0.0507579	0.0923374	0.100269	-0.0689804	0.148698	-0.183067	0.142565	0.202896	0.0128414	0.0883638	-0.153614	-0.17971	-0.177865	-0.0749883	0.108793	0.187419
-0.0964853	-0.130854	-0.0795179	-0.0860681	0.0672334	0.16676	-0.0848563	0.0477734	-0.00445828	0.175878	-0.0800235	0.132267	0.0396206	0.101937	0.0573369	0.101077	-0.0445999	-0.0444624	0.00212442	0.0478192	0.0206277	0.168297	0.00114916	-0.134938	0.0516098	-0.101171	-0.0366916	0.189863	-0.0386668	0.0776099	-0.0965229	0.0359104
0.164203	0.223312	0.00400001	0.136972	-0.084772	-0.0435009	-0.154657	-0.092431	-0.0461212	0.0862389	0.0161396	-0.0283933	-0.0209481	0.136166	0.138376	0.145578	-0.0350938	-0.157082	0.0243162	-0.0649139	-0.162078	-0.00923778	-0.136673	-0.0955046	-0.146338	0.109002	0.18653	-0.198111	0.127385	0.177488	-0.0468496	-0.0959841
0.0769336	-0.0179844	0.133599	0.127671	0.0662291	0.0107568	0.132933	-0.055934	-0.0456155	-0.00816877	0.123216	-0.0740111	-0.0764371	0.0492851	-0.0677669	0.0663821	-0.0986468	0.0677026	0.0810422	0.113911	0.0931565	-0.073412	0.0761244	-0.00327787	-0.0579818	-0.113389	-0.112187	-0.123111	0.132714	0.0424502	0.0386252	-0.132758
0.1589	0.175894	0.138902	0.183418	-0.112268	-0.0919208	-0.127223	-0.115899	-0.153146	0.0257179	0.184612	-0.147539	0.0910026	0.0586446	-0.0510639	0.135566	-0.0231912	-0.0485941	0.203342	0.0324829	-0.0494087	-0.126392	-0.193918	-0.0331463	-0.0695083	0.134387	0.0094291	-0.167245	0.104841	0.141545	0.0708418	-0.151071
-0.0837047	-0.0689786	-0.0655313	-0.0192622	-0.030563	0.0847816	-0.0958189	0.0390857	0.0101989	0.0997802	-0.0677669	0.111555	0.0334985	0.0353004	-0.00673591	-0.0530863	0.066741	-0.0789641	-0.000980583	0.115108	0.053127	0.107084	-0.0289004	0.0498227	-0.00979833	-0.0175768	0.0125595	0.144784	0.0208345	-0.0374945	-0.119821	0.00702725
-0.0291063	0.0285622	-0.107058	0.0280707	-0.0342381	0.0109439	-0.114639	-0.0210769	0.0175029	0.118088	-0.0635101	0.156932	-0.043881	-0.0230275	0.152258	0.0848318	-0.0571803	-0.118727	-0.0375806	0.118511	-0.0775895	0.152965	-0.14401	-0.114548	-0.119449	-0.0344882	0.0897336	-0.0119155	0.0721553	0.0339178	-0.0334524	-0.0378283
0.0527823	0.0179803	-0.0305083	0.0717106	0.0703284	0.0420042	-0.0679099	0.0409222	0.00656173	0.00407629	0.0703	0.0175342	-0.0589493	0.0619427	0.0159062	0.0725598	-0.100097	-0.0437425	0.0192319	0.113868	0.0104924	-0.0663495	0.0150603	-0.128033	-0.193556	-0.0818451	-0.023255	-0.135451	0.207822	0.0969873	-0.0140218	-0.0528209
0.104023	0.0870279	0.0832935	0.0950072	0.167452	-0.147737	-0.190516	-0.127452	-0.165404	0.00876891	0.0799404	-0.0736383	0.154682	-0.0235818	-0.0121165	-0.0517508	-0.0519206	0.0660302	0.148844	-0.068315	0.0247518	-0.0697159	-0.189026	0.0833191	0.0673595	0.163776	-0.161521	0.184061	-0.117228	-0.10344	0.128033	-0.189789
0.00551432	-0.0785327	0.0756931	0.0528433	-0.101848	0.13487	-0.108602	-0.0584285	-0.175718	0.145296	0.0886264	0.0370952	0.149781	0.144052	-0.140452	0.0118284	-0.0209015	0.0762106	0.0890629	0.143716	0.139499	0.120437	0.0210369	0.0747094	0.0766731	-0.134471	-0.0998014	0.0577313	0.0168604	0.118291	0.082456	-0.0637412
-0.0896915	-0.0666131	0.0524748	-0.0506958	0.0308688	0.0869893	-0.0480388	0.0051693	0.063635	0.104119	0.0331795	0.112473	0.0618612	0.100849	-0.0723656	0.0523843	-0.049908	0.0717957	0.0676269	0.136585	0.0887039	0.133523	0.00114497	-0.0387317	0.12515	0.0555424	-0.0194611	0.0900066	-0.0613982	-0.0133406	-0.0434529	-0.0208463
0.0262731	-0.0862173	0.119388	0.021948	0.0586957	0.0563559	-0.0628238	0.0140173	-0.0473621	-0.0534605	0.0598427	-0.028755	0.0828465	-0.0401618	-0.0536762	-0.0585211	0.0294857	0.0782376	0.00997252	0.00465196	0.0131778	0.0195115	0.0297182	0.0810605	0.13543	0.0444875	-0.0771231	0.174056	-0.0386771	-0.0429823	0.0846467	-0.0498128
-0.0789943	0.0763243	-0.125573	0.0545622	-0.121181	0.159064	-0.0444109	0.0724378	0.16142	0.107071	-0.134605	0.0919908	-0.17824	0.0602537	0.239998	0.138344	-0.0673569	-0.278525	-0.0765489	0.0261611	-0.211379	0.0418165	-0.0770549	-0.158328	-0.163036	-0.187958	0.104711	-0.141909	0.136106	0.0785559	-0.0883196	-0.0100442
0.137223	0.229661	0.117572	0.185484	-0.0502087	-0.14599	-0.115377	-0.136871	-0.0621541	0.0458023	0.102567	-0.113702	0.0590343	0.132135	-0.0183759	0.190726	-0.0148915	-0.0840776	0.116134	-0.0459347	0.014055	-0.106014	-0.237334	0.00967563	-0.202081	0.192462	0.0205038	-0.151495	0.16682	0.0641211	-0.033948	-0.142862
-0.140888	-0.00724862	-0.108853	-0.101209	0.0198131	-0.0151215	0.136934	0.0175162	-0.0100835	-0.111146	-0.11928	0.0600359	-0.109438	-0.264348	0.0789876	-0.0935892	0.0313215	-0.00643041	-0.0913267	-0.159436	-0.131916	-0.0756495	-0.0950556	0.0188773	0.134608	-0.0386659	0.0740056	-0.0812991	-0.00762743	-0.1777	-0.0147206	0.090804
0.146764	0.130998	0.105009	0.162723	0.0277452	-0.136622	-0.111534	-0.106733	-0.00964622	-0.0888561	0.0451522	-0.12775	0.078101	-0.0539075	-0.126107	-0.0275208	-0.0372859	-0.0441104	0.0294512	-0.0623185	-0.046264	-0.191497	-0.0604157	0.0596095	-0.0032644	0.0298426	-0.0902386	0.0569252	-0.0857974	-0.123176	0.0325017	-0.0318968
-0.0783193	-0.119723	-0.0267091	-0.110233	-0.0230261	0.208411	-0.0379799	0.0142817	0.0454106	0.145077	-0.119704	0.198998	-0.0165662	0.0580959	0.0335706	-0.0112301	0.115907	-0.046254	0.0118457	0.104907	-0.077723	0.17423	-0.00800658	-0.0569092	0.127573	-0.0681727	-0.0236225	0.180305	-0.0521423	-0.232726	-0.0124599	0.0700416
0.0681172	-0.00722738	0.0786541	0.054248	-0.103089	0.157602	-0.2252	-0.0780233	-0.127401	0.146159	0.0487413	-0.0298699	0.181093	0.221217	-0.080563	0.0365399	-0.117094	0.058798	0.133894	0.181981	0.115609	0.0728444	-0.000492252	-0.0511312	0.0428994	0.0213952	-0.102658	0.0799129	0.00424709	0.134477	0.0515322	-0.112205
-0.215192	-0.199814	-0.203142	-0.197754	-0.0323389	0.19231	-0.0412493	0.224129	0.142366	0.169536	-0.224455	0.167111	-0.130669	-0.0278688	0.138643	-0.0103769	-0.00346492	-0.0726285	-0.12203	0.0256358	-0.220711	0.192741	-0.0963722	-0.158143	-0.0906378	-0.171315	0.182361	0.0638747	0.0531404	0.0964047	-0.136117	0.0942729
0.224354	0.119447	0.198832	0.133559	-0.0249313	-0.103315	0.0347072	-0.178446	-0.0232144	-0.131526	0.142819	-0.17269	0.0337576	-0.00792372	-0.0277546	0.0345338	-0.0827231	0.0776238	0.116528	-0.0690851	-0.0749434	-0.103608	-0.039157	0.032033	-0.023727	0.126359	0.0323366	-0.201852	0.0736214	0.0411669	0.156809	-0.0391205
0.0116213	-0.131539	-0.0651294	0.0190476	0.101074	-0.00550547	0.106592	0.153427	0.0968455	-0.0552899	0.00734031	0.0387638	-0.0807123	-0.171103	0.0791967	-0.0412042	0.0876037	-0.0181008	-0.0883011	-0.175115	0.0344604	-0.0407062	0.0709119	0.00258237	0.0130636	-0.167968	0.0227949	-0.106632	-0.0467855	-0.124034	-0.124665	0.200903
-0.0451304	-0.130175	-0.117307	-0.0588386	0.0962387	0.160634	-0.0590673	0.0767144	0.0834188	0.0766905	-0.0810527	0.140314	0.0334624	0.121112	0.0657709	0.0410782	0.0584476	-0.0951332	-0.106688	0.063409	-0.0248702	0.117201	0.0747454	-0.118118	-0.0205516	-0.123136	-0.000499198	0.0925695	0.0312089	0.0330527	-0.0534494	-0.0179866
-0.169596	-0.102734	-0.127074	-0.104192	0.00203628	0.125329	0.0984332	0.118326	0.132492	0.00803518	-0.110103	0.157787	-0.133536	-0.0666786	0.116547	-0.020398	0.0716102	0.0123391	-0.204731	-0.0849417	-0.0652177	0.0356604	0.0494609	-0.125888	-0.0663467	-0.206606	0.0706172	-0.16982	0.0528714	-0.0321794	-0.123241	0.191862
0.0388986	0.0366902	0.00437151	0.042704	0.0549688	0.0107619	-0.117759	-0.0234157	-0.0792012	-0.0147229	0.00144011	0.017488	0.0950927	-0.00916773	-0.00803536	-0.0569718	0.0400479	0.00760239	0.0851463	-0.0406696	-0.0638895	0.00498281	-0.108299	0.0293118	-0.00774936	0.018865	-0.00277421	0.145933	-0.0263645	-0.00961971	0.0214991	-0.121379
-0.0494342	0.0451184	-0.0832001	-0.0420302	-0.0057989	0.0489145	0.0190692	0.0949999	0.0841864	0.117072	-0.165703	0.129682	-0.103665	-0.0103591	-0.0186788	0.0725661	-0.0617802	-0.06625	-0.0433431	0.130629	-0.0508755	0.107985	-0.000602813	-0.058134	-0.00867374	-0.0530187	0.0587207	0.0940393	0.0554	0.00837971	-0.08871	-0.0138968
-0.0752194	-0.244383	-0.0217448	-0.0522176	-0.00785159	0.0801279	0.0433534	0.0551019	-0.0078871	-0.0263499	0.0183311	0.0165648	0.0119324	0.026445	-0.143328	-0.154111	0.12837	-0.0648032	-0.0336356	0.0213352	0.126402	0.00198316	0.0699591	0.021034	0.129668	-0.143254	0.0100531	0.0607574	-0.115244	0.125728	-0.0498507	0.0808112
-0.12338	-0.0933511	-0.0692449	-0.108705	-0.0658868	0.0860086	0.119354	0.160198	0.162035	0.0784251	-0.127279	0.0875576	-0.131	0.0149257	0.0978803	0.094535	0.0125435	-0.0944844	-0.0959994	-0.0404262	-0.111432	0.112701	-0.00153203	-0.154197	-0.0888662	-0.110997	0.0747822	-0.0688574	0.062383	0.0756588	-0.161439	0.0978329
-0.0459863	0.0233267	-0.0517359	0.00394181	-0.0569459	0.0859695	-0.0411067	0.0644358	-0.0306157	0.0247521	-0.00695148	0.0471515	-0.0520012	0.141434	-0.0378102	0.0815018	-0.0323928	0.046356	0.0396012	0.136864	0.0939602	0.0957011	-0.0234844	-0.0883628	-0.0383344	-0.0499207	-0.00841992	0.00993154	0.114532	0.0886141	-0.142705	-0.0847258
-0.150289	-0.206388	-0.000853276	-0.121666	0.137675	0.121309	0.149815	0.0710519	0.0876091	0.0799735	-0.0995042	0.123736	-0.102258	0.000148091	0.0435116	0.0160923	0.0763729	-0.0456564	-0.145049	-0.0318115	0.00659146	0.105809	0.21768	-0.0829982	-0.020653	-0.133055	0.0247808	-0.0187468	0.0354506	-0.0174952	-0.0855033	0.174872
0.0555624	0.0821282	0.103366	0.116132	0.0425096	-0.0360582	-0.0225726	0.033918	0.055211	-0.096201	0.0192055	-0.0930048	-0.0939431	0.0154185	0.0388807	0.061372	0.0229776	0.102869	-0.0657722	-0.017338	-0.0217276	-0.0850893	0.055171	0.0241317	-0.0538479	-0.0115947	-0.0117323	-0.210903	0.0451755	0.00529599	-0.0572051	0.011597
0.0268781	-0.137762	0.032066	-0.084151	0.0162902	0.21554	-0.0878731	-0.0156785	-0.0523413	0.167919	-0.00723407	0.131264	0.0252255	0.105815	-0.0204838	-0.0407367	-0.0274644	-0.0102304	-0.0254963	0.102852	0.0742169	0.216912	0.0336475	0.0258592	0.0188805	-0.027814	-0.0521745	0.125284	-0.0422801	-0.0688641	-0.0305363	-0.0504485
-0.00348378	0.0220046	0.0356218	-0.0106915	-0.0972965	0.146458	-0.0155496	0.0156838	0.0328311	0.0492613	-0.0433504	0.0913426	-0.0730769	0.00502402	0.0330449	0.057836	-0.0692345	-0.0518457	-0.0410423	0.0409198	-0.113814	0.0257033	-0.0555787	-0.16792	-0.0828843	-0.0257522	0.172399	-0.0867964	0.0868117	0.134759	-0.0123197	-0.0199221
-0.0139566	-0.0197512	0.141913	-0.0493065	-0.146025	-0.0251519	-0.052268	-0.0562465	-0.0789047	-0.014665	0.152806	-0.0439726	0.129507	0.0144025	-0.10766	-0.168705	-0.144204	0.122018	0.110873	0.103348	0.110646	0.0729954	-0.0469876	0.0833684	0.118929	0.103967	-0.148486	0.0495866	-0.152379	-0.107279	-0.0120411	-0.0724359
0.0446326	0.0623831	0.0628557	0.0223216	-0.0463181	0.118343	0.076572	0.0614514	-0.00814208	0.10597	-0.0780647	0.0237547	-0.182388	0.0265158	-0.0347274	0.0786519	-0.014901	-0.0800766	0.00834668	0.0448622	-0.0861817	-0.0950466	0.0115901	-0.127622	-0.137178	-0.0972246	-0.0535664	-0.134387	0.05372	0.13368	-0.121959	-0.0406661
-0.0520903	-0.130369	0.0380534	-0.0795179	-0.0967821	0.188198	-0.180943	-0.0407761	-0.217088	0.173518	-0.0272681	0.165438	0.174815	0.16516	-0.0360418	-0.0238531	-0.0234318	-0.0603281	0.186559	0.168788	0.108101	0.200577	-0.179216	0.0754429	0.0712787	0.175759	-0.193104	0.16786	-0.094463	0.0980103	-0.0759706	-0.185779
-0.0489429	-0.180468	0.00327134	-0.0978904	0.108663	0.0124156	0.011715	0.023085	0.147115	-0.00507848	0.036676	0.0588164	0.00528073	-0.146953	0.0342034	-0.0120264	0.0324763	0.0450343	-0.0726209	0.0284385	0.00206861	-0.0426135	0.0387187	-0.026041	0.106803	-0.139831	0.00120216	0.0118199	-0.0683718	-0.199697	0.0782802	0.160605
-0.116054	-0.0234547	-0.0473197	-0.180265	0.0756164	0.0661391	0.0911208	0.0929341	0.129046	0.00568187	-0.0663917	0.00504035	-0.122974	-0.180335	0.120667	-0.0904378	0.024661	0.06925	-0.153435	-0.114336	-0.0954285	0.00413556	0.00237203	0.00605582	0.0824516	-0.0309281	0.131285	-0.0407104	-0.0598221	-0.150622	0.0612842	0.240921
-0.142498	-0.173324	-0.00960069	-0.139969	-0.116993	0.118514	-0.091639	0.0459244	-0.0772994	0.125635	-0.02365	0.222998	0.106879	0.149372	-0.0597925	-0.0444346	-0.0755318	-0.0587278	0.00867479	0.130453	0.114284	0.124043	-0.0114977	-0.0337526	0.105646	0.0262014	-0.0887346	0.150324	-0.102547	0.0447563	-0.122635	-0.0343187
-0.0710258	-0.132647	-0.0431094	-0.0562742	0.028097	0.096639	-0.0775166	0.0783998	0.0559464	0.0677407	-0.0877424	0.117295	-0.0231476	0.0131508	0.0558879	0.0147075	0.132808	0.0382505	-0.098269	0.119353	0.0674519	0.171818	-0.0843667	-0.0165001	-0.0708028	-0.0356273	0.031913	0.0784285	0.0383382	-0.0628869	-0.0742189	0.0159549
0.068335	0.0972685	0.0534765	0.0778292	-0.0802299	-0.109521	-0.143909	-0.0641395	-0.0943732	0.039141	0.0401456	-0.0201173	0.0989714	0.0725027	0.0190994	0.118901	-0.0776489	-0.113911	0.0890053	0.0679767	-0.0504467	0.0427925	-0.104397	-0.0731064	-0.15507	0.15138	0.109786	-0.140551	0.100424	0.0975586	0.0667865	-0.0937967
-0.0666193	-0.279667	-0.0503132	-0.163065	-0.0782297	0.107849	-0.00666546	0.0386139	-0.0891524	0.0828226	0.0132989	0.108781	0.050031	0.106968	-0.0786828	-0.103784	-0.0200258	-0.0361673	-0.0288907	0.15814	0.0610739	0.151427	0.083214	0.00960041	0.043774	-0.119526	-0.0123129	0.22721	-0.0559546	0.0716335	0.00408154	-0.0162984
0.0538724	-0.096497	0.104755	0.104865	0.131071	-0.037769	0.0244817	-0.0509958	0.0794591	-0.0831632	0.123029	-0.0652396	0.0288872	-0.0953853	0.00269964	-0.0585898	0.0335657	0.062166	0.100468	0.0654855	0.104087	-0.0264802	0.0704642	0.069932	-0.00348008	-0.0102168	-0.119384	-0.0943057	-0.134128	-0.0844417	0.0134717	0.066133
-0.186612	-0.205554	-0.09477	-0.233287	-0.114865	0.203128	0.0410951	0.0965694	0.0578989	0.178133	-0.0855937	0.215114	-0.0487789	0.0612955	-0.0526061	0.107012	-0.0218502	-0.0850344	-0.0632939	0.197413	0.0155257	0.182277	-0.0439016	-0.0515141	0.01614	-0.0905573	0.0865402	0.161653	0.0261836	-0.0198181	-0.0432916	0.0437709
-0.112884	-0.122247	-0.0728905	-0.0917637	-0.125653	0.0897371	0.0774323	0.113279	0.0830129	0.0955907	-0.0953029	0.101585	-0.100653	0.13471	0.132216	0.0993065	0.0802713	-0.0742515	-0.135882	0.076948	-0.173086	0.0736071	0.0782013	-0.0720939	-0.142074	-0.0944378	0.0868027	-0.128323	0.114858	0.131068	-0.055328	0.0665047
-0.135972	-0.143807	-0.0188311	-0.0877416	-0.0750959	0.0567865	0.177422	0.0251352	-0.0732596	0.0876893	0.0058802	0.00661909	0.0608152	0.111713	0.0305427	-0.128407	-0.0149191	-0.0482979	0.0912306	-0.0986095	0.1097	0.102196	0.18627	-0.00628582	0.0635668	-0.0402421	-0.124915	0.0939097	-0.109301	0.0467698	-0.0721675	0.139433
-0.0321011	-0.130412	0.0260846	-0.11482	-0.136676	0.0727825	-0.0715451	-0.0884611	-0.13687	0.141726	0.159885	-0.0227415	0.187916	0.113881	-0.178431	-0.154968	-0.102736	0.0532751	0.10817	0.058988	0.180574	0.111868	0.0319112	0.120784	0.144975	0.172164	-0.163949	0.14905	-0.125987	0.134654	0.00986926	-0.131244
0.0941111	0.0989579	0.0343345	0.00738651	-0.214877	0.0079219	-0.211905	-0.0747327	-0.17154	0.124178	-0.00322131	0.0514948	0.13208	0.185719	-0.0612769	-0.0838032	-0.134652	0.061476	0.162999	0.189779	0.0478328	0.096924	-0.234267	0.0675629	0.0142567	0.162272	-0.0120372	0.1685	-0.0554854	0.151071	0.11641	-0.172359
0.0264226	0.102386	0.0882315	0.0779796	0.019984	-0.0522804	-0.0306926	0.0155744	-0.0412728	-0.150154	0.122773	-0.109283	-0.0947084	0.121708	0.0147735	0.0614454	-0.0138297	0.0147788	0.0264287	-0.0384286	0.0333683	-0.0527927	-0.0235272	-0.016767	-0.157591	-0.0399996	-0.0547403	-0.142122	0.146312	0.0876044	-0.0403173	-0.0831325
0.115933	0.15138	0.049744	0.119003	-0.118379	-0.0580478	-0.1856	-0.147119	-0.0194479	-0.0300095	-0.0202504	-0.0827524	0.0546985	0.0967346	0.0698077	0.170817	-0.0573915	0.0144384	0.00756886	0.0208084	-0.0287461	-0.0205952	-0.211508	-0.0506289	-0.125348	0.158735	0.0324387	-0.188307	0.14796	0.0203879	0.163306	-0.132942
0.140305	0.0973139	0.0288746	0.0764127	-0.0174775	0.138586	-0.212747	-0.140439	-0.113274	0.131663	-0.000763736	0.0291015	0.118635	0.084164	0.0309071	0.00535529	-0.118144	0.0995441	0.100741	0.144644	0.0116022	0.0516832	-0.200691	0.0107491	-0.0745474	0.165029	-0.00942792	0.167492	0.0433199	-0.0127519	0.0647721	-0.111599
-0.21189	-0.141216	-0.172074	-0.196409	0.174799	0.128491	-0.0537752	0.153347	0.151638	-0.0433769	-0.19874	0.229368	-0.128091	-0.173461	0.244497	0.101257	0.126234	-0.0471701	-0.166043	-0.0280098	-0.084122	0.0707151	0.049382	-0.165481	-0.0951096	-0.201993	0.16663	-0.0257058	0.114777	-0.168133	-0.192935	0.168348
0.162962	0.2265	0.103651	0.153829	-0.159704	-0.100396	-0.122486	-0.0833818	-0.0473812	-0.0456676	0.0786233	-0.0670493	0.0453673	0.0847812	0.00721919	0.14911	-0.1192	-0.0956547	0.15001	0.108531	-0.0733915	-0.19747	-0.120546	-0.0370283	-0.198794	0.0415638	-0.0306721	-0.140235	0.153648	0.152399	0.084736	-0.0982394
-0.0506032	-0.0534118	-0.0463007	-0.0820191	0.0808452	0.113164	-0.138612	-0.00530917	-0.000483494	-0.0610911	-0.105017	0.0683736	-0.0183698	-0.114662	0.0547383	0.00218079	0.064367	-0.0328907	-0.0825584	-0.134179	-0.0493481	0.11455	-0.119335	-0.0191664	-0.0166842	-0.0339137	0.0340747	0.157181	-0.0346191	-0.195599	-0.00311559	0.043824
0.086973	-0.0827185	0.102188	0.140014	0.0557608	-0.0448964	0.137138	-0.0855327	0.0073933	-0.175355	0.0775239	-0.0918529	0.00715785	-0.0979635	-0.108545	-0.0909127	0.0923604	0.168509	0.0157741	0.0852032	0.129105	-0.0929167	0.072871	0.141251	0.0883362	0.0269026	-0.153694	-0.151568	-0.162313	-0.0912446	0.0405543	0.0900485
-0.111257	-0.0959707	-0.00187225	-0.0485279	-0.172927	0.119028	0.0661938	0.0610209	-0.0579656	0.110894	-0.102198	0.0691336	0.0595786	0.1264	-0.0231054	-0.0744351	0.0204775	0.0377215	0.0617315	0.0642525	0.0839658	0.168557	0.0503216	0.0889773	0.114355	-0.0993501	-0.0611728	0.110782	-0.0717761	0.0212245	0.048554	-0.0169497
-0.0962998	-0.130006	-0.00950301	-0.0833979	-0.0949695	0.0913557	0.0215398	0.0843221	-0.102262	0.140409	0.0333982	0.128271	0.066553	0.126922	-0.122274	-0.14178	-0.00781652	-0.0397911	-0.0339179	0.103571	0.168135	0.180981	-0.00475272	0.0156426	0.078214	-0.0644548	-0.046386	0.13351	-0.131083	0.0716706	-0.0391614	-0.0809323
-0.0887102	-0.05609	0.0186386	-0.133405	0.0230322	0.0354462	0.113539	0.0589098	0.0238957	-0.0492816	-0.0627738	0.00914539	0.0273686	-0.137053	-0.0141381	-0.244898	-0.0210366	0.00967999	-0.0163036	-0.097754	0.0154014	0.0225123	0.109828	0.0203081	0.12501	-0.0464261	-0.0141781	0.161893	-0.144761	-0.0999069	0.022246	0.116992
0.0136431	-0.0192033	0.106064	0.0801354	0.058652	-0.0963297	-0.0261545	-0.0885707	-0.0775776	-0.0735938	-0.00244639	0.00294676	0.135693	-0.0321808	-0.0657754	-0.0928133	-0.102468	0.129843	0.10077	0.0705176	0.0961256	-0.0315599	-0.00573549	0.154806	0.118092	0.0894048	-0.150857	0.0727806	-0.159027	-0.142096	0.128828	-0.0603344
-0.0939126	-0.112477	-0.136808	-0.0855746	-0.078686	0.113694	0.0940383	0.0724909	0.0125958	0.0445679	-0.200188	0.106863	-0.0741476	-0.0800196	0.0949766	0.0892735	0.0976189	-0.148007	-0.107806	-0.131933	-0.143604	0.0900312	0.0415269	-0.17381	-0.0923371	-0.107334	0.178745	0.0138499	0.170839	-0.0356121	-0.131573	0.142824
0.139258	-0.0766307	0.0706914	0.199757	0.143391	-0.146124	0.132385	0.0113866	0.15752	-0.182777	0.138913	-0.176609	-0.0431869	-0.152593	-0.153829	-0.0479512	0.133214	-0.0444461	0.0379857	-0.087244	0.0105775	-0.194653	0.127155	0.0583828	0.048393	-0.109456	-0.0354598	-0.1866	-0.0858675	-0.0241909	0.0509922	0.12061
-0.102661	-0.201635	-0.114689	-0.159792	0.052622	0.170972	0.0252397	0.11926	0.130784	0.0574875	-0.117012	0.0908917	-0.108579	-0.116986	0.117368	0.130351	0.102248	-0.0859867	-0.145564	-0.131157	-0.0948617	0.0696897	-0.048114	-0.175318	-0.0831901	-0.132311	0.0898092	-0.157731	0.129549	-0.140999	-0.109183	0.0927162
0.140484	-0.0485885	0.239414	0.14748	0.10489	-0.20798	0.143288	-0.186338	0.00858775	-0.142896	0.186699	-0.221894	0.114598	-0.172538	-0.115438	-0.176882	-0.0265308	0.0936581	0.183575	-0.194274	0.0699414	-0.159094	0.146812	0.196156	0.0477402	0.136962	-0.111533	-0.282311	-0.154406	-0.00152245	0.245705	0.0694051
-0.0135414	0.0944701	-0.118624	0.0439759	-0.0327989	-0.0320574	-0.0834449	-0.00410171	0.0262895	-0.00778668	-0.074907	-0.00419074	-0.0362358	0.0623342	-0.0345501	0.0483264	0.0123112	-0.0859678	0.0107143	0.0887458	-0.125652	0.0501815	-0.0355908	0.00187088	-0.155821	0.0676279	0.00920441	0.0171006	0.114923	0.0130287	-0.0283592	0.0120112
0.0191076	-0.0877947	0.099359	-0.0122256	-0.0501131	0.0786958	-0.216981	-0.173537	-0.194578	0.0639617	0.198875	0.00645952	0.214564	0.0650305	-0.2154	-0.138477	-0.182031	0.156662	0.15228	0.178823	0.148818	0.159973	-0.0018714	0.0255898	0.143361	0.128378	-0.0510872	0.211665	-0.169633	-0.10192	0.172721	-0.146533
-0.0828225	-0.0860391	-0.153454	-0.140378	-0.113855	0.0275271	-0.0130415	0.129385	0.148114	0.160377	-0.203768	0.126414	-0.181883	0.0681014	0.127076	0.231326	0.00965734	-0.152075	-0.124123	-0.112387	-0.184683	0.0853682	-0.0434992	-0.163966	-0.23539	-0.0960412	0.21568	-0.152265	0.186572	0.177084	-0.195308	0.0966859
-0.0759822	-0.143986	-0.0432824	-0.0841641	-0.0457468	0.0553649	0.0497355	0.00280361	-0.0903417	0.0821384	0.0111887	0.0414217	0.0469326	0.103236	-0.0963772	-0.120838	0.072418	-0.101474	-0.0609281	-0.0468582	0.11082	0.0879805	0.052418	0.0715063	-0.0177838	0.00354276	-0.0525795	0.0557776	-0.116096	0.0843232	-0.0956909	0.0158024
0.125121	0.0805214	0.122414	0.0845132	0.091295	-0.178149	-0.166028	-0.107157	-0.137124	-0.0136714	0.119465	-0.18519	0.150545	0.000750216	-0.0716215	-0.113931	-0.0992225	0.11004	0.153321	-0.0648869	0.124346	-0.0542135	-0.0762848	0.150584	0.13593	0.149473	-0.169668	0.07612	-0.110663	-0.107787	0.136698	-0.135003
0.164375	0.162893	-0.0234946	0.1427	-0.0366477	-0.196269	-0.0109347	-0.0749227	-0.0497942	-0.100041	-0.0659971	-0.0367965	-0.0083158	-0.0201336	0.00780207	0.101963	-0.0111227	-0.0409107	0.0283137	0.00373773	-0.139977	-0.108555	-0.0831656	0.00292806	-0.0632879	0.0673961	-0.00144212	-0.0359161	0.10614	-0.0339803	0.0350944	-0.0211321
0.0532477	0.00213537	0.103386	0.0278761	0.100285	-0.0535914	0.158763	-0.051664	-0.123082	-0.172943	0.0317411	-0.125819	0.0415287	-0.128165	-0.0316986	-0.193071	0.0310996	0.178564	-0.0385649	-0.106506	0.103186	-0.144597	0.1469	0.136615	0.137132	0.0570055	-0.16954	0.0769645	-0.144526	-0.110575	0.0526757	0.124927
-0.0647306	-0.137803	0.0836594	0.00117263	0.0536289	-0.0269617	0.112122	0.0563846	0.148309	-0.131082	0.0172425	-0.0252853	-0.0697701	-0.120992	-0.0586605	-0.0741911	0.0783854	0.0321396	-0.112391	-0.10711	0.112179	-0.10506	0.140731	0.0129705	0.101839	-0.0668883	0.0181788	-0.150224	-0.145042	-0.0450525	-0.0426102	0.162004
-0.187898	-0.136117	-0.129452	-0.165253	0.121963	0.0475533	0.139902	0.17664	0.157936	-0.0940247	-0.109334	0.0723563	-0.207777	-0.0325207	0.0550025	0.0335957	0.0220443	-0.106954	-0.159022	0.0295505	-0.0199523	-0.000945536	0.14712	-0.177249	-0.0225366	-0.175541	0.191952	-0.0690775	0.0411847	0.0397464	-0.0942845	0.178525
-0.135955	-0.17776	-0.0449235	-0.148031	-0.0255397	0.118125	0.117326	0.0954028	0.126941	0.0796248	-0.0840063	0.0261149	-0.129366	0.0162521	0.0986441	-0.0121848	0.110698	-0.0885096	-0.0886037	-0.129345	-0.028631	0.00815147	0.121684	-0.0600628	-0.0476691	-0.114373	0.122269	-0.167948	0.0525653	0.0312883	-0.119473	0.126161
-0.14857	-0.013593	-0.133634	-0.119937	-0.0403752	0.0600945	-0.0201758	0.0923025	0.158309	0.042963	-0.0850888	0.146956	-0.147626	-0.0611136	0.0809944	0.102851	0.00925818	-0.0999217	-0.106197	0.0117853	-0.105707	0.0673167	-0.0764331	-0.108605	-0.0176719	-0.0889023	0.101091	-0.0245981	0.110967	-0.121691	-0.0951491	0.156741
0.0567278	-0.0988935	0.184066	0.00285096	-0.0783498	0.109884	-0.119126	-0.16405	-0.122015	0.00859158	0.071244	0.0317976	0.12479	0.106395	-0.120537	-0.097046	0.0220904	0.0683804	0.183039	0.0910144	0.081975	0.0655685	0.0621858	0.134648	0.178637	0.0587264	-0.19074	0.111794	-0.165491	-0.0555872	0.0920982	-0.0791628
-0.000202013	-0.110909	0.158952	0.101776	-0.107554	0.0351825	-0.0685286	-0.0655857	-0.143998	0.018944	0.13936	-0.0518327	0.146309	0.0714477	-0.194199	-0.169168	-0.0813582	0.0963126	0.0891114	0.0562501	0.202106	0.077275	0.0665594	0.14658	0.219101	0.166071	-0.229409	0.123376	-0.119065	0.0205584	0.0624344	-0.138699
-0.138378	-0.158798	-0.16726	-0.120107	0.0605157	-0.0132633	0.172035	0.207941	0.269205	-0.063429	-0.0688552	0.0630814	-0.161199	-0.120814	0.132805	0.00332747	0.180945	-0.0935943	-0.166207	-0.0107611	-0.0434921	-0.0386023	0.0458344	-0.0832964	-0.113356	-0.150906	0.143921	-0.133511	0.0639329	-0.139917	-0.142085	0.234675
-0.0945417	-0.105974	-0.0675924	-0.103969	-0.222975	0.176645	-0.24772	0.0377196	-0.0448176	0.13822	-0.0118579	0.199372	0.0325419	0.203282	-0.022724	-0.0346983	-0.0869112	0.00741533	0.0347521	0.129922	0.0108688	0.192033	-0.150821	-0.0584309	0.0741346	-0.107866	-0.0599286	0.125401	-0.0888907	0.0141335	0.0278612	-0.134122
-0.00184477	-0.0594274	-0.109631	-0.0463267	-0.0102589	0.119451	-0.159987	0.0177951	-0.111978	0.233901	-0.0216915	0.179868	0.0815965	0.15414	0.00409125	0.00580464	0.0110682	-0.0305696	-0.000637031	0.124845	-0.00493936	0.192977	-0.0705219	0.00533652	0.0342948	-0.110934	-0.00124818	0.238827	0.0361874	-0.0104854	-0.0571021	-0.0325084
0.0631093	-0.0348788	0.103686	0.0256574	0.149107	-0.144751	0.0649979	-0.0880848	-0.0956933	-0.169214	0.09207	-0.156417	0.162718	-0.18486	-0.185169	-0.141074	0.0208335	0.0699676	0.107715	-0.0791146	0.142069	-0.131993	0.132923	0.149353	0.0832896	0.152911	-0.0985769	0.148208	-0.130389	-0.146852	0.172258	0.0502666
0.063436	0.0729495	0.0775005	0.0716466	0.0758691	0.0473838	-0.191774	-0.051748	-0.112862	0.0928468	0.11146	0.063925	0.221818	0.0920091	-0.0691486	0.0721332	-0.114792	0.0697221	0.137165	0.138195	0.0742183	0.0763379	-0.100733	0.0598931	0.0272953	-0.0169434	-0.123919	0.155403	0.00572861	-0.0213565	0.0206553	-0.201382
-0.132578	-0.129223	-0.0953289	-0.118413	-0.0153095	0.103065	-0.0425517	0.160525	0.168466	0.0986664	-0.10824	0.111486	-0.0705696	0.0077974	0.142103	0.0753561	0.0158428	-0.0562108	-0.164994	-0.0141765	-0.0304781	0.108007	-0.0521329	-0.207598	-0.123499	-0.155209	0.203975	0.0248654	0.0590077	-0.0480094	-0.21455	0.127452
-0.196577	-0.155298	-0.177297	-0.117311	0.0498793	0.146636	0.101429	0.144507	0.107412	0.0364374	-0.101857	0.116917	-0.0890838	0.00726358	0.0615164	-0.00310188	0.168739	-0.0133725	-0.12703	0.0712114	0.0199656	0.127261	0.146418	-0.134444	-0.0414018	-0.134609	-0.0243652	0.0525716	0.138515	-0.0508399	-0.184581	0.0790043
0.0715934	0.166712	-0.0516476	0.102566	-0.161676	-0.110945	-0.11402	-0.0506051	0.00371034	0.0581753	-0.0275871	0.0481463	-0.105241	0.100938	0.0842641	0.175436	0.0117695	-0.146299	0.0275557	-0.0599087	-0.064989	-0.0885268	-0.12002	-0.0874908	-0.217454	0.0372537	0.120641	-0.0917089	0.196462	0.15597	-0.116699	-0.121387
0.0272182	0.0265607	0.0922043	0.0690411	0.013269	-0.0251888	0.0872605	-0.0414618	-0.0257026	-0.0633867	0.0354836	-0.0862294	-0.00901663	-0.0306264	-0.0238434	-0.0508352	-0.0191187	0.0431859	0.054347	-0.0543424	0.0631811	-0.10868	0.0550949	0.112729	0.0907227	0.0798829	-0.0732905	0.0496197	-0.0454335	-0.027422	0.0136999	-0.0320842
-0.140308	-0.00418743	-0.11503	-0.0583516	0.0280401	0.146572	-0.00858921	0.19298	0.186372	0.0720388	-0.109642	0.0869751	-0.055644	-0.132143	0.121713	0.103132	-0.0542633	-0.189934	-0.142531	0.041365	-0.136454	0.0987309	-0.0687268	-0.0783738	-0.0970275	-0.102598	0.132862	-0.104975	0.0273714	-0.107121	-0.164655	0.0920446
-0.0917836	-0.0688221	-0.0804725	-0.137609	0.0738941	0.0322084	-0.048949	0.101493	0.00917241	0.0716424	-0.0933108	0.092307	0.0532427	-0.0807557	0.043675	-0.0341333	0.0424779	0.0517436	-0.0313953	-0.0851017	-0.0550152	0.0366057	-0.0398132	0.0299917	0.0545451	0.0348809	0.0522518	0.0446855	-0.111861	-0.235836	0.0209362	0.0393755
0.042176	-0.0615608	0.109519	0.0103012	0.180412	-0.0379207	0.0231901	-0.106632	-0.0845856	-0.101594	0.169318	-0.120293	0.180244	-0.118888	-0.0626155	-0.135334	0.0583694	0.176497	0.132732	-0.0352999	0.146175	-0.0331361	0.0885126	0.170396	0.189027	0.0340091	-0.129385	0.109531	-0.15976	-0.170025	0.136487	0.0425489
0.0194044	0.157124	0.0090743	0.0585895	-0.181507	0.0116183	-0.16417	-0.103059	-0.0809414	0.216962	0.0573796	0.100356	0.0964915	0.099749	-0.0889537	0.0989107	-0.0640833	0.0477197	0.0823064	0.120875	-0.0525408	0.03594	-0.201714	0.00860141	-0.00656848	0.135845	-0.017692	0.125717	0.0675909	0.0197545	0.042227	-0.183949
0.0779063	-0.00043623	0.183877	0.0734038	0.0663611	-0.1136	0.175281	0.0115418	0.0747402	-0.136785	0.153672	-0.185423	-0.0308034	-0.147198	-0.151252	-0.188209	0.0493387	0.106429	-0.0553242	-0.170103	0.137671	-0.12222	0.168798	0.12315	0.0813882	0.0311958	-0.14622	-0.15745	-0.160313	-0.136088	0.0336322	0.120067
0.0131785	-0.110694	0.0127867	0.0301959	0.0599456	-0.092048	0.150272	0.0904983	0.186976	-0.145677	0.123174	-0.147711	-0.0516903	-0.151257	-0.0700981	-0.1613	0.108408	0.055549	-0.0923634	-0.146102	0.0212224	-0.122018	0.193574	0.0400256	0.0854063	-0.0865592	-0.0167311	-0.0555067	-0.0817777	-0.123221	-0.072373	0.200282
-0.15071	-0.214026	-0.120581	-0.00932225	0.0507181	0.0788097	0.0204183	0.209852	0.152927	0.0213977	-0.167342	0.0437787	-0.199334	-0.0450526	0.112884	0.0114418	0.117638	-0.103634	-0.185643	-0.0456651	-0.0577509	0.0371611	0.0659884	-0.128371	-0.0922869	-0.153875	0.104545	-0.208977	0.18186	0.000586297	-0.130447	0.1893
-0.0576527	0.024429	-0.0434074	-0.00864588	-0.00167249	0.155354	-0.180181	-0.0146908	0.00107244	0.0635862	-0.00401722	0.0142667	-0.061806	0.0122758	0.00346331	0.0939672	0.0888383	0.0205257	-0.0605701	0.106763	-0.0501383	0.0344067	-0.0690613	-0.0734402	-0.0169125	-0.0973086	0.0152874	0.116149	0.0808828	0.00212789	-0.0340084	-0.0129588
0.0491485	0.0244784	0.0872107	0.0511682	-0.116533	0.146919	-0.10303	-0.063465	-0.0570101	0.121762	0.116067	0.0746057	0.145482	0.101329	-0.160206	-0.108495	-0.163532	0.13047	0.0735121	0.157998	0.0893278	0.171768	-0.0079478	0.0742252	0.126709	0.08475	-0.0724263	0.129318	-0.100003	-0.0293074	0.0967446	-0.0907738
-0.00609654	0.11902	-0.0177999	-0.00932558	-0.163073	0.00765699	-0.0438764	0.0397618	-0.0581642	-0.0198984	0.00260861	0.0397318	-0.105116	-0.0627018	0.037361	0.116645	-0.100075	-0.118491	0.0168534	0.0228732	-0.105134	0.0693418	-0.0786019	0.0389613	-0.0684437	0.0527124	-0.0312903	0.00172499	0.0544626	-0.0359999	-0.00288483	-0.0159041
-0.121047	0.114482	-0.105511	-0.089651	0.0430266	0.0853104	0.0549744	0.0719291	0.111541	-0.0204493	-0.113955	0.0828243	-0.143657	-0.149447	0.0887911	0.136879	0.133371	-0.0969073	-0.133752	0.0327693	-0.0405638	0.157995	-0.116059	-0.127808	-0.0944418	-0.00938487	0.0616689	0.113106	0.130342	-0.174348	-0.10359	0.163826
-0.106162	-0.105474	-0.0850087	-0.0894478	0.0295273	0.154137	-0.06954	0.135983	0.114397	0.165296	-0.110804	0.091071	-0.0187659	-0.0652841	0.0652929	0.128611	0.0705606	-0.110158	-0.109649	-0.0416424	-0.102141	0.172366	-0.13351	-0.114752	0.0100304	-0.100259	0.00875409	0.0251026	0.0955952	-0.12745	-0.0284408	0.0910089
0.157871	-0.129015	0.131689	0.155441	0.191958	-0.201336	0.0813725	-0.0159208	0.182856	-0.166976	0.131607	-0.130675	-0.0281801	-0.150212	-0.0488571	-0.114234	-0.0451779	0.204234	-0.148443	-0.17677	0.111341	-0.15154	0.109376	0.150593	0.14727	-0.157075	-0.134238	-0.13868	-0.177717	-0.0464154	0.0973539	0.180383
0.031249	0.174631	-0.0441377	0.0745621	-0.0148035	-0.0179073	-0.00138484	-0.00908745	-0.0230642	-0.0737126	-0.0274799	-0.0191542	0.0576792	-0.0680949	-0.00682358	-0.0185184	-0.101239	-0.00226098	0.0508895	0.0502513	-0.0295583	-0.0815247	-0.0398604	0.0486131	0.0126061	0.0734337	-0.0149741	-0.108866	-0.0432309	-0.0211107	0.0544355	-0.0203544
-0.197804	-0.10875	-0.108407	-0.13276	0.0289381	0.0514065	0.177707	0.197072	0.129203	0.0318061	-0.114388	0.112814	-0.142761	0.0230762	0.0696602	0.0457019	0.174328	-0.0318165	-0.12457	-0.10449	0.0627851	0.127549	0.115428	-0.119033	-0.011546	-0.163922	0.11873	-0.0212893	0.0366284	0.0672933	-0.167255	0.166259
-0.0439855	-0.0774285	0.0427041	-0.0297426	0.152969	-0.0350451	0.0285252	-0.0183746	-0.0544261	-0.108765	0.0486715	-0.011061	0.113511	-0.0553789	-0.142552	-0.075448	-0.0828838	0.101945	0.00100947	0.0204383	0.0656771	0.0257218	0.073671	0.10336	0.129646	-0.0148982	-0.0674426	0.19749	-0.0535334	-0.159306	0.0435951	-0.0518549
0.111493	0.0153547	0.111658	0.033648	0.117411	-0.116206	0.0895536	-0.162688	-0.096604	-0.123628	0.108177	-0.160537	0.0882278	-0.161182	-0.100479	-0.0899056	-0.0343405	0.124978	0.00632726	-0.169899	-0.0467194	-0.141385	0.00404106	0.18408	0.18352	0.122812	-0.178152	-0.106783	-0.184103	-0.146359	0.216454	0.0916691
-0.211373	-0.206632	-0.150887	-0.111304	-0.0395719	0.135064	0.0578806	0.173331	0.156891	0.05004	-0.188686	0.18145	-0.213536	-0.097942	0.089463	0.129378	0.06333	-0.107614	-0.247896	-0.010124	-0.0489053	0.10532	0.0430936	-0.162945	-0.13223	-0.255851	0.0909501	-0.0977072	0.176551	-0.138088	-0.17375	0.257099
-0.0168506	-0.0998065	0.0477801	0.0263636	0.122894	-0.13008	0.143598	0.0304035	0.168484	-0.0470202	0.0446922	-0.109379	-0.111538	-0.112357	-0.0339401	-0.117715	0.0272054	0.0164143	-0.113024	-0.0874502	0.0443751	-0.124866	0.159958	0.0361061	0.0223758	-0.0188935	0.0241424	-0.165304	-0.0774643	-0.0516694	-0.0463265	0.102369
-0.0797892	-0.104841	-0.040668	-0.0554512	0.00591347	0.0625984	0.0972571	0.0640097	0.0657801	0.0553389	-0.0414282	0.0834325	-0.0264132	0.0608229	0.0464843	0.00727652	0.0227457	-0.0443119	-0.110111	0.0668039	-0.0210585	0.108888	0.0871686	-0.0551254	-0.00966138	-0.0466792	0.0424273	-0.0036897	0.0297833	0.0510421	-0.0567126	0.0218005
0.103292	0.0299093	-0.000238682	0.135109	-0.0979144	-0.0281742	-0.090195	-0.0827863	0.038422	-0.0326834	0.0416349	-0.0429227	-0.020678	0.134663	0.0273608	0.162837	-0.0052404	-0.0698954	0.0862388	-0.0693691	0.00748416	-0.149414	-0.0870085	-0.0785458	-0.176355	0.022861	0.0485523	-0.204462	0.165029	0.113449	-0.0133819	-0.129036
-0.0352637	-0.0499262	-0.0270026	-0.00378069	-0.0417627	0.0994683	-0.0722229	0.0913084	0.0908064	0.0949906	-0.100673	0.0100905	-0.0219901	0.032902	0.0985315	0.0518034	0.0168438	-0.013816	-0.0267204	0.0107419	-0.0804618	0.0702264	-0.0908223	-0.100461	-0.0126335	-0.0345045	0.0475184	-0.0574819	0.0841577	0.0683591	-0.0614752	0.0379642
-0.103007	-0.152066	-0.029593	0.00538523	0.100336	-0.0501305	0.193549	0.113248	0.228533	-0.0901027	0.000519264	-0.0314274	-0.189726	0.0142077	0.0113254	-0.0867407	0.157081	0.130974	-0.165097	-0.0787044	0.126228	-0.118524	0.157942	-0.0529453	0.0867606	-0.211076	-0.0619875	-0.0547284	-0.00874688	0.0217764	-0.123938	0.138303
-0.115086	0.0700003	-0.104519	-0.0671517	0.0125037	0.106047	-0.14349	0.107194	0.138453	0.0974282	-0.131348	0.109308	-0.0692772	-0.110947	0.196335	0.234266	0.0993779	-0.0546986	-0.106183	0.086936	-0.165092	0.0880954	-0.182813	-0.129736	-0.208955	-0.00137137	0.209994	-0.0893173	0.142495	-0.0584098	-0.135212	0.0413582
0.0259728	-0.0914718	0.0267565	0.00492236	0.0406593	0.132646	-0.0544653	-0.0302489	-0.0682559	0.0508798	-0.0229948	0.0939826	0.166386	0.0737805	-0.0652381	-0.0849801	-0.0090233	0.00457102	-0.00901584	0.142754	0.123255	0.127347	0.114552	0.117585	0.16355	0.0413107	-0.148804	0.126516	-0.0943303	-0.00795811	-0.0872931	-0.0845055
-0.184597	-0.224839	-0.0682485	-0.0803504	0.110776	-0.00376217	0.121978	0.145282	0.199417	-0.0926708	-0.0987628	0.0667939	-0.163269	-0.188743	0.0454718	-0.0382573	0.0654657	-0.0538806	-0.160574	-0.0754025	-0.0481566	-0.0774926	0.138442	-0.064756	-0.051089	-0.141299	0.123363	-0.236579	-0.0751795	-0.112927	-0.220507	0.223759
-0.131066	-0.162734	-0.131771	-0.113136	0.0862986	0.0464328	0.136647	0.18435	0.114494	0.0310755	-0.186612	0.149902	-0.0913856	-0.0672114	-0.021876	0.0297725	0.0164013	-0.118021	-0.0926985	-0.0220501	0.0783336	-0.0128583	0.10708	-0.146273	-0.0293577	-0.125113	0.146331	-0.114379	0.03412	0.0369702	-0.120963	0.146773
0.0579513	0.12104	0.132486	0.0396479	-0.00437528	-0.0796986	-0.170486	-0.141969	-0.144887	0.124929	0.115519	0.01205	0.180602	0.0996516	-0.143884	0.0197122	-0.133451	0.0424703	0.16776	0.0598692	0.114258	0.0689591	-0.154502	0.0561347	0.0262752	0.149382	-0.1571	0.033515	0.000715432	0.00198063	0.0311728	-0.190176
-0.148817	-0.156367	0.0410056	-0.0287445	-0.0475721	0.0837355	0.0841503	0.0428206	-0.0774612	0.0876703	0.0651671	0.0124894	0.00164579	0.0909872	-0.0941026	-0.131849	0.0182194	-0.0438189	0.018603	-0.00560906	0.16195	0.129075	0.0282454	0.0898729	0.0810612	0.0363168	-0.100179	0.127903	-0.106012	0.149799	-0.0528862	0.0749505
0.0987263	0.0330305	0.0766164	0.0276123	0.0657504	-0.00215805	-0.130258	-0.0519879	-0.112459	0.0621157	0.108664	-0.0301545	0.149936	-0.00555917	-0.0292002	0.0295155	-0.0768674	0.0551322	0.0954109	0.0960875	0.00979348	0.0469452	-0.100694	0.0352822	0.00911289	0.124001	-0.0895198	0.0993354	-0.0222867	0.00292875	0.0981384	-0.166411
0.165824	0.157199	0.118335	0.110401	-0.0247992	0.021718	-0.0631058	-0.0829326	-0.0413497	-0.0533893	0.135099	-0.0917052	-0.0568981	0.0721318	-0.0145805	0.0668554	-0.0942736	0.0516751	0.112848	0.145473	0.0397418	-0.162133	0.0447713	-0.0754102	-0.122401	0.0303214	-0.158046	-0.212139	0.187944	0.152822	0.164034	-0.107585
-0.142296	-0.243843	-0.233972	-0.179399	0.059759	0.186652	0.0858127	0.178751	0.191063	0.0410884	-0.174797	0.222245	-0.131181	-0.13281	0.217071	0.112018	0.152895	-0.159459	-0.167638	-0.0185954	-0.0156517	0.1748	0.0443605	-0.172641	-0.196484	-0.238481	0.189694	-0.0765611	0.122049	0.0307055	-0.218978	0.228586
0.0280922	0.0839081	-0.0813001	0.0358273	-0.130921	0.0905196	-0.0755998	0.0241638	0.0428601	0.142031	-0.0518345	0.010364	-0.0268791	0.0994467	0.0657112	0.103081	0.0387639	-0.101693	0.0357531	0.141409	-0.0579639	0.00634885	-0.0177917	0.0199451	-0.0767535	-0.0159789	0.0185005	0.0144914	0.0480093	0.067653	-0.0291284	-0.010777
0.00555883	0.152977	-0.157233	0.0517695	-0.0686775	0.0564319	-0.166681	0.0165253	0.0445524	0.0572129	-0.0109969	0.0523229	-0.0733609	0.0909048	0.111558	0.167135	-0.0509637	-0.103623	-0.0334194	0.0975289	-0.127788	0.0134086	-0.225447	-0.0885985	-0.185626	0.0138169	0.0531885	0.0568026	0.121463	0.103225	0.0102882	-0.128528
-0.150855	-0.138719	-0.178552	-0.199276	-0.0154757	0.117592	0.0219244	0.134588	0.177596	0.0432649	-0.116556	0.146167	-0.161882	0.108603	0.211428	0.0354818	0.0342007	-0.130594	-0.192779	-0.0318533	-0.0951038	0.0613064	0.00386304	-0.125083	-0.178916	-0.148249	0.195223	0.0365341	0.11318	0.117159	-0.205457	0.0196288
-0.186761	-0.101766	-0.0492383	-0.102186	-0.0475453	0.163458	0.118446	0.19657	0.17506	0.0491956	-0.0479947	0.0792623	-0.111859	0.0923654	0.164941	0.0734236	0.139529	-0.0213974	-0.0994325	0.149436	-0.0698059	0.0366651	0.159784	-0.162981	-0.101943	-0.160653	0.181239	-0.021035	0.195609	0.172101	-0.156799	0.12985
-0.163128	-0.0562853	-0.0241745	-0.0520723	-0.0361353	0.0335983	0.140172	0.0857021	0.148714	-0.0186105	-0.0873337	0.0614281	-0.17395	-0.118394	0.0663761	-0.00648784	0.0294352	-0.0787025	-0.172496	-0.127653	-0.0917245	0.0325022	-0.056719	-0.0553754	-0.00223569	-0.0791377	0.083591	-0.0891616	-0.125355	-0.0967144	-0.0455294	0.154661
0.112832	0.184243	0.178453	0.153759	-0.0330696	0.172614	-0.147817	-0.0601134	-0.156598	0.15821	0.125749	-0.0913199	0.133776	0.155837	0.0436671	0.199784	-0.12751	0.000351663	0.102409	0.0159807	0.00458241	-0.04787	-0.092351	-0.103527	-0.138997	0.00134611	-0.170295	-0.16778	0.154799	0.0908196	0.054413	-0.178044
-0.124227	-0.208401	-0.015427	-0.0854596	0.0158706	0.0821636	0.18303	0.0824172	0.139529	-0.0134965	0.00258894	-0.0111443	-0.0898079	-0.0914021	-0.108481	-0.084741	0.0838841	0.0866255	-0.108283	0.0446734	0.100461	-0.0524746	0.156783	-0.0314306	0.124312	-0.0948467	0.0216983	-0.0665197	-0.0235634	-0.0584963	-0.030919	0.260682
0.0812415	0.0545973	-0.0599809	0.0216017	-0.127017	-0.0674413	-0.0780246	-0.0965988	0.0030949	0.066582	0.0136883	-0.00134042	0.00840585	0.130202	-0.0279172	0.0148955	-0.0608758	-0.061118	0.0501038	0.093436	-0.0724841	-0.0193318	-0.129773	0.0381766	-0.00562396	0.0681587	0.00859123	0.0340389	0.0134635	0.125176	0.0728348	-0.136147
0.0921911	0.0291307	0.0802347	0.107544	0.0679837	-0.0581177	-0.0915921	-0.182489	-0.146316	-0.0348466	0.118564	-0.148544	0.154869	0.112171	-0.102981	0.0537567	0.0176363	0.0703045	0.166829	0.0914089	0.0521517	-0.124011	-0.0153369	0.053417	-0.0356316	0.124372	-0.122349	-0.144856	0.0561738	0.0862951	0.0957376	-0.0861068
0.200728	0.26564	0.184928	0.138678	-0.0958935	-0.24825	-0.141401	-0.221019	-0.19228	-0.10968	0.167401	-0.182176	0.180524	0.165497	0.0324626	0.208394	-0.210062	0.0247807	0.215822	0.00766109	-0.0683814	-0.242787	-0.117029	0.0557921	-0.187886	0.240688	-0.0987489	-0.173182	0.115387	0.212067	0.139441	-0.215002
0.119062	0.167188	0.0214484	0.155271	-0.0877818	-0.0506113	-0.175453	-0.128967	-0.0527625	0.11991	-0.00991482	0.0310487	-0.0802098	0.121754	0.0361232	0.196948	-0.0382743	-0.120495	0.124215	0.0549993	-0.0667538	-0.119974	-0.103149	-0.121612	-0.17407	0.0738576	0.0769841	-0.0724977	0.196193	0.0930861	-0.13834	-0.121899
0.1057	-0.0378136	0.0997474	0.0277695	0.0892773	-0.146202	0.150002	-0.121085	-0.104402	-0.081679	0.0903249	-0.139496	0.0723875	-0.106798	-0.110513	-0.0932888	0.0984237	0.0628188	0.0966111	-0.209014	0.0844658	-0.177069	0.0869162	0.143643	0.186586	0.0572131	-0.113759	-0.0281772	-0.153005	-0.139362	0.131007	0.125993
-0.0238056	0.0865659	-0.045749	-0.0253958	-0.135092	0.00667596	-0.129773	0.0587068	0.126971	0.0696301	-0.0185544	0.0426799	-0.027076	0.0621384	0.126505	0.0965563	-0.0228085	-0.114822	0.0282608	0.161063	-0.12005	0.112635	-0.105909	-0.0657377	-0.111653	-0.0745976	0.0894861	-0.143405	0.111175	0.00145123	-0.0815227	-0.0379878
0.055747	0.0895736	-0.0539666	0.0848917	-0.117187	-0.0588633	-0.0137461	0.00887512	0.0149146	-0.0151722	-0.0369226	0.0549614	-0.104671	-0.014546	0.0590065	0.128711	-0.106443	-0.0965597	0.0304553	-0.108618	-0.115998	-0.0231157	-0.0778023	-0.112485	-0.159907	0.0210576	0.0739753	-0.0551929	0.16186	0.0943656	-0.0734517	0.00447111
0.0645244	0.0638663	0.151499	0.0134556	0.131392	-0.11741	0.132739	-0.121136	-0.0815342	-0.170728	0.108052	-0.131785	0.126919	-0.155957	-0.121318	-0.176856	-0.0267373	0.127813	0.0618734	-0.0924206	0.112749	-0.190171	0.095802	0.137389	0.122753	0.0826477	-0.140508	-0.000905583	-0.153992	-0.131327	0.154736	0.0788077
0.0497299	0.133889	0.0589524	0.122222	-0.0356901	-0.123689	0.12712	-0.096807	-0.0492255	-0.130885	0.0880929	-0.0768913	0.0424856	-0.0680117	0.0121418	-0.0256504	-0.146708	0.0889923	0.0401266	0.0717756	0.058136	-0.144426	0.116457	0.103014	0.0707911	0.0768766	-0.0461699	-0.119682	-0.116347	-0.0821677	-0.00316513	0.0403891
-0.00239555	0.0521833	-0.0768233	0.0993409	-0.0753121	0.0671124	-0.08857	-0.0136047	0.0209918	-0.0301829	-0.0298813	0.0486046	-0.0433261	-0.008677	0.0719397	0.0801068	-0.0590681	-0.118644	0.00359622	0.125398	-0.139783	-0.0138938	-0.0789146	-0.100722	-0.115638	-0.00277703	0.0502067	0.0521729	0.0931213	0.0319683	-0.0388419	-0.0806289
0.124632	0.201277	-0.00971673	0.0897501	-0.0318633	-0.108113	-0.14131	-0.147063	-0.0520661	0.0178853	0.022868	-0.0875596	0.0626301	0.166542	0.124025	0.150952	0.00201633	-0.0527634	0.0975405	-0.0135075	-0.0578087	-0.154218	-0.168057	-0.079206	-0.160359	0.123878	0.0414115	-0.148152	0.127396	0.209686	0.0426227	-0.134613
-0.109112	-0.118238	-0.0417455	-0.122035	0.0380691	-0.000516759	0.0933336	0.0794398	0.0714392	-0.044172	-0.063939	0.0103512	-0.074947	0.0229554	0.0302518	0.00584576	0.0681387	0.0878583	-0.0816453	-0.0569536	0.104208	0.0390296	0.0796678	-0.0662701	0.0716668	-0.135393	0.0746712	-0.0431365	0.0160666	-0.0197244	-0.0939609	0.0602086
0.135196	0.0233252	0.111486	0.0423927	0.0981404	-0.170454	0.0955983	-0.131527	0.0288174	-0.136104	0.136516	-0.126655	0.109537	-0.0993719	-0.151574	-0.115352	0.0865688	0.123594	0.0910826	-0.113182	0.0926185	-0.100349	0.089824	0.161913	0.00962626	-0.0189578	-0.0544717	-0.108846	-0.111337	-0.0748773	0.143609	0.0209222
0.00755236	-0.0633774	0.0475055	0.000900805	0.0516012	-0.00925871	0.0476184	0.0230472	-0.0381621	0.0955885	-0.0305436	-0.00568131	-0.00543752	0.0931898	0.0220794	-0.0600656	0.0593408	0.0627479	-0.0420926	0.0173487	0.152428	0.00123782	0.0810514	-0.0078165	0.0254781	-0.0444805	-0.0511718	0.0366446	-0.0893924	0.0376817	-0.034906	0.0614292
-0.0556857	-0.0109049	-0.0650958	-0.034001	0.00274033	0.0552453	-0.0783585	0.129735	0.00405305	0.00906507	-0.0704318	0.112621	0.0414887	-0.0133801	0.0746477	0.0572254	-0.01088	-0.0614815	0.0335537	0.0771429	0.0159896	0.091775	-0.0413999	-0.0448005	0.0210057	0.0164617	-0.00957702	0.0593961	-0.0281279	-0.0114098	-0.0456094	-0.07575
0.132623	0.156737	0.167504	0.173665	0.00379824	-0.114108	0.0373433	-0.137561	0.0113542	-0.0636458	0.185136	-0.0657897	-0.0555907	-0.103224	-0.109857	-0.0462923	0.0460385	0.02417	0.0679777	-0.211761	0.169849	-0.182617	-0.0372746	0.0458316	0.00555579	0.150272	-0.0695687	-0.175242	0.0385472	0.0481129	-0.000445513	-0.0956758
-0.104966	-0.0658204	-0.110034	-0.0660336	0.0360043	0.0225762	-0.102673	0.111305	0.152176	0.0967007	-0.132561	0.0972683	-0.0865465	-0.15314	0.0964479	0.141222	-0.0650251	-0.0765455	-0.130867	-0.0139931	-0.115676	0.0566488	-0.0422617	-0.148048	-0.105052	-0.0673002	0.138907	-0.0499283	0.0640549	-0.139101	-0.0805063	0.141258
-0.094793	-0.0890956	-0.106184	-0.148991	0.137904	0.0938429	0.153248	0.124538	0.0209859	-0.0418617	-0.138676	0.0555262	-0.0988586	0.0110288	0.0955217	-0.0982224	0.109845	-0.0601591	-0.159872	-0.0951165	0.0203461	-0.0802741	0.106881	-0.0975649	-0.0135207	-0.158762	0.0622246	-0.0762811	-0.0205789	0.0118066	-0.103533	0.125998
-0.0777962	-0.0834694	-0.0224913	-0.115148	0.0256454	0.10123	0.116357	0.0440518	0.025068	0.0636168	-0.00152318	0.0985842	-0.101491	0.0252201	0.0659614	-0.0509883	0.0395925	0.00966635	-0.0693035	0.0153649	0.11331	0.0291668	0.0895475	-0.0964039	0.0457724	-0.0217975	0.00354706	-0.0298002	0.0636609	0.0174976	-0.0356332	0.0863046
-0.122012	-0.0984292	0.104562	0.00571347	0.0211659	0.137307	-0.0494906	-0.0640175	-0.195979	0.131815	0.127636	0.0796548	0.14958	0.123354	-0.165581	-0.18063	0.0351259	0.150045	0.0143958	0.120098	0.236734	0.0913853	0.108948	0.0310332	0.143942	-0.0307682	-0.207399	0.112432	-0.114387	0.0678379	0.0411044	-0.0111368
-0.0686884	-0.0677576	0.00554898	-0.0440301	0.04389	-0.0966285	0.205684	0.230025	0.166883	-0.171822	0.0499259	0.0456421	-0.200688	-0.102138	-0.121371	-0.143982	0.00772253	0.0388355	-0.153827	-0.111207	0.119145	-0.0587177	0.211668	-0.0113815	0.101656	-0.264708	0.0299739	-0.225162	-0.150551	-0.0981699	-0.105903	0.236842
-0.0695713	-0.165188	-0.115823	-0.0485874	0.0135198	0.00584146	0.178378	0.118141	0.151966	0.00216425	-0.0779922	0.0534322	-0.114599	0.0866781	0.00273865	0.0260021	0.140049	-0.0749861	-0.128671	0.0796473	0.0410037	0.10831	0.125854	-0.0200984	-0.125137	-0.10106	-0.0330822	0.136367	0.120505	0.0723369	-0.0935574	0.197511
0.0100603	0.0441898	-0.0752372	-0.00651298	-0.02851	-0.0478032	-0.0607788	0.0350422	0.0589658	0.0526563	-0.05564	0.0958132	-0.0753574	0.104487	0.108388	0.0464987	0.0253202	-0.109757	0.0151958	0.0559239	0.0295989	-0.0033465	-0.0863252	-0.177597	-0.174919	-0.032792	0.123985	-0.204992	0.17426	0.130104	-0.0505529	0.00184867
-0.0830194	-0.167596	-0.188619	-0.0689479	0.0210612	0.0881269	0.0509573	0.103962	0.100486	0.0830168	-0.134322	0.178112	-0.0627992	0.0407181	0.0739694	0.0990771	0.135492	-0.0930342	-0.135099	0.0243895	-0.150389	0.11126	0.0457618	-0.105574	-0.0685676	-0.0928159	0.0943244	0.0358368	0.0889496	-0.00503476	-0.0945389	0.0590644
0.17897	0.177895	0.0560309	0.149383	-0.0170933	-0.0196033	-0.164096	-0.0922301	-0.167891	0.036671	0.0101021	-0.000885172	0.0697444	0.153897	0.064262	0.128948	-0.10726	0.0107597	0.168239	0.0893938	-0.00714487	-0.0737752	-0.0639759	0.0355141	-0.130857	0.0760904	-0.0697537	0.0242825	0.194937	0.135317	0.0829553	-0.133536
-0.164917	-0.149311	-0.0901336	-0.186543	0.0589522	0.131229	0.205506	0.128229	0.162902	0.0406278	-0.107923	0.0511313	-0.14585	0.0773298	0.0914019	0.0291298	0.172188	-0.0654965	-0.183688	-0.0634068	0.102787	0.108957	0.161291	-0.122791	0.0141471	-0.151255	0.102818	-0.162301	0.014584	0.0654196	-0.126876	0.219208
-0.0167304	-0.133773	0.140947	-0.132462	0.147994	0.0063171	-0.0976088	-0.0579316	-0.193616	-0.0927215	0.0641379	-0.0328587	0.183389	-0.0604636	-0.109646	-0.130513	0.118407	0.108189	0.0956984	-0.0662166	0.0800909	0.0644822	0.0479708	0.191353	0.122659	0.0762026	-0.137221	0.180438	-0.0570668	-0.145482	0.145675	-0.0549909
0.0875556	0.0771574	0.0443325	0.114522	0.0521375	-0.00615548	0.0323232	-0.0694139	0.107331	-0.0665314	0.0931822	-0.114383	-0.171794	0.0844476	-0.017364	0.104846	-0.0346475	0.0813524	-0.0225369	-0.0251218	0.0355997	-0.152162	0.0188237	-0.0308371	-0.231643	-0.0681565	-0.0808623	-0.178696	0.0734084	0.14516	-0.0330386	-0.0363133
0.0720251	-0.0674111	0.114406	0.0893969	0.125496	-0.154549	0.0823852	-0.0699888	0.0497161	-0.152445	0.0690828	-0.119029	0.0396183	-0.135063	-0.0790758	-0.105529	0.0400809	0.105963	-0.020419	-0.0615986	0.127633	-0.0914481	0.103524	0.140483	0.167394	-0.0208644	-0.107562	-0.0188146	-0.045382	-0.0904873	0.0105556	0.0244354
0.00335189	0.0550473	-0.00011801	0.0258578	-0.181634	0.13846	-0.133049	-0.025055	-0.0272256	0.0900516	-0.0146743	0.0363935	-0.0818972	0.154195	0.128416	0.17555	-0.0785645	-0.102604	0.029793	0.164153	0.000977301	0.0342401	-0.238679	-0.123668	-0.20054	-0.0517165	0.0213577	-0.0155138	0.232932	0.183338	-0.0843939	-0.100184
-0.135236	-0.129525	-0.15485	-0.0988851	0.105824	0.0618592	0.0773228	0.170786	0.128345	0.0254652	-0.213147	0.10296	-0.20452	-0.013465	0.105295	-0.00961697	0.0670632	-0.11022	-0.210826	-0.0334732	-0.0686308	0.0769765	0.0446436	-0.170567	-0.132142	-0.19891	0.180575	-0.187731	0.0758009	-0.0393016	-0.153746	0.202541
-0.105957	-0.146127	-0.0688417	-0.113083	-0.0154084	0.222402	-0.0364851	0.0604829	-0.00183574	0.14858	-0.0703135	0.126915	-0.0116927	0.102661	0.0472498	-0.0657922	0.0100362	0.0426198	-0.07488	0.201814	0.0923789	0.151795	0.157892	-0.049094	0.053328	-0.131113	-0.0327334	0.151211	0.0461552	0.0327276	-0.144103	-0.0522182
-0.126227	-0.160667	-0.105727	-0.0661334	0.0203726	0.0998369	0.193958	0.195461	0.125999	0.101732	-0.168533	0.136982	-0.129349	0.0436433	-0.0128779	0.109875	0.0758349	-0.116682	-0.121049	0.0875069	0.107998	0.0351867	0.135843	-0.0859976	-0.026382	-0.171407	0.0760294	0.0278644	0.124367	0.0259166	-0.172818	0.183812
-0.215158	-0.273186	-0.0567292	-0.212837	0.0391995	0.117166	0.172528	0.155453	0.236986	0.0809169	-0.124885	0.0813135	-0.21245	0.065276	0.113787	-0.0132662	0.13031	-0.0720135	-0.182121	-0.029546	0.0137638	-0.00397784	0.248002	-0.0951951	0.00528411	-0.264894	0.0839556	0.0693707	0.058486	-0.0211832	-0.198321	0.229664
-0.138266	-0.125958	-0.12232	-0.118485	-0.113084	0.173414	-0.122591	0.0111712	-0.0634887	0.239318	-0.087935	0.19851	0.11086	0.146482	-0.156241	-0.0239313	-0.0192162	-0.091015	0.0880895	0.214288	0.0963631	0.183229	-0.0780709	-0.0182255	0.101177	-0.0258027	-0.107961	0.202071	-0.0730307	0.103799	-0.124736	-0.0417039
-0.0949911	0.115304	-0.10305	-0.00721097	-0.0914135	0.0983975	-0.104355	0.0235592	0.0376207	0.114772	-0.0923732	0.0467027	-0.127891	0.195261	0.112245	0.117094	0.0873554	-0.137823	-0.0873433	0.0511763	-0.0837707	0.113555	-0.0778838	-0.0569522	-0.129882	-0.0359583	0.0531066	-0.220498	0.164404	0.133399	-0.0739037	-0.0994362
-0.076453	0.106826	-0.075252	-0.135551	0.0270743	0.107397	-0.153149	0.0906721	0.147014	0.165102	-0.0934114	0.07389	-0.0945271	-0.118257	0.179172	0.0211902	0.0482178	-0.0592256	-0.0601435	-0.0591481	-0.184648	0.109776	-0.17046	-0.0591563	-0.14686	0.0959665	0.153232	-0.0585603	0.105159	-0.0978425	-0.010664	0.130339
0.149897	0.0853262	0.0192121	0.0710064	-0.133739	-0.0675115	-0.0642455	-0.0978886	-0.100584	-0.0396636	0.0534958	-0.0871717	0.0716943	0.095317	-0.027067	0.128956	-0.0697645	-0.0554025	0.127059	-0.117767	-0.104081	-0.158236	-0.126749	0.0318579	-0.150421	0.0584092	0.000804965	-0.096849	0.125609	0.149517	0.0617024	-0.135093
-0.0557622	0.0116231	-0.0442899	-0.0484039	-0.0209599	0.0119095	-0.0161201	0.0363188	0.077193	0.0914397	-0.0613874	0.0332242	-0.06895	0.00509079	0.0856267	0.037947	0.0431689	-0.0231749	0.0102159	0.077376	-0.0418098	0.00709398	0.00461651	-0.0437434	-0.0957829	-0.0583295	-0.00374875	0.0336632	0.0541225	0.000906064	-0.0512853	0.0592835
0.0545364	0.095953	0.00133378	0.108084	0.0206439	0.0930793	-0.154162	-0.0642645	-0.105075	0.121685	0.0732015	0.0943661	0.193102	0.0996177	-0.0395143	-0.000255778	-0.0959239	-0.00571298	0.126628	0.180125	0.0775938	0.186981	-0.0783404	0.130894	0.0918885	0.00703627	-0.0774247	0.17296	-0.0608264	-0.0682764	0.0676215	-0.215845
-0.109162	-0.0785823	-0.147831	-0.0408081	0.00123636	0.11008	0.0687565	0.0870005	0.0588745	0.153221	-0.204066	0.191801	-0.205715	0.0842619	0.153978	0.0482158	0.0648472	-0.115302	-0.0429214	0.0160468	-0.00619052	0.106793	0.0166173	-0.138365	-0.0483898	-0.210031	0.120111	-0.086666	0.0798573	0.119798	-0.122801	0.0532689
-0.0141312	0.194624	-0.0462623	-0.0680693	0.0986905	-0.0216101	-0.0939158	0.0177443	0.0622578	-0.129305	-0.0821992	0.0663484	0.00890208	-0.0779986	0.178294	0.0527197	0.0656128	-0.0457452	-0.0305736	-0.0500076	-0.171016	-0.0262749	-0.171282	0.0251174	-0.0640777	0.0677057	0.0651466	-0.0359799	0.0781616	-0.0339907	0.155937	0.146593
-0.193782	-0.202432	-0.131302	-0.16384	-0.0162266	0.165815	0.260053	0.147957	0.177409	0.095925	-0.120091	0.147769	-0.184547	0.0872587	0.0549948	0.0825067	0.156121	-0.201129	-0.198976	0.0177857	-0.00677891	0.161501	0.251738	-0.184777	-0.121385	-0.154451	0.196613	-0.0917455	0.152239	0.135446	-0.139063	0.249922
-0.0252986	0.0824389	-0.0660835	-0.0565749	0.0422309	0.0291684	0.0611388	0.0296216	0.0468021	-0.0293394	-0.0299461	0.00864446	-0.0644621	-0.166506	0.0656149	0.0438868	0.03447	-0.0691994	-0.0538572	-0.0907086	-0.0719292	-0.0282061	-0.0832564	0.0198043	0.00278915	-0.00531351	0.0544255	-0.135324	-0.0351936	-0.100619	0.0405624	0.119915
-0.165169	-0.142471	-0.0439513	-0.138473	-0.076144	0.0356384	0.131652	0.131989	0.158962	0.0801043	-0.0343478	0.119579	-0.156153	-0.00276305	-0.0118982	0.00405144	0.107386	0.0609882	-0.199782	0.0551592	0.0995875	0.0264197	0.176659	-0.0831674	0.0145083	-0.188618	0.0759837	-0.127169	0.0890889	0.0247001	-0.117705	0.205283
0.00561496	-0.024239	-0.00241283	-0.0206978	-0.103208	0.181911	-0.0885067	-0.0819509	-0.155969	0.127099	0.0107337	0.0150417	0.182619	0.118242	-0.155326	-0.0847211	-0.0336271	0.0809499	0.0959966	0.070606	0.207998	0.150517	-0.0561663	0.132593	0.114679	-0.00847694	-0.101443	0.198229	-0.150435	0.128753	0.0451684	-0.0591225
-0.137436	-0.195032	-0.181906	-0.124426	-0.0863882	0.151422	0.127091	0.178258	0.147232	0.0616868	-0.132408	0.115036	-0.165493	0.0146862	0.0839991	0.0527156	0.0812514	-0.0950288	-0.147914	0.127222	0.00651046	0.00901775	0.227068	-0.12679	-0.156983	-0.115968	0.126826	-0.064953	0.0018774	0.146101	-0.153094	0.169959
-0.154059	-0.141253	-0.106451	-0.116202	-0.0462541	0.103997	0.137316	0.168522	0.075469	0.132392	-0.173587	0.125198	-0.133667	0.0807244	0.181927	0.00206754	0.0943286	-0.01393	-0.11127	0.0326852	-0.0333067	0.106333	0.121357	-0.180865	-0.148007	-0.170481	0.0870546	0.00995299	0.0451221	0.168719	-0.142045	0.136349
0.113604	-0.145823	0.109487	-0.0184982	0.0795376	-0.11019	0.187424	-0.0999602	-0.0484484	-0.17526	0.168471	-0.141561	0.0367094	-0.165119	-0.0613825	-0.139111	-0.0253635	0.182386	0.0755986	-0.0470678	0.135405	-0.163667	0.135229	0.180253	0.0771629	0.181176	-0.151395	-0.118331	-0.190383	-0.214318	0.140956	0.0587225
-0.197622	-0.168092	-0.170323	-0.104677	0.0462661	0.0949797	-0.0337041	0.0916632	0.179289	0.0693814	-0.145255	0.140236	-0.104552	-0.166559	0.103275	0.0284251	0.109201	-0.0758501	-0.145027	-0.0673783	-0.107147	0.0937981	-0.00996058	-0.104674	-0.0305903	-0.0899307	0.158641	0.0101446	0.0489007	-0.14648	-0.0602686	0.161952
-0.24315	-0.218191	-0.20238	-0.159851	-0.197959	0.13572	-0.0148549	0.180281	-0.0636482	0.199839	-0.131387	0.17612	-0.00176869	0.115877	-0.0522858	-0.0840445	0.0291316	-0.180732	-0.162092	0.0748418	0.15485	0.139598	0.0631908	-0.00799817	0.0266657	-0.0512365	-0.0468457	0.130255	-0.143544	0.0541099	-0.23871	0.0186554
0.119076	0.0738887	0.0488316	0.0165075	-0.0236035	-0.0299099	-0.1743	-0.0586805	-0.0578909	0.0549843	0.0430401	0.0584174	0.0658352	0.0749032	-0.0103784	0.107735	-0.0336912	0.00452334	-0.00402257	-0.0157997	-0.123441	0.0680776	-0.101518	-0.0154968	-0.0412256	0.0562439	-0.0703743	0.0893511	0.0754838	0.0171682	0.0728559	-0.12768
-0.0735214	0.00337335	0.0958751	-0.0892653	-0.109458	0.106426	-0.147151	-0.167761	-0.175584	0.172374	0.125491	0.127392	0.250207	0.151179	-0.0780425	-0.122834	-0.0431152	0.0776877	0.172716	0.0360513	0.145883	0.109115	-0.0896111	0.143026	0.0935838	0.17377	-0.0974935	0.154018	-0.121603	-0.0113298	0.0703066	-0.167325
-0.163633	-0.0768704	-0.139327	-0.0776731	0.0913547	0.10053	0.0790972	0.149308	0.165609	0.0071237	-0.106384	0.109329	-0.0767157	-0.0244671	0.0997417	-0.0387138	0.0174185	-0.13087	-0.0632914	-0.104916	-0.0274808	0.0798655	0.0885631	-0.0923154	-0.0167412	-0.151283	0.110817	0.047698	-0.0177983	0.0197103	-0.0708633	0.0830001
-0.0417712	-0.103607	0.0166493	-0.0763777	0.0402593	0.109468	0.129167	0.0758844	0.0811152	-0.0373133	-0.0535796	0.0415834	-0.0434996	-0.00527179	-9.22813e-06	0.000629619	0.0941385	0.0198681	-0.0376619	-0.00130876	0.0453079	0.0312146	0.0737308	0.0436448	0.0287241	-0.0885316	-0.0352841	-0.0155609	-0.0530265	-0.0616859	-0.0218735	0.0688646
0.00417355	0.00207193	-0.00598846	0.0378284	-0.153217	0.134524	-0.0678516	0.0641609	0.0170895	0.146706	-0.0287199	0.0944218	-0.0332727	0.172707	0.0521923	0.121901	-0.0242987	-0.0717183	-0.0018161	0.1653	-0.0260643	0.152487	-0.0739006	-0.0177307	-0.0497699	-0.0521155	0.063639	0.120304	0.0938004	0.112627	-0.0649324	-0.0890182
0.116292	-0.0974254	-0.00759741	0.0965535	0.125141	-0.105069	0.126681	-0.00128473	0.134819	-0.0854251	0.130406	-0.0551463	-0.0127766	-0.0712798	-0.11548	-0.0524019	0.0406283	-0.106019	0.0103545	-0.0319867	0.0900977	-0.124365	0.118756	0.077715	0.064612	-0.0678954	-0.105872	-0.106359	-0.0562494	0.0388217	0.00330686	0.118728
-0.0865281	-0.135175	-0.0854266	-0.144416	-0.0124863	0.0898562	0.123515	0.131295	0.106516	0.0727165	-0.0621528	0.0840994	-0.154881	0.0534946	0.148305	0.0380681	0.125642	0.00516772	-0.0957027	-0.0286046	-0.0272581	0.116112	0.187403	-0.08143	-0.0174703	-0.155937	0.0832293	-0.132201	0.0820257	0.0518726	-0.125015	0.142615
-0.117887	-0.124706	0.0142776	-0.085639	-0.0866233	0.0938359	-0.137896	0.00453538	-0.0770089	0.156985	0.0315316	0.0873277	0.154169	0.177331	-0.0546737	-0.104311	-0.0587337	-0.174574	0.161936	0.0870766	0.0455314	0.133945	-0.0826624	0.0549554	0.031109	0.138017	-0.0740073	0.164384	-0.121291	0.0900767	-0.079018	-0.174234
0.0299672	-0.136878	0.017126	-0.0765861	0.0226607	0.0988318	-0.0474204	-0.000420056	-0.131428	0.07129	-0.0469592	0.0649335	0.204553	0.0061884	-0.200525	-0.168832	-0.00796525	0.196881	0.0523263	0.0559896	0.0984828	0.12044	-0.0309501	0.125315	0.159132	-0.0838215	-0.193503	0.21337	-0.204151	0.00696649	0.0194936	-0.0614076
-0.119676	-0.0960582	-0.109932	-0.175842	-0.0044313	-0.00252792	0.0833431	0.163477	0.165156	-0.0428687	-0.138788	0.150748	-0.149242	-0.0639588	0.10354	0.0558798	0.110825	-0.156801	-0.143954	-0.164307	-0.108169	0.00881973	0.0534653	-0.144172	-0.140341	-0.178363	0.14211	-0.14129	0.102427	0.06428	-0.157231	0.12083
0.0172213	0.0987498	0.0740467	0.0708792	0.0076896	-0.0494771	-0.0586969	-0.0120096	-0.0771945	-0.0341635	0.0826036	-0.0306485	0.0428881	-0.0532345	-0.0590177	-0.0821608	-0.0617091	0.0706695	0.0986121	-0.0678254	0.00962789	-0.00301303	-0.0783291	0.041241	-0.000371789	0.0120808	-0.0401211	0.00835109	-0.0523033	-0.0831016	0.084377	-0.0717165
-0.00451271	-0.0388019	0.183896	-0.010316	0.116564	-0.0779272	0.021408	-0.0354922	-0.0495423	-0.11049	0.158636	-0.195493	0.0335407	-0.141447	-0.104673	-0.104729	0.0360052	0.155549	0.0709729	-0.137123	0.035766	-0.168358	0.0658803	0.161902	0.12707	0.0417972	-0.161991	-0.0693143	-0.134795	-0.105153	0.15173	-0.021272
-0.00328832	0.119898	-0.0382044	0.00718222	-0.119675	-0.0489438	-0.0985159	-0.0227055	-0.0040529	0.0490423	-0.0521933	0.105252	0.0634802	-0.0102374	0.0377478	0.129563	0.0132227	-0.0995885	0.0586736	0.0531599	-0.0962483	-0.0345731	-0.127399	-0.030262	-0.0843541	-0.00150652	0.0376505	0.0381205	0.0603262	0.102367	-0.0312907	-0.102217
-0.0907637	-0.0577889	-0.0386771	-0.0367505	0.0147819	0.0436923	0.0203834	0.0597681	0.0287873	-0.000172248	-0.106733	0.0303549	-0.0650501	0.078279	0.0370601	0.0520508	0.0514321	-0.0401048	-0.0659429	0.00578063	-0.0194696	0.0152077	0.0251716	-0.0589747	0.0144963	-0.0783534	0.0780986	-0.0163729	-0.012676	0.0498489	-0.0819753	0.0650518
-0.164648	-0.0393056	-0.19543	-0.125045	0.0837585	-0.0202619	0.0835118	0.157621	0.199602	0.0306606	-0.128367	0.0642396	-0.149518	-0.13492	0.118811	-0.0280929	0.0361898	-0.0134187	-0.17186	-0.0754139	-0.0846805	0.0235982	0.0347988	-0.104422	-0.0960478	-0.173115	0.0511626	-0.0980516	0.0533709	-0.0910071	-0.143196	0.131188
0.127546	-0.0698131	0.120288	0.0974019	0.0859018	-0.0808465	0.139261	-0.0623741	0.0369062	-0.0825427	0.139932	-0.0911346	-0.0400616	-0.127026	-0.0572662	-0.12102	0.0475109	0.0783667	0.0213347	-0.0208761	0.144637	-0.0607151	0.135199	0.0740297	0.0854731	-0.139839	-0.0900537	-0.123662	-0.0917825	-0.054134	-0.0525982	0.0667925
0.15249	0.154386	-0.00597352	0.0533587	-0.0536974	-0.0961725	-0.13139	-0.137928	-0.115278	0.0378365	-0.0190613	-0.0446441	0.0794298	0.0849263	0.13953	0.0972338	0.0229974	-0.0282382	0.0599272	-0.120176	-0.104193	-0.140332	-0.0816344	-0.0399947	-0.15327	0.127634	0.0968587	-0.198361	0.101317	0.165259	0.104171	-0.0981845
0.0411636	-0.0216945	0.042485	-0.0180676	0.0631403	-0.00535634	0.0144518	-0.0618876	-0.0478255	-0.0439309	0.06931	0.00232453	0.0580035	-0.0822992	-0.0655081	-0.0554159	-0.0436318	0.00398002	0.0637022	-0.0166535	0.0761275	-0.0893554	0.0291935	0.0932227	0.0963501	0.0313872	-0.0693264	0.000671922	-0.071632	-0.0729633	-0.00566011	-0.00132159
-0.158813	-0.026021	-0.164492	-0.159705	-0.0686776	0.202019	0.00474159	0.173738	0.216356	0.135508	-0.218155	0.155554	-0.197925	-0.0891142	0.20621	0.107382	0.165942	-0.18122	-0.230879	-0.134382	-0.14242	0.139217	-0.0604033	-0.240175	-0.1796	-0.274136	0.254298	0.0210212	0.210609	-0.12602	-0.198092	0.169506
-0.131313	-0.186177	-0.187291	-0.12594	-0.00817881	0.159567	0.108642	0.168636	0.214919	0.0862102	-0.162802	0.169178	-0.226453	0.0771067	0.17074	-0.03977	0.0801471	-0.152198	-0.151083	0.0468954	-0.0278166	0.16695	0.0662464	-0.18832	-0.0980681	-0.200495	0.165099	0.0129334	0.157914	0.0162413	-0.167374	0.105982
0.0574484	-0.0155846	0.141275	0.066703	0.0804219	-0.144753	0.0864104	-0.062732	0.0180712	-0.141323	0.0508304	-0.0942216	0.0462207	-0.0835559	-0.0041498	-0.0899546	0.010575	0.149537	0.047027	-0.128563	0.136574	-0.141384	0.0968163	0.0936895	0.085387	0.0834257	0.0266872	-0.039054	-0.0703494	-0.028132	-0.0194156	0.0852812
0.00117486	0.0233299	-0.039687	0.0327447	0.0629269	0.142144	-0.0962794	0.0209144	0.106017	0.019642	-0.100904	0.017147	-0.020889	0.0521336	0.0774277	0.205906	-0.0300737	-0.088549	0.0328237	0.0447289	-0.0455192	-0.0452204	-0.078059	-0.155836	-0.215573	-0.111038	0.0158276	-0.138649	0.176724	0.0360487	-0.0880248	0.01394
0.0559557	-0.0197738	0.1259	0.00381967	0.112687	-0.00510991	-0.173235	0.0300712	-0.140178	0.0314164	-0.00777586	-0.045983	0.126017	0.0362889	-0.00230313	0.0371198	0.00384524	0.104568	-0.0103471	-0.0526383	0.0778664	-0.0352791	0.0115478	0.0908401	0.0832321	-0.0295685	-0.0665125	0.0473526	-0.0670954	-0.094475	0.121565	-0.0394125
-0.0817419	0.00814136	-0.103938	-0.158637	0.0910029	0.0340733	-0.131537	0.146074	0.119038	0.0854577	-0.151992	0.138343	-0.103915	-0.146143	0.116088	0.0608786	0.0895181	-0.00383238	-0.106614	-0.0305437	-0.0924148	0.0860607	-0.0885243	-0.138981	-0.142745	0.0400023	0.119579	-0.149069	0.0804324	-0.14552	-0.0872506	0.128615
0.188167	-0.0534712	0.111806	0.213502	0.111862	-0.0780371	0.096215	-0.140031	0.0485341	-0.0623945	0.0986072	-0.12249	0.0444498	-0.049807	-0.0533321	-0.0550343	-0.0586357	0.100153	0.0595685	-0.0877551	-0.0329079	-0.0884489	0.105113	0.00822737	0.0432697	0.0401001	-0.00949881	-0.124754	-0.052323	-0.0432001	0.0560833	-0.0117802
0.0837148	-0.0850882	0.0660947	0.039708	0.0766183	-0.0978255	0.0631662	-0.0558457	-0.0181286	-0.0953442	0.0849574	-0.0260982	0.08652	-0.100835	-0.030571	-0.102034	0.0577434	0.00903292	0.095263	-0.0684393	0.015319	-0.0977426	-0.0002669	0.0890417	0.0129781	0.0183726	-0.101996	0.0956561	-0.028926	-0.0450823	0.0393161	0.0888679
-0.155748	-0.234068	-0.127869	-0.171791	0.15208	0.120637	0.177029	0.140288	0.055766	0.0391085	-0.0652274	0.0628628	-0.0585704	0.000771531	0.0584951	0.011063	0.151331	-0.018179	-0.148931	-0.0746598	0.0184066	0.130142	0.215885	-0.0319905	0.0427574	-0.121993	0.0472734	0.154401	-0.0987911	-0.102047	-0.0265241	0.215087
-0.0727726	-0.115227	-0.041523	-0.0733408	-0.0403506	0.109482	0.110768	0.0737763	0.071977	0.0166253	-0.0411155	0.100088	-0.0801232	0.0560725	0.0300736	0.0640669	0.0661015	0.00739446	-0.0979239	-0.00531405	0.0216226	0.113442	0.0946836	-0.0771648	0.0272493	-0.0676955	0.0587237	-0.0131582	0.0467379	-0.0407751	-0.0786952	0.0847049
0.0258331	-0.00598319	0.0419489	0.0260747	0.0754748	-0.112253	0.0848526	-0.074472	0.00414679	-0.137156	0.104616	-0.12995	0.0370574	-0.063224	-0.133631	-0.0884773	-0.0838661	0.102321	0.0263999	-0.0260824	0.070105	-0.142342	-0.00970189	0.0534283	0.0657122	0.0384171	-0.0410949	-0.0423918	-0.115248	-0.118713	0.0867957	0.0720395
-0.16112	-0.1576	-0.142186	-0.125423	0.0937366	0.122652	0.11315	0.16102	0.1575	0.0917528	-0.128437	0.13187	-0.0782243	-0.0247837	0.103518	0.0788172	0.133276	-0.0766146	-0.111611	-0.0635971	-0.164353	0.160255	0.0940498	-0.126688	-0.114138	-0.112539	0.0829062	0.000899259	0.08048	0.0239678	-0.0974605	0.104153
-0.0133514	-0.0275996	0.0599685	-0.0791464	0.0581542	0.000469389	-0.0417767	0.0594103	-0.0238083	-0.0719177	-0.0154905	-0.0103516	0.0983001	-0.0723016	-0.0596684	0.0252364	0.0781757	0.0413672	-0.0110225	0.024495	-0.0554338	-0.00885721	-0.0352043	0.0941258	0.0709697	0.0075435	-0.0256058	0.160439	-0.0383077	-0.0457562	0.0679661	0.00189085
0.0449066	-0.0930032	0.026777	-0.0269716	-0.0309464	0.071354	-0.0804015	0.00249744	-0.0441221	0.148076	0.0175277	0.159444	0.128185	0.0969506	-0.0385713	-0.0392468	-0.0927785	-0.0126992	0.102858	0.16078	0.0896273	0.115864	-0.00688169	0.0702754	0.032436	-0.0151546	-0.0828882	0.167115	-0.0425933	0.0816663	0.0577936	-0.103378
-0.16245	-0.119357	-0.16544	-0.104614	-0.00613025	0.133982	0.0934609	0.151391	0.1442	0.0162568	-0.185511	0.145124	-0.144527	0.0247527	0.20263	0.0445192	-0.0205356	-0.0939917	-0.148293	0.0875733	-0.0247748	0.0442226	0.15549	-0.139222	-0.174977	-0.153169	0.202548	-0.166866	0.0494967	0.0878857	-0.151413	0.114927
-0.067852	-0.134258	-0.0961563	-0.0841258	0.0413618	0.157602	-0.0219976	0.0399899	0.00999681	0.0863212	-0.167515	0.178601	-0.0583952	0.0265397	0.117829	0.0595297	0.0493508	-0.108696	-0.00828553	-0.0174959	-0.127543	0.120174	-0.0428256	-0.0891622	-0.019379	-0.0653302	0.00288993	0.0793825	0.0415168	0.0194183	-0.0753525	0.0549921
0.147495	-0.0295612	0.138303	0.211356	0.0943448	-0.130451	0.164065	-0.121631	-0.0948978	-0.138525	0.130569	-0.154983	0.0987871	-0.170411	-0.192395	-0.178462	-0.00499117	0.125282	0.126517	-0.0887946	0.12175	-0.117643	0.138204	0.145062	0.1627	0.0682006	-0.189172	0.00116337	-0.140432	-0.188167	0.186958	0.09159
0.055614	0.0675714	-0.00857183	0.0196127	-0.0601716	0.0826814	-0.064583	0.0244448	0.00610478	0.0661971	-0.00205672	0.0364004	-0.0435439	0.0179714	0.095084	0.0970861	0.0214732	-0.0773725	0.00628895	0.0537324	-0.0340969	0.0679681	-0.0245607	-0.0951576	-0.0135418	0.0526064	0.0160943	-0.0372883	0.0149958	0.0611146	-0.0326423	-0.00478901
-0.00581131	0.0120233	-0.0127677	0.0635941	-0.0375222	-0.0127999	0.00870163	0.0123307	-0.00877188	-0.0165964	0.0180814	-0.0175233	0.00738583	0.11759	0.0255224	0.119012	0.0265485	-0.0662765	0.01452	-0.123434	0.0216598	-0.0609014	-0.039321	-0.0990025	-0.0909247	-0.000674836	0.110668	-0.174029	0.0507071	0.0774433	0.00982104	-0.0374798
0.196091	0.120324	-0.00721344	0.149684	-0.175068	-0.116508	-0.183246	-0.141327	-0.176228	0.109813	-0.0849569	0.048935	0.150234	0.205754	0.124036	0.120214	-0.13985	-0.117432	0.138484	-0.0157271	-0.0996467	-0.0820823	-0.208651	-0.0117807	-0.156671	0.050041	0.0447551	-0.0592564	0.202684	0.149467	0.165982	-0.1865
-0.101665	-0.0379966	-0.0698716	-0.0743859	-0.0862892	0.103937	-0.0825747	0.0664011	0.0574829	0.0919214	-0.165369	0.0550154	-0.101738	0.0448375	0.096715	0.134015	-0.0365032	-0.0768462	-0.0689895	-0.0255692	-0.0757169	0.111793	-0.174243	-0.0809894	-0.112118	-0.106338	0.0993882	-0.121015	0.0686851	0.0894724	-0.154112	0.0371777
-0.080591	-0.157047	-0.0807078	-0.203139	-0.074598	0.0534779	0.189315	0.0797274	-0.116197	0.0874185	0.0109811	0.105842	-0.0243221	0.117111	-0.120949	-0.0660789	-0.0561773	-0.0843007	0.0308931	-0.0328869	0.0609877	0.148205	0.17295	-0.137358	0.0453071	-0.142793	0.0372564	0.112539	-0.0818989	0.152863	-0.12262	-0.00391214
-0.0275038	-0.020775	-0.0206754	0.0590223	0.0782745	-0.0368772	-0.00204479	0.0194788	-0.0220798	0.0106689	0.00307847	-0.00633372	0.0501589	0.0704187	-0.061198	0.0274992	0.00781348	0.0368881	0.05297	-0.0725793	0.130699	-0.0418579	-0.061909	-0.0253715	0.0494052	0.0401998	0.0131563	0.00661791	-0.0138896	-0.0130584	-0.0278499	-0.0596021
-0.0184768	-0.0601875	-0.00681717	-0.102405	-0.0500253	-0.00247012	0.0744698	0.00890085	0.0395157	-0.0291446	0.0232457	-0.0400063	0.0308655	-0.0264286	-0.067897	0.0126013	0.0586109	-0.0320421	-0.0320767	0.0185386	0.0727554	-0.0201253	0.00639056	-0.0526398	0.0235044	0.00167931	0.0484344	0.0164532	0.0371619	0.0100292	0.000438682	0.0546809
0.015995	0.00569829	0.121721	0.181497	0.140023	-0.150994	0.110543	-0.0697068	-0.0180404	-0.141958	0.185502	-0.121833	0.00585273	-0.0998546	-0.10783	-0.119096	-0.00594914	0.169291	0.0285224	-0.125249	0.175956	-0.147961	0.144706	0.119346	0.155654	0.0370478	-0.135068	-0.073827	-0.12828	-0.104851	0.0513017	0.0650867
0.0436029	-0.0197216	-0.021497	0.0464246	0.0973725	0.156453	-0.147716	0.0408548	-0.123277	0.0285971	0.0415959	0.0460294	0.105116	0.0594017	-0.0836369	-0.054505	-0.0384025	0.00121339	0.0395448	0.153735	0.165156	0.138488	0.0106026	0.109789	0.178148	0.0561498	-0.159533	0.181193	0.054556	-0.0529466	0.0672003	-0.0940633
0.126061	0.066928	0.0931346	0.102229	0.0616543	-0.152771	0.0680211	-0.131443	-0.0925922	-0.117574	0.0932351	-0.0769043	0.0834346	-0.107254	-0.07267	-0.125569	-0.124675	0.0624055	0.144713	-0.108795	0.0903432	-0.0848118	0.00897884	0.0729992	0.0313124	0.138649	-0.113393	-0.0924655	-0.0403755	-0.0929813	0.151357	0.0415576
-0.0320494	-0.00390766	-0.00309921	-0.0425421	0.00882039	0.0425438	-0.00237764	-0.00712335	-0.0281991	0.0503006	-0.0392882	0.000760174	0.0424603	0.0326065	-0.0356723	0.0442067	-0.0385151	0.000907196	-0.0261599	0.050799	-0.00192284	-0.0180533	0.00910069	-0.00366793	-0.0273826	0.0327015	0.0476662	-0.0274544	0.0144378	0.0624559	-0.0544339	0.0909917
0.0404044	-0.0134447	0.189084	0.116202	0.0656378	-0.0892234	0.0818733	-0.116823	-0.0301834	-0.0848838	0.177734	-0.0856615	0.14721	-0.0565189	-0.154073	-0.161661	-0.0504605	0.135182	0.122725	-0.0268644	0.186992	-0.0838392	0.0627503	0.136721	0.135506	0.135025	-0.162272	0.068112	-0.127297	-0.0922845	0.126826	-0.00605874
-0.125734	-0.128399	-0.106815	-0.11129	0.0185871	0.0848454	0.154494	0.0837898	0.147034	0.030798	-0.0652369	0.111895	-0.112022	-0.105326	0.128161	0.04246	0.0588237	-0.107396	-0.0940462	-0.0298966	-0.147459	0.0363305	0.045975	-0.136485	-0.161215	-0.0907417	0.0939635	0.0247226	0.0689743	-0.084387	-0.0810972	0.106891
0.131591	0.03054	0.119187	0.044186	0.00538748	0.0928071	-0.226204	-0.0959435	-0.147617	0.144796	0.0815908	0.0101544	0.193509	0.082326	-0.149047	-0.106156	-0.0148582	0.0574137	0.119257	0.176488	0.0978688	0.111625	-0.0994461	0.109868	0.12703	0.0737012	-0.105596	0.200796	0.0432653	0.0507639	0.0850415	-0.21083
-0.00560672	0.00800198	0.00745087	-0.0156293	-0.0234998	-0.00464683	-0.129508	-0.0200952	-0.0803204	0.0933514	0.00682358	0.0358808	0.130857	0.0404151	-0.0159769	0.0156141	-0.168226	0.00424784	0.0833586	0.150031	-0.0185833	0.03728	-0.110553	-0.00499952	0.0651478	0.0395105	-0.0924498	0.155673	-0.0681728	-0.0187866	-0.0258391	-0.15612
0.0546747	0.0342151	0.0834505	0.111266	0.0548346	-0.027275	0.00894931	-0.0649575	-0.0585877	-0.0232498	-0.0143466	-0.0445074	0.0437377	-0.0380026	-0.00623111	-0.0443442	-0.0480516	-0.0196011	0.0762868	-0.0823782	0.0483568	-0.0687975	-0.0446283	0.0123905	0.0981106	0.116816	-0.0479563	-0.0745233	-0.0702186	0.0542337	0.0573436	-0.0354649
