0.0294488	0.0283565	0.0226191	-0.0128541	-0.023728	0.0179295	-0.00697475	-0.047493	-0.00655388	-0.0303707	0.0268247	-0.0367785	0.0250337	0.021183	-0.0345923	-0.0107647	-0.010197	-0.00651209	0.0474224	-0.0167401	0.048333	-0.00864917	-0.0178962	0.0170144	-0.00935046	0.0134907	-0.0165643	-0.016703	-0.00516703	-0.0416858	0.0252176	-0.0119626
0.415387	0.455306	0.387881	-0.2756	-0.273271	-0.406428	0.411495	0.375872	-0.315849	0.4227	0.351273	-0.371581	0.411957	-0.34311	-0.386852	-0.362971	-0.358861	-0.378375	0.378309	-0.364864	-0.424048	0.420389	-0.247287	-0.441772	0.394963	0.339129	0.361416	0.41935	0.309311	-0.367339	0.33228	0.131081
0.392022	0.259028	0.368088	-0.413717	-0.41879	-0.367154	0.334768	0.343801	-0.466487	0.390138	0.418144	-0.387581	0.471399	-0.324016	-0.397516	-0.390363	-0.402672	-0.32573	0.466673	-0.473968	-0.407514	0.464741	-0.287368	-0.383103	0.358677	0.431589	0.390141	0.44798	0.392445	-0.385396	0.439382	0.539148
0.347309	0.277151	0.417661	-0.36717	-0.363104	-0.334802	0.424337	0.357632	-0.338326	0.405779	0.398938	-0.431923	0.450167	-0.407259	-0.405935	-0.327346	-0.385545	-0.349273	0.436955	-0.336553	-0.406695	0.393287	-0.457325	-0.430934	0.331693	0.377932	0.41715	0.412342	0.42819	-0.413155	0.353196	0.437726
0.42266	0.0740602	0.399067	-0.451766	-0.361649	-0.375405	0.417049	0.448308	-0.518813	0.360577	0.459962	-0.359007	0.347682	-0.517306	-0.424991	-0.335067	-0.328184	-0.441412	0.327514	-0.453686	-0.435707	0.35435	-0.258205	-0.359061	0.477894	0.364756	0.39593	0.410253	0.435806	-0.312013	0.459838	0.526505
0.334737	0.439014	0.405932	-0.37223	-0.450122	-0.307119	0.359943	0.395229	-0.418058	0.325419	0.452776	-0.401243	0.394098	-0.32301	-0.374199	-0.391277	-0.452242	-0.46185	0.355061	-0.370011	-0.392951	0.441086	-0.460196	-0.341	0.446923	0.468422	0.400916	0.464131	0.381082	-0.419327	0.354291	0.291943
0.337583	0.444795	0.373133	-0.321783	-0.344638	-0.286099	0.35222	0.408167	-0.380725	0.299887	0.365189	-0.284504	0.33972	-0.316062	-0.277448	-0.379073	-0.349868	-0.309824	0.32431	-0.296762	-0.337121	0.285856	-0.378399	-0.27536	0.410062	0.392755	0.334097	0.382758	0.31582	-0.334287	0.30157	0.174418
0.319701	0.442377	0.385622	-0.345449	-0.419955	-0.340949	0.258209	0.394722	-0.384673	0.359625	0.376755	-0.389995	0.36884	-0.373994	-0.383773	-0.369841	-0.390746	-0.368652	0.291357	-0.422809	-0.286722	0.315245	-0.524079	-0.339118	0.389594	0.443479	0.415334	0.403183	0.409291	-0.35582	0.413772	0.311123
0.342334	0.338526	0.473526	-0.467275	-0.37637	-0.359401	0.413582	0.373493	-0.354667	0.349101	0.368817	-0.427212	0.367841	-0.449191	-0.460176	-0.37816	-0.47836	-0.50367	0.358137	-0.469264	-0.327253	0.407379	-0.295722	-0.467892	0.366121	0.448761	0.366691	0.340806	0.412958	-0.43025	0.379563	0.297735
0.410971	0.36101	0.453566	-0.462496	-0.384251	-0.451649	0.387187	0.434318	-0.304186	0.354184	0.464155	-0.400764	0.446925	-0.464995	-0.405286	-0.428963	-0.422687	-0.348028	0.413053	-0.365773	-0.391972	0.380683	-0.438332	-0.396896	0.426543	0.344998	0.370836	0.316813	0.368375	-0.364381	0.375209	0.444962
0.480846	0.662109	0.354031	-0.312887	-0.344225	-0.369777	0.451384	0.381161	-0.21441	0.488408	0.332681	-0.383397	0.442205	-0.245626	-0.383483	-0.363433	-0.484395	-0.366475	0.470608	-0.46019	-0.448979	0.494396	-0.0701244	-0.427887	0.354961	0.461111	0.445275	0.399933	0.44006	-0.396264	0.199992	0.0665719
0.4249	0.507782	0.427462	-0.29627	-0.333025	-0.414247	0.427993	0.409816	-0.388789	0.375964	0.375104	-0.417501	0.405471	-0.282165	-0.409362	-0.400097	-0.380915	-0.412809	0.400775	-0.393967	-0.422082	0.42674	-0.344147	-0.450228	0.354027	0.42277	0.339239	0.394205	0.407173	-0.450692	0.35959	0.124224
0.423248	0.421483	0.315585	-0.261057	-0.198643	-0.300434	0.380644	0.361545	-0.255182	0.454135	0.374218	-0.425215	0.380268	-0.32633	-0.35496	-0.352033	-0.412151	-0.335859	0.334057	-0.350055	-0.457474	0.401685	-0.260499	-0.458927	0.397012	0.42895	0.30469	0.402288	0.406522	-0.400455	0.349401	-0.0233056
0.348252	0.341824	0.440164	-0.411975	-0.421817	-0.386145	0.444038	0.3554	-0.406274	0.406975	0.397686	-0.339948	0.391283	-0.315193	-0.33297	-0.39288	-0.317603	-0.306131	0.381048	-0.447093	-0.381634	0.384944	-0.485293	-0.378877	0.347577	0.385081	0.314936	0.318883	0.40302	-0.329697	0.441566	0.423404
0.292372	0.175397	0.365292	-0.28554	-0.379765	-0.45347	0.46485	0.319444	-0.46862	0.351987	0.357063	-0.408305	0.445213	-0.40717	-0.366822	-0.313436	-0.304109	-0.377645	0.402205	-0.428254	-0.374469	0.445716	-0.243064	-0.276586	0.365735	0.457022	0.488913	0.376925	0.446898	-0.383676	0.430652	0.581498
0.414733	0.549638	0.485292	-0.302197	-0.407334	-0.447245	0.415437	0.397951	-0.276763	0.421606	0.412289	-0.46948	0.416809	-0.463346	-0.458302	-0.408591	-0.480457	-0.345008	0.465472	-0.443048	-0.46615	0.376621	-0.208653	-0.459517	0.417428	0.407696	0.362554	0.445849	0.39577	-0.427175	0.310309	0.127228
0.454997	0.372891	0.451301	-0.336435	-0.493454	-0.433143	0.41965	0.383437	-0.343358	0.359564	0.404223	-0.476014	0.422768	-0.355808	-0.470114	-0.41813	-0.362966	-0.353687	0.434212	-0.419842	-0.372656	0.406241	-0.311381	-0.403915	0.423688	0.376645	0.410517	0.388084	0.406737	-0.32372	0.446125	0.494336
0.376168	0.395479	0.43477	-0.512407	-0.493247	-0.420344	0.430035	0.380763	-0.393441	0.300003	0.360207	-0.359095	0.365968	-0.482528	-0.4092	-0.370097	-0.458373	-0.333047	0.442925	-0.445181	-0.318583	0.474982	-0.243159	-0.364279	0.404075	0.344661	0.381018	0.418819	0.348	-0.340002	0.420999	0.430227
0.332781	0.360436	0.329956	-0.417176	-0.389267	-0.355451	0.393795	0.438808	-0.422	0.349885	0.369002	-0.38154	0.35288	-0.271135	-0.423497	-0.441989	-0.338757	-0.423048	0.429014	-0.435435	-0.305942	0.324408	-0.49192	-0.338847	0.37992	0.41737	0.406839	0.311103	0.398763	-0.298979	0.387537	0.229607
0.360666	0.383374	0.455342	-0.383665	-0.343381	-0.447769	0.355141	0.380639	-0.419116	0.401557	0.417179	-0.462903	0.35882	-0.354961	-0.465494	-0.417194	-0.38072	-0.337014	0.375113	-0.462061	-0.390304	0.384609	-0.384251	-0.411049	0.330884	0.464089	0.359253	0.354957	0.406349	-0.412569	0.464874	0.497489
0.345984	0.420003	0.364885	-0.335328	-0.455792	-0.322916	0.401085	0.382165	-0.437735	0.382079	0.425234	-0.373975	0.314047	-0.454375	-0.339942	-0.44836	-0.424901	-0.286619	0.364602	-0.336161	-0.384945	0.350347	-0.273702	-0.316546	0.437029	0.281096	0.435508	0.371766	0.372364	-0.368661	0.43931	0.208544
0.482281	0.329246	0.406288	-0.382861	-0.401744	-0.381586	0.405151	0.386599	-0.392806	0.416102	0.428995	-0.454607	0.360045	-0.425641	-0.381828	-0.45661	-0.359407	-0.361426	0.436158	-0.447081	-0.416553	0.329534	-0.407481	-0.427059	0.367892	0.486	0.369157	0.448325	0.446223	-0.394447	0.453293	0.474851
0.421153	0.416467	0.328954	-0.33807	-0.403321	-0.411601	0.31306	0.40691	-0.309471	0.398859	0.393402	-0.39884	0.381108	-0.396101	-0.415359	-0.415819	-0.403114	-0.356651	0.433095	-0.350855	-0.348283	0.414224	-0.282089	-0.357379	0.367077	0.372597	0.412278	0.349908	0.333357	-0.394048	0.320685	0.308613
0.395271	-0.0737941	0.36844	-0.309917	-0.285307	-0.285339	0.245062	0.402368	-0.319881	0.435296	0.369382	-0.296676	0.407214	-0.203047	-0.350322	-0.311862	-0.216635	-0.192632	0.304931	-0.250376	-0.39991	0.321406	-0.239132	-0.377953	0.294718	0.385054	0.384973	0.404203	0.429742	-0.449026	0.297318	0.424587
0.475162	0.411749	0.448228	-0.44078	-0.428113	-0.364022	0.414362	0.387208	-0.460898	0.341922	0.422866	-0.37136	0.341358	-0.53108	-0.446248	-0.317765	-0.376762	-0.342301	0.452168	-0.348893	-0.314547	0.436368	-0.472183	-0.424773	0.42784	0.399404	0.302944	0.427882	0.442166	-0.350518	0.421998	0.290831
0.525244	0.274037	0.449484	-0.394732	-0.473895	-0.381089	0.479455	0.440011	-0.410394	0.500455	0.461618	-0.543405	0.426384	-0.381642	-0.53046	-0.517915	-0.5061	-0.407073	0.473185	-0.482418	-0.437895	0.383379	-0.334398	-0.415052	0.422419	0.439848	0.392647	0.439715	0.45077	-0.430129	0.406776	0.430306
0.423209	0.477381	0.32813	-0.450513	-0.506877	-0.425351	0.413456	0.42561	-0.306876	0.295895	0.394784	-0.431667	0.428545	-0.375539	-0.45394	-0.446093	-0.415149	-0.367861	0.329807	-0.420796	-0.327066	0.357308	-0.24549	-0.440147	0.42051	0.398018	0.46943	0.303249	0.426914	-0.348222	0.355704	0.357472
0.351503	0.316024	0.268084	-0.213929	-0.125189	-0.389693	0.258311	0.315718	-0.299949	0.368237	0.271438	-0.400799	0.321704	-0.297705	-0.373853	-0.253854	-0.232131	-0.361441	0.407456	-0.239897	-0.370831	0.397936	-0.423202	-0.3622	0.309444	0.421601	0.223393	0.389415	0.420784	-0.365562	0.352682	0.124292
0.494488	0.282543	0.477206	-0.488992	-0.425643	-0.456556	0.362292	0.504482	-0.467416	0.450153	0.49835	-0.429	0.421171	-0.411252	-0.368118	-0.452693	-0.49851	-0.492269	0.394512	-0.418222	-0.364274	0.431163	-0.33142	-0.455607	0.404409	0.379388	0.404119	0.462598	0.368878	-0.408799	0.435579	0.428124
0.481458	0.283922	0.464814	-0.373032	-0.46254	-0.500421	0.428526	0.486323	-0.381181	0.411609	0.388211	-0.451779	0.415008	-0.330244	-0.47401	-0.425418	-0.395286	-0.3558	0.445033	-0.452952	-0.360607	0.412758	-0.442899	-0.433216	0.392233	0.369782	0.40442	0.449122	0.406208	-0.492164	0.440128	0.447045
0.404142	0.31925	0.387191	-0.313865	-0.435228	-0.307973	0.383422	0.420881	-0.386497	0.398742	0.393726	-0.441997	0.334342	-0.382944	-0.341788	-0.412915	-0.391794	-0.385104	0.380492	-0.342475	-0.440862	0.366916	-0.466165	-0.270811	0.422212	0.379089	0.34515	0.361975	0.38723	-0.328237	0.444017	0.505535
0.377495	0.320268	0.423341	-0.35133	-0.48462	-0.363473	0.38235	0.41417	-0.420357	0.349225	0.452415	-0.363248	0.456186	-0.374325	-0.452082	-0.432705	-0.360802	-0.415658	0.448438	-0.457441	-0.335872	0.388883	-0.445069	-0.411961	0.430745	0.414504	0.444486	0.421519	0.402731	-0.42512	0.44679	0.52492
0.407489	0.462897	0.392691	-0.362533	-0.458911	-0.386793	0.411777	0.405454	-0.410838	0.356072	0.39758	-0.457827	0.329889	-0.345853	-0.390714	-0.459906	-0.470424	-0.383941	0.452826	-0.438794	-0.361766	0.377785	-0.246344	-0.326181	0.445897	0.449777	0.416949	0.416449	0.367711	-0.38101	0.433685	0.520139
0.472294	0.466367	0.374836	-0.363386	-0.52829	-0.439553	0.364317	0.331101	-0.509052	0.441723	0.502007	-0.403122	0.434489	-0.40489	-0.424599	-0.4295	-0.502567	-0.358494	0.433096	-0.425895	-0.499576	0.415882	-0.406823	-0.472674	0.414113	0.379209	0.490261	0.412992	0.378291	-0.456288	0.493443	0.436864
0.369034	0.482284	0.402554	-0.390067	-0.388529	-0.35239	0.401239	0.436064	-0.463076	0.388259	0.407088	-0.329129	0.398713	-0.460906	-0.291735	-0.389045	-0.433723	-0.476509	0.290211	-0.351892	-0.427349	0.460161	-0.252253	-0.42319	0.360542	0.399787	0.412129	0.405116	0.377444	-0.24731	0.431179	0.539464
0.412861	0.518572	0.348592	-0.506509	-0.374008	-0.37946	0.433616	0.350703	-0.475599	0.331865	0.39491	-0.447877	0.446004	-0.389064	-0.330611	-0.327687	-0.371416	-0.439638	0.377443	-0.463736	-0.389849	0.396792	-0.398652	-0.339897	0.465069	0.365632	0.3105	0.326672	0.357316	-0.435232	0.415057	0.199309
0.436855	0.252941	0.38541	-0.394199	-0.44311	-0.410497	0.484584	0.470317	-0.334046	0.367046	0.486989	-0.384938	0.378771	-0.46707	-0.457275	-0.334736	-0.349173	-0.452302	0.470826	-0.475726	-0.399212	0.361338	-0.292792	-0.441427	0.419825	0.468783	0.453038	0.381635	0.378196	-0.488839	0.373311	0.457257
0.371388	0.487091	0.34955	-0.278123	-0.396498	-0.349912	0.327006	0.377534	-0.271089	0.303275	0.311179	-0.404249	0.347476	-0.299315	-0.371249	-0.299724	-0.433779	-0.318489	0.444567	-0.383927	-0.406819	0.370955	-0.350179	-0.384502	0.389854	0.379417	0.391942	0.351725	0.380612	-0.320419	0.40014	0.113495
0.353154	0.402898	0.402488	-0.45386	-0.557632	-0.429083	0.318111	0.38247	-0.365029	0.388384	0.372889	-0.342367	0.462894	-0.493656	-0.483243	-0.328322	-0.419861	-0.245012	0.364007	-0.318876	-0.235702	0.42463	-0.173373	-0.337559	0.422126	0.305131	0.341569	0.466078	0.514531	-0.326822	0.508565	0.55667
0.424896	0.322387	0.402946	-0.34252	-0.40752	-0.441952	0.402396	0.359869	-0.303692	0.319778	0.326228	-0.369343	0.38791	-0.442609	-0.281513	-0.373083	-0.345868	-0.398514	0.418266	-0.444454	-0.454706	0.316814	-0.275535	-0.357627	0.4279	0.457095	0.413213	0.329289	0.335358	-0.38664	0.279675	0.198377
0.230541	-0.13199	0.204242	-0.276876	-0.332177	-0.0859347	0.353274	0.227548	-0.231676	0.53164	0.263066	-0.217755	0.281824	-0.13156	-0.151093	-0.116827	-0.306429	-0.10564	0.222422	-0.293694	-0.351254	0.4662	-0.409617	-0.23534	0.384427	0.201487	0.376524	0.290169	0.323628	-0.474296	0.399174	0.527739
0.442449	0.537801	0.452806	-0.338142	-0.41393	-0.426947	0.401024	0.407457	-0.374428	0.472591	0.472338	-0.386107	0.443339	-0.489437	-0.398039	-0.442909	-0.477067	-0.377758	0.428273	-0.389466	-0.42022	0.468662	-0.386263	-0.398793	0.479934	0.424318	0.421416	0.483176	0.398928	-0.39476	0.399551	0.466494
0.369398	0.432021	0.366521	-0.404298	-0.398852	-0.373677	0.423775	0.436793	-0.367099	0.420285	0.346081	-0.428525	0.464292	-0.278895	-0.381446	-0.38178	-0.457878	-0.419473	0.454642	-0.4404	-0.359839	0.38284	-0.408526	-0.374383	0.40309	0.366729	0.369956	0.425319	0.392182	-0.401008	0.331873	0.257298
0.456257	0.495895	0.455279	-0.467296	-0.489896	-0.467606	0.428724	0.349843	-0.296834	0.431795	0.384603	-0.457382	0.387389	-0.377183	-0.374745	-0.467099	-0.335152	-0.33206	0.458404	-0.482215	-0.366323	0.394937	-0.276869	-0.440222	0.409052	0.386794	0.407014	0.361681	0.420841	-0.316508	0.364298	0.376193
0.482047	0.430653	0.4569	-0.36674	-0.327033	-0.43555	0.377825	0.396599	-0.396266	0.48456	0.396161	-0.499192	0.406238	-0.373957	-0.480368	-0.453489	-0.336065	-0.351446	0.415064	-0.458358	-0.345116	0.335135	-0.500385	-0.463424	0.382923	0.455342	0.318052	0.456343	0.383463	-0.319315	0.416751	0.474707
0.41252	0.450163	0.349699	-0.418814	-0.413363	-0.487923	0.425526	0.347553	-0.463884	0.459196	0.381012	-0.41549	0.485346	-0.465565	-0.473608	-0.426382	-0.383809	-0.430435	0.367668	-0.381823	-0.341278	0.442421	-0.352932	-0.38641	0.485709	0.388324	0.436772	0.449389	0.491509	-0.46254	0.469323	0.471224
0.332027	0.15434	0.361444	-0.393935	-0.459535	-0.378411	0.341193	0.417972	-0.266235	0.407026	0.441671	-0.334044	0.463202	-0.369029	-0.326898	-0.446043	-0.400813	-0.312541	0.351267	-0.438013	-0.410573	0.369369	-0.429504	-0.423095	0.364193	0.315616	0.462575	0.43473	0.347758	-0.367605	0.435493	0.435289
0.395683	0.527949	0.455519	-0.285425	-0.387842	-0.397949	0.46192	0.534975	-0.32933	0.44559	0.324443	-0.408337	0.476511	-0.421904	-0.435088	-0.476329	-0.376224	-0.31301	0.403119	-0.410524	-0.438301	0.332041	-0.41371	-0.373441	0.4883	0.350184	0.433981	0.446706	0.387853	-0.391929	0.392463	0.511173
0.466373	0.279918	0.477924	-0.397936	-0.368365	-0.417947	0.356125	0.345066	-0.35146	0.437762	0.416443	-0.388236	0.374572	-0.356871	-0.398492	-0.369259	-0.416504	-0.379766	0.369208	-0.439092	-0.393282	0.36453	-0.37248	-0.378004	0.440086	0.422855	0.37908	0.384271	0.396554	-0.454569	0.423296	0.526849
0.387279	0.42389	0.433413	-0.428236	-0.475363	-0.478765	0.339601	0.379517	-0.35946	0.413809	0.373019	-0.409231	0.417554	-0.331233	-0.448336	-0.378834	-0.450608	-0.331717	0.450038	-0.400323	-0.422359	0.375284	-0.33509	-0.450162	0.362135	0.418461	0.417066	0.33111	0.355108	-0.292492	0.348642	0.426315
0.413439	0.457936	0.441139	-0.45169	-0.421067	-0.467989	0.42534	0.444274	-0.443336	0.447177	0.364695	-0.439456	0.36363	-0.4349	-0.404333	-0.461381	-0.434532	-0.414667	0.470228	-0.431153	-0.440787	0.415893	-0.39774	-0.40093	0.346632	0.405144	0.371498	0.392436	0.45826	-0.369392	0.460772	0.292981
0.428125	0.566148	0.386764	-0.497151	-0.510072	-0.469452	0.459613	0.36782	-0.416322	0.412115	0.439721	-0.400068	0.446689	-0.387891	-0.43436	-0.400261	-0.422393	-0.415283	0.451934	-0.36662	-0.44405	0.376734	-0.528503	-0.371625	0.369244	0.496709	0.495191	0.489145	0.381533	-0.356262	0.410081	0.386032
0.415915	0.382115	0.455902	-0.478063	-0.426872	-0.370336	0.443108	0.436869	-0.359165	0.350536	0.45357	-0.414869	0.373257	-0.427048	-0.408945	-0.392245	-0.4263	-0.460759	0.372213	-0.458346	-0.474227	0.472057	-0.348833	-0.439947	0.392305	0.385041	0.371135	0.433426	0.351286	-0.367463	0.358482	0.445646
0.415593	0.226251	0.39847	-0.494307	-0.483145	-0.370544	0.422624	0.423451	-0.336057	0.407801	0.41853	-0.391757	0.425736	-0.557325	-0.322531	-0.397799	-0.519867	-0.490944	0.361541	-0.309104	-0.387424	0.406838	-0.485895	-0.361007	0.530813	0.359211	0.331621	0.448124	0.467517	-0.448352	0.461369	0.308194
0.433455	0.149157	0.438382	-0.428802	-0.457821	-0.188964	0.290585	0.366593	-0.359135	0.500705	0.347064	-0.37835	0.514391	-0.285665	-0.391644	-0.429841	-0.322999	-0.407615	0.498198	-0.382622	-0.343142	0.503526	-0.313972	-0.301104	0.366922	0.389326	0.488613	0.485979	0.418136	-0.477884	0.435896	0.543775
0.424807	0.295648	0.276357	-0.369974	-0.242038	-0.345314	0.283804	0.281395	-0.335198	0.448876	0.375734	-0.304296	0.3701	-0.258764	-0.314883	-0.276272	-0.288111	-0.229342	0.296562	-0.271802	-0.409679	0.379904	-0.264702	-0.417953	0.30783	0.395484	0.352772	0.303492	0.407566	-0.403842	0.267003	0.031336
0.36867	0.471581	0.41518	-0.379107	-0.488847	-0.387457	0.348609	0.391599	-0.44451	0.453613	0.3357	-0.435118	0.466413	-0.394677	-0.420261	-0.398109	-0.400424	-0.377354	0.480438	-0.417238	-0.471348	0.399507	-0.380757	-0.409392	0.477427	0.476781	0.45901	0.438661	0.350842	-0.403975	0.409536	0.4215
0.449226	0.320906	0.35772	-0.294681	-0.432169	-0.447029	0.400791	0.456575	-0.389136	0.386156	0.477198	-0.437273	0.375142	-0.365882	-0.410842	-0.365155	-0.474925	-0.354768	0.392645	-0.388502	-0.32004	0.44104	-0.414854	-0.396211	0.382915	0.432282	0.456472	0.483107	0.415653	-0.476048	0.487269	0.540818
0.423492	0.40637	0.422491	-0.416199	-0.455743	-0.403351	0.36022	0.37813	-0.370778	0.357546	0.444997	-0.368043	0.37493	-0.45321	-0.389357	-0.369634	-0.419106	-0.415884	0.410164	-0.401918	-0.484336	0.326934	-0.430502	-0.430864	0.370277	0.352131	0.427835	0.364155	0.436288	-0.32109	0.372929	0.535467
0.349488	0.435332	0.313932	-0.390075	-0.357776	-0.41927	0.334373	0.377988	-0.421281	0.356293	0.339388	-0.328504	0.388439	-0.42067	-0.383069	-0.389698	-0.350495	-0.351397	0.368492	-0.334433	-0.301374	0.313074	-0.267879	-0.358149	0.349171	0.403154	0.403743	0.405276	0.41544	-0.334787	0.393701	0.271608
0.466437	0.422213	0.463671	-0.444111	-0.387532	-0.364516	0.410459	0.449102	-0.471053	0.455824	0.42374	-0.467508	0.380268	-0.31908	-0.419089	-0.422089	-0.405657	-0.465398	0.415954	-0.430037	-0.454932	0.409547	-0.43467	-0.487207	0.370529	0.3834	0.36707	0.369164	0.454612	-0.4504	0.423375	0.39263
0.474828	0.344024	0.389801	-0.490972	-0.433615	-0.453615	0.373708	0.473826	-0.376434	0.414913	0.484498	-0.449468	0.398793	-0.491936	-0.417882	-0.475406	-0.466961	-0.396379	0.37086	-0.455703	-0.415709	0.425551	-0.260087	-0.449711	0.374028	0.431352	0.431533	0.362256	0.418499	-0.381318	0.4959	0.42968
0.327816	0.247978	0.407796	-0.330756	-0.416245	-0.332372	0.439245	0.38659	-0.462071	0.305766	0.401416	-0.293214	0.288128	-0.424511	-0.333856	-0.326863	-0.335162	-0.394725	0.354659	-0.36217	-0.40368	0.375527	-0.334579	-0.421808	0.423506	0.293392	0.318239	0.356634	0.386957	-0.384694	0.375864	0.324612
0.397299	0.223129	0.419251	-0.275632	-0.329204	-0.444803	0.427851	0.316492	-0.349983	0.332746	0.410149	-0.442653	0.423391	-0.419412	-0.396018	-0.353612	-0.320417	-0.273642	0.351676	-0.425597	-0.369365	0.313067	-0.345483	-0.350555	0.368124	0.401676	0.412978	0.370985	0.339017	-0.359318	0.367038	0.341238
0.390697	0.438669	0.388562	-0.50036	-0.419816	-0.400085	0.457737	0.430624	-0.429527	0.363426	0.530747	-0.510206	0.462789	-0.504898	-0.485802	-0.528724	-0.440999	-0.426341	0.531158	-0.5081	-0.331063	0.408594	-0.390649	-0.441373	0.429799	0.481639	0.477655	0.373133	0.472095	-0.380108	0.490426	0.441829
0.452669	0.305139	0.378621	-0.393328	-0.404305	-0.481053	0.383832	0.466724	-0.325591	0.457994	0.402799	-0.469245	0.382379	-0.454583	-0.495599	-0.440031	-0.480285	-0.516408	0.389834	-0.489766	-0.415007	0.419652	-0.457179	-0.488776	0.480794	0.375126	0.352241	0.494972	0.410145	-0.408329	0.466454	0.570754
0.460591	0.325171	0.405498	-0.486191	-0.471014	-0.343039	0.390678	0.400252	-0.456265	0.390101	0.461978	-0.436033	0.396035	-0.379691	-0.375908	-0.425509	-0.458812	-0.432837	0.455761	-0.45271	-0.286584	0.341285	-0.34307	-0.411989	0.367942	0.358878	0.366833	0.411991	0.368431	-0.392384	0.464172	0.53099
0.416444	0.462561	0.344704	-0.34358	-0.483094	-0.390632	0.344663	0.423497	-0.381599	0.391956	0.394036	-0.444102	0.439125	-0.320368	-0.42984	-0.429617	-0.357964	-0.332741	0.407044	-0.373246	-0.316511	0.384947	-0.291169	-0.438042	0.437844	0.454141	0.360349	0.420875	0.410566	-0.376248	0.447181	0.39182
0.460701	0.466982	0.364911	-0.328722	-0.472142	-0.431317	0.365603	0.473317	-0.479641	0.393252	0.474189	-0.491514	0.423011	-0.392913	-0.477586	-0.395658	-0.473862	-0.359942	0.363177	-0.401867	-0.462537	0.338508	-0.390066	-0.457332	0.445435	0.390812	0.368308	0.441873	0.418221	-0.431493	0.34355	0.488536
0.33673	0.300285	0.36316	-0.406497	-0.395717	-0.351338	0.384679	0.439112	-0.405451	0.353781	0.411981	-0.354356	0.41282	-0.364205	-0.411691	-0.337064	-0.382345	-0.401092	0.333207	-0.377119	-0.346939	0.349849	-0.463189	-0.410452	0.329837	0.360087	0.412623	0.313949	0.342592	-0.335024	0.415292	0.281192
0.409819	0.24489	0.383403	-0.43839	-0.417079	-0.344251	0.403908	0.397586	-0.354582	0.383266	0.434126	-0.449858	0.401036	-0.32839	-0.38856	-0.357591	-0.392219	-0.419572	0.358813	-0.397202	-0.288863	0.422026	-0.264124	-0.344978	0.349856	0.411954	0.395639	0.371709	0.408176	-0.363375	0.400851	0.520215
0.421034	0.292199	0.423627	-0.300824	-0.413568	-0.412668	0.444204	0.420076	-0.427752	0.495412	0.437441	-0.480851	0.471732	-0.389057	-0.370879	-0.477409	-0.437264	-0.39788	0.438085	-0.452556	-0.303143	0.382306	-0.581857	-0.354642	0.443624	0.36351	0.384527	0.474615	0.452947	-0.347251	0.426451	0.57744
0.484823	0.589768	0.397534	-0.347277	-0.324064	-0.392508	0.43297	0.379774	-0.393401	0.312929	0.362993	-0.394748	0.338176	-0.471475	-0.397648	-0.363135	-0.425895	-0.401012	0.398815	-0.385914	-0.505249	0.438562	-0.569205	-0.439628	0.430538	0.427891	0.452113	0.398864	0.471832	-0.498994	0.352964	0.459207
0.497007	0.146168	0.344759	-0.39448	-0.419752	-0.21993	0.249831	0.283745	-0.49195	0.555678	0.332982	-0.423605	0.390055	-0.364961	-0.392436	-0.220787	-0.227194	-0.382757	0.482562	-0.324091	-0.515922	0.536835	-0.367407	-0.376497	0.396285	0.463057	0.460072	0.444452	0.444854	-0.476115	0.237949	0.366262
0.35147	0.350665	0.374517	-0.275086	-0.237966	-0.486918	0.340602	0.453204	-0.466539	0.38719	0.420377	-0.304103	0.253288	-0.344785	-0.284856	-0.452994	-0.360708	-0.419141	0.42578	-0.468539	-0.323679	0.411358	-0.332981	-0.327307	0.366211	0.410882	0.279181	0.309984	0.416479	-0.358104	0.331156	0.437618
0.497516	0.305236	0.40946	-0.417352	-0.464054	-0.406985	0.34164	0.423592	-0.323286	0.506163	0.39411	-0.365336	0.429025	-0.454912	-0.437788	-0.401333	-0.37977	-0.391837	0.413501	-0.456996	-0.328941	0.505093	-0.439273	-0.485905	0.443674	0.398057	0.504868	0.47632	0.460914	-0.473027	0.396262	0.546291
0.437703	0.475991	0.427561	-0.343355	-0.465115	-0.416778	0.475391	0.491004	-0.342257	0.322747	0.351311	-0.430672	0.453286	-0.352779	-0.465521	-0.339573	-0.449453	-0.378656	0.380771	-0.396211	-0.426256	0.368883	-0.124339	-0.397932	0.436865	0.368255	0.420866	0.330826	0.41529	-0.381122	0.393989	0.25692
0.299233	0.426595	0.37405	-0.0576047	-0.281829	-0.288055	0.405647	0.482955	-0.417263	0.355981	0.343509	-0.412821	0.230947	-0.258531	-0.210676	-0.354426	-0.493457	-0.429679	0.201818	-0.379243	-0.226605	0.216063	-0.306297	-0.308482	0.108127	0.441135	0.216677	0.490823	0.453653	-0.275554	0.383257	0.263874
0.435128	0.51197	0.417311	-0.440827	-0.442252	-0.446908	0.442396	0.361077	-0.367206	0.384357	0.474644	-0.444722	0.370749	-0.325383	-0.442925	-0.485966	-0.374129	-0.478246	0.49804	-0.387507	-0.417288	0.403817	-0.433848	-0.441653	0.399564	0.398144	0.429958	0.462632	0.376442	-0.48032	0.374589	0.425581
0.478426	0.503823	0.405358	-0.408239	-0.371758	-0.406913	0.357486	0.402187	-0.290683	0.429227	0.44363	-0.459142	0.384114	-0.351498	-0.450933	-0.413288	-0.414142	-0.414662	0.44284	-0.430083	-0.391855	0.463348	-0.350792	-0.397976	0.341138	0.450229	0.462957	0.437619	0.382007	-0.401859	0.399706	0.260262
0.451713	0.334176	0.407	-0.401919	-0.404386	-0.464716	0.389845	0.380349	-0.426489	0.473037	0.362612	-0.453949	0.393955	-0.393344	-0.459518	-0.453251	-0.406944	-0.374393	0.410624	-0.380453	-0.393303	0.423511	-0.385718	-0.362323	0.437754	0.403978	0.430079	0.373833	0.420095	-0.383515	0.401004	0.399786
0.425651	0.348881	0.371678	-0.390757	-0.354257	-0.502981	0.494656	0.488972	-0.457472	0.384359	0.376079	-0.402562	0.423649	-0.462477	-0.419714	-0.459276	-0.474911	-0.428639	0.403779	-0.370612	-0.451718	0.44596	-0.450016	-0.366807	0.465421	0.42717	0.465703	0.433776	0.483018	-0.419356	0.393077	0.361614
0.459021	0.314833	0.401451	-0.441003	-0.359747	-0.425541	0.435547	0.461049	-0.373973	0.376141	0.471666	-0.437791	0.371651	-0.372116	-0.416222	-0.375646	-0.477172	-0.463631	0.397415	-0.418792	-0.380902	0.418349	-0.39875	-0.365154	0.388632	0.461857	0.428707	0.463922	0.459695	-0.46411	0.371907	0.379324
0.340002	-0.137541	0.246043	-0.199019	-0.326929	-0.25802	0.31838	0.272614	-0.225709	0.446344	0.372695	-0.295998	0.258081	-0.0894987	-0.209737	-0.245535	-0.206941	-0.219254	0.253008	-0.344785	-0.331049	0.396247	-0.252078	-0.345516	0.327183	0.208886	0.321714	0.324315	0.265543	-0.439727	0.336238	0.28033
0.353193	0.16369	0.439146	-0.326978	-0.482972	-0.276639	0.377877	0.366535	-0.473315	0.512724	0.406608	-0.371252	0.466561	-0.416239	-0.397698	-0.468524	-0.305924	-0.413385	0.413134	-0.346006	-0.347241	0.325091	-0.54939	-0.381899	0.41541	0.474526	0.437891	0.410106	0.502305	-0.359919	0.372445	0.489773
0.465081	0.350023	0.319185	-0.48572	-0.399765	-0.325022	0.345012	0.41366	-0.491777	0.439514	0.48176	-0.426862	0.449497	-0.463268	-0.492467	-0.539623	-0.510567	-0.39806	0.524244	-0.478492	-0.356338	0.482268	-0.357011	-0.339633	0.42149	0.486279	0.408141	0.383235	0.494211	-0.439409	0.50633	0.58893
0.434977	0.375749	0.330262	-0.317976	-0.338319	-0.359441	0.397912	0.390272	-0.363006	0.469953	0.341749	-0.430373	0.428252	-0.400028	-0.395243	-0.399583	-0.387084	-0.337712	0.342912	-0.376043	-0.324761	0.402143	-0.45654	-0.416113	0.371455	0.384474	0.411598	0.415807	0.435344	-0.345991	0.428221	0.474099
0.319116	0.448314	0.305476	-0.32376	-0.322797	-0.353016	0.293544	0.415601	-0.383695	0.395921	0.32783	-0.299449	0.417262	-0.285862	-0.378323	-0.373368	-0.360607	-0.287932	0.309304	-0.280885	-0.298971	0.435062	-0.472694	-0.374287	0.32984	0.414765	0.34411	0.399717	0.298034	-0.365753	0.332723	0.229997
0.468583	0.288293	0.437559	-0.398583	-0.426397	-0.365545	0.353522	0.442596	-0.351484	0.373207	0.410522	-0.346984	0.465584	-0.406147	-0.351553	-0.304241	-0.399752	-0.346977	0.37916	-0.396213	-0.340618	0.357454	-0.452202	-0.439755	0.356043	0.340005	0.402692	0.369442	0.362454	-0.457477	0.395338	0.539943
0.419279	0.31934	0.397273	-0.354594	-0.544252	-0.387787	0.37664	0.408387	-0.416466	0.380457	0.447277	-0.314309	0.359466	-0.297712	-0.317338	-0.475556	-0.309422	-0.286771	0.323259	-0.294116	-0.413758	0.247344	-0.577247	-0.384728	0.327368	0.33105	0.295298	0.408267	0.430329	-0.324827	0.430463	0.226843
0.425511	0.271219	0.383206	-0.327703	-0.334303	-0.451865	0.42597	0.426006	-0.492598	0.416114	0.437824	-0.371995	0.410088	-0.446399	-0.483717	-0.332935	-0.437502	-0.35996	0.467598	-0.327655	-0.346517	0.38166	-0.353412	-0.457565	0.390566	0.446033	0.373005	0.353602	0.447294	-0.454695	0.367778	0.333602
0.430223	0.402974	0.384245	-0.333565	-0.332217	-0.420713	0.30034	0.363466	-0.480942	0.339127	0.424024	-0.332633	0.392567	-0.27348	-0.388517	-0.40395	-0.351346	-0.455066	0.349818	-0.478095	-0.452954	0.460784	-0.415726	-0.356704	0.41563	0.457219	0.392376	0.417271	0.373952	-0.362136	0.343167	0.525084
0.286227	0.614053	0.361491	-0.200324	-0.322282	-0.292305	0.293221	0.391831	-0.387685	0.35802	0.296952	-0.38498	0.336927	-0.42847	-0.400913	-0.348447	-0.412814	-0.318901	0.346612	-0.404356	-0.294148	0.350786	-0.419803	-0.304306	0.428216	0.335098	0.342381	0.375288	0.423518	-0.33969	0.382414	0.440505
0.427321	0.400146	0.379775	-0.421181	-0.372009	-0.378945	0.366419	0.459474	-0.390022	0.502781	0.394742	-0.484513	0.388926	-0.331443	-0.423705	-0.332094	-0.386741	-0.471261	0.462165	-0.437777	-0.431604	0.477683	-0.558232	-0.498121	0.351951	0.403934	0.411136	0.455863	0.466033	-0.439223	0.374402	0.437042
0.389701	0.303476	0.336693	-0.371781	-0.304772	-0.39733	0.452631	0.368883	-0.375513	0.398577	0.354211	-0.361672	0.446461	-0.405925	-0.328357	-0.420025	-0.348331	-0.360025	0.361449	-0.400334	-0.44896	0.381274	-0.418395	-0.368464	0.393451	0.347879	0.45415	0.336122	0.35706	-0.44893	0.341468	0.369364
0.450148	0.542488	0.395577	-0.457327	-0.45866	-0.375395	0.402621	0.3706	-0.414529	0.427321	0.4594	-0.478635	0.425053	-0.469306	-0.466128	-0.516026	-0.462664	-0.479159	0.454639	-0.470455	-0.464822	0.408624	-0.540609	-0.470535	0.370542	0.387097	0.395207	0.392637	0.436102	-0.425281	0.462131	0.446944
0.393096	0.314564	0.395214	-0.303467	-0.327888	-0.453206	0.371989	0.464055	-0.372395	0.420314	0.334931	-0.323137	0.336457	-0.440671	-0.372721	-0.463367	-0.455563	-0.360993	0.383464	-0.41352	-0.280983	0.324875	-0.279804	-0.295279	0.406365	0.452866	0.345197	0.35446	0.455502	-0.383056	0.441009	0.412891
0.367304	0.256845	0.303483	-0.424839	-0.368132	-0.307091	0.400307	0.35244	-0.386332	0.513146	0.337106	-0.457826	0.422461	-0.262879	-0.450807	-0.362917	-0.289127	-0.448777	0.425207	-0.397082	-0.429137	0.436517	-0.443831	-0.433461	0.32135	0.386934	0.3322	0.447623	0.490421	-0.485147	0.360299	0.427679
0.487059	0.238194	0.480354	-0.365933	-0.438644	-0.509029	0.415532	0.34745	-0.425462	0.41284	0.419424	-0.475736	0.43173	-0.373723	-0.449064	-0.460925	-0.419365	-0.437857	0.461888	-0.438235	-0.38887	0.430884	-0.44287	-0.380609	0.399993	0.420958	0.480035	0.397174	0.392049	-0.449199	0.437179	0.398374
0.425991	0.334883	0.442701	-0.395932	-0.434991	-0.377557	0.388275	0.405062	-0.440818	0.426949	0.430613	-0.439494	0.422146	-0.314812	-0.481666	-0.420868	-0.468293	-0.47708	0.391114	-0.454467	-0.454961	0.398226	-0.383075	-0.364415	0.423198	0.461127	0.38068	0.474348	0.383481	-0.455361	0.46621	0.530535
0.447729	0.49722	0.39376	-0.501095	-0.521777	-0.383871	0.475196	0.429323	-0.433548	0.416229	0.410761	-0.475166	0.475795	-0.389874	-0.416194	-0.432053	-0.499277	-0.409228	0.486166	-0.44885	-0.404268	0.484338	-0.533796	-0.387264	0.42975	0.438257	0.452107	0.513057	0.456121	-0.48991	0.480942	0.4705
0.416979	0.334965	0.430607	-0.302311	-0.482844	-0.381784	0.441501	0.420479	-0.465145	0.464968	0.361879	-0.470865	0.467853	-0.510368	-0.386278	-0.399492	-0.478478	-0.53764	0.374489	-0.328892	-0.382616	0.428217	-0.447321	-0.303587	0.384146	0.436329	0.365074	0.501974	0.454897	-0.373167	0.472172	0.55991
0.459534	0.442155	0.418093	-0.3902	-0.441512	-0.363777	0.487742	0.419075	-0.320762	0.425296	0.37395	-0.490299	0.432396	-0.382765	-0.426205	-0.497488	-0.497152	-0.38758	0.433458	-0.448267	-0.368716	0.473956	-0.329658	-0.380138	0.404949	0.385332	0.459784	0.475519	0.479995	-0.517625	0.440229	0.221981
0.443483	0.482664	0.445509	-0.466271	-0.474279	-0.414921	0.459014	0.360406	-0.458608	0.429842	0.421897	-0.395362	0.485631	-0.33423	-0.473565	-0.46467	-0.47336	-0.509709	0.424197	-0.41698	-0.406647	0.397405	-0.439524	-0.456145	0.391926	0.375455	0.424187	0.499363	0.429334	-0.41432	0.478968	0.488202
0.471663	0.406703	0.400742	-0.463684	-0.35448	-0.456408	0.442905	0.420941	-0.476308	0.453833	0.472033	-0.370493	0.405112	-0.495649	-0.433239	-0.384513	-0.393413	-0.493481	0.475582	-0.39457	-0.397717	0.465145	-0.422629	-0.368128	0.395154	0.414759	0.43783	0.413623	0.491275	-0.479211	0.440576	0.451383
0.323214	0.166915	0.377268	-0.222034	-0.33831	-0.395498	0.331156	0.33797	-0.357745	0.459118	0.326748	-0.335615	0.297818	-0.462138	-0.431957	-0.428395	-0.437605	-0.244615	0.449042	-0.382518	-0.358005	0.465265	-0.488965	-0.382483	0.281692	0.492471	0.446983	0.33568	0.421093	-0.341214	0.397401	0.295365
0.336684	0.540767	0.363377	-0.4055	-0.509352	-0.402813	0.447055	0.462565	-0.382828	0.397253	0.42025	-0.388892	0.403007	-0.407545	-0.412819	-0.451442	-0.442958	-0.365628	0.499054	-0.372245	-0.35314	0.484203	-0.554259	-0.468172	0.391051	0.434797	0.480856	0.388749	0.480801	-0.494453	0.40451	0.447137
0.277037	0.047591	0.322018	-0.111585	-0.5029	-0.494884	0.451464	0.253586	-0.310801	0.56355	0.447623	-0.250784	0.167192	-0.394879	-0.585751	-0.449362	-0.4182	-0.188454	0.55582	-0.243403	-0.423951	0.491342	-0.565738	-0.54259	0.426859	0.566633	0.465728	0.430278	0.386717	-0.437775	0.440675	0.377899
0.348266	0.459518	0.346572	-0.331847	-0.164878	-0.281562	0.377177	0.262991	-0.277997	0.191895	0.360283	-0.326653	0.213873	-0.408633	-0.309871	-0.250167	-0.307661	-0.368014	0.254976	-0.361944	-0.297849	0.277822	-0.265895	-0.376391	0.310961	0.258632	0.253745	0.262214	0.273366	-0.203739	0.401381	0.34742
0.414332	0.328206	0.406892	-0.445208	-0.455747	-0.410979	0.371892	0.388654	-0.421318	0.342515	0.420777	-0.460038	0.355525	-0.430897	-0.401401	-0.436537	-0.386666	-0.431434	0.329384	-0.451987	-0.357124	0.435329	-0.319247	-0.321933	0.425732	0.457804	0.397873	0.451901	0.330581	-0.414929	0.43585	0.364131
0.387185	0.399712	0.470971	-0.348779	-0.368906	-0.376335	0.361927	0.421011	-0.354342	0.443152	0.446349	-0.382841	0.404255	-0.407969	-0.368592	-0.435639	-0.449783	-0.372222	0.448599	-0.390718	-0.449016	0.411706	-0.386467	-0.384312	0.450308	0.387713	0.373092	0.391134	0.437196	-0.395013	0.382131	0.392402
0.406268	0.306686	0.332623	-0.514854	-0.458371	-0.401174	0.411503	0.37748	-0.383097	0.308837	0.349399	-0.467522	0.352235	-0.400467	-0.407542	-0.417479	-0.426356	-0.484855	0.369268	-0.411107	-0.359029	0.304066	-0.295746	-0.387039	0.403817	0.434641	0.336544	0.366109	0.333089	-0.366362	0.436139	0.423238
0.35846	0.237062	0.397598	-0.283846	-0.342396	-0.4797	0.443207	0.412486	-0.468787	0.473753	0.468532	-0.385376	0.455112	-0.445011	-0.462733	-0.297709	-0.38079	-0.386161	0.398268	-0.34981	-0.331728	0.383096	-0.451133	-0.468748	0.420923	0.458966	0.421611	0.397631	0.376412	-0.425092	0.490589	0.378635
0.415726	0.37957	0.429118	-0.358377	-0.462956	-0.459779	0.429524	0.452038	-0.462612	0.449558	0.500411	-0.513831	0.473867	-0.370563	-0.468573	-0.418977	-0.43169	-0.407997	0.491413	-0.504172	-0.361749	0.42347	-0.420243	-0.388901	0.403682	0.488519	0.427693	0.415878	0.456296	-0.484575	0.410394	0.481082
0.416292	0.379198	0.383292	-0.358301	-0.344191	-0.365071	0.423421	0.452079	-0.428944	0.331473	0.455853	-0.445908	0.357962	-0.410286	-0.406503	-0.390844	-0.357084	-0.375711	0.34728	-0.369119	-0.322643	0.357858	-0.390366	-0.378613	0.399707	0.349954	0.425086	0.385071	0.45002	-0.434847	0.344025	0.362837
0.447277	0.3481	0.408401	-0.418747	-0.392324	-0.393797	0.417704	0.418429	-0.380634	0.437391	0.430215	-0.424629	0.355203	-0.257672	-0.349403	-0.317174	-0.415233	-0.40249	0.445953	-0.363643	-0.3181	0.403594	-0.545403	-0.407298	0.304095	0.402375	0.424062	0.469179	0.34176	-0.489133	0.453742	0.417259
0.400282	0.396262	0.403541	-0.380866	-0.506447	-0.415254	0.488789	0.424107	-0.451797	0.38546	0.414297	-0.477506	0.426836	-0.373862	-0.411919	-0.454533	-0.494183	-0.411973	0.492005	-0.372749	-0.350495	0.436765	-0.413642	-0.417905	0.395655	0.389014	0.46515	0.407524	0.372527	-0.455982	0.479101	0.377765
0.450257	0.282403	0.466596	-0.382521	-0.326748	-0.415374	0.456811	0.400294	-0.447449	0.444236	0.38695	-0.469471	0.502746	-0.33592	-0.408805	-0.443866	-0.402979	-0.46947	0.44187	-0.394729	-0.444632	0.414581	-0.410296	-0.378381	0.416485	0.474624	0.407462	0.439086	0.429443	-0.441858	0.430796	0.54411
0.305416	0.488546	0.26209	-0.338285	-0.412702	-0.503013	0.328645	0.45834	-0.402759	0.343629	0.353921	-0.318418	0.279141	-0.443509	-0.313257	-0.265401	-0.385424	-0.447798	0.36742	-0.406761	-0.405448	0.318902	-0.377712	-0.382702	0.350371	0.392215	0.251319	0.31897	0.386599	-0.203598	0.372899	0.32326
0.396582	0.42474	0.437248	-0.427587	-0.419605	-0.46805	0.47258	0.467448	-0.526939	0.439122	0.416337	-0.421344	0.38507	-0.453916	-0.442391	-0.419501	-0.421714	-0.437795	0.37339	-0.467195	-0.341871	0.395051	-0.408348	-0.364343	0.484753	0.483119	0.387927	0.368762	0.455196	-0.491223	0.448228	0.364702
0.430855	0.402729	0.443973	-0.448108	-0.462144	-0.466099	0.407143	0.463987	-0.422415	0.447436	0.390908	-0.447164	0.390033	-0.364506	-0.361846	-0.433965	-0.447691	-0.382529	0.454482	-0.369593	-0.318758	0.450266	-0.303392	-0.450784	0.414266	0.447781	0.393358	0.432275	0.420794	-0.365533	0.322356	0.374824
0.389259	0.498948	0.431645	-0.470204	-0.468302	-0.377327	0.421597	0.508669	-0.493638	0.403741	0.431915	-0.369214	0.352352	-0.385227	-0.435903	-0.458361	-0.499471	-0.408415	0.426808	-0.416473	-0.39754	0.348948	-0.493481	-0.436644	0.50555	0.380832	0.494269	0.422549	0.34951	-0.463718	0.439897	0.299811
0.479568	0.367746	0.452459	-0.394897	-0.448944	-0.470142	0.458275	0.450874	-0.512148	0.417863	0.438641	-0.407289	0.380595	-0.513822	-0.452579	-0.421877	-0.486688	-0.489011	0.412472	-0.396671	-0.466446	0.463372	-0.384246	-0.454066	0.450001	0.496884	0.384995	0.403747	0.380779	-0.508539	0.479684	0.397548
0.449602	0.383238	0.308451	-0.481401	-0.440598	-0.333951	0.309476	0.351145	-0.364593	0.477874	0.407911	-0.363659	0.429666	-0.358467	-0.424995	-0.296496	-0.345117	-0.36362	0.508667	-0.363624	-0.515919	0.432509	-0.511797	-0.494609	0.375163	0.341022	0.437656	0.443638	0.489593	-0.45809	0.449533	0.389349
0.353104	0.445572	0.431318	-0.49166	-0.365209	-0.475449	0.482591	0.475224	-0.450777	0.456997	0.341569	-0.362879	0.465798	-0.4889	-0.439547	-0.402458	-0.372865	-0.321703	0.381616	-0.461731	-0.434539	0.393757	-0.444424	-0.424976	0.329733	0.47715	0.456135	0.457392	0.396745	-0.310958	0.342646	0.472684
0.323359	0.360832	0.344875	-0.407334	-0.349301	-0.310173	0.415377	0.333253	-0.457584	0.34031	0.377259	-0.400605	0.332561	-0.439413	-0.434162	-0.304582	-0.38392	-0.430686	0.413617	-0.357647	-0.395075	0.427923	-0.350312	-0.399006	0.37586	0.385505	0.369699	0.424214	0.335124	-0.367776	0.31838	0.329698
0.486473	0.3005	0.508257	-0.472919	-0.460005	-0.455565	0.421722	0.391756	-0.478455	0.485793	0.47165	-0.390682	0.385073	-0.36295	-0.410523	-0.512053	-0.44644	-0.519864	0.50081	-0.410431	-0.454928	0.382721	-0.358173	-0.422155	0.470325	0.421862	0.413473	0.483706	0.425441	-0.442512	0.422037	0.432156
0.365791	0.228717	0.367003	-0.280901	-0.31055	-0.366964	0.53572	0.428431	-0.510553	0.365845	0.402557	-0.529631	0.458386	-0.568956	-0.436475	-0.489323	-0.509235	-0.473353	0.335426	-0.47162	-0.449977	0.276362	-0.560299	-0.261437	0.499746	0.301722	0.245101	0.352956	0.447753	-0.317327	0.501031	0.0811596
0.429354	0.345273	0.415468	-0.536825	-0.278012	-0.425565	0.3135	0.281073	-0.394358	0.358783	0.285167	-0.422305	0.439444	-0.400272	-0.301859	-0.224761	-0.244316	-0.357077	0.348035	-0.294946	-0.404962	0.342899	-0.404247	-0.464728	0.316259	0.349927	0.452673	0.312815	0.510434	-0.522534	0.274154	0.405527
0.42083	0.587336	0.389781	-0.357291	-0.324262	-0.370865	0.334208	0.396938	-0.494578	0.396802	0.452	-0.467266	0.330368	-0.462573	-0.396937	-0.380916	-0.497176	-0.458362	0.351963	-0.463468	-0.454688	0.337471	-0.274527	-0.348434	0.467735	0.432596	0.423596	0.425577	0.39454	-0.32844	0.379234	0.427471
0.316429	0.191988	0.305718	-0.466984	-0.407008	-0.350672	0.469955	0.367318	-0.404972	0.299516	0.397061	-0.385296	0.320894	-0.435615	-0.397221	-0.43332	-0.404758	-0.456903	0.330102	-0.404645	-0.471742	0.436146	-0.424216	-0.379776	0.304539	0.294894	0.397258	0.384621	0.447118	-0.487927	0.389146	0.517363
0.494965	0.3059	0.429707	-0.46438	-0.396016	-0.467865	0.443285	0.394891	-0.37799	0.438968	0.467748	-0.483088	0.370534	-0.426111	-0.439329	-0.4017	-0.50252	-0.514382	0.481242	-0.366871	-0.471929	0.39893	-0.457489	-0.468869	0.407024	0.405627	0.478385	0.476084	0.468093	-0.509145	0.38024	0.363845
0.453716	0.394658	0.479534	-0.442016	-0.439436	-0.354364	0.420002	0.432215	-0.452371	0.426185	0.44028	-0.465537	0.36034	-0.378607	-0.38119	-0.38343	-0.377995	-0.367858	0.372478	-0.476558	-0.449585	0.440249	-0.390241	-0.414609	0.458501	0.368904	0.41365	0.44152	0.413639	-0.444872	0.370507	0.425566
0.318726	0.342299	0.292854	-0.176234	-0.203547	-0.295437	0.334869	0.335616	-0.232812	0.212963	0.224727	-0.213187	0.228849	-0.230676	-0.229203	-0.304904	-0.218986	-0.275088	0.297902	-0.202597	-0.301059	0.294359	-0.142327	-0.291446	0.295114	0.256271	0.277018	0.365941	0.182157	-0.160957	0.268357	0.102308
0.395173	0.273339	0.327608	-0.40514	-0.322187	-0.3997	0.415578	0.404276	-0.373041	0.342172	0.394989	-0.384152	0.368509	-0.381966	-0.400917	-0.325451	-0.390792	-0.30727	0.392938	-0.329742	-0.394617	0.351657	-0.482683	-0.382672	0.349169	0.433311	0.370164	0.326972	0.357238	-0.429562	0.259317	0.540907
0.469745	0.290152	0.36452	-0.313776	-0.345511	-0.353409	0.459938	0.424581	-0.405147	0.39008	0.406887	-0.478941	0.362089	-0.39918	-0.48226	-0.441296	-0.379676	-0.484603	0.454302	-0.383585	-0.401485	0.443743	-0.42218	-0.400063	0.399352	0.370452	0.396396	0.397914	0.395289	-0.401904	0.49124	0.457531
0.41022	0.388751	0.430155	-0.318669	-0.391802	-0.290784	0.375191	0.406951	-0.348519	0.361423	0.373103	-0.443553	0.391193	-0.367638	-0.332374	-0.401055	-0.35384	-0.323079	0.306493	-0.384025	-0.431855	0.346531	-0.344838	-0.325579	0.336022	0.356496	0.444393	0.367271	0.331971	-0.35602	0.351976	0.48751
0.394402	0.542266	0.464595	-0.520463	-0.380168	-0.423002	0.339777	0.467454	-0.382172	0.519212	0.513861	-0.48671	0.421881	-0.369945	-0.436491	-0.438642	-0.470422	-0.284505	0.346122	-0.509436	-0.356982	0.37758	-0.45532	-0.388007	0.463783	0.418938	0.370393	0.425243	0.500222	-0.456352	0.462447	0.411904
0.392634	0.362648	0.414401	-0.30624	-0.269033	-0.359439	0.39795	0.493663	-0.454008	0.397082	0.503844	-0.440952	0.386664	-0.336334	-0.467567	-0.488278	-0.426583	-0.42384	0.487314	-0.241072	-0.329386	0.29761	-0.576252	-0.312435	0.366824	0.455853	0.363627	0.374959	0.510406	-0.510116	0.305089	0.530317
0.41041	0.286696	0.389091	-0.327095	-0.379291	-0.460784	0.359338	0.412963	-0.363274	0.433711	0.377101	-0.372931	0.359187	-0.324649	-0.393209	-0.390486	-0.417418	-0.435717	0.390524	-0.374712	-0.298785	0.359469	-0.419953	-0.385835	0.393113	0.394183	0.433231	0.460419	0.458388	-0.396841	0.357885	0.433032
0.510169	0.466538	0.45096	-0.348348	-0.510832	-0.428819	0.498011	0.413266	-0.4465	0.402563	0.407336	-0.468197	0.399149	-0.403102	-0.437793	-0.494765	-0.402911	-0.419667	0.479863	-0.468794	-0.477845	0.383681	-0.393754	-0.471715	0.403945	0.515447	0.451726	0.396444	0.456169	-0.441398	0.41733	0.340603
0.362456	0.440501	0.402243	-0.536373	-0.509787	-0.444373	0.394849	0.328925	-0.492539	0.438195	0.403183	-0.473263	0.449868	-0.367089	-0.360396	-0.352103	-0.47721	-0.303853	0.376306	-0.411387	-0.35642	0.481702	-0.340509	-0.406514	0.42092	0.462549	0.460615	0.397576	0.471887	-0.400352	0.384179	0.563527
0.331369	0.24797	0.38155	-0.461716	-0.433142	-0.370708	0.373637	0.356174	-0.439191	0.346412	0.398973	-0.345054	0.416048	-0.413546	-0.371052	-0.417941	-0.401305	-0.464099	0.392449	-0.465998	-0.327814	0.43052	-0.426975	-0.347496	0.362101	0.453385	0.369026	0.364598	0.398638	-0.456452	0.408289	0.487957
0.4546	0.304242	0.472711	-0.4434	-0.387919	-0.356201	0.457456	0.396677	-0.406651	0.481498	0.452718	-0.343084	0.434795	-0.453508	-0.363072	-0.387185	-0.402674	-0.318394	0.430219	-0.377954	-0.321769	0.438782	-0.452904	-0.382402	0.413602	0.416534	0.395071	0.376466	0.41842	-0.364225	0.38632	0.366574
0.411146	0.335478	0.416659	-0.452875	-0.413525	-0.462938	0.43701	0.397941	-0.473159	0.502314	0.403858	-0.388299	0.394507	-0.359744	-0.44187	-0.368541	-0.42404	-0.426183	0.475585	-0.452675	-0.379042	0.469661	-0.480776	-0.502945	0.470622	0.340759	0.350822	0.408328	0.381885	-0.438365	0.452545	0.498754
0.347572	0.259456	0.462559	-0.44981	-0.364258	-0.399166	0.341146	0.386068	-0.431359	0.296272	0.340513	-0.407444	0.389845	-0.356618	-0.375889	-0.398129	-0.351064	-0.37023	0.442723	-0.346065	-0.387104	0.313857	-0.304725	-0.424594	0.430327	0.388998	0.394919	0.355215	0.410646	-0.3407	0.454021	0.392949
0.373136	0.622947	0.442521	-0.514524	-0.541996	-0.414764	0.328657	0.422184	-0.334673	0.434115	0.411908	-0.480157	0.483596	-0.263433	-0.475825	-0.500301	-0.533788	-0.461184	0.522497	-0.435237	-0.518955	0.496849	-0.158567	-0.443502	0.459097	0.388468	0.468663	0.360414	0.365738	-0.334455	0.403999	0.439664
0.364764	0.203193	0.3125	-0.236083	-0.357701	-0.368491	0.372827	0.361931	-0.34426	0.414259	0.426372	-0.35551	0.365996	-0.522057	-0.429541	-0.328224	-0.410644	-0.301095	0.382595	-0.300497	-0.378604	0.385683	-0.635386	-0.471869	0.388776	0.414221	0.410914	0.351093	0.39003	-0.443428	0.346555	0.290576
0.497645	0.332326	0.463596	-0.498129	-0.486959	-0.401539	0.395175	0.407077	-0.391932	0.401936	0.44525	-0.432832	0.431278	-0.378132	-0.450418	-0.481923	-0.469568	-0.495027	0.462701	-0.475267	-0.505638	0.393793	-0.337369	-0.363128	0.386685	0.395099	0.465902	0.461899	0.43234	-0.369677	0.41193	0.510726
0.342846	0.181738	0.413928	-0.296216	-0.411068	-0.374557	0.359764	0.366208	-0.41518	0.447662	0.413449	-0.387671	0.414766	-0.4832	-0.339267	-0.438056	-0.413624	-0.318012	0.432913	-0.471233	-0.343454	0.338803	-0.490587	-0.391221	0.371297	0.464648	0.425515	0.416534	0.386133	-0.372943	0.441475	0.338426
0.519845	0.327464	0.495559	-0.571097	-0.474416	-0.493121	0.403796	0.481298	-0.506865	0.454306	0.47703	-0.363333	0.492843	-0.393055	-0.376782	-0.342685	-0.470183	-0.392073	0.455145	-0.446527	-0.36021	0.376841	-0.157711	-0.500513	0.380543	0.39204	0.478409	0.4098	0.373158	-0.511328	0.439007	0.498569
0.398435	0.424612	0.440041	-0.394809	-0.404852	-0.436945	0.345362	0.335276	-0.367466	0.402568	0.297695	-0.359259	0.36285	-0.246157	-0.328027	-0.321003	-0.349783	-0.27245	0.379224	-0.390638	-0.363669	0.305943	-0.338543	-0.411708	0.377983	0.309007	0.369577	0.358081	0.294941	-0.352266	0.408135	0.411276
0.354898	0.341598	0.391431	-0.326427	-0.450047	-0.383974	0.405785	0.445092	-0.482721	0.418537	0.403006	-0.49211	0.463198	-0.388077	-0.362823	-0.506825	-0.412923	-0.435743	0.381471	-0.395222	-0.339212	0.436987	-0.527538	-0.358264	0.424772	0.37223	0.385988	0.425886	0.427902	-0.388525	0.495516	0.485779
0.407156	0.321702	0.411672	-0.344526	-0.386881	-0.407687	0.523778	0.411338	-0.420374	0.379382	0.462782	-0.501482	0.358655	-0.480921	-0.420642	-0.490986	-0.460754	-0.387259	0.378732	-0.459542	-0.45543	0.378578	-0.406584	-0.392633	0.447172	0.367977	0.46509	0.411886	0.336802	-0.391541	0.377468	0.232133
0.402857	0.301575	0.474988	-0.437186	-0.36013	-0.516946	0.409735	0.411276	-0.428626	0.360773	0.407926	-0.383577	0.464978	-0.490567	-0.380752	-0.315882	-0.484085	-0.506705	0.384355	-0.36265	-0.359248	0.355299	-0.473315	-0.398688	0.358666	0.363109	0.387457	0.468119	0.386738	-0.468732	0.377005	0.397273
0.457175	0.545953	0.413409	-0.345988	-0.320997	-0.374997	0.37745	0.425381	-0.269124	0.437275	0.399426	-0.407401	0.433622	-0.470228	-0.429695	-0.407103	-0.362763	-0.448463	0.439898	-0.435698	-0.427033	0.457489	-0.439433	-0.449655	0.373055	0.406669	0.395292	0.360614	0.362079	-0.389531	0.468073	0.442946
0.380219	0.518152	0.469675	-0.431571	-0.322072	-0.372117	0.43997	0.38839	-0.296813	0.335665	0.38913	-0.54782	0.514608	-0.416269	-0.431139	-0.40425	-0.430618	-0.519537	0.46553	-0.312661	-0.353034	0.328764	-0.379029	-0.475657	0.452083	0.481885	0.283197	0.431924	0.397169	-0.418966	0.409858	0.386029
0.428569	0.110782	0.299356	-0.2029	-0.493213	-0.218768	0.403225	0.402393	-0.17595	0.472546	0.399193	-0.333622	0.311182	-0.607829	-0.509182	-0.248727	-0.416864	-0.215594	0.449454	-0.465335	-0.396973	0.372853	-0.666844	-0.542717	0.374506	0.53827	0.540217	0.388904	0.450984	-0.452217	0.461176	0.56965
0.47332	0.613029	0.338324	-0.536269	-0.27726	-0.514091	0.418635	0.489123	-0.577831	0.411138	0.530739	-0.317247	0.265626	-0.429768	-0.420294	-0.400728	-0.377538	-0.381055	0.481279	-0.325635	-0.27455	0.374528	-0.290117	-0.399966	0.325626	0.478648	0.251681	0.398071	0.365017	-0.499586	0.273596	0.242525
0.444846	0.313014	0.446454	-0.421697	-0.497239	-0.457754	0.435249	0.391415	-0.382121	0.382977	0.465135	-0.435552	0.380808	-0.379012	-0.358063	-0.505065	-0.386299	-0.481935	0.370545	-0.457457	-0.39633	0.399873	-0.10317	-0.369066	0.439959	0.387445	0.470244	0.459936	0.43283	-0.480834	0.503692	0.399921
0.402088	0.279291	0.427149	-0.351498	-0.429999	-0.411834	0.3504	0.474382	-0.37719	0.489069	0.44218	-0.465972	0.384917	-0.430047	-0.475715	-0.400628	-0.421725	-0.324738	0.474886	-0.402219	-0.364073	0.36311	-0.432522	-0.423199	0.463676	0.491776	0.361428	0.40685	0.43031	-0.481722	0.442296	0.471424
0.448496	0.443272	0.341849	-0.487761	-0.415054	-0.449261	0.389033	0.379363	-0.427998	0.434495	0.376564	-0.369046	0.407658	-0.299536	-0.43724	-0.470132	-0.455303	-0.478435	0.465834	-0.441664	-0.357554	0.393053	-0.453052	-0.465316	0.329417	0.445686	0.476389	0.416235	0.403265	-0.379952	0.405707	0.430075
0.384988	0.462439	0.468133	-0.442683	-0.439121	-0.37379	0.442541	0.367903	-0.428533	0.379477	0.406081	-0.454521	0.395589	-0.453566	-0.375689	-0.390823	-0.337459	-0.416293	0.379515	-0.452875	-0.332965	0.422827	-0.298642	-0.409211	0.376822	0.458432	0.409581	0.407375	0.450198	-0.481388	0.421006	0.431773
0.433454	0.253522	0.39061	-0.259928	-0.366734	-0.363419	0.452838	0.476205	-0.343403	0.43372	0.445001	-0.396173	0.41409	-0.388453	-0.373178	-0.322042	-0.396034	-0.24997	0.489309	-0.361796	-0.384293	0.345582	-0.574622	-0.413452	0.365239	0.376528	0.378727	0.463058	0.434739	-0.410044	0.352438	0.428818
0.452624	0.29601	0.364186	-0.440119	-0.451467	-0.315979	0.339316	0.330139	-0.385747	0.419801	0.307406	-0.400035	0.45547	-0.263466	-0.327138	-0.333274	-0.363213	-0.364999	0.41724	-0.361482	-0.424189	0.450054	-0.517183	-0.43762	0.437964	0.388722	0.470585	0.374774	0.428407	-0.413187	0.423996	0.463911
0.40348	0.20331	0.397964	-0.482912	-0.411198	-0.292018	0.402714	0.381683	-0.40314	0.402725	0.339694	-0.369064	0.42217	-0.289258	-0.338017	-0.373782	-0.376811	-0.385036	0.396456	-0.336749	-0.458671	0.333138	-0.388084	-0.45113	0.340857	0.25741	0.371617	0.372651	0.456749	-0.347715	0.404097	0.478824
0.450697	0.195876	0.357374	-0.402251	-0.439168	-0.285707	0.37673	0.277099	-0.422002	0.461738	0.398071	-0.380291	0.37429	-0.267596	-0.409321	-0.377509	-0.339977	-0.283973	0.324286	-0.410347	-0.489902	0.504875	-0.476067	-0.402411	0.423236	0.4251	0.409236	0.40477	0.367538	-0.464547	0.387092	0.373225
0.488673	0.372474	0.406932	-0.323108	-0.396272	-0.41885	0.476954	0.520525	-0.39006	0.468999	0.394216	-0.435077	0.384302	-0.401594	-0.445791	-0.398695	-0.439849	-0.308739	0.404349	-0.379913	-0.507363	0.441027	-0.388399	-0.389263	0.484448	0.391883	0.425608	0.403541	0.469206	-0.456496	0.401447	0.504969
0.440183	0.349352	0.396462	-0.366978	-0.381438	-0.442637	0.396121	0.401984	-0.451257	0.422536	0.428196	-0.411134	0.356754	-0.44843	-0.382781	-0.390556	-0.362687	-0.365539	0.427992	-0.463736	-0.376724	0.393298	-0.364386	-0.375008	0.359978	0.365372	0.360797	0.357916	0.408698	-0.433842	0.420818	0.417555
0.429978	0.420731	0.368801	-0.371456	-0.374704	-0.406159	0.401775	0.409918	-0.403833	0.327151	0.454577	-0.451123	0.420863	-0.437011	-0.43351	-0.411372	-0.43116	-0.446249	0.391529	-0.425361	-0.426993	0.434271	-0.486639	-0.43225	0.371616	0.407295	0.349563	0.453933	0.382734	-0.398822	0.43819	0.316835
0.340453	0.486166	0.376002	-0.311222	-0.560194	-0.491365	0.265961	0.47407	-0.523693	0.316667	0.402803	-0.41681	0.369124	-0.322261	-0.328233	-0.541959	-0.480389	-0.405499	0.407052	-0.450254	-0.409495	0.488179	-0.392362	-0.402144	0.44277	0.439019	0.442044	0.466532	0.322032	-0.338519	0.504767	0.317942
0.40684	0.352081	0.436311	-0.391911	-0.398666	-0.281379	0.394003	0.390562	-0.350185	0.444411	0.445833	-0.417737	0.438745	-0.292298	-0.337818	-0.382146	-0.445042	-0.38947	0.374463	-0.408241	-0.365137	0.329419	-0.350178	-0.343629	0.372312	0.320839	0.372186	0.446036	0.32646	-0.397218	0.422891	0.425458
0.392674	0.540752	0.387878	-0.524973	-0.425832	-0.339511	0.415633	0.406722	-0.340147	0.382195	0.454199	-0.379216	0.428373	-0.430644	-0.473291	-0.388066	-0.285323	-0.453533	0.483433	-0.485155	-0.481098	0.425622	-0.493586	-0.480493	0.384871	0.45523	0.477176	0.386207	0.487333	-0.38271	0.447	0.553433
0.364459	-0.121305	0.365905	-0.236455	-0.333013	-0.267879	0.313647	0.342872	-0.388326	0.52712	0.385432	-0.352413	0.426568	-0.164883	-0.349471	-0.239999	-0.343841	-0.117747	0.369884	-0.36777	-0.477223	0.493345	-0.367952	-0.335578	0.426562	0.269024	0.460202	0.397481	0.449368	-0.460904	0.413431	0.604441
0.475132	0.306947	0.439112	-0.446814	-0.362656	-0.365339	0.371506	0.497467	-0.48452	0.364977	0.42463	-0.412616	0.446621	-0.436145	-0.41027	-0.479071	-0.387013	-0.458436	0.43205	-0.430507	-0.375401	0.40197	-0.428888	-0.452282	0.383669	0.50331	0.346389	0.414789	0.384402	-0.431147	0.386629	0.519604
0.323186	0.311644	0.349458	-0.212502	-0.255313	-0.293486	0.328448	0.248223	-0.284251	0.381689	0.290288	-0.394729	0.322717	-0.249204	-0.356835	-0.280495	-0.293069	-0.258909	0.260179	-0.301112	-0.348548	0.324885	-0.31856	-0.371199	0.331806	0.316322	0.310015	0.391578	0.329918	-0.279014	0.362708	0.328299
0.402808	0.428702	0.497235	-0.415202	-0.447749	-0.40675	0.458114	0.410739	-0.438122	0.402877	0.388716	-0.415711	0.425459	-0.357963	-0.40756	-0.43235	-0.432695	-0.354243	0.450819	-0.370483	-0.397048	0.3654	-0.447983	-0.403819	0.414721	0.423539	0.46805	0.424111	0.400466	-0.368899	0.385614	0.469716
0.378976	0.400084	0.440814	-0.409422	-0.449716	-0.474022	0.411047	0.374923	-0.354342	0.416057	0.362381	-0.411752	0.360752	-0.465916	-0.368665	-0.484519	-0.408877	-0.406087	0.372716	-0.377716	-0.400393	0.467126	-0.421751	-0.421065	0.388129	0.479083	0.471906	0.428445	0.414137	-0.444502	0.37593	0.354348
0.464955	0.448544	0.456472	-0.352395	-0.403484	-0.311212	0.49831	0.408908	-0.395086	0.462266	0.466422	-0.365306	0.416338	-0.341769	-0.409458	-0.364943	-0.365701	-0.399208	0.387408	-0.430252	-0.380802	0.485232	-0.458336	-0.397727	0.483579	0.459794	0.348321	0.496953	0.413974	-0.499391	0.404764	0.481429
0.317503	0.481716	0.402558	-0.408794	-0.21781	-0.443346	0.326944	0.400369	-0.419411	0.316516	0.380635	-0.329946	0.301556	-0.334963	-0.333011	-0.313161	-0.332667	-0.368585	0.358168	-0.287787	-0.343524	0.385234	-0.499605	-0.431655	0.418826	0.35096	0.366752	0.400861	0.327412	-0.39883	0.304401	0.492048
0.432778	0.423486	0.333021	-0.310359	-0.361519	-0.317327	0.389079	0.345283	-0.38563	0.349432	0.354223	-0.409227	0.37171	-0.431144	-0.396492	-0.452545	-0.409894	-0.377413	0.465212	-0.337455	-0.440133	0.313426	-0.475326	-0.432297	0.393358	0.349232	0.343467	0.3543	0.328647	-0.403044	0.342633	0.346055
0.426048	0.137564	0.310437	-0.191538	-0.599471	-0.5169	0.470194	0.341146	-0.451026	0.578399	0.346012	-0.375448	0.467373	-0.299446	-0.153434	-0.475627	-0.594508	-0.496538	0.240047	-0.518933	-0.31441	0.287243	-0.603288	-0.313077	0.397654	0.630819	0.480823	0.397056	0.533838	-0.220035	0.331948	0.232698
0.469544	0.269758	0.389311	-0.388639	-0.427757	-0.334825	0.458293	0.381448	-0.483293	0.320622	0.423343	-0.435401	0.365212	-0.359569	-0.363111	-0.348715	-0.37031	-0.418298	0.431336	-0.351129	-0.489283	0.336253	-0.567765	-0.422041	0.421738	0.303552	0.355391	0.34724	0.495079	-0.459857	0.532162	0.507556
0.265336	0.014211	0.457352	-0.451277	-0.267748	-0.219714	0.434439	0.17731	-0.552493	0.462596	0.320534	-0.425938	0.212837	-0.382313	-0.514987	-0.285283	-0.28292	-0.478202	0.318022	-0.360379	-0.13621	0.256078	-0.357101	-0.412659	0.149503	0.313182	0.335512	0.375155	0.212753	-0.441943	0.480284	0.399305
0.410065	0.294885	0.359116	-0.390078	-0.415584	-0.365713	0.402686	0.42043	-0.364187	0.355679	0.438425	-0.450143	0.423228	-0.377392	-0.480389	-0.445389	-0.431047	-0.28457	0.431981	-0.376102	-0.309486	0.350644	-0.478227	-0.395993	0.3628	0.374065	0.386907	0.349442	0.397062	-0.454685	0.360319	0.464315
0.3601	0.199341	0.464318	-0.395354	-0.381072	-0.447815	0.382448	0.385572	-0.392511	0.334102	0.393099	-0.378204	0.433186	-0.474058	-0.391482	-0.422916	-0.484126	-0.502842	0.449691	-0.378151	-0.38816	0.386407	-0.296567	-0.326227	0.42377	0.395455	0.360541	0.343247	0.438129	-0.370431	0.462902	0.348146
0.375902	0.373349	0.380647	-0.473463	-0.441143	-0.234373	0.329445	0.396018	-0.309881	0.336275	0.378874	-0.336178	0.422272	-0.446092	-0.435202	-0.343655	-0.270529	-0.483156	0.448707	-0.442858	-0.370904	0.313676	-0.598069	-0.294361	0.225439	0.412899	0.381223	0.366707	0.470778	-0.44646	0.279213	0.452116
0.499611	0.326527	0.394358	-0.432588	-0.499084	-0.474632	0.407102	0.417913	-0.392122	0.38102	0.509439	-0.411356	0.432584	-0.430188	-0.490435	-0.464038	-0.491154	-0.495096	0.467088	-0.453106	-0.415013	0.493911	-0.44651	-0.514579	0.364936	0.409595	0.431501	0.438479	0.456203	-0.477216	0.422873	0.411646
0.447943	0.337424	0.407853	-0.372862	-0.428893	-0.473655	0.386364	0.353035	-0.429946	0.443071	0.405985	-0.345612	0.380148	-0.307652	-0.433889	-0.401206	-0.432628	-0.295531	0.354213	-0.403924	-0.425937	0.436336	-0.459866	-0.340284	0.387701	0.397133	0.431939	0.392035	0.350628	-0.343504	0.476578	0.494098
0.469839	0.41336	0.390033	-0.455936	-0.413495	-0.483492	0.483022	0.501334	-0.447907	0.379462	0.404226	-0.404035	0.417008	-0.465807	-0.407123	-0.415399	-0.392055	-0.384535	0.367261	-0.449656	-0.378969	0.422112	-0.429974	-0.453693	0.413535	0.357319	0.437885	0.424225	0.44642	-0.445446	0.539505	0.437034
0.364663	0.275634	0.394616	-0.49344	-0.441047	-0.497474	0.403021	0.410274	-0.371519	0.352492	0.401216	-0.522662	0.521482	-0.403127	-0.319108	-0.507775	-0.569427	-0.452276	0.324411	-0.419861	-0.393971	0.46284	-0.07432	-0.434419	0.311747	0.457331	0.565999	0.439892	0.209433	-0.14436	0.270391	0.601254
0.313439	0.201644	0.2684	-0.215468	-0.348846	-0.227861	0.252476	0.321623	-0.331764	0.302385	0.284614	-0.247719	0.309422	-0.232591	-0.229251	-0.177664	-0.37126	-0.213351	0.267599	-0.222272	-0.302572	0.290415	-0.396285	-0.263648	0.361584	0.274666	0.245992	0.254287	0.260839	-0.314053	0.209177	0.28343
0.295329	0.285768	0.393617	-0.237219	-0.265543	-0.260655	0.315752	0.270933	-0.325782	0.333323	0.288465	-0.336582	0.357784	-0.306184	-0.291628	-0.255348	-0.203363	-0.314816	0.347101	-0.30568	-0.276124	0.348241	-0.32395	-0.272845	0.284616	0.261165	0.254341	0.311056	0.346298	-0.203812	0.36259	0.233328
0.402394	0.459646	0.369898	-0.39936	-0.411729	-0.396798	0.370681	0.461615	-0.474592	0.409028	0.413238	-0.376008	0.366849	-0.402265	-0.352777	-0.462006	-0.441753	-0.389681	0.440757	-0.374255	-0.285363	0.410843	-0.498804	-0.384359	0.431953	0.390269	0.431106	0.427059	0.481641	-0.412919	0.352983	0.32132
0.390999	0.383082	0.398059	-0.37798	-0.433823	-0.418654	0.435103	0.467	-0.39653	0.409763	0.387018	-0.386256	0.388785	-0.455217	-0.369324	-0.372739	-0.370237	-0.471229	0.37809	-0.423683	-0.429634	0.407209	-0.407878	-0.413053	0.400528	0.383521	0.423157	0.433256	0.33929	-0.393446	0.42599	0.43453
0.360269	0.227899	0.374701	-0.30628	-0.314346	-0.29605	0.337351	0.404075	-0.356419	0.385829	0.402088	-0.362818	0.367142	-0.307992	-0.331698	-0.368971	-0.400387	-0.409754	0.352914	-0.337661	-0.410512	0.406514	-0.454387	-0.347699	0.384467	0.350912	0.38183	0.360308	0.317878	-0.3702	0.409436	0.228758
0.321843	0.513495	0.382023	-0.217638	-0.35203	-0.248913	0.237485	0.311213	-0.277947	0.413743	0.284623	-0.228584	0.272118	-0.258503	-0.379822	-0.359393	-0.152697	-0.335196	0.41012	-0.249818	-0.227528	0.356557	-0.287035	-0.206166	0.397062	0.370528	0.346566	0.183777	0.43177	-0.281995	0.315747	0.44769
0.4161	0.254802	0.35193	-0.360027	-0.380999	-0.449681	0.392067	0.46153	-0.365685	0.399485	0.369851	-0.388349	0.380837	-0.336426	-0.459786	-0.39004	-0.388698	-0.370061	0.337979	-0.378737	-0.41252	0.328055	-0.350467	-0.416443	0.41159	0.422224	0.394407	0.389623	0.353769	-0.301366	0.389894	0.411001
0.373055	0.297184	0.383381	-0.36366	-0.491291	-0.379501	0.441999	0.42553	-0.430068	0.456825	0.3558	-0.505026	0.482692	-0.40885	-0.40573	-0.371212	-0.381571	-0.466278	0.426881	-0.424624	-0.349149	0.4012	-0.451014	-0.466293	0.394439	0.435831	0.393948	0.506212	0.472194	-0.395254	0.383345	0.45145
0.391796	0.396152	0.401897	-0.39726	-0.171509	-0.409289	0.344681	0.415147	-0.299461	0.43535	0.343175	-0.437464	0.366939	-0.42585	-0.408565	-0.399657	-0.380285	-0.384189	0.351747	-0.309849	-0.381075	0.370862	-0.125919	-0.420196	0.391506	0.416247	0.340251	0.340665	0.339208	-0.336928	0.405164	-0.0114649
0.417057	0.305982	0.335087	-0.305898	-0.322328	-0.198051	0.403769	0.39381	-0.320071	0.519365	0.347405	-0.455542	0.451768	-0.380707	-0.430444	-0.202149	-0.276087	-0.347095	0.488634	-0.269937	-0.4304	0.478249	-0.366356	-0.483352	0.374041	0.459978	0.350072	0.332025	0.37559	-0.419688	0.323375	0.242731
0.469875	0.36209	0.409092	-0.439541	-0.459639	-0.414049	0.432242	0.433219	-0.411878	0.409192	0.495205	-0.416265	0.396138	-0.405783	-0.466432	-0.423052	-0.35687	-0.366088	0.488247	-0.388654	-0.384422	0.403494	-0.466082	-0.463825	0.320038	0.456617	0.41613	0.46624	0.353054	-0.397535	0.433782	0.452534
0.397062	0.479828	0.437242	-0.385672	-0.468384	-0.382601	0.371274	0.378388	-0.416374	0.404305	0.377337	-0.4855	0.370392	-0.432557	-0.436555	-0.422235	-0.428813	-0.354927	0.411016	-0.43036	-0.310959	0.36553	-0.466704	-0.389876	0.442592	0.463369	0.427028	0.452676	0.472833	-0.354706	0.465892	0.523206
0.440103	0.502792	0.428732	-0.456412	-0.402826	-0.478756	0.486556	0.410643	-0.423553	0.438724	0.389871	-0.416206	0.424589	-0.430021	-0.42988	-0.513734	-0.326787	-0.492843	0.442547	-0.499296	-0.421964	0.43237	-0.355601	-0.374154	0.432129	0.408489	0.403753	0.454391	0.43286	-0.424127	0.428129	0.485391
0.321883	0.242241	0.386808	-0.402141	-0.353823	-0.427819	0.385369	0.405739	-0.458817	0.372887	0.320135	-0.352136	0.426754	-0.289045	-0.396288	-0.425726	-0.301767	-0.441339	0.386629	-0.316092	-0.393849	0.399045	-0.43	-0.411093	0.33553	0.409374	0.381354	0.364981	0.457016	-0.32136	0.298584	0.349165
0.411845	0.356107	0.380419	-0.223606	-0.397998	-0.541768	0.403312	0.457749	-0.426958	0.484641	0.364661	-0.451494	0.304888	-0.385607	-0.370116	-0.379627	-0.333491	-0.486241	0.49261	-0.417488	-0.361138	0.437711	-0.657412	-0.461012	0.397861	0.48727	0.365395	0.380443	0.339426	-0.422638	0.46331	0.685558
0.476386	0.3553	0.394973	-0.474813	-0.397718	-0.392652	0.498942	0.381471	-0.444405	0.429276	0.432759	-0.42384	0.38596	-0.405784	-0.422033	-0.36729	-0.398364	-0.435171	0.487777	-0.387721	-0.360592	0.384097	-0.411747	-0.410853	0.482075	0.404854	0.398859	0.447594	0.486049	-0.412728	0.456685	0.481356
0.473103	0.606176	0.298106	-0.426596	-0.489867	-0.219327	0.327451	0.438504	-0.421397	0.325911	0.344376	-0.496561	0.439232	-0.352403	-0.425911	-0.295086	-0.482063	-0.327851	0.478416	-0.480372	-0.530142	0.341042	-0.547986	-0.535048	0.475863	0.424321	0.501939	0.435757	0.387463	-0.451685	0.333874	0.370421
0.377282	0.371877	0.395664	-0.564464	-0.459298	-0.371322	0.48543	0.361759	-0.444532	0.391935	0.419142	-0.487535	0.429824	-0.230481	-0.414379	-0.346396	-0.401605	-0.451471	0.398138	-0.367087	-0.476383	0.435821	-0.599686	-0.481125	0.321904	0.460721	0.407251	0.4463	0.515989	-0.422453	0.430253	0.599529
0.429597	0.485749	0.384843	-0.359672	-0.405847	-0.393285	0.372829	0.362936	-0.30799	0.338091	0.408612	-0.399395	0.398399	-0.383328	-0.449277	-0.407954	-0.424401	-0.385818	0.400489	-0.34988	-0.258566	0.438802	-0.291142	-0.336324	0.395184	0.344152	0.342026	0.391625	0.36721	-0.366255	0.283613	0.329036
0.44191	0.295104	0.483169	-0.395018	-0.401796	-0.494442	0.463438	0.414387	-0.422819	0.38142	0.43293	-0.415994	0.381711	-0.41039	-0.503152	-0.359045	-0.429062	-0.405868	0.427065	-0.458291	-0.383738	0.394471	-0.47923	-0.490876	0.416353	0.43409	0.387947	0.505546	0.454844	-0.434246	0.462538	0.446929
0.428122	0.429887	0.37935	-0.301414	-0.450547	-0.443603	0.402096	0.446959	-0.439955	0.431246	0.378308	-0.329178	0.443129	-0.30842	-0.421968	-0.408759	-0.328842	-0.410267	0.30435	-0.316749	-0.296822	0.425977	-0.298098	-0.376338	0.377349	0.41708	0.413785	0.410866	0.480895	-0.388311	0.475344	0.364727
0.324503	0.410011	0.431516	-0.457808	-0.255883	-0.358335	0.248271	0.301326	-0.285055	0.290053	0.351133	-0.42895	0.42822	-0.38907	-0.40112	-0.26764	-0.277116	-0.424928	0.361376	-0.298477	-0.331761	0.3387	-0.455865	-0.33363	0.425733	0.313864	0.453127	0.385452	0.398725	-0.301968	0.422466	0.516265
0.314699	0.227717	0.1857	-0.221803	-0.414444	-0.508771	0.338508	0.459165	-0.287665	0.231786	0.291226	-0.351297	0.339598	-0.221723	-0.408591	-0.29929	-0.39556	-0.255727	0.277543	-0.414674	-0.498426	0.133154	-0.470083	-0.256313	0.494737	0.265681	0.363671	0.399364	0.268172	-0.330785	0.351762	0.409444
0.456585	0.459447	0.387865	-0.417561	-0.362135	-0.360095	0.33793	0.341832	-0.45729	0.36541	0.445139	-0.431534	0.386142	-0.364063	-0.440157	-0.470213	-0.367344	-0.351895	0.393513	-0.357413	-0.380231	0.374512	-0.325381	-0.402618	0.392981	0.371489	0.449889	0.382685	0.409129	-0.349278	0.39597	0.420523
0.412053	0.219574	0.368377	-0.322443	-0.355591	-0.327629	0.304796	0.368055	-0.3321	0.377873	0.337946	-0.434154	0.249385	-0.422146	-0.375045	-0.295316	-0.367265	-0.291758	0.348602	-0.412355	-0.36731	0.326682	-0.547824	-0.325219	0.387607	0.391849	0.395674	0.426892	0.373807	-0.417579	0.352996	0.520043
0.510556	0.401904	0.482219	-0.427139	-0.450298	-0.470337	0.430923	0.446198	-0.499244	0.418225	0.396775	-0.452848	0.39674	-0.36585	-0.380393	-0.323397	-0.537151	-0.467051	0.47405	-0.454996	-0.419282	0.428902	-0.47574	-0.416161	0.364621	0.464872	0.389802	0.408419	0.433403	-0.375581	0.406843	0.439655
0.344715	0.365457	0.298735	-0.282369	-0.383072	-0.330458	0.401864	0.368332	-0.461378	0.376563	0.311829	-0.404114	0.382636	-0.279816	-0.391937	-0.389523	-0.388809	-0.245146	0.362452	-0.365691	-0.335624	0.384488	-0.397507	-0.374043	0.342436	0.362721	0.4333	0.352427	0.382736	-0.450708	0.38565	0.401355
0.445936	0.522959	0.413895	-0.439591	-0.488674	-0.374322	0.427419	0.437208	-0.41583	0.366648	0.419125	-0.450342	0.40381	-0.405179	-0.393715	-0.43736	-0.428025	-0.397935	0.392924	-0.394071	-0.340311	0.357599	-0.298451	-0.360872	0.467142	0.45437	0.360939	0.359772	0.409553	-0.378057	0.441287	0.267531
0.402741	0.401104	0.30997	-0.475667	-0.371846	-0.486395	0.360556	0.477991	-0.500372	0.332709	0.413305	-0.38084	0.439302	-0.530861	-0.445094	-0.456518	-0.460208	-0.346995	0.392708	-0.427287	-0.447601	0.367796	-0.400935	-0.391709	0.463103	0.323808	0.343758	0.317876	0.423129	-0.461211	0.400947	0.522134
0.417786	0.472977	0.403246	-0.393761	-0.473226	-0.444759	0.413572	0.462339	-0.415462	0.317752	0.414995	-0.474308	0.454229	-0.468784	-0.442557	-0.380705	-0.485491	-0.475149	0.450013	-0.353028	-0.495438	0.445323	-0.250087	-0.46433	0.452981	0.475179	0.379612	0.451124	0.482428	-0.357442	0.438028	0.347149
0.388012	0.426596	0.408329	-0.517415	-0.502882	-0.401997	0.359879	0.461298	-0.428558	0.398383	0.477757	-0.361381	0.447141	-0.466861	-0.391557	-0.483661	-0.457081	-0.327498	0.447339	-0.396392	-0.414772	0.427234	-0.441073	-0.371275	0.403283	0.437341	0.404494	0.444514	0.460054	-0.385826	0.387981	0.438615
0.294559	0.153058	0.401263	-0.301186	-0.409086	-0.45304	0.46649	0.463474	-0.396403	0.421258	0.485393	-0.382436	0.361426	-0.547069	-0.42902	-0.319951	-0.339042	-0.399394	0.318014	-0.302803	-0.271425	0.395867	-0.199022	-0.302685	0.393089	0.250158	0.401862	0.303156	0.356165	-0.327191	0.337334	0.391694
0.265897	0.241666	0.184893	-0.289343	-0.203096	-0.252425	0.32671	0.336556	-0.328535	0.19477	0.273622	-0.321769	0.238971	-0.125541	-0.192395	-0.322674	-0.100653	-0.162257	0.180244	-0.249759	-0.337835	0.184448	-0.252609	-0.286571	0.131187	0.226801	0.19553	0.346227	0.378197	-0.311253	0.189272	-0.176153
0.431625	0.432817	0.446081	-0.374078	-0.342237	-0.353302	0.408417	0.372415	-0.397778	0.402972	0.377524	-0.34913	0.392444	-0.357163	-0.437878	-0.413158	-0.493218	-0.5081	0.411137	-0.469893	-0.46125	0.458116	-0.463626	-0.406164	0.394849	0.40887	0.384605	0.458176	0.371471	-0.41368	0.468836	0.370169
0.247754	0.108956	0.251664	-0.301928	-0.15396	-0.357323	0.326659	0.332253	-0.281182	0.270687	0.268943	-0.352985	0.262675	-0.0722315	-0.349526	-0.313806	-0.223992	-0.0602177	0.357265	-0.218177	-0.339628	0.200079	-0.000130117	-0.359236	0.216839	0.303252	0.289526	0.296582	0.31777	-0.283909	0.344793	0.162676
0.377609	0.37213	0.384125	-0.421348	-0.514835	-0.418066	0.506068	0.46399	-0.457314	0.396056	0.387802	-0.439302	0.399599	-0.398458	-0.429586	-0.459291	-0.5089	-0.472025	0.427483	-0.464172	-0.469619	0.390884	-0.278518	-0.375753	0.431099	0.400464	0.491563	0.377824	0.422726	-0.457414	0.404902	0.323761
0.286777	0.234863	0.388732	-0.25935	-0.377032	-0.338507	0.354996	0.456435	-0.416076	0.267733	0.400317	-0.3317	0.402807	-0.485013	-0.345496	-0.324684	-0.456891	-0.281667	0.369432	-0.431674	-0.356266	0.388453	-0.225663	-0.355149	0.432935	0.355534	0.425203	0.435963	0.391214	-0.324819	0.378653	0.47456
0.420053	0.449232	0.370444	-0.420152	-0.30107	-0.449261	0.320625	0.39446	-0.420799	0.382573	0.383967	-0.45265	0.484478	-0.462913	-0.367247	-0.412643	-0.353615	-0.479847	0.38575	-0.456577	-0.300475	0.423595	-0.331108	-0.376989	0.403999	0.467989	0.465993	0.382415	0.398733	-0.418942	0.411977	0.370583
0.34354	0.402301	0.366967	-0.48985	-0.489541	-0.387104	0.429764	0.463661	-0.392988	0.326683	0.435998	-0.457456	0.470159	-0.51976	-0.397858	-0.43562	-0.40043	-0.40196	0.448174	-0.397839	-0.453243	0.483893	-0.18096	-0.492323	0.43281	0.403868	0.365416	0.408998	0.411892	-0.362629	0.480485	0.431459
0.488717	0.568621	0.452314	-0.401822	-0.435101	-0.440002	0.427645	0.465482	-0.335599	0.39099	0.394332	-0.416291	0.502028	-0.471186	-0.414309	-0.495682	-0.505463	-0.44979	0.406919	-0.476376	-0.517556	0.413774	-0.411145	-0.405865	0.450134	0.429707	0.427828	0.486536	0.475911	-0.415753	0.444169	0.47388
0.465404	0.336849	0.390818	-0.35156	-0.440497	-0.27702	0.365725	0.385342	-0.374959	0.49999	0.39307	-0.440599	0.360906	-0.395068	-0.396064	-0.35894	-0.301425	-0.388448	0.474003	-0.408211	-0.365304	0.489397	-0.43964	-0.457941	0.380616	0.389578	0.37542	0.428927	0.4172	-0.477548	0.364295	0.430689
0.354085	0.266063	0.338306	-0.372584	-0.367978	-0.386673	0.464855	0.467612	-0.520921	0.385789	0.396787	-0.422586	0.424911	-0.423953	-0.396761	-0.437334	-0.39769	-0.348407	0.410595	-0.395667	-0.367948	0.387498	-0.396019	-0.393355	0.367283	0.418897	0.330344	0.399451	0.444103	-0.466854	0.439861	0.489186
0.387794	0.44062	0.310907	-0.3727	-0.301479	-0.417779	0.321851	0.353821	-0.387922	0.341521	0.285458	-0.402749	0.283389	-0.311466	-0.351565	-0.35915	-0.396898	-0.259118	0.384853	-0.353818	-0.323832	0.31757	-0.365524	-0.347365	0.41464	0.294663	0.369676	0.37378	0.294499	-0.361507	0.423638	0.369154
0.344417	0.376057	0.437338	-0.471823	-0.491086	-0.439144	0.381507	0.351784	-0.345722	0.402135	0.390367	-0.36545	0.464227	-0.455908	-0.409513	-0.443144	-0.449939	-0.326422	0.427818	-0.420979	-0.318235	0.409378	-0.340918	-0.470515	0.432611	0.398435	0.42756	0.358483	0.326354	-0.377776	0.396537	0.442474
0.423395	0.461373	0.458941	-0.558142	-0.558554	-0.480864	0.447166	0.386797	-0.381394	0.402933	0.459142	-0.430525	0.502764	-0.514232	-0.480306	-0.415416	-0.504838	-0.406289	0.468042	-0.448357	-0.394684	0.443278	-0.351315	-0.431894	0.385235	0.405409	0.454892	0.458838	0.467596	-0.421683	0.481392	0.443034
0.400043	0.34502	0.45717	-0.443993	-0.510582	-0.493055	0.455047	0.467821	-0.491349	0.507337	0.484105	-0.457788	0.485449	-0.368068	-0.439741	-0.448593	-0.517035	-0.430024	0.425873	-0.469124	-0.399337	0.403985	-0.366121	-0.413961	0.433333	0.440328	0.489157	0.468506	0.502363	-0.385208	0.416341	0.439157
0.318714	0.371871	0.39359	-0.39398	-0.308905	-0.375584	0.406067	0.448228	-0.379898	0.333393	0.435731	-0.360026	0.343231	-0.413394	-0.292403	-0.406436	-0.363391	-0.419834	0.438563	-0.410261	-0.324885	0.30233	-0.344617	-0.341863	0.415323	0.332478	0.291478	0.30221	0.34448	-0.338204	0.433614	0.375641
0.442613	0.400765	0.455551	-0.479915	-0.453531	-0.355725	0.435402	0.390204	-0.437146	0.400846	0.419019	-0.367372	0.435898	-0.427853	-0.370867	-0.402577	-0.419026	-0.437911	0.458263	-0.443162	-0.363742	0.390414	-0.320848	-0.413221	0.333774	0.398124	0.42326	0.382504	0.483287	-0.477878	0.455366	0.373235
0.400148	0.47898	0.368049	-0.400815	-0.362387	-0.408662	0.443246	0.447963	-0.352965	0.378247	0.377544	-0.35659	0.336408	-0.290251	-0.44981	-0.420238	-0.426395	-0.341072	0.434094	-0.3315	-0.442605	0.416106	-0.379187	-0.415217	0.358592	0.378708	0.443228	0.394603	0.403191	-0.469791	0.381399	0.416253
0.504899	0.455198	0.423952	-0.57067	-0.61597	-0.598588	0.407562	0.231328	-0.290697	0.336836	0.424975	-0.382203	0.566908	-0.629415	-0.440059	-0.361802	-0.510321	-0.403958	0.324318	-0.349708	-0.26154	0.378831	-0.170052	-0.495946	0.405787	0.396553	0.377066	0.450457	0.521137	-0.315699	0.511052	0.299394
0.319065	0.424119	0.364424	-0.313689	-0.397185	-0.351742	0.360977	0.308275	-0.409332	0.368175	0.389113	-0.332417	0.355753	-0.387351	-0.358777	-0.412874	-0.409976	-0.453962	0.272451	-0.370369	-0.335703	0.322863	-0.391672	-0.326179	0.423618	0.337983	0.339755	0.31205	0.367094	-0.283786	0.323171	0.468817
0.403937	0.166098	0.316642	-0.319979	-0.309824	-0.233765	0.285109	0.325112	-0.462462	0.517175	0.363406	-0.422996	0.325807	-0.352429	-0.357489	-0.360582	-0.176677	-0.370388	0.438278	-0.36697	-0.311976	0.437399	-0.459793	-0.392637	0.390956	0.369455	0.316583	0.412651	0.439008	-0.441074	0.362534	0.514621
0.437137	0.277103	0.361368	-0.347946	-0.302139	-0.402343	0.322021	0.441367	-0.360837	0.408694	0.391087	-0.372119	0.450278	-0.389856	-0.435388	-0.40564	-0.382499	-0.334327	0.419602	-0.368548	-0.344845	0.334475	-0.267185	-0.426393	0.420226	0.356107	0.481913	0.42421	0.396068	-0.38196	0.455787	0.47675
0.476422	0.259339	0.413801	-0.410201	-0.414059	-0.414796	0.539217	0.48584	-0.412805	0.39777	0.44227	-0.411274	0.420201	-0.388596	-0.432414	-0.416032	-0.354011	-0.343985	0.435894	-0.513292	-0.391561	0.435171	-0.428548	-0.41608	0.476491	0.5167	0.504251	0.410463	0.500283	-0.523241	0.409504	0.619916
0.395702	0.349343	0.437738	-0.36499	-0.466061	-0.432704	0.377623	0.474609	-0.426705	0.391292	0.493117	-0.429884	0.471396	-0.447483	-0.446929	-0.428713	-0.404188	-0.395714	0.472935	-0.409436	-0.468096	0.388548	-0.474084	-0.362657	0.453712	0.456478	0.37364	0.402823	0.454536	-0.39487	0.462736	0.45932
0.364813	0.459473	0.464119	-0.420686	-0.330754	-0.377166	0.396194	0.387034	-0.360801	0.343516	0.38126	-0.383125	0.35509	-0.395199	-0.329691	-0.412932	-0.38182	-0.406674	0.429387	-0.469223	-0.44925	0.399153	-0.332971	-0.435791	0.411847	0.455026	0.373811	0.47449	0.395604	-0.361113	0.401116	0.413933
0.43314	0.407272	0.449928	-0.400644	-0.392279	-0.452946	0.472778	0.442858	-0.499871	0.448378	0.418382	-0.420518	0.485379	-0.421264	-0.38121	-0.396073	-0.450806	-0.331436	0.385541	-0.38375	-0.360036	0.413046	-0.439706	-0.397122	0.424977	0.406416	0.415939	0.473784	0.4361	-0.48096	0.400485	0.371986
0.476178	0.558501	0.363724	-0.3939	-0.500501	-0.386775	0.401393	0.418572	-0.408629	0.482305	0.41292	-0.437056	0.461217	-0.25479	-0.457912	-0.413151	-0.364059	-0.446829	0.389665	-0.405946	-0.420495	0.382815	-0.298756	-0.488964	0.400914	0.355746	0.467258	0.422574	0.427061	-0.404973	0.465409	0.264377
0.426096	0.368133	0.393675	-0.403986	-0.319914	-0.374768	0.407278	0.423739	-0.45679	0.340708	0.352796	-0.425519	0.42569	-0.398623	-0.348275	-0.373296	-0.325828	-0.389887	0.36226	-0.449641	-0.292513	0.414311	-0.376924	-0.359344	0.422513	0.392355	0.336441	0.40034	0.406704	-0.426343	0.389633	0.311168
0.350441	0.278572	0.307332	-0.353081	-0.258737	-0.335818	0.364988	0.388384	-0.29964	0.297648	0.361986	-0.302935	0.370499	-0.348387	-0.333013	-0.403161	-0.28501	-0.357136	0.205168	-0.406453	-0.385827	0.302828	-0.358674	-0.352535	0.376509	0.290109	0.367217	0.342096	0.267254	-0.318298	0.450503	0.364734
0.442376	0.425125	0.409864	-0.376796	-0.53216	-0.35171	0.346915	0.389967	-0.419561	0.406835	0.48242	-0.365416	0.445341	-0.378337	-0.346389	-0.423453	-0.508717	-0.271902	0.312781	-0.466389	-0.327249	0.422773	-0.596408	-0.507641	0.442085	0.453631	0.504676	0.292273	0.338729	-0.34548	0.472856	0.532694
0.463186	0.441634	0.402518	-0.384189	-0.461567	-0.389826	0.428712	0.434704	-0.414224	0.44831	0.477291	-0.464029	0.462629	-0.359906	-0.452946	-0.455702	-0.388371	-0.441158	0.444433	-0.374643	-0.481465	0.372691	-0.298824	-0.446185	0.41499	0.347948	0.395925	0.351318	0.32185	-0.32413	0.446785	0.38833
0.376598	0.343867	0.349767	-0.401556	-0.330366	-0.40966	0.301924	0.289046	-0.322439	0.320579	0.285502	-0.405701	0.333052	-0.362899	-0.407141	-0.305816	-0.334598	-0.280611	0.345927	-0.335936	-0.27024	0.29626	-0.265991	-0.413407	0.297951	0.283422	0.430378	0.358366	0.454758	-0.358881	0.425943	0.409602
0.418272	0.398389	0.437018	-0.392992	-0.479451	-0.403693	0.413074	0.429864	-0.326262	0.39031	0.383322	-0.453267	0.436136	-0.50301	-0.404956	-0.434436	-0.453699	-0.331835	0.383059	-0.440743	-0.413787	0.411551	-0.322697	-0.377932	0.382194	0.396303	0.388155	0.411776	0.405898	-0.397905	0.378113	0.365169
0.405173	0.508233	0.375402	-0.332595	-0.412584	-0.473377	0.401454	0.329833	-0.326521	0.29274	0.381813	-0.338166	0.354234	-0.271271	-0.405802	-0.373303	-0.354734	-0.376372	0.446131	-0.323172	-0.387546	0.465077	-0.606994	-0.440217	0.380588	0.444251	0.380574	0.390422	0.278738	-0.253448	0.41293	0.382148
0.418599	0.383171	0.33644	-0.462324	-0.476457	-0.405201	0.41886	0.410084	-0.423477	0.333973	0.479432	-0.403546	0.375394	-0.386362	-0.465981	-0.497685	-0.455484	-0.376107	0.376852	-0.482059	-0.407864	0.324593	-0.443433	-0.349696	0.383115	0.354297	0.38344	0.41184	0.41645	-0.382502	0.375561	0.277427
0.42498	0.231578	0.390339	-0.317616	-0.419033	-0.310935	0.441626	0.456841	-0.429294	0.423627	0.374309	-0.425211	0.419021	-0.350903	-0.363777	-0.261324	-0.373481	-0.39306	0.449228	-0.311638	-0.475505	0.392211	-0.582197	-0.433415	0.427182	0.455627	0.357814	0.46964	0.383666	-0.349175	0.34704	0.525725
0.442945	0.501242	0.434173	-0.484526	-0.42431	-0.416349	0.452773	0.472023	-0.468797	0.409258	0.419901	-0.470461	0.497801	-0.459281	-0.493363	-0.490185	-0.459306	-0.41441	0.480947	-0.425642	-0.455566	0.435458	-0.471976	-0.501215	0.426824	0.451733	0.438293	0.448353	0.431281	-0.436425	0.404715	0.496977
0.273858	0.433626	0.326457	-0.354313	-0.30678	-0.451865	0.408371	0.376759	-0.382369	0.352403	0.356379	-0.435056	0.331889	-0.305278	-0.353561	-0.335985	-0.353262	-0.403439	0.401286	-0.390718	-0.384599	0.321989	-0.542092	-0.348565	0.287621	0.459179	0.325859	0.341964	0.366225	-0.284287	0.33592	0.336785
0.469466	0.312944	0.431177	-0.361655	-0.404106	-0.407535	0.417953	0.474831	-0.37966	0.392559	0.443779	-0.461799	0.434925	-0.393118	-0.37781	-0.484083	-0.361426	-0.46336	0.456644	-0.397187	-0.414267	0.446548	-0.41942	-0.408921	0.378506	0.402773	0.497829	0.380798	0.428167	-0.442723	0.49414	0.441835
0.46814	0.498497	0.453451	-0.39746	-0.390861	-0.430743	0.460504	0.386528	-0.438142	0.391066	0.485882	-0.370163	0.449566	-0.432426	-0.410139	-0.332858	-0.45515	-0.448489	0.4641	-0.459878	-0.423833	0.457213	-0.382768	-0.483118	0.432701	0.434559	0.430198	0.418404	0.461881	-0.406869	0.400666	0.325957
0.405013	0.44866	0.399005	-0.403086	-0.38127	-0.328579	0.319573	0.394872	-0.426864	0.380304	0.349599	-0.398737	0.397126	-0.347466	-0.444164	-0.364217	-0.370511	-0.314048	0.310281	-0.459293	-0.356221	0.422884	-0.377988	-0.370209	0.390915	0.453209	0.365402	0.384509	0.368928	-0.318694	0.422031	0.397948
0.380039	0.142501	0.41329	-0.210361	-0.389137	-0.366115	0.508547	0.331085	-0.435433	0.53741	0.438532	-0.457856	0.510381	-0.338445	-0.404	-0.456199	-0.321684	-0.452759	0.428	-0.366694	-0.41926	0.496712	-0.590443	-0.382195	0.392273	0.572619	0.52642	0.423753	0.422134	-0.424686	0.308784	0.55985
0.404321	0.220029	0.361987	-0.32682	-0.291774	-0.282183	0.362747	0.363555	-0.27774	0.398333	0.299492	-0.328375	0.345013	-0.211287	-0.383801	-0.291837	-0.367212	-0.291852	0.403204	-0.3756	-0.382329	0.384731	-0.116371	-0.380516	0.379032	0.343822	0.314328	0.326152	0.261916	-0.383606	0.297215	0.363018
0.447259	0.221959	0.501366	-0.453788	-0.396578	-0.385021	0.436433	0.427329	-0.426054	0.418647	0.464094	-0.366055	0.379818	-0.386389	-0.36727	-0.397182	-0.456845	-0.535871	0.477754	-0.503554	-0.410704	0.39208	-0.389077	-0.421858	0.421879	0.487686	0.420803	0.384646	0.380137	-0.354886	0.40685	0.42931
0.332682	0.236832	0.243003	-0.0638743	-0.341218	-0.378522	0.362992	0.322429	-0.137031	0.3903	0.384634	-0.193044	0.323582	-0.276271	-0.377128	-0.403288	-0.304333	-0.144454	0.329526	-0.192125	-0.195017	0.261633	-0.654342	-0.338215	0.368215	0.308843	0.298548	0.381281	0.213799	-0.273931	0.345088	0.170046
0.498857	0.39452	0.484911	-0.405917	-0.407965	-0.414966	0.495956	0.466698	-0.496121	0.448812	0.413322	-0.417668	0.413296	-0.409027	-0.48048	-0.446418	-0.393459	-0.464308	0.387256	-0.481428	-0.459034	0.459753	-0.215219	-0.416837	0.453016	0.399214	0.472608	0.466606	0.405557	-0.433451	0.398067	0.41519
0.414363	0.432768	0.416043	-0.398747	-0.388085	-0.434025	0.4733	0.452226	-0.369869	0.478018	0.364433	-0.451912	0.459512	-0.441446	-0.461042	-0.401213	-0.398856	-0.402079	0.436782	-0.452159	-0.441918	0.377528	-0.398701	-0.469741	0.448718	0.462986	0.381272	0.37343	0.414041	-0.492498	0.348193	0.298309
0.357458	0.238837	0.322687	-0.473583	-0.338484	-0.22825	0.288318	0.316229	-0.30071	0.405729	0.365668	-0.467953	0.484053	-0.161986	-0.547155	-0.287447	-0.139839	-0.522006	0.458934	-0.445588	-0.346272	0.37199	-0.677326	-0.376254	0.355964	0.347312	0.611063	0.459553	0.581975	-0.339914	0.342178	0.72447
0.385086	0.168441	0.355468	-0.412615	-0.241281	-0.370095	0.248904	0.343832	-0.266388	0.39383	0.357487	-0.434229	0.343892	-0.311054	-0.394994	-0.385385	-0.169997	-0.363171	0.430895	-0.249916	-0.45634	0.36145	-0.552237	-0.307556	0.386479	0.362157	0.304861	0.351457	0.451	-0.331061	0.320192	0.531912
0.465218	0.372647	0.390875	-0.508539	-0.464254	-0.376395	0.408166	0.488984	-0.470614	0.366403	0.516139	-0.419094	0.371649	-0.461861	-0.475167	-0.433579	-0.465121	-0.513844	0.384665	-0.423447	-0.434167	0.459824	-0.414752	-0.369415	0.440472	0.40897	0.36737	0.407786	0.457207	-0.411813	0.459484	0.355351
0.367417	0.511277	0.418562	-0.379993	-0.310889	-0.424051	0.310821	0.371232	-0.384297	0.459603	0.431983	-0.426682	0.349273	-0.506933	-0.369867	-0.430328	-0.40798	-0.369243	0.295449	-0.395757	-0.361536	0.369538	-0.386297	-0.419921	0.368284	0.327465	0.326449	0.359167	0.457416	-0.384475	0.398509	0.339869
0.38772	0.282979	0.336149	-0.328019	-0.382538	-0.372707	0.361575	0.388796	-0.375769	0.345104	0.299737	-0.382349	0.325047	-0.337682	-0.256452	-0.340125	-0.390685	-0.262157	0.415505	-0.358091	-0.350908	0.367368	-0.412214	-0.405048	0.329836	0.352293	0.356228	0.354548	0.330619	-0.314439	0.369046	0.445068
0.398999	0.422654	0.403159	-0.412261	-0.416241	-0.460361	0.437945	0.380402	-0.437251	0.442839	0.450014	-0.509868	0.400076	-0.367876	-0.430049	-0.507985	-0.508322	-0.425923	0.496943	-0.506681	-0.403828	0.429813	-0.419514	-0.37415	0.413403	0.485071	0.488388	0.483016	0.468779	-0.466236	0.415607	0.383558
0.333212	0.332713	0.320399	-0.194358	-0.202329	-0.387074	0.42878	0.21075	-0.187814	0.402053	0.263129	-0.359607	0.329653	-0.316635	-0.307325	-0.341045	-0.325169	-0.314667	0.395614	-0.205444	-0.329464	0.316001	-0.372507	-0.39365	0.286924	0.382349	0.361768	0.333388	0.298887	-0.327982	0.344017	0.393247
0.371156	0.359516	0.417622	-0.386259	-0.422929	-0.371726	0.392678	0.3293	-0.377929	0.379479	0.389705	-0.42337	0.32348	-0.37008	-0.414512	-0.335298	-0.327246	-0.398714	0.376685	-0.336512	-0.344352	0.409393	-0.359284	-0.393708	0.415854	0.385508	0.344943	0.433814	0.356417	-0.440938	0.394602	0.304575
0.369999	0.455773	0.356254	-0.469955	-0.38962	-0.271084	0.405307	0.478136	-0.321858	0.383798	0.46077	-0.387532	0.336066	-0.415471	-0.427211	-0.48516	-0.374922	-0.463138	0.432814	-0.470673	-0.389931	0.449571	-0.411565	-0.281298	0.405061	0.379317	0.463466	0.389246	0.274424	-0.425723	0.318906	0.330669
0.448462	0.455298	0.386345	-0.495583	-0.387442	-0.395197	0.359531	0.395102	-0.357561	0.431139	0.41674	-0.488424	0.444104	-0.42231	-0.4609	-0.456465	-0.454463	-0.458421	0.43907	-0.469097	-0.352008	0.470306	-0.565274	-0.451728	0.4084	0.42826	0.481579	0.436085	0.420701	-0.356083	0.361391	0.463019
0.421795	0.165007	0.322189	-0.489184	-0.376611	-0.319412	0.394289	0.330858	-0.389348	0.40673	0.45302	-0.255755	0.272297	-0.380326	-0.312716	-0.349856	-0.276523	-0.409747	0.291496	-0.326291	-0.36484	0.282583	-0.578033	-0.317053	0.418186	0.41564	0.325764	0.395828	0.37317	-0.38659	0.428689	0.505102
0.426906	0.469431	0.357005	-0.445675	-0.408873	-0.41204	0.383424	0.425121	-0.413546	0.41878	0.46403	-0.49724	0.396163	-0.385857	-0.477635	-0.404475	-0.403193	-0.43161	0.367549	-0.432334	-0.407002	0.389795	-0.277535	-0.436737	0.425236	0.48807	0.436897	0.406963	0.468725	-0.433415	0.459243	0.410534
0.38068	0.50463	0.440632	-0.473436	-0.240827	-0.510559	0.371029	0.47814	-0.385195	0.325863	0.401577	-0.396365	0.450517	-0.45262	-0.408115	-0.373903	-0.36839	-0.555236	0.353755	-0.392351	-0.361321	0.424737	-0.43744	-0.446644	0.373442	0.425867	0.363667	0.31095	0.413635	-0.453712	0.386394	0.461795
0.405523	0.471931	0.351535	-0.373074	-0.411437	-0.397482	0.354624	0.488348	-0.414843	0.360407	0.365173	-0.349657	0.322158	-0.257606	-0.362589	-0.381357	-0.457469	-0.466973	0.349712	-0.36361	-0.377304	0.403042	-0.346084	-0.406374	0.412543	0.394776	0.312101	0.468944	0.382868	-0.376433	0.399513	0.365102
0.424605	0.250285	0.391324	-0.434941	-0.371031	-0.391022	0.433836	0.317025	-0.4664	0.345348	0.357887	-0.438484	0.347108	-0.38314	-0.385156	-0.368566	-0.300253	-0.268036	0.354125	-0.353218	-0.331295	0.373276	-0.439229	-0.353903	0.332625	0.388161	0.444293	0.418143	0.49037	-0.46096	0.434351	0.36552
0.426368	0.487435	0.38494	-0.39778	-0.440689	-0.412348	0.408784	0.402572	-0.399464	0.385335	0.399485	-0.420725	0.334484	-0.359655	-0.388359	-0.353244	-0.348029	-0.335113	0.376068	-0.369498	-0.43408	0.295121	-0.285502	-0.403175	0.42233	0.394106	0.374274	0.366484	0.3444	-0.27419	0.35183	0.41572
0.45623	0.313656	0.452204	-0.406528	-0.466941	-0.498541	0.427539	0.375106	-0.433554	0.450346	0.435389	-0.401316	0.45637	-0.451519	-0.485296	-0.359466	-0.389282	-0.381097	0.43493	-0.404979	-0.422268	0.418083	-0.434841	-0.463711	0.430214	0.409743	0.386329	0.43905	0.445631	-0.368345	0.476516	0.516966
0.349289	0.20049	0.379514	-0.452351	-0.284733	-0.322012	0.267763	0.353098	-0.356532	0.322387	0.199838	-0.273491	0.2949	-0.182529	-0.309763	-0.349376	-0.367593	-0.26211	0.289918	-0.228079	-0.373986	0.374193	-0.460153	-0.220406	0.139921	0.31723	0.274205	0.372889	0.263578	-0.345623	0.322194	0.462808
0.323979	0.433531	0.512535	-0.3189	-0.416214	-0.58966	0.35047	0.284631	-0.435278	0.565497	0.330952	-0.297348	0.434286	-0.364099	-0.324347	-0.221014	-0.438135	-0.516794	0.442265	-0.187884	-0.341512	0.465128	-0.537238	-0.431819	0.278081	0.513241	0.467741	0.454141	0.462586	-0.451804	0.501465	0.33594
0.363779	0.459578	0.306793	-0.345292	-0.354771	-0.320867	0.272739	0.340492	-0.35031	0.358554	0.305969	-0.361734	0.265428	-0.373674	-0.287382	-0.297113	-0.351264	-0.264414	0.301961	-0.324542	-0.262628	0.358323	-0.344668	-0.316434	0.36381	0.367066	0.317828	0.379766	0.351878	-0.2312	0.302968	0.344754
0.444411	0.416693	0.436675	-0.431199	-0.506917	-0.463359	0.471141	0.480188	-0.496259	0.385806	0.435431	-0.498839	0.40988	-0.41694	-0.416517	-0.417739	-0.410266	-0.392268	0.484226	-0.425493	-0.398162	0.452151	-0.396237	-0.498469	0.470234	0.511442	0.469942	0.440492	0.459964	-0.467536	0.460327	0.35533
0.346161	0.342152	0.410037	-0.164563	-0.316543	-0.321303	0.423095	0.418922	-0.387549	0.478747	0.416321	-0.388067	0.421443	-0.389166	-0.430669	-0.417523	-0.387663	-0.286854	0.33017	-0.36131	-0.465428	0.332604	-0.446616	-0.422315	0.460925	0.355191	0.490121	0.440154	0.405072	-0.436837	0.382172	0.375171
0.329237	0.338305	0.405848	-0.319692	-0.34927	-0.42259	0.4139	0.339339	-0.387787	0.4329	0.390999	-0.396143	0.432055	-0.411963	-0.358571	-0.322721	-0.401908	-0.292456	0.323369	-0.335231	-0.309437	0.433321	-0.404724	-0.425295	0.351426	0.276429	0.339927	0.393735	0.349163	-0.394663	0.329549	0.536522
0.467568	0.461494	0.407364	-0.432109	-0.425801	-0.405982	0.496523	0.433754	-0.311208	0.514419	0.496767	-0.460646	0.414754	-0.404018	-0.441399	-0.447086	-0.475417	-0.441617	0.482332	-0.465358	-0.498221	0.419566	-0.414378	-0.479278	0.444947	0.403128	0.508599	0.471509	0.400937	-0.483565	0.449658	0.450562
0.429848	0.378078	0.425527	-0.301338	-0.389029	-0.419402	0.406816	0.378358	-0.474345	0.483963	0.427417	-0.453397	0.432042	-0.321091	-0.459896	-0.439022	-0.452825	-0.386265	0.378985	-0.432541	-0.400554	0.429794	-0.43935	-0.474884	0.360952	0.489587	0.454621	0.487928	0.471004	-0.462382	0.409266	0.505826
0.409689	0.384087	0.384761	-0.411882	-0.332409	-0.411492	0.498594	0.495616	-0.441821	0.41439	0.445873	-0.355699	0.43352	-0.403125	-0.388476	-0.492261	-0.42905	-0.425596	0.436265	-0.353256	-0.3523	0.433905	-0.450127	-0.36331	0.461065	0.401351	0.457467	0.382116	0.489115	-0.449228	0.450709	0.407365
0.437568	0.33843	0.42529	-0.45206	-0.461249	-0.333923	0.385292	0.391554	-0.466522	0.504825	0.44412	-0.445712	0.440681	-0.382302	-0.385512	-0.338445	-0.322383	-0.406976	0.442016	-0.459462	-0.51518	0.485678	-0.461177	-0.422989	0.379591	0.460238	0.43918	0.420135	0.497649	-0.453736	0.355471	0.463463
0.296703	0.158081	0.3469	-0.330521	-0.250814	-0.29385	0.390858	0.367719	-0.276353	0.327341	0.300757	-0.266059	0.236612	-0.481362	-0.28758	-0.229478	-0.373838	-0.417229	0.3135	-0.326002	-0.329336	0.233427	-0.379543	-0.376177	0.392087	0.285377	0.280106	0.303533	0.366696	-0.17751	0.298563	0.453548
0.466235	0.455286	0.40684	-0.417511	-0.398845	-0.401902	0.429174	0.377669	-0.390241	0.45742	0.489639	-0.396697	0.386867	-0.335121	-0.440369	-0.466643	-0.418427	-0.440105	0.447326	-0.407824	-0.369645	0.447647	-0.339916	-0.468497	0.442613	0.45679	0.402466	0.419591	0.433517	-0.460741	0.411995	0.297371
0.37163	0.135201	0.437597	-0.285743	-0.450773	-0.386936	0.306782	0.411954	-0.411406	0.363398	0.408574	-0.411518	0.365099	-0.427617	-0.442749	-0.334869	-0.475441	-0.25854	0.418102	-0.455848	-0.480552	0.392746	-0.536257	-0.264547	0.45687	0.373468	0.353407	0.372248	0.450645	-0.455903	0.303675	0.555643
0.384291	0.447727	0.320671	-0.235294	-0.360804	-0.27091	0.290306	0.366799	-0.432779	0.424346	0.266909	-0.314342	0.331332	-0.292598	-0.371403	-0.315863	-0.353457	-0.363926	0.38305	-0.307853	-0.339442	0.404493	-0.369148	-0.2798	0.321601	0.357522	0.333642	0.382701	0.408719	-0.406391	0.401994	0.393736
0.354098	0.203458	0.394951	-0.41521	-0.348955	-0.389587	0.389851	0.302068	-0.304494	0.293348	0.323504	-0.407738	0.359949	-0.386464	-0.409389	-0.295752	-0.388001	-0.318308	0.354502	-0.437134	-0.290576	0.314488	-0.316251	-0.378229	0.385759	0.347131	0.369225	0.365241	0.370664	-0.340316	0.35987	0.414881
0.380575	0.29384	0.382252	-0.305258	-0.386674	-0.433885	0.402057	0.398867	-0.296216	0.34158	0.314415	-0.369466	0.41132	-0.447649	-0.417787	-0.287646	-0.326926	-0.415981	0.32704	-0.424798	-0.375224	0.324348	-0.395627	-0.332583	0.402104	0.279333	0.360306	0.432234	0.442898	-0.26215	0.431305	0.438401
0.459759	0.544498	0.457464	-0.438245	-0.33762	-0.320063	0.4564	0.426725	-0.311956	0.383658	0.322806	-0.505021	0.471052	-0.175809	-0.504463	-0.481294	-0.387755	-0.315628	0.461602	-0.3576	-0.496316	0.448054	-0.523756	-0.45833	0.500054	0.573241	0.386558	0.398873	0.499521	-0.525211	0.481609	0.125947
0.441838	0.511646	0.428636	-0.450474	-0.461521	-0.499939	0.503612	0.49915	-0.408959	0.431794	0.4032	-0.402359	0.471888	-0.396936	-0.41789	-0.433152	-0.427189	-0.388333	0.468174	-0.44661	-0.463208	0.469357	-0.296613	-0.507914	0.420372	0.483424	0.470501	0.482639	0.417364	-0.485282	0.409766	0.348647
0.407858	0.353135	0.45	-0.458682	-0.470073	-0.463473	0.460493	0.467698	-0.490923	0.436368	0.475163	-0.479694	0.454058	-0.468267	-0.436342	-0.387584	-0.424604	-0.457677	0.475218	-0.449471	-0.352726	0.380435	-0.311565	-0.414488	0.439754	0.397921	0.46437	0.42084	0.383955	-0.474474	0.390087	0.340387
0.458293	0.11569	0.42302	-0.202638	-0.415723	-0.445524	0.244884	0.530771	-0.218152	0.461443	0.324885	-0.511849	0.257634	-0.50788	-0.465374	-0.399065	-0.532393	-0.372299	0.196271	-0.43624	-0.595493	0.214772	-0.694173	-0.311759	0.466806	0.394638	0.37305	0.521871	0.395133	-0.352532	0.417309	0.583472
0.299922	0.564585	0.338907	-0.405428	-0.245316	-0.220936	0.222363	0.355525	-0.447881	0.353969	0.371967	-0.414891	0.296279	-0.245938	-0.28687	-0.371709	-0.298275	-0.34319	0.284804	-0.322817	-0.356028	0.341553	-0.465019	-0.419632	0.319549	0.38512	0.360785	0.30265	0.365169	-0.326352	0.30833	0.329298
0.299102	0.131788	0.252159	-0.319117	-0.298371	-0.270076	0.182168	0.238489	-0.26412	0.344359	0.31047	-0.239867	0.33808	-0.214177	-0.320275	-0.349177	-0.34332	-0.26634	0.358893	-0.301529	-0.243372	0.325724	-0.197422	-0.196557	0.272507	0.217909	0.256801	0.260713	0.290525	-0.284844	0.360127	0.393762
0.335488	0.267489	0.392137	-0.416843	-0.380773	-0.400576	0.386283	0.32441	-0.314935	0.293538	0.398048	-0.33187	0.337805	-0.335535	-0.324208	-0.406212	-0.33224	-0.370575	0.391533	-0.426457	-0.369518	0.371838	-0.245675	-0.378685	0.414545	0.392088	0.425903	0.341177	0.366457	-0.276107	0.341404	0.344422
0.446419	0.15899	0.360865	-0.272257	-0.325598	-0.27414	0.326754	0.371253	-0.329347	0.43842	0.361558	-0.358049	0.426631	-0.345734	-0.408462	-0.283179	-0.3651	-0.388868	0.424657	-0.408673	-0.455225	0.504074	-0.442843	-0.41115	0.407532	0.359786	0.36791	0.382071	0.428993	-0.460214	0.309911	0.40486
0.413942	0.270767	0.464586	-0.53126	-0.574507	-0.340971	0.385935	0.44929	-0.302457	0.453718	0.506544	-0.452715	0.49744	-0.395248	-0.558273	-0.301954	-0.412893	-0.2369	0.42787	-0.470722	-0.419883	0.469379	0.0284547	-0.414674	0.526307	0.325383	0.448116	0.540822	0.567114	-0.448915	0.456363	0.467149
0.255577	0.130306	0.344283	-0.433456	-0.51005	-0.564971	0.26535	0.493785	-0.371434	0.257676	0.414846	-0.447596	0.425208	-0.589094	-0.280797	-0.408335	-0.631263	-0.55257	0.287327	-0.378451	-0.305706	0.387869	-0.394422	-0.426112	0.420187	0.381128	0.475918	0.467112	0.287089	-0.272374	0.296577	0.581855
0.382506	0.267068	0.365015	-0.153062	-0.245816	-0.294731	0.323429	0.38584	-0.188294	0.365108	0.332996	-0.350014	0.270314	-0.402228	-0.433725	-0.367068	-0.319038	-0.283509	0.347548	-0.328425	-0.340063	0.282303	-0.394214	-0.367436	0.355885	0.348889	0.315335	0.359927	0.312978	-0.359692	0.273781	0.390875
0.409361	0.424101	0.42223	-0.409689	-0.369354	-0.412773	0.471722	0.359498	-0.376193	0.429959	0.465405	-0.472797	0.378318	-0.48365	-0.458836	-0.438315	-0.439571	-0.481915	0.45183	-0.367193	-0.420475	0.493539	-0.439927	-0.440941	0.401949	0.411322	0.41202	0.423962	0.434243	-0.381724	0.428394	0.408782
0.402809	0.446809	0.396092	-0.243479	-0.291754	-0.351942	0.486087	0.491039	-0.447711	0.376918	0.400478	-0.4222	0.4334	-0.371825	-0.36244	-0.349247	-0.38002	-0.409809	0.381866	-0.423867	-0.484935	0.425652	-0.442453	-0.399042	0.391547	0.382038	0.423494	0.425748	0.459984	-0.509392	0.460512	0.158025
0.401956	0.648072	0.492328	-0.275013	-0.33456	-0.492243	0.519668	0.523229	-0.499042	0.490481	0.419227	-0.443392	0.471216	-0.402486	-0.51508	-0.347981	-0.383592	-0.457849	0.458382	-0.35373	-0.401013	0.317586	-0.460494	-0.516774	0.350743	0.424492	0.296452	0.469036	0.457339	-0.383071	0.43108	0.197785
0.362172	0.515524	0.435801	-0.473031	-0.390329	-0.332524	0.423602	0.462328	-0.296127	0.396831	0.335859	-0.419487	0.448713	-0.315727	-0.448664	-0.494003	-0.378118	-0.362737	0.395698	-0.35993	-0.401533	0.393405	-0.48477	-0.398686	0.378409	0.465116	0.471198	0.430681	0.404781	-0.457795	0.416411	0.437306
0.378376	0.281363	0.454909	-0.319869	-0.343204	-0.325345	0.281033	0.455226	-0.411189	0.367076	0.389988	-0.379202	0.39258	-0.357982	-0.349796	-0.398664	-0.42645	-0.357362	0.358757	-0.427079	-0.451109	0.337919	-0.298133	-0.381826	0.313045	0.417927	0.432153	0.348756	0.366033	-0.370073	0.430802	0.319298
0.460218	0.3374	0.369866	-0.490579	-0.41359	-0.280288	0.454306	0.442824	-0.460439	0.585853	0.523853	-0.449625	0.395009	-0.444631	-0.367466	-0.464042	-0.435943	-0.422144	0.461052	-0.546301	-0.196148	0.274731	-0.466761	-0.238109	0.215913	0.513846	0.350036	0.353652	0.519939	-0.397966	0.384359	0.502197
0.229833	0.426152	0.363346	-0.288562	-0.358757	-0.389573	0.270736	0.270963	-0.233405	0.340285	0.362785	-0.307529	0.394859	-0.305814	-0.355616	-0.298804	-0.340967	-0.378602	0.251256	-0.314177	-0.362583	0.335877	-0.308641	-0.208922	0.330225	0.329321	0.335836	0.347239	0.259876	-0.368419	0.313229	0.316831
0.401981	0.592915	0.301403	-0.249827	-0.364226	-0.279155	0.247959	0.256079	-0.224843	0.396698	0.28116	-0.350869	0.37844	-0.241165	-0.25074	-0.401781	-0.420271	-0.356336	0.292968	-0.299472	-0.421988	0.312636	-0.279449	-0.376652	0.348157	0.270142	0.249237	0.364352	0.30835	-0.320495	0.30474	0.300244
0.439117	0.380615	0.452891	-0.406523	-0.425985	-0.394163	0.478022	0.40418	-0.441746	0.443255	0.404786	-0.460591	0.380835	-0.439395	-0.46192	-0.479392	-0.480733	-0.460818	0.470287	-0.43879	-0.362941	0.400872	-0.416342	-0.41316	0.382793	0.410236	0.410351	0.368539	0.481439	-0.381307	0.429648	0.389633
0.393013	0.337246	0.450671	-0.431284	-0.337183	-0.412406	0.409024	0.392276	-0.357254	0.416439	0.370684	-0.402975	0.407597	-0.342948	-0.371425	-0.380924	-0.378015	-0.397469	0.486996	-0.410985	-0.451161	0.445937	-0.341555	-0.436298	0.418943	0.405893	0.407671	0.459187	0.401235	-0.376788	0.428456	0.39705
0.434893	0.578337	0.367627	-0.241266	-0.245698	-0.466883	0.395192	0.378192	-0.461546	0.301667	0.423595	-0.428627	0.309103	-0.377032	-0.377282	-0.342833	-0.360196	-0.330808	0.288363	-0.420678	-0.36434	0.346589	-0.588202	-0.391043	0.373241	0.325722	0.401743	0.324782	0.390631	-0.427585	0.414184	0.247485
0.365034	0.433344	0.418964	-0.342355	-0.33069	-0.340926	0.407634	0.40014	-0.387822	0.340705	0.323622	-0.362215	0.383777	-0.288718	-0.314015	-0.348273	-0.426193	-0.453828	0.312981	-0.390375	-0.418221	0.467935	-0.29625	-0.414351	0.284045	0.366039	0.369095	0.328784	0.361875	-0.375933	0.453343	0.340781
0.324089	0.178197	0.406814	-0.326005	-0.390455	-0.324579	0.447518	0.297177	-0.397438	0.377008	0.368376	-0.345021	0.383374	-0.320236	-0.334139	-0.378016	-0.403475	-0.416251	0.325145	-0.418859	-0.362814	0.309136	-0.169748	-0.317684	0.315791	0.361305	0.236084	0.370478	0.336359	-0.254031	0.377171	0.271633
0.353575	0.449552	0.46029	-0.310311	-0.389275	-0.475267	0.348744	0.369322	-0.405138	0.40876	0.448806	-0.398855	0.432538	-0.322603	-0.35802	-0.272144	-0.42043	-0.416313	0.383954	-0.375699	-0.389916	0.370115	-0.399469	-0.385885	0.378978	0.408487	0.378658	0.367928	0.36111	-0.423216	0.430773	0.336468
0.436652	0.466182	0.361621	-0.46924	-0.419965	-0.341478	0.400786	0.427577	-0.438722	0.356607	0.412893	-0.419555	0.354124	-0.454273	-0.368627	-0.373172	-0.384199	-0.352658	0.429389	-0.321981	-0.435847	0.373823	-0.308971	-0.408454	0.366005	0.317018	0.38867	0.369189	0.356758	-0.451462	0.391621	0.312184
0.415217	0.484632	0.411377	-0.389356	-0.485875	-0.48416	0.450736	0.393609	-0.393056	0.419926	0.396661	-0.476151	0.476281	-0.474609	-0.496057	-0.524679	-0.494332	-0.48334	0.374248	-0.394952	-0.45931	0.481319	-0.38146	-0.298131	0.368404	0.459109	0.492595	0.403772	0.44505	-0.455673	0.457136	0.319226
0.389845	0.278382	0.308308	-0.254019	-0.343721	-0.480013	0.220238	0.385965	-0.307037	0.306067	0.305315	-0.407992	0.252237	-0.37512	-0.449497	-0.333833	-0.323364	-0.387515	0.332433	-0.384822	-0.4907	0.246296	-0.608653	-0.299232	0.398341	0.419885	0.360688	0.379854	0.373031	-0.443343	0.309777	0.50756
0.479087	0.493229	0.450845	-0.462522	-0.421456	-0.439536	0.482015	0.487094	-0.418638	0.347623	0.481748	-0.396105	0.392187	-0.48885	-0.42987	-0.407894	-0.398807	-0.463353	0.468113	-0.472077	-0.332914	0.437967	-0.480209	-0.411479	0.48183	0.457488	0.389524	0.429392	0.441165	-0.429092	0.413601	0.397208
0.394599	0.190085	0.319773	-0.304021	-0.434803	-0.324605	0.359415	0.389996	-0.490953	0.505137	0.331893	-0.405846	0.420347	-0.294375	-0.32023	-0.389405	-0.286518	-0.302558	0.398811	-0.387163	-0.431866	0.55142	-0.469606	-0.36443	0.456762	0.334612	0.397116	0.404151	0.376824	-0.494199	0.364747	0.459595
