0.0239408	0.0412372	-0.0436862	-0.0145878	-0.0353532	-0.0318461	-0.0274756	-0.0418032	-0.0230774	-0.0215382	0.0349082	0.0490099	-0.0399154	-0.0345144	-0.037807	0.00874411	-0.00817789	-0.017846	-0.0251343	0.0465271	-0.00291432	-0.0347719	-0.0440165	-0.0419065	-0.0211736	0.0149128	-0.0240695	-0.0476922	-0.0226284	0.00981098	-0.0224209	-0.0420194
-0.0124039	0.0395416	0.00670369	0.0582941	-0.124713	0.120365	0.00866253	0.143594	-0.0260392	0.0943934	0.0740296	0.037348	-0.00654108	0.0450738	0.0102449	-0.11017	0.00698215	-0.0176759	0.0777376	0.0662955	-0.0456306	-0.00407199	0.0229779	0.0286826	0.0454022	-0.0118827	0.0114179	-0.0523792	0.0209578	-0.0106708	-0.0118662	0.0770994
-0.0527228	-0.0373516	0.164998	0.0713166	-0.118417	-0.0206447	0.12866	0.0936618	0.0249596	-0.0446022	0.0656714	0.03204	0.0872895	-0.00919451	0.0674574	-0.0576471	-0.0991157	-0.0619009	0.0961209	0.125603	-0.0528653	0.021086	0.0677677	0.0334053	0.0259235	-0.13401	0.00196078	-0.120358	0.0745796	0.0791638	-0.0916753	-0.146766
-0.0703357	-0.0734423	0.140211	-0.0124385	-0.0211049	-0.0264816	0.0565409	0.132152	-0.0392287	-0.0644059	-0.0660792	0.0310397	0.0484735	-0.0163482	0.0889453	-0.0669465	0.051818	-0.0686646	-0.0127683	-0.0377427	-0.135298	0.0647616	0.0382898	0.171809	0.05938	-0.180539	-0.0215681	0.0652251	0.00757993	-0.00977042	-0.107725	-0.192434
-0.00392479	-0.110763	0.00146248	0.0545639	-0.208878	0.00580112	0.161049	0.188997	0.0723472	-0.0247734	-0.244752	0.166169	0.0614055	-0.193182	0.0257625	-0.14292	-0.105426	0.160761	0.0398611	-0.204821	0.212108	0.198736	-0.0564287	0.109024	0.0682653	-0.210977	0.00922054	-0.157221	0.0312734	0.055138	-0.1231	-0.0807701
0.0320893	0.00416959	-0.0209287	0.0704451	-0.189794	0.0207845	0.156093	0.101682	-0.027412	0.0570961	-0.234786	0.11744	0.0632118	-0.130758	0.0472059	-0.267201	-0.0174847	0.014978	0.0316108	-0.219559	0.209854	0.15211	-0.089884	0.0240775	0.0154155	-0.015698	-0.00290801	-0.181391	0.040578	0.149906	-0.023699	0.223503
0.0011753	-0.0110149	-0.0693338	0.0155729	-0.090439	0.0488805	0.011739	0.0587939	-0.0725497	-0.121605	-0.100601	0.0917343	-0.0288356	0.03164	0.0741195	-0.0864067	0.084838	0.0556001	-0.0780241	-0.0520536	0.0727885	0.118693	-0.115124	0.0412348	0.0327327	-0.0409726	-0.0993	0.00162559	-0.0944465	-0.0201125	-0.00911155	0.0709088
0.0634902	-0.0488727	0.00805874	-0.0277551	-0.000135203	0.083974	-0.0795385	0.0958997	0.0935668	-0.179396	-0.0874139	-0.0178063	0.148525	-0.0593009	-0.0385475	-0.0410806	-0.106751	0.0557423	0.017399	-0.132815	0.0593137	0.0705414	0.0356079	-0.0181283	-0.0663944	-0.0375265	-0.0846777	-0.0443001	0.0848014	0.110551	0.00971088	0.00402679
-0.0425252	-0.0670913	-0.108026	-0.00706482	-0.0112387	0.100156	0.0756353	0.148203	-0.0336677	-0.0663596	-0.0843588	0.133075	0.0392627	-0.0562152	-0.0981291	-0.0980324	-0.0383021	-0.0420323	0.0417495	-0.104083	-0.00753546	0.0607315	-0.0616646	0.0641023	-0.00981375	-0.112004	-0.0686306	-0.0873822	-0.00841966	0.0853505	0.0464125	0.0604572
-0.031393	-0.0288892	-0.0793533	-0.0167019	-0.106556	-0.0294985	0.0289161	0.0287532	-0.0720123	0.0117691	-0.147627	0.0999163	0.0309619	-0.163818	0.00837129	-0.145621	0.0801287	0.127873	-0.0104595	-0.176813	0.0809505	0.0204061	-0.0938448	0.00878433	-0.201983	-0.0479696	-0.126191	-0.0954765	-0.0392582	0.0222823	-0.0399924	0.106052
-0.00853609	0.177534	0.0971787	0.13689	-0.0504339	0.0330727	-0.0296425	-0.0276646	0.197879	-0.0806958	0.142271	-0.197085	0.125068	-0.000452842	-0.124503	-0.0594104	-0.199951	0.0521023	0.234806	0.254693	-0.104519	0.119016	0.203314	0.0311149	-0.0782991	0.0532444	-0.0329173	-0.0321877	0.140512	0.0790503	0.0088552	0.0147744
-0.135021	-0.125225	0.0842822	-0.00690017	-0.145793	0.0804951	0.130919	0.11514	0.100357	0.0995558	-0.264077	0.0184945	0.0339369	-0.16992	-0.0662423	-0.0404694	0.0493782	0.208878	-0.0738064	-0.201075	0.202815	0.1394	0.0176122	0.150848	-0.184358	-0.0811146	0.0506596	-0.178749	0.107307	0.218657	-0.00660343	0.0769737
-0.00746949	-0.122917	-0.0474591	-0.0415693	-0.113346	0.0877819	-0.0183242	0.104423	0.069401	0.0614239	-0.216489	0.157854	0.0284443	-0.190549	-0.00934959	-0.110535	-0.053417	0.091691	0.0390961	-0.189699	0.167344	0.117273	0.00539917	0.0472869	-0.0736139	-0.0845683	-0.0992838	-0.0408903	0.00274271	0.13083	0.0116623	0.1445
-0.0109102	-0.0115795	0.0904311	0.0314811	0.0716208	-0.19145	0.0713386	-0.0537605	-0.157076	-0.108723	0.0999022	-0.0744512	-0.0172267	0.0216545	0.230859	0.0529045	0.0636038	0.0453311	0.027795	0.115452	-0.0771104	-0.00997128	0.0514254	0.0173895	0.0480031	-0.111647	-0.0323016	-0.0119747	-0.0793591	-0.0660948	-0.211415	-0.243374
-0.0457671	0.0284322	0.0241013	0.0689332	-0.0111174	0.0986892	0.0315728	0.0218168	0.035958	-0.091094	-0.0588753	-0.0273077	0.0164392	-0.0685639	-0.079196	-0.0467345	-0.0737205	0.12602	-0.0219887	-0.0714993	0.00568475	0.0836741	-0.0234125	0.052563	-0.103582	0.0467739	0.112699	-0.00387712	0.0732867	0.0690524	-0.0108256	0.163691
0.0168411	-0.0552265	0.0957129	0.0741925	-0.0453353	0.0375952	0.102212	0.114844	0.12039	-0.186163	-0.0637625	-0.0264268	0.186489	-0.105438	-0.0730569	-0.0219226	-0.0193344	0.16407	0.0522532	-0.119465	-0.0618429	0.14929	0.146334	0.0566107	0.0354657	-0.0220789	0.00358507	-0.0548074	0.0584477	0.0196309	-0.0262964	-0.249453
0.0173906	0.0324403	0.186374	-0.00408239	-0.0950205	0.00705609	0.115118	0.159163	0.107841	-0.0117658	-0.0887559	-0.144834	0.136262	-0.120331	-0.137962	-0.0963103	-0.192433	0.111146	0.119261	-0.0447681	0.0287073	0.116902	0.154543	0.140678	-0.113137	-0.13052	-0.0114111	-0.136654	0.132542	0.0950999	-0.156732	0.0372425
0.0348373	0.074646	0.010935	0.0359892	-0.0374346	0.0228613	-0.0935602	-0.00638381	0.0918552	-0.0851493	-0.113596	-0.0614944	0.0461837	-0.0140771	-0.0202594	0.073433	-0.0664976	0.164774	0.0674953	-0.0313758	0.021013	0.00474232	0.0342739	-0.121953	-0.0626178	0.0660447	-0.0238797	3.78016e-05	0.0943917	-0.0071172	0.0426775	-0.0132435
-0.0742967	-0.108217	-0.046481	-0.0593547	-0.0606959	-0.0234604	-0.0262165	0.0535831	-0.00254548	-0.0121536	-0.096659	0.0529333	0.0872598	-0.156762	0.109381	-0.13636	-0.00409269	0.0664862	0.0112777	-0.124784	0.132553	0.0459018	0.0456528	0.0321801	-0.0829851	-0.103046	-0.0692826	-0.0932631	0.0322298	0.025894	-0.0241303	-0.00853421
-0.00225879	-0.00017482	0.104716	0.0116649	0.0683785	-0.134756	0.03458	-0.0379182	-0.0478187	-0.135638	0.119929	0.0470648	-0.0922773	0.0868834	0.0568061	0.132839	0.0354887	-0.0152535	0.0207065	0.163841	-0.126365	0.00472618	0.0571749	0.0387914	0.0440536	0.0100082	-0.0247875	0.018341	-0.00805735	-0.058588	0.00877191	-0.222188
-0.0847644	0.0852067	-0.0714469	-0.0312912	-0.13996	0.168857	-0.0142285	0.0568774	0.0419978	0.119278	-0.121794	-0.0562068	0.0635224	-0.0114652	-0.00754517	-0.156492	0.0365091	0.0141965	-0.0381047	-0.122049	-0.0445359	0.075762	0.00559372	-0.000262826	-0.0274009	0.038483	0.00477163	-0.0512457	0.0295277	0.0705467	0.0977606	0.137104
0.170004	0.171234	0.0192124	0.0576344	-0.00457897	0.1014	-0.105926	-0.0783081	0.189298	0.0725089	0.0531859	-0.152125	0.0221417	0.0465103	-0.244063	0.0346541	-0.159607	-0.0411777	0.00253439	0.133963	-0.106363	-0.0524802	0.0483651	-0.0650444	0.0542242	0.114024	0.0718196	0.110519	0.0119686	-0.0802021	0.10222	0.0546063
-0.120246	-0.108771	0.0507059	-0.0317665	-0.176153	0.00279964	0.226074	0.211472	0.0268748	-0.0787044	-0.128953	0.0976233	0.0715646	-0.133309	0.0760987	-0.235526	0.0676685	0.146027	0.0458735	-0.180928	0.00508195	0.224701	0.0625302	0.0972194	0.00683813	-0.258925	-0.0470041	-0.193339	0.0860119	0.105117	-0.169941	-0.0515862
-0.0621059	0.0186727	-0.071957	-0.0552541	0.207945	0.109839	-0.204744	-0.172558	0.00563478	-0.05077	0.11871	-0.0295275	0.0228235	0.0514931	-0.0148027	0.125186	0.0434674	-0.0197413	-0.0521852	-0.0598478	-0.0891357	-0.163767	-0.0143251	-0.128143	-0.154937	0.153936	0.0354047	-0.00208811	-0.0649764	-0.0874664	0.139097	0.0455634
-0.378859	0.184364	0.283423	0.12355	-0.128799	-0.157767	0.069991	0.0872239	-0.122367	-0.0750281	0.135605	-0.0161296	0.182348	-0.0630445	0.292162	-0.261718	0.0380717	-0.0267407	0.164576	0.239195	-0.13159	0.1512	0.186288	0.236953	-0.0168054	-0.337514	-0.0488013	-0.109057	0.13625	0.0016992	-0.192052	-0.237981
0.0805346	0.228137	-0.00618388	0.0275503	0.0297244	0.0444571	-0.0944931	-0.145415	0.0348738	0.0656349	0.105627	-0.0784499	-0.0528824	0.181036	-0.0345221	0.110046	0.0758523	-0.114521	-0.0269179	0.194554	-0.186297	-0.170428	-0.0141622	-0.17971	0.0467654	0.226492	0.129701	0.0660793	0.00472012	-0.0692552	0.067293	0.148542
-0.0802061	-0.0205334	0.208256	0.0474726	-0.0694446	-0.165721	0.0960525	0.210653	-0.10233	-0.0810676	0.115634	0.0584455	-0.0200457	0.161143	0.0749471	-0.0147623	-0.0223577	-0.0938627	0.0464487	0.242831	-0.221548	0.00375813	0.121627	0.15841	0.162678	-0.141642	0.0261227	0.0331249	0.0714519	0.00946342	-0.154253	-0.277594
0.102408	-0.0706213	-0.0302653	-0.179174	-0.0948712	-0.0248938	0.119242	0.0974089	-0.0345725	0.115838	0.0116648	0.052983	-0.0506025	0.0145034	0.136291	-0.038561	0.0415562	0.0375342	-0.0305364	0.0300525	0.147141	-0.000329681	-0.0605402	0.0811734	-0.0116937	-0.13591	-0.12159	-0.0773562	-0.0108142	0.00712536	-0.180999	-0.053493
0.0882777	0.0870679	-0.108274	-0.0650756	-0.0199425	0.150981	-0.0552448	-0.0916709	0.0340229	0.105988	-0.000965976	0.0389881	-0.00417927	-0.0413186	-0.105133	-0.0673579	0.0165981	-0.0620255	-0.0340511	-0.0600411	0.0878653	-0.0997609	-0.0136197	-0.0988734	-0.0190868	0.125851	-0.0433387	-0.0201915	0.0217437	0.0679719	0.111892	0.277523
0.0375982	-0.0628428	-0.0775855	-0.012431	-0.128421	0.234082	0.097008	0.107516	0.0100933	0.181732	-0.238684	0.0772149	0.0428798	-0.0394567	0.0845461	-0.258826	-0.0143126	-0.0347099	-0.00273817	-0.227955	-0.00802619	0.179052	-0.0211673	0.0753532	-0.00598463	-0.0880899	-0.0758294	-0.0941495	-0.0209349	0.154343	0.0736894	0.209895
-0.0077024	0.012189	-0.155523	-0.0585637	0.12984	0.263077	-0.25316	-0.152363	0.0558403	0.176306	-0.0461984	0.075741	-0.0764868	0.071971	-0.15132	0.0383096	0.0139596	-0.175707	-0.0708585	-0.138644	0.110601	-0.0676134	-0.102022	-0.133912	0.0144457	0.133787	-0.0185001	0.0810405	-0.146265	0.00658321	0.204956	0.278131
0.0242698	0.142473	-0.0596804	-0.000285897	-0.0339561	0.0729091	-0.134432	-0.169773	0.0348233	0.127164	-0.023479	-0.109854	0.0335413	0.017852	-0.0798054	0.00862241	0.0407228	-0.0636135	-0.0310735	0.0416051	0.101718	-0.0543215	0.0101974	-0.104931	-0.0595936	0.171735	-0.0197034	0.0235617	-0.00535212	0.0241334	0.0752819	0.228945
0.0827937	-0.134999	0.0385555	-0.110117	-0.147109	-0.088843	0.141476	0.163354	0.063759	-0.0351505	-0.213566	0.150258	0.0419279	-0.114975	-0.0530928	-0.057622	0.0432824	0.218821	0.0112316	-0.236238	0.166662	0.21015	0.00267428	0.18701	-0.0351213	-0.131998	-0.110617	-0.0872122	0.0774463	0.0381753	-0.13777	-0.146027
0.077804	-0.0517148	-0.116823	-0.0181221	-0.160149	0.00996222	0.0271393	-0.0458591	0.0561158	-0.0385368	-0.0833804	0.0845557	0.0859939	0.00305314	-0.0483778	-0.162452	0.0136266	-0.0607701	-0.0393544	-0.190018	0.110462	0.000635668	-0.0308275	0.00623192	0.0115133	-0.00816285	-0.0654853	-0.0340067	-0.0343699	-0.0299714	0.164105	0.103435
0.0353827	0.13959	0.0122896	0.137142	-0.0180422	-0.0159751	-0.105454	-0.132528	0.0416545	0.0438431	0.0783533	-0.0777437	-0.0231729	0.104641	-0.0229679	0.0206849	0.0137373	-0.106397	-0.0346767	0.11029	0.00788434	-0.140597	0.0327054	-0.0631848	-0.0248372	0.124168	-0.0343476	0.0521668	-0.0499054	-0.0883028	0.0423418	-0.0362728
0.250521	0.115405	-0.277	-0.0872177	0.0861022	0.0970674	-0.168668	-0.254943	0.0536112	0.201262	0.113735	-0.0692327	-0.212389	0.202076	-0.186448	0.176121	-0.0193799	-0.147236	-0.225068	0.0241385	-0.067272	-0.221792	-0.0507713	-0.219433	0.0453281	0.261789	-0.142841	0.198945	-0.173216	-0.17743	0.157853	0.217728
0.191144	-0.0176739	0.0455466	-0.0498764	-0.108736	-0.125882	0.0200141	0.0552391	-0.00755811	0.0105509	0.0347996	0.146001	-0.0575886	0.126997	0.0466064	0.0459325	0.0918464	-0.058763	-0.0206216	0.131003	-0.12142	-0.0290733	-0.0113899	-0.102442	0.162958	-0.0955691	0.0476862	0.0346001	-0.109361	-0.139479	-0.0627027	-0.140922
-0.0998342	-0.0613945	0.238684	0.105176	-0.0996536	-0.140268	0.169169	0.168749	0.167747	-0.134652	-0.0593943	-0.0971305	0.171449	-0.113321	-0.00269192	-0.0528954	-0.223005	0.0854932	0.133837	-0.0574129	-0.109349	0.280277	0.204594	0.232382	-0.0842139	-0.229488	-0.0486286	-0.114822	0.160266	0.0995162	-0.31359	-0.281914
-0.07145	0.0444124	-0.103913	0.12947	-0.0170112	-0.0276119	-0.0383229	-0.106419	0.062125	0.118029	-0.0830741	-0.105719	0.0814663	0.00877638	-0.12539	0.023782	-0.102666	0.0348568	0.0562322	0.0884472	-0.0165196	-0.0589646	0.125359	0.0857208	-0.0893221	0.168412	0.0694336	-0.0636354	0.0111216	0.0227665	0.116841	0.0768291
0.00180271	0.0153159	-0.00862424	0.062967	-0.0476652	0.137838	0.0240577	0.0420488	0.126962	0.0319551	0.0257833	-0.156535	0.0888715	-0.00110919	-0.153123	-0.0241982	-0.11504	0.0252599	0.0599034	0.0760773	-0.0842256	0.108392	0.159424	0.14539	-0.0354431	0.0139518	0.0514536	-0.0810393	0.143454	0.046671	0.0575515	-0.130988
-0.0104291	-0.162814	-0.0348097	0.00331576	0.0127907	-0.0225811	-0.0279232	0.047593	0.00824518	-0.0147938	-0.0614613	0.0391546	0.0110832	-0.0262306	0.0912231	-0.023444	-0.00108844	-0.0180846	-6.73365e-05	-0.0714375	0.0348091	-0.00125868	-0.042514	-0.031843	0.0950164	-0.00429614	-0.0302422	-0.0103939	-0.024303	-0.0639522	0.0265492	-0.187076
0.056026	-0.122294	-0.103129	-0.0321564	-0.0923013	-0.00517565	-0.0155945	0.027962	-0.0403224	-0.0742603	-0.276262	0.191082	0.0839274	-0.068904	-0.0294794	-0.13001	0.0473472	0.0481127	-0.0296305	-0.189738	-0.0368395	0.100926	-0.127205	0.00656414	0.074326	-0.0663025	-0.0196707	-0.11578	-0.0926406	0.0169512	0.0454198	0.0176286
0.129038	-0.175711	-0.312965	-0.173438	0.16341	0.0494862	-0.251151	-0.158889	-0.170745	0.0936351	-0.136312	0.227043	-0.163119	0.0626753	-0.0351458	0.0590503	0.180565	-0.152258	-0.179706	-0.307758	0.236722	-0.146031	-0.194457	-0.236581	0.0749828	0.285819	-0.175453	0.125739	-0.295035	-0.102298	0.352751	0.202673
0.211145	0.04948	0.0610938	0.0892384	0.00566747	-0.0297132	0.0149395	-0.00689737	0.0998498	-0.141789	-0.005544	0.0719893	-0.0103486	0.108131	-0.139469	-0.0133842	-0.079856	0.0104365	0.027072	-0.0748527	-0.0911194	0.0411856	0.0211915	-0.044102	-0.00194964	0.160798	0.0987015	0.0302465	0.0343561	0.0359683	0.0756141	0.0712917
0.069133	0.228064	-0.00259174	0.0347887	0.093126	0.138696	-0.050688	-0.119888	0.0688307	0.0788323	0.0343412	-0.036172	-0.0110437	0.0578233	-0.118017	-0.0203232	-0.0762519	-0.111582	0.00392865	0.0131149	-0.00825351	-0.139822	0.028455	-0.0953514	0.00183908	0.0648327	0.0795998	-0.000703815	-0.0214932	0.0433381	0.169816	0.209405
-0.158486	-0.0851547	-0.0548262	-0.01427	-0.0536785	0.19405	-0.0117232	0.100235	0.0535029	0.129597	-0.169452	0.0544504	0.111525	-0.0854238	0.0188398	-0.167968	-0.0531089	-0.122962	-0.00244826	-0.157381	0.102034	-0.00575433	0.0377355	0.0234609	-0.0993085	-0.13329	-0.0722539	-0.196331	0.0801034	0.141926	0.0904189	0.116984
-0.121661	0.0560166	-0.143162	-0.0334423	0.0879674	0.0767386	-0.00820541	-0.127721	-0.0902609	0.111532	0.15598	-0.0558173	-0.0395033	0.0858394	0.0619742	-0.0586019	0.172437	-0.0941322	-0.0470788	0.121755	0.0624993	-0.0790507	-0.0803668	-0.0682832	0.0418423	0.0435231	0.0113411	-0.0272198	-0.0908733	-0.0803069	0.116036	0.0901873
-0.0777972	0.0676779	0.00694164	0.0381723	-0.00908239	0.0496576	-0.074636	-0.0930752	-0.0510455	0.0176457	0.161224	0.000553024	0.0798546	-0.00624604	-0.0911701	0.00815039	-0.0216109	-0.147678	0.0824092	0.13601	0.0108515	-0.0150963	0.0826717	0.00476141	0.0556973	0.0667448	-0.0449902	-0.0242384	0.000829809	0.0893223	0.102425	0.00896986
-0.152902	0.124005	0.0250178	-0.0528535	-0.0300946	0.0184659	0.0242664	0.0346175	-0.0737949	-0.0144468	0.123573	0.102608	0.030528	-0.0638056	0.0660689	-0.036983	0.0826842	-0.0504426	-0.00740402	0.0979738	0.0163172	0.039526	-0.0108978	0.0861764	-0.140177	-0.119682	-0.123182	-0.0418806	-0.0182331	0.0240982	-0.0182306	-0.0579004
-0.0709527	0.196698	0.173462	0.175961	0.100018	-0.0023858	0.0155411	-0.165418	0.0137382	0.0797731	0.253849	-0.172405	0.044114	0.0725107	-0.0718702	0.102904	-0.0539888	0.0526304	0.126345	0.3383	-0.220087	-0.165532	0.12299	-0.0718599	-0.0550322	0.050546	0.26444	0.0246495	0.043487	-0.105094	-0.0019219	-0.00447207
0.0201515	-0.0370491	0.0504586	0.0499414	-0.0699721	-0.0468748	-0.0410424	0.0221051	-0.0284839	-0.0225601	-0.0452972	-0.00944542	0.00691674	0.0185228	-0.0870066	-0.0319051	-0.028318	-0.0180768	-0.0140613	-0.0683057	0.0565828	0.0237996	0.0198043	-0.0464138	0.0770526	0.0284626	0.0323253	-0.0151441	-0.00569679	0.0365091	-0.0233631	-0.113189
0.0301053	0.200759	0.0502751	0.118642	-0.014932	0.138344	-0.105957	-0.177394	0.235094	0.0651014	0.0422708	-0.175268	0.0359182	0.00964241	-0.226994	0.0083014	-0.15393	-0.0813478	0.14653	0.225068	-0.0405607	-0.00548639	0.205591	0.0301965	-0.0220129	0.152248	0.102927	0.00587074	0.0053215	0.0628862	0.105772	0.00128456
-0.105759	-0.140671	-0.0770998	-0.0593747	0.0017599	-0.0195125	-0.151055	0.0350548	-0.128185	-0.0131615	0.138322	0.160653	-0.0858189	0.146703	0.0928809	-0.0871513	0.0461452	-0.197303	-0.0555037	0.0341268	-0.0992803	-0.13743	-0.0924717	-0.0237006	0.0895484	-0.114965	0.0985107	0.0562481	-0.107467	-0.129767	-0.0172922	-0.0591433
-0.0880421	0.125593	0.294183	0.00363858	-0.185812	-0.0470837	0.260925	0.258388	-0.0753102	-0.00645836	0.0855694	-0.0230238	0.0371722	-0.208503	0.258347	-0.0863941	-0.0431708	0.130644	0.13129	0.255834	-0.100599	0.012948	0.0768242	0.161005	-0.0451863	-0.292234	0.101697	-0.117799	0.0984798	0.133767	-0.248011	-0.133298
-0.0511152	-0.0493676	-0.191828	-0.241787	0.125447	-0.0262828	0.129959	-0.0879665	-0.273039	0.12892	-0.053371	0.260565	-0.246082	0.0716569	0.160549	-0.0397586	0.305656	-0.106891	-0.305355	-0.176972	0.0270365	-0.0077946	-0.227651	-0.217377	0.0516217	0.00963725	-0.0467538	0.0604122	-0.212388	-0.0796927	0.0110245	0.0873797
-0.118179	0.227882	0.100048	0.185159	-0.0687144	-0.00116503	0.0162411	-0.0028705	0.173082	0.112343	0.3378	-0.236048	0.167194	-0.12781	-0.0677562	-0.11478	-0.137265	-0.0152634	0.135617	0.316153	-0.222556	-0.0866217	0.173752	0.0548669	-0.215015	-0.10726	0.123896	-0.097218	0.150015	0.187473	0.0157325	0.195578
0.0280706	0.0791463	0.0363311	0.030617	0.0925938	-0.171623	0.0666931	-0.000891997	-0.0103817	-0.163818	0.196513	0.0340752	0.00548705	0.0286226	-0.0293091	0.0383275	0.0228428	-0.0601401	0.0211265	0.227896	-0.0941221	-0.112774	0.0574601	-0.00820766	-0.0143625	-0.0668251	0.100589	-0.0410733	-0.0628386	-0.0455976	-0.231482	-0.165798
0.0355846	0.0319124	0.0206195	0.0945106	0.0462332	-0.0347613	-0.018434	-0.169159	0.0250612	-0.0924003	-0.0133225	0.023156	0.0471047	-0.0418859	-0.132644	-0.0623712	-0.013298	-0.097543	0.0316562	0.00978388	-0.043618	0.00968996	0.00381215	0.00374561	-0.0292902	-0.00860264	-0.0105956	0.0328624	-0.0412368	-0.0291244	0.0563012	-0.0435433
0.00572682	0.13612	0.0115198	0.0390097	-0.122079	0.210033	0.0590322	-0.058019	0.229105	0.187969	0.0811974	-0.101991	0.0546095	-0.0251027	-0.181456	-0.0758767	-0.196674	0.0852953	0.0773958	0.165485	-0.110432	0.0333997	0.105203	-0.0702039	-0.0867398	0.115937	0.0374062	-0.0936111	0.147075	-0.00279613	0.0950797	-0.05952
0.0140693	0.0590411	-0.0797581	-0.158816	0.114971	-0.0344775	-0.13487	-0.0749293	-0.177295	0.0566137	0.151112	0.083855	-0.120169	0.088462	0.132205	0.181656	0.0976047	-0.233627	0.00529165	0.0860758	-0.0728846	-0.14369	-0.102765	-0.123155	0.0296048	0.0402414	-0.018295	0.00695503	-0.131554	-0.172535	-0.021869	-0.104016
0.148709	-0.110708	-0.0926828	-0.15672	0.133368	-0.161986	-0.0169488	-0.0808941	-0.184917	-0.00229685	0.0611496	0.111345	-0.186967	0.125679	0.0695306	0.213669	0.150713	-0.1762	-0.197717	0.0376561	-0.0110628	-0.170515	-0.118244	-0.147941	0.130319	0.0939417	0.00351806	0.151122	-0.128173	-0.162188	-0.0148407	-0.0940439
-0.108898	0.217591	0.143201	0.0632469	-0.0906357	0.168183	0.131251	0.221011	0.128223	0.187551	0.0609682	-0.152569	0.188233	-0.209935	0.153978	-0.136445	-0.0753771	0.20011	0.227645	0.148956	-0.0237285	0.128459	0.172339	0.236366	-0.101765	-0.143537	0.0354981	-0.190169	0.251614	0.185607	-0.092297	0.16129
-0.144943	-0.0400889	0.101631	-0.104071	-0.077842	-0.03682	0.12731	0.0868264	-0.0420878	0.00608293	-0.0856184	0.100749	0.126075	-0.0186233	0.148835	-0.128152	-0.0398412	0.185663	0.0871405	-0.00103318	-0.0309903	0.156768	0.0435203	0.144023	-0.108363	-0.235916	0.11265	-0.0535141	0.0856554	0.105076	-0.167629	-0.111511
-0.150614	-0.147025	0.15492	0.148766	-0.216038	0.114256	0.207092	0.194862	0.17936	-0.0540608	-0.133878	-0.0538469	0.200781	-0.29033	0.0105255	-0.136216	-0.144604	0.24072	0.100459	-0.14333	-0.00756567	0.198912	0.125146	0.144897	-0.119578	-0.205544	-0.0668011	-0.0615949	0.228461	0.143529	-0.21276	-0.106113
-0.0113811	0.0567654	-0.115193	0.0378762	0.0805306	0.145799	-0.0105947	0.0362479	0.0962276	0.000720874	-0.0253781	0.0263772	0.0917624	0.0401334	-0.197079	-0.075901	-0.0351236	-0.104527	0.0929335	-0.0812394	-0.0226295	0.0675744	0.111962	0.0359417	-0.120001	0.0655034	0.0372004	-0.084996	-0.0449129	0.070479	0.134805	0.141682
-0.295505	0.0602727	0.173397	0.0274003	-0.0469933	-0.0867035	0.171551	0.120325	-0.111389	-0.116989	0.232264	-0.0279657	-0.00782055	0.00547665	0.138444	-0.0478325	0.0587242	-0.0748488	0.00318343	0.229925	-0.0571144	0.0190802	0.0326566	0.18263	-0.013291	-0.186115	-0.115303	0.00597475	-0.00932083	-0.0561138	-0.205991	-0.175751
-0.109251	-0.0267563	0.0600515	0.056272	-0.0679174	-0.136294	0.0971867	0.124063	0.0502439	-0.142783	0.0482304	-0.0522386	0.0939177	-0.0774228	0.218369	-0.0348582	-0.0124768	0.0748043	0.0471366	-0.0612031	0.0536042	0.0579098	0.0978962	0.0483143	0.00905086	-0.12222	0.025362	-0.0142208	0.122289	0.0125425	-0.188203	-0.0907875
0.112644	0.100888	-0.0206069	0.189153	0.12932	0.148184	-0.180614	-0.114277	0.204817	0.143052	0.0210225	-0.126213	0.0560721	0.0602349	-0.173249	0.178517	-0.23144	-0.174225	0.116743	0.0632134	0.0681769	-0.104061	0.0703118	-0.0959785	-0.143452	0.19042	-0.0128114	0.148939	0.0752826	0.0381612	0.157806	0.142324
0.300862	-0.116765	0.0337366	-0.056387	-0.0184085	0.0369928	0.00615928	-0.0248039	0.11611	0.0851382	-0.0820492	0.00465362	-0.13358	0.109712	-0.17	0.134172	-0.0159258	-0.0342461	-0.0998132	-0.0198318	0.00923169	0.0727484	-0.0573263	-0.047353	0.106755	0.0465867	-0.0105604	0.116611	-0.0640562	-0.143698	-0.0179817	-0.102354
0.0185323	0.0283421	-0.0266645	-0.0286447	0.0485645	-0.0634208	-0.0601599	-0.0323435	-0.00771077	-0.0637725	0.0744613	-0.0208369	-0.0780614	0.106595	-0.0680889	0.121919	0.0643688	-0.0452279	0.00532833	0.0529454	-0.0382759	-0.0801958	0.0180379	-0.0581159	0.0285444	0.117938	0.00647664	0.0337467	-0.0750424	-0.196713	0.0553406	-0.0778343
0.0516616	0.0551273	0.0542252	0.0485829	0.0155223	-0.0914909	-0.0768912	-0.0249351	0.107365	-0.148375	0.0262123	-0.0623194	0.0962333	-0.0926048	-0.113157	0.0848318	-0.0674204	-0.0244621	0.0183675	-0.0151726	-0.140734	-0.0719797	0.021218	-0.00579825	-0.0428487	0.10619	-0.0160585	0.0865104	0.136557	0.080347	0.00925312	0.00620136
-0.0490156	0.0163126	0.0143256	0.0259166	0.0874636	-0.0104361	0.00916669	-0.134702	-0.0110413	-0.0549466	0.0798382	0.00198052	0.0384567	0.051863	-0.24896	0.0276079	0.00274445	-0.0878551	-0.00596875	0.05511	0.054183	-0.0500644	0.00306293	0.0265795	0.013615	0.000492522	0.067284	0.0627315	0.0244358	0.00996365	0.0507874	-0.00777516
0.234022	0.0748284	-0.164238	0.0983953	0.139481	0.216862	-0.255318	-0.193733	0.150743	0.0943307	-0.0239407	-0.121453	-0.0673773	0.109926	-0.225269	0.128349	-0.093901	-0.00929318	-0.0483042	-0.0880881	-0.157126	-0.183865	0.0499633	-0.271587	-0.0677845	0.19094	0.0915834	0.134529	-0.123753	-0.0222484	0.244236	0.0911295
-0.205983	0.0470428	0.152585	0.140784	-0.171771	-0.2122	0.108571	0.219745	-0.00583643	-0.161159	-0.121571	-0.0133974	0.15306	-0.126475	0.116592	-0.252992	-0.0726942	0.116876	0.181368	-0.0872607	-0.0905196	0.154125	0.0750706	0.163479	0.0043834	-0.298598	0.048805	-0.205137	0.103463	0.115494	-0.182069	-0.0816261
-0.0981328	0.0373498	0.112619	0.163809	-0.0325959	0.170491	0.0228652	0.046629	0.238247	0.212058	0.162959	-0.178599	0.141484	-0.110875	-0.0805188	-0.0613967	-0.0342859	0.085074	0.0264021	0.161637	-0.122085	0.159243	0.145174	0.123538	-0.102099	-0.0118637	0.141666	-0.143252	0.107972	0.142841	0.083273	0.00153609
0.0224685	-0.241042	0.0248537	-0.0588	0.0589875	-0.00351121	0.0561535	0.165505	-0.0437072	-0.0504302	-0.27081	0.0658653	-0.022673	-0.0832371	0.10687	0.0252483	-0.0589624	0.100252	-0.0329737	-0.198395	0.160719	0.0472506	0.00730052	0.011682	0.00900813	0.0272313	-0.0874553	0.075102	0.00421306	-0.0138553	-0.103884	-0.0747617
-0.0365452	-0.0451647	0.0483021	-0.0210768	0.0325711	-0.0730598	0.0582684	-0.00260284	-0.151725	-0.0851934	0.119524	-0.0471319	-0.0449912	-0.00839634	0.12172	0.0462037	0.0357162	-0.118033	0.0358634	0.165675	-0.113725	-0.050467	0.084882	0.113452	0.0932547	-0.0316618	-0.11028	0.0257765	0.00258217	-0.10536	-0.110833	-0.235003
-0.0376476	-0.0075512	0.00552968	-0.0285072	0.0317847	0.0284757	-0.0359865	0.0321813	-0.037545	0.0394306	0.0328139	-0.0390598	-0.00876879	-0.00405687	0.0190131	-0.00919501	0.0281421	0.0125046	0.0357165	0.0213361	0.0468207	-0.0135164	0.010759	-0.0118583	-0.0468925	-0.0414542	0.0344629	0.00284252	-0.0296534	-0.000354679	0.00445062	-0.019616
-0.149384	0.0379367	0.00877049	0.0014844	-0.049739	-0.0967117	0.0802857	0.0692082	0.0883138	-0.0204326	0.0740895	-0.0207902	0.0330876	-0.107377	0.184349	0.0142808	-0.00687957	0.0687439	0.0306985	0.0749714	-0.0285317	0.0490008	0.0515092	0.0487839	-0.108853	-0.0647281	-0.00852714	-0.0169809	0.0101952	0.00824814	-0.0766811	-0.0305936
-0.218309	0.133394	0.193793	0.143202	-0.197526	-0.088123	0.23955	0.252286	0.0675997	-0.0945669	0.0940672	-0.136852	0.174597	-0.202805	0.296983	-0.129508	-0.162992	0.158737	0.200552	0.0383254	-0.0730582	0.197291	0.204992	0.233011	-0.170821	-0.212706	0.10001	-0.196297	0.154993	0.192094	-0.281491	-0.106378
0.036157	0.0894197	0.138025	0.0507258	0.0150838	-0.117325	0.0827759	0.0740365	0.0485914	-0.112813	0.200393	-0.119404	0.103949	-0.045829	0.0696636	0.0613603	-0.0847397	-0.0485791	0.102451	0.266393	-0.0591191	-0.0532667	0.0921647	-0.019457	0.0638827	-0.0157767	-0.0240526	0.0552692	0.0594664	-0.0117605	-0.161605	-0.130096
0.036922	-0.18143	-0.101442	-0.0604476	0.171951	-0.0698186	-0.140761	-0.104329	-0.0907383	-0.169323	-0.221418	0.204984	-0.0942882	0.0820821	0.0123779	0.0916627	0.129219	-0.0327689	-0.18728	-0.158327	0.207245	-0.102856	-0.237666	-0.0262688	0.115978	0.0469804	-0.107969	0.132793	-0.197549	-0.172405	0.123876	0.142272
-0.097087	0.0137512	0.164246	-0.0832474	-0.0207065	-0.0216135	0.0622927	0.075588	-0.0192028	-0.0577329	0.156435	-0.00811463	0.0362674	-0.059246	0.0477233	0.126708	0.0500299	0.074295	0.0196023	0.0547634	-0.0451684	0.0915808	0.103158	0.115268	-0.0453673	-0.0381302	-0.0631837	-0.0676986	0.121045	0.103806	-0.174328	-0.217108
0.0501809	-0.129906	-0.00291171	-0.0466108	-0.00665349	-0.164213	0.0632385	-0.0478498	-0.0820587	-0.102743	-0.128396	0.0574157	-0.0502951	0.00818945	0.211423	0.0137082	0.0902041	-0.0274892	-0.0790973	-0.0818212	0.105909	0.00341881	-0.107609	-0.0504353	0.0620687	-0.0266835	-0.108244	0.089697	-0.0246565	-0.130433	0.0121396	-0.168087
0.123318	0.252838	-0.0313112	0.191027	0.220281	0.124009	-0.21638	-0.22986	0.256118	0.172754	0.184139	-0.268877	0.0245614	0.129965	-0.319466	0.233581	-0.163585	0.0743565	0.0519248	0.0869131	-0.133688	-0.23759	0.209917	-0.242191	-0.101177	0.251957	0.07351	0.14655	0.134256	-0.0597546	0.307468	0.155836
-0.080294	-0.101425	-0.0652161	-0.0487195	0.0686682	-0.100266	-0.00850769	0.0766109	-0.0727808	-0.109249	-0.0731613	0.126962	0.0572668	0.0565722	0.106083	-0.0419024	0.1395	-0.0287104	0.0129171	-0.0113957	0.0931953	0.0483526	0.00814584	0.00530147	0.00673502	-0.0354413	-0.0479212	-0.0901515	-0.107113	0.0628591	-0.0113625	0.111037
0.0099534	-0.0505844	0.147674	-0.081014	-0.0497881	-0.196493	0.246585	0.256157	-0.126503	-0.0836337	0.0168872	-0.0574479	-0.0490402	-0.0057842	0.194586	0.0952425	0.119472	0.267776	-0.0598426	0.106439	0.00767403	0.251026	0.073982	0.164686	-0.0216222	-0.15897	-0.101809	-0.00387093	0.0981919	-0.0540357	-0.351124	-0.283715
-0.258494	0.0284905	0.279172	-0.00161315	0.0954723	0.0114636	0.124428	-0.0276697	-0.0188423	-0.101011	0.203038	-0.105356	-0.0453512	0.0971242	0.0194303	0.0830206	0.0492679	-0.0957974	0.0861581	0.271353	-0.190997	-0.161214	0.164363	0.2227	0.121674	-0.220253	0.255213	0.0453399	-0.0398015	-0.00742162	-0.148956	-0.182934
0.114352	-0.109256	0.109382	-0.108449	0.0824229	-0.215759	0.029745	-0.0621121	-0.141484	-0.0948838	0.0129167	-0.0537857	-0.0881263	0.0795246	0.185409	0.146913	0.0712528	-0.043817	-0.144972	0.111209	0.00928404	-0.0406234	-0.028044	-0.000350817	0.0790558	-0.0649986	0.0216454	0.145246	-0.0378812	-0.0929672	-0.175998	-0.260666
-0.00456654	-0.0959358	-0.0931302	-0.0616083	0.0317837	-0.0340021	-0.0654761	0.0221854	-0.0680987	-0.127614	-0.173375	0.140299	-0.0367501	-0.0171134	0.0342207	-0.103454	0.0739778	0.0264331	-0.040498	-0.0421276	0.164451	0.0433641	-0.107106	-0.0143547	-0.0143602	-0.0168465	-0.0948132	-0.0957247	-0.0133238	-0.0496671	-0.0578112	0.0572833
-0.00150363	-0.0543559	0.106232	-0.0462169	-0.112725	-0.12488	0.210598	0.152251	-0.0938534	-0.258938	-0.224657	0.101032	0.086432	0.0285313	0.140791	-0.136728	0.0552074	0.177119	0.0322754	0.0551529	0.0379704	0.19171	0.0413944	0.0711002	0.0683933	-0.172601	-0.0239376	-0.0502631	0.0062755	-0.0702812	-0.178891	-0.130573
-0.255208	-0.018331	0.179816	-0.115515	-0.0217573	-0.102359	0.0801005	0.0827741	-0.0614157	-0.0508801	0.192586	0.0229188	0.0112134	0.0912731	0.21295	0.0253767	0.122317	-0.0987831	-0.0165002	0.198575	-0.217182	0.15339	0.0783909	0.144109	0.0295199	-0.268992	0.0357674	0.0863299	0.0749092	-0.13069	-0.21796	-0.317165
0.143836	-0.137254	-0.0786268	-0.200275	0.0270471	-0.0581373	-0.0653785	-0.0341164	-0.0987108	-0.161232	-0.132049	0.12496	-0.133033	0.112028	0.0778604	0.103967	0.148955	-0.0496031	-0.159845	-0.0872783	0.0102921	-0.0656524	-0.0704352	-0.110161	0.121058	0.0233439	-0.152337	0.160892	-0.116069	-0.163953	0.0567222	-0.101214
-0.0272775	-0.129543	-0.00523981	-0.15938	-0.0070974	-0.0666987	0.0463675	0.0792417	-0.175084	-0.0722076	0.000534649	0.180534	-0.122623	0.166803	0.0915126	-0.0274941	0.0591922	-0.123544	-0.111355	-0.0751448	0.0692165	-0.0546283	-0.0796794	-0.0490257	0.0570903	-0.0679306	-0.0691722	0.125768	-0.144729	-0.223737	-0.12298	-0.0605486
-0.122228	-0.0869103	0.0451837	-0.0263105	-0.164755	-0.0564215	0.121476	0.0814624	-0.0776064	0.10232	-0.0842636	0.0608717	0.0898668	-0.182875	0.152224	-0.24641	-0.0117433	0.0823896	0.000545809	-0.0832111	0.0786824	0.0699439	-0.0413622	0.0604143	0.0401264	-0.212341	-0.0571533	-0.165164	0.0161402	0.072885	-0.0589762	0.0501668
0.174304	-0.0878664	-0.38402	-0.121639	0.268366	0.0561642	-0.243411	-0.204871	-0.0695805	0.101267	-0.180969	0.123327	-0.0950096	0.264026	0.0432813	0.0668972	0.125624	-0.0865554	-0.151684	-0.270349	0.0523713	-0.138514	-0.140688	-0.258585	-0.0592499	0.0245176	-0.0248048	0.22764	-0.326002	-0.237584	0.167867	-0.0417128
-0.215991	-0.0112751	0.196839	0.0718243	-0.160902	-0.108932	0.192189	0.132063	0.0603328	0.0591463	0.134024	0.0256742	0.0822893	-0.100209	0.0715051	-0.0864018	-0.0117329	0.17246	0.110204	0.0513035	0.068981	0.166584	0.0696597	0.120326	-0.0750783	-0.252668	-0.00136042	-0.144061	0.170211	0.127661	-0.240483	-0.092762
0.0043427	-0.0516394	0.181106	-0.0578873	0.0805889	-0.25131	0.0927711	0.166907	-0.160801	-0.0972753	0.292382	0.0902539	-0.133208	0.192855	0.152524	0.105383	0.13189	0.0203183	-0.0634245	0.227366	-0.148048	0.027512	-0.0258012	0.0734506	0.237316	-0.0948542	0.0417251	0.16925	-0.055425	-0.185023	-0.290787	-0.279647
-0.00798445	-0.116765	0.0748353	0.138056	-0.0190795	0.0702188	0.064296	0.199314	0.0868022	-0.122254	-0.170008	-0.0914192	0.0375358	-0.0213212	-0.033963	0.00359903	-0.195684	0.0538913	0.0480895	-0.12084	0.0801708	0.0415235	0.153214	0.105512	0.0377094	-0.0257805	-0.0303873	0.00846246	0.0661099	0.106639	-0.115553	-0.139086
0.0691084	-0.0878442	0.0378751	-0.0341137	-0.00905424	-0.116962	0.0113319	0.0327526	0.0393063	-0.0794275	-0.070236	0.0781105	0.03971	0.00839271	-0.0255562	0.0608409	0.0143683	0.0551607	0.00239006	0.022685	0.0800173	0.0153502	-0.0010511	-0.0538588	0.0125734	-0.0195935	-0.0651353	0.0392042	0.0515325	-0.0701604	-0.0669959	-0.0839335
0.0115349	-0.0925484	-0.02625	-0.0431246	-0.0562614	-0.0661822	0.00245507	0.0550329	-0.0691746	-0.107491	-0.246303	0.0704775	-0.045297	0.00563102	0.0312718	-0.0503183	0.0268226	0.0451823	-0.0412787	-0.234067	0.0896469	0.031626	-0.0601328	-0.0333765	-0.0234289	0.019613	-0.0391008	-0.0353821	-0.0534098	-0.100566	0.0529271	0.108897
-0.228835	0.0143613	0.0323154	-0.139705	0.0283208	-0.0220981	0.0759694	-0.0189236	-0.209538	-0.0475185	0.0892094	0.132764	-0.0560728	0.125934	0.176369	-0.0886417	0.173226	-0.13881	-0.0614161	0.0383685	-0.0390597	-0.0461872	-0.0496994	0.106194	0.0301894	-0.187814	0.0151233	0.0046699	-0.0667449	-0.079791	-0.157941	-0.0569774
0.0273763	-0.098855	0.046729	0.0270558	-0.107907	0.0959842	-0.00315759	0.0737242	0.0652688	0.00783019	-0.2158	0.0398233	0.0745878	-0.150291	-0.0744581	-0.219516	-0.115849	0.0532706	0.0560424	-0.225893	0.229587	0.146977	-0.0560756	0.0501269	-0.021706	-0.0890213	-0.0409646	-0.0906499	0.0660332	0.0315043	-0.0878093	0.00391053
-0.0139736	-0.0525999	0.0157898	-0.113031	0.0859078	-0.106943	-0.14674	-0.0789022	-0.0126682	-0.141423	0.150956	-0.113498	-0.0459225	0.193966	0.0326041	0.235929	0.066569	0.053606	-0.0312777	0.219002	-0.197745	-0.115062	0.0664144	-0.0273179	-0.0810118	0.123338	0.00813328	0.18951	-0.0478304	-0.203834	0.0572262	-0.201714
0.043506	0.0567375	0.0131491	0.0964752	0.0266403	0.096657	-0.0164175	-0.048399	0.138987	-0.0435124	0.0660992	-0.085782	0.113925	0.0636702	-0.161581	0.0577564	-0.111998	0.0540317	0.0937396	0.0727222	0.0101314	-0.0171385	0.0694912	-0.0319644	-0.0460475	0.092406	0.00966293	0.072571	-0.0357416	-0.0634844	0.124792	-0.0167523
-0.12414	0.0807132	0.0234871	0.124043	-0.0951805	0.0326614	0.0362876	0.0829868	0.148204	0.164943	-0.00154043	-0.0741977	0.0970884	-0.138347	0.000438873	-0.12809	-0.10939	0.0916869	0.0747089	-0.0598506	0.0536927	0.0486443	0.00818452	0.0833504	-0.19532	-0.0475312	0.0875116	-0.151812	0.0839975	0.173932	-0.0432459	0.147168
-0.123279	0.0880366	0.186572	0.13955	-0.151838	0.0473562	0.221241	0.181515	0.152753	-0.0337603	-0.00982453	-0.147031	0.110791	-0.132644	0.081198	-0.181976	-0.146912	0.189985	0.204086	0.161456	-0.0667832	0.175637	0.215905	0.122304	-0.115868	-0.189841	0.111381	-0.217766	0.129367	0.126704	-0.163751	-0.129106
0.0428941	0.00152376	-0.0299859	0.0367377	-0.0339622	-0.00700994	0.0254594	-0.0148234	-0.0067852	0.0217694	-0.00630156	0.019687	0.0491911	0.00402007	0.0834188	0.00340323	-0.00482266	0.0506507	0.0337822	-0.160283	-0.0778885	-0.0427428	-0.0711916	-0.173948	-0.214995	-0.044373	0.0221668	0.09311	-0.148716	-0.0753784	0.0499983	0.0106689
-0.1265	0.00563956	0.126416	0.126044	-0.0424453	-0.060655	0.137122	0.0149121	0.00582425	-0.100913	0.0851514	-0.0381752	0.0511549	-0.167359	0.244891	-0.0373046	-0.0187223	0.0569398	0.0980157	0.112739	-0.0295314	-0.0305031	0.0872946	0.135839	-0.113452	-0.221417	0.0508769	-0.0773466	0.0593137	0.0665482	-0.218825	-0.0801966
-0.0714523	0.0103777	-0.125864	-0.0922999	-0.00572184	0.106265	-0.0477607	-0.0318014	-0.0238031	-0.00100527	-0.0708742	-0.000698349	0.0352576	-0.0352804	0.135299	-0.127688	0.0967497	0.147254	-0.127905	-0.100589	-0.00787416	-0.0520677	-0.14077	-0.118524	-0.0335347	-0.0163008	-0.0320039	0.040951	-0.0437857	-0.0852822	0.0933014	0.217182
-0.142208	0.0886503	0.170399	0.119242	-0.190914	0.00941475	0.167808	0.125232	-0.0234102	-0.0283949	-0.110959	-0.0558829	0.153511	-0.126838	0.0956823	-0.184181	-0.0411915	0.144584	0.123362	-0.00269644	0.118508	0.163971	0.112327	0.144313	-0.0857723	-0.166856	-0.0603419	-0.179143	0.140343	0.140322	-0.194831	-0.0535253
0.0144654	-0.103095	-0.0420885	-0.123952	0.00117073	-0.000763646	-0.0200135	0.00709869	-0.0565468	0.0709746	0.0958307	0.0701739	-0.0375397	0.0766576	0.0422437	0.0463387	0.0872018	-0.115356	-0.0985751	0.0348038	-0.0285423	0.0683835	0.0205259	-0.016369	0.0179725	0.00443818	0.0333906	0.0084084	0.000475406	-0.0825607	-0.0325808	-0.0443844
-0.134731	0.109504	0.120266	0.119611	-0.140877	0.0674575	-0.012741	0.112428	0.131603	0.0337622	0.174424	-0.0496574	0.16686	-0.0846229	0.106211	-0.112017	-0.106407	0.113085	0.107886	0.0842741	-0.0767818	0.0845939	0.100366	0.107042	-0.125156	-0.071774	0.0288845	-0.111066	0.09866	0.100484	-0.0798512	0.0895038
0.0460885	0.185866	0.160007	0.0458868	-0.0196192	-0.0271997	-0.0962642	-0.0267795	0.0185142	-0.0443449	0.169387	-0.159456	0.0771163	-0.00265927	-0.0683787	0.0522102	-0.147334	0.0392799	0.123942	0.143549	-0.282858	0.121357	0.204737	0.0319838	-0.0869682	0.0685749	0.0927742	0.12123	0.178207	-0.0215517	-0.0178925	-0.0743183
0.0593577	-0.0161604	-0.0760479	-0.0219919	0.027991	-0.0582069	-0.0521877	-0.0281336	-0.0807767	-0.00132323	-0.0138076	0.0773352	-0.0441048	0.0508361	-0.0274623	-0.0408341	0.0560295	-0.105805	0.021785	-0.0464159	0.0994758	-0.13967	-0.0284706	-0.0569688	0.0576146	0.037298	-0.0438673	0.0321317	-0.0113031	-0.030457	0.132643	0.22623
-0.132807	0.214111	0.134973	0.0067172	-0.0531638	-0.0669708	0.0647652	-0.028762	-0.0448178	-0.055107	0.165415	-0.0873743	0.127609	0.075145	0.0185504	-0.0122005	-0.0368437	-0.020338	0.0692699	0.236168	-0.168703	-0.0296987	0.209156	0.0779005	0.0093168	-0.0445993	0.0860453	-0.0453703	0.0253909	-0.0197447	-0.106586	-0.0837328
0.0651102	-0.0240651	-0.125871	-0.0951496	0.0225297	0.103651	-0.147358	-0.116057	-0.0588598	0.105795	-0.118139	0.0490283	-0.0307588	0.122869	-0.0435717	-0.0927805	0.0142212	-0.153104	-0.119058	-0.0458064	0.082806	0.0253315	-0.0807842	-0.0732453	-0.027643	0.114922	0.0942374	-0.0922433	-0.108211	-0.083102	0.164356	0.22171
-0.193689	-0.0325656	0.147584	0.099726	-0.0182985	0.0731113	0.0813326	0.124097	-0.0381071	-0.0633112	0.171327	-0.00581741	0.0704727	0.0216641	0.124031	-0.0213294	0.0079393	-0.0467043	0.154028	0.121315	-0.182873	0.120004	0.198729	0.18915	-0.0107159	-0.279527	0.0491103	-0.0888641	0.0568362	-0.0220434	-0.0859615	-0.184559
0.0398545	-0.217771	-0.1174	-0.217445	0.0319756	-0.0961135	0.0086145	0.00248901	-0.296	-0.114017	-0.0724747	0.221635	-0.249828	0.155319	0.188576	0.0400393	0.231114	0.037881	-0.178425	-0.122301	0.0623948	0.0302621	-0.191187	-0.0865415	0.128494	-0.0652149	-0.0508516	-0.0107154	-0.157424	-0.16869	-0.0319525	-0.0171084
-0.106733	0.0996513	0.0455802	0.217238	-0.107752	0.191004	-0.00388735	0.0371238	0.203663	0.142546	-0.0631132	-0.208449	0.133845	-0.0668076	-0.232702	-0.0215046	-0.236643	0.114061	0.081072	-0.020573	-0.135341	0.0567326	0.163556	0.0275113	-0.171599	0.0556515	0.161984	-0.0559747	0.0341753	0.0354384	0.0997273	-0.0185296
0.0314805	-0.00678668	0.00654701	0.107826	-0.0850353	0.0489049	0.0280461	0.0407554	0.19398	-0.0399524	-0.0576795	-0.0939617	0.0789829	-0.0367565	-0.259182	-0.0032998	-0.166602	0.108278	0.0930486	-0.028163	-0.0335224	0.109542	0.122963	0.102368	-0.181423	-0.00892637	0.0432941	-0.127262	0.0995179	0.201633	0.00242531	0.104508
-0.0141118	-0.0694145	-0.191906	-0.184469	0.0976805	0.163105	-0.00943513	0.04523	-0.106982	0.135501	-0.120152	0.165897	-0.147162	0.0606979	0.0780586	-0.0717478	0.165222	-0.109465	-0.142601	-0.176299	-0.000741825	-0.0442339	-0.139245	-0.184924	0.132906	0.047701	-0.054933	0.0557453	-0.150914	-0.00169967	0.158609	0.0730982
0.0357202	-0.036537	0.00449043	-0.100547	-0.0193367	0.0147788	0.0366877	0.110135	-0.0150689	-0.00841144	-0.157434	0.0123538	-0.0132929	0.106078	0.159102	0.00265862	0.0178413	0.0805988	-0.0228826	-0.0866992	0.0258342	0.053339	0.0304684	0.0551243	-0.000710045	-0.113725	0.0155842	-0.0715877	0.0413746	0.0454407	-0.0858448	-0.117269
0.106454	-0.124657	0.034004	-0.0878881	-0.0931081	-0.183095	0.120829	0.154411	-0.134566	-0.211076	-0.00239176	-0.0418726	-0.106887	0.0172347	0.219791	0.135732	0.072345	0.0955217	-0.109963	0.0435733	0.0971069	0.180795	0.00126571	0.0939681	0.0484604	-0.16281	-0.0796752	-0.0384818	-0.0676042	-0.101904	-0.237899	-0.210071
0.111011	-0.0768505	-0.175678	0.0120646	0.0739651	0.143838	-0.0671354	-0.0646148	0.0115604	0.0400561	-0.117408	0.0293159	0.0134331	-0.0982035	-0.0926261	0.026273	-0.00525013	0.13103	-0.0779781	-0.265971	0.188005	-0.0185466	-0.0248262	-0.0742491	-0.116083	0.102256	-0.01529	-0.005956	-0.0918568	0.0196781	0.151831	0.147785
0.0471622	0.0556101	-0.107351	0.0774281	0.126844	-0.0650116	-0.0593272	-0.0593023	0.058971	-0.0756083	0.148201	-0.081319	-0.0536594	-0.0724977	-0.0992212	0.152659	-0.0215089	0.156976	0.0423738	0.162598	-0.162095	-0.0795078	0.0411634	-0.134102	-0.104443	0.0923897	0.0918673	0.0616205	-0.0132851	-0.224238	-0.0494325	0.0627546
-0.0401306	-0.0143784	-0.0384352	0.0889555	-0.0987346	0.10823	0.0251718	-0.0140173	0.13066	-0.0118601	-0.052163	0.0740154	0.0220457	-0.0994819	0.00121781	-0.274974	-0.00612699	-0.0261544	0.00867249	-0.120855	0.0285126	-0.133438	0.0105025	-0.0693006	-0.0867441	-0.0865552	0.183748	-0.116421	-0.0156728	0.0387185	0.147893	0.176265
-0.16649	0.206141	0.171376	0.186582	-0.140185	0.0228264	0.188614	0.143779	0.0633291	-0.0266407	0.132197	-0.119433	0.209924	-0.154681	0.168931	-0.136224	-0.14674	0.123552	0.157482	0.159203	-0.160272	0.132371	0.190819	0.194415	-0.164819	-0.171151	0.19033	-0.198699	0.137523	0.204673	-0.191003	0.0497187
0.0646252	0.0778303	-0.200342	0.136696	0.138393	0.202976	-0.0747664	-0.134486	0.119485	0.220813	-0.0187174	0.035206	0.0185073	-0.0865276	-0.126936	-0.0412071	-0.0091637	0.0261974	-0.00823768	-0.110939	0.0804707	-0.15683	-0.0382118	-0.197497	-0.202343	0.0162666	0.101662	-0.0936636	0.03924	0.191216	0.186291	0.18685
0.0635258	0.089287	-0.256105	-0.167006	0.0685514	0.22126	-0.000323516	-0.138909	-0.0839844	0.124352	0.0283528	0.116885	-0.10671	0.00490562	-0.078531	0.0529784	0.222344	-0.186651	-0.189809	-0.127439	0.183624	-0.140655	-0.141632	-0.1496	0.0936497	0.158282	-0.0879675	0.0223951	-0.145442	-0.0448909	0.235372	0.233379
0.228996	-0.156794	-0.236346	-0.221585	0.115438	-0.0803363	-0.0693917	-0.0301149	-0.19451	-0.00156877	-0.215386	0.193691	-0.201366	0.110845	0.154306	0.00821301	0.221637	0.0231713	-0.266422	-0.137121	0.0894604	0.0699903	-0.208481	-0.114679	0.17303	0.157223	-0.121658	0.226349	-0.26329	-0.24859	0.0316243	0.0657903
-0.0392629	0.108433	0.185969	0.0930047	-0.0564186	-0.0314358	0.0134547	-0.0081093	-0.0231316	-0.163876	0.0948021	-0.0585221	0.0552113	0.0680836	0.0647708	-0.0587253	0.00653565	-0.103662	0.0870948	0.233821	-0.249537	-0.0579868	0.0721569	0.103289	0.0384549	-0.10608	0.0686256	0.0583351	-0.0258498	-0.0506402	-0.0552504	-0.130173
-0.01378	-0.186201	0.101478	-0.04898	-0.130195	-0.163967	0.0829044	0.188534	-0.00158914	-0.0715559	0.0289341	0.0866275	-0.0128717	-0.0323718	0.014195	-0.0048582	0.0910651	-0.0774246	-0.0579257	0.0920617	-0.0793377	0.0455231	0.079853	0.0285908	0.0443993	-0.0901915	-0.124634	0.103607	0.132177	0.0136826	-0.133212	-0.265715
0.0154328	-0.151998	-0.00298592	-0.174601	0.0236148	-0.143945	0.112586	0.121252	-0.163253	-0.0231283	0.0301191	0.131017	-0.0855798	0.0562354	0.160403	-0.0648804	0.162344	-0.0818797	0.0127029	0.0380273	-0.0632048	-0.0207528	-0.0795603	-0.0370004	0.202036	-0.148216	-0.139971	0.0708341	-0.0471593	-0.16473	-0.136452	-0.050004
-0.0838345	0.140171	0.214639	0.187239	-0.184858	-0.108066	0.126938	0.208378	0.205016	-0.0242649	-0.0651722	-0.145814	0.233875	-0.273075	0.0573803	-0.19526	-0.149379	0.233567	0.252908	0.0588818	0.032307	0.24441	0.202993	0.178611	-0.052311	-0.167412	-0.0156342	-0.198877	0.267067	0.262957	-0.235714	-0.161812
-0.224264	0.0462082	0.2887	-0.136985	-0.0834245	-0.107687	0.180144	0.119292	-0.229549	-0.152445	0.155191	-0.119598	-0.188285	0.200424	0.141129	0.170832	0.208256	-0.0422042	-0.0280015	0.168346	-0.0951072	-0.0324105	0.102625	0.0380037	0.209677	-0.238978	0.184553	0.188191	0.0361892	-0.102803	-0.142085	-0.254874
-0.123015	-0.102205	0.0951353	0.137146	-0.149049	-0.00456855	0.154061	0.225338	0.131907	-0.155876	-0.206859	0.0426841	0.114702	-0.118115	-0.0378702	-0.176562	-0.0200589	0.0738463	0.114067	-0.244325	-0.0251918	0.186926	0.0374972	0.0897821	-0.0516904	-0.0455787	0.000337384	0.0247325	0.0852665	-0.0115848	-0.0708161	-0.137904
0.221579	0.205315	-0.200361	0.217565	0.139256	0.154509	-0.266738	-0.224144	0.297204	0.272236	0.0895512	-0.18104	-0.103395	0.266862	-0.333277	0.206178	-0.185267	-0.267836	0.0617501	0.0102634	-0.100561	-0.154202	0.0739759	-0.0651187	-0.0906226	0.236894	0.221823	0.202643	-0.169836	-0.0890701	0.232165	0.252814
0.0177934	-0.0926531	-0.193461	-0.181999	0.129026	0.219947	-0.0850181	-0.154659	-0.152082	0.200668	-0.0950919	0.123936	-0.163468	0.0791381	0.0574308	-0.113191	0.172224	-0.0154758	-0.229726	-0.24493	0.0832619	-0.127211	-0.203223	-0.207753	0.0372167	0.131767	0.0216961	0.000408777	-0.207972	-0.0432389	0.249265	0.241148
-0.00390977	-0.0650721	-0.15563	-0.0648869	0.0358997	0.231904	-0.134643	-0.0733016	-0.0835145	0.117762	-0.0832538	0.0996572	-0.0446939	-0.0817348	-0.124557	-0.0434367	0.0932537	-0.148441	-0.0900787	-0.1184	0.139657	-0.0420178	-0.0548542	-0.16336	-0.0684279	0.100072	-0.022043	-0.11805	-0.0983011	0.0450489	0.240851	0.169681
-0.041838	0.212049	0.169517	0.206204	-0.0587037	0.261312	-0.148556	0.0169848	0.147502	0.0876973	0.0100212	-0.204187	0.175563	-0.0787261	-0.215589	-0.187226	-0.253318	-0.0481897	0.165881	0.0322281	-0.105458	0.0139455	0.146893	0.0460091	-0.0769585	0.034443	0.177661	-0.061786	0.107574	0.167137	0.0437411	0.311065
0.250532	0.00336598	-0.0812033	-0.0283789	0.260856	0.105933	-0.325396	-0.244157	0.0193087	0.0175651	-0.0750671	-0.076737	-0.157143	0.172334	-0.243748	0.250012	-0.0172727	-0.207939	-0.129523	-0.038069	-0.0590526	-0.242527	-0.0848356	-0.245257	0.10596	0.273514	-0.0504971	0.149402	-0.0547941	-0.169819	0.267577	0.103514
-0.188518	0.0687225	0.154477	0.214628	-0.135704	0.147073	0.153682	0.0706048	0.239699	0.0500362	0.0504365	-0.299331	0.231356	-0.244153	0.0628829	-0.176432	-0.208238	0.337748	0.238063	-0.0413957	0.0571555	0.260103	0.176987	0.17182	-0.32926	-0.180424	0.152862	-0.2153	0.242305	0.24176	-0.101621	0.0098415
0.189445	0.244566	0.0263378	0.124301	0.159106	0.193939	-0.163478	-0.219034	0.154701	0.233291	0.178284	-0.173497	-0.0461129	0.0547953	-0.230205	0.212362	-0.13907	-0.0329767	0.0319169	0.258092	-0.190674	-0.161884	0.116545	-0.165074	-0.140426	0.210527	0.224797	0.174414	0.0719383	-0.03653	0.235467	0.0078288
-0.0137459	0.0609094	0.162968	0.0421204	-0.158707	0.00525747	0.113588	0.123462	0.151339	-0.0553425	-0.106901	-0.0918021	0.178075	-0.0565532	0.169176	-0.124996	-0.0936608	0.072846	0.108178	-0.0396045	-0.131356	0.170235	0.0717377	0.0666827	-0.00503197	-0.153081	-0.0223903	-0.071743	0.122538	0.139925	-0.185334	-0.135652
0.175936	0.139467	0.0387281	0.12178	0.209245	0.0595687	-0.101611	-0.218613	0.176439	0.00227048	0.188787	-0.26694	-0.0719019	0.0853891	-0.165545	0.320655	-0.136472	0.0307239	-0.030511	0.21238	-0.0811172	-0.244511	0.156588	-0.182338	-0.0886468	0.241225	0.148084	0.313733	0.0530676	-0.103457	0.195693	0.0855132
0.0696595	-0.00822028	-0.0407625	-0.0479385	0.026184	-0.0293765	-0.080625	-0.106662	0.0450256	0.011574	-0.146034	-0.0149469	-0.0456708	0.068188	-0.0798076	-0.0434691	0.0502687	-0.09782	-0.0764139	-0.117318	0.147668	-0.130798	-0.0827823	-0.148577	-0.0809351	0.0663806	0.0736668	0.0710543	-0.0999414	-0.123641	0.0601596	-0.0596703
0.160574	-0.102073	-0.299647	-0.240619	0.221915	0.0517782	-0.187555	-0.203935	-0.0980769	0.060975	-0.193992	0.196829	-0.192655	0.183786	0.0200545	0.00526959	0.100007	-0.213278	-0.230414	-0.256669	0.119241	-0.0699263	-0.283266	-0.258823	0.0342224	0.290347	-0.0654041	0.167461	-0.330788	-0.213641	0.263755	0.221221
-0.241469	0.0933491	0.208189	0.159836	-0.29158	-0.0203694	0.311867	0.343266	0.00652041	0.0596033	-0.0139237	-0.22137	0.224811	-0.266492	0.328243	-0.238669	-0.114429	0.295534	0.162328	0.0730578	-0.040204	0.36841	0.125217	0.233353	-0.174379	-0.276168	0.0609412	-0.217864	0.249156	0.174918	-0.296548	-0.0652826
-0.00893893	0.130537	-0.0679342	0.0661464	0.0623631	0.119069	-0.158873	-0.136946	-0.000268288	0.0686015	-0.0802584	0.00387745	0.0599042	-0.067477	-0.170105	-0.0721205	0.0128707	0.0440327	-0.0613536	-0.116638	0.118685	-0.0504581	-0.0850996	-0.114097	-0.0944644	0.0849882	-0.0211819	-0.165126	0.0133056	0.109087	0.20908	0.174174
-0.0269408	-0.0290567	-0.0327424	-0.0129774	0.00353539	-0.127408	-0.0517276	-0.0310455	0.040992	-0.0846116	-0.0633358	-0.0158866	-0.0791809	-0.00370982	0.203409	-0.0105047	0.0732521	-0.0434422	-0.0181431	-0.129303	0.0874685	-0.0870547	-0.0591038	-0.00887973	0.0112501	-0.0205845	-0.0838395	0.0719738	-0.00120762	-0.0655516	0.055508	-0.102061
0.0626565	-0.0837847	-0.0634752	-0.029099	0.0488228	-0.200155	0.0998749	0.0935144	-0.198491	-0.0433822	-0.120284	0.0752221	-0.130199	-0.00654593	0.300785	0.103648	0.133338	0.0494528	-0.112484	-0.123653	0.145065	-0.039412	-0.0955792	-0.0999786	0.0674204	-0.0830826	-0.200798	0.0956236	-0.043765	-0.0735584	-0.227504	-0.0911298
0.0919906	-0.0551555	-0.0332858	-0.000374375	0.107905	0.0107839	-0.166024	-0.149977	-0.0244004	0.0496556	-0.0600373	0.0668936	-0.0983503	0.152489	-0.389116	0.0820579	0.0856178	-0.133503	-0.0863148	-0.107806	-0.00821757	-0.155629	-0.105393	-0.102981	0.0741511	0.168721	-0.00549195	0.0863962	-0.0861342	-0.125845	0.30075	0.0400957
0.00950497	0.169213	-0.00462383	0.150331	0.111021	0.196459	-0.140411	-0.218341	-0.000345823	0.181684	0.173722	-0.148186	0.00225071	0.0362838	-0.110105	0.110461	-0.0724448	-0.17529	0.00901616	0.0945938	-0.10529	-0.0843409	0.104987	-0.065608	0.00983174	0.0866129	0.0777343	0.0323933	0.0278934	0.0268874	0.15415	0.191148
-0.152304	0.107987	0.213181	0.0817074	-0.153512	0.147162	0.233172	0.233663	-0.000803252	0.0821306	0.135584	-0.0874699	0.155839	-0.190359	-0.00947719	-0.0893498	-0.11118	0.0791017	0.140827	0.179319	-0.145377	0.155403	0.122117	0.172304	-0.0303081	-0.164548	0.0848122	-0.118734	0.102572	0.0993604	-0.0638381	0.10081
-0.231591	0.0873856	0.211455	0.183121	-0.0993741	0.110901	0.190366	0.11362	0.126878	0.00830754	0.18009	-0.193993	0.164418	-0.152527	0.0466084	-0.196115	-0.12681	0.138554	0.193713	0.198813	-0.0811158	0.203165	0.144885	0.273144	-0.14434	-0.183704	0.197803	-0.196208	0.200422	0.175638	-0.234142	0.0283288
-0.0270898	0.0232306	0.12732	0.113118	-0.0713311	0.0166995	0.137112	0.148351	0.0147646	-0.0949004	-0.0723663	-0.0528919	0.155027	-0.188114	0.102935	-0.112971	-0.136356	0.13572	0.118042	-0.00348152	0.10212	0.167811	0.156999	0.11298	-0.0545092	-0.182131	-0.03178	-0.143918	0.118609	0.159458	-0.159017	0.0248719
0.079471	-0.0446262	-0.26024	-0.116515	0.215281	0.0517736	-0.21186	-0.183734	-0.127367	0.0102562	-0.133876	0.193296	-0.174896	0.149967	-0.0790387	-0.034894	0.0524849	-0.0431992	-0.219743	-0.188404	0.109279	-0.174704	-0.181093	-0.185427	0.08407	0.15009	0.000576182	0.17964	-0.165858	-0.138824	0.160657	0.232487
0.0561418	-0.0342899	-0.182837	-0.145817	0.250868	0.226738	-0.124975	-0.202626	-0.128806	0.163155	-0.100175	0.113812	-0.141058	0.0683749	0.0251643	-0.0739937	0.0932218	-0.211697	-0.217788	-0.0915843	0.193604	-0.160011	-0.204712	-0.183324	0.16246	0.197152	-0.029148	-0.0304518	-0.100134	-0.0617713	0.124215	0.222649
-0.19033	0.0505905	0.312493	0.180074	-0.145489	-0.0128385	0.0994248	0.195953	0.113054	-0.130386	0.0401149	-0.0896249	0.339005	-0.211639	0.040552	-0.194141	-0.15945	0.182232	0.320083	0.0191471	0.0159978	0.0868344	0.230357	0.175438	-0.0323962	-0.0934126	0.0555537	-0.156349	0.276776	0.28347	-0.0994136	0.0176499
0.098084	-0.297668	-0.1588	-0.227305	0.0290511	-0.059534	0.0458054	0.143505	-0.232872	0.135862	-0.182971	0.225614	-0.191554	-0.102161	0.176973	0.0422219	0.280601	0.101664	-0.275077	-0.183465	0.123613	-0.0331492	-0.265732	-0.113074	0.12752	-0.0367529	-0.145532	0.144358	-0.231184	-0.241729	-0.0201219	0.0263208
0.0786301	0.0430286	-0.101553	-0.0659277	0.0466955	0.0956096	0.00306632	-0.0524402	-0.133899	0.0506821	-0.031715	0.124686	-0.0518443	0.0235954	0.0555383	-0.0488702	0.0114883	-0.0186034	-0.0598348	-0.0549493	0.0559328	-0.0642899	-0.0947919	-0.0744148	-0.0211755	-0.0667669	-0.0261488	-0.0371394	-0.0412212	0.0259524	0.0538314	0.136864
-0.0733049	0.171124	0.0666259	0.178994	-0.0330498	0.0520946	0.0110938	0.0161619	0.120402	0.142137	0.0977307	-0.133332	0.167523	0.00146056	-0.013678	-0.0780466	-0.133869	0.0649218	0.166554	0.0777616	-0.099793	-0.0342547	0.0687405	-0.0294299	-0.122184	-0.0177003	0.0914032	-0.0530926	0.0602275	0.111288	-0.0227664	0.0492713
0.121963	-0.120275	-0.192751	-0.176799	0.0786244	-0.118488	-0.0570378	-0.18646	-0.110426	0.0206625	-0.145535	0.145626	-0.146975	0.110799	0.0905874	0.0759048	0.151786	-0.0419174	-0.153855	-0.187254	0.0640583	-0.13773	-0.129882	-0.114825	0.112447	0.0942532	-0.0335153	0.123316	-0.0951768	-0.140836	0.167217	0.0863444
-0.0985335	-0.00831923	0.142337	0.0590043	-0.241759	0.02422	0.124573	0.0600379	0.173668	-0.00685232	-0.175633	0.0242604	0.163583	-0.181298	-0.0935228	-0.183877	-0.150188	0.174623	0.22445	-0.0298604	0.0938076	0.136726	0.124091	0.166937	-0.133484	-0.138845	0.00482772	-0.196718	0.203516	0.163882	-0.0157613	0.0170258
-0.0411654	-0.0793248	-0.0761508	-0.0232188	-0.0272147	-0.0834142	-0.0807435	-0.0300165	0.0201024	0.039156	0.0647062	-0.0451592	-0.00903074	-0.0270436	0.104525	-0.0249247	0.0586866	-0.031546	-0.0389041	-0.0209366	-0.0990146	-0.117566	0.0297581	-0.12102	-0.0614098	-0.0861557	-0.0054425	0.0211681	-0.0837543	-0.107326	0.0980667	-0.0956695
0.00843464	-0.0833764	0.170502	-0.11937	0.0647067	-0.188058	0.306018	0.207615	-0.163795	-0.138161	0.00201412	-0.0129959	-0.179263	0.112046	0.272725	0.209242	0.0760256	0.124035	-0.0495327	0.126571	-0.0649286	0.0429283	-0.0289513	0.0311118	0.122842	-0.256635	0.0426634	0.044896	-0.0708007	-0.102632	-0.374602	-0.322165
0.0518516	-0.0938187	-0.0550518	-0.0799709	0.0606007	-0.0108501	-0.0660647	-0.0120104	-0.080639	-0.0551886	-0.043536	0.0703005	-0.0914479	0.0847158	-0.0252981	0.0747894	0.106905	-0.0909543	-0.100479	-0.0558582	0.016596	-0.0616345	-0.0769316	-0.0325614	0.0595819	0.0913863	-0.11449	0.0272788	-0.0839092	-0.0202196	0.0578422	-0.0934098
-0.0454471	-0.0619921	0.222166	0.181572	-0.098396	-0.0797556	0.223769	0.235137	0.135604	0.0210995	-0.0115622	-0.0758657	0.12176	-0.155168	0.077471	-0.145073	-0.155675	0.194412	0.220279	-0.0621094	0.00487247	0.106611	0.189527	0.222168	0.0658945	-0.106311	-0.0530813	-0.0748666	0.181665	0.179897	-0.15072	-0.0762041
0.110459	-0.130102	-0.0219911	0.0317359	-0.0842312	0.0462608	0.0201075	0.0878066	-0.00131998	-0.112122	-0.152699	-0.00785286	0.069344	-0.0587562	0.0293425	-0.0397399	0.0121134	0.0540796	-0.0230037	-0.217857	0.105067	0.0982329	-0.0196475	0.0349422	-0.00900362	0.0077081	-0.0830202	0.00938405	0.0384492	0.0187509	-0.0927051	0.0111087
0.104259	-0.0415112	-0.128729	0.00299435	0.120183	0.00952716	-0.128395	-0.0925453	-0.0385335	-0.0298142	-0.0698207	0.0784055	-0.159191	0.1179	-0.304465	0.111528	0.0865592	-0.1515	-0.130663	-0.161827	0.0475581	-0.183656	-0.149432	-0.0857212	0.179193	0.225211	-0.0388535	0.101888	-0.0898723	-0.127075	0.24505	0.0399583
0.0793366	-0.0686914	-0.0515272	-0.106115	-0.104279	-0.0962207	0.154069	0.142054	-0.0327123	-0.0644704	-0.198835	0.102772	-0.112809	-0.0219172	0.169276	-0.0978341	0.13466	0.209538	-0.0949458	-0.126444	0.0510904	0.114539	-0.0689894	-0.0832246	0.000192053	-0.127385	-0.044043	0.0487514	-0.0704428	-0.0571382	-0.0560406	-0.0516891
0.300102	0.191484	-0.114848	0.0606606	0.126466	0.186605	-0.133968	-0.190455	0.159676	0.304883	0.126117	-0.212306	-0.0762778	0.101863	-0.215335	0.16452	-0.200657	-0.0256982	0.0445926	0.0671146	-0.115927	-0.193255	0.0552739	-0.207805	-0.0114877	0.243647	0.101896	0.170781	-0.00461711	-0.0628033	0.172332	0.188075
0.0754372	0.225191	0.0250041	0.216799	0.0238793	0.190485	-0.0626064	-0.218218	0.13695	0.237501	0.132979	-0.225309	0.111647	-0.0522062	-0.140491	-0.0207144	-0.126078	-0.0617125	0.1533	0.228874	-0.0192758	-0.120994	0.12367	0.0277386	-0.126005	0.164317	0.221293	-0.0467452	0.131719	0.168635	0.179443	0.214286
-0.125715	0.212917	0.206134	0.230114	-0.1278	-0.00755944	0.160659	0.216449	0.161219	-0.10747	0.00910935	-0.190802	0.14624	-0.177723	-0.0327536	-0.168263	-0.216089	0.169167	0.172989	0.0110511	0.0741557	0.160955	0.223136	0.247111	-0.17177	-0.265921	0.102152	-0.284654	0.254964	0.280912	-0.147905	-0.039309
-0.0478314	-0.18913	0.0877527	-0.155797	0.0579758	-0.107324	-0.00441948	0.0446117	-0.153877	-0.0761296	0.115747	0.198144	-0.0190206	0.0390318	0.0159691	0.0725452	0.0413106	-0.145298	0.00480652	0.0880731	-0.0494446	0.0483372	-0.00746267	0.12615	0.195716	-0.155228	-0.091277	0.129232	0.0237572	-0.0642316	-0.190126	-0.178062
0.085042	-0.193113	-0.222387	-0.230546	0.145207	-0.0949319	-0.147078	-0.14211	-0.252146	-0.0498948	-0.256536	0.199248	-0.145541	0.158503	0.102236	0.0210051	0.1773	-0.010596	-0.220774	-0.235963	0.176788	-0.148709	-0.241806	-0.21262	0.192114	0.152762	-0.113953	0.207433	-0.227111	-0.161921	0.339594	0.0859767
0.192372	0.00260624	-0.180878	-0.0430312	0.141158	0.176603	-0.30142	-0.129873	0.138407	0.0166486	-0.0292755	0.0286898	-0.114222	0.166314	-0.280705	0.174871	-0.0752432	-0.226619	-0.0347147	-0.0627547	-0.141228	-0.192038	-0.0822397	-0.149656	0.121976	0.214493	0.167373	0.126407	-0.120427	-0.107582	0.268563	0.0954095
0.0158891	-0.177383	-0.0474465	0.0575147	-0.0926663	-0.0610748	0.0470628	0.08481	0.0660266	-0.0981112	-0.227345	0.0856309	0.00705682	0.00503931	-0.0313483	-0.116943	-0.0249981	-0.033067	-0.0083273	-0.205088	-0.00143834	0.0523857	0.0190983	0.000346245	0.135191	-0.0431419	-0.112055	-0.00926657	0.0674859	0.00615935	-0.0508329	-0.110768
-0.0621721	-0.0920923	-0.0263252	0.0707896	-0.0347114	0.03354	0.00386018	0.110917	0.000153193	-0.116656	-0.123871	0.117368	0.0982119	-0.0154466	-0.0571883	-0.0299247	-0.0729106	-0.0426866	0.0112695	-0.186815	-0.0603465	0.125781	-0.0102367	-0.00420053	0.0976585	0.0464722	-0.00243162	0.079992	0.0631693	0.0171233	0.0978595	0.0262375
0.167924	0.263216	0.0447338	0.173422	0.205194	0.187861	-0.176862	-0.166607	0.252767	0.0189062	0.152715	-0.229955	0.121732	-0.0250567	-0.20766	0.161932	-0.211218	-0.0155306	0.0792701	0.109556	-0.0820964	-0.143519	0.148391	-0.116494	-0.0398664	0.127227	0.112467	0.146312	0.186681	0.0151127	0.216515	0.155491
0.0400625	-0.0798846	-0.0156513	0.0401537	0.0771108	0.0524778	-0.0501606	-0.0508404	0.0419081	-0.0863353	-0.016359	-0.108355	-0.0956288	0.163696	-0.0727945	0.12483	-0.0849249	-0.119572	-0.100545	-0.0151081	-0.0656545	-0.166297	0.0269044	-0.060608	0.0784493	0.044377	0.104082	0.158696	-0.0654509	-0.0758248	0.0934851	0.0295016
0.0598256	0.119865	-0.137654	0.128133	0.103919	0.184847	-0.11968	-0.171471	0.178975	0.177947	0.200461	-0.17245	0.11904	0.118774	-0.121711	0.0699445	-0.151064	-0.141964	0.113519	0.0486109	-0.107522	-0.115871	0.124561	-0.0136041	-0.0531571	0.198428	0.0975168	-0.0380402	0.0623602	0.102277	0.0996747	0.0959564
0.052647	-0.0284513	-0.0389748	-0.0254877	-0.01797	-0.0253601	-0.00639143	0.000319234	-0.0189221	-0.0351005	-0.0888592	0.0581561	-0.00275046	0.0696777	0.0245234	-0.0364719	0.00826343	0.0617319	-0.0349083	-0.195441	0.00931461	0.0924645	-0.0315653	-0.0431909	-0.0942669	0.0421524	-0.00495083	0.04266	-0.0774407	-0.0211483	0.0928854	-0.00911381
0.368403	0.0883675	-0.222889	0.0874042	0.397842	0.162449	-0.335456	-0.330631	0.279449	0.302233	-0.0720511	-0.0623809	-0.0477942	0.301455	-0.386902	0.417317	-0.260581	-0.324804	-0.021222	-0.130242	-0.139464	-0.332596	-0.00348358	-0.362701	-0.006432	0.350284	0.213121	0.332516	-0.106184	-0.0295228	0.389692	0.22262
-0.262582	0.165347	0.164695	0.214671	-0.144112	0.0322484	0.208044	0.216154	0.181583	-0.00552333	-0.13411	-0.212691	0.188819	-0.275518	0.068773	-0.143418	-0.21325	0.170548	0.203955	-0.185077	-0.064117	0.165363	0.212546	0.252479	-0.142402	-0.179541	0.0627897	-0.273505	0.250395	0.185008	-0.14928	-0.0276022
-0.0735515	0.197202	0.112058	0.121112	-0.00471847	0.038225	-0.0537832	-0.101471	0.182995	0.0564365	0.22707	-0.150751	0.0103699	-0.0633708	-0.143078	0.109258	-0.177157	0.0856811	0.156427	0.236254	-0.217316	-0.0398728	0.164929	-0.0352314	-0.201758	0.00823784	0.108352	-0.0618891	0.204337	0.127264	0.0465283	0.128428
-0.0764056	-0.0413654	0.160307	0.0191495	-0.0939598	-0.0581245	0.152229	0.121143	-0.012721	-0.0128607	-0.0117834	0.00216889	0.0529079	-0.0644063	0.100553	-0.0802266	0.0317704	0.0851499	0.0152161	-0.0592974	-0.00281185	0.184389	-0.00937952	0.13189	-0.00584413	-0.0955593	-0.0695438	-0.114549	0.104085	0.00484794	-0.129788	-0.0214035
0.06531	-0.0191996	0.0470258	-0.0096375	0.0578992	-0.0670373	-0.0847509	-0.0746442	-0.117165	-0.0920306	0.135732	-0.05421	-0.0342587	0.12952	0.0799867	0.0672244	0.0834246	-0.053753	-0.113307	0.229581	-0.159291	-0.0141045	0.0374488	-0.060026	0.119849	0.0696371	0.00109238	0.120508	-0.125921	-0.0730993	-0.157304	-0.175877
0.041424	-0.0794017	0.0144377	-0.0613513	0.0529182	-0.0453129	0.0348197	0.009121	-0.0722839	-0.0756109	0.0363573	-0.0294579	-0.0468015	0.0720781	-0.00471798	0.189546	0.0529237	-0.0560119	-0.0283785	0.0237695	-0.163439	0.00354287	-0.0702073	-0.0434871	0.0226952	0.0419126	-0.0663997	0.112245	-0.069708	-0.11182	-0.0228868	-0.0235646
-0.0598011	0.141089	0.0479854	0.13108	0.326637	0.146374	-0.313125	-0.292604	0.0309822	0.0922844	0.143323	-0.127651	0.178753	-0.0717988	-0.268085	-0.0738838	-0.166143	-0.207807	0.145664	0.17556	-0.112171	-0.271402	0.212566	0.0985893	-0.119511	0.214676	0.139693	-0.157447	0.141973	0.166082	0.185774	0.165601
0.0315079	-0.0334834	0.146346	-0.0299889	-0.169376	-0.172859	0.236816	0.0900529	-0.0776248	-0.0583295	-0.17701	0.130934	0.0978028	-0.0947129	0.127071	-0.136923	-0.060773	0.20586	0.0825526	-0.137728	0.0784993	0.263944	0.0166403	0.150375	0.147344	-0.240085	-0.130649	-0.132653	0.207742	0.1343	-0.219962	-0.138116
0.181116	-0.145248	-0.223164	-0.102432	0.114072	0.0376173	-0.14023	-0.0622387	-0.12424	0.0738729	-0.237332	0.12883	-0.13683	0.193792	-0.0199863	0.0412032	0.145262	-0.0897463	-0.100959	-0.233137	0.0208706	-0.0851916	-0.141699	-0.0895627	0.0270951	0.134132	-0.0409239	0.128319	-0.211798	-0.127066	0.170254	0.0616129
-0.0934706	0.249787	0.176305	0.179533	-0.155886	0.0797728	0.0402566	0.0916285	0.275114	-0.0205962	0.0232582	-0.216878	0.215138	-0.0768795	-0.141047	-0.160264	-0.286205	0.0994868	0.242611	0.123695	-0.112292	0.122466	0.283677	0.196668	-0.164779	0.0162205	0.185004	-0.141332	0.116661	0.20338	-0.00795097	-0.0580896
-0.134313	0.102534	0.112828	0.0753516	-0.0414585	0.117715	0.0051928	0.028626	0.0429663	-0.0101343	0.111019	-0.0807764	0.0623824	-0.0207241	0.03344	-0.124215	-0.0528018	-0.0117633	0.0888467	0.0909365	-0.0495917	0.0522428	0.0940899	0.135682	-0.0222533	-0.0483503	0.0787206	-0.0390908	0.044215	0.103496	-0.0933687	0.0415775
0.133238	-0.206882	-0.0887581	-0.261035	0.179441	-0.220728	0.0647949	0.0946562	-0.330436	-0.138695	-0.157239	0.270925	-0.301157	0.19265	0.264644	0.246281	0.230385	0.158578	-0.175767	-0.115954	0.243613	0.0299074	-0.253794	-0.170815	0.254495	-0.100437	-0.101164	0.205877	-0.223092	-0.226508	-0.312371	-0.253201
0.0191114	0.0131621	-0.121013	-0.0467167	-0.0149416	0.138585	0.0880564	-0.0549504	-0.0532204	0.242237	0.0685764	0.0966795	-0.068152	-0.0983893	-0.0779705	0.0219943	0.0386348	-0.0418016	-0.133493	-0.0587173	0.146994	-0.150361	-0.115304	-0.154774	-0.0608278	0.0256663	0.0231538	-0.232686	0.0239283	0.192998	0.141731	0.130582
0.0319319	-0.212101	-0.290627	-0.179361	0.0990436	-0.107967	-0.0122489	-0.0503429	-0.213822	-0.0687462	-0.185035	0.293683	-0.137745	-0.0377629	0.0999996	-0.0573966	0.184921	0.0790879	-0.148849	-0.203194	0.263593	0.0716775	-0.15233	0.00310716	0.190383	-0.0464025	-0.223407	0.044767	-0.286479	-0.113553	-0.016494	-0.0163146
-0.16192	-0.0139052	0.164886	-0.0783501	0.0901434	-0.154448	0.0480897	0.0339835	-0.199587	-0.0193031	0.260012	0.087275	-0.111803	0.173339	0.199348	0.102204	0.0700158	-0.122054	0.0383395	0.202636	0.00043248	-0.0850131	0.00236593	0.0706699	0.130888	-0.178794	0.00584555	0.155155	-0.0972904	-0.133137	-0.227943	-0.207336
-0.167605	0.106136	0.193491	0.150116	-0.205632	0.240449	0.205384	0.156731	0.204724	0.118037	-7.6436e-05	-0.161324	0.18746	-0.222949	0.174369	-0.166129	-0.189739	0.210853	0.176815	-0.0975032	0.120064	0.236576	0.224954	0.119614	-0.225717	-0.113652	0.189155	-0.108482	0.25101	0.261875	-0.183176	-0.00247387
-0.0475148	-0.0558205	-0.0024471	-0.0928628	-0.161758	-0.0794625	0.16018	0.0912381	-0.0471097	-0.024555	-0.0442942	0.0226848	-0.0892915	-0.191933	0.124312	-0.0449071	0.0616545	0.129483	-0.0703571	-0.109556	0.0722044	0.0738124	-0.0358106	-0.0393272	0.00722172	-0.0675014	-0.0551866	0.0530291	-0.0213591	-0.0694471	-0.0407898	-0.0666739
0.103362	-0.175058	-0.12011	-0.23203	0.0219508	-0.383392	0.303563	0.0740261	-0.440059	0.0351224	-0.345	0.187775	-0.267813	-0.00827028	0.368434	0.284215	0.375032	0.337762	-0.316867	-0.188853	0.314656	0.142904	-0.349358	-0.164636	0.222286	-0.229801	-0.254862	0.123168	-0.115005	-0.198568	-0.332911	-0.267093
-0.163556	0.0733126	0.138028	0.108859	-0.0988987	-0.0054561	0.141818	0.068314	-0.0633656	-0.112565	0.0994078	-0.128604	0.172203	-0.193613	0.191397	-0.144079	-0.00488414	0.0890504	0.128552	0.05833	0.0609548	0.219898	0.140313	0.172864	-0.112095	-0.200753	0.0132256	-0.184846	0.17874	0.190662	-0.0975137	-0.0970158
-0.0527468	0.0243562	0.0586264	-0.0980046	0.067899	0.0320931	0.0193694	-0.0724159	-0.0287323	-0.0790703	0.0596538	-0.042034	0.0131381	0.0343204	-0.0288394	0.0187028	-0.0399718	-0.032035	0.0913603	0.0515324	0.067216	-0.0421912	-0.00409191	0.0556004	-0.00341008	-0.0208676	0.0164727	0.0114588	0.0322854	0.0961246	0.0700593	-0.0643059
0.119695	0.00551305	0.135911	0.161112	-0.193132	0.084888	0.138421	0.171244	0.168794	0.103467	-0.17471	-0.0168904	0.165365	-0.130964	0.017943	-0.130121	-0.0962419	0.098432	0.0902381	-0.0981487	0.0145892	0.1661	0.104179	0.155961	-0.104721	-0.053249	0.0680768	-0.110027	0.147773	0.0934149	-0.0602412	-0.0285338
-0.0866982	-0.0880182	0.150097	-0.258791	0.0976949	-0.236676	0.130496	0.0506341	-0.246172	-0.172082	0.206199	0.0728182	-0.232493	0.240759	0.22055	0.285822	0.208836	-0.173776	-0.200363	0.206659	-0.191728	-0.0542205	0.00790918	0.0332608	0.175268	-0.211542	0.0400039	0.150832	-0.0781025	-0.237909	-0.238406	-0.312473
-0.161381	0.14412	0.107503	0.105293	-0.175052	0.0860402	0.0320514	0.0329365	0.0350037	0.0974402	0.215069	-0.19141	0.132144	-0.18437	0.010506	-0.171113	-0.129569	-0.020106	0.188871	0.164418	-0.150477	0.0452948	0.179238	0.173488	-0.109131	0.0185485	0.142097	-0.203346	0.209256	0.146124	0.0181208	0.14921
-0.00544565	0.0394052	-0.0627863	-0.00715174	0.066328	-0.0364958	-0.0680547	-0.0430692	-0.00421099	-0.0231185	-0.102355	0.031378	-0.0204872	0.0173882	-0.0310517	-0.0173765	-0.0110293	0.00771408	-0.00434252	-0.0848292	0.0296359	-0.0635208	-0.00985129	-0.0720365	0.0408211	0.0339549	0.0167742	0.0357067	-0.0521832	-0.0331538	0.0261039	-0.0711421
-0.0565315	0.0998524	0.170038	-0.0206871	-0.0207668	-0.196637	0.159728	0.0689868	-0.14846	-0.174161	0.248177	-0.0981281	-0.129109	0.1362	0.16248	0.175689	0.0619194	-0.0408016	0.0590846	0.177025	-0.12565	-0.0314468	0.0809181	0.00907089	-0.0504782	-0.0893387	0.0124872	0.132994	0.0293575	-0.199049	-0.152887	-0.125518
0.0334985	-0.180062	0.0687155	-0.182341	0.124359	-0.22678	0.0769748	-0.0316251	-0.29368	-0.179425	0.0622763	0.146628	-0.211212	0.250928	0.245806	0.267486	0.182725	0.0332341	-0.21238	0.209197	-0.165632	-0.0384429	-0.0862435	0.022735	0.256658	-0.072195	0.00113193	0.139973	-0.0972389	-0.139149	-0.178965	-0.252019
-0.0234411	0.0549471	0.135889	-0.144284	-0.112897	-0.151533	0.110437	0.20822	-0.112869	-0.0939709	-0.0128016	-0.0402332	-0.14248	0.0440353	0.210235	0.185176	0.0820418	0.200477	-0.101172	0.220681	0.0148031	0.173298	-0.0737453	0.137709	0.0433093	-0.239116	-0.178269	0.135347	0.0862545	-0.213501	-0.238777	-0.292753
0.187297	-0.0759671	-0.246158	-0.00297146	0.262599	0.10174	-0.119117	-0.190214	-0.0958488	-0.0202239	-0.137281	0.0473263	-0.202089	0.145485	-0.246148	0.146028	0.0193217	-0.248718	-0.0913032	-0.075401	0.00934905	-0.256203	-0.0873524	-0.147536	0.169895	0.184136	0.0369038	0.0535472	-0.193823	-0.171402	0.213892	0.259345
0.00522784	-0.0292908	-0.0401195	-0.109087	-0.019106	-0.0583532	-0.085739	-0.0744623	-0.0749887	0.00350474	-0.0197434	-0.0464879	0.0240789	0.0330401	0.101769	0.0552578	0.112313	0.0799499	-0.0140423	0.0378346	0.0444557	0.0242346	0.0309975	0.0393612	-0.0454264	0.0824772	-0.0303116	0.0480772	-0.0443261	-0.04284	0.00158299	-0.0717894
0.0122221	0.0514911	0.11687	0.0390057	-0.0778506	-0.0978672	0.0859669	0.0960273	-0.0588766	0.0257202	0.09706	-0.0374043	-0.00748847	0.0205328	0.163548	0.0242698	-0.0511043	0.034146	0.0125878	0.151268	-0.0736097	-0.0262244	-0.0450982	-0.0261439	0.10042	-0.0299869	-0.0442683	-0.00693209	0.0351698	-0.0763392	-0.124788	-0.0811308
0.198929	0.056503	-0.0998843	0.0144564	0.195484	0.227077	-0.303712	-0.358038	0.193395	0.0627352	-0.0611568	-0.0330675	-0.0305639	0.177442	-0.347559	0.19408	-0.112458	-0.30085	-0.0222525	-0.0312259	-0.0537815	-0.220172	-0.032152	-0.0979965	0.0440029	0.282667	0.0135495	0.118691	-0.12141	-0.0405642	0.384667	0.264684
0.0833041	0.0661964	-0.0800162	-0.000395922	0.184725	0.18246	-0.194895	-0.202838	0.138086	-0.0230462	0.0659098	-0.0702011	-0.0360431	0.0442032	-0.14322	0.0896575	-0.121616	-0.181404	0.0340564	-0.0438812	-0.105752	-0.135034	0.0154204	-0.0105875	-0.0861359	0.214174	0.0613587	0.0536022	0.0582559	-0.0117048	0.256852	0.098865
-0.0661096	-0.254247	-0.00265429	-0.25754	-0.0895752	-0.151576	0.228218	0.120637	-0.191186	-0.177697	-0.211195	0.205736	-0.167874	-0.107037	0.16888	-0.171007	0.185283	0.175012	-0.193633	-0.137091	0.327377	0.147596	-0.159854	-0.0370879	0.0343025	-0.222834	-0.219574	0.0112182	-0.0893475	-0.0977991	-0.200223	-0.146119
0.0516047	-0.166767	0.117618	-0.245259	-0.0578926	-0.259772	0.0920005	0.207924	-0.197152	-0.174827	0.0548614	0.104243	-0.20047	0.140037	0.204247	0.126206	0.164756	0.138505	-0.199216	0.197561	-0.0913105	-0.0953088	-0.0616487	-0.125489	0.0269802	-0.17294	0.00764633	0.123371	-0.0512437	-0.134244	-0.317694	-0.303487
-0.0169116	0.186051	-0.050483	0.203483	0.0747443	0.261888	-0.0939392	-0.215601	0.226378	0.0754789	0.155896	-0.197962	0.229212	-0.0178109	-0.134532	0.016949	-0.18886	-0.220905	0.172825	0.167882	-0.207095	-0.114226	0.263442	-0.064931	-0.205311	0.124166	0.245929	-0.0589896	0.17997	0.294867	0.202623	0.224233
0.136441	0.0731091	0.0422628	0.0255799	0.146729	-0.0305493	-0.0919095	-0.166519	-0.0300959	0.0457758	-0.0201884	-0.048173	-0.116685	0.0496322	-0.165061	0.131015	-0.0470534	-0.0525307	-0.117348	0.0665565	-0.0350072	-0.180235	0.0424312	-0.135707	-0.0426887	0.153112	-0.0104418	0.144884	0.0445799	-0.0268977	0.177761	0.0632223
-0.0616022	0.0370474	-0.0257711	0.00990674	0.14916	0.0257022	-0.0195597	-0.163864	-0.0729285	-0.133413	0.0268254	-0.0365058	-0.000258832	-0.0201883	-0.0780308	-0.0566886	-0.0575444	-0.116352	0.0107133	0.062954	0.0485723	-0.0544265	0.0431759	-0.03268	-0.0362366	-0.0372806	-0.02121	-0.0467994	-0.00560166	-0.012851	0.00965693	0.00722515
0.0514708	-0.076801	-0.0754877	-0.0157427	0.0559361	-0.0248736	-0.109565	-0.0755035	-0.104823	-0.0489656	-0.0765436	0.0156761	-0.0362714	0.0730447	0.0478604	0.0182545	0.0430213	-0.0355042	-0.0131863	-0.0883804	0.0807267	-0.04486	-0.0965216	-0.0591747	0.0254983	0.0180713	-0.0440761	0.0127434	-0.0904402	-0.0740776	0.0703151	-0.0700577
0.0479941	0.0420853	0.0834415	0.0644589	0.112733	0.022053	-0.0741486	-0.194444	-0.0514081	0.0279163	0.104017	-0.0153474	-0.108203	0.0645242	-0.0635816	0.147276	0.0125545	-0.0154867	-0.019795	0.197763	-0.166269	-0.139736	0.0518904	0.0148275	0.0183449	0.108366	0.170856	0.0791273	-0.0580655	-0.056305	-0.0309015	-0.0799353
-0.130423	-0.152276	0.115883	0.0208722	-0.144091	-0.0982922	0.0749055	0.0694897	0.0535752	-0.0259821	-0.116333	-0.0847747	0.155846	-0.167954	0.035014	-0.19476	-0.0726171	0.15164	0.179212	-0.0258244	-0.0324661	0.123783	0.109975	-0.0240642	-0.0717141	-0.141174	0.0704538	-0.112356	0.17225	0.0474565	-0.0459903	0.0672045
-0.156554	0.139107	0.105841	0.118955	-0.0153053	0.116123	-0.00601	-0.0537114	0.0858019	0.0023394	0.17287	-0.136724	0.0971572	-0.139293	-0.154768	-0.135309	-0.142908	0.0365272	0.117252	0.13583	-0.0588157	0.0440472	0.150839	0.142924	-0.142946	-0.0738784	0.185725	-0.141629	0.159548	0.155442	0.0204385	0.171887
-0.117013	0.0536912	0.153499	0.092432	-0.00116363	0.164455	-0.0977528	-0.112396	0.171287	0.0978175	0.20534	-0.219056	0.153493	-0.160622	-0.0817824	-0.0869484	-0.0640423	-0.030361	0.159605	0.213384	-0.0784126	0.031936	0.157711	0.18051	-0.192916	-0.00270356	0.131821	-0.129661	0.102423	0.159791	0.0346894	0.0878007
0.0943284	-0.00165951	-0.238469	-0.154636	0.129759	0.0328505	-0.105134	-0.0521234	-0.140511	0.00505267	-0.133738	0.193239	-0.174541	0.152916	-0.00316476	-0.0414116	0.104064	-0.184465	-0.130837	-0.174304	0.0342677	-0.134249	-0.189171	-0.203391	0.0802224	0.180363	-0.181191	0.120863	-0.147654	-0.0613774	0.156934	0.169215
-0.010625	0.267191	0.133146	0.329946	0.000888934	0.263437	-0.0943042	-0.0943648	0.18827	0.210971	0.274541	-0.237537	0.0501298	-0.000928396	-0.203212	0.139262	-0.314652	-0.0812949	0.209141	0.247267	-0.1453	-0.109408	0.279119	0.0319265	-0.104319	0.120463	0.270104	-0.0300878	0.181526	0.165002	0.154832	0.224429
-0.192914	0.167205	0.23157	0.145136	-0.156979	0.170451	0.0678136	0.0971023	0.14479	0.0148138	0.253251	-0.15024	0.174289	-0.114056	0.0712163	-0.160174	-0.214077	0.0308355	0.133145	0.245818	-0.278034	0.117977	0.156181	0.218862	-0.145082	-0.130433	0.15674	-0.182929	0.196106	0.211269	-0.0382793	0.0574906
-0.166782	0.0930993	0.278986	0.0462188	-0.0834841	0.0109942	0.267298	0.115506	-0.00133613	-0.0258988	0.166318	-0.0640757	0.0202333	-0.0384938	0.0958007	0.00167437	-0.0308585	0.156951	0.11321	0.265962	-0.094266	0.10542	0.094052	0.195981	-0.123979	-0.241024	0.126735	-0.102948	0.17304	0.104359	-0.171951	-0.188531
-0.103682	-0.0526694	-0.0604906	-0.060404	-0.135421	0.10224	0.0473522	-0.0461194	0.0161247	0.0327098	-0.0156184	0.086903	0.104581	-0.042807	0.0663064	-0.146274	0.0100454	-0.0524342	0.0633932	0.0028897	0.21349	0.0371619	-0.0362283	0.0551648	-0.0105967	-0.0796074	0.0011039	-0.0960741	-0.0520677	0.10109	0.005838	0.160149
0.17551	-0.130408	-0.00330237	-0.176981	-0.0747815	-0.0731909	0.00592482	0.124192	-0.0864584	-0.0676341	-0.0433406	0.129573	-0.121439	0.0938939	0.176315	0.127653	0.0650716	0.166989	-0.162147	-0.00145667	0.0156923	0.145032	-0.0993507	0.0879067	-0.0416806	-0.0215657	-0.137268	0.0948551	-0.127845	-0.173493	-0.0669282	-0.16436
-0.0149239	-0.0110105	-0.0243365	-0.0261613	0.0465917	0.0148521	-0.146017	-0.154239	-0.0804829	0.065492	0.0578679	-0.0239705	-0.0275665	0.00990884	-0.276979	-0.0157057	-0.0148404	-0.015786	0.0604757	0.0655471	0.0707668	-0.0235715	-0.0200755	-0.0160556	-0.0143998	0.0201118	-0.0118113	-0.0545913	-0.0796265	0.0296988	0.0701353	-0.0558586
0.154849	-0.192797	-0.181951	-0.19451	0.0865087	-0.182935	-0.137534	-0.0739954	-0.190512	-0.170849	-0.19744	0.165182	-0.173864	0.119144	-0.014727	0.102301	0.222169	-0.0482522	-0.129018	-0.15809	0.176666	-0.0478588	-0.21285	-0.118143	0.142933	0.0902996	-0.228826	0.137062	-0.182541	-0.148629	0.0922771	-0.176179
-0.179171	0.155669	0.211285	0.135152	0.178462	-0.164434	-0.154364	-0.112162	0.0315367	-0.138437	0.23907	-0.146615	-0.00897437	0.154446	0.125961	0.153411	-0.0729194	-0.013857	0.102452	0.182315	-0.263166	-0.107205	0.176196	0.0352552	-0.0994856	0.0394866	0.107385	0.134703	0.0159433	-0.119115	-0.0966617	-0.197457
0.0232036	0.149548	-0.0346181	-0.00337265	0.0528614	0.156792	-0.0791708	-0.0813759	0.169048	0.0750538	0.163983	-0.0436382	0.00338767	0.0882286	-0.220424	-0.041039	-0.0112382	-0.0782061	-0.0439831	0.0959156	0.0137645	-0.0630543	0.0615271	-0.0794568	0.0812977	0.121191	0.110354	0.0659686	-0.0541224	-0.0413456	0.136661	0.168365
0.00758788	0.00691959	0.129579	-0.0799746	-0.0479508	-0.1894	0.11358	0.140296	-0.1229	-0.118735	0.0165447	0.00398165	-0.0673709	0.114723	0.265049	0.0291421	0.0479405	0.0430096	-0.0534024	0.172531	0.0272995	0.0417904	0.0640571	0.0615497	0.0319398	-0.119178	-0.134093	0.0901165	0.0412796	-0.0147654	-0.34574	-0.207657
-0.223851	0.155369	0.148257	0.220431	-0.202524	0.126199	0.143553	0.200637	0.180938	0.078706	0.126468	-0.109804	0.223953	-0.159089	0.0455822	-0.198604	-0.116829	0.149271	0.199945	0.00459256	-0.105099	0.170447	0.175188	0.11966	-0.0737532	-0.162833	0.0212597	-0.135045	0.168905	0.223237	-0.183115	0.123126
-0.164848	-0.00219656	-0.1005	0.0581303	-0.0190263	0.148887	-0.123409	-0.0982768	0.00599653	0.0467597	0.0123738	-0.00530484	0.129349	-0.154839	0.115438	-0.188451	0.0852992	-0.110086	-0.00254923	-0.0594073	0.0581558	-0.0503127	-0.0379575	0.0926669	-0.104535	-0.00703918	-0.0551166	-0.169498	0.00794729	0.165514	0.092255	0.24389
-0.195113	0.100247	0.164427	0.16258	-0.0496835	0.0690976	0.00437476	-0.0124933	0.0920993	0.0162927	0.273851	-0.170288	0.131059	-0.212861	-0.134592	-0.127686	-0.0924495	0.0614431	0.213183	0.265887	-0.270667	0.133073	0.218745	0.199887	-0.12059	-0.0510777	0.122521	-0.21348	0.221821	0.187777	0.0501291	0.0937788
-0.0713035	0.245574	0.000648482	0.105266	0.0408996	0.332724	-0.153736	-0.167401	0.152823	0.235793	0.206789	-0.185605	0.188963	-0.174886	-0.355392	-0.0785516	-0.159833	-0.117853	0.175305	0.178691	-0.125955	-0.00641267	0.203248	0.0897438	-0.208325	0.150526	0.205404	-0.138626	0.0748231	0.154086	0.301767	0.347
0.0263396	-0.0650369	-0.205957	-0.189474	0.115148	0.0895254	-0.117758	-0.0537715	-0.117455	0.152732	-0.106687	0.175101	-0.155123	-0.0108919	0.0442816	0.0222323	0.179966	-0.155993	-0.161854	-0.136499	0.137919	-0.1359	-0.199707	-0.121443	-0.0971495	0.0122569	-0.104717	0.0551015	-0.16516	-0.017435	0.145522	0.140651
0.0454964	-0.0884522	0.0673364	-0.0330094	-0.144911	-0.142364	0.186653	0.265107	0.025762	-0.0204371	-0.0893837	-0.0399276	-0.0675022	-0.0566147	0.0524687	0.0536563	-0.0424604	0.169932	-0.0467716	-0.0754583	0.138706	0.147541	-0.0133738	0.124742	-0.0686183	-0.170745	-0.052479	-0.0189117	0.084679	-0.0192089	-0.188021	-0.113517
0.0935942	0.00433787	0.229273	0.00155638	-0.236635	-0.174926	0.214081	0.241109	0.107946	-0.190228	-0.334147	-0.0191287	0.189045	-0.187221	0.0514699	-0.171063	-0.0667575	0.248992	0.1266	-0.137204	0.0874882	0.210652	0.110377	0.129501	0.0780084	-0.0810254	-0.249219	-0.101849	0.1555	0.0593706	-0.23568	-0.0858588
0.178998	-0.0805138	-0.0124987	-0.143686	0.0576108	-0.152074	-0.00438463	0.036924	-0.22221	0.0890189	-0.0503696	0.0255135	-0.157638	0.0584747	0.213072	0.150833	0.143617	0.112161	-0.208665	0.0841726	0.030453	0.0301108	-0.180686	-0.0760825	0.133736	-0.0158968	-0.161761	0.155506	-0.0797655	-0.183288	-0.126833	-0.161541
-0.0276502	-0.100868	0.0104133	-0.0880841	-0.00820887	-0.123176	0.0149063	0.0651922	-0.085559	-0.0616469	-0.0798432	0.0715664	-0.0903428	0.0602016	0.10096	0.0297092	0.0881058	-0.0137712	-0.0541815	0.0642529	0.07512	-0.0273477	-0.110909	-0.0251206	0.149908	-0.0472507	-0.103728	0.0883965	-0.106957	-0.0864544	-0.116972	-0.0894307
0.139411	-0.268941	-0.185718	-0.263407	0.111808	-0.251861	0.00602542	-0.0161234	-0.181467	-0.148667	-0.283422	0.186254	-0.163763	0.0853508	0.0984426	-0.00695916	0.247948	0.0146569	-0.256075	-0.271704	0.151246	0.0815006	-0.266877	-0.0703441	0.151802	0.0381929	-0.101626	0.186022	-0.193495	-0.178151	-0.0360753	-0.22844
-0.154056	0.251127	0.155128	0.172877	-0.0679421	0.0807404	0.0259816	0.0140568	0.212851	0.0761075	0.251013	-0.216061	0.206387	-0.176819	-0.0387615	-0.181693	-0.218175	0.0926954	0.264513	0.260061	-0.272577	-0.0567409	0.184103	0.106056	-0.217987	-0.100153	0.269204	-0.133366	0.181174	0.218056	-0.0346899	0.222307
0.147117	-0.111877	0.115524	0.0145156	-0.11057	-0.00678363	0.111673	0.15076	0.200431	-0.0136981	-0.255211	0.016785	0.113631	0.0343728	-0.228326	-0.125563	-0.157166	0.0799967	0.0518926	-0.240648	-0.00211729	0.128014	0.0734698	0.113964	0.0780876	-0.034305	-0.0106196	-0.061002	0.130941	0.0601814	-0.0647163	-0.046491
-0.158937	0.0332859	0.153421	0.0143574	-0.140845	-0.0676185	0.0340073	-0.0231981	0.00251366	-0.069227	0.0769219	-0.0519816	0.109484	-0.109199	0.137454	-0.18102	-0.072685	-0.0448375	0.109044	0.123791	0.0142745	0.0279432	0.0965488	0.161875	0.0546061	-0.127541	-0.0420854	-0.114843	0.0684414	0.131332	-0.106604	-0.0531826
-0.0572329	-0.131968	0.129362	0.125258	-0.0608099	0.0029111	0.0676478	0.184444	0.0398152	-0.147994	-0.15357	-0.00884762	0.00763286	-0.0894855	-0.102702	-0.0467477	-0.129506	0.0844373	0.0267042	-0.0398453	0.020952	0.0772608	0.017302	0.0829713	-0.0158347	-0.0404035	-0.0409772	-0.00419332	0.0860745	0.0572592	-0.0140044	-0.0897405
-0.216829	0.210785	0.214627	0.174362	-0.112994	0.139278	-0.0136482	0.00517312	0.0895403	-0.0288872	0.224149	-0.138469	0.161605	-0.19678	-0.0369551	-0.109213	-0.209489	-0.0893335	0.190245	0.209629	-0.122241	0.165895	0.25901	0.229901	-0.0999949	-0.0337082	0.115705	-0.221217	0.18006	0.227214	-0.0231017	0.0474826
0.0959228	-0.0799497	-0.0730898	-0.200718	0.145087	0.0868612	-0.155245	-0.109673	-0.133267	-0.0500396	-0.135842	0.116997	-0.185147	0.0735328	0.0876971	0.0545912	0.114918	-0.106084	-0.12564	-0.107055	0.108512	-0.0816584	-0.144634	-0.123736	-0.0605303	0.184072	-0.0728104	0.18177	-0.20199	-0.139884	0.145951	0.112181
-0.103403	0.160345	0.116652	0.124792	-0.191828	0.111035	0.0910012	0.118252	0.153714	0.110941	0.05996	-0.112048	0.149329	-0.20576	0.0861959	-0.144795	-0.130242	0.13318	0.175472	0.162744	-0.072267	0.200526	0.149938	0.160562	-0.124033	-0.190932	0.0297018	-0.198558	0.180614	0.180569	-0.12434	0.164101
-0.168252	0.200141	0.176346	0.232935	-0.0897564	0.180973	0.0297829	0.133351	0.117698	0.128024	0.175879	-0.196157	0.183999	-0.250697	-0.0323915	-0.183257	-0.215851	-0.126397	0.224431	0.211169	-0.142913	0.148801	0.144259	0.233099	-0.151783	-0.0606884	0.142766	-0.159079	0.15353	0.163561	-0.0229309	0.212172
0.282986	0.0809884	-0.115979	0.172203	0.0770445	0.240411	-0.254347	-0.197527	0.200401	0.101525	0.091447	-0.145092	0.0399752	0.0492841	-0.251853	0.173319	-0.041564	-0.123765	0.02512	0.0118514	-0.0835939	-0.0472676	0.0432123	-0.0796259	-0.0304832	0.218425	0.128525	0.170939	-0.0333705	-0.11496	0.310066	0.0473703
-0.126403	-0.117346	0.139442	0.102442	-0.0788674	0.161139	0.101544	0.0963559	0.171684	-0.086254	-0.133088	0.0164293	0.168119	-0.14262	-0.055535	0.0178466	-0.121175	0.0593066	0.0646659	-0.132594	0.0581235	0.172666	0.157985	0.0687275	-0.141242	-0.180694	0.0686647	-0.111116	0.136642	0.146047	0.00401351	-0.0616112
-0.230113	0.0096355	-0.10054	0.0255076	0.0138614	0.186577	-0.0464094	0.0241512	-0.0662457	0.100363	0.00645239	-0.00539975	-0.0384529	-0.134762	0.0433384	-0.023103	0.0957135	-0.0322294	-0.0254147	-0.012008	0.0764574	0.0620232	-0.00609892	0.0732626	-0.157531	-0.0165842	0.0652453	-0.239616	0.0254203	0.212199	0.0976407	0.108895
0.0957074	-0.0956035	-0.193386	-0.0932203	0.108665	-0.114144	-0.0838074	0.0075155	0.0437588	-0.0875486	-0.191469	0.166586	-0.0671183	-0.035824	0.122707	-0.157919	-0.0394537	0.00766192	-0.159732	-0.208884	0.0972459	0.107255	-0.186312	-0.11002	-0.0590685	0.0109594	-0.124871	0.0839457	-0.169219	-0.104488	0.0113648	0.0504959
0.140156	-0.153522	-0.199916	-0.248687	0.113938	-0.00893154	-0.0474392	-0.0952277	-0.214313	-0.0174872	-0.148009	0.308617	-0.288059	-0.0484567	-0.0382912	-0.0986488	0.204969	-0.0214539	-0.287182	-0.293164	0.250053	-0.148586	-0.255395	-0.173247	0.0591679	0.12991	-0.232317	0.101864	-0.252299	-0.0720029	0.136211	0.157771
-0.196021	0.195142	0.135821	0.11026	-0.0203478	-0.0425917	0.0819476	0.0467694	0.113352	0.0123483	0.198672	-0.158478	0.155821	-0.121387	-0.0171661	-0.176118	-0.0313653	0.0962661	0.18563	0.176623	-0.117136	0.173544	0.136644	0.0675086	-0.164291	-0.13786	0.156779	-0.13426	0.165788	0.063903	-0.0842951	0.0248657
0.0810882	-0.0763664	-0.1026	-0.0781231	0.0325521	-0.110018	-0.0836623	-0.043056	-0.0902053	-0.0369463	-0.0332673	0.0480332	-0.0974634	0.0843449	-0.016085	0.073377	0.0826872	-0.0104899	-0.0536174	-0.0773717	0.0834254	-0.0766084	-0.099121	-0.02774	0.0135954	0.0786958	-0.062425	0.0629321	-0.05634	-0.048746	0.0682184	-0.112697
-0.00042937	0.0535661	0.0640042	0.059249	-0.0717538	0.133096	0.000394041	0.0629778	0.0145375	0.0369863	0.00364984	-0.0612438	0.0946599	-0.063552	-0.23215	-0.0315161	-0.0355134	0.0352923	0.0401892	0.0631453	-0.00787814	0.0823443	0.020124	0.0133756	-0.0478756	0.0114723	0.020875	-0.0930294	0.0600919	0.0777626	0.0726425	0.113874
0.101914	0.169832	0.0369668	0.210726	0.154797	0.010665	-0.173963	-0.162986	0.158691	-0.0726755	0.16228	-0.186881	0.193614	-0.144466	-0.141721	0.0803178	-0.139776	0.154584	0.01657	0.0344827	-0.181415	-0.0958981	0.242934	-0.113846	-0.132863	0.123512	-0.0151609	0.120015	0.105047	0.0127491	0.188016	0.18657
0.0358242	0.140632	-0.166837	0.0959829	0.149605	0.167646	-0.179323	-0.131171	0.166838	0.217224	0.00325443	-0.04166	-0.0343096	0.0974144	-0.180365	0.125746	-0.0885932	-0.164607	-0.0208583	-0.0434938	-0.0431693	-0.178527	-0.0677583	-0.0488913	0.134992	0.184294	0.175476	0.0632355	-0.0614847	-0.00601967	0.109428	0.127907
0.0234229	-0.151936	-0.19738	-0.18604	-0.00364214	0.0898181	-0.0587785	-0.00112221	-0.158988	0.13161	-0.226678	0.159811	-0.133905	0.0408941	0.211833	-0.173441	0.209647	-0.0190525	-0.174805	-0.189533	0.209474	0.0189196	-0.168186	-0.0408664	0.0331634	-0.0571591	-0.0846908	-0.0841931	-0.202214	-0.0945066	0.0920285	0.106414
0.11097	-0.214945	-0.19294	-0.170573	0.114452	0.115901	-0.229537	-0.165351	-0.0703946	0.0194465	-0.245543	0.174901	-0.157668	0.15523	0.0153442	-0.0723991	0.0805734	-0.0851221	-0.191071	-0.20282	0.199974	-0.222012	-0.249419	-0.189847	0.0771223	0.150922	-0.102504	0.163458	-0.171887	-0.172761	0.116634	0.203817
-0.171974	0.147006	0.191957	0.173469	-0.218032	-0.217428	0.112443	0.150478	0.118662	-0.162739	0.13886	-0.21955	0.156385	-0.164686	0.250631	-0.11796	-0.191789	0.100965	0.185312	0.106423	-0.0999734	0.163997	0.192222	0.174911	-0.0750137	-0.249347	-0.000830787	-0.11403	0.198065	0.153606	-0.23568	-0.119515
0.0211271	-0.0845617	-0.0976625	-0.0267865	0.0794278	-0.0193475	-0.108004	-0.0260073	-0.0695895	-0.0869286	-0.0204962	0.0183111	-0.0400668	0.0354271	0.086468	0.0854938	0.0814533	-0.0395586	-0.00420609	-0.0152343	0.0473378	-0.0832588	-0.0566621	-0.0896481	0.101145	0.103943	-0.0361378	0.0955737	-0.0449526	-0.040382	0.0809532	-0.0190838
0.123755	-0.0884705	-0.0958982	0.0579419	0.173971	-0.0138408	-0.073394	-0.0614198	0.0610894	-0.00466985	-0.0460977	0.0837475	-0.0141812	0.117978	-0.0625429	0.154266	0.0360876	-0.0252603	-0.0867267	-0.014694	-0.0895994	-0.0520435	-0.0174989	-0.137106	0.0785935	0.0615433	0.0377296	0.0710143	-0.0521106	-0.0751713	0.10273	-0.0250614
-0.0294893	-0.00828825	0.00766693	-0.0690214	-0.187903	-0.256595	0.154399	0.257419	-0.0364787	-0.244635	0.0257794	-0.100674	-0.109653	0.20253	0.234256	0.197452	0.0484668	0.0693728	-0.00548733	0.0310952	-0.0666767	0.0489535	-0.0601031	0.00899835	0.0940336	-0.233971	0.0292647	0.158994	-0.00404941	-0.150751	-0.281711	-0.240079
0.0654271	0.097291	0.0462305	-0.00744373	0.0475451	-0.0160091	-0.087961	0.00856873	-0.0413305	-0.100597	0.117952	-0.0131695	-0.00621054	0.0333892	-0.100065	0.100562	-0.00989823	-0.0642351	0.00936489	0.103831	-0.0837204	-0.0598119	0.00177845	0.0267633	0.0602726	0.102041	-0.00342125	-0.000728711	0.0201674	-0.0222477	0.00605514	-0.0828478
-0.0295532	-0.0099306	0.130032	0.183263	-0.187171	0.0118209	0.114854	0.123724	0.172243	0.110646	-0.188846	-0.14984	0.205641	-0.158926	-0.147153	-0.0770014	-0.1936	0.14796	0.200042	-0.0644942	0.0939928	0.205815	0.0872893	0.160893	-0.0854266	0.00447966	0.152417	-0.147389	0.225072	0.15977	0.0284825	-0.0167481
-0.0447281	0.172145	-0.0507755	0.0295934	0.0647814	0.120217	-0.199394	-0.133877	0.0771039	0.173727	0.0590755	-0.15468	0.0793514	-0.0858312	-0.146803	-0.0474479	-0.109885	0.0437727	0.0635177	0.082799	-0.131973	-0.120938	0.0940173	-0.0689039	-0.199806	0.12526	0.0111708	0.00205655	0.164496	0.0220962	0.136069	0.127745
0.00422105	0.000462099	0.122957	-0.117623	-0.203264	-0.0728346	0.159945	0.217101	-0.126826	-0.0829424	0.0263585	0.0493399	-0.0761071	-0.117211	0.189465	0.107506	0.0919345	0.201985	-0.0193056	0.189969	0.111429	0.24008	0.011088	0.127851	0.0699752	-0.0984664	-0.166905	-0.0166564	0.0761058	-0.0154892	-0.160665	-0.211541
-0.0590983	0.113542	0.063976	0.137536	-0.0120365	0.0336783	-0.0334773	-0.0788347	0.141579	0.0228767	0.0334868	-0.0807665	0.0537485	-0.00563581	-0.0893818	0.0567965	-0.0596281	-0.0358201	0.117739	0.0721129	-0.0526379	-0.0121157	0.104603	-0.0282618	-0.106462	0.0765558	0.0620748	0.000350085	0.0541629	0.104729	-0.00400667	0.0666186
-0.084953	-0.11686	0.150069	0.210146	-0.165947	0.184874	0.122331	0.0858889	0.252984	-0.00339797	-0.171851	-0.0775195	0.270225	-0.297155	-0.0534738	-0.167613	-0.212925	0.21992	0.197709	-0.214226	0.112664	0.210943	0.197382	0.159753	-0.304964	-0.0734976	0.0384558	-0.20258	0.237599	0.239611	-0.0921625	0.032108
-0.130749	0.136725	0.108085	0.083933	-0.121912	0.0500284	0.086208	0.0439237	0.0587663	-0.0613307	0.093562	-0.123286	0.0787157	-0.0555141	0.0169395	-0.128593	-0.0954146	0.0877532	0.128754	0.181789	-0.0356288	0.0753684	0.170632	0.119012	0.00792509	-0.107902	0.00826391	-0.075151	0.132338	0.135051	-0.113032	0.0324307
0.179905	0.177352	-0.0541097	0.0534638	0.161357	0.0932981	-0.105513	-0.24069	0.187321	0.159676	-0.0264933	-0.0836797	-0.0221004	0.109997	-0.196602	0.0983607	-0.122437	-0.144177	0.0436292	0.0770903	-0.00275691	-0.14844	0.0457442	-0.0377434	0.047753	0.245441	0.123246	0.0409825	-0.037895	0.00808837	0.16333	0.184411
0.0196634	0.0716623	0.0843004	0.055114	-0.129389	-0.0269139	0.066235	0.155707	-0.0121679	-0.104505	-0.0486063	0.0487919	-0.0198485	0.0674442	0.0352166	-0.0520472	0.0252689	0.0179999	0.0407075	0.0253745	-0.0616136	0.0525108	0.0492712	0.120086	0.0859118	-0.145734	0.0726992	-0.132045	0.153748	0.075994	-0.0188268	-0.162333
0.0892227	-0.0367805	-0.164712	-0.0410831	0.0603695	-0.0228313	0.0142385	-0.0996238	-0.0541054	-0.126994	-0.167175	0.0937085	-0.086648	-0.00332899	0.0182597	-0.0174217	0.035687	0.119621	-0.0522967	-0.191338	0.116433	-0.0586835	-0.0937921	-0.155437	-0.129123	-0.0601943	-0.0832799	0.0490826	-0.0809854	-0.034487	-0.0172176	0.0651668
-0.132758	-0.0963246	0.165676	0.0821605	-0.11359	-0.0260537	0.142488	0.183278	0.167012	-0.13227	-0.174638	-0.18686	0.100751	-0.142889	-0.151248	-0.0538736	-0.164905	0.0795823	0.177538	-0.0272518	0.067602	0.181031	0.152925	0.17946	-0.0190579	-0.149203	0.109922	-0.201745	0.147431	0.121575	-0.123267	-0.227511
0.125845	0.0335412	0.119713	-0.104285	0.138309	-0.0150589	-0.134554	-0.141289	0.12874	0.0663702	0.0292597	-0.181349	-0.138458	0.0814086	-0.159903	0.139978	-0.091577	0.0916489	-0.0316479	0.13843	-0.0189286	-0.191263	0.0257523	-0.085025	-0.0794961	0.127868	0.0424279	0.205325	-0.0237551	-0.0893649	0.0571535	0.0543291
0.058669	0.0445778	-0.0781963	0.0578224	0.061261	0.100428	-0.0712492	-0.0948804	0.0560314	0.0650254	-0.0473415	-0.0684466	-0.106967	0.0670737	-0.0711952	0.0510708	-0.0533926	-0.0636278	0.0089031	-0.0851844	0.02415	-0.088219	-0.0452827	-0.0935623	0.0123092	0.08417	-0.0154654	0.0176998	-0.13477	-0.0238251	0.0242564	0.0543947
-0.091088	0.122847	-0.0397154	0.091007	0.080358	0.349222	-0.143292	-0.0949484	0.136539	0.125766	-0.00308808	-0.0112418	0.165374	-0.183598	-0.189001	-0.20348	-0.085113	0.0227528	0.20801	-0.10073	-0.0832926	-0.0906448	0.141348	0.0562622	-0.225985	0.0151421	0.18312	-0.193226	0.014248	0.237364	0.173634	0.272839
0.156661	0.118318	-0.147708	0.123013	0.17824	0.202671	-0.198731	-0.2213	0.187092	0.253553	-0.0134879	-0.10392	0.0284051	0.195444	-0.26929	-0.00702312	-0.100663	-0.267179	0.050643	-0.0254112	-0.0840656	-0.195727	0.0798622	-0.151755	-0.0684609	0.230608	0.127941	0.136244	-0.0259808	0.0244695	0.237609	0.200607
0.0365882	0.00356694	-0.05665	0.122502	0.0335898	0.13696	-0.161814	-0.22664	0.148125	0.0608195	0.0541275	-0.12943	-0.00999041	0.0651946	-0.215117	0.00158795	-0.187655	-0.126365	-0.0340442	0.0711832	-0.243843	-0.197348	0.0137602	-0.0661878	-0.0481788	0.206405	0.120018	0.0243638	-0.050993	-0.0635874	0.190631	0.047673
-0.193541	0.099659	0.159871	0.154085	-0.150325	0.127938	0.11712	0.117659	0.131153	0.00537052	0.0753137	-0.0464533	0.13939	-0.164399	0.130904	-0.237875	-0.181395	0.181589	0.142863	0.00742433	-0.121279	0.174827	0.148735	0.0358087	-0.160779	-0.114157	0.105535	-0.0990149	0.126679	0.182868	-0.112922	0.0594236
0.218809	-0.16528	-0.185208	-0.222385	0.202746	-0.0784107	-0.158534	-0.204378	-0.15777	-0.128495	-0.196593	0.188467	-0.160932	0.19048	0.0403882	0.187902	0.0968632	-0.0362488	-0.162752	-0.208089	0.200834	-0.0368522	-0.187975	-0.188786	0.0949605	0.0963671	-0.120639	0.103411	-0.240475	-0.100412	0.0624648	-0.0697838
0.0141981	-0.134024	-0.129686	-0.161736	0.0242906	0.106385	-0.101224	-0.00227799	-0.101107	0.0512128	-0.116285	0.21103	-0.12434	0.0793417	-0.0251775	-0.0594955	0.17244	-0.0546897	-0.217635	-0.228918	0.0166251	0.00145435	-0.207725	-0.134808	0.16924	0.0269863	-0.0841655	0.096852	-0.127826	-0.165132	0.0842275	-0.0178737
-0.121996	0.0761002	0.135766	0.11773	-0.2537	0.0342351	0.1625	0.186771	0.0122457	-0.0410522	0.149051	-0.0248956	0.103924	-0.191358	0.130032	-0.178074	-0.0480539	0.0658724	0.143888	0.0919309	-0.0525388	0.261775	0.148878	0.153981	-0.125401	-0.317724	0.12473	-0.193967	0.13253	0.115788	-0.139564	0.0410121
-0.0628309	-0.0893521	0.0249722	0.032156	0.0179227	-0.153464	-0.113532	0.0588464	0.00618874	-0.117422	-0.00563357	0.0550932	-0.0246537	0.0372656	0.212089	0.00404963	0.105569	0.0465251	-0.0950064	-0.0365541	0.0222465	-0.0975451	-0.0698802	-0.142106	0.0731519	0.0104786	-0.0271455	0.0366572	-0.0711007	-0.0691854	-0.00694908	-0.131744
0.25148	0.216451	-0.159586	0.0369095	0.13805	0.148031	-0.160873	-0.207969	0.116667	0.270225	0.0411623	-0.106007	-0.183808	0.206184	-0.228066	0.110388	-0.0393237	-0.253588	-0.0981241	0.0821611	-0.100303	-0.260035	-0.0916317	-0.267546	0.175498	0.194682	0.176698	0.248746	-0.235822	-0.175827	0.224158	0.227801
0.0157357	-0.0679451	0.00811103	-0.0812086	-0.0385341	-0.0103328	1.10245e-05	-0.0388197	-0.0512616	-0.0413943	-0.0663512	0.0779863	-0.0253824	-0.00752191	0.0407292	0.017103	-0.0010602	-0.00105507	-0.0529043	-0.0383609	-0.0107729	0.00600524	-0.104242	-0.0168071	0.052801	-0.0264987	-0.0319267	0.0086629	-0.0151935	-0.0778125	-0.0419295	0.000619245
0.00709422	0.183523	0.207834	0.0793416	-0.201823	-0.00977558	0.105712	0.118643	-0.0606041	0.12333	0.190058	-0.0557157	0.042736	-0.137862	0.117423	0.0210968	-0.120504	0.0964921	0.122807	0.200448	-0.0861418	-0.0250249	0.133723	0.150414	-0.034849	-0.129356	0.0875836	-0.0741734	0.140552	0.123558	-0.117616	-0.0147075
0.103395	-0.120044	0.00446909	-0.190803	-0.218848	-0.136028	0.258517	0.2733	-0.202732	-0.145568	-0.149574	0.220022	-0.203809	-0.118386	0.225426	0.0260173	0.157404	0.242691	-0.166941	-0.077524	0.240511	0.265137	-0.143274	-0.0427077	0.262909	-0.159972	-0.2158	-0.00290655	-4.01307e-05	-0.0360208	-0.244894	-0.138815
-0.152769	-0.204069	0.143683	0.102365	-0.112844	-0.357829	0.243025	0.170779	-0.0220788	-0.109958	-0.15785	0.00647806	0.150299	-0.135604	0.3284	-0.168788	-0.0520601	0.174256	0.154935	-0.138539	0.0765001	0.240923	0.0261744	0.175679	-0.0400748	-0.201716	-0.1599	-0.110121	0.105349	0.0611321	-0.354014	-0.305487
-0.137874	0.0644833	0.0537062	0.087613	-0.0847835	0.292216	-0.0117038	0.0949271	0.101965	0.108263	-0.0533685	-0.0870061	0.132354	-0.21485	-0.0370465	-0.223767	-0.10198	0.0608273	0.0788102	-0.0408483	0.128267	0.0107211	0.108631	0.042516	-0.17958	0.0742967	0.192045	-0.153934	0.102026	0.18531	0.115846	0.282323
0.02679	0.209148	-0.0552252	0.0694935	0.016443	0.22653	-0.242411	-0.053068	0.117201	0.222599	0.0712678	-0.114747	0.045486	-0.043347	-0.189832	0.00622755	-0.169957	-0.196658	0.0995145	-0.0576108	0.0340061	-0.0186041	0.059161	-0.0127114	-0.133221	0.259917	0.12679	-0.0831821	0.0280336	0.127064	0.205422	0.218592
-0.0680346	0.13224	-0.158816	0.0294257	0.0926659	0.0753963	-0.225075	-0.144762	0.106234	0.0957073	0.175381	-0.176231	0.135556	0.00789949	-0.126921	-0.0669474	-0.158076	-0.12758	0.158533	0.117092	-0.100624	-0.132886	0.108158	-0.0221335	-0.076078	0.184744	0.113879	-0.0440465	0.0449828	0.144013	0.164768	0.11777
0.0682224	0.00890765	0.00372001	0.0352702	0.1437	0.135569	-0.159137	-0.187373	0.111187	0.00252705	-0.00778757	-0.00637687	-0.0177912	0.0984096	-0.158394	0.127143	-0.0127721	-0.125506	-0.0280368	-0.0812852	-0.0794059	-0.215114	-0.0533157	-0.0468393	0.118683	0.181969	0.0313756	0.0787285	-0.0911264	-0.1003	0.165416	-0.0303928
-0.00132337	-0.219736	-0.214276	-0.108779	0.138522	-0.121418	0.0788299	-0.00495252	-0.19689	-0.0258572	-0.193502	0.237825	-0.206298	0.0970797	0.0592008	-0.0956744	0.250815	0.0255347	-0.205715	-0.177027	0.0838037	0.0230829	-0.265529	-0.0793718	0.185299	-0.0317471	-0.112765	0.107233	-0.236869	-0.205236	-0.00594982	-0.0702097
0.078851	-0.0543366	-0.146972	-0.0769896	0.0716148	-0.110049	-0.104589	-0.11104	-0.146338	0.0156323	-0.113144	0.115197	-0.0597606	0.0913401	0.204282	0.0811704	0.137392	-0.0309065	-0.072267	-0.119002	0.0935641	-0.0988454	-0.051125	-0.14965	0.0846109	0.0425558	-0.132033	0.0239908	-0.046621	-0.0905334	0.149738	-0.0415942
-0.0103599	-0.109667	0.100872	-0.18452	-0.0946903	-0.139148	0.160274	0.154154	-0.111387	-0.190138	-0.120241	0.13662	-0.106194	0.0129223	0.1839	0.119681	0.154996	0.174192	-0.181074	-0.081624	0.175742	0.162182	-0.0783148	0.0285381	0.139323	-0.223277	-0.116437	0.0957145	-0.0448975	-0.11486	-0.206155	-0.222989
0.126976	0.144051	-0.0414973	0.0723066	0.0655621	0.10095	-0.189654	-0.152124	0.0964075	-0.034596	-0.0210451	-0.044618	0.016521	-0.0485153	-0.189295	-0.0406119	-0.0908939	0.0972709	-0.0878133	-0.14459	-0.000592019	-0.0320294	-0.0348687	-0.100392	-0.12178	0.134162	0.134639	0.116164	-0.0339841	0.0692127	0.149609	0.177977
-0.0361673	0.177098	0.155847	0.188018	-0.178138	0.0349269	0.0899149	0.13848	0.14336	-0.0294391	0.116067	-0.189517	0.170174	-0.119211	-0.00612512	-0.172795	-0.179364	0.131481	0.154016	0.124055	-0.0450946	0.142649	0.193763	0.191423	-0.0168846	-0.0479824	0.128931	-0.177342	0.139946	0.197627	-0.0990086	0.0729893
0.0842082	-0.252124	-0.146665	-0.164693	0.0351621	-0.281355	0.0724177	0.0601925	-0.261608	-0.0467961	-0.22052	0.248729	-0.164878	0.0862018	0.266117	0.139728	0.292967	0.1051	-0.220783	-0.267792	0.114724	-0.031046	-0.294823	-0.111581	0.165571	-0.0598643	-0.191031	0.0967113	-0.217276	-0.225277	0.00300583	-0.0512204
0.0312889	-0.216759	-0.0476465	-0.227593	0.0067059	-0.15727	-0.026409	0.0190199	-0.199685	-0.123089	-0.236786	0.243387	-0.244231	0.0221895	0.270807	0.0310081	0.288024	0.15028	-0.266321	-0.221366	0.139296	0.0702295	-0.209404	-0.063812	0.0931249	-0.0790999	-0.222903	0.0582549	-0.17027	-0.229399	-0.0434747	-0.114985
-0.098726	-0.0889388	-0.175081	-0.00714629	0.142795	0.0925602	-0.0733938	-0.128153	-0.0321414	-0.040015	0.0192748	0.0846574	0.0612669	0.0117002	-0.00303012	-0.190454	-0.0177962	-0.0842521	0.058094	-0.0961114	0.0827199	-0.0130036	-0.00706208	0.0129147	-0.0767186	0.0382899	-0.0299078	-0.153335	-0.0358207	0.122762	0.0960398	0.015662
-0.130182	0.109547	0.0797299	0.0687005	-0.138664	-0.057633	0.123248	0.0945751	0.0620877	0.099683	0.00808289	-0.0675715	0.127324	-0.126482	0.151937	-0.0734808	0.0354564	0.0518871	0.0952724	0.0186549	-0.169023	-0.0177883	0.0325125	0.0250097	-0.108696	-0.120631	-0.0473578	-0.0988957	0.111812	0.0748212	-0.0822714	0.0491733
-0.13632	0.209025	0.0145165	0.186924	0.0279655	0.291745	-0.139161	-0.0745388	0.0988515	0.172791	0.214422	-0.186209	0.186956	-0.0736576	-0.336791	-0.133892	-0.169126	-0.0790462	0.185956	0.164389	-0.137468	-0.0128355	0.174111	0.149766	-0.112752	0.152711	0.139662	-0.124851	0.0808814	0.186007	0.247155	0.288915
